float weight_1[] = {0.00016703014, -0.00065077527, 0.0010113594, 0.11702527, 1.7287822, -0.2179842, 0.00015269849, 0.0014580576, -0.0012827879, 0.7986906, -1.233626, 0.01805882, 0.66361713, 0.08227937, -0.0028321166, -0.003366609, -0.00051649957, 0.0009380672, -0.0016214566, 0.000842754, 0.0008775328, 0.7436162, -0.6953611, 0.8775595, -0.0009310662, 0.0037283232, -0.0011650386, -0.0014443299, 0.0006478536, -0.0012314119, 0.00085535203, -0.00025963402, -0.000384151, 0.00023701414, -0.0013445229, -0.0005795356, -0.339666, 0.9205641, 0.46344465, -1.0391968, -0.22880842, 1.4700222, 0.0001386053, -0.0020281035, -0.0012745601, 0.0008225462, 0.00036456116, -0.000113681395, 0.00073764205, 0.00027218624, 0.0006214098, 0.0018349753, -0.0016229228, -0.0017894275, -0.0008910163, 0.0018113815, 0.0005606478, 0.0005745809, -0.0010438568, 0.0009427399, -1.2228479, -0.14175238, -0.04590264, -0.8553636, 0.85761005, -0.13939777, 0.0012917703, 0.0004917743, 0.0014027583, -0.002482227, 0.0031139818, 0.00020942121, -0.0018112856, -0.0014408352, 0.001451472, 0.0020690616, 0.0021054866, -0.0012118515, -0.45252812, -0.62571186, -1.1341118, -0.0002545179, -0.001715434, 0.00066182006, 0.9046771, -0.98403305, -0.30907753, -0.0005614442, -0.0024870993, 0.00046682532, 0.34795007, 0.38236836, -1.1091013, -0.00061376137, 0.004170525, -0.0013107769, 0.2231289, -0.02174653, 0.6333156, -0.13072856, -1.6629407, -1.3439137, -2.4088658e-05, 0.0014143008, 0.00057613506, 0.3929366, 0.24126056, 0.41910714, 0.0007983311, -0.00015861553, -0.0011510872, -0.90763366, -0.1366164, 0.519852, 0.00077563664, -0.0012886144, -0.00088086724, -0.0011929787, 0.0007672793, 0.0011085647};
float bias_1[] = {-0.0089437105, -1.3428484, -0.5035434, 0.4185738, -0.3408389, -0.5081999, -0.08934921, -0.81613487, -0.063736, -0.1837194, -0.017639307, -0.012325187, -0.9420322, -0.0050021377, -0.030453302, -0.14018655, -0.23057036, -0.004329611, -0.33774707, -0.017166127, 0.5297014, 0.13283618, -0.47247586, -0.029824315, -0.031232568, -0.27508318, 0.47273237, -0.54690564, 0.210956, -0.031564984, 0.114153445, -0.040909216, -0.14488177, 0.12729892, -0.040494658, -0.7046657, -0.3522343, 0.5066966, -0.58007324, -0.11104498};
float weight_2[] = {0.0019595185, -0.02915481, -0.0002448319, 0.25514987, 0.021309223, -0.0012565787, -0.0012132641, 1.6513991, 0.0009534145, 0.001899729, 0.001430739, 0.0002521035, 0.0014725149, -3.5044977e-06, 0.0009296366, 0.00012317867, -0.0012758388, -9.576167e-05, 0.002009676, -0.0009231541, -0.00026286513, 0.00025536385, -0.001762476, 0.0001089885, 0.003296048, 0.0038682157, 0.0005795271, 0.00015332655, -0.00013314601, 0.0013183, 0.00024501633, 0.00081481854, 0.017497182, 0.00035676616, 0.00035647157, 8.533892e-05, 0.0001972593, -0.0005468975, -2.6157126e-05, -0.00076218543, -0.0012659206, -0.0022469442, -0.0013293776, -0.0021028388, 0.0014000959, 0.0004857973, -0.00010565901, 2.0710344e-05, 0.00010754459, 0.00040067034, 8.0601545e-05, -0.0007477454, -0.0011802304, -0.0047111358, 0.0010986851, 0.00034290546, -0.0006640518, -0.0003991231, 0.00016612752, -5.2806456e-05, -0.0015843998, -0.0037502204, -0.00034031563, -0.00047523543, -0.0021339427, 0.0010555602, -0.0017894503, -0.00095837034, 0.00014580398, -0.0014011915, -0.0014111674, -0.0017901092, 0.0003600055, -0.0009871878, -0.0005858173, -0.0018713886, 0.0017697518, -0.0013092377, -0.0013163068, 0.0003992382, 0.00047252397, -7.641761e-05, 0.002255305, 0.001730593, -0.0003283962, 0.0011643338, 0.00018207019, -0.0008113757, 0.0021686025, -0.0011179599, 0.0005861586, 0.0002745788, -8.4340165e-05, 0.0015088684, -0.00023943768, -0.00063967286, 0.0005103551, -0.00071117363, -0.0031453203, 0.00081964047, 0.0016348453, 0.0016302263, 0.00025549915, -0.0008044892, 0.00027473987, 0.003927527, -0.0016223306, 0.000333026, 0.001525473, -0.00047120964, 0.0016746566, -0.00055555697, 0.00069737947, 0.00085988385, 0.00072792044, 0.0014671329, -0.00013990502, 0.00020328845, -0.0013975741, 0.0029542653, 0.00049499364, 0.45694673, 8.773745e-05, -0.16493334, 0.09665169, -0.00089359033, 0.00013343379, -0.19435883, -1.4208112e-05, 0.0009780539, -0.0021510816, -0.0024809295, 0.00024495317, -0.044600364, -0.0012523278, -0.0008680887, 0.0008685163, 0.0010285884, 0.0007263493, -0.00044416648, 0.01512205, -0.60381836, -0.00064111606, -0.00063772226, -0.0024922986, -8.54925e-05, -0.8225304, -0.0007670938, -0.47672173, 0.0012013557, 0.0021674868, -0.0009761288, -0.00016549758, -0.0011075776, 0.0024929252, -0.0016952682, -0.00053372816, -0.028431049, -0.0001652721, -0.0010417379, 0.0006531847, 7.8704325e-05, -4.9336697e-05, -0.4773878, -0.000119325065, -0.0004120131, 0.0007937956, -0.0003495965, -0.0024605049, 0.00089765555, -0.0005464781, 0.00076516834, 0.00018973775, 0.5244544, -0.0004629983, 0.0018652205, 0.0006114638, -0.0007968958, -0.000115885225, 0.00019595341, 0.7835549, 0.00013275477, -0.0020261696, 0.0012506358, -0.0019392687, 0.000384424, 0.18725541, 0.0018139078, 9.826031e-05, 0.0019292553, 0.045807913, 0.0010728936, -0.58240825, 1.0755738, -0.00026648806, 0.0015660857, -0.002010651, 0.00026346708, -0.00054818345, -0.0017813524, -0.0006226697, 0.00059328356, 0.00012779317, -0.00060390274, -0.00085330056, -0.0008485015, 0.00022124057, 0.0001226748, 0.0012779398, 5.978113e-05, -0.00012912793, -0.00062754133, 9.100113e-05, -0.0011705006, 0.0006418124, -0.004305644, -0.0012918296, 4.95134e-05, 7.456966e-05, 0.0017149482, 0.0010614729, -0.00018896011, 6.130629e-05, -0.0024743062, -0.0004770524, -0.00018981146, -0.0016074271, 0.0001796385, -0.00013126561, 0.0014397886, 0.00013726763, -0.0017683598, 0.0015694435, -0.00041890593, -0.0010904187, -0.0003539194, -0.0022790828, -8.817448e-05, -0.0008796532, 0.0008204125, -0.0022014685, -0.00078346045, 1.8105784e-05, -0.0003930641, -0.002160298, -0.0008255716, 0.002164106, -0.0025623613, 0.00045964436, -0.0009044076, -0.0007422493, -0.0016222601, -0.0007423608, 0.00093563925, -0.0021567815, -0.0013603377, 0.0011726985, -0.0006024987, -0.0012936611, -0.0006705545, 0.001326942, -0.0010211932, -0.00023680172, 0.0018099641, 0.0014481188, -0.0023546643, 0.0017215612, 0.0007339874, -0.0005073332, -0.0021591247, 0.0006345746, -9.773631e-05, 0.0032969946, 0.001823743, 0.0032979385, -0.0016468652, 0.00025430735, 0.0020050888, -0.0017662987, 0.00024350372, 0.0008808991, 0.00020054204, 0.0006703805, 0.00056030933, 0.0001591699, -0.00028067487, -0.0019344048, -0.00043218624, 0.0018792258, 0.0015267583, 0.0042040264, -0.0020753369, 0.0009945355, -0.0012188433, -0.0005506675, 0.0007017357, -0.00026462268, 0.00059432554, 0.0012235179, -0.0017603429, -0.00039102722, 0.00027246075, 0.0014141954, -0.0042674486, -0.0012943328, -0.00026542693, 0.000750011, 0.0022529936, -0.0013591757, 0.00049818796, -0.000626692, -0.0006333759, -0.00024235365, 0.004248171, -0.0007574537, 0.00030088914, 0.00072058704, 0.0033008899, 0.00017900101, 0.000646612, 0.0014434182, 0.0013043352, 0.0012308031, 0.0008945355, -0.00067137944, -0.0010674113, 0.0012821062, -2.6448724e-05, 0.0004907253, -0.00089145685, 0.0006698977, -0.0009770159, 0.00063170504, 0.0018090947, 0.0006458753, 0.0014955092, -0.0024712253, -0.00139151, -0.0025543943, -0.0010689942, -0.00038358837, 0.0020490142, -0.000918999, -0.0012888226, 0.0010658669, -0.0009112593, 0.00089259, -0.0017218597, 0.0031042146, 0.00022198982, 0.0032999613, 0.002172882, 0.0026184758, -0.0003690155, 0.0007550308, -0.0012683104, 0.0015471418, 0.0010604551, -0.0009378664, 8.9564535e-05, -0.0019326807, 0.00078222546, 0.0015476437, 0.0001787059, 0.0009606506, 0.0008927888, 0.0015420285, -0.0014835254, 0.00070299127, -0.00035779184, -0.003117117, 0.00146522, 0.0045383265, 0.0032973448, 0.0019597725, -0.0007421309, -0.00021525664, -0.001247081, -0.0014914123, 0.0007581379, -0.0003453876, -0.0018272921, 2.0233478e-05, -0.0021578982, -0.00058468396, 4.637637e-06, 0.00023586, -0.00208398, -0.00074973656, -0.00074887223, -0.0009650035, 0.0014393176, 0.00064695795, 0.0019443507, -0.0014351585, -0.00016338748, 0.0003466573, 0.002169855, -0.0028623098, -0.0033211014, -0.0006456232, -5.7270256e-05, 0.0007637879, -0.0022574868, 0.0025081593, 0.00227387, 0.0013450393, -0.0013509549, -0.0021561168, 0.0014661124, 0.0012750013, 0.0011556722, 0.00059197954, 0.0013388016, 0.0014468946, -0.0012265284, -0.0012090601, -0.0031045699, 0.0004874791, -0.0013048968, 0.00061381655, -0.00095544884, 0.0017822665, -0.0024156147, -0.00011990324, 0.000116860494, -0.0015154366, 0.0009479106, -0.0010767765, -0.0042756395, -0.0012705517, -0.0014451088, 0.0006695746, -0.0016172979, 0.00026783836, -0.0018083291, 0.0015203615, -0.0016103851, 0.0033030799, -0.002653973, 0.00035411364, -0.0015117908, -0.0017774735, -0.0012200512, 0.0012758919, 0.0027336709, -0.00082264125, -0.00076307403, 0.0007419853, 0.0005930725, 0.0014495107, -0.0025107171, 0.0028524671, -0.0007534899, 0.0013006938, -0.00025775866, -0.0013335599, 0.0007034923, -0.0013947506, 0.00011981523, -0.00038543483, -0.001039661, -0.0016774168, 0.0006393326, 0.0012896261, 0.0016014967, 0.0013109931, 0.0018651042, -0.0013239979, -0.00053080346, 0.0012449534, -0.0012368092, -8.309691e-05, 0.0004021452, -0.0013223996, 0.0007635831, -0.0017155434, -0.00049493206, 0.0018672817, 1.2888573e-05, -0.00056442374, 0.0031292662, -0.0007503748, 0.0013772818, 0.0026191724, -0.00058309827, 0.00054068054, -0.0033636456, -0.0006702069, 0.00081839954, -0.00075785106, 0.0012543811, -0.00023349273, 0.00091072556, 0.0028593831, 0.0019926322, 0.004746989, 0.00026348705, -0.0031144954, 0.0005755735, 0.0009449808, 0.00047911901, -0.00037786458, -0.0006711587, 0.0007631696, -2.8020702e-05, -0.0047562034, -0.0014232935, 0.0013162887, -0.0021582725, 0.0019675284, 0.0010688296, -0.00012441614, -0.0006974872, 0.0018201893, -0.0012441042, -0.0029046873, 0.0019462482, 0.00045769036, -0.00011725165, 0.0016481722, 0.0007956787, -0.00033594674, 9.357621e-05, -0.00073369103, -0.0001884898, 0.00092471857, 0.002896275, -0.0015482827, -0.0011844048, 0.0017639102, 0.0003439602, -0.00092459697, -0.00058479316, 0.00054538914, -0.00097216456, 0.00037565897, -5.5492565e-06, 0.000625978, -0.0001212651, -0.00036271644, 0.001250103, 0.0009008351, -0.0003805191, 0.0006285737, -0.0001613528, 0.0024762806, 0.0012786492, 0.0017360824, -0.0011141961, -0.0036958586, 0.0005080791, -0.00035240044, -0.00063142274, 0.0011078124, 0.000780849, 0.0009439842, 0.0016343895, 0.00023593695, 0.0012847446, 0.0021569515, -0.0012774863, 0.00040688482, 0.0025540823, -0.0012989956, 0.0006397923, -0.0004593901, -0.002244445, 0.0024725664, -0.00051097455, 0.0018101368, -0.004267428, -0.0012835453, 0.002475855, 0.0008785789, 0.00324667, 0.002853634, -0.0007291341, -0.0019413013, -8.646946e-05, -0.00033936882, -8.722319e-05, -0.00016759388, -0.0004467551, 0.0011131284, -0.0007848159, -0.0006276766, -0.0013704295, 0.0004434446, 0.0012853856, -0.0007654511, -0.0023045968, -0.00089097273, -0.000748482, 0.0006347379, -0.0018168405, 0.0010438781, -0.00073429686, 0.0001992326, 0.00037897367, -0.0011314471, -0.020090802, -0.0003318814, 0.3234773, -0.001068397, -0.00059558323, -0.0017307892, 0.05489302, 0.0006642018, -0.00014899473, 0.00053029263, 0.0023393587, -0.0018850428, -1.1519284, -0.0021569163, -0.002454171, -0.0012282981, -0.0018003115, 0.0041799108, -0.000133244, 0.47001824, -0.44176883, -0.0015894803, 0.00048485602, -0.00030074036, 0.0038551616, 0.119508766, 0.0025215065, -0.6354153, -0.0010893145, -0.13500836, -0.0023887777, 0.028188057, -0.57715243, -0.00046686293, 0.35309833, 0.0027515218, -0.8950086, -0.0010024054, 0.0013934651, -0.00047630072, -0.0391184, 0.004608188, 0.008277742, -8.190103e-05, -1.9883155e-05, -0.0012999071, -0.0019196632, 0.0022311003, -0.00068997726, 0.00034575164, 0.0011893613, -0.00013831849, -0.26078713, 0.00032608258, -0.0011814781, 0.0002590476, 0.0012103328, 0.00032676372, -2.9304181e-05, 0.11274459, 0.3783284, 0.00094663876, -0.000608236, 0.0009989598, 0.00014951477, -0.008407645, -0.000800801, -1.1399074, 0.00048151566, 0.21625753, 0.00052915764, -0.13498405, 0.0017810896, 0.0026596666, -0.39566335, -0.00080234004, -0.27255082, -0.00020698417, 0.0008259671, -0.0016966348, -0.0025659176, -0.00017446117, 0.00087181776, 0.001837442, 0.0013810403, 0.00019960516, 0.0006123371, -0.001920014, -0.0006657311, 0.00010012195, -0.0009768446, 0.001920604, -0.00070102484, 0.000761422, 0.0016672029, 0.000681663, -0.0012818801, -0.00056148553, -0.0006690569, 0.00078102044, 0.00087235303, 0.0010982307, -0.000121733, -0.00025174444, -0.0023978539, 0.0010684788, -7.921294e-05, -0.0008095363, -0.002439188, 0.00019960519, -0.00046127843, -0.0014730599, -0.00054478575, -0.00091392425, 0.003289546, 0.0017655855, -0.0013233153, 0.00066115, -0.0010441397, -0.0014243647, 8.586854e-05, 0.0020051845, 0.8000827, 0.004198789, 0.00056138466, -0.0019974133, -0.0017726115, -0.0037708685, -0.001015742, 0.0010799352, 0.0010345828, 0.0008772989, -0.05740246, -0.002473556, 0.00019792063, 0.0018366039, -0.001556591, 0.0024644793, 0.00018167768, 0.16435139, 0.08935936, 0.0016110026, -0.0002731178, 0.00078454474, 0.0010048185, 0.46066648, -0.001834674, -9.6555705e-06, 0.0012957887, 0.7778314, -0.00020110287, -0.29916683, 0.3419876, -0.00010640564, 0.00040384784, 0.0021470424, -0.056117207, -0.0008581816, -0.00069588365, -0.0008507779, 0.0014559694, -0.0034947987, -0.0006858081, 0.0010660867, 0.003059701, -0.0007533083, 0.00048342475, 0.00030212966, 0.0006348663, -0.0006971909, -0.00025325757, 0.0007917599, -0.0012828179, -0.0013285326, -0.0008189597, -0.00032580685, 0.0014525211, -0.0006553872, 1.9586048e-05, 0.0040351786, 0.0011504845, 0.00087700586, -0.0012938384, -0.0021593529, -0.0012490985, -0.0014481917, -0.00080013426, -0.0009527994, 0.0018058178, 0.0018989342, -0.00043077755, -0.0018079804, 0.0014340077, 0.0008762124, -0.0010523656, 0.002375555, 0.0027482766, -0.0024759462, 0.0009862132, -0.00052654196, -0.0007385083, -0.0022211715, 0.0007350666, -0.00072909053, -0.0017140527, 0.0024778526, 0.00023828563, 0.0016849517, 0.00273848, 0.00048070104, 0.00207502, 0.0024264995, 0.00063570647, -0.0017842803, -0.00011845163, 0.00038736258, 0.0007892816, 0.002276855, -0.00040043786, 0.0014265059, -0.0015168139, 0.0046561356, 0.00044066238, -0.0009878381, 0.0008707453, 0.00050673663, 0.0014570535, -0.0013485737, 0.001343344, -0.0030193108, 0.0011285874, -0.0007800753, -0.0010069124, -0.004376678, -0.0011566064, 0.0005465897, -0.00027957052, -0.00038409448, 0.00025137514, 0.00022030395, 0.0008886555, 0.0018283633, -0.43094552, -0.4477258, 0.00066153205, -0.0024832664, 0.0012417696, -0.00096288405, 0.0031013289, 0.00069679966, 0.00014501333, 0.00048803788, -0.09058153, 0.003310415, 0.00087731006, 0.0018009356, -0.0022119211, -0.0007028879, 0.00035427566, 0.0020922776, 0.033374157, 0.0044141794, -0.0006517239, -0.0005013648, -5.309272e-05, 0.025305046, -0.0009819844, 0.009991243, 0.0013059966, -2.8561553e-06, 0.0011391673, -0.8309404, 0.00037934672, 0.00086759374, -0.0009683861, -0.00041542365, 0.00024075311, -0.0032914304, -0.0011462657, 0.0004779146, 0.0012687015, -0.001985467, -0.0011837523, -0.0013005986, -0.00089548697, -0.0011153391, -0.00021890947, -0.0019448897, -0.0021097986, 0.00014987757, -0.0010690833, 0.0012971788, -0.0005968678, 0.001299982, 0.00022548524, 0.001439081, 0.004273926, -0.00066515076, 0.0012935714, -0.000573313, 0.0024779192, 5.120077e-05, -0.00091700477, -0.0014191035, 0.0010861052, 0.00066445017, 0.0012270494, 0.0025915508, 0.00024114153, -0.000497943, -0.0006984164, -0.0024724454, 0.003296997, -0.0006564922, -0.0031111767, -0.00029363696, -0.00089391595, -0.0003654271, 0.0005358943, -0.0016265835, -2.949704, 0.0007338205, 0.23533425, 0.19636303, 0.0012986988, -0.002144069, 0.20350406, 0.0014118114, -0.00017359498, -0.0010437858, -0.0042833453, -0.33641315, -0.8248826, 0.00079831417, 0.0011223147, 0.00026662648, -0.00040060485, 0.00011565705, -0.00017867553, 0.014003736, -0.098612666, -0.0010832166, 0.0005699893, -0.00096639927, 0.0013577932, -0.060537048, -7.334305e-05, -0.26334283, -0.0006063863, -0.1874483, 0.0006897237, 0.031811785, -0.00014764369, 0.0011187127, -0.003190182, -0.00030475535, -0.55910087, -0.0006965133, 0.0010637942, -0.0019723976, 0.0003223594, -4.5406458e-05, 0.00077685784, -0.00071860943, 0.00018811261, -0.000701212, 0.0017579991, -0.0012021253, -0.00027562224, 0.0019819038, 0.0013921913, -0.00086750824, 0.0010008195, 0.00078717683, -0.0009500346, -0.00067041867, 0.00042931805, 0.002168718, 0.00068514014, 0.0007567562, -0.00147832, -0.0010287752, -0.0018480801, 0.0020100593, 0.00015438732, -0.00052612193, -0.0017975854, 0.0016334009, -0.0014811493, 0.0019364972, 0.00039983596, -0.0007972127, -0.0006017169, 0.00056771573, 0.0010174413, 6.1000697e-05, 0.0009023841, -0.0033012638, -0.0019506846, -0.000741352, -0.21202491, 0.0009663474, 0.45669833, 0.4230004, -0.000501188, 0.0013029109, 0.16227879, 0.00021494593, 0.0005366771, 0.00068865996, -0.0001392751, -0.008559037, 0.31445226, -0.0018433332, -0.0013201712, 0.00047632074, 0.0007195224, -0.001288283, -0.0007234365, 0.30647573, -0.023779308, -0.0007168157, -0.002374425, 0.00029947422, 0.0017410894, -0.0014192367, -0.0006210025, -0.002291756, -0.0002675679, -0.0035120212, -5.8754318e-05, 0.09714405, -0.0049723284, -0.00050864904, -5.3781685e-05, 0.0012613912, 0.0010473302, -0.0012184207, -0.00096374546, 0.0020101068, -0.0024088672, 0.0006934268, 0.0019757177, 0.0012429245, -0.0015113811, 0.0002734879, -0.001326876, 0.0006692046, -0.00043453617, 0.00247254, -0.0004905395, 0.00048331078, -0.00097521034, 0.0003648497, 0.0027972627, 0.001944072, 0.0014669916, -0.00050620286, 0.0007343225, 0.00012842851, 0.0009773257, -0.00036036485, 0.0007221679, -0.0004161921, 0.0012085983, 0.0032966654, 0.0009847512, -0.0008187197, 0.001069603, -0.0006167292, 0.0031141154, 0.000121508085, -0.0008763803, 0.000722329, 0.0012891111, 0.0002984287, 0.0031117038, -9.125483e-05, -0.00086763484, -0.0021545175, -0.0008783911, 0.0009395036, 0.0013814548, -0.00036267657, -0.00034144963, 0.0008960236, -0.0022207655, -0.0006752719, -0.0015316347, -0.0008261764, -0.0013000979, 0.0028901952, 0.0012180437, 5.1461393e-07, -0.0014343336, 0.0015781932, -0.004172298, -0.0006495379, -0.0017112055, 0.00022622748, -0.0018733131, -0.0015064834, -0.00073846395, 0.0011221981, -0.0011659189, -0.002430184, 0.00019972469, 0.0017272974, 0.0006606944, 0.0013103646, -0.0020136533, -0.0014354697, 0.0021592972, -0.00075892487, 8.414594e-06, -1.956863e-05, -0.001034714, -0.00095834373, -0.00012928812, 0.0017405231, 0.0004053354, -0.00073921477, 0.00016654207, -0.0005591866, -0.0017671366, -0.0010586876, 0.000251018, 0.001840435, -4.9983675e-05, -0.0007534373, 0.0011641482, -0.0010341852, 0.0009688775, -0.0027890657, 0.0021872462, 0.0016312399, 0.00027297816, 0.0015207058, 0.0010952412, 0.0014132163, 0.0012656392, 0.00091372617, -9.267194e-05, 0.0033506951, 0.0019135289, -0.0013542924, -0.0017539328, 0.0011324796, 0.0006954648, -0.000448715, -0.00031446968, 0.0030308226, 0.0005994685, 0.0029495829, -0.0023507923, -0.0013467926, 0.00017302728, -0.0012527034, -0.0001064642, 0.0021455884, 1.5731952, -6.9078145e-05, 0.0032366575, 0.091761984, 0.0009760819, 0.0015278773, 1.0916265, -0.0006144145, -0.0015028587, -0.0008726267, -0.000572635, -0.0013908568, 0.110575974, -0.001912868, -0.0010094497, 0.0027375193, 2.6458933e-05, 0.0010699476, -0.0010263135, 0.49083555, 0.42920238, -0.0016862926, -0.00025359425, 0.0018078854, -0.002207438, -0.018020099, 0.00050052075, 0.0006284594, 0.0021472059, -0.21227287, 0.0012992602, 0.04429586, 0.0013358183, 0.00040342938, 0.0010910789, -0.000709909, -0.023494083, 0.00065948063, -0.0009143832, -0.0006489141, -0.00069145084, -0.000633657, -0.0007634213, -0.00024965045, -0.0011021611, 0.00019229954, 0.00049613183, -0.001023027, 0.0016194764, -0.002150852, -8.333742e-05, -3.5134202e-05, 0.0012425298, -0.002457684, -0.00019215891, -0.0004683925, 0.002181648, 0.00061729795, 0.0005917581, 0.0018787511, -0.00077000284, 0.0002668117, -0.0006744244, -0.0016946862, -0.0023834237, -0.00028692978, -0.0010973436, 0.002361475, -0.0021366004, 0.0012505511, -0.00052121765, 0.00057627284, -0.0017560858, -0.00086483493, -0.0025253063, 0.0046276636, 0.0007482731, 0.0006182263, 0.0016386695, 0.0026112194, 0.00012088724, -0.0018093856, -0.00018703053, 0.0013414889, -0.00023587304, -3.665313e-05, 0.0009887099, 0.0001542184, 0.0013369335, 0.0012654176, -0.0013910143, 0.0022615572, 0.0011354671, 0.0014248332, -0.0018247213, 0.00013180182, -0.0016740486, 0.00018789433, 0.00054963754, 0.0027660134, 0.0009750104, -0.00035718945, -0.00019721722, 0.0013384813, 0.00053040567, 0.0039250115, 0.0014793286, 0.0004826652, 0.0009673472, 1.6518083e-05, 0.00021207333, -0.00059366634, -0.00077149994, 6.4883265e-05, 0.00010719878, -0.00046794326, -0.0002190508, 0.0022609779, 0.0009614798, -0.00077815074, 0.0004022594, 0.00026937056, -0.0012968413, 0.003753895, 0.001900918, 0.00037079595, 0.0011429605, 0.00046007743, 0.0024425923, -0.00019136374, -0.0019947607, -0.000682245, 0.0013239466, -0.0009590555, -0.0004589908, 1.8849969e-06, -0.0019399349, 0.00025557587, -0.00079008966, -0.0011203694, 0.00033324963, -0.0009936997, -0.0015156248, 0.0018003276, -0.0012622222, 0.0003546945, 0.0001847872, 0.0026122048, -0.00076714874, -0.0016341056, -0.0016751899, -0.00052849634, -0.00094487827, -0.0061282273, -0.00040241773, -0.00041468386, 0.0006912942, 0.0007338745, 0.00045052537, -0.0021988917, -0.0016150401, 0.00085001497, 0.0015553752, -0.00014758855, 0.002197327, 0.0009756301, 0.00080514414, -0.0014648293, -0.00035629983, -0.0001290518, -0.0017206188, 0.0041082217, -0.00034771793, -0.0007466859, -0.0010621664, -0.00030997687, -0.00044408313, 0.001131995, -0.00071379624, 0.00087812165, 0.00016668194, -0.0013244746, 0.00056445436, -0.0010359201, -0.0002315105, -0.0013481001, -0.00035485232, -4.4354034e-05, 0.001230958, 0.00047293858, 0.00095578766, 0.00015710117, -0.00021635869, 0.0020850205, 4.9242197e-05, -0.0013322621, -9.2610135e-05, 0.0024201174, 0.0018946736, -0.0013167063, -0.004463493, 0.0010720135, -0.0018413657, 0.00061040174, -0.0016843127, 0.00018551992, -0.000106494175, 0.0016023237, -0.00022182649, -0.001992567, -0.0018220211, -0.0002686498, 0.0003689626, 0.0013980996, -0.0016476258, 0.0025812085, -0.0005578832, 0.0013179056, -0.0037407773, -0.0030747661, 0.001491214, -0.000121979676, -0.0017940248, -0.00077179546, 0.0014738631, -0.0012649986, 0.00033460773, 0.0023938566, 0.00078960485, 0.0012510312, 0.0013951411, -0.0012646876, -0.0005736772, 0.0039874325, -0.0016272797, 0.00065307855, -0.003040587, 0.0023218198, 0.0026033027, -0.0010541119, 0.00013613887, -0.00060364406, 0.00019990845, -0.00096467236, -0.002229778, -0.0010249693, 0.000760247, 0.0024760086, -0.0015460511, -0.00040751384, -0.0024133914, -0.00061767775, 0.0022582607, 0.001721914, -0.0024825553, 0.0006673631, 0.00070939923, -0.0010345787, 0.0016301962, 0.0019242713, -0.0004305832, -0.000702314, 0.00025970986, 8.639059e-05, 0.0014127723, 0.00043379533, 0.0010413673, -0.0008254773, 0.0012807895, 0.0016024605, 0.0020994747, 0.0014603619, -0.0006530155, -0.0013165002, -0.00013011188, 7.736124e-05, -0.0015292708, -0.002472137, -0.0005424877, -0.0011946899, 9.987538e-05, 0.0005108182, -0.0012458316, -0.00078340666, -0.0005626518, 0.00090821687, -0.00090024306, 0.0010741893, -0.0020449224, -0.0006729867, 0.000871323, 8.239655e-05, 0.003300767, 2.6055612e-05, 0.002051829, -2.961731e-05, 0.0010739723, -0.0010051894, 0.00047908386, 0.0022014745, -0.0005201967, -0.0008858557, 0.0012003786, 0.0018098719, -0.0019491486, 0.0016283407, 0.001347116, 0.0015932624, -9.693025e-05, 0.0014926179, 0.0031102933, 0.0019921775, -0.0016527202, 0.0006231217, 0.0031148596, -0.0008403932, 0.0007407876, -0.0008783808, -0.0007510573, -8.466665e-05, -0.0031717112, 0.0009783194, -0.0015765401, -0.0002908808, 0.00096118916, -0.0014466487, -0.0011750942, 0.00068402657, -0.0014632143, 0.0016603249, -0.00074154173, -0.0015373208, 0.0015736835, -0.0015613021, -0.00086765137, 0.0006471927, -7.8334124e-05, -0.00018578314, 0.0005881393, -0.00026347852, -0.0017929336, -0.0015047735, -0.0013242041, -0.0028496266, -0.0021583242, 8.853749e-05, -0.0008660364, 0.0029455544, 0.0033065397, -0.0007454559, -0.0010265744, -0.0010066165, 0.00062103313, 0.0003156521, 0.0014869559, 5.659263e-05, 0.0012727415, -0.0015746433, 0.00054953824, -0.00011937163, -0.33622047, 0.0019654701, 0.39673728, -0.0014607267, -0.0011042, -0.0012934863, -0.16579911, 0.0018080183, -0.0012563233, -0.0005061516, -0.00011458999, -8.717815e-05, -0.47604045, 0.0008805759, 0.0032766159, -0.002539736, -0.0024186433, 0.0005708046, -9.818244e-05, -6.279058e-05, -0.054066066, -0.0018447862, 0.0012924771, 0.00059186737, -0.000405091, -0.6100118, 6.5643253e-06, -1.5292007e-06, -0.0021520772, -0.08554871, 0.00012123567, -0.03350515, -0.66780335, -0.0014216456, -0.7229216, -0.0003902989, 0.12903403, -0.000118764874, -0.0004921218, -0.0006383403, -0.0019166769, -0.001815619, -0.0011727453, 0.0012011849, 0.00093903625, -0.0013339091, 0.0005986574, -0.0031320117, -0.0017456108, 0.0011283612, 3.5347854e-05, -0.0008905714, -0.0002098945, 0.0010691086, 0.0008057754, -0.0001675736, 0.0009955317, -0.00010255922, -0.0025778112, 0.0004885413, -0.00415254, 0.0009292191, 0.0013194712, -0.00064854504, 0.0011420845, -0.00034630566, 0.0010725914, -0.00072640425, 0.0008820756, 0.0006446996, -0.00027051574, -0.00056810654, -0.0006697725, 0.0008970518, -0.0012245623, -3.960356e-05, 0.00074882293, -8.602135e-05, 0.0014899174};
float bias_2[] = {-0.19972384, -0.14856878, -0.108351834, 0.3438347, -0.13074683, -0.005640324, -0.019762047, -0.02480532, -0.00834881, -0.045009024, -0.006930763, -0.18433414, -0.10265762, -0.011562547, -0.13400833, 0.2942208, 0.20445721, -0.0047489107, -0.032770306, -0.021275818, -0.08125076, 0.48809966, -0.06539917, 0.16745894, -0.0168712, -0.25511637, -0.032286953, -0.14179896, -0.09786506, -0.29010633, -0.21792325, -0.11187203, -0.07845418, -0.0032852946, -0.15444672, -0.007813081, -0.058017377, -0.007772029, 0.24708095, -0.011163913};
float weight_3[] = {-1.0931115, -0.001003511, 0.00010307983, 1.2443026, -1.1832995, 0.0012898978, -0.0031120274, -0.0010251728, -0.00077536784, 0.00066547666, -0.0016494712, -0.0012833555, 0.00046032935, 0.0005329996, -0.004276136, 0.030396307, 0.61014473, -0.0018075096, 0.5215559, -0.0033649332, 0.0005541863, -0.51719403, 0.0008871578, 0.25189424, -2.7382157e-06, -0.5310571, 0.0021557233, -0.0010481118, -0.00012717582, 0.38212895, -0.00080121885, 0.0005720426, 0.00013015998, 0.00035895547, -0.0015981864, -0.00040292478, -0.0013019752, -0.00011625633, 0.6838265, 0.0019614522, 0.35642388, -0.0009474779, 0.0005047446, 0.052818842, -0.5765569, -0.00059972296, 0.0012928748, -0.0019464745, 0.0015583531, -0.0022718708, 0.00075738237, -0.0010659663, 0.0019376528, 0.0023898103, -0.0024651522, 1.5217484, 0.48759377, 0.0006506703, -0.26736164, -0.0025241128, -0.0024065117, 0.69121486, -8.29912e-05, -0.0027838654, -0.00021566346, -0.108970255, 0.0013793841, -0.00427932, 0.0007886505, 1.0680939, 4.4484623e-06, 0.0006794099, 0.0017812189, 0.0013173202, -0.0007755062, -0.00029963773, 0.001833351, -0.001194386, -0.03487441, -0.002532791, 0.115317464, -0.0005733443, -0.00051500835, -0.080484256, -0.31101584, 2.5691254e-05, -0.00058594416, -0.0023801955, 4.266853e-05, 0.0005116309, 0.0006556177, -0.0024721297, 0.00075692043, -0.0011415253, 3.516348e-05, 0.13825099, -0.7825512, 0.0002556506, -0.8032279, -0.0004443751, 0.0016799736, 0.018715354, -0.0021590244, -2.5543895, -0.0019899206, 0.5518487, -0.0013320544, -5.1325653e-05, -0.0013680861, 0.98655313, 0.00015421695, -0.00087018934, -0.0011972876, 0.0012619207, -0.00037970027, 0.0013192443, 0.00047148752, 4.8540533e-05, 0.84187216, 0.0012728784};
float bias_3[] = {0.25421447, 0.2620054, 0.64699477};