float weight_1[] = {-1.5104692, 0.50981426, -0.021685312, -1.0174189, 1.0944619, 2.18506e-05, 0.000804195, -0.0022229408, -0.00045412447, 0.0006925967, 0.00057862693, -0.00064250623, 0.5140074, -0.6637422, -0.09289102, 0.0006023831, -0.00052130123, -0.0016310087, -0.0012231413, -0.00018162039, -0.0031560694, -0.6331857, -0.06803211, 4.4813794e-05, 0.0021611727, -0.001397389, 0.0025945748, 1.6277988, -0.4497593, 0.06350673, 0.5767631, 0.11617538, 0.06982073, 0.32749784, 0.86284375, -0.37886786, 0.0013023781, 0.00015505153, 0.0013300725, -0.734665, -1.3746237, 0.06691826, 6.4797874e-05, -0.0013825623, -0.00020199094, -0.11030738, -0.013915297, 1.3908311, -0.22686163, -0.09285116, -0.69783676, -0.00033929432, -0.0017177769, 0.0004624396, -6.614067e-05, -0.0019519972, 0.0017665975, 0.00070054515, -0.0031791585, 0.0010715834, 0.00087782764, 0.000587378, -0.00019138012, 0.34640932, -0.5410004, 0.5761284, 0.18562001, -0.42059952, 0.66423887, 0.00057738484, -0.0001247332, -0.0006758606, -0.0017814521, -0.0011254066, 0.0007706174, 0.03122546, -4.161679e-05, 1.0500811, -0.0008951801, 0.00042371196, 0.0007503544, -0.0012821474, 0.00037009537, 0.0013250055, 3.1897158e-05, 0.001450493, -0.0003308823, 0.0010196874, 0.00069846294, 0.0018210417, 0.00429872, 0.0018187673, -0.0012861906, 0.0017013127, 0.3597081, 5.663826e-05, -0.0011936714, -0.0014949527, 0.00064322376, -0.16769315, -1.7042191, -1.4004717, 0.0004291496, 0.0010421008, -0.00012776471, -0.0012871772, 0.00051355927, 0.000520841, 0.0011878, 0.00073572295, -0.00062832225, -0.0011254284, -0.00021815009, 0.0015659028, 0.00048487936, -0.00026969105, 0.0015209732, 0.00073469494, 0.000898752, -0.0034191902};
float bias_1[] = {0.33183035, -0.17097569, -0.36336356, -0.0030536102, 0.2427165, -0.30753505, -0.01201863, 0.28111416, -0.012623249, -1.2510084, -0.46909884, -0.0032615655, -0.054402404, 0.2783319, -0.4182386, -0.01827772, 0.23410815, -0.49913612, -0.542887, -0.067995906, -0.015456396, 0.04654654, -0.018362498, -0.17003638, -0.0033899073, -0.62254775, -0.003000461, -0.0077377507, -0.0046350374, -0.45761934, -0.14357698, -0.14981794, -0.0046569174, 0.11852492, -0.062253688, -0.056010447, -0.34319156, -0.05089714, -0.27592197, -0.5213512};
float weight_2[] = {-0.7314168, -0.10184353, 0.0008692199, 0.0010180589, -0.038555842, -0.0028334078, -0.000620849, 0.00078978675, -0.00066754495, -1.5945182, -0.06202641, 0.0075292625, -0.0006347335, -0.22799362, 0.00062700635, -0.009165677, -0.3141631, 3.4882687e-05, -0.0019090835, 0.0010212425, -0.0010537999, 3.9276187e-05, -0.0066969753, 0.0014829554, 0.00076997466, 0.22252156, -0.00091462885, -0.00087848556, -0.00012543428, 0.0009654845, -0.0018070391, -0.0036773733, 0.00013648625, 0.033992097, 0.0024752417, 0.00038729643, 0.00021791377, 0.000647131, -0.0013010005, -0.0003762825, 0.00041231484, -0.001144928, -0.0011538402, -0.00049739913, -0.0034752043, 0.002676561, -0.00070376036, -0.0012658031, 0.002136021, 3.7672464e-05, 0.0004560497, -0.0021062498, 0.00016114884, -3.371881e-05, -0.00056864537, -0.0005725335, -0.00023216009, -0.00092041725, 0.001489724, 0.0009751862, -0.002657134, 0.00050624367, 0.00010062268, -0.0004562314, -0.00074256875, -9.336934e-05, 6.909791e-05, 0.0006480074, 0.0008024812, 0.000798574, -0.00034079517, -0.0007134369, -0.0004942331, 0.00055116863, -0.0013049291, -0.0008155593, 0.001362999, 0.0012175428, -0.0018119145, 0.0020354213, -0.15208925, 0.08469951, 0.00075379224, -0.0021938817, -0.30383042, -0.002300315, -0.0017474443, 0.24190737, 0.00075264566, 0.0003759078, 0.44410363, 0.25484285, 0.0013346609, -0.49684465, -0.0009085328, 0.004551832, 0.07084629, 0.00072493276, 0.0021860655, 0.0031280615, -0.0013130367, -0.31612912, -0.12860173, 4.242477e-05, -0.00047226946, 0.5095032, -0.0013465479, 0.000119865, -9.867246e-05, 0.0015864221, 0.0014973636, 0.07570914, -0.0027275442, -0.035425108, -0.0005859049, -0.00022415142, -4.598205e-05, -0.00026005777, -0.0007012807, 0.0011236967, 0.0018902963, -0.00010495627, -0.0013427777, -0.0001366866, 0.00077743485, 6.3864194e-05, -0.0011434346, -0.0013561558, -0.0006989202, -0.00032110317, -0.0006911433, -0.0017850843, -0.0005787026, 0.0002154648, -0.000295438, 0.00064393843, 0.0014317947, -0.0041134777, -0.0011755892, -0.00059746497, 0.0016292119, -0.0028650106, 0.0020588515, 0.0010770079, 0.0024468296, 2.9182927e-05, 0.00022281578, 2.8930459e-05, -0.00038375054, 0.0010837496, 0.003930296, 0.00029230653, 0.0023491653, -0.001472641, -8.8358065e-05, -0.0012656299, 0.003921698, -0.00048926077, 0.0009061287, -0.0015573389, -0.0016385309, 0.0005652655, 0.0001109764, 0.00073235534, 0.00052818784, -0.0008958463, -0.00089010777, -9.7030366e-05, -0.0014527414, 0.0006003485, -0.0010856646, -0.0014112594, 0.0016759688, 0.00032668875, 0.0008890931, 0.00088532513, -0.0007282329, -0.00062491535, -0.00072604005, 0.0012249964, 0.0003049418, -0.00075545564, 0.0005986875, -0.001963214, 0.0004697335, 0.00032198877, 0.00093263976, -0.0012269749, 0.00087102776, 0.00014618889, 0.0029568472, 2.0332518e-06, -0.0004911212, 0.0019277061, 0.00047317287, -0.00086386944, 0.0014447008, 0.00083686213, 0.003704493, 0.0037645702, -0.0023416262, 0.002334583, 0.00062817754, 0.0010915506, 0.00082892814, 0.00031517923, -0.00037375116, 0.0016760669, 0.0008782127, -0.00074327784, 0.00026772037, -0.0025422047, -0.0010310094, 0.0018539949, 0.0014822282, 0.0008850121, -0.001088362, -0.0017577447, -0.0006611368, 0.0007573634, 0.00088977924, 0.0012155551, 0.0015136765, -0.00063680095, -0.0016830876, 5.57663e-05, 0.00031651452, -0.0013005005, -0.0013422896, -0.001281085, 0.0012961938, 0.0009794364, -0.00059525034, -0.0016838093, -0.00047375623, -0.002560861, 0.0011206197, -0.0006836037, -0.0019595285, 0.0009849548, -9.0938905e-05, 0.0007941423, -0.00090433424, 0.00067096803, -0.0011589676, -0.0007025268, 0.00018264912, 0.000506826, -0.0009757395, 6.9241156e-05, -0.00016251359, 0.0012949187, 0.00077512185, -0.00060412794, 0.00064421864, -3.2941927e-05, -0.0012241409, -0.0009351247, -3.1789605e-05, 0.00022063265, -4.590278e-05, -0.0012115205, -0.0013310355, 0.0007503686, -0.0010142272, -0.00037678878, -0.00053552625, -5.848147e-05, 0.00079545076, -0.0038653417, -0.003979264, 0.0008383876, 0.00051846076, 0.0025306172, 0.00017237407, 0.00076890533, 0.000496259, -0.001218905, -0.00241201, -0.0011429418, -0.0009204172, 0.0004613864, 0.0016791117, -0.00019773917, -0.0005118441, 0.00022738514, 0.0021358596, -0.0005219822, 0.0007933127, 0.00244152, -0.00012761273, -0.0005867435, -0.0012773557, 0.00044951623, -0.00014436222, -0.0014464939, -0.000871373, -0.00095766794, -0.0012295212, 0.0034605972, 0.0010555768, 0.00037071144, 0.0011487245, -0.0010876664, 0.00087457866, -0.00049538363, 0.00064710615, -0.0014744645, 0.00046200107, -0.0026806998, -0.0001638959, -0.0007571494, -0.0011369187, -0.00090906594, 0.00036323856, 0.00013201695, 0.0011363016, 0.0014987128, -0.00025464589, -0.001177144, 0.0009202083, 6.092305e-05, 0.00015617709, -0.0004544336, 0.0013310623, 0.001382545, -0.0008532892, 0.0006649264, 0.0014164937, 0.0012348248, -0.00094240607, 0.0008156408, -0.0028238157, -0.0021777907, -0.0018761224, 0.00025571726, 0.002455613, 0.0008982882, 7.282983e-05, -0.0003341618, 0.0005145238, 0.0002661231, -0.0005585637, 0.000805554, -0.00028928422, 0.002559706, 0.00058092707, 0.00044226623, 0.0005627969, 0.00073440553, 0.0018753329, -0.00072683085, -0.0016540317, 0.00011813379, -0.0008374162, -0.00056393025, 0.0002177647, 0.0011032949, -0.0007597441, -0.00029484183, 0.2534432, 0.4475575, -0.00029780949, 0.0008343474, -0.19405518, 0.0013016127, 0.000109679066, 0.5263864, 0.00023554452, -0.00063688325, 0.000781697, -0.7952623, 0.00085597386, 0.10291116, 0.0026761973, 0.00019120766, -0.0016441144, 0.001696918, -0.00059889525, -0.00058548484, 0.0023919856, 0.00033913896, 0.0014868882, -0.0011718493, 0.0011601062, 0.0003609137, -0.002056219, -0.00075836026, -0.00012628135, 0.0014421277, 0.0020375922, 0.00013376088, 0.0013783601, -6.376084e-05, 0.00091141916, -0.0008504071, 0.0014302041, -0.000639229, 0.0017678973, 0.0020266632, 0.0011368658, 0.00028397236, -0.0018789861, 0.0010722312, -0.0006012066, -0.00022788212, 0.0032965918, 0.00075707457, 0.0004962215, 0.00012360007, -0.00032432913, 0.002771217, 0.00011804589, -0.001107241, -0.00069734076, -0.00030875602, -0.002438308, 0.00060375704, -5.026738e-05, 0.00022898056, 0.0024634823, -0.00075781567, 0.00086591294, 0.0006991577, -0.0013023078, -0.0013632539, -0.0006483557, -0.0005917325, -0.00090091315, -0.00024700584, 0.00047545996, -0.0002144124, -0.00059133, 0.0006767811, -0.0006708004, -0.00013591169, 0.0009261521, -0.0012871232, -0.00022735156, 0.0008895934, -0.0002124572, -0.0017392628, -0.00079471804, -0.001294544, -0.00042831327, -0.0037173848, 3.4258992e-05, 0.0003813415, -0.0007624851, -0.0008124183, -0.0011887258, -0.0026985197, 0.0008160504, -0.0013814196, -0.00085935224, 0.0026947663, -0.00059842766, -0.00034493086, -0.00016459031, 0.0025341883, 0.0016239071, -0.0011176554, 0.00053939474, -0.0007839641, -7.030828e-05, -0.0026058783, -0.0021754578, -0.002590442, 0.0013276106, 0.0022730958, 0.00035570725, -0.00030574942, 0.00074287824, -0.00048371468, -0.0006642759, -0.0023426968, -0.00038702216, 0.0023563064, -7.4664305e-05, -0.0015460949, 0.00064480345, -0.00027010543, -0.002646132, 0.0012976293, 0.00073813077, -0.0006070599, -0.00055821287, -0.00064078294, -0.0005611209, 0.0012430336, 0.0019447283, -0.0012222178, -0.0021706363, 0.0008317069, -0.0004631182, -0.0017504694, -0.00022221054, 0.00044563282, -0.00034809357, 0.00057209143, 5.8471283e-05, 0.0024711932, 0.0017519791, -0.0012975455, 0.000649406, -0.003964955, -0.0006309053, -0.00036493072, 0.0019425809, 8.263852e-05, 0.003869161, -0.0011932708, 0.0008101372, 8.460373e-05, 0.001904904, 0.0010685937, -0.0001136543, 0.0006647178, 0.00038409105, -6.800325e-05, -0.00021824974, -8.237257e-05, 0.0018757499, 0.00057260646, 0.0006294255, -0.0037897662, -0.00046706077, -0.0032952789, 0.0017227674, 0.0011913085, -0.00028212462, -5.3949887e-05, -1.2223609e-09, -0.00077949156, -0.0002147216, 0.0001613776, -0.0030998285, 0.001551826, 0.00062184746, 0.0022824027, -0.00019131831, 0.0021298947, 0.0019108583, 0.0013160208, 0.0020513171, -0.0029926684, 4.3529697e-05, 0.0011568095, 3.516674e-05, -0.0008010988, 0.000915548, 0.0005353079, 0.00013709022, -0.006241938, -0.00024396894, -0.0013260676, 0.0018642936, -0.00020408293, -3.379048e-05, 0.00032251477, 0.0012991409, -0.0013040685, -5.8734207e-05, 0.0019275221, -0.002163199, 0.0012030446, -0.00066457357, 0.0004951719, 0.00065415737, -0.00017608918, -0.0006374941, -0.0020916262, -0.0013001948, 0.00013692328, -0.001062825, 0.0033026831, -0.0041791536, 0.0005336288, -0.00053322787, -0.00064249, 0.00045987067, -0.00047274554, -0.0005012784, 0.0003028717, 0.0020116947, -0.0015040231, 0.0007891217, 0.0024181386, -0.0005821232, -0.0001391281, -0.0019096804, 0.0012893769, -0.0012977538, -0.00060480996, 0.0016499315, 0.00022150605, -0.000945074, -0.00094063336, 0.00015212448, -0.00043962602, 0.008427408, 0.22854431, 0.00035699515, 0.0007492666, -0.00012441886, -0.0004590929, -8.8284374e-05, -2.7256247e-06, 0.00083334907, 0.10548057, -5.845845e-05, -0.18418722, -0.00089381513, 0.009602733, 0.002370663, 0.62847304, -0.19309798, 0.0010363469, 6.4449385e-05, -0.0010641334, 0.0018946779, -0.0015306674, -9.615785e-05, 0.0010379127, -0.001087968, -0.059395634, -0.00058139616, -0.00076175306, 0.0011162008, 0.00049233047, -0.00020122196, -4.1828513e-05, 0.0004448475, -0.0025528625, 0.00069727807, -0.0019013957, -3.902521e-05, 0.00049054786, -0.00016753346, 0.0013093378, -0.00097604207, -0.0020244555, -7.5736956e-05, 0.0020815975, 0.0007549067, -0.0025725241, -0.0006666514, 0.00044063892, -0.004735409, -2.5844784e-05, 0.0028705646, -0.00025714742, 0.000275234, -0.00010110054, -0.00033055324, -0.00071992, -0.00065904384, 0.00037505903, 0.0024680968, 7.890165e-06, -0.0010978347, 0.0021242108, -0.0025450175, 0.00061676593, 0.00015489617, 0.0012247951, -0.00062343944, 0.00069350185, 0.0007519232, -0.0009914186, 0.001468031, -0.0012724488, 0.0018108423, -0.0021808844, -0.0010622016, -0.00078985584, -0.001792106, 4.73907e-05, 0.0002710569, 0.00057520886, -0.0005995221, 0.001274609, -0.000383746, 0.00081143994, -0.00079914724, -0.00060413184, 0.00023779311, -0.002024031, 0.0005763317, 0.00084201666, 0.00010534789, 0.0011191512, -0.002116476, -0.00025980477, 0.00013277913, 0.0014068289, 5.0443923e-06, 0.00025027295, 0.00012615311, -0.0044461447, 0.0015732313, -0.00043289203, -0.0005438972, 0.00093295955, 0.0016243723, -0.0022558644, -0.0024379625, -0.00058103784, 0.0009089603, 0.00020126501, -0.00068358437, 0.0003351046, -0.003118541, 0.0007607924, 0.00018097745, -0.0032960642, -0.00071844494, -0.0015867767, -0.003271969, 0.00067465694, 0.00015246368, 0.00010963992, -0.00022333115, 0.002929503, 0.0002878618, -0.0004105253, -0.00032364618, 0.00022697868, 0.00041323752, -0.0013446409, -0.0019205228, 6.870764e-05, 0.00038680554, 0.00087500695, -0.001132472, 0.0022499263, -0.0007012102, 0.0020155278, -0.002280144, -0.000671501, -0.00057121116, 0.00068309135, 0.00056851265, 0.0017229905, 0.0005700446, -0.0018638943, 0.0013824549, 0.002326516, 0.0018627619, 0.0006048668, 0.000553226, -0.0002226095, -0.00029111956, 0.00022452982, -0.00034902897, 0.0004280497, 0.00017065476, 0.0017777437, 0.0015783524, 0.0012742782, -0.0040018084, 0.0058647455, 0.0009089523, 0.00027388308, 0.3712036, 0.00034034246, -0.0037568612, -0.15954287, 0.0010163578, -0.10256677, 0.15172012, 0.31198704, 0.00042853726, -0.1990387, -0.0015004934, -0.710816, 0.0064828685, 0.00039142885, -4.4873712e-05, -0.003275867, -0.0017848209, -0.27583596, -3.0437222e-06, -0.00073970883, 0.0044719093, -0.0009845899, -0.00025133017, 2.0138978e-05, -0.002665361, 0.0011329127, 0.00059918733, 0.2658018, -0.0012223257, -0.00010175331, 0.00073338824, 0.00013699342, -0.0016710523, 0.00048548862, 0.0005990782, -0.0009159372, -0.0015100875, -0.0005429128, -0.0017663185, -0.002619551, -0.0002924244, -0.0013464524, -0.0001406421, -0.0014023536, -0.002014823, -9.297923e-05, -0.0012225005, -0.0003831418, -0.001238267, 0.0021427132, 0.0004525063, 0.0009329236, -7.751759e-05, 0.00028017908, -0.0008162982, -5.6703284e-05, -0.0003701587, -0.0027443778, -0.000981361, -0.0006467617, -0.00060631864, -0.001397002, 0.0007839978, -0.0011465892, 0.0005426912, 0.00020636088, -0.0008722021, 0.0005808867, -0.0013139424, -0.0015232794, 0.0012448098, 0.0011935497, -0.0006742559, -0.0011018317, -0.001592401, 2.540648e-06, -0.00032686465, -0.00055261474, 0.00046696712, 0.0005502287, 0.00028650754, 0.0013697399, 0.00065024337, -0.0006872231, -6.094767e-05, 0.000767025, 0.00108966, -0.001744766, -0.00042126596, -0.00096119975, -0.0011068864, -0.001132306, -0.00036195596, -0.0019578952, 0.001967448, 0.0010713495, -0.0015573584, -0.0020374202, -9.560026e-05, -0.00094639626, -0.00044362433, 0.00036369596, 0.00049367064, -0.000829664, -0.002150543, 0.001427085, 7.706974e-05, -0.001390916, -0.00057220866, 0.0018843896, 0.0007572948, 0.00022827717, 0.0011903492, -0.0019967903, -0.00024359697, -0.0009670458, 0.002560812, 0.0013303922, 4.4340733e-05, 0.00043046143, 0.000959383, -0.00036467382, 0.0005540891, 0.00092102704, -0.0015709371, 0.0007006738, -0.00086814666, -7.5747346e-05, -0.0006541721, -0.00085466343, -0.0015958773, -0.002510848, -0.00030730045, -0.004258318, 0.0013168973, -0.0005031639, 0.0010027463, 0.00048700272, 0.0012822964, 0.0019430418, 0.00034470402, -0.0032142694, 0.0018802555, 0.00043206572, -0.0017414447, 0.0028858867, -0.0012303052, -0.0011815784, 0.00081288104, -0.00052025047, 0.0012236472, 0.00075452717, -0.0015786048, -0.0006969682, 0.0028855954, 0.0020986367, -0.0011377783, -0.00011088967, 0.0004724115, 0.0009840913, -8.170807e-05, -0.001249677, -0.0014389097, -0.00151484, 7.260969e-05, -0.0015251453, 0.0011397992, -0.000376972, 0.0019305892, 0.0006822774, 0.0001934499, 0.0018561382, -0.00020465028, 0.0013009631, -0.00033355263, -0.00042135498, -0.0007620541, -0.001154698, -0.0025851072, 0.0006728942, -0.0006703214, -5.707913e-05, -0.00017816416, -0.00056982844, 0.0006469553, 0.0019309493, 0.00015376671, -0.0016205811, -0.0017290821, -0.0019589374, -0.0020098314, -0.00084439357, -0.0010206621, 0.00070171844, -0.0013815159, -0.00061707094, -0.003467113, 0.002390782, 0.0023957836, -0.0005953673, -0.0019474783, -2.3614513e-05, 0.0019453153, -0.0007057582, -0.00088093145, -0.0009061715, -0.00089187705, -0.0011993481, 0.00062398595, -0.00039143173, -0.0008300735, -0.0025299257, 0.00081110577, -0.00038960268, 0.0003412381, -0.0005567251, -0.0007577989, -0.00036917708, 0.0010426096, 0.0013008049, -0.00065391813, -0.0011949809, 0.0020473078, 0.0008977672, -0.00072838605, -0.00046622875, 0.0010363903, 0.00039892818, 0.00088178477, -0.0037583867, -0.0010380228, -0.0002238325, -0.0010691782, -0.0012740437, -0.0035956586, -0.0006636587, -0.0027972553, 0.0019083116, 0.0006890522, 0.0012326222, -0.0006045442, 0.0015330939, 0.00086810085, 0.004116592, -0.00087871146, 0.0011609006, -0.0016881062, 0.0040174555, -0.0010696753, -0.0005780985, -0.0017509256, -0.0013180266, 0.0019085694, -0.0003249547, 0.0005979057, -0.0013078733, -0.00196019, -4.6204055e-05, 0.0002976103, 0.0016067523, 6.8613153e-06, 0.001502626, -0.00050688605, 0.0013066516, -0.0005560226, -0.0027268494, -0.00082895765, -0.0037925653, -0.0005495821, 0.0002990442, -0.00095255906, -5.9865764e-05, 0.0019378485, 0.0026427354, -0.0008679781, 4.8198563e-06, -0.0018608572, -0.0023772237, -0.0014377333, 0.00030599054, -0.0012691361, -0.0012414074, 0.00014515739, 2.5663408e-05, -4.320497e-05, -0.0010767106, 0.0004729656, 0.0010764056, -0.0022674347, 0.0010601096, -0.0015625495, 0.0005032198, -0.0008757071, 0.0009238231, -0.0014400597, 0.0015326794, -0.00042648608, 0.0008092462, -0.00017873495, 0.00013353053, 0.0024097566, -0.0005363153, -0.00060307584, -0.0001449851, -8.245965e-05, -0.0011595216, 0.0024051638, 0.0024977284, -0.0017533379, 0.0007580067, 6.008486e-07, -0.00073906605, -0.00140888, 0.0007939442, -9.615149e-06, -0.0012890785, -0.00013394636, 0.00246325, -0.00029628153, -0.00046425697, -0.001640474, 0.0012878573, 0.0013580712, 0.0014360603, 0.0025547352, -0.0009729852, 0.00060222944, -0.0005373893, 0.0024867887, 0.00073612056, 0.0009470102, 0.00020108192, -0.0024661361, -2.0270585e-05, -0.0008957472, -0.00043031925, -0.0019421758, -0.00015407451, -0.0024566234, 0.00073956524, 0.00056448486, 0.0007434713, 0.0004608055, 0.0021325743, -0.00043371145, -0.0038790633, -0.00035769667, 0.0006652359, -0.0014086566, -0.0008618093, -0.000542499, -0.0010309106, 0.0013585049, -0.0019458506, -0.0023140265, 0.00025283388, -0.0011596428, 0.0008003484, -0.0011279953, 0.0012984269, -0.0019862778, -0.00075347, 0.0032945299, -0.0016653538, 0.0007399145, 0.00019741175, -0.0027769343, 0.0012411652, -0.0023601789, -0.002711791, -0.00062459474, -0.0012018878, 0.00017120625, 0.003467172, -0.00027446676, -0.0006317972, 0.0031112377, 0.0005351078, -0.0006182163, 0.0012329691, -0.0006463216, 0.0021701283, 0.00073574355, -0.0017880698, 0.00028224746, -0.002036051, -0.00048347225, 0.0008169762, 8.334598e-05, 0.00093502295, 0.0023357624, 0.0007039044, -0.0005480336, 0.00041299209, -0.0007332723, 5.8095902e-05, -0.0012391575, -0.00052642485, 0.0002501569, -8.295348e-06, -0.0007608152, 0.00077320647, -0.0003521585, -0.00047781787, 0.0007416868, 0.0008417521, -0.0018432869, 0.0017346268, 0.0019430238, 0.00043763817, 0.000537256, 0.0032969844, -0.0003953938, 0.0012249614, -0.0027623088, 0.00066517486, 0.0011897876, 0.0041780546, -0.00021755882, -0.0012338734, 0.00056165457, -0.0014488054, -0.0008464619, 0.001193062, 0.0005104043, 0.004824937, -3.2849253e-05, 0.00015652156, 0.00081038615, -0.00022524013, 0.0009205529, 0.00051987544, 0.0020407, -0.0015250411, 0.004492716, -0.0004146467, -0.20230268, 0.0025357855, 0.0010170626, 0.00013103528, 0.00032922233, 0.00048794335, 0.0007841772, -6.9009126e-05, -0.0007059018, 0.0022882693, 0.00022911665, -0.05576509, -0.0009041104, 0.6514392, 6.573141e-05, -0.23418412, 0.0045003262, 0.0008447161, 0.0014274664, 0.0023823173, 0.002492787, 4.0385294e-06, -0.3370828, -0.00045029115, -0.0017082039, -0.0005564703, 0.001275317, -0.001157373, -0.0013653112, -0.00018073065, 0.00052415783, -0.0004530419, -4.6481844e-05, -1.5695715, 0.00011063798, -0.00056945195, 0.0014746904, -0.0006320886, 0.0007466506, -0.0015562123, 0.53585184, -1.1583441, -0.0013047329, 0.0006133499, 0.038849045, 0.00018734043, -0.0016721407, 0.23020992, 0.0014065072, -0.00017749821, -0.0004009296, -0.00041787364, 0.0006541839, -0.090440355, 0.0008916069, -0.20095664, -0.19436274, 0.0012758551, -0.0016792414, -0.0033577636, 0.00050430547, 0.01746069, -0.00022741711, -0.0028212378, 0.0003097456, -0.0008638715, -0.0013131851, 7.0647075e-05, -0.00011486601, 0.00081782194, -0.0003748444, -5.2183557e-05, 0.00111154, 0.00023909933, -0.00044680663, -0.00011427986, -0.0018484509, 0.0005343426, -0.0015358606, -0.00026148977, -0.0018997717, 0.00079618196, -4.319774e-05, 0.0012597243, -0.0022768034, 0.0012358625, 0.0012048222, 0.00023750134, -0.0028795458, 0.002176273, 0.001243245, 0.0014797787, 0.0008801252, 0.0013246496, 0.0011695155, 0.0061650556, -0.0015747757, -0.0005877511, -0.0006478375, 0.0015424439, -0.0015248915, 0.0005986584, -0.00051985966, -0.0017212611, -0.001137711, -0.0012807716, 0.0004084961, 3.556162e-05, -0.0005266188, -0.0012799986, 0.00059830013, 0.00439119, -0.0020741452, 0.0012907323, 0.00039744982, 4.5722816e-05, 0.0006200267, 0.0015891618, 0.0005417977, -0.00074896374, -0.0015571701, -0.0017731199, -0.0018774513, -0.0005450938, -0.0006838028, 2.7033966e-06, -0.0009498966, -0.00079853274, 0.001268456, 0.0009510737, -0.0010384265, -0.0025589801, 0.0005836237, 5.9208367e-05, -0.00018543942, -0.00075325195, -0.0005932573, -0.0009982127, -7.90055e-05, -0.0015852421, -0.0015556504, -0.00060675194, 0.0027906124, -0.00073234795, -0.002395006, 0.0013068764, 0.0031145383, -0.0017130333, 0.0013307587, -8.477899e-05, 0.00040970626, 0.0006912248, 0.0017286425, 0.00030787196, -0.00069020333, -0.001199598, 0.00057171925, 0.00016996759, -0.0022839524, -4.3155604e-05, 0.27614453, 0.013481991, -0.000772944, -0.0030701715, -0.008553296, 0.0008911355, 0.002054276, 0.004969078, -0.0008732443, -0.0003927622, 6.186731e-05, 0.02396942, -0.0031116921, 0.21873254, 0.002064588, -0.0072507076, 0.24246185, 0.00017121334, 0.00078087125, -0.0002460084, -0.00029678596, -0.46083456, 0.46909156, 0.0004649497, 0.0020813977, 7.646157e-05, -0.0020771713, -7.792722e-05, 0.0006889999, -0.00027560373, -0.000533768, 3.7021455e-05, -0.00027178097, 1.247557, -0.00016936267, 5.748222e-05, 0.00057737326, 0.00042382145, -0.0019356329, -8.7150955e-05, 0.00048497558, -0.0013897265, 0.0027271197, 0.0009011963, 0.000916444, -6.958158e-05, 0.0013265898, 0.00059591635, 0.00125596, -2.3889705e-05, 0.0019134649, 0.00061285484, 0.00065106316, -0.0011643092, 0.000107568805, -0.0019346678, -0.0009863665, -0.001645385, 0.002693158, 0.0015303257, -8.80115e-05, 0.0009195432, -0.0012100369, 2.0659732e-05, -0.0008491476, 0.0012472038, -0.00041640014, 0.00023034686, -0.0003761669, -0.001687912, 0.0013210608, 0.0020739692, -0.0009029754, 0.0017487559, -0.0014914544, 0.0010993439, 0.00012734404, -0.00052434776, 0.002981138, -0.0020279472, -0.0001570041, -0.003729654, 9.639363e-05, 0.00097099814, 0.0014604855, 0.001191766, -0.00032016926, -0.00065866264, 0.00014646002, -0.0010744852, 0.0061763506, -0.0001578902, -0.0020287493, 0.0013128448, -0.00085670175, 0.00051910593, -0.0004877568, 0.0001972809, -0.000978026, 0.0018178183, -0.00031236582, 0.0022188171, 0.00013333844, -2.095147e-05, -0.0004893474, -0.0018873485, 0.00045086, -1.6475096e-06, 0.00079554284, -7.839032e-05, -0.0019164615, -0.0017620389, -1.6161423e-05, -9.0446556e-05, -0.00353037, -0.0007060075, -0.0021860313, -0.00053383876, -0.0010056589, -0.0018082764, 0.00085684675, 0.0013250052, -0.0033231075, -0.0006743308, 0.00037472474, 2.8606097e-05, -0.001624142, 0.00024988802, 0.00027802718, -0.0017854355, -8.574632e-05, 0.00045246468, -0.00077937107, 0.0003919986, 0.0005351718, -0.00015820022, -0.0017359277, -0.0041248035, 0.00053785834, 0.00023749995, -0.0013053817, -3.2189073e-05, 0.00069679704, 0.001968859, -0.0009481404, -0.0013955885, 0.00237784, -0.0011366318, -0.00066390465, 0.0010559644, 0.00081448274, -0.00027920003, -0.0009714289, -0.00035832, -0.0016508583, -0.00086260185, -0.0006804839, 0.0013602504, 0.00068589277, -0.0010186092, -0.1943635, 0.0010358802, -0.002545896, 0.00082788774, 0.61938465, -0.0029903767, -0.001297148, 5.575463e-05, 0.00024346943, -0.84356695, 0.00011899988, -0.25288555, 0.00076952274, 0.28411528, -0.0011921448, -0.0091106435, -8.023505e-06, -0.00011391309, 0.0002848535, 0.0013352849, -0.0006729215, 0.118260406, 8.952402e-05, 0.0010609871, -0.0028533647, 0.0017208983, 1.1030905e-05, -0.0012216173, -0.00059154123, -0.00064182316, 0.000229328, 0.0015225972, -0.0019218744, 0.00070432364, 0.0001380438, -0.0031462489, 0.0009093308, 0.0017123988, -0.0014343977, 0.00022453524, 0.0006906021, 0.00078392826, 0.0017624995, -0.0007208396, -8.6289714e-05, 0.0018116428, -0.0021519603, 0.00029454217, 0.00053697673, -0.0008618641, 0.0012880345, 8.855571e-05, -0.00056004716, 0.000662056, -0.00035075273, -0.0014826611, 0.0032847547, -0.0010772694, 0.0004760474, 0.0007379102, -0.0005969856, -0.00256372, 0.0003349398, 0.0005090301, 0.0010877922, 0.0015812576, -0.0012095168, -2.5045796e-05, -0.00064998417, -0.0032807905, 0.00033499324, 0.0007823258, 0.00027824976, -0.0017486865, -0.0015545589, 0.00087109715, 0.0033093083, -0.0040830653, 0.0017853391, 0.00041516882};
float bias_2[] = {0.34089366, -0.00629725, 0.19846846, -0.02483974, -0.008750537, -0.010142134, -0.006495288, -0.015041837, -0.0048178085, 0.13738424, -0.20468031, -0.2740458, -0.17035918, -0.10578652, -0.033715956, 0.050543167, -0.12335336, -0.024571953, -0.086986795, 0.017130835, -0.006858107, -0.123694345, -0.12660033, -0.06760839, -0.070603766, -0.052344985, -0.0065684277, -0.079637215, -0.02310368, -0.022278802, 0.055382382, 0.032238852, -0.14967757, -0.06660926, -0.03330741, -0.007219281, -0.06356462, -0.0072111245, -0.12450733, -0.013765482};
float weight_3[] = {1.3304241, 0.0004120716, 0.37288582, 0.00090237474, -0.00012585736, -0.00055212, 0.00015678356, 0.0011142404, 0.0005866729, -1.1317968, -0.00015651499, -0.00054215826, 8.279353e-05, 0.000454103, 0.0031136274, 0.005081997, -0.00081278407, 0.0003277579, 0.0014418294, 0.29172593, 0.0005096983, 0.0020781525, 0.0018099543, 0.0021849512, 0.0003658965, 0.00044886177, -0.00020893262, -0.0016223795, -0.0004962825, 0.0003469559, 1.7084094, 1.1329026, -0.0019363227, -0.00078661053, -0.009061432, 0.0044395234, 0.00022508317, 0.0023765292, 0.8339764, 0.0009002435, -0.08348837, -0.00078192796, 1.1812626, 0.0018591961, -8.928358e-05, -0.0015794325, 0.0015436744, 0.0011907564, -0.0004787473, -0.19983897, 0.0015738282, -0.000549004, 0.0024674232, 0.00031662977, 0.00022184878, -0.004018579, 0.00045507724, 0.004752859, 0.00018273795, -0.16058056, -0.0005865063, -0.00022691813, -0.000769792, 0.0008112171, 0.0007304989, 0.0019622752, -0.0007521255, -0.0006557234, 0.0012430407, 0.0019447821, 0.5606558, -0.12818018, 0.0008200883, -0.0019484306, -0.3189474, 0.0003144059, 0.002265522, -0.0004722965, -0.74252725, 0.0019378097, 0.00083195, -0.0011964671, -0.036745746, -0.00065155583, -0.0014170185, 0.0005462464, -0.0032646887, 0.0011051367, 0.00025506015, 0.07576153, -0.0002941268, -0.0028576218, -0.0024184142, 0.001985227, 0.0020094148, 0.82599264, -0.000747106, 0.0008871853, -0.0027552904, -1.1841431, -0.001725291, 0.00015845179, 0.0023997528, 0.0021578802, 0.0017420992, -0.00089887995, 0.0032816597, -0.0011705023, -0.00078598975, 0.0006701345, 2.4751716e-07, -0.07424278, -0.00048691605, 0.00067376107, -1.2774373, -0.0005185841, 0.0012600048, 0.00055268, -0.2384388, 0.0005588471};
float bias_3[] = {0.21781547, 0.32613552, 0.4771733};
