float weight_1[] = {0.18769972, -0.030007776, 1.0675501, -0.0018230674, -0.0005993246, 0.0011960096, -0.0004523568, 2.2168155e-05, 0.00029021897, 0.23604354, -3.1025755, 0.8208192, 0.9712962, -1.6358821, 0.5142596, 1.4356382, -0.80790174, 0.845539, 0.38981766, -1.0709304, -0.17215556, -0.011272294, 1.0402462, 0.55902493, -0.00064525206, -0.0013325389, 0.0022569234, 0.0017074768, -0.001631483, 0.0012859032, -0.59841526, 0.77993417, 0.8335278, -1.656038, 0.32171944, -0.7735715, 0.0007388502, 0.0003683212, 0.0031087743, -0.0021866234, -0.00045201357, -0.0017777064, -0.012703704, 0.23387727, 0.2193219, 0.7971801, 0.47319785, 0.18443473, -0.0011577636, 0.004707912, 0.0015459589, 0.0020099839, 0.0014867724, 0.0011747109, -0.6690097, -0.069949284, -1.76858, 0.0010840332, 0.0012569762, -0.000672422, 1.4006371, -1.0356234, 0.061518136, -0.0010543615, -0.00078118546, -0.0023590734, 1.4074076, -1.4666792, 1.0706612, -0.0006473567, 0.00020638638, 0.00090979366, 0.0010446387, 0.0014369059, 0.00064320647, -0.0006687906, -0.00030209706, -0.0006965368, -0.2075414, -0.7710261, 0.7048655, -0.0027700078, 0.0013446058, -0.0018300109, 0.0017662204, -0.0012987467, 0.00066016795, 1.2831087, 0.88180006, -0.7121154, -1.0089643, 0.5903874, -0.005195699, -0.0012555456, -0.0020497744, 0.0009542174, 1.076453, 0.29021809, -0.9921844, -4.010995, -0.0052227094, -0.0017490988, -0.26504785, -0.05270986, 0.19419768, 0.0011528786, 0.0029414608, -0.00065833575, -1.1528327, -0.65078676, 0.86707073, -8.2400074e-05, 0.00082443014, -0.00053921476, -0.8060938, -1.2163607, 0.6796664, 0.00019988674, -0.0025391309, 0.0016620664};
float bias_1[] = {-0.111867405, -0.06922157, -0.43259913, 0.03330555, -0.5531101, -0.3560084, 0.3928223, -1.0666763, -0.33670956, -0.36648837, -0.9114344, 0.18304342, -0.39127558, -0.2223036, -0.19780834, -0.71558803, -0.45042273, -0.13206536, 0.7914232, -0.22506624, -0.57484305, -0.16093981, -1.2429966, -0.4874448, -0.12784708, -0.10072552, 0.17729793, -0.43743974, -0.6011388, -0.89268434, -0.045493554, -0.5481183, -0.3742257, 0.3942172, 0.17960481, -0.20244879, 0.51828206, -0.30234325, 0.51679844, -0.07401359};
float weight_2[] = {0.00056920236, -0.00039370207, 0.0007545864, -0.00041883125, 0.0012652798, 0.00047041025, -0.0012971892, 0.00078850915, 0.0016720042, -0.0028966372, -0.0020496882, -0.0046419944, -0.00086161983, 0.0011575804, -0.0017842688, 1.0413634e-05, -0.0014191767, 0.0007744824, -0.00034187612, -0.001001409, -0.0021343152, 0.00010306446, -0.00085088547, 0.0021206357, 0.0010923842, 0.0014907281, 9.297702e-05, -0.0005966995, 0.0015443664, -0.0010074739, -0.00072270405, -0.00046575477, -1.1782744e-05, 0.00027782144, 0.0013477693, 0.0020121974, 0.00029888214, -0.0008468835, 0.0012611534, -0.0017990159, -0.00083070406, -0.0020189453, -0.000342568, -4.908908e-05, -0.0005937777, -0.001057432, -0.001632926, 1.4659952e-05, -0.0023660313, 0.0005995625, -0.0016986018, 0.00024065434, -0.00010239845, 0.0009553613, 0.0011858771, 0.0012734857, -0.00015859818, -0.004119158, 0.0025840774, -0.0010842663, 0.0012047037, -0.0007794514, 0.00011192728, -0.0036501093, -0.00095711905, -0.0014169861, 0.002644462, 0.00057304744, -0.0011573154, 0.00034744744, 0.0008807092, 0.0017861951, 0.00031016022, -0.0031096213, 0.0021794531, 0.0007050455, 0.0008920906, -0.00039870854, -0.00013672025, 0.000761557, -0.7013784, -0.00016166686, 0.00037212746, 0.54196525, 0.9564129, -0.7602543, 1.7835443, 0.0012827166, 0.0006080038, 0.00036659185, 0.00048296573, -0.0016403815, -0.00052337896, -0.00049466005, -6.9881426e-06, 0.00032013445, 0.0034988006, -0.0002398206, 0.2761841, -0.0013826953, 3.8223072e-05, -0.0014889701, -0.00061078824, -0.0014170981, 0.0018134717, -0.0012185778, -0.22006974, -0.0026589346, -0.0024274925, -0.0069875857, 0.000603017, -0.0006245994, 0.032235436, -0.06560741, -0.16471565, 0.0012467892, -0.24652916, 0.0019386887, -0.20611672, -0.0015733591, -0.4116487, -0.0005012945, -0.0008515315, -0.06498588, 5.8958296e-05, -1.5587351, 1.6750286, -0.4097423, 0.0006591572, 0.0011854807, 0.0017978152, 0.4456872, -0.001351177, -0.00094987726, -0.45474464, -0.0106606465, -0.0025727253, -0.0024793819, 0.0034894042, -0.0013907386, 0.012159419, -0.0006431676, 0.00020931766, -0.00142365, -0.0021584209, -0.0041743573, -9.616845e-05, 0.0027186403, 0.00014087727, 0.0057315575, -0.24328677, -0.0010744889, 0.56685245, 0.0013057863, -0.39581707, 0.0013657203, -0.0015610888, 0.0005879367, -0.07621729, 0.0020219088, 0.0003016072, 0.0009711022, -0.00043595157, -0.0018761577, -0.00075904874, -0.0019517316, -0.004302785, -0.0023319125, 4.5458146e-06, -0.0005467767, 0.0001514529, 0.0017378834, 0.00078895537, -0.0027119876, -0.0022224574, 0.0014125879, 0.0010422752, -0.0005965428, -0.0006024895, -0.00078405975, 0.001758191, -0.0017994317, -0.00064979907, -0.0031089536, 0.0006064627, 0.0012330005, -0.0042856047, 0.0012130021, 0.00012461847, 0.00050801906, 0.0009843818, 0.000979955, 0.00028096038, 0.0033335034, 0.0014457181, -0.0009365008, 0.00311665, -0.000271751, -0.0006026237, 0.0005871396, -0.00089134806, 0.00046176964, 0.0015756285, -9.2576025e-05, 0.00015448849, -0.0012082735, -0.0012969293, 0.0009170717, -0.0018748218, -0.0016574106, -0.0038965645, 0.00076837034, -0.0007886454, -0.00017662377, -0.00020951053, -0.00070530747, 0.002385247, 0.00082240376, -0.00095511996, -0.0003274479, 0.0005478099, 8.258458e-05, -0.0024628672, 0.00040189922, 0.0021639122, -0.001546767, 0.00084391003, 0.000244332, -0.0012989067, -0.0021293042, 5.324837e-06, 0.00041926946, -0.001207242, 0.0005729199, -0.00027448894, -3.3240212e-05, 0.00014222309, 0.00012975471, -0.00055764173, 0.0036068289, 0.0011787473, -0.0018311935, 6.5998436e-05, 0.0009767854, 0.00074204116, -0.0006532268, -0.00012027542, -0.0007282739, 0.0004477289, -0.0006139482, -7.830697e-05, -0.0005643971, -0.0012160323, -0.00041449437, 0.0032966025, -0.0017600844, -0.0011989607, -0.0009774299, -0.00030263956, -0.0019777734, -0.00027160416, 0.00026009954, -0.003114175, -1.6952145e-05, 0.001640931, 0.0007395182, -0.0007663517, -0.0005121057, 0.0017309663, -0.0018095664, 0.0007583286, -0.0012241364, 0.0042645372, 0.0005758784, -0.0010698149, 0.001437057, -0.00049674977, 0.003298163, -0.002160588, 6.270211e-05, 0.0007276306, 0.00079058856, -1.4185207e-06, 0.00022086276, 0.00025119446, 0.001746258, -0.0004497345, -0.0001566197, -0.0032125055, -0.00025301793, -0.00018968683, 0.0005700873, -0.00084214075, -0.0006706412, 0.002878387, 0.00010014069, -0.0010266943, 0.0012501315, 0.00055192306, -0.00178162, -0.0012473136, -0.0024826997, -0.0021588034, 0.00031086826, -0.0016187092, -0.0006276454, 3.891543e-05, 3.2714e-05, 0.0017106467, -0.0025408221, -0.0020171993, 0.00021538581, -0.0015480118, -0.0002500947, 0.00054229377, -0.000792349, 0.001187371, -0.001638424, -0.0013753709, 0.0020856285, -0.0031151804, -0.0011617629, 0.0028024171, 0.0012309211, 0.00026930252, -0.00022174368, 0.0012388461, 0.006396955, 0.00093230885, -0.0017737774, -0.00087190163, -0.002237048, 0.00021076054, -0.0023209234, 0.00067175226, -0.0037688026, 0.0015685468, 6.490853e-05, -0.0008037591, 0.00014955504, -0.0004065022, 0.00063532306, 0.0018697969, -0.00037607594, -0.00048996374, -0.006059071, -0.0005929511, 0.00016414141, -0.0018438636, -0.0004403132, -0.0016821313, 0.004663616, 0.0014172066, 0.00041893384, 0.0012266296, -4.7246052e-05, -0.0007799987, -9.703258e-05, 0.0015012827, 0.0012424773, -0.0017045843, 0.0006579987, -0.0015845083, -0.0013972167, 0.0009867618, 0.0013043573, -0.00016877081, 0.000121164194, 0.001245015, 0.001124527, -0.0017679541, -0.001278029, 0.00049954775, -0.0012091238, 0.00082632015, -0.00061049964, 0.0017970928, 0.0026465317, -0.0015615089, 0.0018820812, 0.0032027168, -0.00040704594, -0.0007234033, -0.0012808484, -0.0019231545, 0.0006548815, 0.0017663675, 0.0013609333, 0.0020367324, 0.001161866, 0.00018525883, 0.0017770537, -0.0007854923, -0.0014589564, -0.00090430223, -0.0006375994, -0.0014613925, -0.0017663001, 0.00029933243, 0.00028418563, 0.0009130017, -0.0008025211, 0.00087054464, 0.0002168314, -0.0030707112, -0.0019293298, -0.0011002533, 0.001702793, -0.0036468685, 0.00088782987, -0.0011041408, 0.0007042453, 0.0011435236, 0.00074847945, -0.00073228765, -7.674191e-05, -0.00077403197, 0.0010772286, -0.0012131804, 0.0017173407, 2.2165208e-05, 0.0006115123, -0.0011160596, -0.0010801364, 0.0007375566, 0.0001607746, 0.00064018386, 0.0011942133, 0.0016230394, 0.00094289856, -0.0024649901, 0.0015343999, 0.0008584152, -0.0025606554, -0.0008653173, 0.0008917211, 0.0010524669, 0.0041610273, -0.0033372398, 0.00040729184, -0.040556073, 0.005203682, -0.00037953985, 0.31695858, -0.03981011, -0.39183584, -0.034495443, -0.4353426, -0.000689074, -0.00039571413, -0.0010316083, -0.038922805, -0.00053383654, 0.00056903635, 3.4657016e-05, 0.02001786, -0.00067681225, 0.0032772147, 0.4774777, -0.0014821945, -0.052305408, 0.0001143383, 0.001571784, -0.003941221, 0.0014498015, 0.0011641385, -0.03269328, -0.0011878731, 0.002397481, -0.024513504, -0.611946, 0.0019168914, 0.019405976, 0.00014483205, -0.31873092, 0.00068099506, -0.1114734, -0.00061390334, 0.00015283113, 0.0005602678, 0.6011827, -0.0010903538, -0.0007977018, -0.17277363, 0.0013100189, -0.41373125, -0.11654487, -0.22116454, 5.150272e-05, -0.0008805385, 1.3241506, 0.0004898078, 0.0022793356, 0.0011177198, 0.1330354, -0.30745932, 0.0012496203, -0.0012012403, -1.2151898, -0.00068485504, 0.0001956122, 0.00045582931, 0.00012621468, 0.0013917092, 0.00046655897, 0.00074006675, 0.09696236, 0.00052333943, -0.0016410336, -0.19369003, 0.20930901, -0.00025725132, -0.0017787379, -0.056185227, 0.48622856, -8.8014756e-05, -0.6604538, 0.0005219229, 0.21879421, 0.002454443, -0.0020097585, 0.0016048955, 0.00051316305, 0.0004354569, -0.00023397415, 0.00078714243, -0.00063638506, -0.0005872504, 0.0009954235, -0.000962033, -0.0008859608, 0.00087717094, 0.00021947967, 0.0007427437, -0.0018533489, -0.0014434102, 0.0007824943, -2.6386697e-05, -0.002144108, 0.001273988, 0.00023298908, -0.001597839, -0.0007386833, 6.739411e-05, 0.0007748301, 0.00065824407, 4.190489e-05, -0.0025261545, -0.0028696435, -0.00021324347, 0.00061939436, -0.00035229488, -0.0012499257, -0.0007558349, 0.00030706948, 0.0003876388, 0.0006512803, -0.0003493658, -0.00023839541, -0.002441995, 0.002168062, -0.00075851916, -0.0003403558, -0.0007248443, -0.00017521234, -0.0012333998, -0.0014244982, -0.0013644616, -0.0006694119, 0.0011784339, 0.0007708209, 0.0029913434, 0.0005945008, 0.000733737, 0.002233939, -0.0031165234, 0.0005847277, -0.00062101835, -0.0005280352, 0.0010650107, -0.00043964188, -0.0019023503, 0.0013382828, -0.00028075883, -0.0012832663, 0.0020809034, 0.00050228584, -0.0029440024, -0.0012923375, 0.00093367504, 0.0008664238, 0.0009186738, -0.00027128906, -0.0008792662, 0.002467777, 0.001980187, 0.0005181562, -0.0042816643, 0.00023245555, 0.0017608259, 0.0023982078, 0.0032977257, -0.0025009168, -0.0002997863, -0.0004891153, -0.00069782336, 0.0024565323, 0.00097502966, -0.0025325327, -0.000929216, 0.0013877153, 0.0010326633, 7.224927e-05, -0.00058338424, -0.0006065918, 0.0014681991, -0.002230133, -0.0007377608, -0.0019958348, 0.0011456928, 5.4712757e-05, 0.0012403303, 0.0008126062, 0.002125762, -0.0024446875, -0.0019365343, 0.00010461049, -0.0004254307, -0.00021316163, 0.0007522439, -0.0005441763, 1.998373e-05, -0.00062497624, 0.000300753, 4.8115835e-06, 4.214642e-06, -0.00091805775, -0.0014730968, 0.0028218136, 0.0022454709, -0.002667736, 0.0006116412, 0.0012918352, -4.7010137e-05, 0.00091419177, 0.0009609639, 0.0003653229, -0.0008012548, 0.00068237516, 0.0010529559, -0.0020786272, -4.6551868e-05, -0.0012944054, -0.0008233134, 0.00056932925, 0.002381412, 0.0017688604, 0.00028698568, 0.0017237989, -0.0017204124, 0.0007533711, 0.0013197756, -0.0024026053, 0.0017434092, 0.0011857919, 0.002368046, -0.0011193918, -0.0013398653, 0.00019184453, 0.00012095354, -0.00075945084, 0.00027157925, 0.0011920696, 0.0065769237, 0.0026721705, -0.0017504897, -0.0008864327, -0.00037638383, -0.0010662177, 0.0019168586, -0.0006761433, -0.001051094, 0.0013389315, -0.0007881742, 0.0025337958, -0.00011347409, 0.00047868176, -0.00073816284, 0.00085913826, 0.0020103764, 0.0006804549, -0.0043158894, 0.0033361528, -0.00086788833, -0.0024153353, 0.00050765136, 7.4214768e-09, -0.0007886094, 0.0032892455, -0.00022438758, 0.0007921094, 0.0011399707, -0.002717249, -0.0012964471, -0.0019492925, 0.00087541126, 0.001107412, -0.00078259694, 0.00013246818, 0.0005631475, -5.448801e-05, 0.0023816884, -0.0010024752, -9.908975e-05, -0.0006407025, 0.001246432, 0.00045087084, 0.002011575, 0.004139391, -0.0013378088, 0.60361964, 0.0016999306, 0.0011835461, 0.012271365, -0.0003658633, -0.38345134, 0.28536513, -0.113548055, -0.0012085277, -0.001598196, 0.0059767882, 0.18206857, -0.001431153, -0.0028025182, -0.00043021727, 0.29329577, -0.002313937, 0.0018275516, 0.10385481, 0.0015987077, -0.31154326, -0.0011622433, -1.0911269, -0.0011228472, -0.0010978777, 0.0017136962, -1.3756411e-05, 0.0002800541, -0.00027766117, -0.19833773, -0.07982705, -0.0017131944, 0.009058196, -0.00011276605, 0.04113396, -0.00084270973, -1.8992554, 0.0005009535, -4.325426e-05, -0.0012154519, -0.001318813, 0.0013808823, -0.0002497682, 0.00037936913, -0.00080818875, -0.0019402137, 0.002600538, 0.004263672, 0.0007659389, 0.0015108644, -0.001757555, 0.0036863263, 0.00023610512, -0.0017372211, -0.00042116048, -0.0004955314, -0.00063326507, 0.0012745239, 0.0015597808, 0.003804429, 0.0017954968, 0.0013169581, -0.0024932064, 0.0043353066, -0.00048560253, 0.000560372, 0.00037831103, -0.0016273139, -0.0011370227, -0.0016268933, -0.00014016847, -0.00088591664, -0.0021445013, 0.0008711651, 0.00058614626, 0.00012268504, 0.0019070284, -0.0013223775, -0.00015619496, 0.00090950634, -0.30431166, -0.0034966664, 0.0032540322, 2.6690512e-05, -0.62632585, -0.45697272, 0.81300634, 0.0026611201, 0.0024510894, 0.0005365445, -0.002750433, 4.690338e-05, 0.0012763698, 0.0029874346, 2.3056462e-05, -0.02845554, -0.0011006047, 0.0030927802, 0.07031872, -0.00020461483, -0.81266934, -0.001279443, 0.003256055, 0.00024986826, 0.0013050111, -0.0023352127, -3.0342817e-06, 0.0008465842, -0.0011945209, 3.452602e-05, -0.48568708, 0.000792937, 0.00063126464, 0.00028525665, -0.0057068914, 0.00076341676, 0.00013013853, 0.0028402482, 0.07920511, -0.00067764096, 0.12625933, -0.00016824051, -0.0013059007, 5.2819072e-05, -0.016549442, -0.22299774, 0.3982218, 1.360732, 0.0017873973, -0.001983794, -0.05629696, -0.0015153895, -0.0012161069, 0.00062306935, 0.007288172, -0.5394643, -0.0011424446, -0.0004829433, -1.0298295, -0.0034104786, -0.027860213, -0.00011752767, -0.43511075, -0.0010328547, 0.0007563055, -0.0017535, 0.25380403, 0.0005208085, 0.00011875236, -0.0032660267, -0.12935743, 0.00038808456, -0.86329305, -0.6028576, 0.19747092, 0.001630441, -0.47877675, 0.0017182997, -0.36763698, -0.0016829305, -0.0012251025, 0.0028675594, 0.00080999243, -0.0012936891, -0.0020143918, -0.0031129401, 0.0012969895, 0.0012905278, 0.0010269963, 0.0018659418, -0.0006559995, 0.0013402101, 0.00051954103, 0.0016134748, -0.0013011274, -0.00028727646, 1.3702316e-05, 0.0002575476, -0.00083494635, -7.9741934e-05, -0.0016207249, 0.0031113974, 0.0018079906, -0.00058469333, 0.00060186436, -0.0018091054, 0.00077092607, -0.00042381987, 0.0033005257, 0.0013120524, -0.0015608565, -0.0011902426, -0.0005254145, -0.0012616473, 0.001808839, -0.00064308796, -0.001043048, 0.0031132828, -0.002409649, 0.0014803506, 0.00068583706, -0.0007770588, -0.00048537907, -0.0033166471, -0.0003018519, 0.0027584836, -0.0013411306, 0.0014201768, -0.0036046216, -0.0047194506, 0.0030138427, -0.0004951418, -0.002429111, 0.00049712043, 0.001958184, -0.001737214, -0.0004716795, 0.0001541631, -0.00033491722, -0.0015048207, -0.0007918312, 0.0017021361, 0.0014486415, 0.001097108, 0.00057683943, -0.0012400798, 0.0005339285, 0.0014025234, 0.0026045865, 0.00094235386, 0.00078829925, 0.00047192344, 0.0005733556, -0.0017486457, 0.00013772567, -0.0007775454, 3.966021e-05, -0.0008726121, -0.0032007606, -0.00048290275, -0.0002310491, -0.0011345583, -0.00040671858, 0.0012052591, -0.0014823619, 0.002370149, -0.00034453833, -0.0026291476, 0.0011145002, 0.0003970317, 0.00012633856, 0.0023026, 0.0006641985, 0.00039091922, 0.00074330706, -0.0015932783, 0.002470045, 0.0008257902, 0.00094231, -0.0043643396, -0.000984884, -0.00072473823, 4.977829e-05, -0.000632443, 0.0023335102, -0.0011842954, 0.0026883022, 0.0012259511, -0.0018606102, 0.001068586, 0.00033162034, 0.00084391725, -0.0011082952, -0.000107552856, -0.00044931844, -0.0012139997, -0.0012771288, 0.0021375795, -0.0010896311, -0.0014325497, 0.22824658, -0.0012739701, 0.0021733951, -1.3330563, 2.14829, -0.77531314, -0.09250784, -0.55481607, 0.0033010836, -0.00041883395, 0.9615245, 1.6483544, -0.0007298089, -0.0012648114, 0.16324718, 0.12718959, 0.0009941914, -0.00022336148, -0.1828617, -0.0017439472, 0.009825564, 1.1528842e-05, 1.5313395, 0.0026890645, 0.0012854254, 8.291018e-05, 0.019738702, -0.0018528225, 0.0032988912, 0.052257955, 0.02158565, 0.0029504383, 0.009916754, -0.3780447, 0.07932904, 0.00080293143, -1.1449821, -0.0023848135, -0.5279064, 0.0012640954, -0.00025286287, 0.0022290489, -0.0001451858, -0.04767282, -0.00028028953, 0.28998396, 1.3722254, -0.19380581, 0.0022158278, 0.0019378264, 1.5694048, 5.1925115e-05, 0.00035980722, 0.00047909172, -0.011433468, -0.00704068, -0.0012276171, -4.1021936e-05, -0.16121757, 0.0016520831, -0.58370066, -0.0014116815, -0.02665612, 0.0004321246, 0.0002827909, -0.0032980572, -1.4493761, -0.00013140231, 0.00065561867, -0.2339375, 0.3248958, -0.000985874, -0.0052200425, -0.000107018976, 0.009046569, -0.0022061535, -0.47821096, -0.00047105865, -0.12583539, -0.0018564048, -0.0013145884, -0.0007749527, 0.00025432557, -0.002389869, -0.0010040271, 0.002158054, 0.0012994685, -0.0006275487, -2.4724017e-05, 0.00074204686, -0.0010000132, -0.0013317149, 0.000958745, 0.0039442573, 0.0014528378, -0.001283562, 0.0029299576, 0.0004533864, 0.00066326134, -0.0018246891, 0.0030989023, -0.00089734653, 0.0001480892, 7.943221e-06, -0.001390677, -8.2762796e-05, -0.0006671058, 0.0036872507, -0.001970044, -0.0011563889, 0.0017689562, -0.0012470284, -0.00011844799, 0.0013602816, -0.00059936097, -0.001270313, 0.0019433902, 0.00022276148, -0.00056149345, 0.0010177983, 0.4150614, 0.0006534355, 0.00024343003, 0.63114065, 0.019429753, 0.2948897, -0.006449447, -0.03122299, -0.00073581527, -0.0015525895, 1.2671716, 0.27773103, 0.0013360775, 0.00016516272, -0.0051258453, 0.012533529, -0.00033693813, -0.0006690577, 3.6245901e-06, 0.0011760815, -1.1136732, 0.00075125287, -0.84279525, -0.0014210264, 0.0006725511, 0.0016227369, -0.04920683, 0.0002332374, 0.0024936784, -5.57749, -2.2753156e-05, -0.0014299816, -0.8722765, -1.1880895, 0.20864096, -0.0015651569, -0.14325105, 0.0013460784, -0.1055612, -0.00028304433, 0.0015050515, -0.0023078304, -0.0017411347, 0.0010373411, -0.00073493517, 0.0005342631, 0.0007278912, 0.00019183254, -0.00026191922, -0.0031111562, -0.00189565, 0.0007046892, -0.0004721167, -0.0011545866, 0.00075354736, -0.000557965, -0.0003788051, 0.00027017674, 0.0009530637, 0.00029077363, 0.0010699318, 0.0008415797, -0.0036401981, -0.0013083344, -0.0010216302, -2.1602958e-05, -0.0026366469, 0.0012896836, -0.0012027347, -0.001434905, -0.0008605067, 0.000909998, 0.0003188476, -0.0007591783, -0.001206872, 0.00074441306, 0.0017826172, 0.00032918976, 0.00021090067, -0.0005559393, -0.0003024966, -0.00022019325, 0.0027227658, 0.00042867224, 0.0024940427, -0.001086341, 0.0006329079, 0.0026991342, 0.00051533245, 0.0008175932, 0.00013641815, 0.0013534438, 0.00055557076, 0.00077757984, -0.0012445713, 0.0012961882, -0.0015968806, -0.00023874431, 0.0002841768, -0.0013350282, -0.0017643273, -0.00046485203, 0.002157372, -0.00084500003, 0.0013125511, -0.0012928009, 0.00083191245, -0.000560677, 0.0011393955, -0.0005998187, -0.00045672746, -0.0027844305, -0.00059533096, 0.0007484866, 0.0019411764, 0.0010869073, -0.00028323152, 0.0007708047, -0.002175799, 0.002421255, 0.38351092, -0.00065115344, 0.0007139031, -0.74115896, -6.770075e-05, 0.25870535, 2.4032517e-05, -0.19478916, 2.6715657e-05, -0.001949992, -0.124075845, 0.00033332378, 1.3510791e-05, -0.00048431964, -0.015504499, 0.14102702, 0.00087428896, -0.0012123259, -0.13346097, 0.00013675, -0.8750987, -0.00029487256, -1.670811, 0.0001855727, -0.0006314317, 0.0019325407, 0.026616152, -0.0016309763, 0.0026757177, 0.16232942, -0.31352887, -0.0015279026, -0.018963207, 0.36923847, -0.06201907, 0.0005838528, -0.6426135, -0.00078145956, 0.8612943, -0.0015803266, 0.0010146736, -0.0006533476, 0.0005270003, -0.0035026367, 0.00086665107, 0.0006189145, 0.0011177881, 0.0026882198, 0.0026247082, -8.043766e-05, -0.0018013006, -0.0008376926, 0.0022098962, 0.0023254359, 0.002274958, 0.0016364604, 0.00028146605, 0.00063472294, 0.0012842582, 0.0005689647, -0.00092854677, -0.0005839751, -0.00045928848, 0.0011703777, -0.0021589946, 0.0006412837, 0.0010294748, -0.001994932, -0.001311824, -0.00024364959, 0.0006544284, 0.000100983016, -5.5099896e-05, -0.00018498389, 0.00094065175, 0.0013467454, 0.000204448, 8.325756e-05, 0.0025788252, -0.0002827854, -0.0012903569, 0.0018550549, 0.0011974566, -0.0014573189, 0.0007331, 0.0028443162, 0.000762893, 0.0006311524, -0.0010885883, -0.0028456831, 0.0006998783, -0.0013059906, -0.000753889, -0.0016748804, -0.00036669418, 0.0013115141, -6.367173e-05, 0.00045646634, 0.0015165868, 0.00045661782, 0.0011227677, -0.0016348253, 0.00051129656, 0.0011619038, -0.0022037118, 0.00093147333, 0.0042491946, 0.0020710453, -0.0013090527, -0.000482362, 0.00076152553, 0.001048068, 0.00021253928, 0.00042806775, 0.0016777808, 0.001944197, -0.0018215944, 0.002430103, -0.00013581337, 0.0007239885, 0.0021740075, -0.00087980926, -0.0011713374, 0.0005299208, -0.00059538544, 0.000681098, -0.0018910028, -0.0002883951, 0.00052622345, -0.0013797128, -0.0013125802, 0.0023842873, -7.3771895e-05, 0.0001962611, -0.0010713143, 0.0012466013, 0.00089083356, -0.0018253658, 0.0005957889, -0.0013002388, 0.0031089508, 0.0014676868, -0.0019117323, -0.0011119933, 0.00064635865, -0.000883772, -0.001582577, -0.0039787125, -0.0039439686, 0.0015451565, 0.0007395117, -0.0014371297, 0.0027033077, 0.0007574003, -0.0012758833, -0.0025283145, -0.0004959365, -0.0030684478, 0.000497908, -0.0012486965, -0.013481753, -0.001103305, 8.374639e-05, -0.42129487, 0.938021, 0.2878319, 0.76904106, 0.21602625, 0.0008682178, -0.00019043643, 0.03951131, -1.1971511e-05, -0.00040816545, 0.00070214225, -0.016263098, 0.14079355, -0.0013030552, 0.0033043162, 0.13295487, -0.0011052915, -0.013737525, -0.0010453116, -0.15140969, -7.779454e-07, -0.0016631858, 0.0008913036, 0.0025978056, -0.0009003758, -0.0019344547, 0.22507487, -0.006103413, 0.0009487339, 0.08354764, -6.8466616e-05, -0.01833219, 0.0006788398, -0.42765224, -5.9786078e-05, -0.21027885, -0.00081570935, 0.0013353731, 0.001995139, 0.0038876312, 0.00030894647, 0.00091698946, 0.0011566972, 0.00047112658, 0.00010054192, 0.0025346046, -0.00078218785, 0.00026123837, -0.00026759808, 0.0024059264, 0.001532047, -0.0007716657, -0.0009217136, 0.0015805727, 0.0003479662, -0.00180863, 0.0009765257, -0.00022393378, 0.0010708097, 0.0012108611, -0.00068273774, -0.0012988695, -0.0016967725, -0.00023096299, -0.0008740528, 0.0009052895, -0.001393253, 0.00069911464, -0.000489057, -0.0024089264, -0.002196992, -0.0012941367, 0.0003056198, -0.0024956195, 0.00067017897, -0.0024814014, -0.0013217705, -0.001751334, -0.0041349363, 0.0011408394, -0.0024618646, -0.00016233424, 7.028837e-05, -0.00082680996, -0.0007089125, 0.004367606, 0.00038442996, -0.001267611, 0.001424704, -0.0023348385, 0.00036807123, 0.0024166475, 0.0024630646, -0.0004989287, 0.0018537494, 0.00013003644, -0.0011747072, 0.001279346, -0.0019412983, 0.0006684183, 0.0022142455, -0.0014392999, 0.0012659491, -0.00049804454, 0.00074907416, 0.004267103, -0.0007390232, -0.0014455954, -0.0037635434, 0.0012863686, 0.0016407657, -0.0013971906, 0.00089842867, -0.002140643, 0.00066443527, -0.0007486403, 0.0020560855, 0.0016159785, -0.0014868535, -0.00058144797, 0.0006672711, -0.00087681605, 0.00053164, 0.0034115075, -0.0006470108, 0.00059636065, -0.00039372468, -0.0022754588, 0.0015918114, 0.00048591066, -0.0006149286, 0.0009474698, 0.0012992548, 0.0005163507, 0.0023484766, -4.755135e-05, 0.0005174432, 0.001722638, 0.000236685, 0.0041087987, -0.0032096296, -0.0040738704, 0.0009137741, -0.000187806, -0.00080822664, 0.0006279177, 0.0015998113, -0.00021068082, -0.001276934, 0.00027621211, 0.0005343646, -0.00014319224, -0.001559626, 0.0004948812, -0.001118659, 0.0009192772, -0.0038158502, 0.0012536526, -0.0026150884, 0.002662312, -0.0019597728, -0.0022441836, -0.0007562473, 0.0027494363, 0.0012921294, 0.0004914221, -0.0017758935, 0.0018154035, 1.4479461e-05, -0.00030153547, 0.0010562324, -0.00078393356, 0.00060322013, 0.00078482175, 0.000523297, -0.0013204641, 0.00079152, 0.00040761972, 0.00077023153, 0.0011487369, 0.002385, -0.00026896433, 0.0012480121, -0.002772768, -0.00080265524, -0.00018316286, 0.002011478, -0.0003862962, 0.0012537235, 0.0014039436, 0.0021819135, 0.0007944666, 0.0037933667, 3.4761615e-05, -0.00021817844, 0.00039966102, 0.002725476};
float bias_2[] = {-0.1216875, -0.12839355, -0.5594256, 0.24254617, -0.11371955, -0.03546781, -0.09087399, -0.08282788, -0.1373323, -0.048145868, -0.29199365, 0.22626768, -0.039247435, -0.02322836, -0.01867257, -0.024623193, -0.10636088, -0.17642452, 0.10022366, -0.2182326, 0.06173699, 0.43958715, -0.05396071, -0.09399491, -0.03684923, 0.1773959, 0.06486641, -0.24355923, 0.1161932, -0.06621274, -0.036781766, 0.019852169, -0.11366401, -0.26101005, -0.01880906, 0.015532846, -0.05052002, -0.06298019, -0.1452454, -0.081588};
float weight_3[] = {-0.0008823778, -0.00044430548, -1.1758791, -0.0937767, -0.0012440747, -0.0020054802, -0.00044104515, 0.0006378746, -0.0010791642, 0.00074006955, -0.00037641532, -0.35299388, -0.53276384, -0.000111581525, -0.002011161, 0.0008534816, -0.0015225124, -0.0009765451, 0.9886556, 0.00255812, 0.007388982, -0.5557999, 0.0013105322, -8.0211525e-05, -0.0031180666, 1.7027637, 0.9889231, -0.0013329093, 0.90581834, -0.0014173049, -0.0003029136, 0.8822332, 0.0017557087, -0.00061618193, -0.0006183138, -0.11346895, 0.0028590227, 0.0007597002, -0.0015315898, -0.0019705521, -0.0013040195, -0.0013610505, -1.6322281, 1.8905218, -0.0006709457, -0.0025404366, -0.0019715836, -0.0025333315, 0.00020408706, 0.0007411024, 0.0009587679, -0.36486754, -0.93577474, 0.0017576761, -0.00073932216, 0.0013258316, -0.00053816184, 0.0014501722, 0.86450696, -0.0031162929, -1.4149411, 0.79376876, 0.0016239203, 0.0014032325, -0.00082445366, 0.7173563, -0.18771483, -0.0012894268, 1.3082556, 0.003396296, 0.0031140218, 0.07168358, -0.0031288713, 0.0042642737, -0.00019547605, 0.6820018, -0.0024146042, 0.001297983, -0.001991393, -0.0006375975, 0.001960299, -0.0013610084, 0.3720132, 0.014570104, 0.0006650171, 0.0025439085, 0.0007869798, 0.0002099442, 0.0041733067, -2.8865514e-05, 0.001522725, 0.96214837, -1.2154897, -0.00025930433, -0.0005616075, -0.0012459417, -0.0004287516, 0.0017115232, -0.7143108, 0.0009324978, -1.1920748, 1.167465, 8.381193e-05, -0.0007433428, 0.0003505553, 1.1214885, 0.104330584, -0.00046695804, 0.82879186, 0.0010433124, 0.00059396005, 0.52358437, 0.00089916395, 0.00052915653, 0.0032905135, 0.4036115, -0.0011412222, 0.00075659726, -0.0009185441, -0.0009378881};
float bias_3[] = {0.055365287, -0.30078948, -0.17747235};
