float weight_1[] = {0.0013261223, 0.0006311521, 0.0007816382, 0.8388088, 0.8080597, -1.0797698, -0.28064683, -1.2831473, -1.5307571, 0.00036650553, -0.0003083356, 7.464376e-05, -0.45491305, 0.62129533, 0.46691075, -0.0013043238, -0.0010175654, 0.0026987446, -3.6221066, 0.13528422, -0.4953659, 0.927081, 0.5588931, -1.7409868, -0.0004404979, 0.00022795479, -0.0012042802, 0.29403955, 0.440967, -1.2336805, -0.0024938437, 0.00091401965, 0.0003334439, -0.0010199916, -0.0022833403, 0.00044215765, -0.00470231, -4.5601046e-06, 0.002137213, 0.0018090248, 0.000661642, -0.0023244, -0.0014840434, -0.00016843854, -0.0012660814, -0.001742928, -0.000119664066, 0.0013887616, 3.9590203e-05, 0.0009465627, -0.0013853565, -0.0009738249, -0.0008347908, -1.6708189e-05, -1.0637306, 0.043581787, 1.1402317, -0.0007957558, -0.004284637, -0.0013829123, -0.0006513387, 0.0013298336, 0.0012929215, -0.00076681713, -0.00048694536, -0.0004719881, 0.11393375, -0.7393318, 1.1411532, -0.9777794, -0.019593567, 0.67825633, 0.4090203, -1.4049363, 0.4903997, -0.0013945547, 0.0027147136, -0.00043131606, 0.00026185554, -0.0005635866, 0.000701754, 0.0007646418, -0.0008547826, -0.0023800884, -2.7720964, -0.6469706, -2.1926343, -0.0006771964, 0.0009492237, -5.9400918e-05, -0.001291757, -0.0032708857, -0.000612712, 1.374954, 1.2141535, -1.1063046, -1.6509267, 0.38028663, -0.13243054, 0.0014808732, -0.0017619182, -9.425747e-05, -1.7623374, -0.16944881, -0.59623504, -0.0009799352, 8.622222e-05, 0.0015383037, -0.30726296, -0.82972586, -0.14137314, 0.0015434974, -0.0021584996, -0.0010850595, 0.0016994982, 0.0014893663, -0.0012999596, 0.0008925446, -0.0005297167, -0.001305256};
float bias_1[] = {-0.07677597, -0.47951287, 0.68482983, -0.3366496, -0.27849874, -0.58129257, 0.37488016, -0.40815628, -0.31331223, 0.38057524, -0.00882064, -0.5382105, -0.040674683, -0.05248441, -0.26627505, -0.31186104, -0.2429372, -0.30452222, -0.30277422, -0.15431978, -0.043283045, -0.039897382, -0.260571, 0.09573716, 0.13893303, -0.42693752, -0.28241402, -0.31236205, 0.8082785, -0.3065081, -0.25008756, -1.4234054, 0.54615897, -0.27324313, 0.8922928, -0.14762838, 0.64411426, -0.5473168, -0.0727041, -0.1582234};
float weight_2[] = {-0.0025475956, 0.0015314484, -0.0005356198, -0.00031589757, -0.00041120913, -0.00072988006, 0.0004934283, -0.001038102, -0.0009803282, -0.00064945174, 0.00014472974, -0.002694541, -0.0012919382, 0.00079686963, -0.00073123665, 0.0013172395, 0.00022560358, 0.0012195682, -0.0010244909, -0.00057940546, -0.0012666293, -0.00044080007, -0.0006887508, 0.00030587183, -0.0015244382, -0.0011805347, -0.0010029381, 0.0013229661, -0.00013597144, -8.3447434e-05, 0.0005462804, -0.00053784903, 0.0026682015, -0.0015954414, 0.0014170748, 0.0033881126, -0.0016970568, 0.0041389447, -0.00070199824, 0.0011846834, -0.0003183441, -0.36669403, -0.12087151, -0.0026597043, 0.123996906, 0.0011852728, 0.0010081633, 0.0013441695, 1.769053e-05, -0.5452076, -0.00049573707, -0.0014741871, 0.003111734, 0.0012946639, -0.0011280286, -0.00043293252, -0.0014870515, -0.0019541564, -0.3825786, 0.0025640582, -0.0016540342, -0.00427914, -0.07132069, -2.0166256, -0.35925558, -0.0014965729, -0.004197452, 0.0012277574, 0.0011763752, 0.001338674, -0.00033193428, -7.130858, -0.25207406, 0.0012231186, -0.31299084, -0.0004441602, -0.25041556, -0.0012755885, 0.000590685, -0.0019428801, 7.6437835e-05, 0.0024756817, 0.0008290609, 0.0028806296, 0.0018610641, 0.00039890257, 0.00052159483, -0.0014035985, -0.00014695973, -0.0010847969, -0.00014403265, 0.0009423612, -0.0017411606, -0.00088592706, -0.003794456, -0.00045105745, 0.00029976133, -0.0016410676, 0.0011236278, -0.00021055597, -0.00077170273, -0.0013498645, 0.0024150778, -0.0007245717, -0.0010653271, -0.003257251, 9.321427e-05, 0.0008978962, -0.00065918034, -0.00029352691, 7.637963e-05, 0.00018978282, -0.0020027903, -0.00014494633, 0.00020679782, -0.0012091899, -0.00011613837, -0.002230865, 0.001235567, -0.0010461258, 0.0011532838, -0.049648877, 1.499446, 0.0013778597, 0.68877506, 0.0015228679, 0.15018044, 0.34269264, -0.0007391169, 0.39007908, 0.0015795662, -0.0017511973, 0.0004909007, -0.0012937344, 0.0012641327, -0.00052496744, 8.1943464e-05, 0.002865061, -0.10942269, -0.002585736, -0.0012939305, 0.0019187976, 0.14896792, -0.07033088, -0.18091269, -0.004174111, 0.00021996076, -0.0010219417, -1.9789304, -0.00077730184, 0.00085577136, -5.348234, 0.392868, 0.00099307, -0.106756836, 0.00018299243, -0.52174395, 0.00041137467, 0.0008023892, 0.0012664197, -1.12289854e-07, -0.0023634708, -0.001335715, 0.000250409, -0.00032232283, -0.002315057, 0.006373165, -0.00065615366, -0.0012127042, -0.0014151002, -0.0017696463, 0.001004888, 0.00051191624, -0.00046273007, -0.001212561, -5.0396877e-05, 0.00091284886, 0.0010421572, 0.00026646513, -0.00046087592, 0.00045996334, -0.0014397978, 0.0002424019, 0.0004433015, -0.001840104, 0.0008573234, 0.0009772104, 0.0012854462, 0.0016810969, -2.0823616e-05, -0.00012139941, 0.001983758, -0.0010726189, 0.0024340018, -0.0005260116, 0.000895997, -0.0020108453, 0.0002513696, -0.00090564694, 0.00065748557, 0.0014949817, -0.00080190226, 0.00066612195, 0.00031530112, 0.00049991184, 0.0025868006, -0.0016842268, -0.0013648779, 0.0012445536, 0.00055607135, 0.0020425858, 0.002447619, -0.001247416, -0.00067968335, 0.0009426611, -0.0011425484, 0.00017661485, -0.001787755, 0.0024348788, -0.0009577217, -0.000160945, 0.00067475054, 0.0023519332, 0.00046673266, 0.0015513592, -0.0022232982, -0.001223609, 0.00024492387, 8.792017e-05, 0.001253567, -0.0007930952, -0.00023827929, 0.0012128155, 0.0006338469, -0.0002486268, -0.002698943, -0.0018305663, -0.0015910631, -0.0018868123, 0.0006445897, -0.0021311957, -0.0011167389, -0.00067619246, 0.0018226058, -0.00053905597, 0.0017870788, 0.0008704867, 0.00073647726, 0.0023754183, 0.00028948812, -0.00036894053, -0.0011043011, 0.00021668329, 0.000864953, -0.002185462, 0.0009095391, 0.0020042693, -0.0025550367, 0.0006613397, 0.0024751085, 0.0019350724, 7.757085e-05, -0.00024193176, 0.0016900514, -0.00041494292, 0.0019320361, 0.0013509061, 0.00088404346, 0.0011634649, -0.00071399263, -0.00056551443, 0.003295477, 0.00016704225, -0.002333607, -0.000379264, -0.0014252942, -0.0032901578, 0.002009159, -3.757002e-05, 5.221693e-05, -0.00057058805, 0.11148243, 0.00026315963, 0.0011561799, -0.0073331427, -0.0024673669, -0.0008093143, -0.5394089, -0.0004476182, 0.0013318243, 0.0021808422, 0.00048565766, -0.0012922917, -0.0002773813, 0.0011474864, -0.0016265607, -0.0006561249, -0.0021094605, -0.0013639508, -0.0012000048, 0.00470938, -0.0024735215, -0.091999695, -0.00024265866, 0.0001838291, 0.0007533595, 0.00032689166, 0.00018515764, -0.00020353563, 8.4795116e-05, -0.0016636498, 1.9163164, 0.0013292409, 0.0024795088, -9.6824435e-05, 0.0024012509, 0.00025888777, 0.00046865328, -0.0012430779, -0.0024668952, 0.0016666806, -0.0009834884, -0.0043110196, 1.01154e-05, -0.0004708761, -0.0007028327, 0.0037846991, -0.00087968557, 0.00047988357, -0.0017381927, 0.00013663428, -0.00014510115, 0.0006377176, -0.0007554918, 0.0017809771, -0.0010620453, -0.00073112175, 0.0022998732, 0.00031200185, -0.0033143205, -0.00089981186, 0.003086335, 0.002359952, 0.000777383, -0.0005128495, 0.0025314928, 0.0012635204, -0.0012574821, 0.0012199719, -0.0011615346, -7.866952e-05, 0.00085109397, 0.00013981207, 0.0013054278, 0.00028079367, 0.0011359697, 0.001620681, -0.0009876537, -0.002595503, 0.0016454814, 0.000573425, 0.8633225, -0.00055669574, -0.00017228682, -0.534293, 0.00047496404, 0.0013531018, 0.11833181, 0.00041347303, -0.14978443, -0.00092941686, 0.0003680949, 0.0010648286, 0.0031121504, -0.0014692885, 0.0021714028, 0.000489621, 0.0008206888, 0.0003033753, -0.0013815976, 0.002438413, 0.0018087832, -0.85303265, -0.0007960239, -0.13221453, -0.0012596035, -0.001364918, 0.0024918765, 0.0002947197, -0.0011155913, -0.0013692015, 3.3683028, -0.136635, 0.0028310516, 0.00011358783, -0.00086048763, -1.0646036, -0.0017385324, 0.00050365715, 0.0008942468, 0.0012474282, 1.8108282, -0.015805641, 0.0011377279, -0.5816096, -1.7831306e-05, 0.10252331, -0.9227657, 0.00074000575, 0.41104397, -0.00047119398, -0.0003534218, 0.0016350574, 0.00045214046, -0.0011030042, -0.00013841694, -0.0012397767, 0.003067235, 0.00010639211, 0.0025972538, 0.0006853642, 0.0015156851, -1.6219519, 0.102486454, -0.07735828, -0.0005137024, -0.00016745657, -0.0011245655, 2.2111163, -0.00025924877, 3.2256357e-05, 2.4190037, 1.0275363, 0.00035940326, -3.1580582, -0.0010935336, 0.7607205, -0.0012671239, 0.0012290031, 0.0014205319, -0.0005110528, -0.00095345854, 0.00076992763, -0.0014223959, 0.00090644707, -0.0009938437, 0.00085503067, 0.0012686959, 0.0012867888, 4.295561e-05, -0.0021602593, -0.0010311261, -0.0008251796, -0.0012401859, 0.0013513542, 0.00074321416, -0.0011448953, -0.00086070254, 0.00059790607, -0.0013508002, -0.002442076, 0.00041187697, 0.0013472241, -0.000754336, -0.00013598922, 0.00044379017, 0.001946855, -0.0021598327, 0.00076177635, -0.00068499096, -0.00041362335, 0.0002072429, 0.0011019511, 0.00072381285, -0.0013315706, 0.0005227682, -0.0008816965, -0.0006409852, -0.0002180248, -0.00075576536, 8.422125e-05, -0.105123594, 0.23515628, 0.000528204, 0.3361762, 0.0012163364, -0.0005114681, 0.06337899, 0.0013575428, 0.93151563, -0.0002203735, 0.00059348973, 0.003108597, 8.420821e-05, 0.0011160315, 0.000878127, 0.00021035806, 0.002018535, 0.22531493, 0.0021010493, 2.9497649e-05, -0.0007882904, 0.12951942, 0.05524722, 0.08458125, 0.0015219112, -0.0015139944, 0.0014943981, -0.05333628, -9.59084e-06, -0.0027900185, -10.226346, -0.5875067, -0.00074058236, -1.2478893, 0.0006042451, 0.035210494, -0.00039798487, -0.0012424239, 0.0017074097, 1.5970436e-06, 0.0021761153, 0.00044478138, -0.0026824577, -0.00079012633, 0.0010858477, -4.009367e-05, 0.0006299388, 0.0006785537, 7.4631535e-06, -0.00074624096, -0.0010543104, -0.002932589, -0.0011740118, -9.269803e-06, -1.5879341e-06, -0.0003031736, 0.00040462497, 0.0025005294, -0.00082944345, 0.0018006442, 0.0016116318, -0.002906952, 0.00083987945, 0.0009903032, 0.0010562142, 1.2762321e-05, -0.00016076141, 0.003120719, -2.6235823e-05, 0.0005328172, -0.00068909745, -0.0016612008, 0.0012985193, 0.00026772355, -0.00035864406, 0.0011189299, -0.00027986828, 0.0013772238, 0.00024831446, -0.0031482477, -0.0009460932, -0.000586527, 0.0011407421, -0.001321065, -0.00040980434, 0.00107031, 0.0017589077, -0.00042036775, 0.0015279424, 0.0006982373, 0.00084476173, -1.0404474e-05, -0.001224583, 0.0012857049, -0.002255219, -0.00034765023, 0.00031411485, 0.0014667993, -0.00032248336, 0.00034655957, 0.00092560786, 0.0019238992, 0.00065302744, 0.00061275414, -0.0013802308, -2.9219002e-05, -0.0015368994, 0.00092935516, 0.0022955947, -0.0012919349, -0.0014370286, 0.00020065694, -0.0035969345, 0.00044576218, -0.0026488905, -0.00073953223, 0.0010399368, 0.00036523573, 0.0017221177, 0.0025739472, 0.00077140937, 0.0027662567, -0.00088465126, 0.0006807693, 0.0010820441, -0.0005587827, 0.0022861604, -0.0007141675, 0.0002229705, 0.00027914857, 0.00018507225, -0.001879551, 0.001717829, 0.0026488956, 0.00031081424, 0.0006281199, -0.000657872, -0.0012804761, 0.0020749178, 0.0015071747, 0.00061693095, -0.00086685934, -0.001422043, 0.0008618614, -0.0010535631, 0.0020926849, -0.00093303586, -0.0007626652, 0.0005908483, -0.0020866715, -0.00035339594, -4.9542665e-05, -0.0012226104, -0.00017604057, 0.0018134061, 8.726545e-05, -0.001669985, -0.0014931699, -0.0003596356, 0.0012242778, 0.0015000144, -0.0017947882, -0.001853514, 0.0005031392, -1.5394879e-05, 0.0026160507, 0.00048908615, -0.00085440296, -0.0024674204, 0.00085789635, 0.00013824366, 0.0010133873, 0.0020030711, -0.0012932054, -0.001778111, -0.0011369004, 0.004316449, -0.0011669806, 0.0004820248, -0.0031146398, 0.00017579895, -0.0006142765, 0.001782273, 0.0006649207, 0.00022110585, 0.0011521842, 0.00032099098, 0.0017830292, -0.0013416206, 0.0042943857, -0.00048655402, 0.0006619246, 0.00033050185, 0.0015210875, 0.00039303777, 0.0011364666, -0.002321815, 0.00042112818, -0.0006458931, 0.0010288059, -1.3649321, 0.34820873, -0.00041684092, -0.63888127, -0.004400615, -0.4089396, -1.0735339, 9.4796414e-05, 0.678106, -0.0009004706, -0.00079621456, 0.0007300653, 0.0021521808, 0.0037525492, 0.006191379, -0.0014071716, -0.00052989036, 0.0018536192, 1.4934805e-05, 0.00023732404, -0.0007661724, -0.40894848, -0.63848966, -0.015354199, 0.00041451596, 0.0013157025, 0.00013023292, -0.5125607, 0.0014000065, 0.0025805365, -0.000452758, -0.15784034, 0.0004529575, 0.027417218, 0.0006949469, 0.1060341, -0.0009349513, 0.0015072087, 0.0012872561, 0.0026825054, -1.4340994, -0.085674874, -0.00058706733, 0.054198932, 0.0024907212, -0.41883573, -0.0005558911, -0.001555138, -0.25003284, 5.5030745e-05, -0.0006533768, -0.0017276312, -0.0012377056, 0.00058999803, -8.214393e-05, -0.0012339655, 0.00013639947, -0.32803792, -0.00078337407, 0.00012667781, 0.00049335987, 1.7253911, -0.07948745, -0.028314104, -0.0010522676, -0.0020360618, 0.001282095, -0.6268209, 0.0014556278, 0.0010007261, -6.4815454, 0.03981063, 0.0010558392, -0.13233821, -8.5792155e-05, 0.17814195, 0.0022042473, 0.0013179465, 0.0018652858, 0.0004464081, -0.16523516, -0.083841026, -0.0016805537, 0.17322831, 0.000111285655, 1.5220175, -0.10798335, -0.0009848487, 0.3095233, -0.00088300434, -0.002491693, -0.001232709, 7.6251774e-05, -0.0018917401, -0.0023898026, 0.0014448749, -0.00087840727, 0.008795685, -0.0023846873, 0.00032755942, 0.00019285962, 3.389192e-05, 0.020132259, -0.06835479, 0.00029534847, 0.003112344, 0.0006036607, -5.684871, -0.0012072403, -0.0012520248, -0.59681207, 0.035293825, -0.00013923564, -0.0462613, -0.00045808975, -0.048635997, 0.0016380843, 0.002160632, 0.002429355, 0.00056336285, 0.00092433766, -0.0032794308, 0.001249322, -0.0024847765, -0.00040577888, 0.00050608465, 8.587421e-05, 0.0002878697, -0.0024977294, 0.0006680682, 0.0017762603, -0.0010302899, 0.0007841671, -0.0017214348, -1.6357342e-05, -0.0038435766, 0.0013495316, 6.544503e-05, 0.0011760894, 0.00084302103, 0.0008252065, -0.00062520144, 0.0021757307, 0.0004908049, -0.00015739212, -0.0007499772, -0.0005601039, -0.0038504163, 0.0018458565, 0.00082863774, 0.00087952067, 0.00068740244, 0.00079865754, -0.0011660317, -0.00064235926, -0.0006109367, -0.0013932296, 0.0003256035, -0.00015840976, 0.0023142982, 0.037666917, -0.0012065934, -0.0010744573, 0.5371709, 1.5234036e-06, -0.0013411161, -9.465728e-05, -0.0007051459, -0.32292536, -0.0012201185, -0.0007626717, -0.0010943203, -0.0025553862, -9.7690034e-05, -0.0017567517, 0.0012576454, 0.0010185894, -0.72311026, -0.00022192119, 0.0012944435, -0.00060171256, 0.446868, -1.7982812, 0.010871694, -0.00084498106, 0.0012374393, 0.0023614054, -0.0006791145, -0.00088259904, 0.0010892821, 0.14966469, -0.35510224, 0.0014451174, -0.054450445, 0.0019712572, 0.018588409, -0.0020845723, -0.00029800064, -0.0013144161, -5.6549907e-06, -0.0012115387, -0.0011728173, 0.0004681778, -0.0012707454, 0.00045559264, 0.0005485383, 0.0014300833, 0.001403328, -0.0010314352, 0.0005371491, 0.0002554903, 0.00037338998, 0.0013623271, 0.00033060776, -0.0006298998, 0.00097180484, -0.001184982, 0.0010437653, 0.0021577273, 0.0015926785, 0.0032165027, 0.0014397341, -0.00048722094, -5.660637e-05, -0.0001877977, -0.0009732833, 0.0015908338, -0.003101017, 0.0007604138, 0.0005172922, -0.0005210183, 0.0010976305, 0.00024546194, 0.0005748705, 0.00042959093, -0.0013428209, 0.00052600936, -0.00089323113, 0.00300621, 0.0008900587, -0.0013039107, 0.0011987041, 0.0002678989, -0.0013931763, -0.0010193976, 0.0001701988, 0.001632377, 0.00071147777, -0.00016635522, -0.00087975146, 0.0005860686, 0.0018117965, 0.0013268597, -0.0022670946, 0.00028386735, -8.305651e-05, -0.0025223736, 0.0007297137, 0.0021629387, -0.0012980142, 0.0006414857, -0.00073048566, -0.0008793424, 0.000511272, -0.0008598562, 0.00060400285, -0.0012949967, 0.0006012003, 0.00051797763, -0.0033681388, 0.0012221391, -0.00090229383, 0.0013361033, -0.00018099492, -0.0006633207, -8.358096e-05, 0.0014261622, 0.0016779529, 0.0005790419, 0.00023997342, 0.0018154607, 0.0017844653, 0.0013341038, -0.0005258247, -0.00036425982, -0.001113713, 0.0007964759, -0.00021628616, -0.0006432122, 0.0023874852, -0.0008427561, -0.00018242626, 0.0017985135, 0.00092096394, 8.15246e-05, 0.002715129, 0.0005433551, 0.0031904038, -0.00073641504, -0.0025261804, 0.0042337505, -0.0011121479, 0.00027539098, 0.004275283, -0.00056251715, -0.0013957773, -0.0020996695, 0.00063916494, -0.0006407815, -6.626354e-05, -0.0011021034, -0.0010447088, 9.473786e-05, 0.0027214997, 0.00068832515, -0.00056347763, -0.0003623428, 0.00079787226, -0.0017624317, -0.0018289419, 0.006294852, 0.0008442527, -0.0014799787, 0.00068343576, -0.004362477, 0.0014948158, 0.00045611715, 0.0005232416, 0.0014374339, 0.0027586774, -0.0005304781, 0.0012252001, 0.0001635678, -0.00077237777, 0.0019844626, -0.00095998845, 0.0012314321, 0.0017216394, -0.0012486269, -0.00035630297, -0.0017581852, -0.0011426324, 0.00025414262, 0.0012915053, 0.00060335296, 0.00056714285, -0.0012541519, -0.0005277513, 0.001238693, -0.00032739353, 0.00071907026, 0.0015103116, 2.2034277e-05, 0.0007160229, 0.00064983754, 0.0012057438, 0.0015209157, 0.0011382661, 0.00035183935, -9.638771e-05, 0.0016627404, 5.4706004e-05, 0.0023945393, -2.8421658e-05, 0.0018024027, 0.0016545815, 8.313154e-05, 0.00089060527, 0.0033080333, 0.0032603508, -0.0013390462, 1.5321159e-05, -0.0013293426, -0.0015195494, 0.0009027539, -0.0007671637, 0.000388076, -0.000111836474, 0.0009691119, -0.0007769419, -0.00033500293, -0.001654297, -0.00069621415, -0.0012783017, -0.00022750397, -0.0027889642, 0.0013340197, 0.00061813963, 0.0010142202, 5.2088886e-05, 0.0021316456, 0.00065220194, -0.0011451563, 0.00086537685, -0.0004538549, 0.00087339716, 5.0199735e-05, -0.0009940496, -0.0007044347, -0.0009345707, -0.0017935047, -0.0012281031, -1.7913037e-05, -0.0006257546, -0.0005053834, -0.00099097, 0.004113376, 0.002903078, 0.0015522374, 0.0012302261, -0.0010046135, 0.00044239376, -0.001941719, -0.00012031582, -0.0010921989, -0.0009983563, -1.2834556e-05, -1.765415e-05, -0.0015099703, -0.0014192477, 0.00088093267, -0.0028274423, 0.0007630453, -0.0022801885, -0.00027919572, -1.4911377e-05, -0.0023733824, -0.00068188494, 0.00020812306, -0.0005130258, 0.00044651696, 0.00039274228, -0.0018727226, 4.9157752e-05, 0.0005249047, -0.00068480114, 1.8000123e-05, 0.0036312933, -0.00096680457, -0.0011322862, -0.032187175, 1.5529339, 0.0013692371, 0.41138023, 0.00023987901, 0.70241857, -0.57570547, 9.3222654e-05, 0.11353341, -0.001505273, 0.00205071, -0.00079432945, -0.0011298669, -0.0010535853, 0.0019701861, 0.00084216637, 0.0014843119, 0.02481883, 0.0012864607, -0.0015554714, 0.0012352036, -0.5419441, 0.1095824, -0.00013316353, -0.0006883437, 0.001261537, -0.0006299854, 1.1832534, -0.0003441731, -0.00019618828, -0.08667947, 0.90655994, -0.0030732707, -1.955113, -0.002269568, -1.0929765, -0.0014221391, -0.0018082974, 0.0005548013, -0.00029823976, -0.00042713113, -0.00096417096, -0.0006633863, -0.0009294857, -0.00067497767, -0.00022143201, -2.49742e-05, 8.3699706e-05, 0.0006388314, -0.00130843, 0.0024470035, 0.000739711, 0.0015117616, -0.00159118, -0.00041755027, -6.956447e-05, 0.0006075937, -0.0015477879, 0.0005812049, -0.0012811178, 0.00034636405, 0.0020097753, 0.00069794216, -9.502389e-05, 0.0013598347, 0.004746877, 0.0012445746, -0.0021050214, 0.0023800626, -0.0010397488, -0.0009210415, 0.0012871842, 0.00054975844, 0.0019883516, 0.0007398046, 0.00013036636, -0.0013558385, 0.0011553844, 0.00047056738, 0.0026983605, -0.06692786, 0.0012815819, 0.0009308907, 0.59693897, 0.001144666, -0.6844838, 0.00012242526, 0.00066168915, -0.79704463, -0.001513135, -0.0028586832, 0.0021249896, -0.0047499477, -0.0005595599, -0.0012979024, -0.00056308816, -0.00094729854, 0.3567031, 0.00045876415, -0.0013862895, -0.0032919557, 0.07084859, 0.1093759, 0.0009201331, -0.0007691885, -0.0013477916, 0.00061939814, 0.00086195336, -0.0012629185, -0.0006707306, -1.0016017, 0.8651131, -0.00080469286, -0.2486243, -0.0011342856, -0.051476665, -0.000606811, -0.00010051124, -8.2797254e-05, -0.0007824674, -0.087169066, -0.000100373945, 6.490576e-05, -0.98202765, 0.0005427941, -0.0012851303, 0.108466804, -0.0012875813, -0.10488496, 0.0006759907, 0.0020718803, 0.0009031977, -0.0010640239, 0.00071068737, -0.0006291342, -0.0005023228, -0.0012724645, -0.00072584185, -0.0007910342, 0.0021575263, -0.00084686774, -1.3018222, -0.0008355871, -1.0089307e-06, 0.0003735922, 5.073799e-05, -0.004164744, 0.0010795081, -0.0014189607, -0.00058685656, 5.6253104, -0.3908336, 0.000129328, -0.1396731, 0.00055286346, 0.0014038411, 0.00071442255, 0.0007804796, -0.0012195013, 0.0005324218, 0.7387962, -0.39776808, -0.00067806337, -0.24035276, -0.0019723657, 0.36189792, -0.3018561, 0.0018317393, 0.46862793, 0.00075099035, -0.0019592037, -0.0014059079, -0.000516803, -0.00066819065, -0.0007447066, 0.0016543089, 0.0004590855, -0.0531098, -0.0006091513, -6.3917105e-05, 0.0006270672, -0.012944957, 0.20700662, -1.3117973, 0.0016978313, 0.0005870715, 3.343867e-05, 0.22910133, -0.00021929701, -0.0011128327, 3.9566846, -1.4806578, 3.4761615e-05, 0.8193207, -0.0012922846, -0.23789781, 0.0023246212, 0.000105945976, 0.00066294865, 0.0022522905, 0.39353144, 0.0013613104, 8.063845e-05, 0.19335827, 0.0019407463, -0.07251935, -0.03485129, -0.0009640012, 1.1169143, 0.0017195796, 0.0018125265, 0.0008883977, 0.00017228757, 0.0029340344, -0.0011575132, 0.0006619493, -1.7388666e-05, 0.00022384236, -0.0032292, 0.0011617485, 0.00047293768, -1.3514843, -0.51473844, 0.5579951, 0.00074737985, 0.00059459894, 0.00021041423, -0.75139016, 0.00021827105, 0.0008705923, -0.3037936, -0.08037289, -0.0015196586, -0.37691912, 0.00061366416, -0.7655777, -0.0013448899, -0.0008748648, 0.00030232873, -0.0007473453, 0.18164742, -0.00018872347, 3.6163838e-05, 0.41761804, 0.00029350875, 0.0008913068, 0.24290457, 0.0010282794, 0.9572316, -0.0008488089, 0.0018046016, -0.0014515095, -0.00015625701, 0.0013867599, 0.00088013493, -0.0026062625, 0.0022475293, 0.38486704, -0.0016942266, -0.0019726087, -0.00012078823, -0.6936253, -0.08820952, -0.05504435, -0.0008526915, -0.00475903, 0.0001827025, -0.15952751, -0.0018369118, 0.000834317, -7.107518, -0.74491477, -0.0018430087, -0.79742634, -0.00047474317, -0.45434433, -0.0027239353, -0.0009091319, 0.0002247289, 0.0015089943, -0.0015747957, 0.00036808022, 0.0002917808, -0.0013175174, 0.0005191148, -0.0011280439, 0.0017843915, -0.0018191413, 0.0012804319, 0.0013638466, 5.599126e-05, 0.0012059185, 0.00048813387, 0.0011427329, -0.0016963345, -0.0005006796, -0.0028340665, 0.0010731969, -0.00046891556, 4.2964806e-05, -0.0004828375, -0.0012892769, 0.0008878483, 0.001758353, 1.3044293e-05, -0.00034604024, 0.00054282247, 0.00038615672, -0.0061518457, -0.0008287281, 0.00028594423, 0.0017474454, -0.001132502, 0.0017620086, -0.0007657659, -0.0005970725, -0.00033579773, -0.0018556946, 0.00024050409, 0.0023089934, 0.00074177154, -5.4760458e-06, 0.0019192699, 0.0019203703, -0.0049044755, -0.00037911453, -0.00096786924, -0.00045482154, -0.0004585617, -0.00037086464, -0.00045925344, -0.00044248404, 7.759896e-06, 1.6245103e-06, 0.0014511512, -0.00034274062, -0.000291807, -0.0011315197, -0.00077854615, 0.00086509535, -0.0018047221, -0.0013016551, 0.0023423973, -0.00057492754, -0.00031312407, 0.0013233637, 0.0024092258, 0.00025557657, -0.00024691544, 0.0017624428, 0.00415719, -0.0005562344, -0.0003831616, -0.0005678048, 0.0006729892, -0.0012885393, -0.00078539253, 0.0018317886, -0.0016233942, 0.00011508283, -0.0020426982, -0.0019011048, -0.00026574492, 0.0006568262, 0.0023607642, -0.00092366914, 0.0011896244, 0.0003441599, 0.001540307, 0.00032523694, 0.00077009347, -0.0019643414, 0.0016270501, -0.002827339, 0.0021186718, -0.00037351582, -0.0027202757, 0.0003137624, 0.001068291, -0.0011313909, 0.00031447425, -0.0015834605, -0.0008436789, -0.0006246386, 0.0013436946, 0.0014249394, 9.388762e-05, 0.00065080274, 0.00020784652, -1.4090161e-05, -0.0010196029, 0.00091243384, 0.00040894293, -0.0013797736, -0.0015713824, -0.0025969148, -0.001202344, 0.00029088935, 0.0006206074, 0.0024750736, -0.0037377793, -0.0019547986, 0.0012593849, -0.0014286904, 0.0006528148, -0.0022114138, 0.001190397, -0.001566146, -0.002586467, 0.00029972673, 0.0001756365, 0.00087036943, 0.00024235377, -0.0004892996, 0.0018723485, 0.001477577, -3.2270793e-05, 0.0015726581, -0.0005977971, -0.0012307623, -1.6626902e-05, -0.00044447114, 0.002380964, -0.00049097696, 0.0009359075, 9.881536e-06, 0.00019659178, 0.0008853251, 0.00089752953, 0.0018173102, -0.0004010701, 0.0019259475, 0.0015104322, -0.0010598868, 0.0011993193, 7.877406e-05, 0.0013098256, -0.0012421443, 0.0008826366, -0.0015999617, 0.0002714611, -0.00087887084, -0.003260379, -0.001293344, -0.00055148825, 0.003045257, 0.0004436471, 0.001809449, 0.0005635513, 0.0024616295, 0.00020117903, -0.0012941358, 0.00068790733, -0.0012505844, 0.0010146841, -0.0009360835, 0.000196943, -0.00066405925, 0.0008738243, 0.0002747559, 0.001468705, -0.0004607021, -0.0020270308, 0.00059757713, 0.000111203175, -0.00075260724, 0.000583641, 9.486052e-06, -0.00081208465, 0.0009001495, -0.0013294518, 0.00015082135, 0.0016312745, -0.00032114028, -0.001983845, 0.00066361803, -0.00024972134, 0.0005485794, 0.00074057246};
float bias_2[] = {-0.15252055, 0.18964528, -0.19394498, 0.29270867, -0.13611406, -0.15519369, -0.005693062, -0.17131951, -0.011162711, -0.10178359, 0.14987649, -0.16760413, 0.46718547, -0.1463795, -0.10372134, -0.09859339, -0.10341, 0.058647577, 0.15905477, -0.09331954, -0.14415766, 0.05623083, -0.12188245, -0.015540929, -0.0391638, -0.14733636, -0.010348405, -0.13286982, -0.021115405, -0.00620678, -0.115570635, 0.14264932, 0.21267615, 0.01976229, 0.24206163, -0.015601947, -0.8303753, -0.03660642, -0.15697144, -0.19156875};
float weight_3[] = {0.0021208336, 2.6261134, -0.00120195, 1.34901, 0.0032943692, 0.0005640888, 0.0022568959, -0.039099153, 0.0007072454, -4.3265514, 2.066682, -0.0019407138, -2.4677384, -0.0013113535, 0.00089178776, -3.906683e-05, 0.00087862904, -0.0647641, 1.3500538, 1.2114134, -0.00082237535, 0.16569884, 0.001537774, -0.00011146662, -0.0014107825, 0.00017685426, -0.0034108297, -0.0027630657, -0.07946257, 0.0007605377, -0.63482565, 0.5042108, 0.8526517, -1.3719596, 1.9614209, 0.0018018082, -0.0017662707, -0.000839414, 0.0013390782, 0.001165764, 0.0023420854, 3.489899, -0.0010324687, 0.18990527, -0.0031116148, -7.1201706e-05, 0.00060136133, -0.4876354, -0.00088157225, 3.6146727, -0.8772807, 5.1841605e-05, 1.5268053, -0.001175984, -0.0012758386, 0.0009197783, -9.4429706e-05, -1.7746786, -2.0236053, 1.5811547, 0.0015623991, 0.77948457, 0.0006263756, -0.0024363233, -0.0010378057, 0.00017002987, 0.00045390648, -0.0011448632, 1.0294418, -8.509791e-05, 0.34170753, -1.9435297, 0.04715426, 1.2265104, -1.4468454, -0.003152804, 0.0005701357, 0.0010557801, 0.000672441, -0.00047178695, 0.0021418964, 1.1086639, 0.00048542419, 0.22306933, -0.0010882162, -0.0018353309, 0.0012954223, 1.4251568, 0.00015192159, -4.0474057, 0.59255934, -0.0018094775, -2.6571004, -0.0045059463, -0.0015043975, -0.0022154897, 0.0004159109, -0.15497278, 2.1895227, 1.1225454, -0.00053205225, 0.5974058, 0.00071907585, -6.191019e-05, 0.0008623677, 0.0006692026, 0.0009349097, 0.00065611466, 0.6783643, -0.0017468897, -0.16034937, 2.7289166, -1.0284939, 0.029941125, 3.0619495, 0.0018662536, 0.0010818068, 0.002566624, 0.0007160457, 0.0012988631};
float bias_3[] = {-0.014911076, 0.32598624, 0.4851851};
