float weight_1[] = {0.0010674335, -0.0024665624, -0.001946303, -1.5597714, -1.0144234, 0.53713334, 0.22058211, 1.1827332, -1.4135633, 0.0008360927, -0.0014515445, 0.00090759824, 0.002477277, 0.00028057155, 0.0013048715, -3.5244756, 0.15164614, -1.7017372, 0.003296543, 0.0010249465, -3.8747326e-05, 0.0019262818, -0.0006767101, -0.00018303527, -0.0020423802, -0.0002518925, -0.0016142041, -1.3532456, 0.27621317, 0.54200804, 0.68499446, -0.0070914705, -1.4960413, -0.00037634827, -0.0010186062, -0.00018987425, 0.01339847, 0.6878168, -1.7935741, -0.0011760145, 0.0022043372, -0.0012926882, -0.0012332173, 0.00019599397, -0.0031284476, -0.0014987495, -0.0030724665, 0.0010322672, -0.0018077458, 0.002484159, 0.00065172155, 0.0011224245, -0.0005806023, -0.00026144262, 1.1883311, -0.7753087, -0.5179217, -0.00082667166, -0.00016168447, -0.0037276219, 0.0024954025, 0.0007559861, 0.001628184, 0.0014364559, -0.0005459091, 0.0018502097, -0.0026053893, 0.0012848625, -0.0013259896, 2.517982e-05, 6.19108e-05, 0.00047944745, -0.00077739154, 0.00016652525, 0.0015122422, -0.0011146701, 0.0028395772, -0.00013551372, 0.001618597, -2.8072944e-05, -0.0023875728, 0.0017968302, 0.0017706701, -0.00094548217, -0.00029870775, -0.00077829795, -0.00048957404, 0.0032982654, 0.0003680539, 0.0015552979, 0.00061913265, -0.0010427134, -0.0015227484, 0.0006862189, -0.0015591882, -0.0013055346, -0.0017666759, 3.838884e-05, 0.001097931, -0.002748022, 0.002814793, -0.0014112473, 1.2660321, -1.1801664, -1.1087836, 0.0017890425, -0.0005308399, -0.0003856722, 0.0009785155, -0.0018933163, -0.0017133302, 0.9065949, -1.2808399, -0.73135424, -1.7409492, -0.6796655, 0.7986078, -0.00036736892, -0.0013316176, -0.0012991294};
float bias_1[] = {-1.0697663, 0.7768158, 0.020698216, -0.34697548, -0.30077836, 1.3117535, -0.011220221, -0.16746172, -0.18206242, 0.5122242, 0.7691148, -0.43178242, 0.684748, -0.44117448, -0.37346748, -0.4906482, -1.5892669, -0.52441525, 0.28559837, -0.032304015, -0.05113411, -0.3978578, -0.08405495, -0.2695781, -0.33844948, -0.06570715, -0.016783185, -0.33754483, -0.031855524, -0.0653795, -0.5178135, -0.09709837, -0.34381744, -0.12585914, 0.5611695, -0.44626194, -0.09228656, 0.5995691, 1.1301225, -0.25779557};
float weight_2[] = {-0.002415367, -0.001780085, 1.6189979, 0.0019381134, 0.0018958723, -0.0011824378, -0.0013353927, 7.6764234e-05, -0.0010487131, -1.3901223, -7.5702834, -0.00071412115, -0.00093441026, -0.000840897, -0.0018435279, 0.00027153868, 0.0021568502, 0.0012227676, 1.3887111, 6.133824e-05, -0.0012123173, -0.0010784563, -0.001055772, 0.0012987402, 0.0011380735, 0.0020642795, 0.0004090584, 0.0004958173, 0.0011904477, -8.595141e-05, -0.000800958, -0.0005955741, -0.0008404741, -0.0012704898, -3.426947e-05, -0.0009352441, 0.0019517277, -0.0037143978, -0.0025619473, 0.0005607584, -0.0021962416, 0.000860204, -0.0017645631, 0.0016394588, 0.0018731767, -0.0002519205, 0.0005846467, -0.0006008008, -0.00412108, -0.0024792831, -0.00054032233, -0.00079826324, 0.00036339884, 0.0014278629, 0.00046280434, -6.747426e-05, 0.004173208, 0.0023006182, 0.0032614311, -0.00047061738, 0.0016117985, -0.00017207832, -0.00069464603, 0.0019236385, 0.00033962552, 2.5670743e-05, -0.0014351511, -0.0011018352, 7.415925e-05, 0.0018734281, -0.0013779945, -0.0005732332, -0.0009260792, -1.4288584e-05, 0.00027672434, -3.8967308e-05, -0.0006376623, 0.0005342681, -0.0014886028, 0.0009767393, 0.0018997237, -0.0034181492, 0.0022206693, -0.00042186736, -0.0015795165, -0.0023098667, -0.00093918754, -0.001979358, 0.00029963162, 0.00089500635, -0.00072559854, 0.00030892156, 0.0012757878, -0.0021042724, -0.0007000646, -0.0015775478, 0.00066277146, -0.0005814133, -0.0012104178, -0.00040203836, -0.0014038077, 0.0028659445, -0.00026591378, 0.0005641273, 0.00082748977, 0.00085438794, -0.00079282606, 0.000401359, 0.0010780288, -0.0012930502, -8.518889e-05, -0.0010333293, -0.000988425, 0.00017350866, 0.00036340137, -4.6565547e-06, -0.00063197117, -0.0006293395, 0.0005140818, 0.0011240398, -1.0926771e-05, 0.0006550194, -9.342606e-05, -0.0021197607, 0.00096703274, 0.0012051312, -0.0008026415, 0.002845503, -0.00061599317, 0.0017779302, -0.0019369805, -0.0020705634, -0.0008001479, 0.0012596778, -0.0010127514, 0.0006698889, 0.0005704351, -0.0039688516, -0.0014194832, 0.00057341956, -0.0007655085, -0.0002460875, 0.0018016663, 0.0020189497, 7.718697e-05, -0.00035441195, 0.001497932, -0.0008632133, 0.0009760688, -0.0013392078, -0.0024136407, 0.000457161, -2.5975714e-05, 0.000113294394, -0.002131316, 5.0124596e-05, 0.0006389123, -0.0013286005, -0.00087917934, 0.0005505414, -0.00057064986, 0.0005192786, -0.0016596303, -0.002473101, -0.0018102984, -0.00021456555, -0.00038620445, -0.000119327626, 0.0010355797, -0.0013708659, -0.000773656, 0.0007307809, -0.0014444287, 2.486573e-05, -0.0012858688, 0.0010667514, 0.00022283313, 0.0025808197, 0.0005803848, -0.00021234696, 0.0011299317, 0.0012084073, 0.00652661, 0.00058631576, 0.0032560362, -0.0008967244, -0.00023435155, 0.0023708344, -0.0027064797, -0.00022398733, -0.0025381176, -0.00046247512, 0.0018027481, -0.0038702097, 0.0009664638, 0.0011231104, -0.0017820481, 0.0031015677, -0.00045881083, 0.00072105264, -0.0017828697, 0.0016499453, -0.0017061541, 0.00046574028, -0.0007280676, 0.0018656072, 0.00054092624, 0.00024182582, 0.00095769396, 0.0027353242, 0.00239355, 0.0021674673, -0.0006696559, 0.0007320619, -0.00024559116, 0.00015282689, -0.0036927387, -0.0026296969, 0.00068669143, 0.0006014892, 0.0005643043, 0.0010582148, 0.003870272, 0.0008727632, -0.0025086268, 0.00038026884, -0.0011988475, -0.0009587022, -0.000841717, -0.0012193209, 8.420297e-05, -0.0009814405, 6.557279e-05, -0.0009004525, 0.0010615066, -0.00013705992, -0.0006606203, 0.0003638672, 0.0028341482, 0.004673872, 0.0008081977, -1.097931, -4.3748565, 0.0014654635, -0.0010976575, -0.0015167436, 0.0012623217, -0.0014367454, 0.0012659322, 0.49329302, 0.2467695, -0.00016499424, -1.463433, 0.00075181003, -0.0010204578, -0.0032214713, -0.00055299676, -0.0025096964, 0.7274628, -0.0016622008, -0.0019353345, 3.6357655e-05, -2.8605049e-05, 0.0003028483, 0.0044358354, -0.00037893443, -0.00025460953, 0.00069616624, 0.0032122075, 0.00070114684, -0.0006771909, 0.00011041231, -0.0032936567, 2.3590379e-05, 0.14902857, 0.0008671174, -0.0011787897, 0.5902197, 0.10065057, 0.00044465833, -0.0012256515, -0.00178173, 1.8542174, 0.0012706278, -0.00028117583, -0.00036942575, 0.0013758261, 0.0011964717, -0.00090268033, -1.9454658, -0.7609405, -0.0008696468, 0.0018179547, 0.0032868767, 0.0011249734, 0.0004947219, -0.001681397, 0.00071169133, -2.0154953, -0.0020579302, -0.002476463, -0.0006260673, 0.0015829587, 0.0007538047, -0.002403121, -0.0023032706, -0.0015189669, 0.00029614172, 0.00038121748, -0.0005373447, 0.0014125817, -0.0012675219, 0.00019427488, -0.0019459821, -0.0014345834, -0.0006660423, 0.0015322388, 0.0015118857, 0.013891823, 0.0031158808, 0.00021886767, -0.89104205, 1.9287775, -0.0028083196, -0.00083339674, -0.9341321, 0.0042719766, -0.0013059869, 0.00045431708, 0.21275952, 0.38748142, 0.0012599488, -0.7103673, -0.0016202002, -0.00049953826, 6.902253e-05, 0.0009717988, -0.0018562938, 1.1080731, -3.392549e-05, 0.0007337345, 0.00076424854, 0.0020130225, -0.0004973726, 0.0011566652, -0.0016289082, -0.0010731854, -0.0025967185, 0.00033300242, -0.0012885542, -0.00070544763, -0.004182283, 0.0011326348, 0.0017773446, 0.3805364, -0.0063147154, -0.0016685638, -1.0157979, 0.57822824, 0.0014469074, -0.0025112506, 2.0269244, 0.00046517278, 0.0026632624, 0.0006562571, -1.7103254, -0.0019252626, 0.00013840623, -0.00074271555, -0.060502216, -1.1781304, -0.0002732938, -3.314955, -0.0011243797, 0.0010179193, 0.0017469538, 0.00059729884, 0.004692524, -0.0007898824, 0.0016158305, 0.001812355, -0.0036831358, 0.0018762995, 0.0019455923, 0.00072715204, -0.0007724755, 0.0013299163, 0.001697942, -0.001114996, -0.003114733, -0.0021475507, -0.0012915962, 0.0013148068, 0.00037610997, -0.0018373746, 0.00074151845, 0.001395675, -0.00064220227, 0.5602844, 0.0032935194, 0.0026698452, 0.00015475112, 0.0002432992, 0.0006132883, 0.000450861, 6.817222e-05, 0.0016328096, -0.0010964108, 0.00080009527, -0.0019650399, 0.0006280961, 0.0017683832, 0.00076350535, 0.0011265373, -6.623054e-05, 0.00054262695, -0.0025035022, -0.00016439747, -0.0002943334, 0.0012559781, -0.00067147287, 0.00056863204, 0.0023628953, 0.0004940585, 0.0038900753, -0.0010950925, -0.0012946362, -0.00082913844, 0.0021998973, 0.00094727357, 8.410076e-05, -0.0012309715, 0.0014968917, 0.0010099636, -0.00040356186, -5.833572e-07, -0.00082372595, 0.0014190339, -0.00033347076, 0.0019673053, -0.0024010972, -0.00026523578, 0.0016433396, -0.00084839005, -0.0025621976, -0.0019803229, -0.0005033191, 0.0022888195, 0.002649795, -0.00013038842, -0.0013209963, 0.0007680061, -0.0006799159, 0.0013749285, -0.0005528899, -0.0013852996, 0.001026971, 0.0063183736, 0.00015651458, -0.003780453, -0.0005985247, -0.00054542435, 0.0007122012, -0.0004025685, 0.0016433046, -3.3814955e-05, -0.002675665, -0.0015028806, 0.002507005, 0.0008838029, -0.0019461373, 0.00252639, 0.0029275436, 0.00093358645, -0.0014629755, 0.0030208328, -0.0004203905, 0.0003089992, 0.001545917, -0.0005271345, -0.0010861068, -0.9725191, -2.6075413, 0.00068554183, 0.0015835272, -0.45752218, -0.0021293256, 0.0005987331, -0.0031294038, -0.007095414, 1.28678, 0.0006244648, -0.048868097, -0.00055557623, -0.000454131, -0.0013051433, -0.0004700519, 0.0005093721, 1.6294268, -0.002581657, 0.000667874, 0.003306942, 0.0014157963, 0.0005858948, -3.6692552e-05, 0.0005092174, 0.00064937305, 0.0013655472, -0.0005269209, 0.0010257424, -0.0011150871, -0.0012765757, -0.00049222854, 0.0012579489, -1.1269122, -0.001786522, 0.0012694807, -0.8628336, 0.3211509, 0.0012428951, 0.001264441, -0.00034463237, -0.0010480839, 0.0002220578, 0.0011318169, -0.002544322, -0.0012659589, 0.0006338902, 0.0016165709, 0.00030354876, 0.003967614, 0.00069950055, 0.0011933775, 0.001296437, 0.00024383882, 0.0013974225, 0.0010710007, 0.0010832611, -0.0008463549, -0.0014468404, -0.0005238601, 0.0004918105, 0.0003374085, 0.0020115732, 0.00021092629, -0.000100190286, 0.0012990352, 0.0005374203, 0.00079975463, -0.0021567182, -0.0018158946, 0.00075310085, 0.0006690844, 0.0006169872, -0.00090606627, -0.0011432839, -0.00046283973, 0.002156497, 0.0030289448, 0.0012916685, 0.00246721, -0.07529618, 4.289926, 2.9192248e-05, -0.001624655, -2.56958, 0.00022872543, 0.00068555394, -0.0008552785, -0.30554208, -2.735516, -0.00044104143, -2.3505144, 0.00021450897, -0.0021679513, -0.0019621705, 0.0007561337, 0.0013608936, -0.26442268, -0.0015765127, 0.0018136544, -0.0008853368, -0.00010862024, -0.0005048748, 0.0004607516, 0.00090585416, -0.0018292186, -0.00270104, 0.00020191999, -0.0024726838, 0.0001728863, 0.00021328023, -0.0001508875, -0.00017605629, -0.00048267114, -0.0016173755, 0.0015281898, -0.002496346, 1.5021143, 0.00062752503, -0.00061759085, -0.0013782202, 0.00023682733, -0.0024652304, 0.00049851456, -0.0024654209, 0.00051860063, 0.00020878535, -0.00025236374, 0.0021584842, -0.0014507985, 0.0027456474, 0.0013231107, -0.00041060112, -0.003272709, -0.00063153193, -0.004743556, 0.00074813154, -0.0008840355, 0.00022371515, 0.0023750733, 0.00141406, -0.00050078554, 0.0006794617, -0.001171307, 0.0011059263, 0.0008499394, 0.00017842681, 0.0012828251, 0.0008790781, 7.4058655e-05, 0.0021531633, -0.0013894564, 0.00080507563, 6.3849904e-05, 0.00035785348, -0.0013705442, 0.0016309688, -8.2570245e-05, 0.0001056302, 0.0011461949, -0.0011200673, 0.0009911814, 0.00070527283, 0.0010831493, -6.168612e-05, -0.0026381935, -0.0010300734, 0.00031343638, -0.0014631781, -0.00212934, 0.0006147841, -0.0016820909, 0.0010726925, -0.0017260804, 0.00087277615, 0.00064636423, -0.00021232432, 0.000119620294, -6.527093e-05, -0.0017083415, -9.969808e-05, 2.6601483e-06, 0.0008757761, -0.0019241837, -0.0013817698, -0.0005641334, -0.0012969853, -0.0013173996, 0.00025816914, -0.0015748673, 0.0032992093, 0.0009769856, -0.00015336662, -0.0011866908, 0.00060146814, 0.0032610921, 0.001351853, 0.0010986442, 0.00021727607, 0.00026170327, -0.0016207763, 0.00022697198, 0.001913367, -0.0011316142, -0.0017592481, 0.00014288537, -0.0008157058, -0.0009990453, -0.0010293735, -0.0011245689, 0.0012443928, 0.0009022904, -0.001800343, 0.0017199581, 0.0010555458, -0.00068354205, 4.323745e-05, -0.0008956708, 0.0016756656, -2.1404121e-05, -0.00095620845, -0.000543599, 0.00049408886, -0.0011459923, -0.0012506142, 0.00013885886, -0.0010696112, 8.038385e-05, -0.00021089154, -0.0009415938, -0.00031726598, -0.0012186732, 3.7504098e-05, 0.0008704823, 0.002755724, 0.00012666418, 0.0003257392, -0.0004188571, -0.001285579, -5.765265e-05, -0.00034956343, -0.00054168515, -0.0004589773, -0.00050026656, 0.0010049236, 0.0021837347, 0.00013316452, 8.810914e-05, 0.00074137666, -0.0031403503, 0.0002128542, 0.0004857495, 0.0022818646, -0.0012795052, -0.00056575215, -0.0014281143, 0.0021681394, -0.0017083543, -0.00044276856, -0.00058387633, 0.0006655337, -0.0005688128, 0.00058993156, 0.0006179375, -0.003128812, -0.0003732032, -0.00022452057, 0.0013562744, 0.0003312393, 0.0032908528, -0.0010867086, -0.0036146082, -0.00039460463, 0.00030661037, 7.08834e-05, -0.0005542915, 0.000475651, -0.0024417492, 0.00010211684, -1.4165009e-05, -8.6092274e-05, -0.000646606, 0.000527541, -0.0012400893, 0.0011429185, -0.001956155, 0.0010454392, 0.0011608428, -0.0005925109, 0.0007277477, 0.001670663, 0.0013663187, -8.52301e-05, -0.0012092328, -8.7071356e-05, -0.0019428759, 0.00057727506, -0.00041800522, -0.00011861406, -0.0031248247, -0.0022429489, -0.0014917257, 0.0006547204, 0.0031199888, -0.00016303326, 0.00060018746, 0.000438852, -0.0009917107, 0.00075163564, -0.0005463823, 0.0015729002, -0.0017430367, -0.00055477716, -0.0019543793, 0.0042121243, 0.00015735679, 0.003300163, 0.00021669027, -0.0011780001, -0.002527965, -0.0018161895, 0.36010492, -0.0017065599, -0.00062123005, 0.0017993792, -0.0014565532, 0.0019382423, 0.0007855259, -7.4820595, -0.2557623, 0.00042981483, -0.00015449928, -0.002078659, -0.00045465014, -0.002509113, 0.00026917947, 0.0005173624, 0.857226, 0.0009584881, -0.0011302802, -0.00070257846, 0.0011665511, -0.0007545926, 0.0014885444, -0.0008061219, -0.0005635186, -0.0015302908, -0.0011263904, -0.0024384765, 0.0034844126, 0.0014574076, -0.0007263585, -0.0005816307, -0.4421065, 0.0012081882, 0.0008741154, -1.314915, 0.0042589977, 0.0024725432, 0.0007608923, -0.0013520822, -0.00031972042, -0.0015365104, 0.0013458356, -0.0005491554, 0.00015383406, 0.0010809847, -0.00057968136, -0.001233103, 0.00046283045, 0.0013669159, 0.00078282703, -0.0010549957, -0.00033087237, -0.00024429685, -0.0007641682, 0.0012176576, -0.00017212948, 1.1292141e-06, -0.00062256336, 0.0021893037, -0.00092928135, -9.560108e-05, -0.00028044928, 0.0016409128, -0.0024178582, -0.0008876, 0.00039725762, 0.00015986839, -0.00048069807, 0.0014138683, 0.0002969918, -0.00025733974, 0.00042775436, -0.00085674715, 0.00083010417, 0.0007474086, -0.000622408, 0.001532503, 0.0019812824, -2.0578732, -3.1508052, 0.00058349816, -0.0011317628, -0.16949925, 0.0010634062, 0.00089618115, -0.0024036868, 0.81270814, 0.59815466, -0.00014709966, 1.0054631, 0.0021195537, -0.0018256421, 0.0011565014, 0.00024298576, 0.00037104508, -0.14237252, -0.00086084957, 0.001160103, -0.00035031134, 0.001099599, 0.001408751, 0.0028026165, 0.0016678268, 0.0005190723, -0.0011570766, 0.0004125931, -0.0042721806, 0.0013300065, -0.0018081624, -0.00078286993, 0.0009621409, -0.003791009, -1.7786806e-05, -0.0002714072, 0.42453638, -0.8266839, -0.00191912, -0.0019780833, 1.0677389, -0.12684786, -0.00024177949, 0.00093899196, 1.0081847, 0.00061595964, -0.0004610716, 0.0027094593, -2.0410087, 0.08011404, -0.00096915814, -0.010307735, 0.0005354616, 0.00059215224, 0.00016827679, -0.0011742897, 0.0010979509, 0.86032206, 0.00073548435, 0.002472138, -0.0011651441, 0.0009578713, 1.5924306e-06, 0.0010855603, -0.0017581572, 0.0008110768, 0.004692852, -0.00049089437, -0.0021569075, -0.0006950424, 0.00016892725, 7.900644e-05, 0.0018032584, -0.66741544, -0.000917822, -0.0015421199, -1.6924994, 0.7910812, 0.00060684973, -0.0005710337, -0.00023694063, 0.00027153586, -0.0016061589, -0.001518494, 0.00040001152, 0.0006729298, -0.00025311648, 0.0020056125, 0.0012951439, -0.0017817979, 0.0028533095, -0.00081377354, -0.0012824668, -0.00097553554, -0.0018298188, -0.0008913348, -0.0006126346, -0.0004936547, 0.00074264, -0.0015786416, 0.00052869576, 0.0013321474, 0.0016561882, -0.00037838728, 0.0013569357, -0.00056111906, -0.0017577787, -0.00073488057, 0.00024308148, 0.0022933853, 0.00059904094, -0.0007417714, 9.835954e-05, -0.001064029, -0.0009149515, -0.0010854137, -0.00048807007, 0.00025839708, -0.0018102273, 0.001379667, -0.0007612348, 0.0012347805, 0.0039500985, -0.00020201091, -0.0017436284, 0.00066041993, -0.0015647488, -0.0008807012, 0.00056998525, -0.00074469746, 0.0012962105, 0.0008544789, 0.0016884399, 0.0004448982, 0.0005339536, 0.0010562174, 0.0003066312, 0.0011313632, -0.00025052537, 0.0011580373, 0.0018198089, 0.0006592305, 3.909903e-05, -0.0013852575, 0.0037484262, -0.00036774593, 0.0012368232, 0.0008715439, -0.0007308906, 0.00067331496, -0.0018783216, -0.0014140084, -0.0006710844, 0.0009482984, -0.00044255704, -0.0007773219, -0.00014571514, -0.0021630158, 0.00077989034, -0.0006482416, 0.0002792494, 0.0019902217, -0.00066366274, -0.002414904, -0.0011388167, 0.0025654957, -0.0012454379, -0.001683336, 0.00063961593, -0.00086910854, -0.00022972887, -0.0032783956, -0.001593496, -0.0008700869, 0.0012536788, -0.002593603, 0.00088168663, -0.0004732682, 0.00069388485, 0.0016116005, -0.00095103245, -0.0003809365, 0.00047391647, 0.0012526623, 0.00071280816, -0.0011245359, 0.001800997, -0.0011504855, -0.0015561123, 0.0008689036, 0.003301477, 0.0003932917, 0.001492602, 0.0015698842, 0.0010318196, -0.00038498943, 0.0012178954, -0.0033177594, -0.00050560426, -0.00032874197, -0.00037269283, -0.00094381114, -0.00036336097, -0.0007537693, -0.00010659332, -0.00040649515, 0.0011627851, 0.001790894, 0.00023433863, -0.003998793, -0.0031356807, 2.7839618e-05, -0.002206297, -0.00077808474, -2.1853964e-05, 0.0004199812, 0.0021819896, 0.0005082908, -0.0011338922, -0.00053321884, -3.215774e-05, -0.00031133764, 0.0006021462, 0.00023312893, -0.00022837851, -0.0014057442, 0.00030150125, -0.0011284405, -0.0025139917, -0.002036862, -0.000758098, 0.0016135486, -0.00065084844, 0.0017959876, -0.0006056645, -7.336505e-05, 0.0010914321, -0.00094875344, -0.0018098169, -0.0010195528, -2.3537889, -0.0008543906, 0.0012509156, 0.0004450091, -0.00044467003, -0.00035102013, 0.0013275086, -2.9327675e-05, 0.2628658, 0.38833478, -0.0012180073, 0.0002425682, -0.0005130342, -0.00090402144, 0.00078162225, -0.00024593776, 0.0017366377, -0.0006529118, -0.000507314, -0.0010844397, 0.00038505206, -0.00066541566, -0.0012989803, 0.00064382853, 0.00113111, 0.0007225239, -0.0009618358, -0.00025870802, 0.00036984863, 0.0011860508, -0.0010680701, -0.001578379, 0.00045985114, 7.444454e-05, 7.1382965e-06, -0.0019088087, 0.00018870598, 0.8282982, -0.0022052827, 0.0007695461, -0.24839352, 0.0012713829, 0.00045993636, 0.001259794, -2.0188437, -0.0012564566, 0.0006684686, -0.0019115026, 0.5077422, -1.9819837, -0.0012972159, -4.6375904, -0.0008779866, -0.004396556, -0.0011594096, 0.0018088325, 0.0017516834, -2.7445135, 2.3842847e-05, 0.0014464033, -0.0021515032, 0.0015051971, 0.001288745, -0.0012239083, -0.000117228046, -0.0004150139, -0.000616972, -0.0011031633, 0.0013006212, -0.001061423, -0.0006715231, -0.0015639559, -0.00046379142, -0.0012304478, -0.0010856362, 0.00017931592, -0.001136199, 1.2754261, 0.0032953522, -0.00050004164, 0.004169004, 0.00058569404, -0.0011903404, 0.002154637, 0.0019667929, -0.0007102402, 0.002151519, 0.0020113746, -0.0008235397, -0.0028155344, -0.0012693884, -0.0007095129, -0.00020131125, -0.00022120727, -0.00095474743, -0.00047146005, 0.0010992256, -0.0009234924, -0.002851127, -0.0016702379, 0.0018846516, 6.099211e-05, 0.0024728598, -0.0011222134, -9.313453e-05, 0.00028266018, 0.0006348643, -0.0014709344, 0.00024539395, -0.00048552384, -0.0024131332, 0.0019306932, 0.00086908205, 0.0001383514, -0.00043228792, 0.0005584479, 0.0019448464, 0.00076541083, -0.0015139928, -0.0018478343, 0.0010462769, -0.0014409182, 0.0011175254, 0.004278577, -0.0008127833, 0.00069975515, 0.0028651303, -0.0026892796, -0.0019265414, 0.00084917847, -0.0024884278, 0.00013027224, -0.0012799249, 0.0011052453, 0.00058503146, 0.0041838996, -0.0022086601, 0.0019659824, 0.00065016927, 0.004180521, 0.0015498349, -0.00025354535, -0.0006780936, 0.00029889168, -0.0012824936, -0.0012631386, 0.0011091752, -0.0017781669, 0.0006908925, -0.001989053, -0.0014279662, 0.0008020581, -0.004067285, 0.0016826957, 0.0016022148, -0.001794296, 0.0002635836, 0.003120555, -0.0012656166, -0.001244022, 0.0006668671, 0.0017194273, 0.0011070098, -0.00064536335, -1.2669072e-05, -0.0032936432, 0.0006483506, 0.0011273499, 0.00038024306, -0.0005369005, -0.0016532682, -0.00060891436, 0.00014418998, -0.0022538533, -0.00011152006, -0.0004714027, 0.0011377153, -0.00040780974, 0.0015542334, 0.001294551, -3.512847e-06, 0.0024955375, -0.0013905452, 0.0017458494, -0.0011485108, -0.00037632504, 0.0009343476, -0.0012527965, 0.0005895884, -5.9734215e-05, 0.0007582038, 0.00093359814, 0.0020074784, -0.0021358617, 0.0015787482, -0.0005343498, 0.0013108674, 0.001036073, 0.0012869656, 0.0017338532, -0.002412206, -0.0006169294, 0.0016119265, 0.00088591885, -0.0007857462, 0.0014899566, 0.0011678754, 0.00032987032, 0.00070216565, 0.0044363854, -0.00070873776, -0.000767511, -0.00045429228, 0.0015201442, 0.0023510638, 0.0008389823, 0.0013453278, 0.0011705536, -3.096502e-06, -0.00068293023, -0.002256615, -0.0017680837, -0.0012945526, -0.002484668, 0.001351311, 0.00068477006, -0.000681582, -0.0007743563, -0.002262341, 0.0028254741, -0.00031690137, 0.00084105623, 0.0012620711, 0.0018647843, -0.002763238, 0.0008715084, -0.0020423834, 0.00076508365, -0.0008724736, -0.0014847022, 0.0004202586, 0.0014450051, -0.0019644713, 0.0011564232, -0.0007968858, 0.00030450616, 0.0007965397, 0.0024792345, -0.00016559946, 0.0019010429, 0.0015805953, 4.0157014e-05, 0.00037517527, 0.0014148552, 0.0020183767, 0.00037194078, -0.0014936628, 0.0017657045, 0.002014938, 0.0019204397, -9.077283e-05, -0.0019993298, -0.0021334842, -0.0006763275, 1.7495768e-07, -0.0006459406, -0.0009093359, -0.00023115319, -0.0032968032, 0.0021844488, -0.0021669783, -0.0005091693, 0.0008534766, 0.00013342334, -0.0036529035, -0.001827037, -0.0002465794, 0.0018127692, -0.0012480281, -0.0004633295, -0.0038722148, -0.001235785, -0.0013721588, -0.0036554835, -0.0011396843, -0.0011312303, 0.004360584, 0.00047182734, -0.0020418202, 0.00278255, 0.00029838996, -0.00062119483, -0.0016479024, 0.00034013228, -0.00039572775, 0.00033689436, 0.0019246722, 0.0004202508, 0.0004922309, -0.000961188, 0.0028770503, -0.0008945508, 0.0011472418, 0.00073164486, -0.0011349875, 7.6868455e-05, -0.0019333037, -0.0026831473, -0.00085784495, -0.00044222712, 0.00024655135, 0.00048201522, -0.0003902088, 0.0014787943, 0.0031093382, 0.00040004923, -0.0009688969, 0.000380688, 0.0019250093, 0.0013244571, 0.0007958512, -0.0022026647, -0.0018113116, -0.0012685462, -0.0038267905, -0.00081011845, 0.0028711772, 0.00034872073, 0.0028587608, -0.0006840289, 0.0007900093, -0.000903501, 0.001733233, -0.0012250496, 0.0011113508, 0.001937286, 0.00080751313, -0.0013702975, 4.4390457e-05, -0.0017583849, 0.0006075574, 0.0006042594, -0.0003519317, 0.00050143746, 0.0011280056, 0.0005533444, -0.00030936944, -0.0009865981, 0.001583769, 0.0006490577, 0.0005087392, 0.001456624, -0.00049632473, 0.00021102527, 0.00039612272, 0.0010680553, 0.0019350466, 0.0005129858, 0.00030541443, -0.0008248954, 0.09683371, 0.0013346769, 0.00053751055, 0.0012904558, -2.546493, 0.001615757, 0.0016330676, -0.0032766508, 0.32233155, -2.7233903, -0.0013208659, 0.80905145, -0.001265205, 0.0005181889, -0.0005624626, 0.0011175689, 8.986386e-05, 0.0011305624, -2.7418137e-06, 0.0014148132, 0.0017153657, -0.0007122694, 0.00019311058, 5.989168e-05, -0.0015167267, -0.0032829859, -0.00093147025, -0.0007563457, -0.0016234943, -0.0036366964, 0.00078914576, -0.0015195145, -0.0026874028, 0.0016584877, -0.00075326406, 3.7885387e-05, -0.00033385234, 1.0769404, -0.0014428026, -0.00036961443, -0.0012430898, 0.00027614078, -0.00049393496, -0.00012090057, -0.0016566223, -0.0013487481, -0.0004811901, -0.002554124, 0.00016983459, -0.00076050777, -0.0034315852, 0.0020113755, 0.0008098046, 0.00030524458, -0.0019515774, -0.00035841618, 0.0023930715, -0.0010441862, -0.0022369404, -0.0013449097, 0.0026845294, -0.00097332516, 0.0014273673, -0.0010543731, -0.00030878827, -0.0019459395, -0.0018263031, -0.0003546129, -0.0008620085, 0.0026765224, -0.0009129729, -0.0005467838, -0.00066413777, -0.00084499584, -0.0015314373, -0.002403461, -0.00017500941, -7.024937e-05, -0.0016364113, -0.0002552222, 0.0013792962, -0.00039455373, -0.00023287791, 1.2370816e-05, -0.0014547778, -0.000515086, 0.0016944488, 0.00011027529, -0.00032974355, -0.00069073786, 0.00174894, 4.4878107e-05, 0.0018276587, 0.0016177741, -0.0011963214, 0.0013896851, 0.00033320818, -0.0041236947, 0.0009927478, 0.00047218625, -0.00024840166, 0.0016319293, -7.032475e-06, -0.0013760863, 0.0013760147, 0.00041292037, 0.0028283265, 0.002573842, -0.0004649182, -0.0013295275, 0.0008961828, 0.001760473, 0.0010860635, -3.6208367e-05, 0.0010839832, -0.00044281583, -0.00093151705, -0.0016219625, 0.00065042067};
float bias_2[] = {-0.07288082, -0.12271576, -0.007424746, -0.15107453, -0.14216697, -0.114066124, -0.15581039, 0.44831204, -0.084855996, -0.32269967, -0.13953023, -0.08487469, -0.26162905, -0.24341157, -0.022558305, -0.30457404, -0.013958445, -0.39883515, -0.13221572, -0.24611439, -0.047889285, -0.07584364, -0.01206056, 0.03653697, -0.069810934, -0.12405084, -0.23536867, -0.0056972746, -0.5909624, -0.15124233, -0.35004622, -0.2698063, -0.09391608, -0.12871289, -0.046900705, -0.13798992, -0.07193749, -0.48087522, -0.09492592, -0.16057177};
float weight_3[] = {1.0116566, 0.0013416021, -0.004716326, -0.00037436612, 0.00087993516, 0.0003863707, -0.75337696, 3.1865587, 1.4055605, 2.3529465, -0.0009859143, 0.0016571505, -0.9378668, -0.001033909, -4.0412097, -0.0008272159, 0.0010227019, 0.0007565472, -0.00073724065, 0.00032145623, -0.8329953, 0.00038935174, 1.0394709, 0.6103257, 0.0008755668, -0.000926265, 0.0014888989, -0.0018034942, -1.6809983, 2.5965927, -0.0006434187, 0.0002316361, -0.0005839264, -0.00079837156, -0.00058413227, 0.002494821, 0.0023627633, 0.60646135, 0.0004624693, -0.0010851211, 3.2988997, -0.0015558217, 0.0010135905, 0.0012137268, -0.0015540941, -0.0020143697, 0.81654423, -0.52393675, 0.9997155, 0.70856965, -0.00040407525, -0.0013686412, -1.8119705, 0.0012679213, -0.92389077, 0.0017693395, -0.0012971491, -0.0016496709, -0.0002240859, 0.0020055699, -2.500263, -0.0021790192, 0.4759704, 0.56951874, -0.0007528487, 0.000413957, 0.0010215867, 0.00017123317, 0.69166887, 0.1106932, -0.00016579675, 0.0024577158, -0.00036513654, -0.003271391, 0.0014189816, -0.0010099267, -0.0026268156, 1.4140902, 0.0006156185, -0.00073327764, 0.61834973, -0.0007552301, 0.0005221811, -0.0014975471, -0.0014506695, -0.0021887503, 1.3725451, 0.39818132, 1.1620725, 2.2883372, -0.00043437452, -0.0008713088, -2.1181352, 0.0011316942, -6.7033577, 0.00029347185, 0.00056201685, 0.0013341785, 5.0493254e-05, 0.0010676038, -1.1001794, -0.003300466, -0.0016277159, 1.4357975, -0.00013942813, 0.003152805, 0.0024148892, -0.0004683089, 0.00022391562, 4.1290493, 0.00043037778, -0.003116222, 0.0014508415, -0.0037052128, -0.0006392109, -0.00024701143, -0.0013687111, 1.8279203, 0.0012062469, -0.00023836934};
float bias_3[] = {0.055249505, 0.13682754, 0.1633297};
