float weight_1[] = {-0.00031439832, 0.00044653387, -0.0045821136, -0.0005390774, 0.00013085647, 0.00023462056, -0.96186686, 0.45925, 2.0634933, -0.0008137292, 0.25884384, -0.15284756, -0.0013021801, -0.0031153578, 0.0013037419, -0.0012984113, -0.0014473826, -3.0062743e-05, 0.0008643038, -0.0012868359, 0.0001924384, 0.0010110611, 0.00086670124, -2.0050444e-05, -0.0010591528, -0.0015321426, 0.0003472355, -0.00037191832, 0.0009991371, -5.012873e-05, 0.0002245938, 0.00086077704, -0.0036679409, -0.0004948748, -0.00022206796, -0.0009016596, 0.0015472934, 0.001377747, 0.0004815454, -0.22810924, -1.3506584, 1.5679885, -1.4525994, 1.2343069, -0.4286402, -1.1881677, 0.44590804, -1.3701237, 0.5634807, -0.0011647639, 0.35167438, -0.0011519082, 0.0014066517, 0.0015036783, 0.00025910395, 0.0004043997, -0.0010157264, -1.0445108, -0.19990395, 0.70147693, 0.226854, 1.0992135, 0.7467487, -0.0009746517, -0.00031692232, -0.00048866705, -1.0633472, 0.41445372, -1.3283709, 0.0012416702, -0.002758083, -0.00054857635, -0.0012352574, 0.0031914024, -0.0015256847, -0.0008717695, -0.004706308, 0.0014869596, 0.00060363865, -0.0009454315, -0.001037936, 0.0024120999, 0.00019600056, -0.0008972427, 0.0010626025, -0.0006488874, 0.0013599895, 0.6035332, 0.006856863, 0.8449225, 0.077373564, -0.6092692, -1.1443616, -0.00036333915, -0.0020116493, -0.001308425, -0.00034529605, 0.000750258, -0.001628112, -4.0138383, 0.72474307, -1.5839927, 0.00064096623, -1.5253766, 1.1120682, 0.50042987, 0.20335367, -0.46543488, 0.9239629, -0.8897174, -2.8328435, -0.0002002244, 0.0010056215, -0.0013270784, 0.0005494356, -0.0003398042, -0.00027731617, 0.00096006744, 0.0005889439, -0.0003037434};
float bias_1[] = {-0.18047082, -0.054056484, -0.08382538, -0.0445964, -0.010357169, -0.046690553, -0.39299464, -0.5598118, -0.44550455, -0.5577959, -0.35078603, -0.31815973, -0.4615293, 0.10075056, -0.09750571, 0.56295365, -0.3276788, -0.49849975, -0.28372443, 0.41504776, -0.93855596, -0.10444865, 0.6716143, -0.19524002, -0.264663, -0.5504108, -0.03038795, -0.55569047, -0.35829875, -0.83395576, 0.61991805, -0.03130285, -0.018197725, 0.61779445, 0.43662298, -0.111007564, 0.33457845, -0.048329778, -0.0074129654, -0.04101038};
float weight_2[] = {-0.0008569294, 0.0005899306, 0.0018287349, -0.0018028893, 0.0008244346, -0.00029850658, 0.0007810431, 0.00017219805, 0.0005227358, -6.947946e-05, -0.00015294319, 0.0021223642, 0.00016004965, -0.0012805681, 0.0011426358, 0.0003232102, 0.00024463725, -0.0020453818, 0.0031240673, 0.0031136405, 0.0015579638, -0.0010745511, -0.0031280657, 0.0022428127, -0.00036236178, -0.0012628426, 0.0017800791, 0.0014654803, 0.0005404933, 0.0013159153, 0.0018734229, 0.00019640673, -0.0009784143, 0.0003289631, -0.0010584644, 0.00039777416, -0.0003657792, -0.0007405613, -0.00018540217, 0.0015703765, 0.000919444, 0.00012802408, 0.39044592, -0.0002023078, 0.0012752153, -0.00027446405, -0.0009417402, -0.0005970528, 0.00020036148, -0.0015083046, 0.00018198439, -0.0017072393, 0.00069452776, 0.7111047, -0.49338612, -1.3948982, 0.11660328, 0.00069687155, -0.0018612756, 0.046936944, 0.11520277, -0.00077608274, -0.22492412, -0.0011641347, 0.0012303635, -0.00040916167, 0.00019001681, 0.0025240993, -0.0013910445, 0.0035966877, -1.0800875, -0.0003359718, -0.0013036974, -0.00096910266, 0.3466427, 0.0073722443, 0.004400213, -0.0017269535, -0.0011997651, -0.0005375599, -0.0007831182, 0.0004695893, -0.057177324, 0.00056155847, 0.0012955845, 0.0008903837, 0.00020899368, 0.0006659408, 4.4847635e-05, 0.0011470392, 0.0001416601, 0.0005821239, -0.0009885158, 0.5283566, -0.63556087, -0.14393191, 0.31852603, 0.00043709102, 1.714658e-05, 0.12580149, 0.0022403516, 1.6792736e-05, 0.008161238, 0.0013337656, -0.00075008697, 0.001199132, -0.0015109758, 0.0021725975, 6.750008e-05, 0.22362797, 0.36515132, -0.0011793448, -0.00050700916, -1.008074, 0.15869384, 0.24710767, 0.16762695, -0.0009079533, -0.0008580403, -0.00054268877, -0.0019800137, 0.0006643852, 0.6020378, -0.00025785094, -0.0005329667, -0.0013920679, -0.0007083269, 0.0015241168, -0.0025292141, -0.00020458957, 0.00043147674, -0.002411023, -0.0015178691, 2.245579, -0.93084353, 1.7656511, 0.19399796, -0.00069685705, -0.0026373737, 0.6052379, -0.06487434, -0.00095992844, 0.24917535, 0.00097055605, -0.0004397122, 0.0027856822, -0.0007273813, 0.0015448823, -0.00043774827, -0.05037717, 0.16393824, -0.0007664482, 0.00088344765, -2.233654, -3.0626988, -0.06329739, -0.34010783, -0.0012043373, 0.0006695735, -0.00049162, 0.0034743892, -0.0011242895, 0.0019556037, 0.0015576928, 0.0020128724, 0.0014500383, -0.0005230652, -0.0010433295, -0.0014238721, 0.0015340413, -0.0010756637, -0.00079445203, -0.0009578639, 0.0031252583, 0.00022298686, 0.0012884039, 0.0010426571, -0.0010145198, -0.0007930156, 0.0011332006, -0.0016402465, 0.0003901526, -0.0008489939, -7.848899e-06, -0.0003473302, -0.00013646547, 2.681691e-05, -0.0021884716, -0.0004306998, -0.0009761437, 0.001090752, 0.00058644835, -0.0011329866, -0.004270656, 0.0027493022, -0.0015666431, -0.0006628788, 0.001354889, 0.0011342958, -0.0017657991, 0.0027223506, -0.0007826402, -0.14736442, 4.399874e-05, 0.0014490024, -0.0014521009, -5.6364355e-05, -0.0014727607, 0.0013364856, -0.00096305687, -0.0035658772, -0.0028659378, 0.0017378014, 0.0004126896, -0.4541622, -0.24058865, -0.14562924, 0.0017162396, -0.0006313463, 0.0006337615, -0.022193516, 0.0016839637, -0.03681889, 0.0015234795, 0.00045209634, -0.0011447296, -0.0010866381, 0.0005334745, 0.0037810002, -0.027803227, 0.00037596066, -0.0021508115, -0.00053158903, -0.2692744, 0.0023391896, -0.0001282933, 0.00021285424, -0.0011327068, -0.0013981635, 0.0018644874, -0.0005740458, 0.00027210492, 0.0018579296, -4.5600405e-05, 0.00028186105, -0.0008663141, -0.0018519922, 0.0015217776, 0.0008209096, -0.00073841866, -0.0016808443, 0.00045419228, 0.00048432662, 1.9697036e-05, 0.0003019498, -0.0013074353, 0.0006374003, -0.00031728495, 0.00024729272, 0.0021886833, 0.0014063981, 0.00057224516, -7.195916e-05, -0.0006960749, -0.00039727803, 0.0016801037, 0.0007850673, 0.0006331733, -0.0011043176, 0.0007677012, 0.00085335475, 1.4310863e-06, 0.0019370914, -0.0013463895, 0.003179371, 0.00084120344, -0.0017673282, -0.0005774176, -0.0020759893, -4.3590204e-05, -0.0009916141, -0.0017890929, 0.0027180645, -0.0028215286, -0.0017138673, -0.0002151487, -2.7956936e-05, 0.0017998731, 0.0015153068, -0.0040147947, -0.0005844069, 0.0025035185, -0.0033601723, 0.23131527, -0.0017285587, 0.1680763, 0.00078203616, -0.0011327196, 0.0012911878, 0.046960432, -0.0019039963, -9.1695576e-05, -5.9297417e-06, 0.0038413918, -0.00648739, 0.0016326357, 0.0034838584, -0.0024557514, 6.9574715e-05, 0.00026682482, 0.013551658, 0.0013362179, 0.0024154326, 0.23787834, 0.4812592, -0.001735944, 0.7792379, 0.0013866265, -0.0006259959, -0.0032771276, 0.0023004932, 0.0019449269, -4.374049, 0.00023267246, -0.0012856929, -0.0006932425, 0.0002591476, 0.0005854029, 2.5056448e-05, 0.00026690413, 0.0015019428, -0.0022669195, -0.0011895641, 0.62512225, 9.994098e-05, 0.37638032, -0.0006875177, 0.0027839246, -0.0018838564, 0.3508978, -0.00031585846, -0.00054187735, 0.3473877, -0.00036697325, -0.0005716686, -0.00032997635, 0.0012160842, -0.0006999057, 0.0004908254, 0.0022185063, 0.008559355, 0.003103619, 0.0015849049, -0.1748379, 0.00028293786, -0.727662, -0.20800227, 0.0021635937, 0.00047652493, -0.001564999, -0.00021739409, -0.00058191735, 0.0012684892, -0.0010600432, -0.0007575437, -0.0009809172, 0.0014952056, 0.00094010646, -0.0007041123, 0.0012173904, -0.0012114282, -8.019165e-05, 0.000105942716, 0.0013337554, -0.0031174556, 9.7020995e-05, 0.0006658868, 0.00096468814, 0.00032470014, 0.00074768555, -0.0006726117, -0.0018738597, 0.00037909535, 0.0006220931, 0.00030229765, -0.0010523335, -0.00021484261, 0.0008382407, 0.0003261615, -0.001299065, 0.0005126755, 0.0006610124, -0.0019474897, -0.0022968524, 0.0019491987, -0.0005981361, 0.0008776598, 0.0005051768, -0.0012835332, 0.00048035872, 0.0003708594, -0.0008920631, -0.0010016768, -0.00065785175, -0.00025878684, -0.0012957095, 0.0021921378, 0.0042389682, 0.006485788, -0.0007736573, 3.1295276e-06, -0.00016192032, -0.0013511996, 0.0019446594, -0.00063178985, 0.0010371696, -0.0020925396, -0.00024162792, 5.1773095e-05, -0.0004373287, 0.0011004664, 0.0012961535, 0.0021957785, 0.0030686066, -0.0011349022, -0.0013837578, 0.0020119764, -0.0009337682, 0.00029615627, -0.00049582473, -0.00038543734, 0.002012137, 0.00026017558, 0.0007363413, -0.0031205704, -0.00051947584, -0.00034943188, -0.00046157406, -0.0011620171, -0.0001877991, 0.0012711533, 8.593217e-05, -0.00030057016, -0.00018425107, -0.0023863364, -0.0014251311, 0.00044006918, 0.0004636221, -0.00016696914, 0.0012905995, 0.0018030441, -0.0019809143, 0.001380195, 0.00013116455, 0.2939176, -0.0005224456, -0.00077518786, 0.0005099948, 1.3236888e-05, -0.13913287, -0.0008663097, 0.0011725387, -0.00090256095, -0.0020348195, 0.002231462, -0.0011900685, 0.0022490243, -0.0038380185, -0.0020321866, 0.0007026358, -0.26555786, 0.00026297092, -5.6993274e-05, 2.4428284, -0.6971191, 0.00047581497, 0.34130916, 4.371994e-05, 0.00069844874, 0.0007852345, -0.00067053357, -0.00108868, 0.0001502154, -0.0012827753, 0.004177382, 0.001945882, 0.001102857, -0.0005093734, -0.0060678627, 0.0014047241, -0.00084019516, -0.0017506722, 0.00037033478, -0.0005975796, -0.0011597013, -0.0025825119, -0.00075895025, 0.0015506141, 0.00036210555, 0.0006348531, 0.000476987, -0.0020066956, 0.0011655667, -0.0011445913, 0.00048790744, -0.001725127, -0.0024640504, -0.00067011337, 0.000517193, 0.0020096253, 0.004171637, -0.00073979853, -0.0011297358, -0.0013024602, -0.00029642205, 0.004745601, 0.001239699, -0.0008816211, 0.0021378566, 0.0015705185, 0.004515632, -0.000416892, -0.00034953235, 0.0007189174, 0.00042019127, -0.0021255752, 0.00055535627, -0.002044959, 0.004264114, -0.0021743786, 0.0022755563, -0.0009145733, -0.00058915315, -0.00072117697, -0.001126607, -0.0002840162, 0.00075715734, -0.0010279969, 0.00088769675, -0.00093477184, 0.001783624, 0.002237522, 0.0009294843, -0.0012663676, 0.0005617021, 0.0007858421, -2.1757063e-05, -0.0006411099, -0.0008746299, -2.1544722e-05, -0.0007923629, 0.00134643, -0.0014119176, 0.0031458652, 0.0006920552, -0.0023198493, 0.00069877936, 0.0009991353, -7.1451504e-05, -0.0019683486, 0.0027396248, 0.00082551263, -0.0010921663, 0.0012877737, 0.0012438504, -0.0002651144, -0.00044560022, -0.0015563788, -0.0010254331, 0.0024990244, -0.00087692786, -0.00063196087, 0.0007881984, -0.0007704189, 0.0004581731, -0.0012726459, -0.0013145565, 0.0029032244, 0.00025890415, -0.00023232563, 0.0006467738, -0.0003839722, -0.0013466243, -8.508924e-05, 0.00019253412, 0.0012524292, 0.0010172714, -0.0003818178, 0.0007539785, -0.0011502248, 0.0006441441, -0.00057032343, -0.00066294585, -7.3205447e-06, 0.00012923253, -0.00074574596, -0.0015521466, 5.9589802e-05, -0.0011515843, 0.0021106564, -0.0010418384, 0.0019246183, 0.00022307626, -0.0012037931, 0.0009832213, 0.0017319921, 0.00029390573, -0.0021334216, 0.00043509097, 0.006540483, 0.0017505771, -0.00053983176, -0.002324937, -0.0015069252, -0.00080334535, 0.0012264489, -0.004744491, 0.0015438462, -0.0012182235, -0.0015672623, 0.002467792, 0.002868141, 0.0013571584, -0.00026813528, 0.0012193904, -0.0033297224, -0.0014009653, 0.0016237162, 0.00027313596, -0.0011941688, 0.0008699779, 0.0006195537, -0.0018007961, -0.0006180896, -0.0013736225, 0.00068364356, 0.0006042332, -0.002192622, 0.00068729324, 0.0005889633, 0.0016927726, 0.000488528, -0.57919556, -0.0008421972, 0.0018658291, -0.00011929084, 0.00040669792, 0.0008065148, 0.001953424, -0.0005750636, -0.0015639086, -0.0011487706, 0.0017359687, -0.0023857749, 0.0013198159, -0.12505813, 0.0007040299, -0.0007905665, -0.0012738727, -1.0735494e-06, -0.00046665815, 9.1505004e-05, 0.6617476, -0.0019639728, -0.00092317344, 0.0020255642, -0.00047387532, -0.0009949722, 0.0026805508, 0.0008687021, 0.007566069, 0.0019487106, -0.0013314979, -0.20343992, 0.6788093, -0.00035080797, -0.4609944, 0.0012683098, 0.0009072409, 0.0017208008, -0.001132128, -0.00070606556, 0.98970145, 0.0008007211, -0.0016495882, 0.00066970283, 0.00056704413, 0.00086446333, 0.0018858132, -0.0004015013, -0.00037085588, 0.0012162142, 0.0014746352, -0.11853706, -0.107071, 0.9086052, 0.038797863, -0.0009349969, 0.00039637924, -0.05814411, -1.3166474, -0.00016848135, 1.231721, -0.00093980064, -0.00021790667, 0.0009797408, -0.00053282036, -0.00016719013, -0.00025489513, 1.018087, -0.7885396, 0.0012954656, -0.0004754454, -3.0576117, -1.1710943, -0.007731224, 2.0322795, -0.00089385983, 0.001290601, -0.0021388747, -0.0014087819, -0.0018341725, 0.0030697933, -0.0034073046, -0.0017883094, 0.0011585278, -0.0008853739, -0.001251075, -0.0010674923, -0.0015242125, 0.0018410543, 0.00058214064, -0.001536163, 0.0001345101, 0.0026512786, -0.0009001104, -0.00011253345, 0.0011985612, -0.0005852756, -0.0025005229, -0.0013370778, -0.00026850984, 0.00067222206, 0.00077053165, 0.00022808136, -0.0013270689, 0.00057659694, -6.617146e-05, 0.0001799427, 0.002607798, -0.001945724, -0.00072090974, 0.0009781219, 9.424309e-05, 0.00070364686, 0.00039782247, 0.0005425929, -0.00170287, 0.0023269176, -0.0009044043, 0.001018453, -0.00090304634, 0.0004278744, 0.00064895296, 0.0007564988, 0.0018923195, 0.0003255439, 0.0007663389, -0.0013055139, -0.0020763192, -0.0024291852, 0.0019905393, 0.0004527762, 0.0017617906, 0.0013297517, 0.0007647829, 0.0012477727, -0.0047265287, 0.0010289571, 0.0005123159, 0.0018153588, 0.00078174146, 0.0012999233, 0.0023980988, 0.003768066, -0.0013332053, 0.000111378555, -0.004200933, 0.00072259066, -0.0011552641, -9.7543e-05, -0.0020101282, -0.0018071352, 0.0006489697, 0.0013139682, -0.00089799403, -0.0018507737, -0.00087131624, 0.00074194337, -0.003301117, 0.00033105013, 0.00059806154, 0.00038261188, 0.0006601044, 0.0007387964, -0.0019413546, 0.0025587457, 0.00078606326, -0.00037218817, 0.0007624051, -0.0013578467, 0.0006615127, 0.00053453585, -0.00330265, -0.0021549175, -0.0031203213, -0.0012213348, -0.0028494191, -8.772957e-06, -9.454333e-05, 0.000676239, -0.002547073, 0.0024646828, 0.0003961015, -0.0006530503, -0.0010152381, 0.00031617458, -0.00020153451, -0.00054286007, 0.00022270135, -0.0013292697, -0.0005238097, -0.00087974634, 0.00060778897, 0.0010364222, 0.001906403, -0.0007003832, 0.0016243563, -0.00029461505, 2.4471083e-05, -0.00085334847, 0.0062064924, 0.20631063, -0.0010750997, -0.0005567308, -3.3631106e-05, -5.529728e-10, -6.9720205e-05, 0.0016750365, -0.00071274606, 0.00057294965, -0.0013268725, -0.0002937928, 0.0035040153, -0.049865197, -0.0037538437, -0.010592523, -0.00069804257, -0.0008677668, 0.03690601, -0.15261127, 0.0005809651, -0.00041385525, -0.0012525213, 0.00013512713, 0.00019187148, -0.0005104657, 0.0028657778, 0.00060788204, 0.001452433, -0.0013844802, 0.00026330902, -0.0018049391, -0.0016774304, 0.7801608, -0.0025131118, 0.8814148, 0.00062428106, -0.0012364353, -0.0019518557, 0.0023259153, -0.00095572474, -0.004512935, -0.0012330803, 0.00020721002, 0.0010557998, -0.0014959017, -0.0026201922, -0.0010465231, -0.00042467372, 0.0008017431, -0.0019715135, 0.002839128, 0.0031738072, 0.0012178444, -0.000108249485, -0.00070701557, 0.0010360929, -0.0008666809, -0.0033749996, 0.00023466193, 0.0011758682, -0.0014368847, 0.0023853309, 0.0030827275, 0.000379091, -0.0036406592, -0.00012413994, 0.0011823722, -0.0004337728, -0.0043020677, -0.0015152867, -0.0008769708, 0.0012122269, -0.00077005266, 0.0018241685, 0.0013963263, 0.0038676637, 0.0017739327, 0.004393501, 0.0002400428, -0.00012269849, -0.0010721819, -0.00093993254, -0.0013670353, -0.0019071965, -0.00028649735, 0.0005629249, 0.00127547, 0.0026065768, 0.00024312412, 0.0034305344, 0.0010779358, -0.00037754967, -0.0027656169, -0.0008740267, -0.00014721075, -0.0009059176, 0.0028494997, 0.0013192876, -0.0015719669, -0.00029276055, -0.0015051591, 8.430303e-05, 0.0011571372, -6.456024e-05, -0.00057040236, -0.0031663761, 0.0002036663, -0.00034103778, -0.00042754668, 7.231627e-05, 0.00017004204, 0.0035815695, 1.8280814e-05, 0.0017893626, -0.0007228158, 0.0017845616, 0.00093450065, -0.0012957841, 0.00076534145, -0.0007593391, 4.1088788e-05, -0.0032937247, -0.0008824018, -0.0032987837, -0.0013129346, -0.000608837, 0.00047497812, -0.0005801318, 0.00028194976, -0.00041420458, -0.0021227356, 0.0014487929, -0.001278294, 0.00091572537, 0.0016321098, -0.0019076671, 0.0001823353, 0.00030061998, 0.0012866198, 0.0027118304, -0.0018158105, 0.0015162056, 0.0018022073, -0.0009330889, 0.00036789454, 0.0019002281, 0.0009184111, -0.0011577273, -0.002157987, 0.002158837, 0.001300486, -0.0012819404, 0.0014400929, -0.002165485, 0.00016766443, 0.0006340824, 0.00073943625, 0.002471745, 0.00032440975, 0.0041732052, -0.0010495384, -0.001281739, -0.00475217, 0.0019445472, -0.0010782839, -7.2176044e-05, 0.0003057348, -0.00074298633, 0.002518762, -0.0025333334, 0.0012411699, -0.0031089946, -0.0010201635, 0.0013735364, 0.00047682988, 0.0007190818, -0.00110615, 0.00066723226, -0.0002108806, -0.0026714671, 0.00051606685, -2.4900772e-05, -0.0004351542, 0.0002872747, 5.288853e-05, -0.0018871878, 0.00061676925, -0.0024801698, -0.0016317053, -0.00020522397, -5.2985735e-05, 0.0020121604, 5.2907504e-05, -0.0011348891, 0.00049132644, -0.00076635636, -0.003109428, -0.0007261807, -0.0010089914, -0.0017648197, 0.48386395, 0.066794895, -0.0012944562, 0.0024749408, 0.000502357, -0.00079791044, -0.0005430676, -0.00125422, 9.209414e-05, -0.0024496673, 0.0004991907, -0.1974586, 1.2864604, 0.044819385, 0.006923327, 0.00051041116, 0.0025294821, -0.3120801, -2.5828207, -0.00164175, 0.5756219, -0.0005395516, -0.0013551377, 0.00034882827, -1.636149e-05, 0.0015165193, 0.0012939603, -0.00024684798, -0.6686623, -8.684734e-05, 0.00057910447, -1.063843, -0.25886855, 0.2558759, 0.9443887, 0.0006544335, -0.0001745213, 0.00075289083, 0.0024159057, 0.0019495845, 0.07286529, -0.09049983, -0.002437032, 0.0012963252, 0.0013572251, 0.0028044642, 0.0008924308, -0.0010296948, 0.00090509094, -0.0006073757, 0.0005846309, -0.23048928, 7.979544e-05, 0.40224048, 0.09032977, 0.0019636492, -0.0010734732, -0.5001277, -0.29066062, -7.061288e-05, -0.2619861, 0.0015183899, 0.0013353417, 0.00016770704, -0.00070413447, -0.0022741957, 0.0010023525, -0.0007361555, -0.2753807, -0.00047933345, -0.0022516737, 1.3733599, -0.0040086834, -0.0081107, -0.15331692, -0.0041721733, -0.00061644195, 0.0004941372, 0.00023975968, -0.000571701, -0.0019889702, 0.0021600993, -0.00074216735, -0.00078633835, -0.0013550414, -0.00061172113, -0.0010076038, -0.00058762095, 7.766136e-05, -0.0010673632, -0.00050418, -0.0018013219, -0.00033710134, 0.0012055303, -0.0006876019, 0.0017192581, -0.0010310061, -0.0008956754, 0.0011632647, -0.00094880356, 0.00095714966, -0.00029855222, 0.0001650966, 0.0013549956, -0.0013833087, -0.00041983265, 0.00034000137, -0.0018180242, 0.0012848356, -0.00067929336, -0.0005941251, 0.003312827, -8.022401e-05, 0.0008715081, 0.0015832174, 0.0007447431, 0.0007562075, -0.0003861891, -0.00012601994, 0.0005648532, -0.0032998011, 0.0013522829, -0.0015545523, 0.0025859796, 0.0014964018, 0.0027303824, 0.0012254132, 0.00068425364, -0.00024393522, -0.0010584316, 0.00033639366, -0.0032947226, 0.0007961248, -0.001434705, 0.0042609796, 0.00045259797, 0.000845638, 0.002201532, 8.988532e-05, 0.0009903586, -0.0010430205, -0.001780258, 0.0009925342, -0.0020471544, -0.00015007298, -0.0014582116, 0.0018208157, 0.0020110745, -0.002014764, 0.0012926818, -0.0015549193, 0.0016767553, 0.00012702902, -0.0012612592, 0.0002076014, 0.000746974, 0.00021705945, -0.0007576662, -0.0016383331, -0.0015995789, 0.000252727, 0.0018638248, -0.001226656, -0.002271901, -0.0021052544, -0.00072856015, -0.0020698537, 0.00068060646, -0.001962753, -0.0030705293, -0.001715838, -0.0009072041, -0.0038982008, -0.0031927202, -0.00021818152, 0.0010572805, -0.006573355, -0.0014559813, 0.00053822115, -0.0007649228, 0.0010683637, 0.00050257763, 0.00031355026, 0.0028813598, -0.0020893137, -0.00056413375, -0.0016924256, -0.0013135623, 0.00042838228, -0.00062884844, 0.0011739009, -0.0010325299, 0.0018986197, 0.0016769859, 0.0028817472, -0.00011038256, -0.0002525631, 0.00016599591, 0.0006883843, 0.0027402875, 0.0009938966, -0.00055165635, -0.0028521, 0.0007821702, 0.0015454933, -0.0013722111, -0.0007514025, 0.0014063356, 0.0034428383, -0.0026821448, -0.0012005235, -6.6618435e-05, 0.0019155117, -0.0006662889, -0.00033649305, 0.0014471605, -0.0004203218, 0.00083142845, 0.0006180937, -0.00064247067, -0.0016334727, -0.0008750438, -0.0015068995, 0.0019624848, 0.0011662643, 0.00042891968, 1.6766717e-05, -0.0010017625, -0.0015331679, -0.0008348907, -0.0005296167, 0.0029569962, 0.0024205712, -0.0030813375, -0.00026366673, 0.00033418566, -0.0013074606, 8.637633e-05, 0.0025211675, -0.001511823, 0.0007630404, -0.00059128343, -0.0024403448, 0.0004683474, -0.0007545939, -0.00013094838, 0.0016224727, -0.002991871, 0.0015678967, -0.001608716, -8.952661e-05, -0.0011645088, -0.0004767615, -0.0031151418, -0.00047772357, 0.0020559798, -0.00014943583, -0.0012894738, -0.0005947655, 0.00042820236, -0.00029945606, -0.00068003754, 0.0024194005, 0.0014843552, 0.0004116515, 0.0011645025, 0.0024967776, 0.00076018216, -0.001415438, -0.0021598223, -0.00075894606, 0.0006662524, 0.001302004, -0.0012373733, 0.0008993346, -0.0005842477, -0.00046160273, 0.0021622858, -0.0008381927, -9.609293e-05, 0.00022458896, -0.00018846983, 0.0002919468, 0.00018491701, -0.00083900633, -0.00031762297, 0.0026048375, 0.00060869416, 0.0008836577, 0.00224893, -0.0014060023, 0.0010718512, -6.283121e-05, 0.0038373538, -0.0017345382, 0.004103032, -0.0026910375, 0.0032644582, -0.00024713617, -0.0028852725, 0.0023548692, -0.0006912677, 0.0022470905, -0.0031869258, -0.00014375139, -0.00058190885, 0.00034771895, -0.002570488, 0.00025575046, -0.001030423, -0.00042630022, 0.0008104267, 0.0017919671, 0.00088933087, -0.0011456374, 0.0013902638, 0.0029294665, -0.00020362283, -0.0009952367, -0.00087824924, -0.5572167, 0.31304923, 0.00067453337, -0.002116234, 9.471364e-05, -0.004360242, -0.00042795864, 0.0018965148, -0.0044965288, -0.0006383432, 0.0013281368, 0.19562908, -1.197427, 9.988972e-05, -0.5272134, -1.4834193e-05, -0.0019640494, 0.28180286, 0.0011844841, -0.00030123757, 0.11545934, 0.00097316643, -0.0011421785, -0.00019405555, 6.5884786e-05, -0.00067188445, -0.00016905327, -0.0006666251, 0.18589273, 0.0011353359, -0.00088116684, 0.00039400015, 0.032923773, 0.0005116364, 0.0010271316, -0.00064980955, 0.00022175399, 0.002186764, 0.00057132903, 0.00030269218, 0.00036215538, 0.0019319301, -0.0008852537, 0.0012609691, -0.00019597262, 0.00025027, 0.00029115286, -0.00022224779, 0.0025441432, 0.00015867886, 0.0016512142, -0.00015999452, -0.00045031914, 0.0013243221, -0.0015301292, -0.0004883113, 0.0011217396, 0.0014884146, -0.00016718538, -0.00019516621, 0.0006654779, -0.0007050547, 0.0012282582, -0.0011468435, 0.00022652221, -0.0001567527, -0.001529267, -0.0012272231, -0.0024632984, -0.0023016406, -0.0041735843, -0.0016340532, 0.00069670903, -0.002040646, -0.00065334205, -0.0007403201, -0.0018107394, 0.0013148772, 0.0017208646, 0.0031578015, 0.0020078863, -0.001192979, -0.0021860271, 0.0014878209, 0.0013512257, -0.0007820884, -0.00160139, 0.00096964167, 0.0025792224, 0.0015076585, -0.0006805543, -0.0003085992, -0.0011559816, 0.00085230934, -0.00065480603, -0.0014096925, 0.0024543866, 0.0006036469, 0.0003200572, -0.0006434738, 0.0018218068, -0.0018831517, 0.004459089, -0.0007227433, 0.0015965053, 0.00025130113, 0.00063339475, -0.00021154177, -0.0007429464, 0.00125799, 0.0017592486, 0.0020075522, 0.00049346953, 0.0009321197, -8.844113e-05, 0.0008505303, -0.00034751312, -0.00105373, -0.00041811867, 0.001519506, 0.00076486706, -0.0013141353, -0.00066449837, 0.00094206387, 0.00021863688, -0.0017132224, 0.0004799564, -0.0014904898, -0.00067016727, 0.002461261, -0.0003111509, 0.0031191045, 0.0011710966, -0.0012097606, 0.0011935948, 0.0013137887, 0.001025087, 0.00028508133, -0.0005452881, 0.000121058074, 0.0011323167, -0.0020401678, 0.0002378007, -0.0006257258, 0.0008789579, -0.00041941, 0.0012710996, -0.00011134532, 0.00073323573, 0.0017458391, -0.00065492245, 0.0003025178, -0.0011052566, 0.0013835392, 0.0009681285, 0.00046097743, -0.0017934387, 0.0021806192, 0.0008107126, -0.001681208, 0.001359637, 0.000862647, -0.0004974054, 0.001492575, -0.0007343051, 0.00034011883, -0.0015627388, 0.00031035708, -0.00086159725, -0.00072005554, -0.0018067076, -0.0008418752, 6.8778056e-05, 0.0007364034, 0.0009372276, -0.00198378, -6.9849193e-10, -0.0020928716, -0.00010413833, 0.0018102876, 0.0003863314, -6.307004e-05, 4.1197927e-06, -0.0010486196, 0.0015762656, 0.0022372478, -0.0013403943, -0.00010669351, -0.0004358695, -0.002686089, 0.006311832, -0.0020027827, -0.0009319454, 0.00042413946, -0.00019153021, 0.0004000262, -0.000313609, -0.0016042688, -0.00051459356, -0.0041746423, 0.0024158033, -0.0012457301, -0.00022307254, 0.001241372, 0.0010308169, -0.00012837315, 0.0019211057, 0.0011574996, 0.00057415327, -0.0008229759, 0.0016506556, 0.0024376765, -0.001296207, -0.00056268997, 0.00014177023, 0.00011677408, 0.00029389322, 0.002009543, 0.0005329427, 0.001081037, -0.003112509, -0.0014563759, 0.002426682, 0.0002996684, -0.0002268877, -0.0025940966, -0.00011956075, -0.0024655326, 0.0021618947, 8.4333005e-05, -0.0024404156, -0.0041773394, -0.0025774133, -0.0006694521, 0.0015091887, -0.0005203908, 0.0011923471, -0.0031116};
float bias_2[] = {-0.032684136, -0.045113217, 0.12078004, 0.1993415, -0.13067211, 0.2728295, -0.121198155, -0.055744145, 0.08965025, -0.1936825, -0.10473853, -0.58428335, -0.113469996, -0.06154658, -0.009471821, -0.071875244, -0.2625286, -0.115435466, -0.3100232, -0.04539504, -0.07356232, -0.38412896, -0.14137176, -0.123391405, -0.13268046, -0.08965566, 0.34200394, 0.26105693, -0.1773807, -0.19144434, -0.03441511, -0.12605582, -0.16265488, -0.2950333, 0.38296708, -0.012841373, -0.029320387, -0.016208231, -0.14816442, -0.038436458};
float weight_3[] = {-0.00066440523, -1.0467659, 0.1525299, 1.3937516, 0.0012332126, 0.47776335, -0.0011994106, 0.643596, -1.6559765, -0.0012879071, -0.0047465214, 0.73967427, 0.0013062089, 0.0002719583, 0.00024293852, 0.0013347262, 0.09560194, -0.7410234, 0.00065099844, 0.002854515, -0.0006434811, 0.7665533, 0.0027023216, -0.00033123046, -0.0019550107, -0.0014062618, -0.34013262, -0.17719345, -0.0006412794, 0.00013980694, 0.00037558147, -0.00051940035, -0.0019638026, -0.0020121683, 0.7071779, 0.0014836075, 0.0013070016, 0.00056413753, 0.0014331397, -0.0025534648, 0.0010305375, 0.94825804, 0.3138514, 0.52509534, -0.00034743978, 0.20314518, -0.0012117178, -0.00033534638, 2.019985, 0.00059942814, -0.0009899953, -0.46384817, -0.0012968492, 0.002279541, 0.0014416242, 0.0005600257, 0.0033156858, -2.0338776, -0.00038775356, -0.0012283046, 0.001668978, 0.53851575, 0.0016104201, -0.0012399226, 0.0012335973, 0.0013112235, 1.9976609, -0.08921216, 4.981291e-05, -0.0006719282, -3.4592056e-05, 0.00041701825, -0.002493042, -8.940685e-05, -0.4316998, -0.002233021, 0.0021179111, 0.00087167294, 0.0011448509, -0.004271702, -0.0013895505, -0.045221183, 0.99798316, 0.41440836, 0.0027386039, 0.00087581377, 0.001839228, -0.60073274, 0.45211396, 0.0011646928, -0.00088051934, 1.8731147, 5.956745e-05, 0.0005884806, -0.0006639596, 0.0014299429, 1.2282102, 0.6663419, 0.0001433536, -0.00028300448, 0.0006792642, 0.18536845, 0.0018885465, -0.0012353281, 0.001767168, -0.00077868835, 0.20344983, -0.63558966, -8.327828e-06, -0.0024023978, 0.0006641359, -0.0009589527, -0.0011450738, -0.0009184984, 0.21269105, -0.0013521678, 0.00068719627, 0.0017139193, 0.0021114517, 0.0012888534};
float bias_3[] = {0.03201889, 0.027855065, -0.22886659};
