float weight_1[] = {0.000554407, 0.0003891598, 0.001002904, 0.0016485555, -0.0010285333, -0.0012958597, 0.6778512, -0.92619705, -0.07414214, -0.0026591388, -0.0010193711, 0.00064082316, -0.0012566361, 0.000580568, -0.0032992866, -0.0007925971, 0.0010494529, 0.0006537104, -0.0023998006, 0.00052906305, 0.0008778013, 0.0011210077, -0.00028105, -0.00011211401, 0.8335317, -0.4250806, 0.26681033, 0.13615398, 0.94657326, -0.1522794, -1.1416397, -0.6967314, -0.247287, 0.6495737, -0.009059628, 1.0072759, 0.0009774232, -0.0015992965, -0.00073211465, 0.0013910607, 0.00089897675, 0.0009005853, -0.16273811, -0.48743725, -1.1272082, 0.056181103, -0.7512975, -0.42114484, 0.0013260865, 0.0021844052, -0.0016080445, 0.0009216636, 0.0007335493, 0.001086887, 0.0024677853, -0.00011352042, 0.00027740072, 0.8265363, 1.1030124, -0.01038039, 0.06975912, -0.46474394, -0.0031178452, 0.0041634487, 0.0002235428, 0.0021573945, -0.17879364, 0.14127412, 1.2107903, 0.0003307404, 0.00021347549, -0.0002743794, -0.5903067, 1.0651501, -0.7004471, -0.00041770772, 0.0015723647, -0.00045752904, -0.6970406, 0.067955874, -0.7466975, 0.00053624087, -0.0025446806, -5.832652e-05, 0.0010285605, -0.0007115607, 0.0011860874, -1.028611, -0.72972065, 0.6687645, -2.1849988, 0.88461363, 0.46189183, 0.7721692, -0.17974961, 0.0006008654, 0.0016488679, -0.0012637198, -0.0025335862, 0.00029550103, 6.0007733e-06, 0.00091868325, 1.4652078, -1.4892869, 0.6876597, 0.0012870011, 0.36870164, -1.779692, 0.0024685613, -0.0017685895, 0.0014790704, 0.0012830344, 0.0013119146, -0.0011421302, 0.00042568776, 0.00024883906, 0.0007052199, 0.00025591397, -0.0008821897, 0.00016083982};
float bias_1[] = {-0.19870874, -0.14508776, 0.3584898, -0.28571233, -0.26903594, -0.5394878, -0.3692562, -0.011448491, 0.13421082, -0.047390234, 0.9791484, -0.60369, -0.35651135, -0.5590157, 0.3082371, 0.46417588, -0.37975895, -0.36890778, -0.39250106, -0.5131557, 0.16472347, -0.020127853, -0.13878551, -0.36072037, 0.047589015, -0.30152878, 0.694839, -0.48799637, -0.33196217, 0.46304238, -0.060032964, -0.0585606, -0.26090914, -0.410689, -0.8363787, 0.46611425, -0.026894331, -0.0044692634, -0.007097698, -0.38187712};
float weight_2[] = {-0.0006898604, 7.9966325e-05, 0.0023410856, 0.0017143975, 0.001615098, -0.0007263385, -0.0024780477, -0.0002782004, -0.0022230158, 7.111346e-05, -0.00046271388, -0.00068657985, 0.0034148954, -0.0011914512, 3.727016e-05, -0.0042522824, -0.00330013, 0.0001358691, 0.0013616565, -0.00019652804, 0.0010358164, -0.0018558701, -0.00034766283, 0.0006739288, 3.390966e-05, 0.0014214063, 0.0021897496, -0.00037197347, -0.00095502345, 0.0018616486, 7.982645e-05, -0.0015603493, -0.0013222871, 0.002039459, 0.000977017, -0.0005298952, 0.0009034319, -0.0014056889, -0.0017648982, 0.0010527145, -0.000329668, -0.0007528757, -0.24544579, -0.00093466486, -0.00028141012, 0.0009806423, 0.001329581, 7.725466e-05, -0.0011107593, 0.0005055322, 0.14522912, -0.00034725448, -0.0009245733, 0.00069318473, -1.3001697, -0.000627165, -0.0015055913, -0.0011339325, 0.0012756981, -0.056999564, 0.00085654244, 0.0011857398, 0.0026087712, -0.0012534995, 0.0064978506, 0.0028313545, 0.013008709, -0.0005217897, 2.1867512e-05, 0.00022811987, -0.29762024, -0.00049889873, 0.0031797797, -0.0013703869, -0.0025281163, 0.31859818, -0.00077508023, 0.00022738753, 0.00027024891, 0.0015248827, -0.0025653222, 0.0012960174, -0.002693759, 0.0018422464, -0.00068920065, 3.5270932e-05, -0.0014026731, 0.0031615002, 0.00093713426, -0.0005271821, -0.0007661546, 0.0010332658, 0.002085356, -0.0047418685, 0.00022240332, 0.0009675521, 0.00032363058, 8.762861e-05, -0.0019361983, 0.0008803642, 0.0006385116, -0.0024131406, 0.0021507018, 6.0574384e-05, -0.00074077246, -0.0016115704, -0.00047099273, -0.0013264854, -0.0030875548, -0.0017320833, 0.0003329484, 0.0023448037, 0.00038272527, 0.00033154187, -0.0012307472, 0.0013363026, 0.001063173, 0.00016203837, -0.0015285154, -0.00035186106, 0.001170255, 0.00065557926, -0.1287938, -0.0007801881, -0.0006766312, -0.0008508482, 0.00090779795, 0.0006238937, 0.5481148, -0.12707585, -2.4344966, -0.33369288, 0.00045678765, -0.0017603252, -0.0003044397, -0.67769575, -1.6093341e-05, 0.0026952012, -0.00017107686, 0.23056924, 0.0011484948, -0.0015230582, 0.23606943, -0.0017172018, 0.20554712, 2.0027597e-05, 0.53839546, -0.0006237399, 0.002236887, 1.7453707, -0.98678374, -0.0016036141, 0.0018891724, 0.0009494382, -1.6490409, -0.9663027, -0.0007157901, 0.0031071566, 0.0004784281, -0.00081676175, -0.0003176129, 0.0004874908, -0.0006608613, 0.000781817, -0.004772941, -0.0005054155, -3.2631913e-05, -8.943991e-05, 0.0024674586, -0.0020111974, -0.0007783682, -0.0010704115, -0.00022446731, 0.0033262875, 0.0012782733, 0.0047510047, -0.0014989676, 0.0013679571, 0.001690781, 0.0007300229, 0.0004310843, 0.0019392042, -0.00065453595, -0.0017655855, 0.0013038376, -0.00073310896, -0.00022081431, 0.0010987596, -0.00029538886, 0.0004915006, -0.0024473716, 0.0024502773, -0.003856103, -0.001548471, 0.001502851, 8.68981e-05, -5.2056275e-05, 0.00087474164, -0.0024463127, -0.0012559398, -0.0013608001, 0.0019420296, 0.0021285403, -0.0025986785, -0.00033603993, -0.00062504644, 0.00056609686, -0.0011439023, 0.00061361905, 0.00049802416, -0.001285319, -0.0007559835, -0.0023479478, -0.001015874, -0.0019447474, -0.0005276405, 0.000395555, 0.0039582644, -0.00075414905, 0.0002580638, -0.0021607198, 0.0016513246, 0.0006349507, -0.001417243, 0.0010071894, -0.0012154896, 0.0003252509, 0.0012829164, -0.0012490744, -0.00011789362, 0.0012965976, 0.0024752514, 0.0026044534, 0.0007394601, -0.0021624682, -0.0014225526, 0.0008832167, -0.00034631306, -0.00095060235, -0.0018164231, 0.003845266, 0.0024513435, -0.0020041405, 0.000380248, -0.00088936347, 0.0009956708, 0.00039154, -0.0010040293, 0.0017350137, 0.00046799323, -0.0037371248, -0.0020197292, 0.00040370843, -0.00055237935, 0.001373306, -0.0038496545, 0.0025757835, 0.0005600003, 0.002251313, -0.003769807, -0.002287687, 0.00034171983, -0.00035471702, -0.0006803363, -0.0004283901, -0.0015847874, 0.0015169887, 0.0024275016, -0.0007818998, -0.0004970352, -0.0021941543, -0.002855207, 0.0013956684, -0.000847945, 0.0003372454, 0.0008876408, 0.0024786526, 0.0008787365, -0.002888421, -0.00054642546, 0.0020892627, -0.001164959, 0.0014642638, -0.0010813993, -0.0012087619, -6.483984e-06, 0.0020504822, -0.0008916443, 0.17083548, 0.0896801, -1.1281561, -0.07292636, -0.00084940356, -0.0012989979, -0.0012550746, 0.0010986796, 0.0015819469, -0.0006011564, -0.0010624477, -0.3294295, 0.0011304686, -0.00029642833, -0.0017231047, -0.0004487381, 0.035391115, -0.003981931, 0.0027173446, -0.0008041697, 0.00078832795, -0.18359317, -0.5633795, 0.27344096, -0.001964258, -0.0020810594, -0.86554104, -0.2251027, -7.029157e-07, 0.0012467025, 6.427437e-05, -0.003382547, 0.0004805443, 0.0024629454, -0.00027922392, 0.0017109135, -0.0013941887, 0.0022498989, -0.0013558163, -7.808994e-05, -0.0007036826, 0.00056556653, -0.00074112497, -0.0018280769, -0.00055818143, 0.0004986189, 0.0005843786, 0.0021424252, -0.00036420889, 0.00028808092, 0.00035266043, -0.00095512334, 0.00049293245, 0.0006352696, -0.00022082665, -0.0008383244, 0.0011649351, -0.000742859, 0.00034499765, -0.0007014196, -0.0013850547, 0.00017098413, -0.002413393, -0.00118432, 0.0009896264, 0.002541108, 0.0011362771, -0.00088987633, 0.0001943275, -0.0013485034, 0.0006245161, -0.00035536126, 1.6176622e-05, -0.0009036855, 0.00059198396, 0.00095467456, -0.0016634471, -0.0011621265, 0.0017319347, -0.0024272443, 0.0004149796, 0.003299208, -0.0004457467, 0.002013005, -0.00038512517, 0.00014754373, -0.002471412, 0.0008833522, -0.0028700535, -0.002426682, 0.0006389748, -0.0031139203, 0.0008960301, -0.0005954438, 0.00038439955, 0.0021413593, -0.0004970047, 0.003576239, -0.001297082, 0.00048782787, -0.0009334102, -0.001973428, -0.00093645114, 0.0012954359, -1.8167193e-05, 0.00054077397, 0.0006820978, -5.4013974e-05, 0.0014506071, 0.000120715296, 0.00021819753, 0.0018207026, 0.003102737, 0.0021615294, 0.0013025593, 0.00070102606, -0.0031264927, 0.000720112, -0.0002673103, 0.00024741562, 0.0013028447, -0.0016215183, 6.665132e-05, -0.0019259045, -0.00080521917, -0.0012894237, 0.0021619168, -0.000753295, -0.0019489985, 0.0011335302, -0.0007784115, -0.0020109878, -0.00040421778, 0.00056975655, -0.0018096702, 0.0012980832, -0.0014009657, 0.0013077299, 0.0009439878, -0.00044008967, 0.0019031356, 0.0019441968, 0.0008873506, -0.00025460473, 0.00074806006, 0.0007197447, 0.00016939343, -0.0012958267, -0.0013920502, 0.0009319274, 0.0014499533, 0.0017792297, 3.002229e-05, -0.0012805457, 0.0020887959, 0.0009909149, -0.004466741, 0.0017067366, 0.0003249296, 0.00027191866, 0.002649511, -0.00074705796, -0.0007959106, 0.00014923094, 0.00029457436, 0.00031919367, 0.0012990324, -0.0005858649, -0.0010998213, 0.00036370836, 0.00043278604, -0.00089327246, -0.0008813763, 0.0006887242, 0.0014056747, 0.00057567155, 0.00077818154, -0.00069015985, 0.0023149531, 0.0012093115, 0.0007742853, 0.00070949295, 0.0020138808, 0.0005190722, 0.0040329043, 0.0046111234, 0.0022348776, 0.0004966989, -2.4687237e-05, -0.00013642109, 0.00084262725, -0.0007624024, -0.00041553695, -0.0012878999, 0.0012303038, -0.00067387114, -0.000530577, 0.0007112111, -1.4391731e-05, 0.0007166337, 0.000709374, 0.0011308462, 0.00028267587, 0.0036059306, 0.00068301184, 0.001439804, 0.0013034965, -0.00023548125, -0.0024262946, -0.00011132675, -0.0007176818, -0.00091883074, -0.00021785288, -0.0013068388, 0.0008416733, -0.0015007744, -0.0011631239, -0.0043470543, -0.00014191173, 0.001124181, -0.0003889869, -0.0007296663, 0.0010368245, 0.0005752081, 0.0024477197, -0.0012502007, -0.00046292914, -0.00028427062, 0.00021829078, 0.00026315675, -0.0005731065, 0.00083553034, 0.0011987763, -0.0010711096, 0.0007304803, -0.0012286252, -0.0011466027, 0.0001240382, -0.0019816954, 0.00015091151, 0.00056175224, 0.00041222572, -0.00075169944, 0.0016544402, 0.0005479727, 8.808548e-05, 0.0006899554, 0.0010774957, 0.00055463274, 0.0003632526, -0.0013695799, 0.0005434426, -0.0005817639, 0.00094060786, 0.00084081443, -0.0039967876, 0.0037922193, 0.0011595262, -0.00034154218, -0.0010445807, -0.00043617067, 0.0025367977, 0.00079231197, 0.0025180564, 0.0013046586, 0.0002185395, 0.0005053391, -0.0016171288, 0.00016344301, 0.0010927392, -0.000384663, 0.0025754513, -0.00044811552, 0.001957344, -0.00075376005, -0.00045426807, 0.0018952452, -0.0012838475, 0.0006583749, 0.00020908812, 0.002592679, 0.003823902, 0.00033257582, -0.0007500728, 0.0038788547, 0.0005805698, 0.001150705, -0.0004261185, -0.0018608312, -0.0010159469, 0.0009729076, -0.00022745965, -0.0023900308, -0.0007083379, -0.0037628645, 0.00025639846, 0.001540781, 0.0012211772, -0.0007954592, 0.0011223336, 0.0037488015, 0.0006899457, -0.0028942665, 0.0026725228, 0.0005060206, 0.0013963522, 0.00020770583, 0.0015984669, -0.001998119, 0.0010654522, 0.00041058555, 0.00019892142, -0.00058373174, -5.253541e-05, 0.019093376, -0.0016696953, 0.0005936587, -0.00015955759, -0.0027220494, -0.0021096189, 0.002608097, -0.012798496, 0.089192994, 0.090711616, 0.0032549943, -0.00089028355, 0.0059296284, -1.561598e-05, -0.00027057296, -0.0029353262, 8.6659275e-05, 0.0065921424, 0.0005103513, -0.00032001478, -0.11691881, 0.0010942938, 0.0044197543, 0.0032116617, 0.0010867035, 0.0005591725, -0.0012765529, 0.03037985, 0.046738416, 0.003206808, 0.0017701257, -0.0012191953, 0.0018995648, -0.93788016, -5.1967218e-06, 0.0005150157, 0.00056924205, -0.0015510733, -0.00077713863, -8.943037e-05, 0.0014240404, 0.0021684077, -0.00022091978, -0.0043383962, 0.0005070532, 5.005626e-05, 0.002500956, -0.0018130895, -0.0009907403, -0.0020216333, 1.3865738e-05, 4.617963e-05, -0.0031528287, 0.000761491, -0.00027505308, -0.00012320594, -0.0014613408, 0.0004259578, 6.4256776e-05, 0.0019470446, 0.00013284461, -0.00015455286, -0.00020454096, -0.00066559727, 0.0032611846, 0.003858887, -0.00040218967, 0.0017428738, -0.0017571399, 0.0025811237, -0.00031390673, 1.568519e-05, 0.0007550589, 0.0010958179, 0.0007332966, 0.00199378, 0.0008463904, -0.0015242572, -0.0016317575, -8.358795e-05, -0.00073895615, -0.00013104791, 0.003111016, -0.0009303558, 0.0026605965, 0.0007313499, 0.0007797291, 0.00083521666, -0.00031957275, 0.00053846254, -0.0023674339, -0.0021445933, 0.0021502364, 0.00044712506, 0.00039411453, -0.0029030032, 0.0023916848, 0.000693126, 0.0014478446, -0.0013326276, -0.0018090579, -0.0007304585, -0.00066628464, 0.00025969048, 0.0019448808, -0.00022633496, -0.0021860152, 0.00067476457, -0.0021529875, -0.0006024717, -3.176251e-05, 0.0037608142, 0.0012951246, 0.0012893692, 0.00066301593, -2.4677138e-05, -0.0007581328, -0.0032943273, -0.0003967472, -0.0017640308, 0.08562567, 0.0009544238, -5.238221e-05, -1.6751757e-05, -0.0008424933, 0.0013577626, 0.00021462778, -0.08151059, 0.0168561, -0.00037280243, 0.001483093, -0.00022477866, -0.002251234, -0.67175734, -0.00031872105, 0.0002471849, 0.0006656933, -0.06562609, 0.0005381429, -0.0008012249, -0.02130641, 0.00077858404, 0.25553462, 0.0011276104, 0.00044282118, 0.0013150106, 0.0012146123, -0.00029367942, 0.098692715, -0.12680651, 0.0013368527, -0.0035692025, 0.001998277, 0.518515, -2.2367225e-05, 0.0014074482, -3.6833924e-05, 0.00023268879, 0.00033303746, -0.0001698331, -0.0009978705, 0.0017995217, -0.0012010868, 0.00060812366, -0.0004670647, 0.0009120528, -0.0011359672, -0.0013588574, -0.0012836014, 0.0014105163, 0.00036823357, -0.00046724803, -0.00049198855, 0.0014438275, -0.0005627716, 0.00019203825, -0.0019625511, -0.00094540574, -0.0021648258, 0.000177512, 0.00073349517, -0.00034630406, 0.003089135, 0.0022805282, 0.00031309912, -0.0024480699, 0.002410564, -0.0016367891, 0.0012286282, 0.0021218613, -0.00012393453, -0.0016554812, -0.00029229035, -0.00089392875, 0.0050488296, 0.0023860126, -0.0003225142, 0.0016819456, 0.00096837536, 2.4793786e-05, -0.00059508655, 0.0011013608, -0.000646262, 0.0028978758, -0.0012411802, -0.00062758813, 8.435664e-05, 0.0025542788, 0.00073442806, 0.0017997689, -0.00084961444, -0.00064189953, 0.001332087, 0.0006692963, -0.0005892416, -0.0027751927, 0.00070573564, -0.0018130742, 0.0024692412, 0.0007677759, -0.0017692207, -0.0013034175, 0.0028475805, -0.0017914823, 0.0008151091, 0.00041880287, 9.978248e-05, -0.0006518687, -0.001967965, 0.00034561224, -0.0021598958, 0.0025432957, -0.0012337237, 0.0007733223, 0.0006553374, 0.0011260979, 8.3878695e-05, 0.0015640442, -0.00077158003, 0.0021640398, -0.0006673548, -0.0008707368, 0.0012643514, 0.0007425287, -0.00028771767, -0.002404664, -0.0011789021, -0.000119640084, -0.00059604103, 7.4662734e-05, -0.0010870692, 0.00027952832, -0.00311356, -0.0013947897, -0.00091613975, 0.00040505704, -0.0008876729, 0.0008184013, -0.0024692928, 0.0006560785, -0.0019422112, -0.0035269428, 0.0012397361, -0.0016003167, -0.0003751045, -0.00033857007, 0.0027399003, 0.0013025779, -0.0012968028, 0.0045541115, 0.0009087282, -0.0004598837, 6.7664994e-05, -0.0016900375, -0.0012944721, 0.0032961378, 0.0024179285, -0.00066136895, 0.004195621, 8.828094e-05, -0.0008985968, 0.0018267157, -0.0007562024, 0.00045293348, 0.0021996892, -0.0013262439, -0.0007780583, 0.0007400465, -0.00088970264, 0.00067670905, -0.00089636614, 0.00049725943, 0.0011889616, 0.0011738861, 0.003972927, 0.0025421034, -4.410016e-06, -0.0010983506, -0.001510292, 0.0013993443, 0.0012544086, 0.00087337766, 0.00035440805, -0.0011338559, -0.0010318164, -0.00015807193, 0.00043991802, -0.0012322853, -0.00093765365, -0.0006765748, 0.0025927688, 5.0217845e-05, -0.00019901583, -0.0006124939, -0.00020393432, 0.0012266145, -0.00023417396, 0.0011062414, -0.0020212103, 0.0011340781, 0.3447925, -0.0012183423, 0.00013017963, 0.0008452299, -0.0022908975, 0.00010305425, 0.028301155, 0.7101733, -0.047100037, 0.0024781376, 0.0026107882, -0.0005944095, -6.3170824e-05, -0.00025492435, 0.0036534932, -0.0008670236, 0.0004417721, -1.9483033, 0.21384405, 0.0006528512, 0.0029929164, -0.00069179526, -0.39066175, -0.00022742742, -0.38900018, 0.00031447955, 0.0019444206, -0.026450964, 0.4315166, -6.582863e-05, 0.00032671564, 0.0021402875, -0.0023882105, 0.005298031, 0.0007841169, -5.689246e-05, 2.1866745e-05, 0.0009838628, 0.0016660057, -0.0006903922, 9.757833e-05, 0.0010001577, -0.00086189626, 0.0013815158, -0.002694529, -0.00056277023, -0.020409614, 0.037143286, -0.43053132, -1.108036, 7.6135446e-05, -0.00095430436, 0.005465223, 0.45610052, 0.001533236, -0.0016499542, -0.002161935, -0.09661693, -5.574373e-06, 0.00055850996, 0.0043989406, -0.00014332216, -0.00032304722, 0.0005173981, -0.0011243803, 0.00019865928, -0.00146924, -0.6547136, 0.00051576976, -0.19120546, -0.0007568279, -0.0037518973, -0.017922163, -0.0077156867, -0.00041654398, -0.00049280043, -7.954725e-05, 1.64152e-05, -7.9802005e-05, 0.0012966032, -0.00067296595, 0.00059099117, -0.0013124746, 0.0005062397, -0.0011702282, -0.0041797943, -0.000769516, -0.00065718236, -0.0012970815, 0.0013056222, 0.0028549663, -0.0032983972, -0.0005595616, 0.0020121785, 0.0023982318, 0.00089848053, -0.0019667437, 0.00064616755, 6.14023e-05, -0.0014007473, 0.003112238, 0.0010327715, 0.0008884351, -0.00019516947, 0.0008819098, -0.0020524028, -4.7804046e-05, 0.002014998, -0.0010356855, 0.0005994947, -0.0016074019, -0.0013543168, 0.0019362199, -0.002860523, -0.00027530678, 0.0002609857, 0.002170297, -0.0011252896, 0.0006187947, 0.0007643249, -0.00056145224, -0.000598173, 0.0007562435, 0.0006563106, -0.00080908195, 0.00048424758, -0.0008786429, 0.0016841883, -0.0003967904, 0.0015682245, 0.0011137351, 0.0014585513, -0.0015372408, -0.0003240665, -0.0019192671, 0.00023812614, -0.00079112174, -0.0062115993, -0.00013760568, 4.3184526e-05, 0.0005608032, 0.00037638564, -0.0017452817, 0.0006198921, -0.0004461594, 0.000516345, -0.00057264755, -0.0015553825, -0.0007798431, -0.00061770866, 0.00018430059, 0.0013320032, 0.00072889146, 0.00026219577, 2.69464e-05, 0.00089860766, -0.0019532773, -0.0026801089, -0.0041135075, 0.0020577246, 6.774935e-05, -0.0016718403, -0.00153336, -0.0028701124, 0.0012183436, 0.0010870079, -0.5991179, -0.0011569122, 0.5566071, 1.6424747e-06, -0.00035702574, 0.00013349141, -0.00028812297, 0.000120750716, -0.0001283142, 0.0017946108, 0.00034901808, 0.00021613855, 0.00097337656, -0.00027850355, -0.7740098, 0.006212158, -1.149911, -0.00079777953, -0.00042714376, 0.0020273882, 0.001223059, 0.07098018, 0.17336592, -0.15537828, -0.00040986604, 0.0014200944, -0.0016965086, 0.25568923, -0.0016077238, 0.0021450722, 0.000110478286, -0.00042771877, -0.0012481547, 0.0012963489, -0.0016283283, -6.169532e-06, -0.002074692, -0.0012805403, -0.002127477, -0.0017895456, -0.00089083816, 0.0012884852, 0.0018123152, -0.0010783954, -0.00054028915, 0.0019418708, 0.0021631129, -0.00090141373, -0.0019468549, 9.9428056e-05, -0.00048335677, -0.0015875989, 0.0018078537, 0.0018421743, -0.0032972987, 0.00046025487, 8.3316e-05, -0.00074299285, 0.0015538827, -0.00020180678, -0.0009698295, -0.0003679687, -0.0012741499, -0.0019494098, 0.0009910027, -0.0015634769, 0.0023882836, 0.00030353572, 0.0011986359, 0.0009905602, -0.00030265027, 0.0005135294, 0.0024052393, -0.0025271396, 0.0010464462, -0.0003743205, -0.0014130559, 0.00029366725, 0.0008469196, 0.0018028843, 0.002103057, 0.001323858, -0.23868448, 0.0034302538, -0.0038022446, 0.0007518836, -0.004925895, -0.06989337, -0.0027747457, -0.00096221763, 0.0018221757, 0.06305434, -0.0007983291, -0.00054359436, -0.45906687, -0.00026855338, 0.1880889, 0.0021182515, 0.0003732256, -0.0038464973, 0.0002665422, -0.0065121492, -0.0008437325, 0.0018131514, 0.0016467838, 0.00027180777, 0.30181366, -0.00031853345, -0.0016134664, -0.001226018, -0.00037666445, -0.0010625954, -0.0026266233, 0.0013161064, 0.00034629874, -0.0010226102, 0.0025003646, -0.000672346, -0.001833722, 0.0011312254, -0.0017862001, 0.0005003669, -0.00026060554, -0.0004894274, -0.0012444629, -0.0016111082, -0.00030932925, -2.7125352e-05, 0.0015103886, 0.0016725215, -0.00162893, 0.0006119427, -0.0007178666, 6.716084e-05, -0.0006236049, 0.0004960665, 0.0006704623, 0.0011149445, -0.0006483551, -2.4027075e-05, -0.0011446873, 0.0014099733, 0.00061676494, 0.00085842225, 0.00036121666, -0.00089575903, 0.00048759923, 0.0006136271, -0.0007871811, -0.0033449975, 0.0016518133, -4.8139882e-05, -0.002451466, 0.00061361055, -0.0007571246, -0.0022219177, -0.0010611266, -0.00046944642, -0.0012936979, -0.00030583353, -0.002460986, 0.0021060824, -0.000270006, -0.00021772218, -0.00073982484, 0.00013069622, 0.0002979932, 0.0013963755, 0.0006711694, -0.001459308, -0.00090594497, 0.0032981206, -0.0005635596, -0.00045990257, -0.0013283417, 0.0007152851, 0.0012113814, 0.002867336, 0.0019581013, -0.002399017, -0.00039724004, 0.0021581226, 0.0012938932, -0.0002994598, -0.00068419403, 0.004481523, 0.00055438315, 0.0025559794, 0.00036656333, -0.00052829477, -0.0011559556, 0.00129094, 0.0019015737, 0.00038702434, -8.3499806e-05, 0.00072310655, -0.001269628, 0.0009961689, 3.8927188e-05, -0.0015374207, -0.000115097864, 0.10107209, 0.0009159493, -0.03907482, 0.002263852, -0.00028283917, -0.0017435292, -0.0007542836, -0.0028915047, -0.0004586018, -0.0031406658, 0.69827527, 0.0010690325, -0.0019235719, -0.41260603, -0.0014184369, 0.105269685, -0.0017495336, -0.006126086, 0.002584716, 0.0018417855, 0.0015231075, 0.0011459666, 0.0011840136, -0.0012889637, 0.0005985509, 7.6720695e-05, 0.18783471, 0.0016629428, -0.0013204517, 0.0024647661, 0.0004603695, -0.0008143196, 0.00015049784, -0.00031578046, 0.0026894626, 0.0012318417, -0.0013896492, -0.0003762823, -0.0009731825, -0.00063914375, 0.00018514658, 0.0012460076, -0.0013626541, -0.0011580834, -5.4229633e-05, 0.000963179, 0.00016835827, 0.0009975027, -0.0005645342, -0.00024470763, 0.000956516, -0.0018356557, -0.0009348535, 0.0011482785, -0.00040792246, 0.0017041385, 0.00039280078, -0.0007630212, 3.7397054e-05, -0.0009164142, 4.632184e-05, 9.734469e-05, -4.6523783e-05, -0.00139995, -0.0007759585, -0.0011169973, -0.0034087594, -0.0013664665, -0.002869377, -0.0010159402, 0.0028764836, 0.0012160996, -0.0003919657, -0.0007881966, 0.00056825636, 0.0038974064, -0.00088467845, -0.0006741459, 0.00023602694, 0.002657199, -0.00020447449, 0.0008560179, -0.0013080322, -0.0005436102, 0.001333769, 0.00022081065, -0.0011231889, -0.0031193192, -0.0020649447, 0.00011863408, -0.0018167578, -0.0016651697, 0.00017365848, 0.0004933708, -0.00011217024, 0.002896965, 0.0011792269, 0.0009638131, -0.0009148526, -8.895219e-05, 0.0023422944, -0.000548547, -0.0016001826, -0.0037248032, -0.0021245074, -0.0024749618, 0.00035645452, 0.0010277715, -0.0001403481, -0.00046048092, -0.0024047615, -0.0028254741, -0.0004560647, 0.35239252, -0.0019050334, -0.0007560414, 0.0020293859, 0.0026315576, -0.0013183425, 0.35160503, -0.7563967, -0.042765893, -0.6432283, 0.0011696895, -0.0024701557, -0.09865976, 0.001169373, 0.0004008255, 0.0017998652, 0.0013382512, 0.0015836076, -0.00026077003, -0.0011307382, 0.01957143, 3.932661e-05, 0.0027122959, -0.0006388679, -0.00032779577, -0.00021494797, -0.0005142428, 0.12847683, -0.9924525, 0.10428002, -0.00035305825, -0.0028059718, -0.70882446, -0.53444123, -0.0018205992, -0.00033964246, -0.00022674075, 7.332936e-05, -0.00032399473, 0.0006230993, 0.34620604, 0.0031184084, 0.0011933759, -0.0004467919, -5.78326e-05, -0.0006688987, -0.46023363, 0.14478919, 1.4762732, 0.20513591, 0.00033450883, -0.0004128866, -0.00087752525, 0.3210292, 0.0012159767, 0.00636868, 0.00016891939, 0.54326385, 0.5784312, 0.00077677245, 0.48454428, -0.000554709, 0.37306672, -0.0001247896, -1.394824, -0.0010702426, 0.0013992372, 0.49855393, 0.06856483, -0.08352864, 0.0017317748, -0.00022113998, -0.0014326465, 0.76590836, 0.000109488836, -0.0012279227, 8.9594934e-05, -0.0024999967, -0.0017638046, -0.0009833485, -0.00022139892, -0.00023107964, -0.001990322, 4.7966605e-06, -0.00083772215, -0.00092679163, 0.00011558007, -0.50330824, 0.54132295, 0.000330912, 0.0020541805, -0.0021518094, -0.48500273, 0.00018226792, 0.00017358607, 0.00014332356, 0.00086891063, 0.00039542647, 0.00036700867, -0.0007353254, -0.06993294, 0.0030715808, -0.0010891596, 0.00156107, -7.42799e-05, 0.00081261346, -0.00073653244, 0.00066474255, 0.0011164066, 0.0012865522, 0.0022884738, -0.00027151193, 0.00033664383, -0.0024533207, -0.0014911818, 0.0027697794, -3.7949932e-05, -6.693881e-10, 0.0010049662, 0.0011524521, 0.000525677, -0.00048228167, 0.0003457247, -0.0006265745, -0.0007924342, -0.002548742, 0.0022469533, -0.0027011507, -0.000344067, -0.00013654621, -0.0028643855, 0.00059032923, 0.001058215, -0.002385651, 0.00039281568, -0.0023382949, 0.0018013108, 0.0017190172, -0.0010261148, -0.0012933381, -0.0010796124, 0.0018147246, 0.0010353043, -0.0009488793, 0.0018055906, -0.0007390944, -0.004083438, 0.0012517497, 0.0013137403, -5.6989753e-05, 0.001248383, 9.968098e-07, 0.0002458878, 0.00085144443, -0.00067650015, 0.0007506346, 0.001194255, -0.0006286758, 0.001226811, 0.0028516923, 0.0006992808, -0.001977006, 0.0032446668, 0.0002895028, -0.0008730027, -0.001789182, 0.00017119985, -0.00013022457, -0.0013444263, 8.584105e-05, 0.0005854693, -0.0017508699, -0.0019241526, -0.0018091957, 0.00024094277, 0.0011113996, -0.00093069073, -0.003296027, 0.0024707615, -0.002418342, -0.0019420156, -0.001278693, 0.00076521165, -0.0008566603, 0.0006550913, -2.5233428e-05, -5.1052193e-05, 0.0018056278, -0.00046058756, 0.0013114088, -0.00096795085, 0.0010347835, -0.0013096253, -0.00067744165, 0.0001393336, -0.0012905543, 0.0019559592, 0.0023597064};
float bias_2[] = {-0.04835684, -0.060591977, -0.016759658, 0.53609717, -0.11949942, -0.18625383, -0.10974807, 0.4571616, -0.1148863, -0.15674798, -0.119366616, -0.07428277, -0.02461578, -0.03755445, -0.15451822, 0.35063112, -0.030959522, -0.115317985, 0.08894983, -0.03474643, -0.07111044, -0.1547658, -0.026620256, 0.37095168, 0.40230596, -0.0644712, -0.062177263, -0.011911999, -0.17368875, 0.1878221, -0.03553161, -0.06625744, -0.6553178, -0.12975617, -0.11704546, 0.015500953, -0.49424794, 0.035537522, -0.06849859, -0.15409006};
float weight_3[] = {0.00031425015, -0.23228839, 0.000107117055, 0.91408455, -0.0021578567, 0.0016270424, 0.00022843212, 0.9326351, -0.0010875403, 0.00012862781, -0.0024733138, 0.0011131958, -0.00026792806, -0.0021484448, -0.0014564253, -0.10056965, 0.00090813293, -0.00087263103, -0.005514109, -0.0022905667, 0.002012408, 0.001296477, -0.0016287749, 0.9521318, 0.6918078, -0.0019476359, -0.0006564191, 0.9591008, 0.0015136875, -0.28532556, 0.0008008503, -0.0013655266, 0.3929304, 0.00037947818, -2.511125e-05, -0.110864356, -0.4114684, -0.36568967, -0.001152745, -0.00085850287, 0.0002304202, -1.03242, -0.0016643814, 0.92306274, -0.00060056936, -0.0012043364, -0.00017082994, -0.073321216, 0.0033015772, -0.00060172327, 0.001942915, 0.002276452, -0.00013604833, 0.0038613891, -0.00075684953, 0.0040147044, 0.0007086903, 0.00130557, 0.51157045, 0.000990969, -0.00028161556, 0.0012977205, 0.0004924815, -0.039041653, -0.0021504539, -0.0013238988, -0.0039398093, 0.06321681, 0.0021600586, 0.34796456, 0.0031326315, -0.0014246737, -0.26538962, 0.00062026543, -0.000274742, -0.89682525, -0.4048652, 0.41284418, -0.00077269017, -0.0008928866, -0.0003658982, 0.47101346, -0.0008260708, 0.79037297, 0.0020091187, 0.0013284927, 0.00062454597, -0.17961979, -0.0015003326, 0.0008736923, 0.000118393276, -0.00045764248, 0.00025082217, -0.0001499863, 0.00074469956, 0.5407685, 0.0005596319, -0.0006704949, -0.398088, -2.7148366e-05, -0.000279621, -0.00023082807, 0.00024361245, 0.151658, 0.19561183, -0.0008902954, -0.0016554731, 0.35680917, 5.2554067e-05, 0.23599213, 0.0018263079, 0.0019390179, -0.5986629, 0.0012857493, -0.0012342938, -1.3409747, -0.4133137, 0.16896391, 0.004312969, -0.0021616449};
float bias_3[] = {0.072189234, 0.3060192, 0.30719048};

