float weight_1[] = {-0.0013334993, -0.0013936296, 0.0012523518, -0.0010151574, 0.0031324723, -0.00039054116, -0.68413174, -0.2988228, -0.06815137, -0.2118193, -2.696963, 1.5502465, -0.5552777, -0.9548707, 1.1423192, 0.00070007856, 0.002627952, 0.0009686687, -0.0012610083, 0.0023086725, -0.0017482258, -0.0008320628, -0.00050619093, -0.00029720273, -0.00039074649, 0.00083867786, -0.0017409143, 0.0009085284, -0.0002480481, -0.0006502761, 0.0015098752, -0.0011307449, 0.00016532053, 0.120168, -0.8092296, 0.45776477, -0.6764537, 0.9797549, -0.43463907, -1.1523011, 0.021662837, -0.39430213, 0.0002147532, -0.001753381, -0.0011665908, 0.00026296097, -0.0017762047, 0.0011256449, 0.0013460113, -0.0009421733, -1.2738092e-06, -1.1804409, 1.0021521, -0.071166344, 0.0009908571, 0.00389342, 5.5208395e-05, 6.5509754e-05, 0.00061299076, -0.0009145971, -0.00085509056, 0.00048470646, -0.000341616, 0.00015935965, -0.0017819206, -0.0023479313, -0.000623483, 0.00016734679, -9.161228e-05, -1.4017712, 1.1433293, -1.2494289, -0.0014334042, 0.0030933497, 0.0015523036, -0.00027232175, -0.0025617445, -0.0034435377, 0.0006872292, 0.001963632, 0.00028189822, -1.3438911, 0.99425566, 1.4659588, -0.0013084398, -0.0013338086, 0.0017998792, 0.0002107266, -0.00014433678, -9.768139e-05, -0.0008751412, 0.0026629632, -0.0009783193, -0.00201069, 0.0020945487, 0.00028913328, 0.0005998542, -0.001456713, 0.0024734274, 0.00023610168, 0.00029923418, 0.001230815, 0.3352321, 1.3628325, -4.0708246, -0.0003532844, -0.00029823545, -0.0026874137, -0.0021613925, 0.0015030131, 0.001629798, -0.0006021014, -0.0013915282, -0.0012832205, -0.99605733, 1.0078675, 0.9170943, 1.0761399, -0.44924957, 0.0010709278, -0.0009472239, -0.0010986971, -0.00061804353, -0.0002846883, 0.00068817753, -4.530286, 0.0019437299, 0.00024357776, -0.00078662834, -0.00090419006, 0.0008729053, -0.0009982883, -0.0014122158, -0.00051858684, 0.0017976, 0.0003873373, 0.0012739203, -0.0009363964, -0.0018285187, 0.0006572541, 0.00029335497, 0.002580917, 0.002590339, 0.00089778285, 0.2857641, 8.258185e-05, 0.84118223, 0.0016255481, 0.00037132378, -0.00071924215, 0.0018681814, -0.00021794965, 0.00085674104, 0.002426271, 0.0016640392, 0.00058237667, -8.558441e-05, 0.0021877289, 0.001244215, -0.0013416251, 0.0025934805, -0.001306359, -0.066440314, 1.0740722, -0.09224999, 0.00052074663, -0.0019569153, -0.00071359443, -0.0009949575, 0.00014162895, 0.000500161, -0.0019289496, -0.0020531882, 0.00017156848, -0.00077382056, 0.00022652629, -0.0013170938, 0.000593342, -1.4469879e-05, 0.00039901375};
float bias_1[] = {-0.023441456, -0.15335062, 0.7188743, 0.25447944, 0.33086538, -0.01130249, -0.027501928, -0.17601436, -0.017284399, -0.17713663, -0.57159764, 0.18182781, -0.0078015984, 0.7730786, -0.41801423, -0.005896711, -0.13255256, 0.29085383, -0.2908759, -0.0058729807, -0.18552761, -0.013187443, -0.005726548, 0.42418018, -0.5155952, -0.01144043, -0.1430551, -0.88542736, -0.2716273, -0.0032144242, -0.012531813, -0.13579635, -0.029940002, -0.074591555, 0.25779143, -0.5702967, -0.4174465, -0.07337484, -0.5963986, -0.34565637, -0.093680225, 0.09042686, -0.011827725, -0.08431179, -0.010279266, -0.21997765, -0.16526556, -0.38557175, -0.7234729, -0.06321447, -0.08661357, -0.008671337, -0.22190854, -0.18070202, -0.38101345, -0.23007935, -0.06770092, -0.54489774, -0.04939011, -0.470553};
float weight_2[] = {-0.0013577312, 0.0011106957, 0.0012311863, -0.00058250106, -0.0009312109, 0.0023250382, -0.0024653515, 0.0006145941, 0.0024612462, 0.0013675607, 0.000733549, -0.00049647357, -0.00041871762, 0.0010170771, 0.00014322624, -0.00022207148, -0.002584068, 0.0012327639, -0.000925669, 0.004269365, 0.00054804044, 0.00031090903, -0.00020445959, -0.0009848532, 0.0007235329, 0.00057909195, -0.001538811, -0.00010076293, 0.00069392286, -0.0006592664, 0.00028421628, 0.00073753984, 0.0008903122, 0.0006573877, 0.00014694524, -0.001684763, -0.004130152, -0.00056663854, 0.0005437249, -0.00043580984, 0.0018768343, 0.0007538975, -0.00059591397, -0.00022373028, -0.0038857164, -0.0024155746, -0.002109018, 0.0016763404, 0.0006576201, 0.0019457993, -6.267044e-05, 0.001304547, -0.0016250489, -0.003131043, 0.0007196478, 0.0009755961, 0.0019709095, -0.0005370022, 0.0004684102, 0.00045827968, 0.0005959944, 0.003658664, 6.560875e-05, 0.0019761357, -0.18152238, -0.0006499407, 0.00078025117, -0.0024039014, -0.001689711, 0.00011152035, -0.0004176806, -0.13633287, -6.342614e-05, 5.712243e-05, -0.00056010764, -8.70073e-05, -0.00077950826, 0.61055255, 0.0016666298, 0.0006527044, 0.0017539867, -0.0015742088, 0.00069889595, -0.34076983, 0.0005590792, -0.00068454316, 8.1843464e-05, -1.3839793, -0.001063445, 2.851968e-06, 0.00047667863, 0.0020956926, 0.00054289214, -0.0010709828, 0.06026408, -0.000747166, 0.0011978485, 0.002441374, 0.31750825, 0.100341566, -0.001399595, 0.0020985757, 0.00016711326, -0.00066821737, 0.0011309036, -0.0031135823, -0.0015594907, -0.0014183449, 0.038252763, -0.0024052337, -0.00016389019, -0.0024597226, -0.0009278729, 0.0006666381, 0.5164479, 0.0006940206, -0.0023594177, -0.0011640463, -0.00022894121, -0.00016645889, -0.0017702507, -0.0008944503, -0.00011916325, 0.0018138081, -0.0018142901, -0.0011465602, -0.0002220248, 0.002248364, -0.0005396656, 0.0011039801, 0.0024232105, 0.0012806836, -0.0020349962, 0.0007212828, -0.0002330778, -0.0012744877, 0.0005115515, 0.0011922771, -0.0011911066, -0.000670368, -0.00013885862, 0.0006658176, -0.0014507778, 0.0013142203, 0.0020951796, 0.00066977943, -0.0005420204, -0.0021456676, 0.003124855, -0.0009128066, -0.0012441068, 0.000562542, -0.0002730227, -0.0024387466, -0.00044114565, 0.0018707282, -0.0015935972, 0.0009943917, 0.00030377158, -0.0013074994, -0.0008780397, -0.000617148, -0.001136893, -0.0006026936, -0.0012991834, 0.001546505, 0.0012908336, -0.0012226021, 0.0019389399, -0.0007473106, -0.0016380157, 0.00024958327, 0.0038161436, -0.0012452772, -6.357764e-05, 0.0012455063, 0.0044832067, -0.002906495, 0.0011300376, 0.000100656165, -0.0010079335, -0.00047903717, 0.0007593391, -0.0016938382, 0.0020221723, -0.0011653777, -0.00018650299, 7.212383e-05, 0.0013008985, 0.0020474896, 0.0009102671, 0.00014277204, -0.0006465024, -0.0023358744, 0.0010166252, -0.0032907715, 0.0018953565, -0.00021716981, -0.0005827087, 0.00013212679, 0.0014771741, -0.0006639617, 0.002472553, 0.0024730526, 0.0007070481, 0.0012917124, -0.00023250305, 0.0013571004, -0.00015038301, 0.0011976203, 0.0021610188, 0.0011318298, -0.0005885109, -0.0020393736, 0.0006411212, 0.0012997577, 0.0032770033, -0.0021586656, -0.0004250807, -0.0010504012, 0.0013801748, -0.0024666057, -0.0018495907, -0.0006688658, -0.002443812, 0.0021418517, 0.0011440958, 0.0012297184, 0.00011911505, -0.0004591305, -0.0008228053, 0.0009650387, 0.0013731592, -0.0018579914, -0.0014077132, -0.001296326, -0.00052473857, -0.0017438366, -0.0021601939, 5.673233e-05, 0.0010622315, 4.111469e-06, 0.17414181, 0.81661403, 0.007973711, 0.0012096514, -0.0014572211, -0.0024481295, -0.0006872986, 0.0003725423, -0.00074600667, -9.189722e-05, -1.1533694, 0.27965182, 0.001406352, 0.0006246744, -0.0003995826, -0.002904721, -0.00010170677, 0.0010403211, -0.001314232, -0.0003049908, 0.0002770389, -2.5864898e-05, -0.0014536309, -0.0027114314, 0.0021496648, 0.1449097, -0.00056249433, 1.17324535e-05, -0.0012118338, 0.0012682179, -0.0014410948, -0.0016358282, -2.960753, 0.0017884709, -0.0013697473, -0.00073844113, 0.0036279552, -0.03690789, -0.0012781257, 0.0016996799, 0.0006977563, -0.00022283156, 0.00042100972, -0.0020221923, -0.00067847915, 0.0009926093, -0.0757025, 9.5801544e-05, 0.00217238, -0.0008584376, -0.001163352, -0.0013312967, 0.21458043, 0.0006668306, -0.0010359937, -0.0010808087, -8.320727e-05, -0.0028622604, -0.0022843846, 0.0025307494, -0.0016099111, 0.00020966306, 0.001048088, 0.0023699603, -0.0023949868, -0.0004428759, 0.0017236093, 0.00025611784, 5.287776e-05, -0.00040665845, -0.0013582803, -0.003543512, 0.0009527281, -1.6874052e-05, -0.0018607759, -0.0015424188, -0.00086508336, -0.0009723361, -0.0002581525, -0.0006477756, 0.0014748115, -0.00083662407, 0.0013017689, 4.223455e-05, -0.001639559, 0.0037066434, 0.0011641509, 0.001805618, 4.8906048e-05, -0.0026869997, -0.0019882396, 0.0007429606, -0.00014662647, -0.0037534456, 0.0021781193, 2.3613102e-06, 8.304871e-05, -2.6862428e-05, -0.00023262255, -0.0019412888, -0.0013690074, -0.0015030862, -0.0013477998, -0.0013293602, 0.0003054794, 0.0006043979, -0.0019710097, 0.0013338978, -0.0026091323, -0.0015843597, 0.00024882704, 0.0009907132, -0.0010889599, -0.00072234694, -5.9802027e-05, 0.0022656433, 0.00071253907, 0.0006362602, -0.00033327346, -0.0017534138, -0.0027146894, 0.0026956133, -0.0025887592, -0.0012715664, 0.0012721907, -0.0010996077, 0.0021700244, -0.0008754277, 0.0006313254, 0.0031676474, 0.00027400284, 0.0013380401, -0.0028455579, 0.0006166527, -0.0033394902, 0.0020855442, 0.0011784337, -0.002790318, -0.00174163, -0.000972143, 0.0012096548, -0.00044290908, -0.0017284516, -0.0006748318, 0.0009114754, 0.0031340285, -0.00018948282, 0.0006402928, 0.00033423683, -0.0010558687, 0.00032547623, 0.00095714425, -0.0039614746, 0.0016245124, 0.00092538283, 0.0018545347, 0.002076019, -0.00036325317, 0.0007230758, -0.0016681179, -0.0013364884, 6.6005305e-06, 0.0005521516, 0.0006034649, 0.0027916187, -0.00041827504, 0.00019434435, -0.00020938774, -0.001684692, 1.0360731e-05, 0.0005521481, -0.00046868814, -1.4879974e-05, -0.0011488167, 0.00023276947, 0.0023709356, 0.0037360499, -0.0011010965, 0.00075451453, -0.0015244915, 0.0002410321, -0.0013778494, 0.0012929731, 0.0011549701, 0.0011929484, -0.0015469978, 0.0012651801, -0.0004639664, 0.0007896838, -0.00015882612, 0.00035719658, 0.00060179125, 0.0015214274, 0.0017721284, 0.002051893, 0.0004871037, -0.001103682, 0.001939837, 0.001110774, -0.00086556067, -0.0015752169, 0.0011160473, 0.00022098044, -0.0016292862, 0.0028147933, -0.0010884551, -0.0013650833, 0.0021030346, 0.000496596, -0.0011307428, 0.0010621445, -0.0005986394, -0.002124818, 0.002182195, -4.7004214e-05, -0.0019042316, -0.0005472235, -0.0012288073, 0.00059312186, -0.0007584734, 0.00078424026, -8.645689e-05, 0.0006293194, 0.0012707089, -0.001061467, -0.0014783865, 0.0032923669, 0.0017194452, 0.00064031105, 0.0024837432, 0.0016198305, -0.0004501334, -0.0013546789, -0.0001185204, 0.0013868166, -0.00035651115, 0.00072432536, 0.0008081442, 0.00063323136, 0.001734734, 0.0013362349, -8.814037e-05, -0.00070245605, -0.0033010743, -0.0006643245, -0.00029491307, 0.0019437993, 0.0012796103, -0.0017965441, 0.0016257602, 0.00039692363, -0.0011674663, 0.0005885288, -0.0031018099, -0.0017071681, -0.0007905718, 0.0006515951, 0.0011819839, -0.0006834163, 0.0012978314, 0.00025703968, 0.0032935557, 0.0005930092, -0.0042687953, 0.0014004535, 0.0013164247, 0.0011411684, 0.0012633395, 0.0024708882, -0.0012875093, -0.0006706246, -0.0003243084, -0.0003034505, 0.0016989107, -0.0009630157, 0.0008785254, -0.00028698146, 0.000919113, 0.00074627285, -0.00091442215, 0.0006322773, -0.00013311888, 0.00013478386, 0.0012501613, 0.0018085974, -7.3146075e-05, 0.00073623727, -0.0019432906, 6.850582e-05, -0.0013262574, 0.0018424662, -0.001210388, -0.00079659175, 0.0012992438, -0.0016760977, -0.000763795, -0.0005890273, -0.0024094793, 0.001657659, -0.00063494896, -0.00050894846, -2.6351438e-05, -0.21105227, -0.00015314372, 0.0006770949, 0.0017969438, 0.0005183393, 0.00041330428, -0.00048171027, -0.00285085, 0.00039995086, -7.50536e-05, -0.00061879493, -0.0010310018, 0.00020907028, 0.0009984252, 0.0004909879, -0.0010964854, -0.0013347411, 0.0017646181, -0.0012538144, -0.0021297196, -0.0012417776, 0.0043061473, -0.0002035285, -1.6466268, -0.000105087296, -1.6371376e-05, -0.0007852532, 0.0012825937, -0.001961421, 0.0023936017, 3.9972947e-05, 0.0016853285, -0.0006010582, 0.00052643707, -0.029787784, -0.6643775, 0.0012428421, -0.00032433483, 0.0012998567, -0.0007776916, -0.00089802145, -0.0007503297, 0.0015275817, -0.0022507086, -0.17927885, -0.00056076143, -0.00021307502, -3.8703045e-05, -0.001233249, 0.0014178226, 3.1053278e-05, -0.00088944955, 0.00094139867, -0.00063018815, -0.0016157789, 0.0015700746, 0.0011386869, 0.00026111864, 0.0017909543, -0.0012425152, 0.0016441131, -0.0013938885, 0.00037363858, -0.0014119251, -0.0028893675, 0.0018729294, 0.0004549822, -0.00035604782, -0.0004908253, -0.00087870564, -0.0008483274, 0.000657793, 0.0028500627, 0.001046935, -0.0010026658, -0.00081483764, -0.0005072829, -0.0005258058, -0.000544314, -0.0015935148, 3.507572e-05, 0.002221988, 0.000101007405, -0.0005139615, -0.00064212346, 0.0014515738, 0.0005702246, -0.00027669675, 0.002045654, -0.00058645103, 0.0007203828, -0.00053874287, -0.0006829319, -0.00050461944, 0.00076307415, 0.0006318353, 0.00061139016, 0.0029043166, -0.0021594972, -0.0005282477, -0.0010487256, -0.00024093167, 0.00048188533, -5.998678e-06, -0.001294401, 0.002168533, -0.00018998724, -0.002032546, 0.00034625863, -0.0012267325, 0.0005048637, -0.0016056596, 0.00056215585, -0.0020836275, 0.0009915798, 0.0015982357, -0.0006582489, 0.00012513483, 7.262084e-05, 0.0010920716, 0.0012855607, -1.4578443e-05, -0.00025996368, -0.00101383, 0.00065694435, 0.0015517082, 0.0016036739, -0.002204214, 0.00078630476, -0.0007278261, -0.0004534166, -0.0008061174, 0.0035452838, -0.0003846595, -0.0015715444, 0.00055661995, -0.00015788822, 0.0019886945, -0.0031117718, -0.0019939207, -6.64719e-05, 0.00045972067, -0.0004931692, -0.00082582404, 0.0014014028, -0.0036097788, -0.001028913, 0.0005739822, 0.0012958401, -0.00051035255, 0.0015968578, -0.0005882617, -8.869683e-06, -0.0007371999, -0.00038720906, -0.00033162857, -0.00036779087, 0.00040852206, 0.003129046, 0.00013866444, 2.988812e-05, 0.0024603102, 0.00079588307, -0.0023970385, 9.4931165e-06, -0.0019499435, 0.0026292945, -0.0017294079, 0.0009442164, 0.0005982592, -2.2600521e-05, 0.00075389433, 2.0534499e-06, -0.0011409769, -4.5979134e-05, -0.0008940583, -0.0015526045, 0.0014263077, -0.42115727, -0.00030210917, -0.5827385, 0.0003051591, -0.0018999099, -0.0021507752, -9.60984e-05, -0.002259193, -0.0036749318, -0.030968353, 0.00052694755, 0.0004414854, -0.0022844654, 0.0028289526, 7.553256e-05, 0.29020151, 0.00037707202, 0.0009014687, 0.0020123413, -0.0013043191, 0.00017056358, -0.0015625806, -0.00024354132, 0.0009535386, -0.001161255, 1.0501943e-05, 0.0016641503, 8.0647005e-05, -8.29316e-05, 0.004739797, -0.0021564334, -0.0041702986, -2.4181434e-05, -0.00067875825, -0.0039061988, 0.0013187269, -0.44490072, 0.37878898, -0.0015578286, -0.0013105036, -0.00024093583, 0.0005743272, -0.0015534303, 0.0019489528, 0.00075868226, 0.0018489053, -0.47599348, -0.0016148419, 0.0027599866, -0.00031992365, -0.0013810698, -0.002224136, 0.08696739, -0.001624665, -0.0008640485, -0.0016224976, 0.0012999711, -0.001513209, 0.0003685777, 4.670619e-05, -0.0010521569, 0.0010537881, 0.0005979295, 0.00014664297, 0.0013733106, 0.0018161295, 0.0018813743, 0.0021737595, 0.0008197367, 0.0013979053, 0.0008340231, 0.002927643, 0.00023612939, 0.0005372468, -1.856027e-05, 0.0012416092, 0.00057068525, -0.0009468328, 0.00091316213, 0.002432204, -0.0007569987, -0.00031607016, 0.0031677461, 0.001335434, -0.0005097637, -0.0021558322, -0.00074246095, -0.0008568123, -0.0002761445, -0.001396917, -0.0017982322, -0.00041798723, 0.00018536451, 0.0023948536, -0.00012417883, 0.0024767034, -0.0023637111, 0.0006823958, 0.00027773363, 0.00069082424, 0.0021909645, -0.00067481905, 0.0013562287, 0.000799068, -0.0019061881, 0.0026496039, -0.0013162274, 0.003132741, 0.004977332, 0.00039682983, 0.001484901, 0.0011798164, -0.0041723046, 0.001696775, -0.0009047885, 0.0015153612, 0.0005821208, 0.00086792366, -0.00062040216, 0.00079129345, -0.001611718, 0.0009231747, 5.934073e-05, -0.0002855937, 0.002205257, -0.0008943642, 0.0006574927, 0.0011356785, 0.0008649758, -0.00142053, -1.2834207e-05, 0.00049313135, 0.0016674404, -8.985173e-05, 0.0028255319, -0.00031389447, 0.0006484825, 0.0017049271, -0.0013199023, 0.0017277703, 0.00030332548, -0.0013393187, 0.0039915424, -0.0013414363, 0.0013149192, 0.0005932052, -0.0004934489, -0.00024300805, -0.0019434817, 0.0017064657, -0.00036470615, 0.00021272275, -0.0014958634, -0.0023745704, -0.0035432745, -0.0032971092, 0.0004993365, -0.0012370863, 0.0012265604, -0.0012054035, -0.001973367, -0.00060212886, -0.0022377404, 0.0012729561, -0.0002000808, 0.0007387897, 0.0024156235, 0.002387242, 7.589592e-05, -0.0012029408, -0.0009161587, 0.0017663089, 0.0010646321, 0.000494507, 0.00017750222, 7.305667e-05, 0.0006312942, -0.0018144404, 0.0003440414, 0.0006152063, 0.0010695264, -0.0021623066, 0.0006871218, 0.0007144184, -0.0024719415, 0.001307277, -0.0007358297, -0.0007283522, 8.620031e-06, 0.0012815895, 0.0010689944, -0.00067825656, -0.0006267901, 0.0007991135, -0.002613343, 0.0013020553, 0.00075681775, -0.0007868522, 0.00093569944, 0.0021476534, 0.0026321602, 0.0023881476, 0.0024324087, 0.000759333, -0.00032621954, 0.0017349935, 0.0010770747, 0.0007208492, 0.0010139188, 0.00059838936, -0.0014448042, 0.00025679302, 0.001957951, -0.0011149718, 0.0029383344, -0.0042801416, -0.00011694949, 0.0012326157, 0.0015209622, -0.00090361014, 0.0007681317, -0.00065061677, -0.00053097494, 0.001280658, -0.00054276676, -0.0015006717, 0.0025988305, 0.001666015, 0.000792705, -0.00075404375, -0.0012014369, 0.0006433615, -0.0015519495, -0.0013066296, 2.2547392e-06, -0.0024522943, 5.9835205e-05, 0.0016531199, 0.00055348984, -0.0015589268, 4.64865e-05, 0.6092048, 0.43621847, 0.0015196858, -0.0006056541, 0.0014190632, 6.6296197e-06, -0.002016769, 0.0012910598, 0.0002911524, -0.022332916, -0.23263006, 0.0015005026, 0.0003924162, -0.0017438335, -0.0010250276, -0.002035058, 0.0006042956, -0.0032289564, -0.0014239757, -0.0001284022, -0.60623455, 0.00074966345, -3.5785255e-05, -0.0012280233, 0.008254285, 0.00021044939, 8.1937236e-05, -0.0005141605, 0.00027702973, -0.00011711015, 0.00016503787, 0.002556153, 0.00032783323, 0.00045362324, 0.00016609582, 0.5580534, 2.9731236e-06, 0.0019227524, 0.0005289054, 0.0007763668, -0.00067188375, 0.0012831994, 0.0008674324, 0.0013766505, -0.001966265, 0.15747222, 0.00068860827, -0.0006969137, 0.00070082484, 0.0007776391, 0.00026971684, 0.03318971, 0.0006608357, 0.000876929, -0.0012160152, 0.00021249923, -0.0022012342, -0.00023979193, 0.0012065999, -0.33377203, -0.00034978273, -0.023175633, -0.0010438797, -0.0013430418, -0.00030954264, -0.0032392219, -0.0010228662, 0.001243325, -4.3717384e-05, -0.00011927797, 0.00013093623, 7.468322e-05, -0.0014680426, -0.001463874, -0.7535019, 0.003515047, 0.0009770583, -0.0023252089, 0.0013047652, -0.0011449773, -0.0010660067, -0.0010041596, -0.00022567087, -0.0019685475, -0.595415, -0.00037247955, 0.00093013345, -0.0021581748, 0.0019381061, 0.0019412475, -0.0005890966, 0.19137537, 0.0018394071, 7.332873e-05, -0.0019291776, 0.0011879933, 5.123291e-05, -0.0007690708, -0.001009439, 0.0005427649, 0.0023735664, 0.0013100933, -0.000592636, -0.0021796452, 0.0013053009, 0.12667063, 8.6058746e-05, 0.00071966724, 0.00085101166, -0.0008222918, -1.8959981e-06, 0.0023687934, -0.0003212461, 0.0013496978, 0.00071259105, 0.002150605, 0.0003930828, -0.0026785976, 0.00088961853, 0.00046254438, -0.003852358, -0.0016303607, -0.00025834562, -0.0015777266, 0.00097413897, 0.0008182707, 0.002686491, 0.0007687655, 0.0024367434, -0.0005418319, 0.0008730063, -0.0024112936, -0.0011250426, 0.0006108413, 0.0039867917, 0.00022528347, -0.0010753963, -0.0028643697, -0.0005471631, -0.0013105351, 0.00055711326, -0.001135477, 0.0015136602, 3.1485397e-05, -0.0011279024, 0.00024011818, 0.0025973273, -0.0011406038, 0.002610063, 0.004124892, 0.0026653255, -0.0019027882, -3.1939882e-05, 0.0036815414, 0.00079788733, 0.001668508, -0.00012954138, 0.0034431145, 0.0024739308, -0.0012512249, -0.0024481507, -0.0003219641, 0.0011350195, -0.00050340703, -0.0026414187, -0.0008172557, 0.00057186047, 0.0014740754, 0.0018769293, -0.002371816, -0.0008118849, -0.0010505369, -3.2641576e-05, -0.0033454804, -0.0012155466, 0.0002643267, -0.00090275594, 0.0012398737, 0.0005019593, 0.00027591913, 0.0019527144, -0.0015119159, 0.00056258304, -0.0019660837, -0.0017942246, 0.00076009927, 0.001860863, 0.001821341, 0.0011333452, 0.00064444717, 0.001028756, -0.00029575918, 0.0019663936, -0.0016646356, -0.002552878, -0.00012765185, 0.0023970832, -0.0002673748, -0.00075663405, 0.0020001396, -0.00076513935, 0.0005194545, 8.306734e-05, -0.0009332327, 0.00081554445, -0.00049957325, -0.0013736477, 0.0021465563, -0.0014960577, 0.0006020425, 0.0047464487, -0.0012045539, -0.00026814756, 0.0016384465, -0.0012948717, -0.0004957763, -0.00086070265, -0.0011441333, -0.0010236108, -0.0006634236, -0.00093702594, 0.0024625342, -0.0028543214, -0.0018075808, 0.000368006, 0.00065489666, 0.0023851932, 0.0006813605, 0.0024758908, 0.0011723515, 0.00043832374, 0.00062235154, 0.0008257817, -0.00039972743, -0.00055558083, -0.001233404, -0.0005083664, -0.0010431162, -0.00037614082, 0.00087337825, -0.00032700566, -1.1878992, 0.00048673913, -0.0006068896, 0.00074544543, 0.0038837236, 0.0012133676, 0.0039168103, -0.17746384, -0.000118896474, 0.12483706, 0.00036987127, -0.001480687, 0.00038712454, 0.10173334, 0.00027620583, 0.0016422153, 0.00045732007, 0.0019353027, 0.0018298553, -0.000120857425, 0.0009016632, 0.003057635, 0.0010255164, -2.7347593, -0.0022909306, -8.8532484e-05, 0.0007253421, 0.002028191, 0.0011301547, -0.0007137227, -0.00014825203, -0.001355729, -0.0020445448, -0.0024330812, 0.0031646385, -0.04199629, -0.0032222427, -5.7434867e-05, -0.0012409014, -0.0012959425, -0.00051845575, -0.00038288755, 0.0012850831, -0.0008748472, 0.005907814, 0.00049887487, 0.0008875582, -0.0016429976, 0.0009401494, -0.0015741391, 0.5749406, 0.0006744174, -0.00024574564, -0.0041268673, -0.0021453067, -0.0007175261, -0.0006952128, 0.00062516634, 0.00033887624, 5.6512305e-05, 0.00088022364, 0.0012193886, 0.0010791407, 0.0016036989, -0.00067694875, 0.0004403568, -0.00070792175, -0.0008089483, 0.00015481387, 0.00082417746, 0.002555927, -0.0017677364, 0.0019269106, 0.0017994917, -0.00016168738, 3.126199e-05, 0.0019727077, -0.00070419104, -0.0020089087, -0.0010753548, -0.00024409138, 0.0013231403, 0.0011383968, -0.00037133705, 0.0004067266, 0.0013560187, -0.0013743143, -0.00082234497, 0.0004883307, 0.0026687752, -0.001105732, -0.0013590408, -0.00020803302, -0.0015284569, -0.001006884, -0.0013158662, 0.00052155514, 0.00078786165, -0.00049692264, 0.0002191824, 0.00019513449, 0.00048540524, 0.001832335, -0.0016358462, 0.0011656864, 0.0010379795, -0.0003517529, -9.359652e-05, 0.0009565528, 0.0012001309, -0.0007901802, 0.00021118601, -4.998967e-05, 0.0023952664, -0.0007093046, -0.0010077194, 0.0007562124, -0.00075182854, 0.00080939085, 0.00031093636, 0.0012071982, 0.001791385, -0.003135465, -0.0003985757, -0.0008808584, 0.00095964933, 0.0017747036, 0.000713577, 0.002472903, 1.6782433e-06, -0.0003877402, -0.0012751498, 0.0028337105, -0.00046904216, -0.0026063896, -0.00078627846, -0.0013234353, -0.00061133306, 0.0005306689, 7.133349e-08, 1.9671374e-05, -0.00084946956, 0.0004408147, 0.0021621196, 4.7386973e-05, 9.846088e-05, -0.001291362, 0.0019309587, -0.003098391, 0.0010430601, 0.00068487006, 0.0023651284, -0.0014197521, -0.0013254962, -0.00251831, -0.0012355077, 0.0003176132, -0.0004909788, 0.0005439236, -0.0023616522, 0.0011669128, -0.00011661614, -0.0033016182, 0.0009009219, 0.0012103135, -1.4250109e-06, -0.003646511, -0.003538669, 0.0038903584, 0.00047851627, -0.0010088405, 0.00076023757, 0.0007440695, -0.00032560574, -0.0012614094, -3.9591687e-06, 0.0012714309, -0.002274684, 0.10671023, -0.492408, -0.49920267, 0.0018747017, -0.001477873, 5.2920543e-05, -0.0027302138, -0.0024305708, -0.001062378, 0.008146098, -0.0015165211, 0.00029768088, 0.00256956, 0.0015989142, 0.0025038254, -1.4984845, 0.0039884388, 0.003299171, -0.0026190921, 0.0005948187, -0.0022492749, 0.0018956676, 4.3385604e-05, 0.0008943452, -0.0015331738, 0.0019533047, -0.00038264698, 0.00064194796, -0.00059939676, 0.00017061495, 0.00049705186, -0.0010218307, -0.00033002428, 0.001237668, 0.0019609947, 0.00026129975, -0.40721112, 0.23486657, -0.0009534344, 0.0033161836, -0.0006656772, -0.0012771201, -0.0018942872, -0.0010803007, -0.0012669557, -0.0005218894, 0.00017445523, -0.0005808377, 0.00039294478, -0.00023121084, 0.001190889, -0.0016043175, -0.14818121, -0.0011721511, -0.0011599849, 0.00041126175, -0.00063270243, 0.0023900606, -0.0003390219, -6.879054e-05, 0.00080241263, 0.004474577, 0.003488272, 0.00040890792, -0.00089074974, -0.0016396462, -0.00012394413, -0.0022294451, 0.0020904276, 0.00030010391, -0.0031668223, 0.0010604489, 0.0010510245, -0.00069376145, -0.002142482, -0.00087051955, 0.002438215, -0.00040162605, -0.00093790557, 0.0006792876, -0.0033079106, -0.0012473527, -0.0033109356, -0.0011154162, 0.0008012797, 0.0007207947, 0.00070725026, -0.0013169856, -0.0029051637, -0.006074017, -0.000112981186, -0.0013026485, -0.00038367795, 0.000847143, -6.107369e-05, 0.0007495663, 0.0005759662, -0.0011413051, 0.0007858557, -0.00012387137, -0.002281331, 0.0009693708, 0.0013282322, 0.00038181816, -0.0010975075, 0.0002714892, 0.0008613504, 0.0010724352, 0.0008466231, 0.00043861644, 0.0027872543, -0.00033856157, -0.0013172638, -0.00063886016, -0.0032057702, -4.8851012e-05, -0.0017284085, -0.0026310124, 0.0016200704, -0.0005308598, 0.0007427513, -0.00057249627, 0.00057609455, 5.168724e-06, -0.00128437, -0.0023213418, 0.0015563978, 0.002111863, -0.0007825168, -0.001993772, -0.0008892216, -0.0011594832, 0.0007071465, -0.0016485975, -0.0015837686, -0.0018066253, -0.0009803057, -0.00067376386, -0.0006649368, 0.0047519454, -0.0005008845, 0.0006013102, 0.0013259161, 0.0001601355, 0.0025563748, -0.004285545, -0.0020190293, -0.0013218493, -0.002447581, -0.0019411951, -0.0017309863, -0.0019412896, -0.0002524755, 0.00016916294, 0.0013338807, 0.00051242963, 0.00086358696, 0.0012095072, -0.0023987554, 0.00076671224, -0.0017685911, 0.0010364022, -0.0005289567, -0.0012450679, -0.00069935236, 3.5680976e-05, -0.0013366746, 0.001101438, 0.0017771599, 0.0012832242, -0.0007586698, 0.00089897326, 0.0020159988, 0.0019435046, -0.00018705195, 0.0006683329, -0.001954929, 0.0010556604, -0.0014757421, 0.00014576712, -0.5957289, 0.00068364776, -0.42031512, -0.001396646, 0.00044045792, -0.00035953443, -0.0015543705, -0.0012395188, -0.002513013, -1.0713736, 0.00027812482, 0.00014134092, -0.00075382146, -8.713582e-05, -0.00083576574, 0.00011958495, -0.00018231815, 0.0013169547, -0.000837999, -0.0004308814, -0.0023656932, 0.0004566032, -0.0012932671, 0.00056659814, 0.00053677766, 0.0050027696, 0.0024606842, -0.00028611484, 0.0007015873, 0.00059319864, -0.0013038503, 0.003116536, 0.00024889858, 0.002121091, 0.002171358, -9.0843416e-05, 0.009303601, 0.0057187905, -0.0011587774, 0.0028637315, -0.0015867621, 0.0007749314, -0.0003893634, -0.0008573704, 0.0005430011, 0.002156676, 0.016287226, -0.00046855994, -0.0012327029, 0.0009902483, 1.2732111e-05, -0.0019453684, 0.091580585, -0.00020675926, -0.0004440135, -0.0029238549, -0.0017123548, 0.0015525438, -0.0016333128, -0.00087616104, -0.00065739604, 0.00019541418, 0.00084168254, 0.001240748, 0.00041307937, -0.00038668024, 0.002668815, -0.00018643675, 0.00084498094, -0.0007026738, 0.00019848527, -0.00023603207, -0.002702896, 0.0021679967, -0.0039160643, 0.0018449578, -0.00051910366, -0.00049021863, 0.00067708036, 0.00013989164, 0.0015019746, 0.0015037964, -0.0036498732, -0.00044427882, 0.00040311512, -0.0009906737, -0.0016603924, -0.00085982337, 0.00074597076, 0.00046593221, 7.634319e-05, 0.0018357708, 0.0010264638, 0.002670173, -0.00091269246, -0.0032607703, -0.0038211572, -0.0003418753, -0.001689468, -0.00086610706, 0.0021437882, 0.00060421845, -0.00324237, 0.001956056, -0.00067115686, -0.0021644204, -0.0011547324, -0.0032767637, 7.6246215e-05, 0.0015044122, -0.0012187852, 0.003525341, -0.00058738, 0.0009983352, 0.0011216361, 0.0011535917, -0.0011541812, 0.0003597588, 0.0020656574, -0.0010447422, 0.0018207808, -0.0011896846, 0.0015169978, 8.016938e-05, -0.00016161392, -0.0016727371, 0.0016220566, -0.0013810631, 0.0009030028, -0.00041780056, -0.00024391979, 0.00016877824, -2.634246e-06, -0.0009604499, 0.0010658876, -0.0024651869, 0.0025337813, 0.00076616986, 0.002440536, -0.0005274184, 0.00047885423, -0.0016386831, 0.00074929476, 0.0006198815, 0.0004306885, -0.0010592028, 0.00054528436, 0.0005981667, 0.0010405862, 0.0010067563, 0.002551766, -0.0007788092, -2.2898254e-05, -0.0004532903, 0.0007660162, 0.0013883956, 0.00013035629, -0.0014471045, -0.0007190872, 0.0004518213, 0.00036744995, -0.00312388, -0.0007050558, 0.0012658648, 0.00041335978, -0.006532034, 0.00034369517, 0.00063618977, 0.0004835014, 0.0009787553, 0.0008048893, -0.0013185884, -0.0014574394, -0.0012725319, -0.0006542738, 0.000895801, 3.4545395e-05, 0.001394476, -0.0011957188, -0.0015134206, 0.00055937807, 0.00085083884, 0.00069023983, -0.00073999184, 6.424717e-05, -0.0005034408, -0.002493257, -0.0012005765, -0.0010413148, -0.0007688219, -0.0003787541, 0.0039520273, -0.00232782, 2.4503795e-05, 0.0011054218, 0.0018112271, 0.0007328725, -8.270389e-05, -0.0019012695, 0.0015575384, -0.001893807, 0.00016476103, 0.0022535026, -0.0012620342, -0.00092119013, 0.000501035, 0.00036214723, 8.993957e-05, -8.957845e-05, -0.0025150036, -0.00040306512, -0.0014166529, -0.0006831916, 0.0010467903, 0.0024901386, 0.0024341552, -0.0021950176, -0.0012920158, 0.0008425468, 0.0006302747, -0.0005876659, -0.0012987717, -0.00011449045, -0.002494324, 0.0021549645, -0.00093285186, -0.00084264495, 0.0014890396, -0.00097212975, -0.0011581008, 0.00027063437, 0.00020820188, -0.0010072598, -0.003296202, 0.00088675326, 0.0010141657, 0.0010631431, 0.0017373713, 0.0020382458, 0.00030482875, -0.0006342958, -0.0010187431, -0.0017131383, -5.337363e-05, -0.0005904601, -0.0005426265, 0.0013727632, -4.988791e-05, -0.0013474056, -0.00063312653, -0.0012504689, -0.0033373456, 4.6924746e-05, -0.0013582495, 0.0004207581, -0.0012803839, 0.001292188, -0.0009094897, 0.00077340915, -0.0023302038, -0.00018170383, -0.0012941587, -0.004323242, -0.0011349352, 0.001257776, -0.00076633145, 0.0013126755, -0.00024394947, -0.0008927965, -0.001449178, 0.0031110635, -0.00059414416, -0.00044556858, 0.0018243113, -0.0016607929, 0.0024686777, 0.0006042967, -0.00047941005, -0.002707732, 0.00095795933, -0.0005680957, 0.0007250603, -0.0004329679, -0.00022169534, -0.0007541942, -0.0024957946, -0.0012042195, -0.00064522057, -0.004179967, 0.0013067703, 0.0012337426, -0.00023279921, 0.0012128062, 8.460309e-05, -0.00048063142, 0.0007379075, 0.000614691, 0.0012335898, 0.0010983229, 0.000610593, 0.0005959004, 0.00094759377, 0.0016271684, -0.00021648491, -0.0015913834, -0.00080854853, -0.0019399527, 0.000991766, -0.000829011, -0.0011995418, 0.00021343009, 0.0020302571, 0.00067736965, -0.0019090854, 0.00058360724, 7.7378674e-05, -0.0024661622, 0.0005600619, -0.0005122483, -0.0021548201, -0.0015545398, -0.0019116468, -0.0017790359, 0.00011813041, 0.00026144503, -0.0013000285, 0.0008679998, -0.0025454094, 0.00070915604, 0.0015768819, -0.0004463949, -0.0007638532, 0.0027063724, 0.0030624429, 0.0013059659, 0.0006694139, -0.0021585315, -0.00025223114, 0.0009814258, -0.0016810747, 0.0021696296, -0.00013600948, 0.00060135283, 0.0018081862, -8.335232e-05, -0.00038215407, -0.0023559874, 0.00427033, 0.0021651257, -0.0010508702, 0.00041162246, 0.00065064535, -0.00046743642, -0.001619158, -7.8373356e-05, 0.0012043043, -0.000998015, 8.919276e-05, 0.0019862032, -0.0007154017, -0.00024156563, -0.013526085, -0.08697635, 0.00030111405, -0.0004633254, -0.0017989206, 0.0012004676, -0.0034238524, 0.002693538, -0.0016029155, 0.19749461, 1.0647964, -1.6170117e-05, 0.002635284, -0.0002517955, -0.13343798, 0.004000069, 0.0016221616, 0.0012014536, -0.0017060626, -0.0007506634, -2.355209, -0.0036923783, -0.00025405636, -0.00102563, -5.8006528e-05, 0.000112606096, -6.715468e-05, -0.0012886259, 0.0007459532, 0.0013049918, -0.001808521, 0.00015912039, -0.002696657, -0.0026758905, 0.0010679206, 0.0012926246, 0.18695855, 0.0007597416, -0.0010740012, -0.001612902, 0.0010857901, -0.0014107941, -0.0012988112, 0.00054334674, 0.0020550862, 0.29091257, -0.0011416818, 0.0030115563, 0.0005655199, 0.003939489, -0.0014699965, 0.32320747, 0.00074033637, 0.0020749648, 0.0046376027, 0.000989445, 0.0022592377, 0.00025681045, 0.0015889555, 0.00027193673, -0.0008435254, -0.0035898513, -0.0005965296, 0.0016940904, 0.0013565875, -9.331561e-05, 0.00057043124, -0.0022056063, -0.0016365959, -0.0032306276, -0.00024845963, -0.0012854857, 0.0010343075, -0.00071325473, 0.0004896332, 0.0011985989, -2.3886387e-05, -0.0037836852, -0.00018772273, 0.0013654598, -8.690142e-05, 0.00074972154, 0.0036899522, 0.0006429787, 0.0014382217, -0.0011080129, 0.0010260866, -0.0004860378, -0.0025371406, 0.0015624072, -0.0007060075, 2.6459995e-05, -0.00014848475, -0.0009567498, -0.002335507, -0.0016584403, 0.00051859923, -0.00081259484, 6.414438e-05, 0.0014072914, 1.2151431e-06, -0.0006202716, -0.0019351784, 0.000734687, 0.0028496122, 0.0019792425, 0.00017711084, -0.006155586, 9.964606e-05, -0.00020773569, -0.00049878156, 0.0015446227, -0.001246939, 0.0019692187, -0.0015330609, 0.0005277617, -0.001295304, -0.0014142926, 0.001612308, -0.0017447579, 0.00025449658, 0.000870942, 0.002141513, -0.00071498647, 0.0025733104, -0.0004645685, -0.0024804338, -0.0033445111, -0.0011105272, 0.0005653359, -0.0013549739, -0.0004720678, 0.0012827469, -0.0019192662, -3.180321e-08, -0.0005405765, -0.00048284914, 0.0013303496, 0.0008507573, 0.0012896878, 0.0010331958, 0.0012473101, 0.00045806303, 0.001524864, -0.0013017873, 0.0016199455, -0.0009807121, -0.0010724636, 0.0007815981, -0.0013818457, 0.00045249396, -9.3464754e-05, 0.0012901898, 0.0016940468, 0.00023303743, 0.0008358996, -0.001055574, -0.0012512133, -0.00035194555, -0.0006399078, -0.0011880612, 0.0010728999, 0.00066150253, 0.00014948589, 0.0017221586, 0.0014039103, -0.0031626753, -0.00015249479, -8.531718e-05, 0.0019682962, 0.0015880652, -0.0007258311, -0.001825713, -0.002587899, 0.0008017102, 0.0011896915, -0.0016288677, 0.0022649148, -0.0021261938, 0.0004892595, -0.00039547303, -0.0018956582, -0.0023908024, 0.0011223794, 0.00014080596, -0.0014066114, 0.00036820114, 0.0007552636, -0.00039637406, 8.368924e-05, 0.0021697688, 0.0011067828, -0.0010817471, 0.0002794436, 0.00048248412, 0.00028678827, 0.0012801143, -0.0014441893, -0.001830464, 0.0009832715, -0.0014876283, 0.002512983, -8.557137e-05, -0.0009617915, -0.0014986389, 0.0013266304, -0.0009626494, 2.9033807e-05, -0.00020684191, -0.002146211, -4.4153538e-05, -0.0013654311, 0.0005753172, 0.0006589263, -0.0005639917, 0.0013798114, 0.0002556328, 0.0022871115, -0.000818941, -0.000931414, 0.00076263945, 0.0011989293, 0.00045094767, 0.0018027949, 0.0011649398, -0.0022143777, -0.00049514225, -1.3316487e-05, 0.00041788042, -0.0013815537, -1.0288873e-05, -0.0019905441, -0.0005572057, 1.4799443e-05, 7.628393e-05, -0.00082626904, -0.0016649374, -0.0015623722, -0.0040268246, 0.0004942805, -0.00091303134, 0.00076853007, -0.0006447635, 0.00066972355, 0.003985623, 0.0021496722, 0.0007045146, -0.0014367169, -0.0009647335, 0.0002851667, -0.0012436227, 0.0015812716, 0.00070323376, 0.00074063457, 0.0020056262, 0.0021275305, -0.0002434731, -0.000385173, 0.002237448, -0.0015535195, -0.0012632136, -0.0008817777, -0.002158206, 0.0015781786, -0.0013345588, 0.0013580425, 8.6774235e-05, -0.0005995796, 0.0009008403, 0.0012892198, 0.0025976142, -0.0006254939, 0.00030355822, -0.00010367122, 0.0019455237, 0.00026211236, 0.0047316556, -0.0021536958, -0.0013048714, -0.0013022873, 0.00066767534, 0.0021588083, -5.2223913e-05, -0.000649889, -0.0001424062, -0.001221986, -0.0019974487, -0.0012232044, 0.0028415595, 0.0021287925, -0.00079146074, 0.0010327752, -0.0012360732, 0.00043588225, -0.000109255925, 0.001299748, -0.0038410733, 0.0012903267, -4.2256666e-05, 0.08211308, 0.00018181217, 0.00021023219, 0.0008329074, -0.0014057911, -0.00035083745, 0.0011833613, 0.002580971, 0.0023656085, -1.4503341e-05, 4.8650225e-05, 0.5788381, 0.0015640799, -0.0007051939, 0.0024030309, -0.00016737066, -0.0002680114, -0.00079770695, -0.0001101392, -0.00059820095, -0.000548477, -2.213294e-05, -0.00071038655, -0.0017232511, 0.0014501591, -0.0040598935, 0.0006622742, -5.7386547e-05, 0.00025349692, 0.0006959621, 0.0010526311, 0.0028537626, 7.852045e-05, 0.00019318328, 0.0017675627, -0.00024645161, -0.0006757389, 0.00014635565, 0.0010514327, -0.000676022, -0.0014451803, -0.00022520055, -0.00017068852, -0.00028112414, -0.00011735695, -0.0003038235, 0.00045993947, -0.0013248434, 0.0017037126, -9.535579e-07, -0.0025951667, -0.0005900081, 1.0274194e-05, 0.002128273, -0.00037686166, -0.0012595446, -0.0022463757, -0.0044605867, -0.0013147757, 0.0024816631, -0.00045924226, 0.0014338735, 0.0019310537, -0.002149856, 0.00066563225, -0.00095979427, 0.0012870317, 0.0010073115, 2.1423213e-05, 0.00062606623, -0.0006562162, 1.734239e-06, 3.7541802e-05, 0.00068872323, 0.0013597246, -0.00036386296, 0.0005451823, -0.0012118296, -0.0007578925, 8.3112274e-05, 0.0025684969, 0.0008258233, -0.0023636967, -0.001270338, 0.0027725445, 0.0013498703, -0.0005767633, 0.0018069335, 0.00011899305, -0.0007410726, 0.0009822369, -0.0014482001, -0.003139624, 0.0002948424, 0.0014598402, 0.00076556765, -0.0006664551, 0.0024507078, 0.0013094947, 4.0248036e-05, -0.00047354645, 0.0010983793, -0.00013765373, 0.0005632098, -0.00030002836, 0.00072000234, -0.00025415816, 6.666465e-06, 0.0010680065, -0.00063582056, -0.0011607921, 0.0009801748, -0.0005395014, -8.3195395e-05, 0.0010446296, 0.00091392105, 0.0028456964, 0.0020295987, 8.158432e-05, -0.001764365, -0.00018906721, -0.0007377768, -0.001035965, -0.0009134302, -0.0016022508, 0.0019654282, -0.0014957308, -0.0017009522, -0.002163453, 0.0006878476, 0.00075790996, -0.00043503538, -0.0025369998, -0.0012978204, -0.0015938798, -0.0006890241, -0.0011516085, 0.0011254787, 0.000603266, 0.002031531, 0.00012207642, -0.00019987219, 0.00059840677, 0.0016252709, -0.00011428399, 0.00099488, 0.00014402962, 5.957554e-08, 0.00087789044, 0.0014493375, 0.00020392338, 0.0012989362, -0.0010597359, 0.0025098862, -0.00094032905, -0.001938427, -0.0007053128, 0.0009300198, -0.001954137, 0.00028847926, 0.001012674, 0.0004592809, -0.00010165112, 0.0019444966, 0.0019269461, 7.2564e-05, -0.0006477639, -0.00060366903, -0.0064233, -0.0012388579, -0.0014165735, -7.782178e-05, -0.0006292856, 0.0021567678, -0.00024115527, 0.000350515, 0.0012764221, 0.0010673745, 0.0014393891, -0.0005889499, -0.0026881923, -0.0007912428, 0.00049033377, -0.0019675945, -0.00047508825, -0.00022259157, 0.0021456373, -0.0012783111, -0.002217017, 0.0005555255, 0.000284428, 0.00084689865, -0.00015075845, 0.0005949481, -0.000989214, -0.00043087598, -0.0008785649, 0.0024187448, 0.0019348167, -0.0029748967, -0.001288915, 8.84257e-05, -7.7023986e-05, 0.0008294268, -0.0021779682, -0.00063294824, -0.0024563484, 0.00018657302, -0.00029898365, 0.001450663, -0.0019455937, -0.0007234882, 0.0006458802, 0.0016124793, 0.0007995914, -0.0012976447, 0.00038404058, -0.0018950047, -0.00019893819, -0.001352073, -0.0025531263, -0.0016450591, 2.5188805e-05, 0.00054073153, -0.0009625826, -4.499682e-05, -0.0031730712, -0.0011338015, 0.001063739, 0.00035294337, -0.00071416184, 0.0011540542, 0.00029447657, -0.0008804844, -0.0015148326, 0.00043420494, -0.0017697306, 0.00060018763, -0.00045978383, 0.0007637372, -0.00013433199, -4.267174e-05, -0.21177231, 0.00042274542, 0.0018240558, -0.0001450135, -0.0011853685, -0.00021515001, 0.002221504, 4.156006e-05, -0.002399309, -0.170598, 0.0015111493, -0.0020078933, 0.0026173312, -0.00016371196, 0.00021894253, -0.002150428, 0.0014678625, 0.0014037571, 0.0011469244, -0.03164706, 0.0013261719, 0.00067182607, 0.00019526039, -0.0007911122, -0.00048564211, 2.9495764e-05, -0.0012900388, 0.00068801735, 0.000979233, -0.00017640006, 1.1914692, 0.0007570252, 0.0012497852, 0.0006766959, -0.0020371852, -0.04910423, 0.0005238702, -0.00026382777, 0.0032984447, -0.0014388664, -0.0003203132, -8.12622e-05, -0.0005981311, 0.001742159, -0.001729019, -0.00024985048, 0.0012879052, 0.002159956, 0.0034916, -0.00020367751, -0.008893385, -0.0024697897, -0.00072742684, 0.0007872698, -0.0012747026, -0.00034073793, 0.0003187813, 0.00058195496, -0.00010510822, -3.877256e-05, 0.032618385, -0.0033064228, 0.00057528965, -0.00093669235, -0.00026248116, -0.0004968853, -0.0010087637, -9.699264e-05, 0.0007465455, 0.039217833, 0.0043903897, -0.0014161442, -0.0028217654, -0.00012061006, -0.0005605088, 0.00311101, 0.0010347583, 0.00030961377, 0.0025756657, -0.1259014, -0.0007947136, 0.0023331153, 0.0009879037, 0.00019913238, -0.0019291296, 5.9762297e-06, 0.00010498479, 0.0013010269, -0.0010070808, 0.00089361187, -0.6780721, 0.00027049572, 0.0011941869, -0.00088554405, -1.5314056, -0.8528458, -0.0015118198, 3.5256965, 0.00064331206, -0.0023853392, -0.00065981917, -0.0011893254, 2.324133e-05, -0.00010994921, -0.0006114163, -0.0012796198, -0.0010651837, -0.0005104557, -0.0026857068, -0.00024984195, -0.17631508, -0.001309596, -0.000875283, 0.0019564554, 0.0023778728, 0.0026315206, -0.001476974, 0.0038219618, 0.0013251238, -0.00053886714, -0.0011114643, 0.0018992425, -9.7610755e-05, -0.0012995536, 0.0018054597, -8.671754e-05, -0.0012834845, 0.001382105, -7.2649505e-05, -0.0024878797, -0.003910115, 0.0031171287, 0.00016672513, 0.0006606011, 0.0014528523, 0.0004165843, -0.0023040653, 0.000542947, 0.0011396111, -0.0005967869, 0.00079192134, 0.0011643405, -0.00018482469, -0.0011635695, -0.0012459945, 0.00425982, -0.0001844918, 0.0018246445, -0.0010977269, 0.0010732549, 0.0009264132, 0.0008190289, 0.0009989545, -0.00024200103, -0.0006049046, 0.0015267351, 0.00062597863, -0.00060329924, -0.00055757817, -0.000782977, -0.00075725105, 0.0024039964, 0.0005084159, -0.001502903, -0.0020518238, -0.001475849, 0.0007784823, -0.0002610571, -0.0029844579, 0.0027520445, 0.000116130395, 0.00071830716, -0.0020037908, 0.0016624148, -0.0016985019, -0.0018359034, -0.0021631299, 0.0018098486, -0.001293064, -0.0019210038, 0.00043762638, 0.0013330001, -0.00087589724, 1.8904888e-05, 0.0002825017, -0.00035662006, -0.00021159521, 0.0019353797, -0.0026607192, -0.00021099421, 0.00057205616, 0.00077017816, 8.179736e-05, -0.0007537963, -0.00018038467, 0.00066019077, 0.0006547315, -0.0013080533, 0.0015724859, 0.0021951073, -0.00019643671, 0.0031168284, -5.946e-06, -0.0012284315, -0.0010629313, -0.00022168201, 0.00059974205, -0.00019260432, 0.0021100217, -0.0024736929, 0.00047092853, 0.0013816012, 0.00036158663, -0.0017558204, 7.156606e-05, 0.003754885, 0.0019460671, 0.0012748439, 0.0007155462, -0.001294169, 0.00069100707, 0.00022137666, -0.0031133215, 0.00077357655, 6.886569e-05, -0.00078427885, 0.00050736405, -0.0007765399, 0.0064884406, -0.0005925284, -0.0008939618, -0.00054292765, -0.00060812366, 0.0031193397, -0.0016330187, 0.0015528683, -0.0002743722, -0.0002933555, -0.00057284575, 0.000737385, -0.00067790446, 0.0017130037, -0.0009604098, 0.0020046104, -0.0016235702, -6.399868e-05, -0.0038641924, -0.0010490686, -0.00027232227, 0.00073404954, 0.0001499037, 0.0017030168, -0.0012022633, -0.0025680931, 7.229514e-05, -9.070977e-05, 0.00051764585, -0.00024190499, -0.00019009091, 0.0006001761, -0.00032201404, -0.0019428161, 0.0012432584, -0.0009650461, -0.00037727444, 0.0017830782, 0.0019355164, 0.00087386783, -0.0007565053, 0.00019927695, -0.0013155444, 0.00088076585, -0.00030441408, 0.0008872721, 0.00052137807, -0.0016818957, 0.0031153872, -0.00103318, 0.0012289928, -0.00037222158, 0.002429478, -0.0032973238, 0.0020093436, -0.0003477079, 0.0009715698, 0.0013327817, -0.0007023249, 0.0024742628, 0.002983072, -0.00081278244, 0.0010626684, -0.0010723202, -0.0033876146, -0.0028948567, -0.0019422943, -0.0018363, 2.7053145e-05, -0.0022977567, 0.00033144653, -0.0007394209, -0.0006885899, -0.0024306083, -0.0012843866, 0.0009905795, 0.001966839, 0.0019069302, 0.001572389, 0.0027767357, 0.0012725359, 0.00034421173, 0.0014318603, 0.0012174795, -0.00026224361, 0.0004283239, -0.0006462501, -2.7010945e-05, 0.001954236, 0.00039383047, -0.00219058, -0.0006293623, 0.0023164432, -0.0009569159, 0.00022083888, -0.00068160513, -0.000810841, 0.0008434473, -0.00057249144, -0.00096448197, 0.0019299355, -0.00051225635, -0.0043906327, 0.0006523168, 0.0019226748, -0.004603896, 0.0016603273, 0.0060258787, 0.00037930082, -0.0015250037, 0.0012104374, -0.00034032954, -0.00068985025, 0.0008335651, -0.000784677, -0.0032797966, -0.0012757354, -0.0003470769, -0.00028685783, -9.716008e-06, 0.001540717, -0.0018189622, 0.0006846753, 0.00012781529, -0.001481374, -0.0009826036, 0.0020442498, -0.00010198582, 0.00037969142, -0.001085524, 0.0019510625, -0.00037421487, 0.0015465836, -0.00087314885, 0.00056378124, -0.0013394433, -0.001449662, 0.0017153764, -0.00068470626, 0.0024813602, -0.00032828577, 0.0004820499, -0.00073581736, -0.0005176555, 0.0012978038, 0.0002831271, -0.0008646207, -0.00011748198, 0.00027075727, 0.0014426322, -0.0012981286, 0.0011239017, -0.0015187393, 0.0011377735, 0.00047819194, -0.0011973865, 0.00077110773, -0.00080751616, 0.0013255579, 0.0006506873, 0.0008990081, 0.0032953257, -0.000556359, 0.0014550438, 0.0007999912, 0.003118584, 0.00022270042, 0.00014419592, 0.0025793249, -0.00067824783, 0.00046978227, -0.00069138425, -0.0015110637, -9.561662e-05, -0.0011115607, 0.000994548, -0.00088060665, -0.0007489479, 0.00036880223, -0.0012754335, -0.00061261957, 0.0003175581, 0.0015752648, -0.0016602142, 0.001769491, -0.002898077, -0.0007648794, 0.0005082694, -6.0365797e-05, -0.0004853676, -0.0011610908, 0.0013592772, 0.00047381152, 0.0009482028, -0.00092784205, -0.0008502416, 0.0010373244, -0.0018364985, -0.0011192923, 2.3146e-05, 0.00097059365, -0.00214185, -7.125217e-05, -0.0017334573, 0.002195943, -0.00037831615, 0.0006143967, -0.0010290217, -0.0005247662, 0.0010153607, 0.0005068191, 0.0010159594, 0.0014472387, 0.0003982752, 0.003742767, 0.0022218456, -0.0023495243, 0.0002619368, -0.00039554163, 0.0020514652, -0.0011692927, -0.0018422641, -0.0006052622, 5.306845e-05, 0.0038189678, 0.00037378515, -0.0013352877, 0.0013142666, -0.0007231038, 0.00014476874, 0.0015665031, 0.0025651855, -0.0029274276, -0.00086414395, 0.0018599936, 0.0021575654, 0.0037562728, 0.00035361317, 0.0010623418, 4.9783353e-05, -0.0011407916, -0.0015959176, 0.000790401, 0.00085890037, -0.00055276067, -0.0005987823, 0.0005579059, -0.0005640815, 0.00072172575, -0.00018504099, 0.0015156367, -0.0016045821, 0.004415384, -0.0009121769, 0.0010102403, -0.00013276807, -0.00022342673, -0.002702411, 0.004394619, 0.00094787776, -0.00015827036, -0.001491158, -0.00059921097, -0.00020519376, 0.0004172679, 0.0008149758, 0.00047797133, 0.00020413834, -0.00016018038, -0.002705854, 0.00089814095, 0.0021775346, -0.00012872653, 0.001534112, -3.6174664e-05, -0.0009750221, 0.00059255015, 0.00020942942, -0.00014887654, -0.0038600343, 0.00014235824, -0.0016392402, -0.0002223826, 0.0012506668, -0.0005911787, 0.00043913053, 8.7607186e-05, 0.00027183286, -0.0016267421, -0.00016935333, 0.00022601875, 0.00088495354, 6.852485e-05, -0.001775445, 0.0006318385, -5.3240852e-05, -0.00027588953, 1.589855e-06, -0.00094110693, 0.00044410978, -0.0015325707, 0.0017983629, -0.0004927655, -0.0003660394, 0.0008970027, 0.0011606151, -0.00024350756, 0.00020366872, 0.0013894292, 0.00046828692, -0.0021543002, 3.868912e-05, -0.0012827916, -0.0023887875, -9.7625365e-05, -0.0008616119, 0.0032970458, -0.00055829046, -0.00045575458, -0.0024735415, 0.0012594635, -0.00039163604, 0.0013432334, 0.00065644004, -0.0022337069, -0.00011885521, -0.0021340635, 0.00046039897, -0.0021601343, 0.0015934947, 0.00034903624, -0.00048973784, 0.0018035215, -0.004274847, 0.0002695464, 0.00037566514, 0.000298477, 0.0011487385, -0.00212115, 0.0005251614, -0.0010355207, 0.0014090291, -0.001331024, 9.208324e-05, 0.00037316003, -0.00036636356, 0.00063083164, -0.0024766673, 0.00063685194, 0.0012959708, -0.00024176319, -0.002033636, -0.0012966824, -0.00046208652, 0.0018117662, 0.00080891803, -0.0006622015, 0.0007003705, -0.0013552587, -0.0010738878, 0.0018236972, -0.00090392743, -0.0018061983, 0.000887623, 0.00042680267, -0.0013639315, -0.0008367938, 0.0020938728, 0.0019943623, -0.0007635824, 0.0014430971, 0.0003298666, 0.00083188363, -0.00046376057, 0.0008874223, 0.0006611438, -0.0018055547, 0.001168502, -0.0032174415, -0.0006019957, -8.4402156e-05, -0.00107075, 0.0009832067, -0.0007624923, 3.960426e-05, -0.000119782344, -0.001444462, 0.0014508201, 0.0003028575, -0.002011867, -0.0012445152, -0.00014976869, -0.0005918831, 0.00027994323, 0.00090001797, -0.0021550977, -0.00019254728, -8.753396e-05, -0.0026165177, -0.004178093, -0.0019517605, 0.0012973662, -0.00056353677, 0.00072667544, -0.00055412535, -0.0009920852, 0.00082416757, -0.0008068863, 0.0013024237, -0.0012005656, -0.001258018, -0.0012920805, 0.0014104755, 0.001543263, -0.0004975868, -0.0005414247, 0.0005671368, -0.0017691979, 0.001982565, -0.00071438664, 0.00047273497, 0.0005329747, -0.0021590656, -0.00073989586, 0.0009797739, -0.0006100955, 0.00074081554, -0.00077283534, -0.0002825431, -4.0459505e-05, -0.00057447585, 6.345633e-05, -0.00075948273, 0.001450636, 0.0008031079, 0.000113941554, 0.0002253449, -0.0019575902, -0.00078186346, 0.00063341163, 0.0006244881, -0.0017752518, 0.00061020633, -0.00078491884, 0.00080042303, -0.0019323017, 9.406905e-05, -0.00064498687, 0.0003673731, 0.0006214506, -0.0042822026, -0.0012373944, 0.00062995066, -0.00021376816, -0.00021376199, -0.0014403982, 0.00022087665, 0.0008682564, -0.0004949886, 0.00044538116, -0.0012664273, -0.00012714398, 0.0021392275, 0.00015763973, -0.00023104553, 0.0021682885, 0.0012682294, 0.0003741748, 0.0005789302, -0.0009889435, 0.0005352373, -0.0010737649, 0.0004062903, 0.0012944724, 0.0041685, 0.0024476214, -0.0012928699, 0.00061973004, -0.000997375, -0.0007469235, -0.00249939, -0.00070515636, 0.0008500147, -0.0009053584, -0.0013242954, -0.00071514165, -0.001326569, -9.5084615e-06, -0.0005885402, -4.8503178e-05, -0.00051852013, 0.0006449039, -0.0024512794, -0.0015161773, 0.00022399548, 0.0005668884, -0.001624069, 0.00092856074, 0.0015898504, -0.0016497349, -0.00039532175, -0.0010681942, 0.003876118, -1.9945845e-05, -7.951248e-05, -0.00045097078, 0.0041702166, 0.00025068602, 0.00049512123, 0.0013074842, -0.0012995988, -0.0002391793, -0.0034390176, -0.0024664653, 0.00077502866, -0.0016377906, -0.00078492553, -0.002005623, 0.00028410944, 0.0041879537, -0.00020201277, -0.0019360076, 0.0016825264, 0.0012609013, -0.0034579458, 0.0007701346, 7.635841e-05, 0.0024521118, -0.0018463262, 0.0017199626, 0.001992386, 0.00050876767, 0.0011779241, -0.00088967447, 0.0014232667, -0.0007771548, -0.00035891798, 0.0005894665, -0.0019141148, 0.0024259205, 0.0004687101, -0.00069959287, 0.00030127936, -0.0020366989, -0.0013296367, -0.0018409387, 0.00086190755, -0.0003622284, -0.00077726087, -0.0018429381, 0.001414051, 0.0002602717, -0.0018205874, -1.3374702e-05, 0.0012974725, -0.00067964196, -0.0007202259, -0.0015369182, 0.00094420125, -0.0010564994, 0.0010721796, -0.0013306933, -8.0149155e-05, -0.0017953676, -0.0011859635, -0.00061172794, 0.00081808056, 0.0023749217, 0.0017898246, 0.00014735662, -0.0007451364, 0.001296521, -0.000610461, -0.00069229305, 0.00031709683, 0.0017295675, 0.0011554026, 0.0006214658, 4.424347e-05, 0.0028124917, 0.0006242283, 0.0024952507, -0.0027780014, 0.0003789574, 0.0016980952, -0.001367781, -0.0008061032, 0.00036020076, -0.0014372042, -0.0010794832, 8.453126e-05, 5.7830475e-05, -0.0015099541, -0.001909747, -0.0011017267, -0.0018412052, 9.794335e-05, 0.001603961, -3.1733827e-05, -8.346187e-05, 5.004654e-05, -0.00048627018, 0.0009589668, 6.9111484e-05, 0.00073801354, 4.55688e-05, 0.0013978239, -0.0011736003, -0.00045686215, -0.00080799946, 0.001578576, 0.0004921362, -0.0029446357, -0.00010038284, -0.0022983754, -0.001497308, 0.0013520588, -0.00060446246, 0.0021330016, -0.0006814527, -0.002628116, -0.0013676435, -0.0009132278, 0.0016885074, -0.00048561674, -0.0017727419, 0.0010724213, -0.00033591842, -0.0018696588, 0.00036919623, -0.000839337, 0.0036972212, -9.9418685e-05, -1.5436002e-05, -0.006214088, 0.0012279226, -0.0010137795, 0.00086286664, 0.00037674527, 0.0013678852, -0.0003342213, 0.0024815141, 0.00023181224, -0.0004951386, -0.0020035915, 0.0010359318, 0.00047438935, 0.0003975443, 0.00045662667, -8.361309e-05, 0.0004397289, 0.001268361, -0.0003313783, -0.0002884146, 0.001223026, -1.6936101e-05, 0.00040928228, -0.0020974793, -0.0020034648, -0.0013935234, -8.917996e-05, -0.002590714, -0.0009695166, -0.0016699049, -0.0015342251, -0.0039902423, -0.0008780082, -0.0016764326, -0.0028827195, 0.0010673774, -0.0018094612, -0.0012947206, -0.00039183744, 0.0010974631, 0.0014532679, 0.00078029756, -0.001101813, -6.1956e-05, 0.0016261633, -0.0007413988, -0.0009612359, -0.00024362124, 0.0030973216, -0.0004967921, -0.0009770921, 0.000891827, -0.00021722127, 0.0012969509, -0.0024680654, -0.0012441272, 0.0019060244, -0.00017705129, 0.002722543, -0.0012037735, -0.0011938544, 0.0006731041, 0.00015397405, 0.00020158692, -0.00058959395, 0.0020112775, 0.0007575421, -0.00056746847, -0.00067205186, 0.0026930561, 0.0020371636, -0.0025721164, -0.00017336349, 0.0033056214, 0.00024297638, 0.0024807965, -0.00246327, 0.0012622208, -0.0019383415, 0.0006378443, -0.0012125664, -0.0014034662, 0.001309454, 0.0005744827, 0.0032656728, 0.0013377626, 0.0022743754, 0.00083884475, -0.0019044062, 0.00030280766, -0.00090580847, -0.0007703628, -0.0024449523, 0.00021448638, -0.00020454341, -0.0003643758, -0.12753965, -2.1944194, -0.001117585, 0.0024477858, 9.8791206e-05, -0.0009795574, 0.0006093465, 0.00051889045, -0.00038587596, -7.864146e-07, 0.10625704, -0.0025652836, -0.0061407443, 0.0013183763, -0.00023060577, 0.0010233824, 0.0009093067, 0.0012423275, -0.00029381132, 0.00059775705, -0.0009027425, -0.0002734856, -0.0004926359, -0.00051608466, -0.0013988655, -6.480283e-05, 0.00091785745, -1.1386257e-05, 0.0012423026, -0.00053612946, 0.0005089189, 0.0012751815, 1.0335248, -0.0016528337, -0.0011464132, 0.0010327658, 0.11006995, 0.006497603, 2.8483279e-05, -0.0032910611, -0.00089527573, -0.0013910759, 0.0013339979, -0.001953273, -0.00022330956, -0.0023148076, -0.00014280106, -0.0008974161, -0.0021382007, -0.00012657186, -0.00022505829, -0.0018167301, 0.0020636069, -0.003112582, -0.001052069, -0.0011865937, -0.0015533376, -0.00017985469, 0.00012662578, 0.0002594249, 0.0016080572, 2.1939195e-05, 0.000359129, -0.0017609334, 0.00021528662, 0.0006764554, -0.00041550625, -0.00018507923, -0.0016947606, -8.26054e-07, 0.00019963182, -0.0008433692, -0.0014813168, 0.001298191, -0.0006550426, 0.00029205554, -0.00085587875, -0.00042036048, -0.0008099498, 0.00077682006, 0.0012876462, 7.217168e-06, 0.00388458, 0.00077144336, 0.00077211653, 0.0015657914, -0.00020512601, 0.0008251014, -0.0012860845, 7.081474e-05, 0.0015216926, 0.00012180611, -0.0007171651, 0.00021480396, -0.00045400375, 0.0024224152, -0.0015173967, 0.0008018374, -0.0024740016, 0.00071225525, 0.0013162238, -0.00072947197, 0.000119372446, 0.0006789334, 0.0012474374, 0.0026291844, 0.0033560097, -0.0006139789, 0.0009797523, -0.0013495963, 0.0014757367, -0.00052801555, -0.0011689425, 9.1162394e-05, 0.0027650779, 0.000846377, 0.0030606315, -0.0007319135, 0.0013833452, -0.0028225866, 0.002163247, 0.0013931596, -0.0013316115, 0.0014505424, -0.0016374756, 7.2261144e-05, 0.0012999716, 0.0010498216, 0.001195763, -0.00054433197, 0.0006832843, -0.0010289227, -0.0020673545, 0.0015185052, 0.00012686207, 0.0012974177, -1.6368052e-05, 0.0006726663, 0.0009528408, 0.0013039768, 0.00067044067, -0.00076104363, 0.00372147, -0.0019850906, -0.00037076778, 0.002569878, -0.0026800607, 0.00025016093, -0.0023379666, -0.0010987902, -0.0019448475, -8.237932e-05, -0.0010748638, 0.0009344398, -4.1605883e-05, 0.0012967293, -0.00012275559, 0.00064557215, 0.000106821884, -0.003063034, 0.00064261555, -0.0009899328, -0.002376664, 0.00074035174, -0.0006367362, 5.007151e-05, -7.950584e-06, 0.0008954575, 0.00024413623, 0.002556115, 0.0015482593, 0.00046020618, 0.0005103437, 0.0006693205, -0.00083086, -0.0011269102, -0.001015232, -0.0018976846};
float bias_2[] = {-0.16717297, 0.0051217102, -0.061801806, -0.08249471, -0.05245496, -0.08497886, -0.11341232, -0.04238816, -0.15236166, 0.26652, -0.00506145, -0.0067498167, 0.04052672, -0.029456753, -0.04040209, -0.07430909, -0.2095186, 0.37199607, -0.094637066, -0.025495047, 0.21582147, -0.0069762166, -0.05193769, 0.16969678, -0.08968626, -0.06805896, 0.24717356, -0.07968452, -0.009738419, -0.2471149, -0.110894784, -0.1324259, 0.060160726, -0.12247568, -0.009953404, -0.0072150277, -0.14930698, -0.07004412, -0.0072763097, -0.015292626, -0.07662579, 0.0070094364, 0.12884752, -0.046440225, -0.079654336, -0.203683, -0.046511278, -0.009080145, -0.083710715, -0.1225913, -0.055124488, -0.10005271, -0.059866372, -0.03736618, -0.12447969, -0.092531584, -0.09312795, 0.15487778, -0.0074467203, -0.08957911};
float weight_3[] = {-0.0012428889, 1.1613321, -0.001398062, 0.0024726815, 1.1250591, 0.0002599099, -0.0017044069, 0.0018201895, 0.0005243796, -0.2125199, -0.0005184532, 0.0008799052, -1.1490554, -0.002415101, 0.0033275457, 0.0010638986, -1.1029129, 0.9190382, 0.0011678924, -0.002554284, -0.8762615, -0.0011169771, -0.00091473496, 1.2608366, -0.0003020123, -0.0016247116, -0.00038171012, 0.00072513334, -0.00037863688, 0.00023206131, 0.0006720968, 0.0016240766, 0.86083734, -0.0012887146, -0.0006315418, 0.0006050186, -0.00022349047, -0.27371234, -0.001965721, 0.00019731629, -0.0003050958, 1.1383678, -0.05579083, -0.0007692715, -0.00025193603, 0.0005892541, -0.0035657636, 0.0008933701, -0.0005261819, 0.00064065575, -0.0020097191, 0.0011153484, 0.00087967067, 0.0018667731, 0.0005226827, 0.0005033227, -8.178095e-05, 0.5256275, -0.0009550422, -0.001136508, 0.0018213243, -0.15048593, -0.00070540345, 0.0010861335, -1.723766, -0.00089781417, -0.0031076972, -0.0023754772, 0.0005871506, -0.23232293, 0.00040756457, 0.0018973214, -0.7632057, -0.0024708803, 0.0036299105, -0.0014354442, -0.008826253, 0.2702784, -0.0015505701, -0.0018078239, -0.13264696, -0.00019705924, 0.0021351406, -1.3792629, -7.812964e-05, -0.0007864714, 0.9382561, 0.00057252526, 0.0015182551, -1.9469535e-05, -0.00066298014, -0.00023544667, 0.51514983, 0.0005958749, -0.0021361425, 0.00012352288, -0.0021181547, 0.16975398, -0.0013198705, 0.0014219059, 0.0017107752, 0.00027142873, -1.614857, 0.0032947534, 0.0007012469, 0.001333083, 0.0020044018, 0.0032968232, 0.0001293309, -0.0017737872, 0.0005706576, -0.0019407239, -0.0006452414, 0.00036632165, 0.00020821982, -0.0033997144, 0.0011612218, 0.3123573, 8.221611e-05, 0.0024181614, 0.0013329099, 0.49423522, 0.0019432587, -0.0019505691, -0.14261176, -0.0037463838, 0.00080551207, 0.0005792372, 0.0008815964, 1.0705084, 0.0029919336, -0.0011027651, 0.0001733953, 0.0011357636, 0.0007314892, -0.00046040502, 0.64456457, -0.010002674, -0.0005553564, -0.0012932932, -1.9590864, -0.0009859133, 0.0016129462, 0.16654545, -0.0008792754, 0.0013329219, 0.84572685, -0.002878705, -0.0046150675, -0.00042959792, 0.00088274846, -0.00090241956, 0.8524992, -0.00033644855, -0.00057892496, 0.001197081, -0.0015771834, -0.13742964, 0.004177992, 0.00025227398, -0.0027452384, -0.20739561, -2.0339005, -0.0009931943, 0.002054908, 0.00088736316, 0.00088297133, -0.0005082012, 0.00094095606, -0.0014946368, 0.0021538602, -0.0009001979, 0.004277366, -0.00022439152, 0.0006183578, -0.0007108969, -0.0014239091, -1.027444, -0.0012252876, -0.0024160491};
float bias_3[] = {0.16295063, 0.49375543, 0.50439525};
