float weight_1[] = {0.00088294357, 0.001953572, -0.0008641944, 0.0016534564, -0.0004018884, -1.3342498e-05, -0.9402953, 0.5001995, -0.51499593, 4.761468e-05, 0.0017745685, 0.0007208733, 0.07260893, 0.025432657, 0.29283026, 0.0008577374, 0.0031772472, -0.0021892728, 0.0024668856, 0.0042552724, -0.0004996718, 0.0001529706, 0.002246523, -3.0490919e-05, 0.5539379, -0.031976573, 0.34644303, 0.00024829851, 0.0004546782, 0.0010782132, 8.961465e-05, 0.0010357297, 0.00308741, 0.00024593348, 0.0005269875, -0.0023060306, 0.27575704, 0.16694136, -0.862973, 0.0008848212, 0.00083607435, -0.0037560132, -0.00018988935, -0.0006585969, -0.0006224824, -0.001246359, -0.0030197613, 0.0013645741, 0.0018090251, -0.002859889, -0.00024229378, 0.00036473142, 0.000658099, -0.00097537163, -0.0024106742, -3.939704e-05, 0.00023698201, -0.00014508585, -0.0013043304, -0.0013639794, 0.0017626042, -0.00017693255, 0.000903858, -1.0515089, -0.08624843, -0.15689138, -0.00027491583, -0.0009462463, -0.0005985359, -0.83599854, -0.33489215, 0.85565007, -0.0015952367, -0.0018125137, 0.00011694105, 0.0017499371, 0.0014017214, -0.00078225654, 0.00047342508, -8.9684734e-05, 0.0014374098, 0.24480271, -0.51099956, -0.16999607, -1.2692459, 0.5906145, 0.010854948, 0.002581527, -0.0005983651, 0.0010993929, 0.0016303624, 0.00031864646, 0.0017383902, 0.0013108492, -0.0006768889, 0.0006899458, 0.00051545404, 0.0013715108, -0.0040676165, -0.0009829812, -0.0007254705, -0.00096703187, -0.004298804, 0.44946885, -1.0709302, -0.00052147266, -0.0012231624, 0.002702395, 0.22398435, 0.84433717, 0.4205444, 0.31288815, -0.33614272, -0.5605247, -0.00068846624, -0.00077299395, -0.00050046225, 0.0023468607, 0.0016800312, 0.0027004976, -0.0005740557, 0.00018610852, 0.0008283977, 0.002324634, -0.1461363, 0.7808352, 0.0011469673, 0.0002145028, -5.455967e-05, -0.0031077391, 0.0008900314, -0.0019497747, -0.3867934, -0.29852724, -0.21896806, 0.00053411635, -0.0007014043, 0.00038811076, -6.284675e-05, 0.000754824, -0.0014902204, 0.0025006328, -1.8790597e-06, -3.4366385e-06, 0.0013308411, -5.16352e-05, -0.0009398236, -0.007311983, -0.5557623, 0.21270795, -0.00078131893, 0.00011759793, 0.0004829337, -0.0019304572, -0.00012024335, 0.00094406697, -0.0007013451, -0.0012697155, 0.0018661255, 0.0012998073, -0.0006327825, -0.00088179874, -0.0003850984, 0.00034425384, -0.0006334793, 0.00033576885, 0.0017440331, 0.003295396, -0.00067995995, 0.0007457334, -0.0008539012, -0.2573739, -1.1529102, 0.12766744, -0.4689938, -1.4865932, -0.74729854, -1.5524653e-05, 0.0007693365, -0.0012651384};
float bias_1[] = {-0.0048628245, -0.2571479, 0.22442302, -0.50589174, -0.2844167, -0.007231219, -0.6345435, -0.26226252, -0.104788624, -0.41714394, -0.37790886, -0.008490609, 0.02021196, -0.21595064, -0.0038924008, -0.54843724, -0.39502424, -0.03976079, -0.05893475, -0.0049402737, -0.012932194, 0.23193511, -0.5206235, -0.02424672, -0.2825935, -0.005020247, -0.4099579, 0.24360567, -0.047481287, -0.443084, -0.0044658748, -0.028416898, -0.014278728, -0.0033789184, 0.2383092, -0.5514824, -0.8114486, 0.022627393, -0.0047789034, -0.008091738, -0.5312537, -0.12687777, -0.4487371, -0.15366048, 0.30628756, -0.4907447, -0.004643945, -0.49091208, -0.48564136, 0.1565401, -0.004184373, -0.32095242, -0.006856714, -0.014459789, -0.0010850896, -0.33753353, -0.007505027, 0.17975987, 0.10904902, -0.046378132};
float weight_2[] = {-0.0014783123, -0.00027857293, 0.00066777115, 0.00044512274, 0.001044242, -0.0016349396, -0.00041879935, 0.002696925, -0.0005805824, 0.0015190665, -0.002772023, 0.003241811, -0.00038013112, 0.0008164819, -0.0021145786, 0.0017032344, 0.00061637425, 0.0016311752, -3.493388e-05, 0.0018595421, 0.0013239044, 8.486537e-05, -0.0009616428, -0.00055929297, -0.0008979513, -0.000569958, 0.00018706385, 0.0016638932, -0.0011932368, -0.0010728828, 0.00198291, 0.0018843797, 0.00047880504, 0.0014498357, 0.0010649663, 0.00063064956, 0.0003540013, -1.42426e-05, 0.000735532, -0.0006833944, -0.00093676685, -0.00023827067, 0.00086799194, -0.00080075045, -0.00070991105, 0.000968489, 0.0006473253, -0.0014299231, 0.0005663692, 0.00016956578, 0.00056318473, -0.0032968288, -0.000749837, -0.0017494473, 0.0016037129, 0.0001806636, 0.00086637604, -0.0009722172, -0.0015132551, 0.001838216, -0.0015664132, 0.0005328044, 0.0012362925, -0.0019322161, -0.0012801023, 0.0018071916, -0.00047660986, 0.0005143451, -2.1092535e-05, 0.0028177565, -0.00015372888, -0.00029987795, 4.331948e-05, 0.0039129565, -0.0006837092, 2.526588e-05, 0.0013817237, -0.0003101633, 0.0008703374, -0.00034870097, -0.0005946461, -0.0014635569, -0.0004210576, -0.0007215389, -0.0013619273, -0.00068287965, -0.0011353013, 0.0010497923, 0.0009364453, 0.0012256155, -0.0021830087, -0.000390723, -0.00085468515, 0.00065903197, -0.0017224906, 0.00071751844, -0.00025935596, 0.00088143325, -0.0016102799, 0.0011061253, 0.0026627984, 0.0009690302, 0.0039335154, 0.0005343752, 0.00086150964, 0.0011688829, 0.0005118726, 0.00035286567, -0.00090673426, 0.0016922528, -0.001149023, 0.00015119492, -0.00078689645, 0.00065254245, 0.00012436637, 0.0008409233, -0.0007279507, -0.00044002128, 0.0010745646, 0.00016406283, 0.00052501564, 0.0026144376, -0.0018116022, -0.0009056403, -0.0008811373, -0.0006864054, -0.00013095693, -0.0028161895, -0.0007454029, 0.0016950107, 0.00018701272, -0.00043937168, -0.001674484, 0.0004165814, -0.00012935192, -0.0012528487, 0.0013769931, -0.0012441091, 0.00061530137, -0.0011875115, -0.0015960906, -0.00024211698, 0.0011124229, 0.00028071442, 0.0005204567, 0.0005228111, -0.0009765228, -0.0019669519, 0.0015937844, -0.0018782499, -0.00064990926, -0.00087133725, -0.0005891227, -0.0006598937, -0.000316013, 0.00015081684, -0.0003296608, -0.0008725159, -0.00070022536, 0.0016439077, -0.00034031813, 0.0003502745, -0.0013049097, 0.001520484, -0.0017219402, 0.0001055286, -0.000718089, 0.0009903698, 0.00071441295, -0.0008788804, -0.00033226493, 0.00060455897, -0.0016208001, -0.00065192604, -0.0005031397, 0.0006945111, 0.001756361, -0.0025974254, -0.0007211005, 0.00026609274, 0.0006807481, -0.00031147618, -0.002157271, 0.0014400634, -9.425625e-05, -0.0011464814, 0.0003701156, 0.002813662, 0.0012719189, -0.0027257442, 0.0014758082, 0.00034263913, 0.0017087345, -0.000582461, 0.002117386, 0.002356405, -0.0010786402, 0.0024681827, 0.0013645543, 0.0010379408, -0.0009022345, -0.0019406533, 0.0006266864, 0.00069178303, -0.00075530977, -0.00058934645, -0.00019529334, 8.3012856e-05, -0.0024678619, -0.00078245223, -0.0011727269, 0.00023599237, 0.00055443606, 0.00011907943, -0.001035707, -0.00042619673, -0.0011765, -0.0010907382, 0.00056888105, 0.0013179214, 3.3509452e-05, -0.0025574923, 0.0015720769, -0.0010725476, -0.0005165165, 9.162701e-06, -0.0031122426, 0.0026316696, 0.00089264853, 0.0002995578, 0.0026661945, 0.0020084423, -0.00056326936, 0.0024697836, 0.0009772772, 0.0017318155, -0.00055491924, -0.0008731281, 0.00046591955, 0.00079132564, 0.00071176555, -0.0006917962, 0.0011754083, -0.00042077462, 0.0008201809, 0.0006496332, 0.0005407657, -0.0026784425, 0.0017940296, -0.0015214051, 0.0007084532, 0.00085197267, 0.0022997637, 0.0024973955, 0.0017725732, -0.0003318585, -0.0036262507, 0.0013435982, 0.00046413584, -0.0019253585, -0.000903424, -0.0009667503, 0.0010081205, -4.3441425e-05, 0.0012088963, 5.1458483e-06, 0.00292156, -0.00076846586, -0.002788428, -0.00025645795, 0.0019200746, 0.00020724308, -0.0010298445, -0.0007479781, -0.00045904837, -0.0028652635, 0.0021171817, -0.0026566787, 0.00044610165, 0.001482107, 0.0018677026, -0.0011069243, -0.00044004468, -0.0006159886, -0.0021080007, -3.375848e-05, -0.0012632743, 0.0035879458, -0.0013742695, -0.0017045052, 3.7616308e-05, 0.00062089745, 0.0015563427, -0.00060164137, -0.0006353152, 0.0015544863, -0.00077034225, -0.0001419149, 0.0009140737, -0.0014990699, -0.000773442, 0.0036899159, 0.0017036467, -0.0021120775, 0.0017865626, -0.0011508521, -0.0015279598, 0.00055730087, -0.00025015383, -0.00093488535, -0.0011980182, -0.00023758085, -0.0019211381, 0.00045834854, -0.0008242703, -0.0012978442, 0.0010660812, 0.00048420625, 0.0017414623, 0.00030834632, 0.0004555299, -4.9332462e-05, 0.0024330805, -2.8517097e-05, 0.0010503286, 0.003384578, 0.00023589318, -0.00035016905, -0.0010328055, 0.0013323429, 0.0005519891, 0.002407833, 0.0024145872, -0.001420709, -0.0008267122, 0.0005187248, 0.0012300877, -0.0015391465, 0.00039399415, -1.3522076e-05, -0.0034540049, -0.0014558098, -0.0017706798, -0.0013225224, 7.7720964e-05, 0.0014936028, -0.00010545825, -0.0002407092, -7.3536765e-05, -0.0017978398, -0.0021917373, 0.0006838501, 0.00048342874, -0.000515886, 0.00092250627, -0.00071926037, -0.0025579212, 0.0007497949, -0.00038551656, -0.000435169, 0.00048517427, 2.5354413e-05, -0.6148614, 0.0012860266, -0.0014815105, -0.00068136747, 0.000416195, 0.0003329256, -0.00011569541, -5.126957e-05, 4.270114e-07, 0.00016947836, -0.00060568156, -0.0019843057, 0.002034611, 0.0010058027, -7.974147e-05, 0.00058751134, 0.00082219375, 0.0009112911, -0.00086327194, -0.00092622964, -0.0030590752, 0.008312496, -0.0013436354, 0.0006684935, -0.00052811066, 0.37064415, 0.0015429648, -0.000994804, 0.0003538504, 0.0006212679, -0.00082314014, -0.0007037939, -0.040683407, -0.00048818253, -0.000530063, 0.112455994, -0.00031654257, 0.000732944, -0.0020751779, -0.28311172, -0.00019976543, -0.0012458519, -0.0011811797, 0.00013463263, -0.0007225392, -1.4575693e-05, -0.00093617826, 0.07546077, 0.00091583526, 0.0027592634, 0.0009444286, 0.0012977232, -0.00043915358, -0.0001810086, -0.0033037993, 0.10097435, 1.0319518, 0.0004612591, 0.00017646357, -0.0020025135, -0.00012964808, 0.0010715513, -0.00022780406, -0.0003248118, 0.0023522368, 0.0007424427, 0.002463113, -0.003197691, -0.0017451586, -3.601308e-06, 0.00038154318, -0.0030604908, 0.0012878955, 0.0006138132, -0.00026667738, 0.000117657066, 0.001366607, 0.00045976264, 0.0028492354, -0.0008588158, -0.0013267283, -0.0016908476, -0.0014932052, 0.0031099082, 0.0023050364, -0.00065024564, 0.0031022262, 0.0012490635, 0.002472275, -0.0013227039, -0.0020121604, 0.0042658197, -0.0014526523, -0.0007317217, 0.00026000966, -0.0010776799, -0.004744192, 0.0013021949, 0.0011478696, 0.001382069, 0.0011148844, 0.000583709, -0.0020204748, -0.0014097197, -0.0006512086, -0.0035835216, 0.0009859233, -0.0013934588, 0.0008729137, 0.0016577065, -0.0017689175, 0.00010013848, -0.0003489282, 0.0037805922, 0.0002958444, 9.275263e-05, -0.0031017833, -0.000836356, -0.0018154104, -0.0012367312, 0.00066570437, -0.0005321553, 0.0017067471, -0.00070697727, -0.00033324212, -0.000654187, -0.00030144514, -0.0009460045, -0.00037882454, 0.0004877816, 0.0019857024, -2.3259781e-07, -0.002012314, 0.0005805865, -0.0018405766, -0.0008009824, 0.0012582582, 0.0011410083, -0.0016409409, 0.0013058017, -0.00055080326, -0.0007326606, -0.00027328252, -0.0009722138, -0.0035150046, 0.0006570464, -0.0009735984, -0.00063332706, -0.0009726745, 0.0007348597, 4.3062944e-05, -0.0012983879, 0.001086107, 0.001677078, 0.00013397139, -0.0011012113, 0.0021609801, 0.0007655467, -0.0038164612, 0.00039845752, -0.0007944318, -0.0005768404, 0.00033042455, -0.0042361147, -0.00023956294, -0.0007960643, 0.0003832361, -0.0005579508, 0.0003719136, 0.001532526, -0.00014471402, 0.0003518018, 0.001311698, 0.006292602, 0.0006671123, 0.00094771024, -0.0024411262, 0.0011770857, -0.0009736813, -0.0007518444, -0.0006860535, -6.887912e-05, -0.002674961, 0.00049994246, -0.0016398797, -0.0005250557, -0.00046721054, -0.00031743624, 0.0014561865, 0.001230849, 0.00032813812, -0.0002256268, 0.0021652177, 0.0009247118, -0.0005057065, 0.0019461751, -0.0008564839, -0.00029794895, -0.0004266589, 0.0013222733, -7.3880394e-05, 0.00044131177, -0.0017274058, -0.0013494894, -0.0018409571, 0.00025388517, 0.0019578822, -0.0005704864, 0.0016239781, 0.0021605312, 0.000103669125, -0.0005202757, 0.00090251555, 0.0017491662, 0.0017933041, -0.0015741596, 0.00067370257, 0.0013570724, -0.00123162, -0.0009104155, 0.00086361397, 0.00036638475, -0.00072436215, 0.00042669347, 0.0011000852, -0.0017591347, 0.0017805257, 0.0005100348, 0.00053365063, 0.0010142785, 0.0008304813, 0.0012984842, -0.00022145949, -0.00045467308, -0.0019401925, -0.0004738075, 0.00011546508, -0.0007736595, 0.0005312408, -0.0003521089, -0.0022502022, -0.001145999, 0.0007112733, -0.00032423786, -8.258794e-05, 0.00019515405, -0.0005148688, 0.0010280428, -5.2538355e-05, 0.00033690635, 0.0012486675, 0.0023018362, 0.00065234787, -0.00049718923, -0.0011332107, -0.0012594301, -0.0024353939, 0.001263917, 0.0013081705, -0.00068868155, -0.0046715136, 0.0010855973, -0.0022199373, -0.00067147607, -0.0027743333, 0.00054642605, -0.0033597457, -0.00089234754, 0.0025541014, -0.00054791756, -0.0006805064, 0.0013058746, 0.00017088969, -0.00041220977, -0.0006933593, 0.00061153277, -0.0008943802, 0.0006736151, 0.0026147706, 0.0011423687, -0.00015997916, -0.00016868819, 0.00079875794, 0.0015984883, -0.00056012406, -0.0003062248, 0.0011254167, -0.0019193261, 0.0019538882, -0.0015245443, 0.00067511946, 0.00029583392, 0.00044671283, -0.003309286, 0.00047149026, 0.0020239817, 0.00047348277, -0.00032875425, -0.00052417745, 0.0006328732, -0.2253903, 0.000726001, 0.29291016, 0.002377527, -0.0013052402, 0.0023901525, -0.14639872, 0.0015538244, -0.00092164247, -0.0044503477, -0.34574002, -0.00012603367, 6.0448074e-06, -1.1480181e-05, 0.003194994, -0.000839042, -0.004648953, 0.00065267924, -0.0007190193, -0.019609429, 0.00066505757, -0.0644523, -0.0007150765, -0.0016843269, -0.0017298746, -0.0017635132, 0.012552276, -0.0006999, -0.0012399317, 0.0008885336, 0.00045805163, -0.001806021, 0.00037974995, 0.0015636648, 1.1716839, -0.56927645, -0.00071023137, -0.0009631766, 0.001661208, 0.00063487457, -0.0011887107, -0.0014485051, 4.9573602e-05, -0.00033670658, 0.0006082024, -0.004126516, 0.0013411092, -0.00055038504, 0.0012449755, -0.0011210153, -0.00034461505, -0.00025325347, 0.00021183613, -0.002489629, -0.0031158114, -0.0021942316, -0.029426493, -0.0021150352, 0.0006411173, -0.001229759, -0.056891154, -0.0048507606, 0.0035130836, -0.00028154615, 0.00016294373, 0.0015680401, 0.03682393, -0.00090210064, 7.94871e-05, -0.00071684644, 0.0016910014, 0.0016982246, 0.00039710314, -3.8784932e-05, -0.0017920298, -0.0017819487, -0.0028012488, -0.0019160679, -0.00048264512, -0.45461407, -0.0017508084, -0.022456624, 0.0011477997, 0.00022827712, 0.0024106565, -0.0016782803, 0.0012656555, -0.0024566231, 0.0010673455, -0.0019279759, -0.00093383336, 0.0004409458, 0.58576256, 0.0025721127, 0.00021871531, -0.0007629221, -0.0027646802, 0.00074330455, 0.0017501775, 0.0013080427, -0.0012364843, 0.0013371811, -0.0048833615, 0.0014276176, -0.0011516135, -0.0026255543, -0.00054215535, -0.0011764022, -0.0006814172, 0.0006649288, -0.0009530453, -0.0006620839, -0.00037556503, 0.0026023672, -0.0006976404, -0.09413734, -0.3667313, 0.00106797, 0.00249061, 0.00056052825, -0.0012179123, -0.0014170287, -0.0006834039, 7.772699e-05, -0.0010823837, 0.0004820191, -0.0014513866, 0.0025304614, 0.00058325415, 0.00022310228, 0.0006617439, -0.0008181425, -0.0005327277, 0.002468897, 0.0016668112, -0.00079542625, 0.0013529841, 0.00022335746, 0.0005299437, 0.0012653146, 0.00042102998, -0.0019873453, -0.00094495446, 0.0012862426, 0.0028729525, 0.00088707375, 3.1458185e-05, 0.00013117855, -0.0013019111, -0.0017117038, -0.0005766597, 0.00022024923, -0.0025505307, -0.0009171688, -0.0011645134, -0.0002832585, -0.0017658266, 0.0010689707, -0.00088741176, -0.0024649436, -0.0005533416, -0.0012627302, -0.0018082598, -0.0012488969, -0.0012160895, -0.0015618782, 0.0014359418, -0.00064112444, -0.00070545886, 0.0006544925, 0.0010941273, 0.0001183924, -0.002491473, -0.00011746387, -0.00038839062, 6.356413e-05, 0.00070114445, 0.00034188002, 0.002470877, -0.000808707, -0.0020152947, -0.0006390387, -0.0013363743, 0.0019384493, -0.0025136946, 0.00043652795, -0.00019188377, 0.0018825484, -0.0007756184, 0.0012048095, -0.00096492993, 0.0015775878, -0.0005219478, -0.0017711086, -0.0005883513, 0.0006574848, 0.0017050144, 0.0004951197, -0.0014317647, -0.00083167973, 3.129168e-05, -2.6415815e-05, 0.0015013346, 0.0028627682, -0.00069602596, 0.00090824603, 4.704055e-05, -0.0026026627, 0.0006539179, -0.0008597921, -0.0011665158, -0.00011856493, 0.0009149084, 4.0052648e-05, 0.0005958199, 0.00038203422, -0.0023856005, 0.0013083523, -0.0001472513, -9.3632494e-05, -0.0011175274, 0.00023618515, -0.0008420374, 0.0006612361, -0.00015674037, -0.00020972313, -0.0001554233, 0.00040343788, 0.0010252451, -0.00055756187, -0.000491292, 0.00025202165, 0.0004873631, 0.0021621883, 0.0005547183, -0.0012673102, -0.0008144683, -0.00046683627, -8.4152416e-05, -0.0012936734, 5.571988e-05, -0.0018317373, -0.00077566126, 0.00090242754, -0.0013127974, 0.0011208123, 0.00081373844, -0.0021274295, 0.0005568777, -0.00026973616, -0.0010312265, -0.0014756781, 0.0014115726, -0.0010923502, 0.00046704046, -0.0012665337, 0.00022916443, 0.0026814742, -0.0006991853, 0.00016425893, 9.8219025e-05, -2.8320588e-05, -0.00042124387, -4.475689e-05, 0.002143897, 0.00013498135, 0.00039206736, -4.1822874e-05, 0.00217312, -0.0009281796, -0.0015601951, -0.00027153373, 0.0003753513, -0.0028800694, 0.0004311233, -0.0012046413, -0.0016924529, -0.0004930296, 0.00044558966, 0.0010013523, -0.0024240862, -0.0013896329, -0.0011257818, -0.0013551591, 0.00077509554, 0.0021421784, 0.00042768556, -0.0015603157, -0.0008753165, 0.00086093805, 0.0007874558, 0.0006526131, 0.0015831422, -0.0036309655, 0.0002291553, 0.0009800994, 8.67342e-05, -0.0007205474, -0.0006928287, -0.0012506833, -0.0015036871, -0.00039583934, 0.0016522867, -7.4264244e-06, -0.0027423708, -0.00041434, 0.0026895395, -0.0037087956, -0.0020226573, 0.00056647614, 0.002727326, 0.0013975197, -0.0009192458, 0.0015298186, -6.240967e-05, -0.0026775964, -0.00063239934, -0.0005597463, 3.969163e-05, -0.00090662524, -0.00090666494, -0.0011189196, -0.0013253947, -8.647063e-05, -0.0024105976, 0.0013932571, -0.0006964655, 0.00058716594, 0.001288758, -0.0012068745, -0.00045723084, -0.0003076431, -4.5480352e-05, 3.711696e-05, -0.0015432015, 0.0011512069, 0.0016245309, 0.0012259062, 0.00035346544, -0.00028574181, -0.0013860592, 0.00079768104, -0.0010416927, -0.0037717754, 0.00070736685, -0.0007954317, -0.00094439625, -1.7462298e-10, 0.00038117415, 0.00070604164, 0.00020744011, -0.00024622568, 0.000112455455, 0.0023207022, -0.00025425552, 0.00011534145, -0.00057197735, 0.0013452661, -0.0019506614, 0.0019039789, -0.0006843099, 0.0037498418, -0.0014409097, 0.004266653, 0.00034733687, 0.00014020537, 0.00017649314, -7.940899e-05, 0.0010530726, 0.00095902494, 0.0016877069, -0.0010445653, 0.00047769715, -0.0029598144, 0.0015001597, 0.0014532154, -0.00085961627, 0.0024762016, -0.00029242423, 5.69768e-05, -0.0010776931, -0.0026977898, 0.0017259277, -0.0008775758, 0.0011162531, 2.9473507e-05, -0.0015856246, -0.00073633314, 0.00076430326, 0.0001554992, -0.0013058814, -0.0011930498, 0.0011012843, -0.0026687921, 0.00033760926, -0.00036601935, -0.0019102817, 0.000274759, -0.00084311166, 0.0014023844, 0.0016709837, 0.00056352123, 0.0013401125, 0.0025048198, -0.0010785144, 0.00049707294, 0.0010883322, -0.00031953788, 0.00087463704, -0.0007443965, 0.0031845188, 0.00041909324, -0.000767016, 0.000669525, 0.0033169053, -0.0012083363, -0.0003978454, -0.0013910078, -0.0024381413, -0.0002444453, 0.0024697902, 0.003374925, -0.0023847534, 5.409593e-05, -0.0012741489, 0.0011678505, 0.002474262, -0.0010787371, -0.00074611546, -0.0005270622, -0.0008879045, -0.0005357842, -0.0006011081, 0.0025011464, 0.003987984, 0.00075959286, -0.0008916036, -0.00018747832, 0.0012434141, 8.325942e-05, -0.0002722799, -0.0012902773, 0.0017464809, 0.000243549, -0.00066458376, 0.001358281, -0.00049823977, 0.0028932027, -0.0013624453, 0.001931484, 0.0017135027, 0.0012855507, 0.001302039, -0.0023748255, -0.0021733397, -0.0012680715, 0.001230092, -0.00082395173, -0.0012247417, -0.000856291, 0.00060810684, 0.0009672959, 0.0005589397, -0.00043044228, 0.00087715377, -0.0006645252, -3.3472228e-05, -0.0006702721, 0.002465942, -0.0012093782, 0.00053242594, 0.0041720513, -0.0012835641, 0.00066785136, 0.0005158399, -0.001952724, 0.0025587478, 0.00074146094, 0.0008966778, -0.0017419956, 0.0006615995, -0.00011823565, -0.0030950424, 0.0017628584, 0.00060319883, 5.389558e-05, 0.0015769852, -0.0007770726, -0.0023045666, 0.0015191612, -0.00011799217, -0.0015324843, 0.001371583, 0.002300384, 9.013445e-05, -0.0005933975, -0.00060732197, 0.0002520158, 0.00064958085, 7.669262e-05, -0.0006212271, -0.0013981415, 0.00048182462, 0.002415318, -0.0013224324, 0.0012758952, -0.00064358127, -0.00036756706, -4.138262e-05, -0.001030085, -0.0003098509, -0.0018002783, -2.6267022e-05, -0.0010954429, -0.0004901474, 0.0010771279, 0.00056453736, 0.0015127256, -0.0009023013, 8.790672e-05, -0.0011429692, 0.0006606215, -0.00070333405, 0.00026399049, 0.0006759531, -0.002364518, -0.003209324, 0.0014021583, 0.00041941128, 0.0021803614, 0.0024788366, -0.0006126388, -0.0033027367, 7.752399e-05, 0.0007411143, -0.00096287404, 0.0014365842, 0.0018335457, 0.0007212389, 0.00011686486, -0.00011136511, -0.0011130084, -0.0009240086, -0.0013287053, 0.0011497652, 0.0020013764, 0.00091562804, 0.0006439854, 0.0014306274, -0.000689486, -0.00022598339, -0.001094288, -0.0008958571, -0.0028726724, 0.0005994992, 0.00019681989, 0.0015698293, 0.00064859784, -0.001268227, -0.0011940771, -0.0012163756, 0.0022191, -0.0015643755, -0.0006716267, -0.000614743, -0.0012776097, -0.0009176414, 0.001183671, 0.0004352042, -0.0005202018, -0.0024016453, 7.736983e-05, 0.0007427671, 0.00019067927, 0.0017941251, -0.0012865115, -0.0014511906, 0.00073510926, -0.00033783435, 0.0014341826, -0.0038685752, 0.0005844137, 0.0016242098, -0.0002791189, 0.00064584665, -3.3517717e-05, -0.0010139266, -0.0028623177, 0.0008209834, 0.0003544845, 5.4939243e-05, -0.0014508038, 0.0024767667, 0.0012299347, 0.00056141, 0.00026992607, 0.0021564623, -0.00054503704, 0.003115972, -0.00020538535, -0.00091632275, 0.0026379223, 9.099784e-05, -0.0009480575, 0.001100002, 0.0009608719, 0.0012645692, -0.0007898575, -0.00012829772, -0.0002042838, -0.0025704827, 0.0016677368, 0.001112442, 0.00024332473, -0.0009563178, -0.0018942498, -0.0028591163, 0.0014259138, -0.00085536507, 0.0024141462, 0.00011302112, -0.0024313447, 0.0027235395, -0.0005421415, 9.7568205e-05, -0.0003975567, 0.0013573401, 0.00024782866, -0.0010373176, -0.0021702554, 0.0002319694, 0.00083625084, -0.00014774532, -0.0022639493, 0.0015575776, -0.0017664295, 0.0015470441, 0.0005484058, -0.0012323379, -0.0014148781, -0.0005726339, -0.0009287788, 0.0007692899, -0.0011871386, -0.0013942665, 0.00072494027, -0.0028537242, 0.0013991846, 0.0014794762, -0.0032603506, -0.00011397863, -0.00088704866, -0.0019413803, -0.0012758365, 0.0039980123, -0.00033615748, 0.0026869758, 0.0027646278, -0.001973315, 0.0028648898, -0.0016678249, 0.00025297288, -0.00071421836, 0.00200211, 0.003063609, 0.0012746382, 0.0011328647, 0.0028660826, 0.004846156, -0.0010678975, -0.0018391834, 0.0037440727, 0.0005474825, 0.002479651, 0.00090476405, -0.0008270903, 0.0019255368, 0.000861958, 0.0012640506, 0.0018666196, 0.0013324023, 0.0013896923, 0.00078727613, 0.0018385642, -0.0020237342, 0.0003477474, 0.00067754276, 0.0010987206, 0.00018677645, -0.00093293795, 0.0014703163, 0.0004491554, -0.00092466315, 0.00075872394, -0.0006746917, -0.001677751, -0.002235782, -0.001430854, 0.0010531627, -0.001064647, 0.0005872635, -0.0005320379, -0.00070407556, -0.002552758, -0.00022393704, -8.084648e-05, 0.0019949693, 8.9409e-06, -0.00086307287, -0.00057996734, -0.000308185, 0.00032035564, -0.0012504102, -0.00024250895, 2.762099e-05, -0.0029285105, -0.0011516045, 0.00082691776, 0.0019967302, -0.000354963, 0.0005647624, -0.004745647, 0.0012115232, 0.0008896272, 0.00053217553, 0.0029052831, 0.0006575104, 0.00073339714, 0.00081240793, 0.001911655, -0.00068576465, 0.0033451966, -0.00059379864, -0.0020368327, 0.00055710634, -0.00046172424, -0.0018100636, -0.0012979237, 0.00022223365, 0.0018089671, -0.0004986362, -0.0005633655, 0.00021555135, 0.000798323, -0.0023754644, 0.0012989577, -0.0010240893, 0.002161321, 0.0011005539, 0.00072692696, 0.0006621887, 0.00087781757, -0.0005669612, -0.00080116384, -0.00021323969, 0.0013244832, 0.0032977741, -0.0012448677, 0.0012715803, -0.000995269, -0.0017121157, -0.0002739368, -0.00028159088, 0.0010070537, 0.00077798974, -0.0027905172, -0.003628374, -0.000746913, -0.0001449018, -0.00042560243, -0.00075784733, 0.00094739505, 0.0009298349, -0.0017694512, 0.004172284, -0.0005304757, -0.0017859293, 0.001441241, -0.0008667832, -0.0011034583, 0.0024381983, 0.0011716265, 0.0002460693, 0.0020269018, -0.0013270444, 0.0009865817, 0.20393376, 0.0060290676, -0.0015029262, 0.0007739478, -0.013372732, 0.0012544795, -0.0028521756, 0.0006111624, 0.0023802582, -0.0012776442, -2.053658e-05, -0.00027269256, -0.00019850966, 0.15619095, -0.00021506229, -0.03882519, -0.001134275, 0.00015082891, -0.0010762262, 0.14599329, 0.0023868564, -0.0004262316, 0.001695893, 0.00199476, 0.0014935279, -0.001473014, 0.00072836335, 8.11381e-05, 0.21660236, 0.0004263454, 0.00052637095, 0.0008707818, -0.0010332275, 0.001088745, 0.00017510855, -0.0016378346, 0.006495499, -5.5799203e-05, 0.0028113062, 0.00052637805, 0.0032478292, 0.25727183, 0.00059704477, -0.00014304538, -0.00078846543, 0.0006459022, -0.00010315585, -0.00080067455, 0.0024736715, 0.0010704172, 0.00039425772, 0.0008149138, -0.0020728728, 0.0023942047, -0.0014495034, -0.0011026702, -0.0031874848, -0.0011861293, -0.0013839711, -0.0015980601, -0.0017553396, -0.0013747262, 0.0029278514, -0.0009035547, 0.00056700443, -0.0018450961, -0.0009349074, 0.0018438655, -0.00024510175, 0.0014692498, -0.0017119473, 0.0023027947, -0.0013258646, 0.0001941428, -0.0009409341, -0.00051686657, -0.0015612138, -0.00094316754, -0.0005133814, -0.00036822492, -0.0015530783, 0.0012713005, 0.00087297335, 0.0020766202, 0.0008055678, -0.0017922737, 0.00014717848, 0.0011394836, 7.9408055e-05, 0.00092389743, -0.00015257217, -2.2916822e-05, 0.0023768647, -5.9648868e-05, -0.0043542814, -0.0013033052, -0.0013505856, 0.0012602686, 0.0012794374, 0.0006194498, 0.00031525112, 0.0013405315, 0.0027493066, 0.002493395, -0.0006431021, -0.0005127824, 0.0004775381, -0.0033578489, 0.0006894194, 0.00014100847, -0.00036288038, -0.0014393548, -0.0005728131, -7.193426e-05, 0.00071946275, -0.0014160696, -0.002331375, -0.0010648662, -0.0018788867, -0.000673776, -0.00056231837, -0.00011269044, 0.0037768628, 0.0013037256, -0.00025763785, 0.00045305857, -0.0014090966, 0.0004416213, -0.0024482256, 0.00020704872, -4.733866e-05, -0.0009635022, 0.00050380843, -0.0005014419, -0.0015417284, -0.002754617, 0.0020294818, -0.0014911785, 0.0011853413, 0.00079854985, -0.00014307543, -0.0025567077, 0.00023009395, 0.00063751184, 0.002519874, -0.0013506757, -0.004009681, 0.0005241791, -0.0026007597, 0.0015515508, 0.0005320817, 0.000633906, -6.621321e-05, -0.001103816, 0.0006301671, -0.00026299665, 0.00084963674, -0.0007127449, 0.00032419502, 0.0023650776, 0.0028425422, -0.0002378528, 0.0007181412, -0.0013325219, 0.0014153834, -0.0014599254, -0.00014199273, 0.001505682, -0.0010288891, -0.0005369704, -0.0013192678, 0.0010705816, 0.0008209643, 0.002468619, 0.0012599609, 0.0021878232, -0.00090980105, 0.0006237817, -0.00016018457, -0.00020748966, 0.0020114353, 0.00022404769, 0.0022406962, 0.0011489897, -0.00031116162, 0.0008835608, -0.00100634, -0.0018111432, -0.00058195536, 0.001028519, 0.00054980995, 0.000220293, -0.002259617, -0.0011333077, -0.001424704, 0.00061954616, 0.00041687404, 0.00067258225, 0.0018335216, 0.0021625976, -0.0019653281, 0.002340713, -0.0004550176, -0.0007501246, 0.0006732898, -0.0006535372, 0.0027476787, 0.0021502282, -0.0012559703, 0.0021813402, 0.00015137234, 0.0006539748, -0.0004546123, 0.00017334265, -0.0006615743, 0.001130822, -0.0005912181, 0.0008886468, 0.00096456124, 0.0008325251, -0.003591764, 0.0006592571, 0.00065665983, -0.00024729714, 0.003123586, 0.0008935432, 0.0021584996, 0.00052578736, -0.0008970469, 0.00059348874, -0.0062568905, 0.000275453, -0.0005974031, -0.0011345239, -0.0004598291, -0.0006182543, 9.4842166e-05, -0.0006592825, -0.0008093907, 0.0015996112, 0.0005791823, 0.0006276959, 0.00071569294, 0.0029473105, 0.0008690085, -0.00082797866, 0.00014332263, -0.0003084913, 0.0013304367, 0.00021020023, -0.0018288251, -0.00047936244, -0.0016784116, -0.0013471461, 0.0001087276, 0.0006847767, -0.0013079833, -0.0007360261, 0.0023728108, -0.0011896223, -0.002683022, -0.0014874553, -0.00019596476, -0.0016797462, -0.00085557805, -0.002099659, -0.0020214785, 0.00027214212, 0.0005034635, -0.0014243543, 0.00059912296, -0.0029616165, 0.0020190412, -0.00088180753, -0.0024103373, 0.0007571556, -0.004469101, 0.0019778768, -0.0006397405, 0.00081977685, -0.0010123063, 0.0005559785, 0.0012365691, -0.00029512309, 0.000628895, -0.000869248, 9.9428056e-05, 0.0011691437, -0.0027558994, -0.0022461961, -0.00085704686, 0.0038578575, -0.00042804738, 0.00082906627, -0.3862188, -0.0013542325, -0.00017269839, -0.00041710443, -0.00046460005, -0.00033283277, 0.00017517609, 0.0014367667, -0.0011499915, 0.0016782612, -0.000586742, -0.002233767, 0.00067595823, 0.00017290772, 0.0012001125, 0.00034368073, -0.003865297, 0.0007585037, 0.00010310346, -0.0014335249, 0.0009135288, -0.08440561, -0.0005715478, -0.0023146733, 0.00081953406, 0.099340566, -1.3042932, 0.0018690825, -0.00083983457, 0.00022014073, -0.0023003062, 0.0025888602, -0.00035975722, -0.00046808828, -0.10642121, -0.0010767516, -0.0011684813, 0.0011595439, -0.0009592208, 0.040305257, 0.0021669967, 0.002394573, -0.00012758472, -0.0024998616, -0.0012020166, -0.0013398268, 0.00038138125, 0.00083367195, -0.0012627582, 0.0013095062, -0.001314074, 6.428553e-05, 0.00046645006, 0.0015230088, -0.0004641558, -0.864109, -0.027848493, -0.0006562152, 0.0019090034, 0.0014160894, -0.000721282, -0.0015028974, -0.0012639894, 0.000985802, 8.12115e-05, 0.00053444144, 0.0026939982, -0.0006902977, -0.002581845, 0.0015972862, 0.0004442971, -0.0019874054, 0.0015323476, 0.00054973504, -0.0012987125, -0.00046342134, 0.00095768855, -0.00051712873, 0.0031155893, -0.0024631452, 0.0037876377, 0.0019375464, 0.002908755, 0.001070889, -0.00088494935, -0.0006603633, -0.0013418659, 0.000822549, 0.0015174114, 0.00062435324, 0.0031162817, -0.00015616562, -0.00047210313, 0.0020188405, 0.001936992, -0.0011926633, 0.00055160094, 0.0016230089, 0.004426701, -0.001344417, -0.0017085697, -0.0021184254, -0.0011649958, -0.0010864944, -0.001071681, 0.00036828822, -0.0010272482, 0.0003116359, -0.0013104923, 0.00016541337, -0.0005908656, -0.00065353, 0.0013750311, 0.00050595624, 0.0016072897, -0.0012261916, -0.0024690027, -3.8740545e-05, 0.00088775315, -0.00035668517, 0.0010992335, 0.00035031146, -0.00015333615, -0.00039488074, 1.1448283e-05, -0.001740952, -0.7839998, -0.0009183436, -9.078794e-06, -0.0022234805, -0.7769567, 0.00018327154, 0.0013051505, 0.002752569, 0.00043980964, 0.000548593, -0.0011583278, -0.0010273642, -0.0007230506, 0.00073668687, 0.0008123817, 0.00048482657, 0.00077895157, 0.0014585353, 0.0012524192, -0.07999561, -0.009648338, 0.00042054072, -0.0027658676, 0.0008705784, 0.0007868561, -0.00068229565, -0.12905386, 0.0035153786, 0.016978135, 0.002481509, -0.0021062999, 0.0020884955, 0.00060669857, -0.04111186, 0.004342584, -0.0008622021, 0.000333715, -0.00028905913, 0.0013499041, 0.00070503, 0.002235378, 0.00022214337, -0.0005251561, 0.00064401573, 0.0008881708, 0.0006592683, 0.000109768735, 0.00030447927, 0.000878656, 0.068188, 0.0023510922, -0.001378546, 0.0016244499, -0.00038351002, -0.000663629, -0.00093346473, -0.0020064653, -0.00215532, 0.0014688927, -0.004313901, -0.00036980992, -0.0004892831, -0.0005241897, -0.0006845926, -0.00047228407, -0.0021597277, 0.00074992154, 0.0011129209, -0.00016257726, 0.0021057432, -0.0013422669, 0.0006735537, -0.00091410585, -0.0006713776, 0.0018411129, 4.270392e-05, -9.173574e-05, -0.0031133792, -0.0031755543, 0.0013088955, 0.0019815492, -0.002744397, -0.0013042911, -0.0018903237, -0.0010478168, 0.0006205489, 0.0010631799, 0.00013048977, -0.0013135879, -0.00025494286, -0.0019746206, 0.00092061947, -0.0013466831, -0.0019403042, -0.00016591442, -0.0018666529, 0.00029316125, -1.1570271e-05, 0.0011453138, 0.0007449342, 0.0005190515, -0.0012723878, -0.00044641213, 0.0004923993, 0.0017689292, -0.0001739272, -0.00048773806, 0.003602895, -0.0004987238, -0.00012099417, 0.0007362586, 7.895043e-05, 0.0015347184, -0.00030265935, -0.0014515815, -0.0008607507, -0.0006556964, -0.0004182381, -0.0014397356, -0.00021632423, 3.1236406e-05, 8.515571e-05, 0.00026645785, -0.00138428, -0.00018380414, 0.0006056569, -0.0011815303, -0.00080112444, 0.00088074536, 0.0030481024, 0.0012551917, 0.001232443, 0.0016312184, -0.0009494489, -2.0797765e-05, 0.0006002009, -0.0006500131, -0.00069918344, 0.00010458869, 0.0001700453, 5.8165053e-05, -0.0023883912, -0.00047001633, -0.00057952135, -0.00065739104, -0.0004891261, 0.00083632104, -0.000869436, -0.0010807374, -0.0015710834, 0.0012435529, -0.00040750916, 0.0014251813, 0.0018831679, -0.0006477169, -0.0013408228, 0.0009617128, -0.0012378488, 0.00024172198, 0.0017303021, 0.0022782958, 0.0006114632, 0.0009490552, 5.165857e-05, 8.331949e-05, 0.0016924669, 0.0038779816, -0.0013820223, 0.00074427546, -0.0005058054, -0.0020732118, -0.0028237223, 0.00013854011, 8.355125e-05, 0.0006164996, 0.0046677585, 0.00046604592, 0.00013606338, 0.00090391404, -0.0005069499, -0.00021465641, -0.0005066846, -0.0018246992, 0.0020944555, -0.0010637497, -0.0014355049, -0.0014052639, 0.0006008721, 0.0019116888, 0.0008817729, -0.0004991505, -0.00066723046, 0.0015171767, 0.0008056793, 0.00042016368, -0.004076776, -0.0011136157, -0.0010681925, 0.0024528517, 0.0006732763, 0.0006902389, 0.0006878597, 0.00022479083, 7.232075e-05, -0.00078504416, 0.0008723796, 0.0019290667, 0.0012358738, 0.0024809716, 0.0017129423, -5.6350196e-05, -0.0024721706, 0.0022029686, -0.0046988423, 0.002326002, 0.0009865004, -0.0016494801, 0.0010999298, 0.00033032452, 0.0008791573, -0.00026292168, -0.00042681725, 0.0008632675, 0.0011531732, -0.0005635284, 0.0005136476, 0.0008909378, 0.0008003457, -0.0006412968, 0.0005192256, 0.0012947657, 0.00089639303, -0.0017773939, -5.251968e-05, 0.0005653048, -0.003453222, -0.0008545666, 0.0007308513, -2.351393e-05, 0.00091752945, -0.00022475692, -0.0008263482, 0.0011820871, 0.0004053017, -0.0007114421, 0.00054415275, 0.00079828425, 0.002428128, -0.00023109466, -0.0022659362, -0.0006931141, -0.0012678802, 0.0004888881, 0.0005309847, -1.0665506e-05, 0.00045193068, -4.3171196e-05, 0.001427344, -0.0020391122, -0.00027818503, -0.0008624809, -0.00081037456, -0.00036648277, -0.0011571217, 0.0010822, -0.0013957552, 0.00026501055, 0.00031202345, 0.00040504252, 0.0011899548, -0.0032958756, 0.0014444895, 0.0008266239, 0.000439919, 0.0009246259, 0.0005144808, 0.00030762586, 0.004483714, -0.0007786923, 0.0031522755, 0.00032434374, -0.00309745, -0.00018516608, -0.0009859065, -0.0009876167, 0.00073602225, 0.0005179202, -0.0019067563, -0.0024847337, -0.0024440018, 0.0006048509, 0.0011180029, -0.0011267801, 1.0113581e-08, -0.00038683246, 0.0026840472, 0.000753651, 0.0018982986, 0.00040814304, -0.0009017596, -0.00038975605, 0.003099605, -0.000109667424, 0.00024971878, 0.0015335627, 0.0008190982, 0.0024926672, -0.0024712326, 0.0007721842, -0.00027654684, -0.00091182365, 0.000193415, -0.0018001375, 0.001287365, -0.001808526, -0.00055134983, 0.00019703142, 1.7579063e-05, -0.001837602, -0.00046307358, 0.00041785766, -0.001382074, 0.00029552338, 0.0010642714, -0.00083824707, -0.0013587973, 0.0007695755, 0.0022361362, 0.0006211845, -0.0036281063, -0.00021745835, 0.0011283999, -0.00030443445, -0.001091521, 0.0006380463, -0.00085849396, 1.1822638e-05, 0.0013167209, -0.0012644415, -0.0025948118, -0.0006563298, 3.681355e-05, 0.002779799, -0.00020250125, 0.00049336546, -0.00090073457, -0.00034048976, -0.0019695517, 0.0003532631, 0.00033485173, -0.00020623379, 0.00022492325, 4.4754444e-05, -0.0011588188, 0.00025102508, 0.0008026478, 0.0004303406, -0.0002506702, -0.0022140385, -0.00014165603, 0.0006751039, -0.00011930434, -0.00024775433, -0.00094443606, -0.0010364758, -0.0006609126, -0.00043709614, -0.002411528, 0.00032531534, -0.0012326159, 0.0005582584, 0.000272186, -0.0013325086, -0.00062101905, -0.00020153064, 0.00032391225, -0.0007197475, 0.0017672332, -0.0015177766, -0.00064824376, -0.0012786014, -0.00039676693, 0.0010821102, -0.00012818752, -0.0013135441, -0.0005112167, -0.00090825814, -0.0006500704, -0.001474313, 0.0012594614, 6.459997e-05, 0.0012851893, 0.00043867482, 7.902898e-05, 0.0013521098, -0.001269077, 0.0005598831, 0.0012634032, 0.0015397301, -0.00043667018, -0.0012349485, -0.0003818333, 4.189409e-06, -6.836123e-05, 0.00012919167, 0.00050506426, -0.0011968202, -0.0014804609, 0.0018784567, -0.00024019659, 0.0006467396, 0.00044316976, 0.0021430468, -2.4459936e-05, -0.0042805225, 0.0020689163, -0.00023254543, -0.0013314616, 8.060824e-05, 5.2834235e-05, 0.0020759897, -0.0006879597, 0.0031490375, -0.0010665713, -0.0012918034, -0.002340006, -0.00054833293, -0.00097131694, -0.00088027737, 0.00026350492, -0.000111791815, 0.000817057, -0.0006439774, -0.0013811984, 0.00030464318, -0.0010562341, -0.0006251747, 0.0018116726, 0.0024910672, 0.0023810652, -0.00023263483, -0.001580444, 0.0012923533, -0.0013045089, -0.0029002805, 0.0010658901, 0.00062177057, 0.0023025982, 0.0021506448, 0.0020097806, -0.00024011149, -0.00200514, -0.0008889727, -0.0003730578, -0.0008732433, 0.0004136126, 0.00031671522, 0.002168728, -0.0011765079, 0.001780373, 0.0014113637, 0.0002139624, 6.3551095e-05, 0.00020399975, 0.0013547929, 0.0021580884, -0.001297648, -0.0010221216, 0.00047163223, -0.00020878471, 0.0008897674, 0.0007841694, -0.00058966567, 0.00077931635, -0.00077092584, 0.0017652117, 0.0019883986, -0.00049394113, -0.00022072336, -0.00055149186, -0.00010777329, 0.0028363718, 0.0010004154, -0.0017697521, -0.000605398, -0.0008556143, -0.00056723855, -0.0026917714, 0.0015843728, 0.0013418244, -0.00012646522, 0.00095380406, -0.0015235947, 0.0006197085, -0.00053364836, -0.00055975036, -0.0008632011, -0.0008146879, 2.2569293e-06, -0.0004219881, 0.00012406206, -0.0015736581, -0.0021387318, -0.00013896648, 0.0013065018, -0.0013041466, 0.00032087916, 0.000559407, -0.0011925176, 0.001792067, 0.0013460024, -0.0018582875, -0.00040040375, 0.00063272216, -0.00036999478, 0.00026747203, 3.5505887e-05, -0.00064070115, 0.00012536003, 0.0017382891, -0.0032048775, 0.0007233898, 0.0013698388, 0.0005982051, -0.0007601255, 0.0011894741, -0.0007010286, 0.0011056942, 0.0007905731, -0.0013216427, -0.0039615, 0.0003770605, -0.0005742854, -0.00061125244, -0.00023284252, -0.00016452232, -0.0006608443, 0.0013149895, -0.00013830047, 0.0047158487, -0.0012945906, 0.0014021441, -0.00011022622, -0.0008192688, -0.0014219829, 0.0012169776, -0.00034535717, 0.0011933323, -0.0023412346, -0.0006010902, -0.0018979998, 0.00089303026, 0.0012593975, -0.0012572007, -0.0024741157, -0.00015237724, -0.0028613, -0.0006586285, -0.0016462997, 0.00089947844, 0.0010546788, 0.0006388135, -0.00024342339, 0.00052585226, -0.0006019356, 0.0025529647, -0.0012038675, 0.00048496207, 0.000579755, -0.00025816626, -0.0024690698, -0.002155004, -0.0017717787, -0.0021058223, -0.0001443961, 0.00145409, -0.0008639546, 0.0044226926, 0.00067159487, -0.0012406845, -0.00034111022, -0.0016321987, -0.00087576656, -0.002123936, -0.0006516135, 0.001241687, 0.00070994947, -0.0005962798, 0.00045856845, -0.00044536102, 0.00017487747, 0.00077543274, 0.0018126367, -0.0015221948, 0.0010626179, 0.000515194, 0.0019045593, 0.00090324547, -0.00030649494, -0.00044991204, 0.000379438, 0.0008670823, -0.0025657695, -0.0008131706, 0.0004896493, -0.0020356635, 0.0012409708, -0.0016322205, -0.0012913665, 4.4738837e-05, -0.0026746776, 0.0008143671, -0.00053218356, 0.00013845932, -0.0010476089, 0.00075552735, -0.00073261384, 0.000107190805, 0.0005471372, -5.8864163e-05, 0.00067601365, 0.0038028704, -0.0012676036, -0.00047162268, 0.0007399243, 0.0006316717, 0.0023602333, 0.0024401771, -0.00088072964, 0.00031431986, -0.0018457196, 0.00063853565, 0.001504761, -0.0029121244, 0.0026889308, -0.0013690062, 0.0009118651, 0.00046792033, 0.001151443, 0.0010811911, -0.0009912192, -0.001687344, -0.0006429223, 0.0033193957, 0.0004733348, 5.4444245e-05, -1.9802908e-05, -0.0017671747, -6.806484e-05, 0.0014632378, 0.00040212157, 0.0007997269, -0.0026544745, -0.0014330134, -0.0022117915, 0.0005142505, 0.0006077523, 0.00011043728, 0.0012849541, -0.0010593258, -0.0021390445, -0.0041648652, -0.00018961984, -0.0015123965, -0.0003616159, 0.00041689377, 0.0012716108, 0.0008712468, 0.00097298657, 0.0005696469, -0.0022788395, 0.00017798715, -0.00074390206, -1.5543512e-05, -0.00078773266, 0.002384167, 0.0030961432, -0.00035718124, 0.001481062, 5.4939388e-05, 0.00033222535, -0.001238368, -0.0020000439, 0.00013428275, 8.615467e-05, -0.0009320629, -0.00069631264, -0.00018800562, -0.00010831263, 0.0016617748, 0.00081128615, -0.0013194712, 0.00088563154, -0.0013016391, 0.00097379304, 0.0002454326, -0.000545532, 0.0037954934, -0.0008601802, -0.0017250914, -0.001121231, -0.0009190947, 0.0005599627, -0.0013238913, 0.0006381596, -0.0024123574, -0.00048006768, 4.9580703e-05, -0.0012794267, 0.0013185574, 0.0010431093, -0.0008609743, 0.0028588858, 0.001951839, -0.04949568, 0.0014860359, 0.0011731017, 0.0002329828, -0.0018699196, -0.0025440853, -0.04369198, -0.0024320176, -0.00013850452, -0.0012637501, -0.042225335, 0.001156695, 0.00021627994, 0.00424209, 0.001101557, -0.00075122865, -0.00018563075, 0.0007542925, -0.0005214446, -0.28380674, -0.00088986754, -1.5454243, -0.00078812387, 0.0009432129, 0.0016947088, 0.00019428635, 0.02878257, 0.00017329163, -0.0019683067, -0.0016506725, -0.00027768212, -1.5307669e-06, 0.25694203, 0.0004163072, -0.008468913, -0.0009891987, -0.0003972406, -0.0026640089, -0.00014368375, -0.5173771, -7.7114586e-05, -0.00065065746, -0.043178387, 0.00084133813, 0.00084266945, 0.00094783737, -0.0010621822, 0.010470597, -0.0005960271, -0.00065783225, 0.0006280647, -0.00048145468, -0.00017251173, -0.00033773482, -0.00066750654, 0.4988246, -0.8061536, 0.0021015746, -0.00088396715, 0.0009620654, 0.00029953732, 0.0020074635, 0.0013182675, -0.0019474161, -0.003248245, -1.8116087e-05, -0.0017535174, 0.0021936793, -0.0037963, 0.00025034783, -0.0008377923, 0.000541387, 0.00023457012, 0.00012170846, -0.0013616121, 0.00023710984, 0.0014705413, 0.00074688264, -0.0005218663, 8.303713e-05, 0.0013865428, -0.0004399491, 0.00041004637, 3.318803e-05, -0.002630624, 0.0034798207, 0.0016034772, -0.0012674765, 0.0033052224, -0.000611956, 0.0015404348, 0.00039004412, -0.0015908983, 0.001984076, -0.0011378466, 0.0009009484, 0.00092260214, -0.0021156054, -0.0046347263, 0.0012382746, 0.0013864976, 0.0005199456, -0.0020714747, -0.0007026651, 0.000121789635, 0.002554367, 0.0025592549, -0.001248373, 0.0016246692, -0.0021108855, 0.00027142593, 0.0019294367, 0.00019268191, -0.002210535, 0.000118967204, 0.00023269153, 0.00036658195, -0.0025458434, 0.0013078284, 0.00076441595, 0.0013029838, 0.0022616368, -0.00043948568, 0.000303054, 0.00041126265, 0.0006762479, -0.0028556518, -0.0023427175, -0.00020641543, -0.0010673942, -0.00023717765, -0.0016023412, 2.1262036e-05, 0.0017923766, 0.00044829157, -0.0013053033, 0.0023461403, 0.00064551376, 0.00046909484, 8.428388e-05, -0.0019498068, -0.0011474364, 0.0006686194, 0.0006615684, -0.0018142654, -0.0006540936, -0.0009952232, -0.0020527216, -0.0003468076, -0.00054205954, 0.0015321427, 0.0020100959, 0.00017198606, 0.0008539909, -0.0018125634, -0.0006243286, 0.0005668431, -0.0007429734, 0.0018733226, -0.0008992322, -0.00087691634, -0.002283321, -0.0006119762, 0.0024802291, 0.0010346872, 0.0025145514, 0.0012319792, 0.0032916567, 0.002155689, 0.0013331303, -0.004278749, -0.0013163836, -0.0013927254, -0.0005091801, 0.0007612755, -0.0013882094, -0.0019119333, -0.002884693, -0.0010514964, 0.0015050313, -0.0010173894, 7.197674e-05, 7.772143e-05, 0.0011807705, 0.00029596937, 0.00095366, -0.001379926, -0.0022299518, 8.63024e-05, -0.0013360489, -6.2969746e-05, -0.00087573496, 0.0017618886, -0.0006561324, -0.0036707092, -0.0006330202, -0.0026365868, -5.4978867e-05, -0.00017179467, -0.00021163397, -0.00062459207, 0.0006051562, -0.0018087002, 0.00020816282, 0.00089972, -0.00370532, 0.00048266945, 0.00248387, -0.0033855198, -0.0014067838, 0.00085521577, 0.00021869678, -0.00044610165, 0.00032085774, -0.00078830845, 0.000738098, -0.0012511703, 0.0006225338, 2.5816087e-05, -0.000108911365, 0.0014284787, 0.0013437207, -0.0009480426, -7.530209e-05, -0.0014127005, -0.0011084896, -0.0039717536, -0.0016234284, 0.0008608984, 0.00036403592, 0.0022250186, 0.0011589502, -0.0004533835, 0.0017343967, -0.00052417425, 0.00044229702, -1.3071112e-05, -0.0012634544, 0.0019890463, 0.0004916646, -0.00012616458, 0.00080464577, -0.00087821455, -0.0007397273, -0.00046102918, -0.0011616349, -0.0012681735, -0.0011716563, -0.00018406706, -0.0030771326, 0.0031357636, -0.0013610068, -0.0031109876, 2.1609478e-05, -0.00038466498, 0.00076175004, 0.0009806983, 0.0007380048, -0.0021505174, -0.0006618867, 0.0015207108, 0.00032903615, -0.0006609509, -0.00036687672, 0.0016284578, 0.0024642595, -0.0012470861, 0.00046961947, -0.00109123, 0.00047551107, 0.0006633889, 0.0011324366, -0.002418031, 0.0011076, 0.00010464742, 0.0002049123, -0.0025566313, -0.0041725365, -0.004207713, 0.0017542326, -0.00286926, -0.0010032884, 0.0007491972, -0.00086241023, 0.00093602494, -5.170086e-05, -0.0017258665, 0.00012874723, -0.0012838957, 0.0003498344, 0.00017604721, -0.00013563532, -0.0008825943, -0.0027129757, 0.002474424, -0.0015221915, -0.0013775812, 0.0025849643, -0.0014675041, 0.0006032267, 0.003888309, -0.0010528188, -0.003911283, 0.00044770414, -0.001649187, -0.0005823325, -0.0017954927, -0.0009168946, -0.0017882168, 0.00088490546, -5.24605e-05, -0.0013136354, -0.00076496706, -0.00024943886, 0.00058552215, -0.0009527637, -0.00057617907, -0.00030616834, 0.0013414673, -0.0014552728, 0.0012965661, 0.00022077461, -0.0024732216, 0.0013116972, 0.00073667197, 0.0012984966, -0.0014343805, -0.0001718083, -0.001381035, -0.0012912704, 0.0012991182, -0.002472803, 0.00041301432, 0.0038206684, -0.002478366, -0.003142103, 0.0009969942, 0.0016194959, -0.003769246, 0.000727798, -0.0004171553, -0.0006353947, 0.0006816513, -0.003776853, 0.002142231, -0.00032383902, -0.0013922586, 0.0004830371, 0.0006734489, 0.00042184096, -0.0011947044, -0.00050093373, -0.0013353345, 0.0006944011, -0.00036525202, -0.0006903793, -0.003030529, -0.0011252353, 0.0023099824, 0.0012957036, -0.56769854, -0.0011127016, 0.00015951323, -0.0011424944, -0.00069336046, -0.0015675494, -0.048777536, 0.00032248767, -0.0009791752, -2.7204762e-05, 0.0009482108, -0.00072609965, -0.0010807822, 0.00017917901, -0.0022232085, -0.0006929055, -0.0017880255, 0.00012804268, -0.00022085459, 0.000624752, 0.00046251027, 0.0030579309, 0.00071268645, 0.0009712729, -0.00052764773, 0.47021636, -0.049157705, 0.0013835285, -0.0011917481, -0.0011157999, 0.00083446945, -0.0011263334, -0.13924162, -0.0005714223, -0.058821943, 0.0004157123, 0.0020273915, 4.5772875e-05, 0.00029835396, -0.13077405, -0.0014678254, -0.0014514045, 0.00062033534, -0.0010838734, 0.0017011751, -0.0017873438, -0.003456016, 0.5360901, -0.00043841882, 0.0009069673, 0.0019591234, -0.0012968082, 0.00017338153, 0.0036272332, 0.0015573323, 0.0009050686, -0.0010244246, 0.0017342218, -0.0024600916, 0.00015434861, 0.0011890962, 0.003951708, -0.000449495, -0.0005472228, 0.0014824712, 0.0013723508, -0.00020224333, -0.0010033706, -0.003607045, 0.0009986376, -0.00114905, 0.006312458, -0.0018110067, 0.0024158754, 0.0015111433, -0.0011019409, -0.00080514746, -0.0025443835, 0.00042462477, 0.0013244117, -0.0018158229, 0.00017750393, 0.00033356668, 0.00081455376, -0.00061848457, -0.000620404, -4.3027103e-07, 0.00064804516, -0.00013689214, 0.0006419093, 0.00016907707, 0.00048963795, 0.00042617714, -0.00042711396, -0.00031506532, -0.00064115925, 0.0013240516, -0.0014774823, -0.0005098249, 0.0019953912, -0.0014278956, 7.610439e-05, -0.0014141396, -0.00013401563, 0.0012661311, 0.002873662, -0.000924084, 0.0003724487, 0.001329897, -0.0007074716, -0.00071134506, -0.0008112429, 0.00088146015, 0.0003189444, 0.0005930158, 0.0010771933, 0.0009895095, -0.0006091834, -0.001070197, -0.00062731386, 0.002852225, -1.3047829e-06, -0.003260871, -0.0011649211, 0.00044500772, -0.0010460326, 0.0018954125, 0.0005052901, 0.0007186788, -0.00049657363, 0.0006348403, 0.0013542598, 0.0012863241, -0.004430203, -0.0022702496, -0.0012090506, -0.002702203, -0.0006145493, 0.0007482368, 0.00055867515, -0.004750315, -0.0007147553, 0.0006696613, 0.0018215916, 0.0008610241, -0.0003256537, 0.002389278, 0.0037056403, -0.0004602269, 0.0021622009, -0.0014614309, -0.000640884, -0.00045516193, -0.00017938859, 0.00024301783, 0.0011981975, 0.00022238406, -0.00022724253, 0.0016331371, -0.0014256642, 0.00084893935, -0.00090434414, 0.0028431772, -0.0011600566, 0.0004967874, 0.0001744923, -0.00038996956, 0.0012885318, 0.001261754, -0.00069449976, 0.00022152188, -0.0012855602, -0.00022560847, -0.0020386018, 0.0007215438, -0.0015539475, 0.00014676424, -0.0005922509, -0.0019584044, 0.0012951273, 0.0013338848, -0.0004683007, -0.00058733055, 0.00014947006, 0.0016206404, 0.0004129949, -0.0014542203, 0.0021158778, -0.001037113, -0.0001948165, -7.0757174e-05, 0.00078338943, 0.0009907677, -0.0012498212, -0.00017099423, 0.001413364, -0.0012592765, 0.0017141935, -0.0016071507, -0.000878351, 0.0038757848, 0.0015835576, -0.0032686193, -0.00045725092, -0.0005678792, 0.001954933, 0.000720463, 0.00081556954, -0.0006675479, -0.0025946973, 0.001058395, 0.00027911479, 0.0005918847, 0.0024155497, -0.0005622693, -0.0013200149, -0.0007918127, -0.00044637232, 0.0006975637, -0.0005979534, 0.002729648, 0.00034831231, -0.00035205358, 0.0014082184, -0.0010998487, 0.0011746271, 0.0014910175, -0.000803753, 3.2513635e-06, 0.0007312979, -7.7087025e-05, -0.00071975513, -0.00025507674, -0.0014925601, -0.0012235325, 0.00083728787, -0.0009242162, -3.6985526e-05, -0.0005698129, -0.0006223507, -0.00029825268, 0.0013090918, 0.0014732566, -0.0004273121, 0.0012719821, 0.0022215182, 0.0007687691, -0.00034077544, -0.00085722376, 0.001094124, -0.0008237995, -0.0006216343, 0.0009318823, 0.0011538047, -0.002582487, -0.000646114, 0.00016788722, 0.0017423432, -0.001300701, 0.00084132195, -0.00030053407, -0.0027472586, -0.002604374, 0.0008962042, -0.0006541065, -0.00032230868, -0.0005363684, -0.0027400486, -0.0006007221, -9.7770564e-05, 0.00095462427, -0.00024806813, 0.00066099124, -0.0012042448, 6.03355e-05, -0.00014617591, -0.0011692322, -0.0013088388, -0.0015422214, -0.0005324682, -0.0011983863, 0.00061870855, 0.001168693, 0.00066132913, 0.0002608141, -0.0027207525, -0.0015486474, -0.0003020218, -0.001825721, -7.1438e-05, 0.0006830913, 0.00059750926, -0.00038919298, -0.0018462142, -0.00053767645, -0.0013524415, -0.00024029624, -0.00026413496, 0.0016787025, 0.0029560113, 0.0030793645, -0.0016218188, -0.0006263022, -0.00033555494, 5.1641837e-07, 0.0006062159, 0.0038504107, -0.001042681, 0.001230631, -0.0020915898, 0.0012912777, -0.0005718307, 0.0008920778, 0.0012960462, -0.0002778315, 0.0010903976, 0.0033348782, -0.001136583, -0.0035635168, -0.0017440272, 5.075091e-05, -0.0010885156, 8.6141634e-05, 0.0017543035, 0.00087915943, -0.0010553692, 2.5143265e-05, -0.0020348292, 0.0016476182, -0.00064937834, -0.00068197853, -0.00074888085, -8.496444e-05, 0.00040621322, -0.00048038448, 0.0002853903, -3.4736964e-05, 3.7280523e-05, 0.006250156, -0.0013507283, 0.0025011557, 0.0019430639, -0.0001510249, 0.0009759166, -0.00075763976, 0.0018226882, -0.0007726257, 0.00079819025, -0.0029553934, -0.002379011, 0.0023617274, 0.0011116046, -0.0010247972, 0.002934908, -0.0047351234, -0.0017824649, -0.0024504503, -0.00072947424, 0.0010282806, -0.0019832496, 0.0017389257, -0.0022001248, -0.0012354094, -0.001406889, -0.0010200511, 2.6453286e-05, -0.0017478489, 0.0019843075, 0.0037594135, 0.0009854547, -0.00064274337, -0.0021749965, 0.00051110634, -0.0014085255, -0.0009412561, 0.0013031894, 0.0005347764, -0.00030064117, -0.0013021972, -0.0008709835, -0.0017405679, 0.0013208693, 0.0006308851, -0.0008738136, -0.0027684807, -0.00021631984, -0.00058892387, 1.8385734e-05, 0.001807626, 0.00016372657, -0.0011616341, 0.00067993475, 0.000873893, -0.002084467, -0.0015827775, -0.0006517589, -0.00088950986, -5.1915413e-06, -0.0009909109, 0.00047296716, -0.0018510139, -0.00426267, 0.001309349, -0.0010220598, 0.0018116386, 0.0012854881, -0.00019565853, 0.000589921, -0.00088802486, -0.0025203559, -0.0003830843, 0.0013445154, -0.0004985143, -0.0011518584, -0.0042749792, -0.0011178646, -0.0005505538, 0.0002785346, -0.00046491378, -0.00031213587, -0.0009067464, -0.0011633699, -0.00049336895, -0.00058077206, 0.0017315587, -0.0018563378, 0.0013124362, -0.0004810245, 0.0010503926, 0.0011398252, 0.00075495796, -0.0006182427, 0.0006222929, 0.0010498317, -0.0010923619, -0.0013777418, 0.00092581986, -0.00063236116, -0.00085690425, -0.0014871059, -0.00054841547, 0.0008212624, -0.0018647495, -0.0004427596, -0.0005089715, -0.0014132308, 0.0011419709, -0.00040494464, 0.000989527, 0.00064770714, 0.00037263217, -0.0025172029, 0.0011301478, -9.0431655e-05, -0.00019312686, -0.0017822668, 0.0014330975, 0.0011786355, 0.0011089502, -0.000101519865, -3.320082e-05, 0.0023887544, -0.0011374499, 0.0005785362, -0.0023949512, -0.0024372763, 0.0020265486, 0.0032185446, 0.0007805819, 0.0017846074, 0.0011635218, -8.319004e-05, -0.0016432864, -0.0014671459, 0.0001347274, -0.0010722699, 0.0021448247, 0.0006177188, 0.00064793817, 0.00076901336, 0.101252, -0.00029390777, -0.001231519, 0.0007685862, 0.0005245768, -0.00018357695, -7.430487e-05, 5.59669e-05, 5.400402e-05, 5.674237e-05, 0.10641067, 0.0014163817, -0.0021245345, -0.00025773363, -0.00026814587, 0.0017689078, -0.0018255644, -0.00064395776, 0.0008230038, 0.3356574, 0.0007808173, -0.0041259476, -0.00045465204, -0.0001270909, -0.0009433415, 0.0922927, -0.35341766, 0.00036765213, -0.0006626055, -0.0004979076, -0.00078919117, 0.0012710326, 0.65528345, 5.2163916e-05, 0.0074817864, 0.39883912, -0.0012718212, 0.00013367424, 0.0014846979, -0.006778458, -0.0009951249, -0.00048159406, 0.73365134, 4.4899876e-05, -0.0012851045, 0.0002107661, -0.00027349213, -0.00062418764, 0.0004920259, 0.00028800196, -0.0019574512, 0.0014958067, -2.5824484e-05, -0.000720484, 0.0031103184, -0.017356288, 0.30198544, 0.0011010465, -0.0013226573, 0.0015253486, -0.00045890542, 0.003816877, 0.0008354676, -0.0013003682, -0.0020059792, 0.0012702928, 0.00094325945, -0.0027565616, -0.002007058, -0.0023344264, -0.00016438932, 0.0025256677, -0.001155157, -0.0014763838, 0.00087976933, 0.0011332611, -0.0012916706, -0.00096564443, -0.00240815, 0.0002818291, 0.0017858036, 0.0010162325, 0.00044360966, 0.000608838, -0.0018586956, 0.0009430463, 0.00054699846, 0.00021721277, 0.00018759962, 3.2794895e-05, -0.0019429679, -0.0012215718, 0.00033629348, -0.0010730547, 0.0006354467, 0.0008302889, -0.0010543258, -0.0002844052, -0.0011108238, -6.2872714e-05, -0.0008780865, 0.0008917064, -0.001287187, -0.0018422672, -0.0013029248, -0.0009965033, -0.00032637652, 0.0018750111, 0.0012907737, -0.00043573804, -0.00061734085, -0.00047630948, -0.0011221516, -0.00056045316, -0.0014407805, -0.0003287702, 0.0019885523, -0.0009339716, -3.066525e-05, 0.0008584777, -0.0011702059, -0.0012450743, 0.0016781115, -0.0016457505, -0.0007700779, 0.0009729873, 0.00069331855, 0.00020942354, -0.0008469345, -0.0028234678, 0.0005634541, -0.0014482238, 0.0006444269, 0.00032522, -0.0023223448, 0.0013078307, -0.0009708417, 0.00037014246, -0.00035261584, 0.00026176375, -0.0011322049, 0.0011385106, -0.0013661573, -0.00046386686, -0.0012130662, 0.0008329843, 0.00076734397, 0.0010242683, -0.0004545591, 0.0006274934, -0.00053995533, -0.0012917847, -0.0007102265, -0.0025899005, -0.0016657063, -2.3458895e-05, 0.0021313806, 0.000644672, -0.0016421012, -0.00037009208, 0.00053833163, 0.0003434217, 0.0018275261, 0.00013765326, -0.0016233518, -0.002637221, -0.00021662307, -0.0019070932, -0.0011446604, -0.00036364782, -0.00091852964, -0.0011892143, 0.00086850394, 0.00086750777, 0.0006524926, 0.00019971817, -0.0013139828, 0.00022320339};
float bias_2[] = {-0.0050826464, -0.0050983606, -0.008829189, -0.15502496, -0.06641551, -0.0390413, 0.029429656, -0.042547002, -0.18172185, -0.11674721, -0.042560548, 0.07851196, 0.032921415, -0.03357161, -0.005217905, -0.0045045875, -0.0062136473, -0.013281921, -0.09228718, -0.01766722, -0.011839047, -0.124801226, -0.0045141345, -0.10560497, -0.0721775, -0.010530268, -0.07596091, -0.010010352, -0.12275252, 0.21619695, -0.008257328, 0.4342844, -0.05555009, -0.0049905204, -0.033618946, -0.05239558, -0.04903672, -0.0050542383, -0.055049933, -0.24312116, -0.014584753, -0.0042792982, -0.0048217713, 0.13333124, -0.18039021, -0.025215782, -0.102085546, -0.05389148, -0.13957024, 0.123607814, -0.009585317, -0.027327368, -0.013053164, -0.00498341, -0.046203062, -0.04306428, -0.0054367986, -0.112941906, -0.0045564813, -0.005448821};
float weight_3[] = {0.0018265923, 0.0014374087, 0.0016581246, 0.00011909247, 0.0018567415, 0.001484746, -0.0014937948, 0.0004717029, -0.0012993417, 0.0012865528, -0.0018110384, 0.66101456, 3.772718e-05, 0.0006624732, 0.002057154, -0.00080563553, 0.0023938527, -0.00049091637, -0.00066448416, 0.00050980505, -0.0019390119, -0.0015829043, 0.00056583155, -0.00028313315, -8.0083744e-05, -0.0024611335, -2.6795082e-05, 0.002387048, -0.00013574792, 1.3055509, -0.0011376768, -0.6932901, -0.0011303179, 0.0006450814, -0.0013111475, -0.0006997749, 0.002046069, 0.0019346264, 0.0010360936, 0.00089515373, -0.00048046547, -0.0020618476, 0.0023608196, 1.7172273, 0.0020750728, -0.0014494665, -0.0030754977, 0.0006000236, -0.00067366794, 0.33556178, -0.0019394477, 0.0013016465, 0.00081347226, 0.00010532292, 0.0011720501, 0.0012953462, 0.0013297597, -0.3103098, -0.0001428462, 8.187001e-05, 0.0011152338, 0.0005421654, 0.0007895329, -6.993997e-05, -0.00044627368, -0.0016077596, -0.79585606, 0.0011303375, -0.0005821413, -0.00080583524, -0.0005585514, 0.56240135, 1.0201731, -0.00065315387, -8.987315e-05, -0.00019011484, -0.0017009064, -0.0013291088, -0.0007760981, 0.0024093688, -0.000665222, -0.0006514687, 0.0019322339, 0.00090030266, 0.001393921, -0.00029228837, -0.004493491, 0.00068186555, -0.0011317411, 0.00010166349, -0.00022228627, 0.0005120015, -0.00028251382, -0.0006394473, 0.0013055538, 0.0014227406, 0.003361714, -0.0005526018, -0.0013527975, -0.0011279376, -0.0013927696, 0.00045771705, 0.0008185987, 0.23760064, 0.00049471366, -0.0010692521, -0.00034775538, -0.0009185141, 0.0006436752, -0.745511, -0.0026369034, 0.0024640397, -0.0027959088, 0.002665689, -0.00032174354, -0.0021600532, 0.0013988179, -0.4632595, -6.88358e-05, 0.00015202422, 0.001174992, -0.0012782309, -0.0033056948, -0.0009107014, -0.0016723773, 0.00081274455, -0.9909103, -0.00059766456, -0.0012065049, 0.001565297, 0.00066795986, 0.6608705, -0.05396959, -0.002149817, 0.0061581703, 0.00040308933, -0.0006692267, 0.0014864503, 0.00092409283, -0.0008667872, 0.00022690813, 0.001177403, -0.00087015977, -0.00246259, 0.60156965, -0.00038415508, -0.00035920017, 0.0013003283, -0.0037588035, -0.004946076, -0.00063777494, 0.72829616, 0.0003002165, -0.0019126951, -0.00035914464, -0.0008031554, 0.00036672197, 0.0012291782, -0.00088958716, 0.0015803896, -0.0012962603, -0.0012329741, 0.0006059591, 0.10541142, -0.00022627009, 0.0016519865, -0.001812343, -5.525729e-05, -0.0008602279, 0.48118988, -0.0007248667, 0.00060150045, 0.00012733403, 0.00056028017, 0.00097140064, 0.00044683774, -0.00010542665, -1.1768224, 0.0009655021, -0.0022992888};
float bias_3[] = {0.26144493, 0.49267897, 0.3453859};
