float weight_1[] = {0.0020123902, -0.00087598263, 0.0021453232, -1.631615, 0.1511401, 0.69439334, 1.0900573, -0.23882513, -0.9645918, -0.001949197, -0.00012349163, 0.00050171174, 0.0006213222, -0.0021573233, -0.0009014626, -0.0019813878, -0.0007607847, 0.00061518897, 2.457702e-06, -0.0010952747, 0.0023003048, -0.001266754, -0.0031022904, 0.0007643738, -0.062044825, -0.10163981, -0.5858235, 0.00048387027, 0.001279802, -0.000646414, -0.68351007, 0.6246409, -1.5225755, 1.0856164, 0.32948047, 0.37798962, -0.00086102163, 0.00017244532, -0.0010955754, -0.0021559603, 0.0012367126, -0.00076520303, 0.0026026943, 0.0002518372, 0.0017468233, -0.0017121993, 0.0012125049, 0.00016072625, -1.5068052, 0.3946593, -0.11375348, -0.0012714993, 1.8731225e-07, 0.00070101867, 0.0013856058, -7.325283e-05, 0.0006806521, 0.0032977168, 0.0015802666, 2.9541872e-05, -0.00046275873, 0.0011124392, -0.0013174149, -0.0010646265, -0.0011162444, 0.0017489335, 0.2827761, 1.1202872, -1.1915627, 0.95860225, -1.0167216, -0.28602946, -1.0066395, 0.86749965, 4.442758e-05, -0.79137003, -0.6037558, 0.36659715, -0.00096559676, -0.0017650884, 0.0012584353, 0.00022717277, 0.00022450904, -0.0024361575, -0.7660604, 0.3594226, 0.6706553, -0.0008175539, 0.000739586, -0.0007790299, 6.083865e-07, 0.00050751626, -3.407587e-05, -0.0008624643, 3.1866715e-05, -0.0007472187, -0.0007340625, -0.0041800514, 0.0020079773, 0.0002462801, -0.0018497607, 0.0018983542, -0.00064484554, -0.0021865016, 0.0013448059, -0.0015880675, 0.0005744888, 0.004797659, 0.8834514, -1.6310973, -0.044230796, -1.9320445, 0.11109702, 0.0001425375, -0.00043436675, -6.7265035e-05, 0.00046923454, -0.0013135547, 0.0023955405, 0.00067760015};
float bias_1[] = {-0.56483537, -0.112496085, 0.06974471, -0.013048351, -0.17732444, -0.008735392, -0.4927229, -0.02394279, 0.60615236, -0.024297174, 0.22214077, -0.8992837, -0.4874514, -0.23672879, -0.0072166435, -0.2659437, 0.27962083, -0.26510197, -0.4015441, -0.18298765, -0.016427683, -0.23287952, -0.20381129, 0.32969302, 0.13946113, 0.5688801, -0.44483933, -0.12146676, 0.06821736, -0.47059453, -0.5240716, -0.09359023, -0.024608856, -0.40919763, -0.17566448, -0.09279146, 0.08014456, 0.27394828, -0.32237768, -0.20597577};
float weight_2[] = {0.0010826325, 0.0012989215, 0.26205838, -0.00042626925, -0.000686444, -0.000265443, 0.0027380479, -0.0004856874, 0.00018007503, -0.001310796, -0.00034848863, -0.24904823, 0.0005114738, -0.00064356, 0.00010693318, -0.0006357276, 0.0014798938, 0.0041744607, 0.0020219316, -0.00012738933, -0.0004197313, 0.0012079391, -0.0004964701, 0.0055543752, -0.5129678, 0.8516111, -0.000364549, -0.00076945475, 8.6972716e-05, 0.0007081224, 0.0013457189, -0.0005094756, 0.0005845954, -0.00063975394, 0.0016689715, 0.0019346194, 0.0913851, 0.0010014324, 0.0031950278, 7.5029675e-05, 0.0028598106, -0.00019841036, -0.0006791743, 3.0933938e-05, -0.00021688483, 0.0019672653, 0.00091167307, 0.0007668218, -0.001619263, 0.0014633093, -0.0013515335, -0.00048154197, -0.0011153455, 0.00048618857, 0.00044954347, -0.002017932, 0.0015592024, -0.0008711531, 0.000288827, -0.00019166502, 0.00060419197, -0.0006851634, 0.0007606303, -1.5890197e-05, -8.959975e-05, -0.0014661434, -0.00051310565, -0.0006389654, -0.00087889016, -2.9588002e-05, 0.0010790455, -0.0012458478, -0.0015028657, 0.00089077814, -0.00014864263, -1.4437803e-05, -0.0014047432, 0.0016009929, 0.0019953535, -0.0013793281, 0.00053282676, -0.0015688073, -0.0011488746, 0.0002470687, 0.0012887783, 0.0017111169, -0.00071680755, 0.0021953464, 0.00011537131, -0.0022828989, -0.00054087356, 0.006409114, -0.0014909797, -0.0006644159, -0.0022907867, 0.00070935156, 0.00020972855, 0.0013289563, -0.00064722484, 0.002932331, -0.0013417897, 0.0043334193, -0.00083704764, -0.00045257062, -0.0013850555, -3.611762e-05, 0.0009957035, -0.0006817258, 0.0033793203, -0.0015542676, -0.0012019725, -0.0014513083, -0.0015288688, 0.002642835, 0.00031613454, -0.00019837494, -0.00075201667, -1.5098369e-05, 0.0006928348, 0.0013092186, 0.00085889717, 0.0014280563, 0.0012859897, 5.8919715e-05, -0.00022245763, -0.0024931082, 0.00039047864, -0.00078606093, 0.0012140067, 0.0021664454, -0.002444285, -0.0012962095, 0.0037711058, -0.00012082077, -0.00077642506, 0.0023737731, -0.00021172909, -0.0033033784, -0.00031062, 0.0016228117, 0.00044326892, -0.0025484317, -0.0010790171, 0.0010802436, -0.0002498278, -0.0020261933, 0.0029522437, -0.0023677887, -0.0019996082, -0.00071632664, 0.0009699643, -0.0010796124, -0.00022533373, -0.0001567523, -0.00075830275, -0.0017998703, 0.0024182845, 0.00040144275, 0.0011049381, -0.00093133654, 0.00016577961, -0.0010570548, -0.0013514587, 0.0002996357, 0.00026284764, 0.0017786928, -0.001191201, 0.0006448552, -0.00074516714, -0.00092108734, -0.0005726068, -0.0017736334, -0.0012571969, -0.00036805175, -0.0013830662, -0.0015233256, -0.0031382295, -0.00025980285, -0.00020161783, 0.0001130469, 0.0015139136, 0.0010129471, 0.0011785123, 0.0011118026, -0.0008597091, 0.00035135285, -0.0006994414, -0.0011541022, 0.0017591149, -0.0006867015, 0.0022851103, -0.0008527751, 0.0023463315, -0.0008797371, 0.0025199894, -0.0016491145, -0.0008488011, -0.0009625209, -0.0026457438, -0.0033035297, -0.0011502123, -0.12016901, 0.36320034, 0.000118970114, -0.0002766856, 0.0021819815, 0.00097097596, -0.0007972528, -0.000105052015, -0.001630192, 1.820383, 0.00835998, 0.0004059809, 0.0007015438, -0.0019283808, 0.00064926816, -0.6152457, -0.00058490405, 0.0036486736, 0.0012978542, 0.0020025189, 0.000780857, -0.98522466, -0.7399642, 0.44367135, -0.000116313706, 0.00022572838, -0.0022506088, -0.375497, 0.0026083437, -0.0013104067, 0.0012687149, -0.0024382893, 0.0014675488, 0.0005632425, 0.0023098108, -0.00024527637, 0.80884784, -0.00026128656, 0.003079658, -0.0011379069, -0.0013794204, 0.0016600627, 0.0006523959, -0.0019399498, -4.5605702e-08, 0.00014760732, -0.0008836463, 0.00077954587, 0.0008143978, 0.00040728503, -0.0016174843, -0.0010136286, -0.0012644774, 0.0014230624, -0.002247917, 0.0006137868, -0.0021946523, -0.0030710741, 0.001205556, 0.0011014363, -0.0028556187, -0.0021131244, 0.0008640024, -4.406704e-05, -0.00021369959, 0.0006221882, -0.0019301896, 0.00014638045, 0.0020225206, -0.00058468047, -0.0003698999, -0.0028732545, 0.002266847, -0.000925177, 0.001667681, 0.002064573, 0.003104363, 0.00013329415, -0.0013684978, 0.002671131, -0.0001562378, 0.0018558265, -0.0041771047, 0.00036982924, -0.0013202392, 0.00064292154, -0.00024840725, 0.00015147461, 0.0008169356, 0.00081705255, 1.2186996e-05, 0.0014418087, -0.0021544558, -0.003558746, -0.0005162953, 0.0012954585, -0.001331292, -0.00057700684, -0.0025211005, 0.0011286065, -0.00015789078, 0.00042415515, -0.0009610245, -0.00059584505, 0.0014601327, 0.0008072004, -0.00024059467, 0.0009818268, -0.0013166993, 0.00081075524, 0.0028398796, 0.00029852777, 1.0790733e-05, -0.0005350596, -0.00019060774, -0.0004754468, -0.0011192365, 0.0004082663, 0.0019628499, -0.00023359444, 0.00081905525, 0.00041229464, 0.001164204, 0.0012513064, 0.00044225145, -0.000971462, 0.0007211488, 0.0005952669, 0.0009913583, -0.00026127446, -0.081371546, 0.00076037715, 8.4651285e-05, 0.00039916474, -0.0010479024, 0.0009210642, -0.00021927911, 0.0014283211, 0.0028653315, 0.0019461426, 0.0009664795, 0.00031922635, -0.3129719, 0.10304356, -0.00079072174, 0.0008593082, -0.0010847645, -0.00023395615, -0.0035201903, 0.001091663, -0.00079557986, 0.00060025085, 0.00079128076, -0.00023623346, 0.0010817653, -0.0008600183, 0.0005952393, -0.003741873, -0.0019429587, 0.00049213856, 0.0007556431, -0.00059004466, -0.0010344185, -0.0025524735, 0.0005632187, -0.0035553775, -0.001243826, 0.0031201113, 0.0008823922, 0.0007522364, -0.0031127222, -0.0023773375, 0.00017248758, 0.000748716, 0.0016173397, 0.0018162812, 0.0019323934, -0.0005369248, -0.00079993234, 4.69262e-05, 0.0002238985, 0.0010372854, 0.0009091484, 0.0019454387, 0.004398493, 0.0009475838, 0.0005346668, -8.328876e-05, -0.0005731029, 0.0015365521, 0.0006685517, 0.0010695742, -0.00015520611, -0.0005416551, 0.00087292783, 0.0003583905, -0.0007538235, 0.001129604, -9.940726e-05, -0.00061806606, -0.00030729076, -0.00018666459, -0.0009082463, 0.0031411438, 0.0029382955, 0.0015687424, -0.00086569664, 0.081312105, -0.00024877783, -2.940993e-05, 0.00011915245, 0.002889627, -0.0018064143, -0.0014086686, -0.000350643, -9.152311e-05, -0.0018062975, 0.0013319959, 0.0006737569, 0.0014200952, -0.0002984323, -0.55949295, -8.573311e-05, 0.15031958, -0.031099861, 0.00096124783, -0.00043152313, -0.9837654, -8.467911e-05, -0.0010099572, -0.0018546948, -0.0006511844, -0.00026989565, 0.00044460956, 0.0019415473, -0.5169187, 0.00028925994, -0.00084859267, -0.0022339693, 0.00012046826, 0.00097138615, -0.0013359487, -0.00089538534, -0.0017833989, 5.594414e-05, 0.0012946458, 0.0012440791, 0.00024486752, -0.0001274657, 0.0005436874, -0.0006135289, 0.00016116595, 0.0016503106, 0.0016407577, -0.002152495, -0.0018826314, -0.0014336449, 0.004379598, -0.0020670611, -0.0019805531, 0.0012658185, 0.002192235, -0.0014049747, 0.00022138737, 0.0003793619, 0.0038708085, 0.0005762281, 0.0010583181, 0.00085390423, 0.0002797047, -0.001629038, 0.0018977614, 0.0027772128, -0.0024174936, 0.0009858692, -9.029382e-05, -0.0017771441, -0.0019048988, -0.00023915712, -8.0557424e-05, 0.004382763, 0.0011654024, -0.0006108742, -0.000111725705, -0.003132963, 0.0016396575, -0.00015980707, -0.0028545135, -0.0006234794, -0.00084974914, 0.0024160142, -0.0015155978, -0.00045017747, -0.0031205835, 0.001893327, 0.00039922202, -0.0004929879, -0.0014772984, -0.00081288087, 0.00012634281, 0.0011964256, -0.00059761305, -0.0013834577, 0.0023995263, -0.0005414045, 0.0008831014, -0.0013958099, 0.0006871815, -0.0022014026, -0.0024012579, -6.703277e-05, -0.0015635247, 0.0037072778, -0.00034266486, 0.00025640317, 0.0003896393, 0.0023299076, -0.0008936664, 0.0021810774, -0.00013810955, 0.00032675755, 0.00027711724, 0.003248291, -0.00029367386, 0.001108384, -0.0014973875, -0.00067813834, 0.00066790584, 0.00056404504, 0.0027350092, 0.0025516043, -0.0020007929, 0.0013636006, -0.0011059293, -0.00029592193, 0.0017262928, -0.00028602348, -0.002508808, 0.00079181197, -0.0017975215, -0.0004688761, -0.0007032224, 0.0020307216, 0.0014544566, -0.0001362749, -0.0005435684, 0.00030168873, -0.00033606432, 0.0008182308, 6.825605e-05, -0.0019668532, 0.0009150331, -0.0012251986, 0.0011503213, 0.0004390758, -0.0010484855, 0.0005255024, 0.00012903975, 0.001296889, -0.00083613995, -0.0037442173, 0.21999685, -0.0027348036, -0.0013033566, 0.0026959851, 0.0007638117, 0.0021908034, -0.0127627645, 0.00091228366, -0.00027811772, -0.44340375, 0.0010476211, -0.00024345308, -0.0027982688, 0.0010470747, -4.4605476e-05, -0.0008945844, -0.0012296396, -0.00075234787, 0.00064550835, 0.0006560398, 0.31848866, 1.0131317, -0.24368843, 1.2933871e-05, -0.001730381, -0.00092104333, 0.00033023045, 0.0014267502, -0.0022764318, 0.0010481998, -0.0024299065, -0.0016360979, 0.00029345648, -0.0015148232, -1.4404455, 6.37653e-05, -0.0039432533, 0.0005555053, -0.0024658532, 0.0005432738, -0.036897942, -0.0006480046, 0.00015122519, 0.0021733472, 0.0009130578, 0.0015827947, -0.19859111, -1.2805685e-09, -0.22339328, -0.4269043, -0.0009524617, 0.0007525702, -0.00172909, 0.00070128543, -0.13766488, -0.00055416615, 0.0033831059, 0.0012808049, -0.00096142426, 0.0024239973, 0.5096767, -0.0141030345, 0.22912957, 0.35626584, -0.0008447171, -0.0014515864, 0.384349, -0.000920841, 0.0008892913, 0.0012720488, 0.0028711895, 0.0014401238, 0.0014688115, -0.0020284525, 0.0018445938, -0.0003752665, -0.0013509772, 0.001565795, 0.00064468145, 0.25979072, -0.9692815, -0.0008792343, -0.0019439998, 0.0006591235, -0.0014003966, 0.0016036116, -0.00013993857, 0.0005663412, 0.5986309, 0.24554162, 0.0011293675, -0.0031121112, -0.00051988795, 0.0004922906, -0.5740358, 0.0013033382, 0.0015126148, -0.0006064084, 0.0010752291, -0.00045957646, 0.05820575, -0.08826012, 0.56498146, -0.00018683766, 0.00084412214, 0.0014401888, -0.00012915602, -0.0009139883, -0.00021885475, -0.0010380633, -0.00031562464, -0.00027176965, 0.0031146887, -0.00017617378, -0.0045899996, 0.23549807, 0.00020791093, 0.00021425402, 0.0012847175, 0.003291112, 0.00047322572, 0.0008959886, 0.0009266985, -0.0017337815, -0.00073665375, -0.0018104707, 0.00057921535, 0.001808799, 0.0022107083, 0.0013264292, 0.0014725297, 0.0015182517, 0.00066442875, -4.3150038e-05, -0.00060651137, 0.0015712873, -0.00028559915, 0.0023946601, 0.00073922717, 0.0018900033, 0.0008725566, -0.0016176624, -0.00012829743, 0.0031169937, -0.0019471804, 0.00058246375, 0.0012791483, -0.0016023873, -0.0016307371, 0.0012574632, 0.00311113, 0.00078261003, 0.0019151908, 0.001227983, 5.9503363e-06, -0.00025948128, 0.0005552219, -0.0009464519, -0.0016712528, -0.0005082049, -0.0010773935, 0.0005412001, 0.0011708541, 0.0007340266, 0.0014541585, 0.0020110307, 1.6007107e-08, -0.00016678462, -0.00097583776, 0.002587178, 0.00061294634, 0.00049831276, -3.534727e-05, -0.0013956329, -0.0025196106, 0.000558548, -0.0007970529, -0.0010616288, -0.00025946746, 0.0014014547, -0.0018316928, 2.1451713e-05, 0.00012241286, -0.0010635471, -2.123043e-05, 0.0012576306, -8.585572e-05, -0.002091166, -0.0002791048, 0.0010450509, 0.000654126, -0.0009712612, 0.0020213206, -0.001144872, 0.00087038986, 0.0012648599, -0.0033125277, 0.0017807795, -0.0024631051, -0.0013177083, 0.001831385, -0.0006765215, -0.0012185688, -0.0006695962, -0.0009268934, 0.0024159742, 0.00095861853, 0.0032963017, 0.0026021628, 0.0009062163, 0.0011721366, 0.00022177288, 9.540352e-06, -8.383358e-06, 0.00050141336, -0.00044769645, -0.00089493673, -0.00022610999, -0.000801237, -0.00045177352, -0.0048210085, -0.0013644336, -0.0030862726, -0.0024401902, 0.0027391505, 0.00020651947, -0.0025066165, 0.00056558836, -0.00044262875, -0.0008962369, -0.0007732252, 4.020077e-05, 0.0002268749, 0.0025220942, -0.0017830791, -0.0014292831, -0.00012106026, -0.0012410582, -0.0007858031, 0.0006907053, -0.00012153841, -0.000536526, 0.00022490369, 0.0031006942, -0.004479064, 0.00073450455, 0.0015929828, -0.00037385966, 0.0007970736, 0.0019822675, 0.0024547456, 0.00056201173, 0.0019790246, 0.0008430698, 0.0011314696, 0.00056613586, 0.0037988024, -0.0007432277, 0.0017657886, 0.0022487063, -0.0011679716, 0.00044914486, -0.0018138984, -0.00063676876, -0.0005993478, -0.0019031467, -0.0011538441, 0.0018813494, 0.0011486134, -0.000690973, -0.0010826848, 0.0015458928, -0.0010717536, 0.00083801756, -0.00095407094, -0.0030973041, 0.00085624366, 0.002065412, 0.0008721386, 0.000691171, -0.0014400724, 0.0012857947, -0.0012078765, 0.0011717068, 0.000998433, -0.00029309862, 0.0011660911, -0.0012305942, 0.0004439716, 6.376437e-05, -0.00014182829, -0.0028531163, -0.0009979331, -0.0016205308, -0.00013460396, 0.00044340012, 0.0012521934, -0.0010551168, 0.0012977676, -0.00065524824, -0.00014256552, 0.00038259441, 0.0047507123, -0.00037837046, -0.00070002297, -0.0005947811, 0.0031152274, -0.0010221448, 0.0010449361, -0.000293874, 0.0014520539, 0.0001508854, 0.0008765671, 6.489619e-05, -0.0015650116, 0.0006150014, -0.00290082, 0.0012783845, -0.00052699744, -0.0002475353, 0.00022302219, -0.0028991834, 0.0006415745, -0.0014941862, -0.0010362563, 0.0007973421, 0.002365806, 0.00060260535, 0.0012252515, 0.00014050462, 0.0013847988, 0.0024426526, 0.00075780513, 8.3750754e-05, 0.0009703792, 0.00011924206, 0.00018102053, -0.0007214147, 0.0013064076, 7.0426584e-05, -0.0017494333, 2.7435308e-06, -0.0014888591, -0.00065805035, 0.0026596482, 0.00092857954, -0.00040360936, 0.002868441, -0.00070205785, 0.0010263184, 0.00058826036, -0.0012117974, -0.0012993331, -0.0017617783, -0.0003562527, -0.0006111186, 0.002683389, -0.0005237317, -0.00038796727, 0.000121197256, 0.00047670412, -0.0010705222, -0.00067995663, 0.0024419252, -0.00022043561, -0.00047159626, -0.00022382312, -0.001098454, 0.0020067028, 0.00193659, 0.0011094012, 0.0041780593, -0.00087869185, -0.0026146823, -0.000121159304, 0.0024719918, -2.6458292e-05, -0.0010028285, -0.0014506944, 0.0005779236, -0.0006658104, 0.0006485532, -0.001281678, -0.0027318732, 0.0014196564, -0.00015596213, -0.0008342695, -0.00020846562, -0.0010411202, -7.505366e-05, 0.0023888187, 0.00051422324, -0.0007664706, 0.0007464057, -0.00045903388, -0.0028712389, -0.0020917242, 0.00071524136, 0.00041186376, 0.0009921222, -0.0013095313, 0.00068999146, -0.00077533734, -0.0018415415, -0.0015187135, -0.0018105047, 0.00022522896, 0.001589672, -0.0004658501, 0.0023389244, 0.0008441631, 0.0008912228, -0.0016155683, -0.00070575636, 0.0017073064, 0.0011139481, -0.0007423812, 0.0012101578, -0.0017691494, -0.0015223146, -0.00083752436, -0.0013503102, -0.0015794345, 0.0016152433, 0.0014733567, 0.0019456652, 0.00012607628, 0.0010097618, 0.001550037, -0.0039561847, 0.000847459, 0.00076040253, -0.0006688349, 0.0019285094, -0.0017057218, 0.00032244867, 0.0006382452, 0.0023431843, -0.0017057813, 0.97253674, -0.37356675, -0.0025247757, -0.0005976192, 0.0006212794, -0.00065727107, 0.0013314764, -0.036374047, 0.0012042162, 0.000515872, -1.5500956, -0.0017875218, 0.0024924187, -0.0042643324, 0.0022432103, 0.045708086, -0.0014248735, 0.0006745429, 0.0012964895, 0.00011918909, -0.00047477707, -0.87004155, 0.000219543, -0.25275692, 0.19452791, 0.0013372476, 0.0012083254, -0.0065301834, 0.0008835326, -0.00075331284, 0.0014067772, 0.00090606103, -0.00057251967, -0.0008172749, -0.0045484714, -0.20998849, -0.52414614, -0.00038626057, 0.0010375407, 0.0016255144, -0.0015117031, -0.0024713646, -0.003273469, -0.002038492, 0.0007572597, -0.00012039521, -0.0012766677, 0.0007471608, 0.0008430637, -0.0015937039, 0.0005226988, 0.0012173895, 0.00045967905, -0.00022030878, 0.0013505345, 0.0015223055, -0.0031505655, 0.0013097164, -0.00034227455, -0.0006831558, 0.00022124493, -0.00082828617, 0.0014008565, -0.005084749, -0.0002456907, 2.0160514e-05, -0.001448252, -0.001601832, 0.0034103154, 0.0011282075, 0.0024173807, -0.00060638564, 0.00058206206, -0.0016534482, -0.0013106408, 0.0011728578, 0.0012278578, -0.0007068991, 0.00049529073, -0.002059004, -0.00043838716, -0.00011953828, 0.0003912237, -0.0023105992, -0.000697345, -8.785061e-05, -0.0011033046, 0.0013523423, 0.0043438277, 0.0012448806, -0.0007284879, 0.0018223668, 0.0009456739, -0.0008792329, -0.0004282351, -0.0026236435, 0.00022774702, -7.955347e-05, 0.0009867277, 0.0036002584, -0.0020536142, -0.00047760308, 0.00086641335, -0.0012027798, 0.0036159046, 0.0016556967, 0.00033300952, 0.00067583914, 0.0003514036, -0.0015143376, 0.00056929607, -0.00020070036, 0.0012637412, 0.00076793926, 0.0017586579, 0.0018218663, -0.00044454035, -0.003290302, 1.4393008e-06, -0.00074029027, 0.00016567676, -0.000516796, -0.0008825899, 0.002109067, -0.0003649391, -0.0027113666, -0.00075940473, 0.0015564825, -0.0016284031, 0.0031121955, 0.0001503693, -0.0009219372, -0.00061194925, 0.0008812171, -0.0003601826, 0.0004864171, 0.0024701487, -0.0026827147, 0.0024182457, -0.00036431465, 0.00074121414, 0.001294771, 8.280866e-05, -0.00059967017, 0.00027845503, 0.0003941097, -0.0012948447, -0.00091927097, -0.00085993507, 0.0016207688, 0.0012629706, 0.0021823763, -0.0034310578, 0.0015386315, -0.0010998771, -0.0018637837, -0.00024996162, -0.00036862824, -0.00086724025, 0.0012234602, 0.0018858328, -0.0015746646, 0.0018957496, -0.00013041287, 0.0006475313, -0.0005794078, 0.00023990613, 5.0231465e-05, -0.0007477996, -0.0006238619, -0.0018405875, 0.00047236442, -0.0013337606, -0.0012714074, 0.0015342857, -0.00056815485, 0.0006137117, 0.0021995043, 9.0949296e-05, 0.00045685837, 0.00053449464, 0.0046125236, -0.00025048005, 0.00050230173, -6.268569e-05, -0.003309458, -0.002673832, -0.0021402417, 0.0009045473, 0.0015962869, 0.00056890736, -2.352972e-06, -0.0007061443, -0.0006947252, -0.001159632, 0.0011121586, -0.0023805606, -0.0008706843, 0.00088711636, 0.00012215192, -0.0017715031, 0.002029779, -0.0011089743, 0.0008510887, -0.0022013318, -1.1536409e-05, 0.0027326392, 0.0021767623, 0.0017028572, -0.0028052023, -0.0010916302, -0.0026360028, -0.0016019893, -0.0017908344, 0.0012098029, -0.0009304194, -0.0005105867, -0.00023123878, 0.00049901986, -0.00034469183, 0.00086549413, -0.0010056582, 0.0010452173, -0.0013721287, -0.0010414763, 0.0002530492, 8.3655235e-05, -0.0008557627, -2.644956e-06, -0.0017860392, 0.0029076287, 0.0012366424, 0.00061273365, 0.00077397993, 0.0027971212, 0.0019327896, 0.0006341168, -0.00040626072, -0.00014233231, -0.00041372157, 0.00035653397, -0.0016675296, 0.00088084367, -0.0006010837, -4.1226827e-05, -0.0008862324, 0.0011099712, 0.000115439354, -0.00024645275, -0.00029029965, -0.0017781795, 0.000880055, 0.0010786453, -0.0027677952, -0.0011941841, -7.305393e-05, -0.00022617762, -0.00033828506, -0.0019124754, 0.0016935545, 0.00015094643, 0.0018079908, 0.0009093877, 0.0025316281, -0.0013374347, -0.0020576944, 0.002519276, 0.00010317641, -0.0019928077, -0.000400899, -0.0014825215, 0.00073341164, 0.0017339792, -0.0019054272, -0.0009049541, -0.00020032038, -0.002631749, 7.809818e-05, -0.0012893095, -0.00018259772, -0.00052072905, 0.00061168446, -0.0005290007, -0.0021503256, -0.0024726354, 0.00095282064, 0.00058299047, 4.2948857e-05, 0.0005066275, 0.0018002759, 0.0008741321, -0.0005963383, 0.0004655404, -0.0005174269, -0.003856402, -0.00074654596, 0.0006770114, -0.0010883411, 0.0024745436, 0.00096362137, -0.0012475529, 0.0008251561, -0.00017686316, -0.00016768818, 6.960987e-05, -0.0007776639, 0.0021169938, 0.0009762317, -0.0005167, 0.00078189396, -0.0044314996, 0.0014588143, 0.0016287953, -0.0007931222, 0.0011644668, -0.0025192103, -0.0013553334, -0.0008143934, -0.00063777925, -0.0014726815, 0.0011566678, 0.0019779406, 0.0012783881, -0.00051099114, 2.547013e-05, 0.0036343783, 0.00052218087, -0.001575142, -0.0012472128, -0.0014188087, 0.00047012168, 0.001166128, -0.0013979755, 0.0033336752, 0.0010809076, -0.0012428059, 0.0021774713, 0.00024845218, -0.000101524056, 0.0011614694, 0.0012051815, -0.0025170087, 0.0021183714, 0.0020765564, 0.00060144684, -0.00092703855, 0.00093955966, -0.0019045622, 0.0008380354, -0.00030267565, 0.0010791455, -0.002156714, 0.00057618745, 0.00038739364, 0.0004389909, 0.0013128506, -0.0009417939, -0.0008610594, -0.0022181375, 0.001867176, 0.0005027709, 0.0014714771, -0.00033551492, 0.0021338044, -0.00019722641, -0.0010240753, 0.0013412577, 0.62646794, -0.0006565719, -1.4022953e-05, -0.026137188, -0.0011765168, 0.0016239313, -0.0006646854, -0.0019065065, 0.37102163, -0.00044706732, 0.0016008727, -0.0015843263, 0.00068850414, 0.001980203, 0.93188083, -0.06259902, 0.011485739, -0.015506975, -5.011422e-05, -0.00061030866, 0.30057687, 0.0012092607, -0.00023732148, -0.002243188, 0.0018210391, 0.0011871869, 0.0021255636, 0.0014270718, -0.14444911, -7.028942e-05, -0.0005151174, -0.00063169654, 0.00075608224, 0.000623413, -0.000581546, -0.0020126996, -0.0024653557, 0.0006579246, -0.0011085887, 0.0024724486, -0.00019399554, -0.002155465, -0.00026115775, -0.00027059275, 0.00022239776, 0.0002840499, 0.0018179787, -0.00064825284, 0.0011605987, 0.0007390544, -0.0009977565, 0.00089922705, -0.00064144755, -0.0021138014, -7.395871e-05, 0.002417639, -0.0005897136, 0.001226494, 0.0018556754, -0.0006458309, 0.0005274749, 0.0017904015, 0.00035711017, -0.0011239646, 0.00029765535, -0.0011022298, -0.0012421354, -7.809556e-05, -0.00028321883, 0.0014262288, -0.001126796, -0.0016816576, 0.0003841262, 0.00050919526, -0.001055363, -0.0008992301, 0.00054210273, -0.0016799471, -0.0012963221, 0.0005135491, -3.7858437e-05, 0.00032596057, 0.001321561, -0.00013724485, -0.0013852874, 0.0024736663, -0.0031209122, 0.00077617314, 0.002042446, 0.0010634863, 0.003251462, -0.00057881535, 0.001055686, 0.0013642397, -0.0014306558, 0.0017009903, 0.0009230578, 0.0013234542, -0.00042601465, 0.0009167811, 0.0012894724, -0.00058060116, -0.0018829866, -0.0018755184, 0.00022350298, -0.0029265103, 0.0026678224, 2.5825255e-05, -0.00013084826, -0.0024872257, -0.0011158187, 1.5807855e-05, 0.0013836178, 0.0015371719, -0.0024950022, 0.00064633955, 0.0032503577, -0.00060532405, -4.3180775e-05, -0.0021619357, -0.00018383662, 0.0005441668, 0.0014178396, -0.0018057706, -0.00071548705, 0.0013278488, 0.0006261334, 0.0027666627, 0.0010387447, -0.0014432445, 0.00027853285, -0.00089089345, 0.0012576847, 0.00024771795, 0.0010883049, -9.0923975e-05, 0.0004897986, 0.0022548381, 0.00074396655, -0.0011402483, 0.0019045057, 0.0009964218, 0.0005554919, 0.0013749079, 0.001984683, 0.0015183, 0.00090338115, -0.00090612564, -0.0007874226, -2.2336259e-05, -0.0028881063, -0.0019230349, -0.0032898374, -0.0024877386, 0.0042688483, -0.0014703005, 0.00077864854, -0.0010804778, 0.0022541755, -0.00059374305, -0.0006333153, -0.0041533886, -0.0010716034, -0.00041756852, 3.9053615e-05, 0.00025400333, -0.0012855093, -0.001900629, 0.0014537134, 0.00012121632, 2.3100205e-05, -0.0012749478, 0.0004833273, 0.0018878932, 0.0005198926, -0.000610302, 0.0010017608, 0.0023795234, -0.002228098, 0.00062491104, 0.0013642928, -0.001489607, -0.0012532482, -0.002670992, 0.0008280484, -0.00042651143, 0.0031186542, -0.00381498, -0.00035210728, 5.9409387e-05, -0.0006599756, 0.0014205493, -0.0009409565, 0.00052382954, -0.00066053885, -0.0012280126, -0.0012988038, -0.0031123967, 0.0028603552, -0.0021565366, -0.001622064, 0.0032963422, 0.00063243054, 0.00036826625, -0.0022002554, -0.0006600711, -0.0012953157, 0.00013084814, 0.0013594271, 0.00075769785, 0.00026164923, -0.0011852825, -0.00049249246, 0.0017463585, 0.0010445425, -0.0007729542, 0.0022153384, 0.0017117606, -0.0019107251, 0.0020110833, -0.0011331002, 0.00043484976, 0.0018817689, 0.0037284375, 0.0025532576, 3.254041e-05, -0.0010712736, 0.00082045107, 0.0012386299, 0.0013476964, -0.0005731124, 0.00061440334};
float bias_2[] = {0.064634815, -0.014552798, -0.14088544, -0.08181141, -0.09161992, 0.33827195, -0.08409417, -0.007615372, 0.14914663, -0.14265169, 0.3291063, -0.006582941, -0.10271141, -0.15635231, 0.050339997, -0.08697244, -0.010097439, -0.009612386, -0.01338608, -0.047821432, -0.15486258, -0.024807911, -0.2338568, -0.19281688, -0.005732643, 0.36288366, -0.008962535, -0.13640378, -0.019762978, -0.06537667, -0.1556084, -0.06487079, -0.13705118, -0.035650063, 0.12729765, -0.026583532, -0.015003496, -0.006558758, -0.2996042, -0.06834506};
float weight_3[] = {0.22502707, -0.0026930093, 0.0025404976, -0.00019460294, -0.0015206304, -0.902583, -0.00074529334, 0.0008077957, 0.2357305, 0.0019290774, -0.0018011194, 0.00077632186, 0.00085522066, 0.0017667842, -0.31636882, -0.20049194, -0.43910295, -0.0012810375, -0.0014294656, 0.0018091091, -0.002428328, -0.0006802226, 1.9026163e-05, 0.0012930057, 0.001606048, 1.2886997, 4.135794e-05, 0.0011111906, -0.0024719886, 0.0024706866, 0.0002967748, 0.00016933843, 0.0013143636, 0.0019170976, 0.8341648, 8.337863e-05, 0.0007224476, -0.0002516172, 0.00084801833, -0.001944122, 0.65315014, -0.00018780923, 0.00016501576, -0.0014094925, 0.00086575747, -0.89080614, 2.6669935e-05, -0.0015306469, -0.00013220824, 0.0032971296, 1.1555997, 0.0013286292, -0.00036771287, -0.0010034639, 0.91487294, 0.869702, 0.9221929, -0.0001296716, 0.0006421744, -0.00011170993, -0.00049633463, -0.0014953661, 1.3854005e-05, -0.0009771727, -0.0007283288, 0.5500895, 0.0011008778, -0.0020526964, -0.002384602, -0.00023824326, -0.00088325713, 0.0012569923, -0.0006561765, 0.000825779, -0.037770893, -0.0018090719, -0.004694628, 0.0006365619, -0.0025718804, -0.0006655459, 0.065749206, -0.00074017985, -0.0014868382, 0.0021577657, -0.0031094723, -0.36176917, 0.00056411524, 0.0006120882, -0.3209156, -0.002390056, -0.8032453, -0.0012864289, -0.0010516157, 0.00025792394, 1.0117873, -0.4226927, 1.1626328, -0.0004595375, 0.002061735, -8.5434294e-05, -0.0014517261, -0.00030245446, -0.0016101203, -0.0013593567, -0.00047482998, 1.1434865, 0.0005845645, -0.0017015655, -0.0031118472, 0.00024814234, 0.000611817, 0.0007018067, -0.00079554925, -0.00047088868, 0.028929759, -5.1827636e-05, 0.0031976518, 0.00022617332, 0.0015332554, -8.449971e-05};
float bias_3[] = {0.30655944, 0.17281033, 0.30213067};
