float weight_1[] = {-0.001809151, -0.0024412482, -0.0012926259, 0.0023050737, -5.9755985e-05, -0.0008769047, -0.0013617739, 0.00101008, 0.00019166007, 0.0009027193, 0.00067580387, 1.2824348e-05, 0.00092156464, -0.00018655206, 0.00047618314, 0.004164911, -0.00046587596, 0.002827651, 0.0021675504, 0.0011627527, 7.7759585e-05, -0.00043649063, 0.0026240302, -0.00010680902, 0.0011591689, 0.00017062528, 0.0019898743, 0.0006790158, -0.004755574, 0.0005444576, 0.0020104344, 0.00055464916, 0.0018475621, -1.4252481, 0.087745026, 0.58439237, 0.001510408, 0.0016486098, -0.0017405124, -1.4176369, -0.8675371, 0.61796093, -0.5931661, -0.33020186, 0.70407903, -0.0005596213, 0.00067361793, 0.000444769, 0.001273894, -0.0010836385, -0.00055729406, -0.0010700934, -0.000685455, 0.0007509227, 1.8705927, 1.2846332, -2.152467, 0.15808329, -1.0365, -1.9944623, 0.00064557645, -0.0010696284, 0.0006483276, -0.0006197269, -0.0013008339, 0.0007991041, 2.8912698e-05, 0.00086211873, -0.000800572, 0.8517986, -0.11148246, 2.1664035, 0.0016036469, 0.000101138605, 0.00073142396, 0.14536028, -1.8704734, -0.22269125, 0.0009058641, -0.00013690052, -0.0012527748, 0.4215779, -1.153392, -0.5085418, 0.000316885, -0.6177506, -0.00081365847, 0.0015314559, 0.00068920216, -0.0011973162, -0.0018662782, -0.0032930854, -5.441677e-05, 1.1568308, 1.3348285, -2.0409381, -0.0015166932, 0.002675026, -0.00037506776, -0.061482053, 0.63314533, -0.8548152, 0.001271164, -0.00067392987, -0.00030199392, -0.42785367, 1.2122788, 0.63567346, -0.00022150372, -0.00055793114, 0.0018102975, 0.003128219, 0.00045713037, 6.7038927e-06, 0.0015942132, -0.00022095747, 0.0011394043, -0.13528225, 0.4131525, -0.9801635};
float bias_1[] = {-0.27339774, -0.5698172, -0.1568965, -0.56346893, -0.059990585, -0.41366485, -0.014285306, -0.040168416, -0.020540217, -1.1440114, -0.00560183, 0.40396255, -0.53427637, 0.24006443, 0.14489247, -1.5649171, -0.02713364, -0.737191, 0.44289824, 1.276318, -0.09590344, -0.36850214, -0.2667479, -1.7336513, -0.27561674, 1.5225632, -0.44356632, 0.6548067, 0.4273036, -0.3121394, -0.36008886, -0.24486317, -0.007902617, -0.119279295, -0.124243036, -0.7913592, -0.28822568, -0.209611, -0.49104008, 0.660834};
float weight_2[] = {-0.0011483461, -0.00020871614, 0.00078084855, 0.0011804331, -0.00086722255, -0.0012326248, 0.0020627547, -0.00056737365, -0.00048728625, -0.001479526, 0.00065614074, 0.00026292153, -0.0001363947, 0.0016631451, -0.0017959989, -0.0020936346, -0.0010449989, 0.0010206178, 3.1590083e-05, 0.0003375002, -0.001080001, -0.00017785213, -0.0013549859, 0.0024586662, 0.00044222985, -0.0014462748, -0.0026869753, -0.00076574355, -0.0001887093, -0.0009939228, 0.00040839758, -0.0010808357, 0.0007486992, 0.00086098234, -0.0002986117, 0.00023865851, 0.00284203, -0.0011326378, 0.0019879802, 0.002394311, 0.00080056523, 0.0023496673, 0.00079651084, 0.00050490967, 0.0016707747, 0.0033313013, 0.00042217842, 1.4730438e-05, -0.00015468124, -0.0017665036, 0.00057738705, -0.0014193545, -0.00035791512, 0.0016006861, 9.988813e-05, -0.0012021296, 0.0013927069, -0.0013265825, 0.001606749, -0.0006076215, -0.00059681427, -0.00058568886, 0.0008828978, -0.00065458566, 0.0028524813, 0.0009735638, -0.0005129492, 0.00024219323, 0.0008057597, 0.00066727534, -0.0019448552, -0.0008089263, -0.00044849317, 0.001348352, -0.0005614805, 0.0019105143, -0.0011352198, 0.002884206, -0.0007701131, -0.0013148615, -2.9428717e-05, -0.0013331274, -0.0002962874, 0.0016432047, -0.0019105664, 0.0017979324, 0.003070117, 0.0024131772, -0.0008936091, 0.00054342905, -0.0024819304, 0.0001458698, -0.0005691486, 0.00086192286, 0.0008103921, 0.0015819458, 0.0004568809, -0.00022597384, 0.0012515389, 0.002569409, -0.0004467576, 0.0010677918, 0.0013340077, -0.0016562033, 0.0013999495, -0.00017215802, -0.0026827273, -0.00051427376, 0.00085417455, -0.00019853507, 0.0012996728, 0.00025851885, 0.0019526522, 0.0009304928, -0.0021878954, 0.000910858, 0.0012874053, -0.0001250291, -0.00086751784, -0.0004895964, -0.001289204, 0.0038817008, 0.0036040405, 0.00088265096, -0.0013142828, -0.0042468095, 0.0012860799, 0.0017373859, -0.0003028973, -0.00013762788, 0.00066238636, 0.010341649, 0.0004626353, -0.5653598, -0.0002831254, -0.00020605937, 0.0021966232, -0.0032967199, -0.22010823, -0.0013277347, 0.000929173, 0.0016277973, -0.00013071072, -0.52961653, -0.0014526894, -0.00051465357, 0.00019546848, -0.00092534156, 0.00023239793, -0.0021930472, 0.0016230745, 0.004264561, 0.0006836181, -0.0006969946, -0.0011522545, 0.78796, -0.0004961749, -0.0007314982, 0.00060964626, -0.17382173, -0.00024315214, -0.002395593, 0.0014895189, -1.9521482e-05, 0.0006389512, -0.00043536565, -0.0008822294, 0.00010351479, -0.0023739457, -0.0024881763, -0.00079222256, 0.0025332812, 0.0026882968, -0.0028510788, -0.0006902508, 0.0011803908, 0.0002972515, 0.0013114773, -0.0014775589, -0.00047332817, 0.00275379, 0.0017601288, -0.003842734, -0.0015711018, -0.0013253776, 0.0011448489, 0.0005530296, 0.0017058759, -0.0015858635, -0.0004900054, 0.0004251757, 0.00087382883, 0.0011360347, -0.0008960711, -0.0021226325, -0.00016346334, -0.00016370835, 0.0026637588, -0.00021607429, -0.0025479444, -0.00030340883, -7.396552e-05, 0.00044481235, -0.001684506, -0.0024381112, -0.0016100999, -0.0015619261, -0.00046263775, 0.0008958489, -0.00015513564, 0.0017634232, 0.0005114001, -0.0013199227, 0.0011580003, 0.0019408168, 0.00025907808, -0.0007065158, -0.0005945641, 0.001997147, -0.0005218891, -0.00093902095, -0.0006809525, -0.0024789935, 0.0012476593, 0.00015733653, -0.0009941616, 0.0020113226, 0.004260147, -0.0041785706, 0.0019814111, -0.00070246763, -0.00075966597, 0.0014566083, -0.00016741105, -0.0008983879, -0.00072376797, -0.0009867483, -1.4989171e-05, -0.0014482602, 0.0011608964, 0.0013123378, -0.00046531693, 0.003615261, 0.0010751879, -0.00038957293, 0.0012008129, 0.0007031072, -4.0438856e-05, 0.0009740957, -0.00055530004, -0.0006409817, -0.16928849, -0.00049829856, -0.40997896, -0.00019715176, -0.001255959, 0.0017630688, -0.00053066615, 0.024017155, -1.8377123, 0.00010796322, 0.0012805033, 6.885761e-05, -7.062566, -0.00036753144, 0.08629277, -0.00040933402, 0.7942342, -9.978378e-05, -0.00026577362, -0.0021657958, 0.04160022, 0.0028544797, 0.112508394, -0.00082485576, -0.8005765, 0.0007398507, -0.0045197746, 0.00039890833, 0.18569939, -0.0010080262, 0.0028021573, -0.00086793525, -0.0009155028, 0.0023870585, 0.00020370772, 0.0017934163, 0.0019401832, -0.0010345973, -5.8156904e-05, 0.0010988959, -0.0006467854, -0.0013317758, 0.0012101976, 0.001326682, -0.001309097, -0.0013788237, -0.00017837563, 0.0005858026, -0.00053366227, -0.00029521203, -0.0025544427, -0.0008807445, -0.0017711377, 0.00119083, -0.001169756, 0.0005613178, -0.0006839041, -0.0011314269, 0.002932207, 0.0012934649, 0.00020747418, -0.00075178966, 0.0013774055, -0.00073317846, 0.0028546557, -0.0006701068, -0.00056536647, 0.00022573961, -0.0015144725, 0.000879792, -0.002551304, 0.0017228415, 0.0012978317, 0.00038744113, 0.0017579326, 0.0011997216, -0.0010624838, -0.0002203072, -0.00032164622, -0.0003819418, -7.274191e-05, -0.00018992384, -9.129231e-05, 0.0014433202, 0.002284392, -0.0008915255, 0.0003045816, -0.00041301723, -0.0007347155, -0.0011580905, -0.00058817747, 0.00058439217, 0.00052354066, -0.00063274486, -0.0031069326, -0.0024717422, -0.0014523019, 0.0019489692, 0.0017550288, -0.00012360002, -0.0004589561, 0.00053986645, 0.00012676563, 0.000658523, -0.0009024636, -0.00074185256, -0.0008105637, 0.00034977152, -0.00017164054, -0.0012860349, 0.00206966, -0.0025112368, 0.00020644371, 0.0018939862, 0.00044354005, -0.00041162036, 0.0008382163, -0.0028375704, 0.0027641386, -0.0035967112, 0.001151096, 0.001794409, 0.0011547728, 0.00037685054, 0.0011679091, 0.0016601086, 0.0025608542, -8.523557e-05, -0.0010708872, 0.006068101, 0.00020175683, 0.0004750677, 0.0020096973, -0.0031471862, 0.001045115, 0.003979979, -0.0003837826, 0.0011540576, -0.0019217916, -0.002722073, -0.0007146515, 0.002289576, 0.00010845164, 0.00040847866, -0.0045763887, -0.00058078265, 3.159989e-05, 0.0019264885, -0.0014243431, -0.00024296489, 0.00066081365, 0.0012534992, -0.0013905694, -0.00203464, -0.0024164272, 0.001377936, -0.00020340091, -0.0011838987, 0.0011304969, -0.0012569572, -0.00087704597, 0.00072567887, 0.00061245746, -0.0010832986, 0.0008500553, -0.002152723, 0.0033127633, -0.0002710646, -0.0018584847, -0.0007038374, -0.001003846, -0.0021086165, 0.0013284996, 0.0023825946, -0.0024695573, -0.0014424443, -0.00028384585, 0.0014451756, -1.52227585e-05, -0.0026672955, 0.00075781706, 0.00091341994, -0.0006682702, -0.0024456272, -0.0006594044, -0.00078488106, -0.0041259956, 0.0007440612, -0.0012903747, 0.0007572248, 0.006399421, -0.0002800831, 0.0028679066, 0.0032987283, -0.0012761832, -0.0011359224, -0.00038378214, 0.0007568315, 0.00077139784, -0.000786829, 0.00043974258, -0.0009774624, -0.00024917605, 0.00036929833, -0.0006181004, -0.0031083347, -0.0032909433, 0.03420008, -0.008816432, -0.00023158896, -0.0017130768, -0.00041594997, -0.00035961496, -0.00037426298, 0.16424465, -0.0032943608, -0.000493343, 5.1725583e-05, 0.00039944076, -0.0031257616, 0.015219959, 0.0015562334, 0.0021507354, 0.0019453702, -2.3245015, 0.0021720051, -0.00054028654, 8.143019e-06, 0.010619509, -0.00027983906, -0.00075250183, 0.0023262608, -0.0005142141, -0.00079381774, -7.107254e-05, 0.00044629036, 0.0017871837, -0.00181204, 0.0026419556, -0.00085339946, -0.4862027, 0.00045882436, -0.00087555835, -0.7733557, 0.0018440549, 0.002391135, 0.001395056, 0.81950086, -0.39916608, 0.0011774574, 0.0013923417, -0.0021623445, -4.8483596, 0.00014382062, -0.44921163, -0.0006672741, -0.13325332, 0.00020653757, 0.00069738756, -0.00038147962, 0.97281754, -0.0025207095, 0.23117803, -0.0007565372, 1.2202625, 0.0025542383, 0.003425255, 0.0014496585, 0.6070241, 0.0017123318, -0.00064021576, 0.00043178129, -0.0012670958, 0.001500671, -0.002359405, 0.00091136195, -0.0009984648, 0.0010210186, -6.106269e-05, 0.0001396407, 0.0025717625, -9.151816e-06, 0.00023578788, -0.0017639241, -0.00069121714, 0.0031110882, 0.0024639196, -0.0012176463, 0.004090068, -0.0013283258, 0.001129452, -0.00017162715, 0.00031648207, -0.0008229011, -0.00075226923, 0.0010307365, -0.0005938042, -0.0017545315, 0.0004371252, -0.00091392547, 0.001503134, 2.8912764e-05, 0.0020843435, 0.0016901377, 6.2236795e-06, 0.00072386616, -0.0006469733, -0.0018128285, 0.00081821834, -0.0031121443, 1.2855016e-05, -0.0005540855, -0.0012677644, 0.0011853782, -0.0032894448, -0.0014095461, -0.0004950848, 0.00066372077, -0.00014757045, -0.0019496671, -0.001481718, -0.00019760686, 0.0007357445, 0.0021508213, 0.0017216206, 4.209891e-05, 0.0014965982, 0.0015701507, 0.0024214648, -0.00016272941, 0.002416669, 0.0010764226, 0.00045731, 0.0004131334, 0.0012339235, -0.0012078157, 0.00064489257, -0.0005588867, 0.00054233754, -0.00041863602, 0.0021588278, -0.00058679405, -0.00050432916, -0.0006699778, -0.0011640082, 0.00089245144, -0.0017738374, -0.0017696263, 0.0012239381, 0.0023889835, 0.0035936246, -0.0016316258, -0.001234842, -0.0009243946, 0.0023631987, -0.0011154016, -0.0012984182, 0.0002600039, -0.0008434469, 0.0002553522, 0.0006093406, -0.0010459055, 0.00081470027, -0.000110617024, 0.0005841402, 0.0017157362, 0.001255862, -0.0019968415, -0.0013519503, 0.00012316601, 0.001078512, 0.0014486876, -0.0061725434, 0.00080922095, 0.0031156624, 0.0012952233, -0.000897719, -0.0006507045, 0.00058212416, 0.0015881228, 8.8064815e-05, 0.0014215435, 0.00059634977, 0.00022089464, 0.0005162286, 0.0006550454, -0.00081213284, -0.00076590996, -0.00054752023, 0.0006231422, 0.0020090658, -0.0025341157, -0.0025702408, 0.00025853014, 0.0011832253, -0.00073617196, -0.0015387163, 0.00077206275, -0.0015718051, -0.0006772623, -0.0023896175, 0.0008384208, 0.0010684577, -0.0018063812, -0.0014680116, 0.0014540376, 0.0013078547, 0.0023765992, 7.970334e-05, 0.0036972174, 0.001353286, 0.0023957288, -0.00044432923, 0.0011429177, 0.001190948, 0.0009102574, -0.00013707316, -0.0001763626, -0.00029515056, 0.0017268907, 0.00074182823, -0.0011352488, 0.0030812635, -0.0033051837, 0.00070149556, -0.001143426, -0.00069586816, 0.00013522658, -0.00063722127, 0.000793129, 0.0015453121, -0.0010070867, 0.00087326526, 0.00050141796, 0.0008782618, 0.000900129, 0.00055874046, -0.0012899772, -0.00055435643, -0.00067902467, -0.24036074, -0.00039234012, -0.00053146144, -0.7039421, 0.0027414644, -0.0018041387, -0.001116216, 0.11929511, -0.24590492, 3.0166324e-05, -0.00062630523, -0.0010553347, -2.5037467, 0.004453179, -0.598257, 0.00052089104, 0.2269307, -0.1156347, 0.0006726497, 0.0016395184, -0.11047702, -0.0010461772, 0.044787534, -0.00066457497, 0.053577114, -0.0013164497, -0.00064038637, -0.0007149073, 0.5360374, -0.0009211059, 0.0020856638, 0.00075055286, 0.0016284867, 0.0019015684, 0.0003067078, 0.0009211862, -0.00019036711, 0.00022242434, 0.0010083115, -0.0008979963, 0.26515916, -0.0017381888, 0.6342879, 0.17058742, -0.0012702751, -9.960236e-05, 0.0015621394, -0.20833236, -0.00096069963, -0.0014514613, -0.0023892429, 0.0012634534, -0.6731868, 0.00033439853, -0.47056946, -0.0010654365, 0.3576481, -0.6239826, 0.00040634634, -0.0004924395, 0.0011432865, -0.0007658362, -0.0003862261, 0.0010883976, 0.43770725, 0.00046444393, 0.0018754725, -0.0020186282, -1.1120354, 0.00030055433, 0.0025824402, 0.0019710097, 0.000585367, 0.00034657025, -0.0007491725, 0.0013178224, 0.002474728, 0.0002744022, 0.00028378033, 0.0047423677, 0.0013107067, -0.0001058724, 0.0011479072, -0.00020651362, 0.0022064548, -0.0011383467, -0.0002153088, -0.001943916, 0.0015555014, -0.0008658999, 0.0006598534, -0.0017684319, 0.00064645306, -0.0033793806, -0.0024710624, -0.0031203995, -6.33733e-05, -0.0019378386, 3.8384343e-05, 0.0037623192, -0.0021602407, -0.0006763177, 0.00058784534, -0.0012562242, -0.002338277, 0.0012962656, -0.0039432477, 0.0013138986, -0.0017978257, 0.0008803631, -0.0008860311, 0.0019526774, 0.0011834978, 0.002019682, 0.0046608658, 0.00049084495, 0.0031809828, -0.0011444459, 0.002422234, 0.00056713144, 0.00077265, -0.00036478473, -0.00030484283, -0.0004947538, 0.0014337751, 0.00046705414, 0.00043359975, 0.00086927036, -0.00090823567, -0.001553282, 0.0012806968, 0.0009124467, -0.00044834163, 4.9483846e-05, -0.00036819547, 0.001075315, -2.3689729e-05, -0.0020553637, -0.0015063616, 0.00039698783, 0.0002825762, -0.001041003, -0.0030717202, 0.00067880045, -0.0004932935, 0.000872391, -1.3347715e-05, -0.00057062076, 0.00022206537, 0.0007577118, -0.001503587, 0.0014998605, -0.00050292746, -0.003966042, 0.0011071838, 0.002052317, -0.0004591992, -0.0010437863, 0.0013486609, 0.0024741073, 0.0016260992, -0.0011270398, 0.00022767461, 0.0008583415, -0.0011758882, -0.0004630572, -0.0017079965, -0.00091429724, -0.00064542436, -0.0010157491, 0.00074115174, 0.001079221, -0.0007094217, 0.0030258694, 0.00037736015, -0.0008881045, 0.0006907805, -0.0011798121, -0.0023512165, 0.0024573538, 0.0016388653, 0.0006492696, -0.0014057417, 0.002011479, -0.0012779394, -0.00067239645, 0.00049156335, 0.0019530616, -0.0010997191, 0.00057230226, 0.0010647154, -0.002399666, -0.00058322464, 0.0027154344, -0.0024479907, -0.0010618493, 0.0010159562, 0.00021967338, -0.0029250733, 0.0012727994, 0.0002131784, 0.00046462094, 0.002071626, 0.0036604581, -5.946128e-05, -0.0025212849, -0.0022885394, 2.5792979e-05, 3.879238e-05, 0.0005547535, 0.0031820969, 0.0013028586, -0.000764588, 0.00290327, 0.0007697341, -0.001132285, -0.0018776114, -0.0011326345, -0.0009937612, -0.00057493104, 0.00095271657, -0.0028639552, -0.00040296162, -0.0006118924, 0.00064207806, -0.0017156734, -0.00060294365, -2.73576e-09, -0.0011540896, -0.0018139613, -0.0006155415, 7.92098e-05, -0.00059792487, 0.00088201655, -7.0214795e-05, -0.0017109741, 0.002169238, 0.00057779806, -0.00011316454, -0.0006448869, 0.00021551913, -0.00060396973, -0.00072766154, 0.0016649528, -0.0011965065, 0.001063974, 0.0019470651, 0.0010670057, 0.0010736606, 0.0005190446, -0.0010272231, 0.0018871509, -0.00040130754, 0.0014789256, -0.0024111718, -0.0012790386, -0.00083523756, 4.2588203e-05, -2.1180502e-05, 0.0015229492, -0.0016224785, 0.0014400827, 0.0010702589, 0.00032211374, -0.0008659945, -0.00053219637, -0.001889855, -0.0009192005, -0.00047759316, 0.0011872988, -0.001672179, -0.0007364505, -0.0005233153, -0.00076085946, 0.0021585764, -0.0027718018, -0.0005691737, 0.00049600075, 0.00037646818, 0.00076985755, 0.00076339475, -0.000519834, -0.00052549515, 0.00016874197, -0.00059467816, -0.004271794, -0.0012760423, -1.2775054e-06, 0.0011982967, -0.0012703354, 0.0014320557, -0.000678098, 0.0022229296, -0.001031018, -0.000601597, 0.00054000283, -0.0005850027, -0.0009776074, -0.0006593856, 4.8260415e-05, -0.0014264883, -0.000525117, 0.0013600853, -0.00027665394, 0.00038104993, 0.00046334753, -0.00061049324, -0.0013615319, 0.0007721258, 0.0002787136, 0.00026845036, 0.001844482, 0.002181824, -1.9234023e-05, 0.00013049814, -0.00010897413, 0.00110718, 0.00075611204, -0.0007011605, 0.0007555705, -0.89900917, -0.0017289501, 0.0011108771, -0.68882424, 1.1307246e-05, -0.0024660323, -0.0013436808, 0.0011142123, -0.06689798, 0.00064604526, 0.002860862, -7.8133686e-05, -0.59861743, 0.0024563146, -0.31181544, -0.0006627507, 0.00032214122, 0.00025236473, 0.0005974226, 0.0013259193, -0.50280917, -0.0002435788, 5.0157396e-06, 0.0015544564, 0.56732863, 0.0014502513, 0.0010994789, -0.0010057569, 0.003160892, -0.0010689574, -0.0004634547, 0.0021003243, -0.0012384253, 0.0011259194, -0.0021903883, 0.0026337896, -0.0012322536, -0.00086153805, 0.0019012637, 0.0012980918, -1.1894895, -0.00246011, 0.0017067476, -0.45703813, -4.65184e-06, 0.0011434162, 0.0017991969, 1.0279969, 0.079374894, 0.0006314472, -0.0024710223, -0.0016237325, -4.7679305, -0.0009688103, -2.0853243, 0.0013435303, -0.1748863, -0.11006967, 0.0006447954, -6.2951876e-05, 0.44892645, 0.00011750689, -0.42955026, -0.0021580283, 0.10657068, -0.001302691, -0.00087506446, 0.0013139951, -0.016284486, 0.0014505142, -0.0012489767, -0.002386183, -0.0019447271, 0.0011240768, 0.00067039294, 0.0008910214, -0.0019346821, 0.002394937, -0.00045743678, 0.0013006204, -0.00075861847, -0.0027358865, 0.0021404854, -0.00038622355, 0.00093187357, -0.00075960567, 0.0014713036, -0.0005819203, 0.002474144, 0.0024779611, 0.00065690716, -0.0004779669, -0.00080859615, -0.0008268739, -0.0006596464, -0.0019227207, 0.0011352793, -0.0008703982, -0.0010928453, -0.00072011224, 0.0005978045, -0.001067577, -0.001245216, 0.000508454, 0.0020098623, -0.003114745, 0.0014698083, 0.0012722004, -0.000417042, -0.0014474157, -0.0009715101, -0.0029557315, 0.00074708264, -6.208476e-05, 0.00045474968, 0.00089965295, -0.000684472, 0.000556791, -0.0010135638, -0.0031316583, 0.0018896176, 0.00012401951, -0.0008702802, 0.0014958973, 0.0006430647, 0.0005046823, -0.0010413087, 0.0010648089, -0.00048461606, -0.00065631315, 0.00052758417, -0.000531659, -0.0014161861, 0.000314845, 0.0007542118, 0.0001586625, 0.0006379325, -0.00033262128, -1.5406491e-05, 0.0006607164, 0.0007569911, -0.0014835655, -0.002316414, 0.0007342816, 0.00052503264, 0.0012501834, 0.0005688536, -0.00095166627, 0.00065457023, -0.0006647866, -9.090822e-06, 0.0016593438, 0.0019205516, -0.0002942895, -0.0002372053, 0.0011057395, -0.001486309, -0.0006357914, -0.0022961346, 0.0013407222, -0.0004945223, 0.001787268, -0.00087311934, 0.0010413821, 0.0004568029, 0.0024666386, -0.0031129383, 0.00061297335, 0.002525359, 0.00012439914, 0.00066070136, 0.0008852891, 0.00030083282, 0.0014200439, 0.002868168, -0.0031130472, 0.000573047, 0.0003885238, -6.379603e-05, -0.00046536222, 0.0025662342, 8.660054e-05, -0.0007235729, -0.0012850724, -0.00016727945, -0.0007346716, 0.002304954, 0.0011453796, 0.0005042478, -0.0005235366, 0.002081673, -0.0006492907, -0.0010803115, -0.00017455406, 0.0025752834, -0.0020947428, -0.00053441396, -0.0007598783, -0.0010707187, 0.002123608, 0.00034767936, -0.00031846983, 0.03951846, 0.00057841255, 0.0014033346, 0.0013329368, -0.0031028963, 0.002118293, 0.002163438, -0.004746516, -0.00056780473, -2.3863613e-06, -0.0023802235, 0.0022235971, 0.07207754, 0.0009629926, 0.00066524796, 0.00027369242, -0.0007175554, 0.0008685534, -0.00247445, -0.0009983082, 0.0015789702, -0.0012801904, -0.0002891313, 0.0002807783, -0.00012634322, 0.0018945583, -2.4565253, -0.0013073436, 0.0012979872, -0.0015236855, 0.00020835618, -0.0032672966, 0.0008718855, 0.00058458163, 0.00065022486, -0.0017198394, -0.00020181213, 0.0009063456, -0.0010458119, 0.0017748531, -0.0011736567, -0.00028286586, 0.00012523064, 0.0009653603, 0.00011267868, -0.00011178065, -0.00074732903, -0.0007014379, -0.0015151481, 0.0019415353, 0.0033016535, -0.0009120478, -0.00097430527, -0.0006622071, -0.001195991, 0.0019350162, -0.0016279414, 0.0012673796, 0.0021624898, -0.0032991385, -0.00090049405, -0.0012878245, -0.0006557805, -0.0006458932, 0.0006775488, -0.0012817804, 0.0008910308, 0.0033050338, 0.0009593222, -0.00053039717, 0.00013137228, -0.0007870188, -0.0015507627, -0.0034155538, 0.0014483362, -0.00046068814, -0.0002517528, 0.00027114688, -0.0007610014, -0.0015336673, -0.0009507539, -0.001529529, 0.00091829896, 0.0008366804, 4.2532338e-05, 0.0012414453, -0.0003408753, -0.00015517668, -0.0027529758, -0.0004701352, -0.0013236031, 0.00023138436, 0.00094863493, 0.00056495616, 0.0039351545, 0.0020117417, 0.00075738656, -0.001949003, 0.00065474515, 0.0023735454, 0.0018088418, -0.0002522266, 0.0004841315, 0.0016465185, -0.003355273, -0.0003421312, 0.00043820209, 0.0012904902, 0.0030557597, -0.001461558, 0.0005619577, 5.3698895e-06, -0.0015311096, -0.0020916194, -0.0017572908, 0.004749683, 0.00039970165, 0.002410035, 0.0026554205, -0.0019656816, 0.0007631752, 0.0027433673, 0.0009186189, -0.0012634827, -0.003296826, 0.0012030489, -0.0012965669, 0.001776304, 0.00058947987, -0.0013921452, -0.0024633342, 3.0050112e-05, -0.0024760286, 0.00013295154, 0.0012345053, -0.00040411385, 0.00012434286, 0.0017415411, -0.0012436184, -0.0020031014, -0.0008816877, 0.0010697602, 0.00018205581, 0.0014418063, 0.0011634878, 0.0009904832, -0.002152536, 0.0006767562, -0.0015303248, -0.00021112566, 0.0012060006, 0.0007709637, 0.0003022994, -0.0023862962, 0.00049824745, 0.00014607707, -0.0017023943, -0.0025039115, -0.79793245, 0.0013109272, -0.00071920647, -0.73516744, -0.00094244955, -0.002131192, 0.00060086395, 1.0998527, 0.38052958, 0.0012979194, -0.00024829843, 0.0020264087, -5.7326245, 0.003716533, -1.255808, 0.00067270495, -1.1241088, -0.34951383, -0.00242146, -0.004611958, 0.8299772, -0.00097312895, -0.42226925, 0.0004754992, 0.6078969, 0.0009601952, 0.0017323387, -0.0028609051, 0.5677495, 0.0013270909, -0.0012128829, 0.0011346878, -0.0013220448, 0.0034033842, -5.4446573e-05, -0.0010379268, -0.00061535713, 0.0015127038, -0.00043815782, -0.0007527509, 0.71641886, -0.00025703042, -1.0140156, 0.092196375, -3.8088998e-05, 0.00022161455, 0.0008793079, 0.6179799, -2.8027565, 0.00088942045, 0.00064605876, 0.0024013193, -2.038048, -0.0006113878, -0.4157803, 0.00028099772, -0.0006625679, -0.00042646308, 0.00075068756, -0.0022306337, 0.8065015, 0.00088746817, 0.5725797, -0.00037866755, -0.51848525, 0.001449588, 0.0017194478, -0.0015975713, -0.025319789, -0.0009508532, 0.0001378217, 0.001231865, -4.1958643e-05, 0.0008584263, -0.0018321224, 0.00044658396, -0.0019431888, 0.0007430763, -0.00024048076, 0.0012924301, -0.0021431986, -0.003990827, 0.00075104274, -0.0012269518, -0.00022096845, 0.0024707904, 0.00011983147, -2.9435236e-05, 0.0005823534, -0.0017661916, 0.0014508292, 0.0012999111, -0.0022147512, -0.0014767617, 0.00051230274, 0.0013147404, 0.0012877011, -0.0013360089, 0.0013684421, 0.0012072823, -0.00022090698, 0.0019417434, -0.0007847194, -0.0018113122, 0.0021696896, 0.0012893, 0.0028957003, -0.0007345547, 0.00094809005, -0.0007346242, 0.0010948316, -0.0014057271, -0.00035566505, -0.0014706053, -0.0023495143, -0.00070126227, -0.0019667468, 0.0016691637, -0.0023303553, 0.0008809519, -0.0025607196, -0.00036475394, -0.00017680589, -0.0019985773, 0.002139463, -0.0017771648, -0.001861149, 0.0002052323, 0.0029094948, 0.001771611, -0.0011783701, -0.003861433, 0.0005432712, -0.0011155223, -0.0011387775, -7.771666e-05, -0.00087090186, 0.0010407227, -0.0012313807, -0.0006056092, 0.0007553542, -0.0007309684, -0.0009004775, -0.0022862877, -0.0018634192, -0.00091824925, 0.002909396, 0.0016768501, -0.0013190253, 0.0031431564, 0.00010111596, -0.0009905174, -0.0009724027, 0.003452883, 0.0016755762, 0.0034450637, -0.0007147414, -0.0006789942, 0.00027772703, -0.0021192753, -0.004612315, -0.00068974134, 0.0011737031, -0.000588027, 0.0005145145, -0.00085864, 0.00017002132, 0.0039155018, 0.00043949508, 0.0014318919, -0.00019317248, -0.0011106979, -5.018589e-05, 0.0007373912, 0.00085862307, -0.002993257, -0.004375053, -0.00045507995, 0.0021276185, -0.00012746418, 0.00095485017, 0.0031751073, 0.00020019183, 0.0009983403, -0.00092998013, -0.0006861865, 0.002735068, -0.0015789128, 0.0011093786, 0.00056599197, -0.00021951005, 0.0020690595, 0.00022145035, -0.0001132692, -0.0017922038, 0.0015122009, 0.0013041551, 0.0015282029, -0.0008731344, 0.0015703462, -0.0026396415, -0.0024779956, 0.00087845436, -0.0019421455, 0.0014926316, 0.00018285553, -0.00031883892, 0.002125867, 0.0010398244, -0.00030599377, 0.003111564, 0.0002435071, -0.0007483645, -0.00026462425, -0.0007387345, 0.0032957331, -0.0009881164, -0.00012097374, 0.0016348832, 0.0009818001, -0.0021455188, 0.0006187009, -0.0018156694, 0.0023903407, 0.001776345, 0.0010408976, -0.0002830588, -0.00021687226, -0.0005216715};
float bias_2[] = {-0.014992093, -0.3209082, -0.100880064, -0.22317466, -0.118834026, -0.043465495, 0.18788908, -0.16191386, -0.7358334, -0.048289888, -0.4392177, 0.49392352, 0.45729226, -0.3152694, -0.22068602, -0.071769044, -0.15159571, 0.77022314, 0.30106837, -0.045894872, -0.49814183, -0.14478211, -0.0795625, -0.2163658, -0.3682109, 0.45892975, 1.0007478, -0.021235753, -0.05397655, -0.32732192, -0.014041337, -0.20340072, -0.13572563, -0.043539, 1.1040759, 0.03279791, -0.16464567, -0.0296059, -0.07821829, -0.11935602};
float weight_3[] = {0.0005205166, 0.0005336896, 0.0018827195, 0.40561175, -5.495583e-05, 0.00311446, -0.38893238, -0.0007382479, -0.0012769334, 0.00046246208, -0.0004366576, 0.3380337, -2.2441149, -0.0047140066, -0.00011806452, -0.0028446729, -0.0002096091, 1.3142381, -0.69773173, -5.2348245e-05, -0.00068643526, -0.0006028683, 0.0017751072, -5.3346157e-05, 0.00096206035, -0.46283677, -0.6959339, 0.0021732827, 0.002055805, 0.0025925245, 1.4091189, -0.00052708125, -0.0033020494, 0.0017644061, 2.002456, 0.20307945, -0.0009787822, -0.00071726704, -0.00111246, -0.00046968355, 0.0012360204, 9.975207e-05, -0.0003252935, 0.6675132, -0.0017449539, 0.00045823993, -1.8801131, -0.0010654108, -3.5037607e-05, 0.00091050466, -0.0004926749, 0.21669222, -1.3470432, 0.000596129, -0.0012885581, 0.0010011866, -0.00054887467, -0.01615546, -0.6980709, -0.00061978487, 0.001652316, -0.0025887694, -0.0005542406, -0.003302507, 0.0005987823, 1.6591789, -1.3388029, 0.0025541745, -0.00018178625, -8.085609e-05, -0.3872275, -0.0019323142, -0.0012965, 0.00025917945, 0.9395506, 2.6236608, -0.000663683, 0.0023665116, 0.0021056314, 0.0012977406, 0.0005857668, 0.0007821354, 0.0015969117, 1.1198097, 0.00068419427, -0.0006587258, 2.6079829, -0.0025559985, 0.001188186, 0.00087159884, 0.00045096996, -0.5094786, -1.4538813, -0.0010908803, 0.0009792483, -0.0007579868, -0.00022094819, -1.1838961, -0.70121306, 0.00076049415, -0.00082920765, 0.00088058505, 0.00072015886, -0.0023565257, -0.00040566706, -0.6164434, -0.8820688, -0.00051904575, 0.0033841317, -0.00064795587, -0.1877668, -0.00045881246, -0.0004605403, -0.0012964581, 1.9948094, 0.13903765, 0.0002759779, -0.0014345625, 0.00091091194, -0.00094448467};
float bias_3[] = {0.63385195, 0.63333887, 0.6365605};
