float weight_1[] = {0.0005979512, -7.8575053, 0.0006358711, -0.00045833678, 0.0023815716, 0.00059939426, -0.003121641, 0.002562848, 0.002175603, 0.898849, -1.5288961, 0.8250952, -0.002064394, -0.0003575494, 0.00017699436, 0.0014908579, 0.0002895848, -0.0011951547, -1.2165442, -0.07060735, 2.030743, -0.00088108535, 0.0025573722, 0.00022411958, 0.00011671014, 6.132369e-05, 0.00031079247, 0.0007571252, -0.0025013196, 0.002468933, 0.0019386288, -0.0009908587, 0.0024154899, -0.9735216, -0.5043864, 0.012259584, -0.0010332897, -0.0015092868, -0.00074996485, -0.00279052, 0.0008645142, -0.00031385207, -0.00078160944, 0.0005998951, -0.00067430496, 0.0041773794, -0.0013260931, 0.00068061467, -0.0011563224, -0.00082443765, 0.0012741117, -1.9089503, -0.04438967, 0.19073726, -0.4577153, -0.9970422, -0.030774323, 0.00012661773, -0.002325112, -0.0015088589, 0.12878074, 0.8207363, 0.17421295, -0.001299729, -0.0015575507, -0.0021589322, 0.00066693744, 0.0012947071, 0.0032993206, 0.00055630825, 0.0008285108, 0.0011011771, 0.004368729, 0.0026285206, 0.00070700713, 0.79589295, 1.1735566, -1.6492712, 0.0011913774, 0.0007480612, 0.0015896801, -2.3852503, 0.58282083, 0.7966907, 0.0006271621, -0.0012516087, 0.0005349273, -1.1175065, -0.3568648, 1.2679482, -0.0002082035, 0.0032839123, -0.0012555008, 0.00074426044, 6.19801e-06, 0.0011774971, -0.0031142235, -0.0012579507, 0.0009798132, 0.00043807668, 0.0004763652, 0.0003133178, 0.0019375834, -0.00063550944, 0.0013248111, -0.20733607, 1.437102, -1.659166, -0.000602599, -0.0004619175, 0.0013185628, 0.06357702, -1.4904602, 0.9176896, 0.34538293, 0.7244615, 0.47085556, 0.0005190037, 0.001363347, 0.0013434514};
float bias_1[] = {0.17816107, -0.18143857, -0.21750215, 0.23523268, -0.38309148, -0.01205867, -0.6776442, -0.13718739, -0.54272187, -0.5138632, -0.07425536, 0.5059683, -0.64891434, -0.055349547, -0.44276273, -0.058971666, -0.21092287, 1.2922599, 1.4246738, -0.18422967, -1.0572929, -0.16228603, -0.60574, -0.10700256, -0.09564479, -0.20280705, -0.18189985, -0.057254013, -0.38916698, 0.061209127, -0.90659326, -0.16815251, -0.51122814, -0.40484172, -0.1177545, 0.36978862, -0.0054279594, 0.6000709, -0.8152253, -0.5469065};
float weight_2[] = {0.0010220705, 0.00076369394, -0.00047044765, 0.00024380826, -0.0006518284, -0.00080914266, 0.0011641907, 0.0008952676, 0.00069208234, -0.0008469858, -0.0022389516, -7.329404e-05, 0.00014268607, 0.00074201287, -8.3411e-06, 0.00092938956, -0.000748671, 0.0023090148, 0.0007784502, 0.0010352866, 0.00039628704, -0.00048110797, -0.0021737681, -0.0007633745, 0.00020698202, 0.00032967236, 0.0013702239, 0.0014289283, 0.0015124639, -0.00049654266, -0.002313798, -0.0013649011, -0.00092741096, 3.3867705e-05, 0.0011478803, -0.00072056823, 0.0016978045, 0.000719644, 2.7959584e-05, -0.0011421518, -0.0015461149, -0.0010750873, 0.0013247915, -0.0016378661, 0.0011810063, 0.00063669414, 0.00040435028, 0.00025568754, -0.0015508864, -0.003210037, -0.001291443, -0.0009167158, 0.00020246062, -0.0005463539, -0.00076460466, -2.3838482e-05, 0.00032634242, 0.0019415772, 5.6222983e-05, 0.0014385942, 0.002530451, -0.00086325913, 0.0008553986, -0.00061267347, -5.5511366e-05, 0.0013815765, 0.00027624378, 9.8160584e-05, -0.001617268, 0.00011354784, 0.00042106825, -0.0011283195, -0.0006520135, -0.0007930621, 0.0017694419, 0.0006269581, -0.0003931161, -0.0018161979, -0.0014905201, -0.0001779655, 0.16363318, 0.001289664, -0.000479177, -0.5009224, -0.0013201643, 7.974729e-05, 3.035883, -0.0012913285, -0.00024569617, 0.00064584566, 0.0006422397, -0.52319133, -0.00020450848, -0.0005985624, 0.0013164926, -4.1560503e-05, 0.002166748, 0.9969312, -0.06652347, 0.0010090397, -0.0014804443, 0.0003013711, 0.00020696304, -1.593068e-05, 0.00046174927, 0.049615946, 0.0021931285, -0.51539934, -0.0031296262, 1.2553779, -0.0047511538, 0.0015030121, -0.0009844423, 0.0011897533, -0.0007414486, -0.45285314, 0.0011586547, 0.111466184, -5.8477345, -0.00085587805, -1.6367405e-05, 0.0012755181, 0.00041539804, -0.8477289, -0.0010390566, 0.002699959, -1.986037, -0.00021453007, 0.00045350107, 0.0007500155, 0.003297688, 0.0009167264, -0.0006388055, -0.00045602163, 0.0005304521, 0.00072996225, 0.00046263548, -3.3921885, 1.3834913, 0.0011484874, 0.00082509173, -0.00028137016, -0.00042217868, -0.0006828556, 0.0014758982, 2.2126958, -0.004417975, 0.0024631629, -0.00042580324, -0.00033418543, 0.00026569382, 0.0011204199, 0.0021535924, 0.0010018782, 0.0012755592, 3.1380675, 0.00029549235, -0.65716857, -0.37095845, 0.0006171044, 0.00012075878, 0.003401571, -0.0006826277, 0.0007984674, -0.0018122355, -0.0024155262, 0.00022387487, -0.0013004427, 0.0014008243, 0.0005352261, -0.0013596148, -0.002447799, 0.0009374548, -0.0006813169, 0.0013513598, -0.00026494754, -0.00094610965, 0.0012671766, 0.0004622995, 0.0009902724, -0.0024689133, 0.0007212028, -0.0013436462, 0.0022170397, 0.0020913677, -0.0010702214, -0.00034065847, 0.000626112, 0.0019025239, 0.00086636, -0.004278822, 0.0008008686, -0.00029957038, 0.0002241251, -0.0008487391, 0.00246971, 0.00020423916, -0.00070144294, 0.0024714242, 0.0008516597, 0.0009817382, -0.002468713, 0.0013086968, 0.002385373, -0.00019877485, -0.00065113476, 0.0008827916, -0.00069977756, -0.00069412164, 0.0017614098, -0.0015951436, -0.0042597083, 0.0014535955, -0.0002736128, 1.2913719e-05, -0.00090520474, -0.0012638159, -0.0011904631, 0.00023916029, 0.00043215253, -0.0010976796, 0.0005862552, -0.00068371714, 0.0003512684, -0.000593073, -0.00016745628, 0.00042816496, 0.0016495775, -0.0011104417, -0.0009764445, 0.0023349016, 0.00061891146, -0.00017143204, 4.8583548e-05, 0.0021498518, 0.00026648026, -0.00044300675, 0.0007591811, -0.0017372759, -0.00036985322, -0.0011966564, 0.0014401169, -0.0021756575, -0.7614183, -0.00042436764, 0.00058853056, -2.9682882, -0.0012410851, -0.00097274693, 0.0006108693, -0.00022626645, -0.02036295, -2.1500251e-05, -0.0014449833, 0.00056363177, 0.0028489672, -0.0017705042, 1.3002608, 0.65420777, -2.251086e-05, -2.7663965, 0.0031101876, 0.0021606656, -0.0008509817, -0.0013177795, 1.9377558, 0.00095032586, 0.47865582, -0.0005470637, -0.0019038655, -0.001372806, -0.0012485951, 0.0018202214, 0.006544573, -0.0011328674, -6.7192206, -0.0016224486, -1.1659644, 0.25269827, -0.0017870547, 0.00311343, 0.0012962122, 0.0012873531, 0.00013886142, -0.0034258044, 0.0010463444, 0.00028593224, -0.00074497215, 0.00078707165, 0.0018582873, -0.0005238012, -0.00020397926, 0.0005799538, -0.0011940729, -4.1368985e-05, 0.0010412198, 0.0017705783, 0.0019418761, -0.0012884265, 0.00055251713, -8.274813e-05, -0.00176946, 0.001253778, -0.0025883298, -0.000368584, -0.0014495982, 0.00081217755, -0.0005627136, -9.631117e-05, 0.00047872137, -0.00019471097, -0.0012938182, 0.0005631156, 5.923069e-05, 0.0007432118, 0.00019062782, -0.002474518, 0.0010616323, -0.000887599, 0.0027619342, 0.0008920137, 0.0010388483, -0.0024207782, -0.00060722, -0.0022866242, -0.0025984065, -0.0002749837, 0.00041525267, -0.001416781, 0.0016584888, 0.0004893826, -0.0018230695, -0.0019325316, 0.0004727667, -0.0012731327, -0.0005734215, -0.0006880616, -9.987992e-05, 8.583146e-05, 0.0010983113, 1.5817728e-05, 0.0015381735, -0.00069972273, 0.0012351986, -0.00063012005, 0.0015166954, 0.00016205607, 0.0021844262, -0.00038372586, -0.0015734683, -0.004366753, 0.0032676517, -0.002736907, -0.0007533723, 0.0023008962, -0.00022815741, -0.0007659808, 0.0012887879, -0.0034454293, 0.00012438076, -0.00029427768, 0.0022065504, -0.0005195919, -0.0005558199, 0.0030932685, 0.0031136153, -0.000796322, -0.0020741303, 2.3650937e-05, -0.0017321093, -0.0024963971, -0.0025520134, -0.00049395196, -0.00054303976, -0.0009992939, -0.00022326293, 0.0015777809, 0.000652936, 0.0011160183, -0.00086702534, 0.00086027343, 0.001360428, 0.001870254, -7.843232e-05, 0.004728883, -0.00085103704, 0.0001996758, 0.0017692463, -0.0026199538, -0.002485683, -0.0015548762, 0.001043785, 0.00067407684, -0.0023192293, 0.00065560977, -0.00073280506, 0.0016750703, -0.0023557034, -0.00016616721, 0.00066080154, 5.197819e-05, 0.00021231972, 0.000110074936, -0.0001749632, -0.0003480236, 0.0013134873, 0.00015484582, -0.00062869646, 0.0011935568, -0.0009796271, 0.00022211531, 0.0006456389, -0.00085342507, 0.0016876891, 0.00080630655, -0.00089498446, 4.5425055e-05, -0.0006074045, -0.00043085904, 0.0013044896, -0.00089904794, -0.001575045, -0.0008164579, -0.0017479653, -0.00096756755, 0.0008804373, 0.00019175047, 0.0007103005, -0.00097216235, 0.0026199191, 0.0013581614, 0.0007983985, 0.0031239856, -0.0017890539, 0.001204593, -0.0005829971, 0.0003175749, -0.00138671, -0.000312732, -0.0010805246, 0.9597213, -0.00058357796, -0.0014350704, -2.9910865, 0.0020097503, 9.343047e-05, -2.9571147, -0.0016239008, -0.0004298961, -3.894139e-05, -0.0024739373, 0.19305766, -0.00027985862, -0.0007825805, -0.0017817408, -0.0018108432, -0.002022576, -0.16212462, 1.1383232, 0.000630943, -0.0005415329, 0.0014515335, 0.0016791865, 0.0005053915, -0.0012879294, -0.0015263482, -0.000246173, 0.15166703, 0.000108403845, -0.88647366, 0.0023399626, 0.0004970629, -0.0019489314, -0.0025425875, 0.00064634334, 0.99114734, 0.0008220938, -0.74268764, 0.00091101654, -0.00047399424, 0.0017321378, 0.0006010597, -0.00088286743, -0.0017925268, 0.0007845327, 0.0007636269, -0.0005185358, -0.00039568671, -0.0007588049, -0.002924656, -0.001939372, 0.0008210171, -0.0021304104, -0.00037945432, -0.0026469408, -0.0004471662, -0.0006774179, 0.0010024995, 0.0012806412, 0.00048578705, -0.0008789717, 0.0006678411, 0.0012946426, -0.0012322089, 0.00050197926, 0.001201198, 0.0038964264, 0.00067307614, 0.00019113545, -0.0016308718, -0.0006743529, 0.0002239481, 0.000975387, 0.0009647296, 0.0012759853, -0.0024374404, -4.981694e-05, -0.0005072463, -0.0012956624, 0.0012958376, -0.0008209693, -0.0001863221, -0.00075189315, 0.00019106473, -0.00035199174, -0.00069422595, -9.010454e-05, 0.002219506, 0.00043350458, -0.0015920969, -0.00038074193, -0.0005983458, -0.0030552705, 0.00032029115, 0.0032462243, -0.0011635639, -0.00011975807, -0.00035590702, -0.0008777133, 0.0013344612, 0.0005809426, -0.00061626703, 0.002054824, -0.00079122494, 0.004209665, 0.00035555047, -0.001652078, -0.00077295874, -0.000752817, 0.00018930195, 0.0013666444, 0.0006304156, -0.0025323657, -0.0011446263, 0.0019853641, 0.0018265018, -0.00030719955, 0.00070333894, 0.0005310228, -0.0020373622, 0.001079866, -0.00032453611, 0.00086127216, 0.0020723012, -0.0014641157, 0.0003897298, 0.0010135573, -0.0014000991, -0.0023456765, 0.0011628016, -0.0009942212, -0.00021051327, -0.0024700859, 0.00026743073, -0.0012766712, 0.0012575248, 0.00046267512, -0.00040011993, -0.00014694646, 0.00036221353, -0.0010923495, -0.0021582325, 0.0006706104, 0.00094825204, -0.00011174253, 0.000387331, 0.0032342244, 0.00068560033, 0.0010246241, 0.0010467377, -0.0003540482, 0.000940274, -0.00330232, 0.0020299596, -0.0004622353, 0.00075022725, -0.0021652316, -0.00041554417, 5.275215e-06, -0.0018184753, -0.0025036503, -0.0011141221, -0.00088316685, 0.0013733525, -0.0006408775, -0.0008921425, 0.001633841, 0.00064644415, -0.00209849, -2.663891e-05, 0.0032962328, 0.0028475767, -0.00069787295, 0.0006361223, -0.0007781114, 0.0033018147, 0.0024833707, -0.0013097812, 0.001266906, 0.0026607648, 0.0019411513, -0.0011304846, 0.0012462621, -0.0005386798, -0.000861438, -0.0006454761, 0.000582264, 0.00066965114, 5.487376e-05, -0.0021583615, -0.0014479873, 0.0003922796, 0.0012979152, -0.00052032655, 0.00073738734, 0.00060096354, -0.0013158672, 0.0018059957, -0.0025626249, -0.0014037266, -0.00023053458, 0.0025546513, -0.0010625646, 0.0007191335, 0.0007054327, 0.00016314437, 0.000677077, 0.0002884153, -0.00086370343, -0.0013853045, -0.0005865213, -0.0004986368, 0.0024655298, -0.0010473063, 0.0013147421, 0.0007992228, -0.0030824353, 0.00017309492, -0.0013959728, 0.00037250796, 0.00020196947, 0.00021775329, 0.004761834, 0.0038767087, -0.00029885073, 0.00089489244, 0.0010073504, 0.002589027, -0.0015790975, 0.00076814916, 0.0011170455, 0.00015147089, -0.002187019, -0.0011429692, -0.0031129252, 0.0013802729, -0.0015050813, 0.0019448256, 0.002464326, 0.0007945176, 0.0012890546, 0.0018497737, -0.0005243926, 0.0010977031, 2.996996e-05, 0.0007426139, -0.00044263544, -0.0014735458, -0.00084160274, 9.395546e-06, 0.0016051814, -0.0008894926, 0.00034387488, 0.00061912934, -0.0005958691, 0.0024186932, -0.00014932256, 0.0010225207, -0.0005744446, 0.0021454468, -0.00015259703, -0.00092346047, -5.730253e-07, 5.8967387e-05, -0.0026347206, 0.0018046518, 0.002196202, -0.0018101359, 0.0010106249, -0.0012456088, 0.0032947706, 0.0011526275, -0.0021696244, 0.0008235707, -0.0012827362, 0.0020135005, -0.0011901595, -4.2621614e-05, 0.00072752684, -0.0002658626, 8.927603e-05, 0.0015188536, 0.00075791625, 0.00014919793, 0.00046741986, -0.0006853559, -0.001066556, 0.0012776277, 0.0025306772, 0.0015662853, 0.00014874409, 0.00058999116, 0.0005971903, 0.00086042506, -3.258133e-05, -0.0019451258, 2.3433007e-05, 0.0010466375, 0.0024679955, 0.0003761059, 0.00064579217, 0.0047489903, 0.00076534983, 0.0005521111, -0.0009050382, -0.0021699963, 0.0061129984, -0.0019425392, -5.0569215e-05, 0.00087869883, -0.00013612205, 0.0008683404, -0.0006529676, -0.0037749792, -0.000118389085, 0.0004795438, 0.00060978497, 0.00030268286, 0.0016538927, -0.0010541952, -0.0011130471, -0.00086762983, -0.0015120084, -0.0012720078, 0.00035669145, -0.0010639596, -0.00044605846, -2.0284846e-05, 0.00014672382, 0.0014336639, -0.0010643661, 8.3108316e-05, -0.0010217086, -2.0019768e-05, -0.002898493, 0.0018860999, 0.00032279314, 0.0012929017, 0.001165739, -0.0014618583, -0.00073737337, 0.0012968689, 0.00015630451, 0.0012223647, -0.0026057367, -0.00064070505, -0.0016303668, -0.0005087824, 0.0032566334, 0.0012934445, 0.0004118113, 0.0024461222, 0.0031149378, 0.0008736154, 0.001130158, 0.001334741, -0.0024836808, -0.0023990618, -0.001299608, -0.0021753132, -0.00038791817, 0.0015580382, -0.0007878371, -0.0005532034, 0.0013501726, 0.002599252, 0.0025179451, -0.0019975621, -0.0028345156, 0.0011716265, -2.2573513e-05, 0.00043719675, 0.0010284935, -0.00101203, 0.0003850334, -0.000591089, -4.387705e-05, -0.0012313201, 0.0010391404, 2.5895428e-05, 8.119707e-06, -0.0021271924, -0.0038176859, 0.0006391727, -0.00023164856, -8.774028e-05, 0.0012022399, 0.0018266734, -0.0024157315, 0.0015582934, -0.0014104026, -0.0013826499, 0.000973857, -0.001970518, -0.0007852274, 0.00020639366, 0.0022448134, 0.0012448741, -0.00096520345, 0.0017509862, -0.0017208623, 0.0012900439, 0.00065467146, -0.00071965, 0.001807591, 0.0013156885, -0.001111109, 0.00048241127, 0.0012504471, 0.0013811828, 0.0009370783, -0.00032814022, 0.0013744031, -0.0017706333, 0.00070131145, -0.0011321091, 0.0005766463, -9.9358964e-05, -0.0023809653, -0.0010159062, 0.0002264001, -0.0013042323, -0.0006544848, -0.0017372137, -0.00017765863, 0.0012988755, 0.00083884905, 0.0012044631, 0.0013211978, -0.0024719392, 0.0017839653, -0.00053051393, 0.0021593492, 0.0008218434, -0.0019408931, 0.00055036665, 0.00011700258, 0.0019298677, -0.0012380346, 0.0017439518, -2.4024382, 8.3062216e-05, -0.00022725062, -0.22687078, 0.0007488081, -9.399508e-05, 0.22696494, 0.0021419139, 0.002434535, -0.0043016914, 0.001087164, 0.2508509, -0.001914791, 0.003432257, -0.0003020675, -0.0013252114, -0.001565282, 0.7124505, 0.6550623, -0.0020902522, -0.0027628136, 0.0007603435, -0.001288111, 0.00069733686, 0.0015496965, -0.004213631, -0.0006487687, 0.95063406, -2.9640476e-05, 0.45876342, 0.0011367936, -0.000107098895, 0.003127689, -0.0007572384, -0.00068429246, -0.72629005, 0.0011349501, -0.014912019, -1.8513852, -0.0008698839, -0.0002912192, 0.00064832077, -6.2393316e-05, -1.1153644, -0.0010563877, -0.00044742145, -0.058259476, -0.00061244523, 0.0037888326, -0.0009814885, -0.0047659106, -1.2468795, -0.0013948875, -0.0006035175, 0.0019212548, 0.0021596672, 0.0014063301, -0.5283506, 0.4154132, 0.0007821601, 0.0011480787, 0.0010728324, -0.00093334436, 0.0031179492, 0.0017925019, 0.2016665, -0.0007882959, -0.1771496, -0.0037810588, -0.9260758, 0.0012247043, 0.0031252892, 0.0024425725, 9.4490126e-05, 0.0012760623, 2.6497724, 0.0014132217, -0.5694989, 9.039598e-05, 0.00046577083, 0.00038389582, 0.0025242334, 0.00050168333, 0.0023187045, 3.7419173e-05, 0.00072855083, 0.0005277458, 0.0026470213, 0.0017645092, -0.0015214558, 0.0003260972, 0.00097045174, 0.00028089352, 0.0012128965, -0.000100676145, 0.00039269362, 0.0013280066, -0.0037558395, -0.002380124, 0.00050370675, 0.0006561059, 0.0018086442, -0.00035645103, -7.8280806e-05, 0.0014293053, -0.0006552159, 0.0024661962, 0.0011967989, 0.0047496147, 0.00017380668, 0.0019843508, -0.00032720715, 0.00014548344, -0.0027627707, 0.0015320985, 0.0016399622, 0.00016038632, 0.0014388042, -0.0036290623, -0.0032424922, 0.00028203754, -0.00055115856, -0.0021379783, -0.84843147, 0.0011811086, -0.00013677072, -1.8816899, -0.0006755804, -0.0006510191, 0.001510436, -0.00074873667, -0.8675746, -0.0019313375, -0.0009870293, -0.00017706229, 0.0016568517, -0.0007707784, 0.5664984, -0.062464405, -0.0017676332, -0.85121816, 0.0007539765, -0.00084666256, 0.0020480473, -0.00282261, 0.18950172, -0.0003635245, -0.6980901, 0.003994936, -1.0758829, 0.000712711, -0.0007002336, -0.0005978725, -0.002109237, 0.002010329, 0.07727693, 0.00060138956, -0.9288431, 0.22548436, -0.0005147325, -0.014275167, -0.0006724042, -0.0014307876, -0.16654435, -0.003611692, -6.6164594e-06, -3.4076324, 0.0006290289, -0.0016943406, 0.00015842132, -0.00010142388, -0.6270485, 0.0024935384, -0.0021661562, 0.00065284746, 0.0007913709, -0.0010949558, 0.94254464, 0.07962548, 0.0006627174, 0.000830685, 0.0018083752, 0.00013376895, 3.2527954e-05, 0.0011588868, 2.265238, 0.0011938948, -0.1683996, -0.0013111765, -0.17130835, 0.00034790335, -0.0020123604, 0.00022315915, -0.00073522155, -0.00034924533, 1.917924, 0.0015587094, -0.8753406, -0.55208206, 0.0026578791, 0.63918287, -0.00022642431, 0.0006622513, -0.66098416, 0.0013184549, -2.4992394e-05, -5.807191, 0.00078661693, -2.958381e-05, 0.0016892833, 0.0013069907, -0.48154163, -0.0026586864, -0.0006596664, -0.0017807266, -0.0006403019, -0.002852106, -0.27639762, 0.5252813, 0.0010894944, 0.27007842, 0.0017130733, -0.0016450963, 0.0005637981, -4.2317843e-05, 2.7147868, 0.00026459398, -0.21194115, 0.00085527566, -0.10250212, -0.0020755543, 0.0013542844, 0.00057611446, -0.0013362726, -0.00180848, 2.4274297, 0.0019426108, -1.3714399, 0.2952206, 0.0017439135, -0.0014651511, -0.00047518444, 0.0019445639, 0.0014004122, -0.0015331429, 0.0004539887, -0.0015277469, 0.0020773192, 0.0017634047, -0.0032930719, 0.00086604076, -0.00066480314, 4.654532e-06, 0.0005566717, -0.00083659985, 0.001296771, -0.0018571587, -0.0010475535, 8.36245e-05, 0.0018862311, -0.0015065963, 0.0005952401, -0.00029663206, 0.0016133778, 0.0006827616, -0.000617349, -0.00104309, -0.0019128245, -0.0009108623, 0.00030600617, -0.0005115061, 0.0012679346, -0.0009449708, 0.00078858866, -0.0012602173, -0.002579107, 0.0012685454, 0.0006823346, -0.0012056438, 0.00041666828, -0.45977432, -0.0011406905, 0.0006486788, -1.4453365, 0.00079844194, 0.00012976062, 0.4117834, 0.002804496, -0.00026966864, 1.0877324e-05, -0.0016296537, 0.30650347, 0.00070305885, 0.0013978556, 0.0017862293, 0.00065118604, -0.0028570234, -2.1054926, 2.7705755, 0.00021776679, 2.2090535, -0.0014562644, -0.00071522634, -0.003416521, 0.00078000035, 2.4995883, 0.00047315104, -0.97144216, 0.00021363518, 1.2889352, -0.00045914308, -0.0019303234, -0.0007604313, -0.003785045, -0.003111153, -1.6524796, -0.0008045182, -0.9097706, 0.8348913, 0.0017021218, 0.0016225039, -0.0013461743, -0.0008879094, 0.004282672, 0.0012715063, -0.0005607689, -0.00013737753, 0.0015777805, 0.0013133615, 0.0011505494, -0.0011670478, -0.0013922728, 0.00049837114, -0.00084542925, 0.00019064499, -0.002471163, 0.0039643776, -1.5992555e-06, -0.0013909261, -0.0005327058, -0.0014585995, -0.00195891, -0.0019894582, 0.0013066782, -0.00091746595, -0.0012996162, -0.0013486001, -0.000975821, -9.4743096e-05, 5.793391e-05, -0.00094753946, -5.6774297e-06, -0.001072811, 0.00087806873, 0.0020100072, 0.00025220506, -0.0009397301, -0.0018111743, -0.0010135127, 4.251008e-05, 0.0041375887, 0.0011482572, 0.002858707, -0.0041633323, -0.00022979337, -0.0022655444, 0.00065366615, -0.0028163453, 0.00018662319, 0.0012386304, -0.0009833606, 1.7807819e-05, -0.0005277146, -2.7062575e-05, 0.00032277114, -0.0017454213, -0.0011941483, -0.0007876441, -0.0021993348, -0.00042534646, 0.0022526216, -0.00080750673, -0.0009133785, -8.592778e-05, -0.0011884273, 0.002184265, -0.003925124, 0.0027980004, -0.000722163, -0.0009404528, -0.000873362, -2.4071138e-05, -0.0015698224, 0.0008951903, 0.000711333, 0.00041157543, 0.002316987, 0.00011903615, 0.0017021585, -0.0016487062, 0.0011284723, -0.0007403429, -0.0012196896, -0.0012290895, 0.0020790515, 0.0028576434, -0.0004402341, 0.0005431111, 0.0017408847, 0.00067171035, 0.00032204203, -0.0018877062, 0.001308044, 0.0005217026, -0.0033114734, -0.0008808157, -0.002058666, 0.0023430213, 0.0024895486, 0.0022384922, 0.0007452046, -0.0014509929, -0.00058669853, -0.0012546339, -0.00048510073, -0.00066660036, 0.0015711018, -0.002009873, 0.0013697344, 0.000647586, -0.00030439277, 0.0004372694, -0.0018057699, 0.0021879126, 0.0002849339, 0.00073717313, -0.0024602842, 0.0041540666, -0.0025823447, 0.0013815043, 0.0024569072, 0.0020010553, -0.0020288222, 0.0018968269, 0.0020488226, -0.001097118, -0.0018284112, -0.0032993709, 0.002167521, -0.00046207377, 0.0019079486, 0.00065632485, 0.00064905203, -0.0001146954, -0.001228001, -0.0033003031, 0.00027944942, 7.053303e-05, -0.0010639381, -0.0008887651, -0.0028568518, -0.0006820851, 0.0019506036, 0.0016624188, 0.0011893956, -0.0018113741, 0.0037103686, 0.0011312378, 0.002879229, -0.002857539, 0.0014296194, -0.00031425618, -0.0012879306, -0.00059657596, 0.00026492443, -0.0021806408, 9.241196e-05, 0.0012206449, -0.0015718181, -0.0004384236, -0.0012129175, 0.002162472, -0.000103051425, 0.0007414165, 0.00020035396, -0.0029124739, 0.000830248, 0.00016193977, 0.002345285, 0.0019769543, 0.0008631194, 0.0004201584, -0.0011409506, 0.0009324797, -0.00067870313, 0.00066228764, 0.00058739126, 0.00077974104, -0.0021035718, -0.0005491952, 0.00075750204, 0.00047587385, -0.0015684494, -0.0017131683, -0.003873255, -0.002307437, -0.00022212649, -0.00021773862, -0.0015221813, 0.0011161868, 0.00010841424, 0.0012778201, 0.0021573915, 0.0030072567, 0.0012754861, 0.00054914376, -0.000757783, 0.0013076381, 0.0014512849, -0.0018135048, -0.0003260182, 0.0015281045, -0.0001619815, 0.0013594155, 0.0024081597, 0.0010678179, -9.043689e-05, 0.0013776948, -0.00048958324, -0.0023882538, -0.001784422, -0.00052181474, -1.0677613e-06, -0.0009561873, 0.00069970125, 0.0012948172, -0.0042251325, 0.0004429872, 0.0021594781, -0.0015712623, 0.0005960999, -0.0003607768, -0.0015212789, -0.003115843, -0.0018550819, 0.0015568912, -7.3020405e-05, -0.00037647586, -0.0011603634, 0.00040867785, 0.0025705835, -0.0013885878, -0.0010364458, -0.0025138138, 0.0007452249, 0.0006023301, 0.0004937594, -0.0021327124, 3.4819823e-07, 0.0018696054, -0.00031265296, 0.0019443167, 0.00027301745, -1.2513866, 0.0010288064, 0.00054148526, 1.0471512, 0.0013323613, 0.0015655274, -0.00032177125, -0.00045819452, 1.5456135e-05, 0.001450317, 0.0010227973, -8.579547e-05, 0.00047222083, 0.00082241977, 3.3460637e-06, 0.49034458, 0.0013201792, 1.4772372, 0.0033015301, 0.001200929, 0.00038918643, -0.00052364066, 1.7287545, -0.0033325846, -0.0009434519, -0.0009265872, 3.3234945e-05, -0.0002463495, 0.0015477368, 0.0032933168, 0.0015815266, 0.00022691977, -7.719512e-05, -0.00014315691, -1.576721, 0.7342964, 0.0009179581, -0.00076712016, -0.0009641633, 0.0003108289, 0.0022780672, -0.0014098737, -0.0026564088, 0.0013651334, 0.0016798843, 0.00016166829, 0.00086872187, 0.0011382286, 0.002014053, -0.0007889783, -4.2665168e-05, -0.00086659397, -0.00089743675, 0.0015116588, 0.0004201076, 0.0004106584, 0.0006551542, -0.0012761321, -0.0002649357, 0.000848369, 0.000984478, 0.00055345224, -0.0006996002, 0.00019484712, -0.0007808646, -0.0006712244, 0.0029061178, -6.162265e-05, -0.0012447018, 0.0021859934, -0.0007843869, -0.0011541531, 0.0016680256, 0.0018643106, -0.0005115268, -0.0014297304, 0.0012309345, 0.00018032128, -6.1722996e-05, -0.00062163296, -0.0005380359, 7.95874e-05, -0.0015061798, 0.0005159084, 0.00046686124, 0.00074750383, 0.0027456083, 0.001086679, -0.0005519192, -0.0014199957, 0.0010992652, -0.00045803713, -0.001622257, 0.00134861, -0.0007274952, 0.00049746886, 0.00029778387, -0.0009526235, 0.0024617077, 0.0019844975, 0.0019917537, 0.0008443066, 0.0017047198, -0.00015390618, -0.0020670516, -0.00034961832, 0.0004943239, -0.0011165958, -0.0008749032, -0.00024047727, 0.0020974372, -0.001273743, -0.00023413484, -0.00060714583, -0.0008286426, -0.0011333353, 0.00024749196, -0.0011421934, -0.0013419172, 0.00011758163, 0.00061648904, -0.0031146281, 0.0006785226, 0.0031311149, -0.0007948321, -0.0008577194, -0.0013836179, -0.0005990175, 0.0019384992, -0.0008183658, 0.0012046362, -0.0019090318, 0.002435935, -0.001082414, 0.0012878248, -0.00046341086, 0.00061533914, -0.0018352717, 0.0010359216, 0.00067128194, 0.0020076507, 0.0019834582, -0.000981599, -0.00097345264, 0.0012990454, -0.0010120567, 6.3585554e-05, 0.0017095772, -0.0031845248, -0.0021307208, -0.0015728312, -0.0013083898, 0.0026886568, 0.0005366404, 0.00078326464, -0.002483496, 0.0014947869};
float bias_2[] = {-0.15321442, -0.05252051, 0.24669962, 0.002396139, -0.044034578, -0.120167725, 0.46457648, -0.13763468, -0.14224075, -0.0054655923, -0.52689886, -0.111571744, -0.121509716, -0.07790719, -0.52061146, -0.30371657, -0.18716083, -0.063975304, -0.080159396, -0.09278351, -0.12883672, -0.012222182, -0.24861026, 0.120308906, -0.13842744, 0.45641863, -0.08241055, 0.053188737, -0.034338336, 0.084654495, -0.017498638, -0.14727946, -0.6017488, -0.11515115, -0.018295396, -0.03494464, -0.7982522, -0.08485275, -0.048528455, -0.13331138};
float weight_3[] = {-0.0020505656, -0.0019276721, -0.08596677, 2.1326234, 0.0008814334, 9.210885e-05, 2.7888143, 0.0012925852, 0.000708472, 0.0004721914, -0.0002540617, 1.6261891, 0.0016491303, -0.00056591665, -0.002931712, -0.00010372146, 0.0012978233, -0.00041474376, -0.0010710726, -0.0025544204, -0.0012650304, 0.0017997609, -0.288844, 4.1073995, 0.00035800363, -1.24708, 1.8624523, -4.1628575, 0.0009810934, 3.3910668, 0.0010757418, 0.0024672402, 0.00047275575, 0.002160451, 0.00073711865, -0.0024547842, 2.5360007, 0.00011644625, -0.0013319952, 0.0018764341, 0.00026846398, 0.0005830208, 1.2666452, -0.36231676, 0.0009781047, 0.00040783416, 0.17050304, 0.0018810056, 0.0008340457, -5.887609e-05, -0.0013394343, 0.72554165, 0.0018100367, -0.0010609282, -0.0012434851, -0.0009891295, -0.0013908632, -0.0005283916, 0.0042710993, -0.00027193772, -0.00041899818, 0.0018099245, -1.1190484, 1.4043022, -0.00042775547, 1.9414556, 0.8636134, -1.9961575, -0.0019635062, 2.5338333, -0.0018100563, 0.0005304628, -0.002650821, 0.0007590846, 0.0021574148, 0.0018046007, 3.214696, -0.0026145817, -0.0008724081, -0.0001141954, -0.00032328576, 0.0017293261, 1.4202032, -3.7676504, -0.0010696962, 0.00069738575, -3.1568987, -0.00046157476, 0.0019145015, 0.0011148176, -0.00012377684, 0.11223464, 8.5457345e-05, 0.002338586, 0.0021609673, -0.00032259605, -0.0019427255, -0.001098271, 0.0012932708, -0.0007650866, 0.0002723359, -0.0007612355, -0.2860141, -2.372672, 2.978463e-05, -0.8863815, -2.2942183, 4.2627726, -0.002009189, 0.21302272, 0.0012892678, 0.0005637313, 0.0003024576, 0.0013971035, 0.0008939772, 0.0016845879, -1.7082199, 0.00054603163, 1.6606413e-05, -0.00047806778};
float bias_3[] = {-1.053861, -0.5938848, 0.6409705};
