float weight_1[] = {-0.0010066703, 0.0011729422, -0.0008953244, 0.0012864608, 0.0019380794, 0.00012332137, 0.0012446209, 0.0011477224, 0.0021480771, 0.17498285, 0.3734655, -1.7692223, -1.1263052, -0.012202711, -2.56724, -0.0012769604, -0.0021651024, -0.0005150854, 0.00012897865, 0.0004386694, 0.00059515727, 0.0010927615, 0.0004750928, -0.0011931229, -0.43490407, 0.016635228, -0.6951339, 1.3691338, -1.560327, 0.026902141, 0.00041204935, 0.00054679497, 0.0025360372, -0.0018408569, 0.003194895, 0.004704937, 0.23504303, -0.80482715, 0.33726987, 0.00022265041, 0.0009809429, -0.0025594463, 1.044595, 0.1751646, 0.6502905, -1.7059935, 0.5438951, -1.4903865, 0.0012442493, 0.00010563206, -0.0005571762, -0.000835618, 0.0016258017, 0.0013531757, 0.7500809, 0.7746199, 0.09570986, 0.6644097, -1.4020406, -1.7388409, 0.0012022222, -0.002349122, -0.0005454452, -0.00016606983, 0.0018120516, 0.00051970524, 0.0004908397, 1.6325968e-05, 0.00029632708, -1.4654899, 1.0677243, -0.020686544, 0.00010956882, -0.00053079205, 0.00015495869, -8.2766055e-05, -0.0032791728, -0.0013154815, -0.1543491, -1.8961991, 0.37586305, 0.00022209599, 0.0002313808, 0.0007510073, -0.81930035, -0.41427243, -0.008621497, 0.76774025, -0.7057937, 0.04123232, -0.16465005, -0.91843927, 0.9502072, -0.00058716466, -0.0032535405, 0.0006400642, 0.014274702, 0.50205123, 1.6924291, -2.2499762, -0.902115, 0.50205284, 0.0010663223, -0.0013108992, -0.00014073518, -0.00029811787, 0.0005580178, -0.0018300021, -0.00068264885, 0.00032743707, -0.00053772586, 0.00060055056, -0.0016568055, 0.0027124921, 0.00026959775, 2.0243911e-05, -0.0021311129, 0.0008140968, -0.00063561613, -0.002453227};
float bias_1[] = {-0.0056150095, -0.07510732, -0.18249954, 0.3433823, 0.31587714, -0.16466117, -0.001755074, -0.2543793, 0.35464558, 0.016639573, -0.3454791, -0.44360507, 0.5331981, -0.035795398, -0.7526358, 0.22847214, -0.27242836, -0.00920272, -0.7153121, 0.36648893, -0.17109838, -0.14197265, -0.10974348, -0.15406708, -0.12304893, -0.06993597, 0.6869945, -0.42122817, 0.70404285, 0.1732844, 0.42860037, -0.045502033, -1.2382154, 0.8090231, -0.005888674, -0.45528504, -0.24143288, -0.02147555, -0.46273637, -0.38584012};
float weight_2[] = {0.00063438585, -0.0012910101, 0.0030457266, -0.0013372854, -0.0016619235, -0.0008818825, -0.00014470686, 0.0017260113, -0.0008190823, 0.00075902237, -0.0047497605, -0.00082082336, 0.0007140469, -0.0007652369, -0.000612743, -0.0010793657, -0.00024944768, -0.0005333215, 0.0013026249, -0.0011356304, -0.0016206924, 0.0021557526, 5.6235003e-06, 0.0006859373, -0.00031856186, 0.0005851375, 0.00045745922, 0.0006448826, -5.8054517e-05, -0.00055596174, 0.00079938024, -0.0021792261, -0.0009691027, 0.0002170786, 0.0011724804, -0.00078821136, 0.0002626152, -0.0013680845, 0.0007379256, -0.0025527282, 0.0007032207, 0.0020063187, 0.00077232835, 0.28140748, -0.0005950204, -0.0011316491, -0.0013897996, -0.00033661778, 0.2539988, 0.0018577978, 0.001442614, -0.0020447262, 0.0001271207, -0.0018082402, 0.046774745, 0.0018561082, 0.0005106538, -0.001080337, 0.11876557, -0.09742666, 0.00094885996, -0.0028578716, -0.00091536826, -1.9719014, 0.001552132, 0.00023616935, -0.85716224, -0.0008617234, 0.37171867, -0.3388876, -0.015187496, -0.00079697696, -0.089921184, 0.33663607, 0.0006607075, 0.0006560816, 2.2726337e-05, 0.00024865044, -0.0037614899, -0.00126186, -0.0016222484, -0.0012944854, -0.00090234505, -0.001385703, 0.00014365534, 0.00067031215, -0.0018164377, -0.0019396456, -0.0014002832, 0.0018251969, -0.002167526, 6.045087e-05, 0.0011489146, 0.0021514157, -0.0017974139, -0.0018157052, 0.0013042872, -0.0014503484, -0.0015946863, -0.00030350126, 0.0015259949, -0.0006141468, 0.0013330246, 0.0012456374, 0.0009123343, 0.0006792403, -0.0020987052, 0.0005318587, 0.00012466131, 0.00024962018, -0.00022684666, -2.4906709e-05, 0.0010718587, 0.0023693228, 0.0010321093, 0.00064675865, 0.0004957131, -0.0041725617, -0.0013496166, 0.00071401475, 0.0012883072, 0.001395213, -0.0024179392, -0.000816433, -0.0010721127, 0.00053450005, 0.0008787468, -0.00028770167, -0.0012059018, 0.00091601454, -0.0007815659, -0.0024482065, -0.0020080626, -0.0009864945, -0.0025707888, -0.0013892987, 4.132255e-05, -0.00065175595, 0.0017171815, -0.0006432855, -0.0018399898, 0.0012980347, -0.00031184248, -0.0013357885, 0.0013012886, -0.0019652306, -0.0010142253, -0.0004756317, 0.0024716384, -0.000973922, 0.001943658, -0.0006619796, -8.116837e-05, 0.002475738, 0.0013975683, 0.0017952927, 0.0008965002, -0.0002217365, 0.0017663371, -0.0035999413, -0.0024752314, 0.001583822, 0.0005962951, 0.0027687903, -0.00049385574, 0.0010467402, 0.0012376255, 0.0011730872, -2.3646862e-06, -0.0008193385, 0.00054764026, -0.0004215145, -0.0012726106, -0.00066134817, -9.4651245e-05, 0.0007489669, 0.0013437553, 0.0018144097, 0.0032851684, 0.0014066664, 0.0021536688, -0.0023044741, 0.00030276302, 0.0014482563, 0.0006280714, 0.0008503268, -0.0013749994, 0.0024887482, 0.0018616397, -0.0005043518, -0.0026736169, -0.0014409327, 0.00077790965, 0.0006342639, -0.00044075298, -0.0016649765, 5.8832695e-05, -0.00023333065, -0.0037327716, -0.00010642246, 0.0005312975, -0.0009082762, 0.00082001684, 0.0010725332, -0.0023982078, 0.0028753085, 0.0013069577, -0.00082975463, -0.001680853, 0.0027110365, -0.0004774785, 0.0014705374, 0.0017962868, 0.0016136215, 0.003389694, -0.003976224, 0.0018001908, -0.0011420954, -0.0010760475, 0.0006215725, 0.0019086017, 0.0029228572, -0.0019596517, 0.0011979134, -0.0009482616, 0.0009997193, 0.0012638133, 0.0010181752, 0.000857059, 0.00097472186, -0.002413509, -0.002200927, 0.0010276046, -0.00034225968, -0.00097595947, -0.00057416817, 0.0003072312, 0.0032325946, -0.003442645, 0.0016215963, -0.0005683379, 0.0001349157, 0.0023681377, -0.0011215343, 0.0013486319, -0.0017990965, -0.00089802296, -0.0033180355, 0.00022181473, -0.00011351347, -0.0027873667, 0.0016108331, 0.00017005409, -0.00024914322, 0.0006603905, -0.00029911287, 3.581238e-05, 0.0013808021, 0.00049453136, -0.00068906124, 0.0020202226, -0.0009557834, -0.000891788, 0.0006658798, 0.003852887, 0.000625376, 0.001461791, 0.001497112, -0.0026758525, -8.6505665e-05, 0.0006710521, -0.00061440305, 0.0021217386, -0.0007413538, 0.0018676827, -0.00056155794, -0.0023224452, -0.0006339709, -0.003967681, 0.00079457584, 0.0007536317, -0.0006357121, 0.00021876642, 0.0010666407, -0.0024285293, 0.00022247207, -0.0009557293, 0.0018983466, 0.0012992584, -0.00077159377, 0.0008193197, 0.0002579663, -0.0021400773, -0.00022472572, -0.0013859707, 0.00039988436, 0.0006500145, -0.0009741837, 0.0019533692, 0.0010923652, -0.0013817946, 0.0012463627, -0.002004821, 3.699283e-05, 0.00037531008, 0.0028611962, -0.0033079574, -0.0017588215, -0.003313058, 0.0015799071, -0.0012003867, 0.0007656006, 0.0016061319, 0.0024475271, 0.0018613582, -0.00023665314, -0.0010134846, -0.0033161007, -0.0009999328, -0.0005689895, 0.0009785137, -0.00060229196, 0.0012833239, -0.0012965319, -0.0024140985, 0.0024380407, -0.0007540359, -0.0017387343, 0.0020879323, -0.0018073991, -0.00024002139, 0.0007771561, 0.00038722844, -0.0017684356, 0.00022113422, -0.0032963767, -0.0016225046, -0.00047821066, 0.0041684033, 0.0012440665, -0.0013803305, 0.0008678813, -0.0016248178, 9.495963e-05, -0.00020042364, -0.0017266455, 0.0010725283, -0.0007087546, -0.0006151215, 0.002362927, 0.002923325, 0.003299348, -0.003231355, 0.0012650451, 0.0024739974, 0.0024647294, -0.0006888933, -0.0012975081, -0.0031314963, 0.0010074077, -0.0005395427, 0.002157555, 0.00045905227, -0.00085329666, 0.00043466603, 0.0016230631, 0.0015284391, -0.0010959108, -0.001120857, -0.0013131483, -0.0005435663, -0.001186633, -0.0006788221, 0.00026396452, 0.0008088917, 0.00086341175, -0.00056907826, -0.002467182, -0.0018058285, -0.00081243005, 9.170498e-05, 0.00045349592, -0.00081303663, -0.0012724998, 0.00071883615, 0.000951554, -0.0020511434, 1.5566911e-06, 0.0006444781, -0.0017071778, 0.0019237852, 0.0014133696, 0.001250161, 0.0018547702, 0.0010754662, 0.00094235747, 0.0009959216, -0.0009995312, -0.002125175, 0.0008705644, 3.625537e-05, 0.0002751396, 0.00076928735, -0.082532056, -2.3711007e-05, 0.0031186915, 0.0013734412, -0.00095058663, 0.00046238652, -0.31809932, 2.1987304e-05, 0.0026899034, -0.055462588, -0.0010687783, -0.0007430229, -0.95315653, -0.0006245158, 0.0002922127, -0.29662985, -0.7358044, -0.001403663, -0.00022555457, -0.0010461744, -0.15032451, 0.0003874869, 0.0006640474, -0.017160675, 0.0009050883, -0.0042244224, 0.0034551858, -0.2645847, 0.0022622952, -0.07216954, -0.016299818, -0.0012777825, -0.0022822265, 0.0003120734, 0.001139336, -0.0037327455, -0.0015138278, 0.0012969555, -0.0011961821, -0.0007330887, 0.0008999453, -0.00019255473, -0.004175298, -0.0012881258, 0.0004067126, 0.00064355985, 0.00089740346, -0.00034302924, 0.001457849, -0.0005442292, 0.00089027797, -0.00046587957, -0.0012981571, -0.0024701809, 0.002156471, -0.0016273535, -0.0007545968, -0.0017255329, -0.0005909165, -0.0017506399, 0.001297884, 0.0009906993, 0.0022288077, 0.00077249156, 0.0017635124, 0.0011617898, -0.0019382368, 0.0013106564, -0.0013222416, -0.004291584, -0.0013012347, 0.0021580725, -6.376015e-05, 0.002658525, 0.00176506, -0.00090896327, -0.0015543323, -0.0009105275, -0.001449761, -0.001071594, -0.0007733358, -0.0015964811, 0.0013289785, -0.00077156053, -0.00041747943, -0.000779417, 0.0005913581, 0.00056088425, -0.0017205027, 0.00033233044, -0.0002243293, -0.00037584238, 0.0012981956, -0.0013382992, -0.00063875626, 0.00025611225, -0.0018040038, 0.0006390704, 0.00072132796, 0.0017810954, -0.0029091942, 0.000759088, -0.002799023, 0.0009695251, 0.0009684674, 0.0024664337, 0.0015257251, 0.0013592463, -0.002144424, 0.00019974378, -0.0014139344, 0.001449463, 0.0027610515, 0.0021524448, -0.0014969188, 0.00013464817, -0.00017745071, -0.00085442286, 0.0012684021, 0.00074887404, -0.0014851267, 0.0016613475, -0.0024461637, -0.0017590817, -0.0014071208, -0.0008036273, 0.0013497076, -0.00083554845, 0.0012381737, -0.0011295559, -0.00246502, -0.0006719783, -0.00015216856, -0.00096780946, -0.00061902386, 0.000775543, 0.001780533, 0.001024623, 0.0019441241, 0.00037568144, 0.0010433634, -0.0013326481, -0.0008723556, 8.575211e-05, 0.0020856513, 0.0006852753, 0.0017524431, 0.0005734762, -0.00081243285, -0.0019318544, -0.0010338288, 0.0006220143, -0.0038274038, 0.0012711869, 0.0012048784, -0.00010502455, 0.0009479398, -0.00017367216, -0.00046937878, -0.001720474, 9.052793e-05, -0.00093931897, -0.0024652807, -0.0012981097, 0.0009139524, 0.00031041508, 0.00014719157, -0.00013279726, -0.0003589723, -3.056397e-05, -0.0006572685, -0.0014477996, -0.00091957464, 0.0006366758, 0.00075269665, 0.0015065284, -0.0005616661, 0.00016634469, -0.00011305825, -0.00016682086, -0.0014043064, -9.893032e-05, 7.544758e-05, -0.0007746828, -0.0013661841, -0.0013441519, -4.196854e-05, 0.00017870107, -0.0007897432, -0.0006237688, 0.0004810957, -0.0025886917, 0.00041632671, 4.8797287e-05, -0.0003049071, -0.0003618115, 0.0009224323, -0.0007986532, -0.002363716, 0.0013127966, -0.0022379027, 0.0018310212, 0.0015352655, -0.0010124947, -0.0014411951, -0.001030337, -0.0009767307, 0.0004634459, -0.0011475609, 0.00045353675, -0.001495009, 0.0004948399, 0.0018386692, 0.00030726838, -0.002553381, 0.00050195213, -0.0008388578, -0.0003538221, 0.0003915714, 0.00015411805, -0.00044639024, 0.0027721564, 0.00081159105, 0.0004867072, 0.0013186277, 0.0019447078, -0.0005156987, 0.0021777248, -0.0012913025, 0.00029493583, 0.0012424849, 0.00062701374, 0.0015691109, 0.0005163283, 0.0011462001, 2.835456e-05, -0.00060388906, 0.0016275164, 0.00027867372, -0.0013871521, -0.0004050614, -0.001120631, -0.0008982585, 0.0007098502, -0.00016856601, -0.00064880773, -8.7212655e-05, 0.0011405754, -0.00270226, 0.0013272138, 0.0013089665, 0.002811074, -0.0039797984, -0.0004195589, 0.0008834558, -0.002036494, -0.0026543755, 0.0005911476, -0.0025401055, -0.0017935295, 0.0016639286, -0.0034328396, -0.0007492744, -0.0011867105, -0.0006800296, 0.00014929642, -0.00013712028, -0.0028580232, -0.0012954267, -0.0024694654, -0.0042319703, 0.000267928, -3.0829513e-05, 0.0013499951, 0.00023428327, 0.001834515, 0.002212959, 0.0005006746, -0.0009370339, 0.0006452117, -0.0006087464, 0.0010779276, -0.0006318247, 0.000457895, 0.0002126795, 0.0005831258, 5.6682853e-05, -0.00051718054, -0.001308576, 2.2091845e-05, 0.0011342514, 0.0007738966, -0.0020137476, -0.0010147507, -0.00013445306, -0.0020694626, 0.0006249434, 0.0014760124, 0.0007711459, -0.0012680984, 0.0013618644, -0.0010972182, 0.0003156849, -0.0011043907, -0.0011788376, 0.00092885876, -0.00022722187, -0.0026108255, -0.0005129529, 0.001784183, -0.00028056954, 0.0005233434, 0.001044018, 0.00035581988, 5.2731193e-06, -0.0008588033, -0.0005302066, 0.00024761644, -0.0015567461, 0.00089823635, 0.22224501, -0.016230183, 0.0004453416, -0.00031015347, 0.0012352737, 0.36583543, 0.34955645, 0.0005365762, -0.0012645127, -0.2939895, 0.0006648302, -0.6189681, 0.21549612, 0.0031991156, 0.0012872121, -0.36936456, 0.005830745, 5.1131647e-06, -0.00076510466, -0.0011153903, 0.002842958, 0.00016437774, -0.0021148317, -0.0146291135, 0.0010745896, 0.12125812, -0.17708963, -0.00944556, -0.0017616168, -0.02728945, 0.029340407, 6.775127e-05, -0.0018949904, 0.0019570906, -0.0016098965, 0.0005718701, 0.00027580632, 0.00023034163, 1.0484429e-05, -0.0024489637, -0.0013456903, 0.0021694016, -0.0011789525, 0.00214331, 0.0016752244, 0.0022368236, 0.0005926847, 9.194686e-05, -0.0015453197, 0.0002684631, 0.0011900795, 0.0012575313, 0.00053106854, 0.0015742673, 0.0009404777, 0.00045219588, -0.00035342152, -0.0018374696, -0.0016061459, -0.0007252223, 0.00084518467, 0.0009877258, 0.0014794314, -0.0017749254, -0.00027022933, -0.0013133101, -0.001548943, 7.9641e-05, -0.0004942026, -0.0013759505, -0.00084223755, 0.0038191783, 0.0012782542, 0.0013554151, 0.0014236983, 0.0010114609, 0.00058382563, -0.003288991, 0.0019194302, -0.005212859, 0.0015615408, 0.0009708307, 0.00066199875, -0.00068404677, -0.00016886092, 0.0017754812, -0.002008502, 0.00047576724, 0.0016351251, -0.0001439905, -0.0014476029, 0.0013973592, 0.00049669854, -0.0007464388, 0.0016973133, 0.0008441042, 0.0005714296, 0.0010470832, 0.0006675715, 0.0007622271, -0.0010188143, 0.00096518855, 0.0013511606, 0.0010077505, -0.0009090487, -8.912025e-05, -0.0010464707, 4.287248e-05, 0.0009314319, -0.00101687, 0.0029865813, 0.0011777272, -0.00018962601, 0.0017646303, -8.203974e-05, 0.000527899, -0.0009677722, -0.0012638492, -0.0019304127, -0.0004897893, -0.002156659, -0.00067151355, -0.0006017461, 0.00474707, 0.0007654622, 0.0006691431, -0.0017829958, -0.00069509336, 0.001427066, 0.0017278751, 0.0016284683, -0.0024662856, 0.0012815499, 0.0021582528, -0.00044508203, 0.00067163206, 0.0028064265, -0.00017453198, 0.00075938983, -0.001244935, -0.00015851093, -0.0027569043, -0.001552394, -0.0005890027, 0.00068535766, -0.0008866239, 0.0015548592, -0.0002236308, -0.0021551112, -0.0005253658, 0.0019429364, 0.0009805107, 0.00091535936, 0.0006334295, 0.0031130267, -0.0022996645, 0.0029905979, -2.7872942e-05, -0.000121835445, -0.0021524047, 0.60993266, -0.010299592, 5.2023213e-05, 0.0022351202, -0.0003640073, -0.00016711916, -0.18315354, 0.0003732129, -7.8975696e-05, -0.67393506, 0.0024630362, -0.09187072, 0.43010485, 2.5388574e-05, -1.7052109e-05, -0.006534019, 0.13203244, 0.00026125193, 0.0007651517, -0.00070747733, 0.18085267, 0.0007500197, 0.0011488254, -0.0026112087, -0.00024926988, 0.18844308, -0.032686595, -0.04641393, -0.002569254, 0.0072521823, -0.001780352, 7.762626e-05, -0.004210813, -0.0020637284, -0.0004926904, -0.0017436489, -0.0004083116, -0.00024188071, 0.0006438725, -6.39958e-05, -0.00021596323, -0.017493598, 0.0013351364, -0.0011043509, 0.0037856563, 0.0037801848, -0.05239916, -9.194139e-05, -0.001867306, 0.26651356, 0.002144166, -0.71721685, 0.28689313, 0.00084547437, -0.0007398656, -0.70088744, -0.37797648, 0.0029017893, -0.001270442, -0.0006181929, -0.91780746, 0.000491465, -0.0008575078, -1.2793257, -0.0005189767, 0.58532035, 0.12758648, 0.41116402, -0.0005435509, 0.33846328, 1.3421746, -0.00025810694, -0.0014155991, -0.0021762184, 0.0010942923, 0.0010214071, 0.0009367076, -0.000611911, 0.0012960896, 0.0012471466, -0.0013967976, 0.00019115757, -9.141315e-05, 9.90252e-06, -0.0008931036, 0.0006736442, 0.00062575727, 0.0014315505, -0.00060689024, 0.0018643492, -0.0012759601, -0.0008607874, 0.000116612355, 0.0012785927, -0.000662981, 0.0019447646, -0.0012509024, -0.00014197006, -0.0006391977, -0.0030924599, 0.0012978629, -0.0013041827, -0.0018210324, 0.0012495453, 0.0008592867, -0.000517393, -0.000772583, -0.0018300934, 0.0020714093, -0.00044686595, -0.0005042887, 0.0021415106, 0.00065001426, -0.00013306539, -0.000590393, 0.001789043, -0.0012881822, 0.0002879348, 0.0011117706, -0.00047051522, 0.0022209825, -0.0007319993, -0.00037122634, 0.0005208169, 0.0017382412, 0.0015833759, 0.0011977202, -2.2077002e-06, -0.0010241311, -0.00045739522, 2.2797845e-05, -0.0018044123, -0.0013972652, -0.0013359488, 0.00028937205, -0.0019968972, 0.000875711, -0.0019923076, -0.0026076117, -0.0016946276, -0.00063220045, -0.0003586859, -0.0008029165, -0.0006964618, 0.00046790115, 0.0012302182, 0.00016543397, 0.0033517177, 0.0007496141, 0.00063661806, 0.00012769783, -0.0033269583, 0.0017830956, -0.00013329415, 0.002840632, 0.00069060316, 0.0008672631, -0.0006447357, -2.263431e-05, -0.0013271316, -0.0039933193, 0.00067058566, -0.00068211224, -0.0017639565, -0.0013151503, -0.00032101653, 0.0004900384, -0.0033038552, 0.0009410968, -0.0041235127, 0.0008944491, 0.0009782814, 0.001190318, -0.0014158981, 0.0017298809, 0.0023550466, -0.00056938536, 0.0037467303, -0.003999816, 0.0027484605, -3.2792916e-05, 0.00045947195, -6.7242363e-06, 0.00058506976, -0.0012903603, -0.0028686372, 0.0013470111, -0.00095384754, -0.00060083787, 0.0017797314, 0.0011290596, -0.0005298345, 0.0026891318, 0.0016617102, 0.0019297745, 0.0005779031, 0.0006925748, -0.0010215084, 0.001547115, 0.0009277355, 1.0548031, 0.1917959, -0.0021561708, 0.0013774501, -0.00011361379, -0.0016901203, -0.20128612, 0.00048377743, -7.1475166e-05, 0.0036638104, 0.0015395607, -0.0018960241, -0.58840024, 0.0007699322, 0.0021614202, 0.01003417, -0.11895203, 0.00071362936, 0.0001723204, -0.0010656123, 0.600132, 0.0006622417, 0.0024706048, -0.027097167, -0.0006610547, 0.009801148, -0.21581382, -0.03406359, -0.0015204606, -1.0263405, 1.5232712, 0.0013088866, -0.00080029364, 0.00052857236, 0.0031653214, -0.0006978103, -0.0009842676, 0.0006719117, -0.00056267856, -0.0021482494, -0.018519549, 1.7469636, 0.00120464, 0.0011414555, -0.00068772724, 0.62397456, -2.4355726, 7.5714255e-05, 0.00022039271, 0.26444972, 0.0010405865, 0.4762194, -0.45436567, 0.00015454373, -0.00078675617, -0.47711253, 1.3557241, 0.0008151455, -0.003114406, -0.00024015689, -0.008128628, -0.0001488608, -0.0011715825, 0.89767414, -0.0015427591, 0.38004774, 0.19097193, 0.49819064, 0.0014884151, -1.2017244, 0.0045905863, 0.0008869005, 0.0010473178, 0.0009563889, -0.001313496, 0.0019349613, -0.00051153696, 0.0013395173, -0.00022259989, 0.0016938166, 0.0025387197, 0.00012535363, -0.0006571488, 0.0025225095, -0.00083586323, -0.0008326981, 0.00096482056, 0.0010829363, 0.0028310472, 0.0006907469, 0.002154329, -0.0015078993, 0.00071300974, -0.0009772637, 0.0017956947, -0.0015899747, -0.002192677, -0.0016180051, 0.001517579, -0.001740004, 0.0005221445, -0.001218596, -0.00012329337, -0.0028853966, -0.0023789625, -0.00013057707, -0.0012895042, 0.0015047211, 0.0012523984, -0.003944548, -0.0008590666, -0.0021923825, -1.3707395e-05, 0.00034444142, 0.000296828, 0.00032955414, 0.0009019945, -0.000376279, -0.0024133222, -0.0012098993, 0.9913766, -0.70090586, 0.0020071443, 0.0006993824, -0.00022795133, 0.81618917, 0.059092157, -0.0011293816, -0.0020321314, 0.12042474, -0.0032962975, -0.056849338, 0.5952812, 0.001302756, 0.00105526, -0.20468263, 0.10997253, 0.00083886087, -0.00056706864, 0.00064811704, 0.3017912, -0.0010048823, -0.0006906298, 0.011999778, 0.0013113423, -0.15457883, 0.3212844, -1.0273687, -0.0015318921, -0.00048407787, 1.2569107, -0.0007709747, 0.002864369, -0.00036604464, -0.0010840506, 0.00028207677, -0.00025553838, 0.00022196992, -0.00067564537, 0.0012800565, -0.119103424, -0.008781836, 0.0020102921, 0.00034856133, 0.0005697575, 0.0020071673, 0.0039854413, -0.001230604, -0.0016913691, -0.5447615, -0.001330741, 0.0031797038, -0.0039957063, 0.00038951167, -0.0021595713, 0.10847066, -0.0026441198, -0.00071242475, 9.730959e-05, -3.4056226e-05, 0.4030439, 0.0018579653, 0.0012886013, -0.30598894, 0.0013150583, 0.00499502, -0.7475736, 0.004316295, 0.0021383117, 1.6066345, 0.0038724157, -0.00136829, -0.0003485638, 0.0003746847, 0.0003522404, 0.0021722026, 0.0001614422, -0.0019664662, -0.0005068272, -0.0006976003, 0.0007869555, -0.0014083919, 0.0005050878, -0.0005334074, -0.00087849, -0.0019053906, -0.0017641379, 0.001712699, -0.00041980896, 0.001167718, -0.0012881333, -0.0013420484, -0.002419843, -0.00063934777, -0.0028615242, -0.0016257161, 0.0004493186, -0.00061757397, -0.000447909, 0.0017841156, 0.000846067, 0.001120546, -0.00030020002, -0.00015405612, 0.0012100704, -0.0015251176, -0.0009043664, 0.00045714888, 0.0013801549, -0.00035852316, -0.0013067591, 0.00113639, 0.0015611211, 0.0020333785, -0.0024023666, -0.0018995358, -0.0018391609, 0.0020839507, 0.0012977406, 0.0008793445, 0.7900135, 0.0012105484, -0.00065310585, 0.001024961, -0.0014344307, -0.00024103242, 0.38995793, -0.00041692425, 0.0018552365, 0.27128416, -0.0007506091, -0.4676468, -0.24326405, -0.00047188246, -0.00074246, -0.40192476, -0.45443383, 0.0009654161, 0.0020046507, -0.0009773283, 0.4340726, -0.0008803, -0.0014619412, -0.8420598, 0.0015665877, 0.0009549243, -0.004997501, 0.6426213, 0.0019153339, 0.18944177, 0.070610225, 0.0021677224, -0.0017299342, -0.0005122876, -0.0003413082, -0.0012151565, 0.002400902, 0.0012950837, 0.0011168508, 0.0005889569, 0.00087538385, -0.0013320342, 0.0011401321, -0.000361613, 0.00027530838, -0.001937778, 0.00058170105, -0.001993583, -0.003388011, 4.5806897e-05, 0.0014003904, 0.0029231845, 0.0029239822, 0.0010961442, -0.0007717365, 0.00034606678, -0.00060574117, 0.000438034, -0.0017160256, 0.0016306681, 0.0008052492, -0.0009160987, -0.00091671635, 0.0003609916, -0.0009613141, -7.417635e-05, 0.0063945, -0.002401197, 0.0014994796, 0.003721838, -0.0011736691, 0.0032455116, 0.00030769885, 0.00054545014, 9.995734e-05, -0.0023228428, 0.0001520477, 0.00048384757, 0.0021376486, -8.151808e-05, 0.70642, -0.03563605, -0.0010649711, 0.0013412933, -0.00123703, -0.015591088, 0.4118243, -0.00043988018, -0.0006216287, -0.0057124738, 0.0024137222, 0.19456643, -0.027388345, -0.001700079, -0.00049529434, 0.22708505, -0.00080465275, 0.0010587347, 0.0023911516, -0.00035154592, -0.060895134, 0.0005844268, 0.00015859166, -0.04654059, 0.0022153552, -0.2865368, 0.009143349, 0.004513951, 0.0039671664, 0.026834602, -0.00013070117, -0.0019009497, 0.00030683726, -0.0020712484, 0.00079789007, -0.0007179299, -0.0016362844, 0.00048266505, 0.00075337995, 0.00020557182, -0.0008437525, -0.0020593351, -0.000821481, 0.00019452139, -0.0017197484, 0.00020434486, -0.0005168137, 0.00048184, -2.9287097e-05, -0.00057628204, 0.00030596997, 0.0004638477, 0.00048433366, 0.0011290695, 0.000502939, 0.000996177, -0.00097448204, 0.0016273627, -0.0012731716, 0.0011026729, -7.025647e-05, -0.00079777837, -0.00066989067, -0.0011464289, 0.0018173052, -0.001515238, 0.0004529006, -0.0016724556, -0.00056405796, 0.000934668, 0.0013240799, 0.0006532995, -0.0019997046, -0.0016746792, 0.0014744406, 0.0031189919, 2.2632947e-05, -0.00022457377, -0.0042736353, 0.0008848218, 0.0012318885, 9.975361e-05, 0.0001350824, 0.002266677, -0.0006532498, -0.0012317211, -0.00025442708, 0.0024203681, 0.0016371917, -0.0004670312, 0.0023850556, 0.00052015454, 0.002009602, -0.0014460527, 0.0009003255, 0.00015098992, 0.0006486328, 0.0013734096, 0.0005668534, 0.0012729145, 0.0019477349, 0.0011801759, 0.00062603585, -0.0018096563, 0.0013161369, 9.709236e-05, 0.0010704375, -0.0015772262, 0.001638432, 0.0016240622, 0.001832274, 0.0014087348, 0.0007736187, 4.8156857e-05, 0.004174102, 0.0043114815, 0.0015527824, 5.18022e-05, -0.00123162, 0.0005530965, -0.00031918928, -0.0003687524, -1.783704e-05, 0.00060857146, 0.0014008319, 0.0017588921, -0.0013486296, -0.00077483885, 0.0010890886, -0.0001872548, 0.0015189927, -0.0026067481, -0.00090121315, -0.001632726, 0.0032793665, -0.0010960838, -0.0006865629, -0.00087150943, 0.0001431033, -0.00037521828, -0.00038922462, -0.0019777128, 0.00046319835, 0.0015121012, 0.0012250352, -0.00040082578, -0.0007984382, 0.0018275984, -0.00036639674, -7.242005e-05, 0.0033839936, 0.00037950967, 0.0017467083, 0.0015859848, -0.0029546865, 0.0006954656, 0.0006620585, -0.0018037899, -0.00083751354, 0.0013091655, 0.0011711193, 0.0019831224, -0.0031611035, 0.00011626759, 0.004267646, 0.0015188248, -0.00080656237, -0.00032460614, -0.0027659377, 0.0021524122, 0.0016452414, -0.0010922361, 0.0013188551, 0.002751802, -0.0023845066, -0.0015147056, -0.0041243266, 0.0015388397, 0.00026052626, -0.00093753973, 0.00060061517, 0.0002891834, -0.0017485819, -0.00065072696, 0.00048430753, 4.780665e-05, 0.0012487159, -0.0012912477, -0.00086753163, -0.0022661313, 0.0005139024, 0.0014057045, -0.0013213828, -0.0015531848, -0.0021374705, -0.0006226046, -0.001020767};
float bias_2[] = {-0.015872052, 0.23829298, -0.01060351, -0.14641914, -0.15036775, -0.1506154, -0.009123097, -0.05222224, -0.01927482, -0.12086048, 0.4745201, -0.1443518, -0.00732593, -0.009800408, -0.009973642, -0.010806329, -0.31335846, -0.016254887, 0.20535354, -0.12914337, -0.1179094, -0.1970163, 0.18546024, 0.32031825, -0.022326075, -0.1221689, -0.016280662, -0.35891944, 0.13276137, -0.023534207, -0.3716042, 0.16002329, -0.008394672, -0.30622515, -0.108992964, -0.39854243, -0.008525568, -0.1609329, -0.086637735, -0.15640534};
float weight_3[] = {0.0011298158, 1.4124744, 0.0006084575, 0.00058923545, 0.0005450346, -0.00012914959, 0.0015473391, -0.0008889322, 0.0017665273, -0.00045984425, -0.6974902, -0.0012978084, -0.00101199, 0.002292494, -0.0005917894, 0.00044737634, 0.0016849337, 0.0006252606, 0.6588171, -0.0005226935, 0.00032836152, -0.0007573172, 0.71930784, 1.0477514, -0.0018087105, -0.0004657228, -0.0006489727, -0.8781403, -1.0727804, -0.002412837, 0.15717225, 0.42446324, 0.0014911501, -0.14676233, -0.0002496848, -0.70696133, -0.0008388101, -0.00068398373, -1.7009152e-05, 0.0020619454, -0.0009412776, -0.006305488, 0.0013661903, -0.0001722445, -0.0022000084, -0.001932056, 0.002651097, -0.0021574104, -0.0018092344, 0.000608685, 0.71233857, 0.00066767883, 0.0013082421, -0.0009969249, -0.001001325, -0.002097034, 0.00034609146, 0.0010987795, 0.032820664, -0.0020427865, 0.001624027, 0.0003679375, -0.63302076, 0.67195684, 0.00013087626, 0.00013697846, 0.0008850185, 1.0001674, -1.6743203, -0.00073942286, 0.84190416, 0.55288094, -0.0006595504, 0.9831352, -0.0011814225, -0.20490241, -0.0006798278, -0.0005872817, 0.0014720284, 0.00023563528, -0.00063942384, -0.45578668, 0.004270721, -0.0003024435, 9.418503e-05, 0.0014671702, 0.00042252158, 0.0008910256, 0.00059624086, 0.0008264953, 0.2880941, 0.0012683416, -0.0019491664, -0.0012758491, 0.0014576325, -0.0007952107, 0.0011254891, -0.00088872144, -0.7053319, -0.0039967084, -0.00015492714, 0.0021621513, 0.28783882, 0.78220356, -0.001217114, 0.00044106506, 0.00078144274, -0.9771128, -0.9612853, -0.00016903978, 1.5523505, 0.5849777, 0.0010429204, -0.7804473, -0.0042346027, 0.24627927, 0.00032154293, 0.0007467752, 0.00078750856, 0.001690016};
float bias_3[] = {0.13003913, 0.19611849, 0.2706267};
