float weight_1[] = {1.427518, 0.28787327, -0.77082866, 0.1319238, -1.950386, 0.00083740347, 4.1385778e-05, -9.945778e-05, 0.00026168322, -0.0031140964, 0.00015820266, -0.0010586957, 0.00042203028, 0.0047511277, 0.00016889977, -0.04354889, -0.5823846, -0.77334845, 1.0516791, 0.43215886, -1.5669625, -0.015201928, -0.5517133, -1.8031406, 0.0012169356, 0.0004899976, -0.0015848982, -0.0012993497, -0.000760215, 0.00058366166, -1.0246444, 0.2579245, 0.57503355, 0.0014790641, 0.0027278569, -0.0005681056, 5.5926503e-06, 0.00073665206, -0.00059333205, 0.0007695751, -0.00050569174, 0.00044646626, -0.0020106833, -0.0011957936, -0.0010743584, -1.6826965, 0.23419587, 1.0965825, -0.12661143, -0.8682345, 0.34080538, -0.0018607597, 7.4869204e-06, -1.6023176, 0.31102556, -0.25600713, -1.1006465, 1.0738553, -0.35712183, -0.77092326, 0.7804401, 0.31324628, -1.9371425, -0.00058759726, -0.0013821202, 0.00022353214, -0.00028845668, 0.00016223386, 0.00082293455, -0.0011787068, -0.0015582964, 0.0005436198, 0.00065579585, -0.000498137, -0.0006478765, -0.0032239757, -0.00317385, -0.00085866323, -0.00017943978, -0.0017078454, 2.1595391e-05, -0.073944405, 1.576853, 0.4002273, -0.0002405388, 0.0018063557, -0.0005833928, 0.000298384, -0.0010868567, -0.00072692375, -0.001768226, 0.0018089853, -0.00086381607, -1.973337, -1.2510647, 1.0061522, -0.00150871, -0.0014082897, -0.0012025295, -1.8486786, 1.2530701, 0.24740005, 1.0560862, 0.09697971, -1.4187242, -0.68440676, -0.25583857, -1.016566, 0.0012823197, 0.00030047935, -0.0021517822, 0.0013195173, 0.001141896, 0.0023899782, -0.7852979, 0.68047154, -1.1464714, -0.00089053897, -0.0014825582, -0.001149784};
float bias_1[] = {-0.48743823, 0.4521037, -0.027925793, -0.09966304, -0.4369767, 1.3753161, -0.12392346, 1.1538521, -0.41258067, -0.17824905, -0.30330068, -0.22878337, -0.03271076, -0.39265698, -0.12729928, 0.2040586, 0.63519585, 0.13355178, 0.7093388, -0.005808237, 0.14627671, -0.22514535, -0.12836875, -0.03627622, -0.11213688, -0.41988966, -0.22138298, -1.5532912, -0.032079197, -0.32527184, -0.063305825, 1.0249085, -0.3509125, 0.031243509, -0.13707529, 0.319384, -0.008860391, -0.6989785, 0.81556207, -1.1659791};
float weight_2[] = {0.00030011532, 0.00041867702, 0.00028409413, 0.0006847039, -0.0012606056, 0.0031113694, 0.0007358471, -2.9351562e-05, 0.0028703776, -0.0012071892, 0.00022510561, 0.0027142998, -0.0006464721, -6.550446e-05, 0.0010990629, 0.0017265324, 0.0017629787, 0.0021354542, -0.00090641587, 0.0013001949, -0.0008677042, -0.00060468324, 0.00045988095, -0.0015128803, 0.0012766093, -0.0011527169, -0.0005903444, -0.00082715537, -0.00024177949, -0.0028035436, 0.00041853008, 0.00021992833, -0.001074532, -0.0009496204, -0.0013171348, -0.0017493977, -0.0012750549, 0.0008687564, -0.0013025333, 0.00063820864, -0.0013205945, 0.0015002225, 0.0014300344, 0.0017652481, 0.00047350526, 5.5547862e-05, -0.0021182543, 0.0012188853, 1.3472745e-05, -0.0015824739, 0.0007363983, -0.0012769586, 0.0031110966, 0.001790479, 0.00052841305, -0.00027164063, 0.0015939429, 0.0031169667, 0.0008786616, -0.0017769553, -0.00072100305, -0.0021522064, -0.00079163426, -5.5106357e-05, 0.00018383435, -0.0011501086, 0.0005716638, 8.012983e-06, 0.0009372232, 0.0001025442, 0.0003017725, 0.002275112, -0.0032616467, 0.00083582633, 0.0008609283, -0.00069461967, 0.0008666005, -0.0017221164, 0.00021701102, 0.001034153, -0.0007622759, -0.000946735, 0.0012232943, 0.0014511037, -0.00094010355, -0.00096521527, 0.0003316998, 0.0002823224, -0.0010014295, -0.00040452654, -0.0011356545, -0.00086718117, 0.0016516048, 0.0016751054, -0.001797155, 0.00058782427, -0.0019207112, -0.00017030508, 0.0003083183, 0.0016292392, 0.00010837236, -0.0002817515, -0.0001904181, -0.0017806023, -0.0007301321, -0.00058736163, 0.0021297256, 0.00030004446, 0.0009023069, 0.0016082888, -0.002329359, 0.003369146, -0.0010582083, -0.0010508826, 0.00081086066, -0.0024864504, 0.0033131896, 0.00090981397, -0.0007271582, 0.00031473697, 0.13790563, 0.3320676, 0.00018175918, 0.0012137674, 0.0013051613, -1.3086596e-05, 0.075799376, -0.00078081887, -0.0008897143, -0.00097624987, 0.00016559125, -0.0003067659, -0.00061583205, 0.0018963346, 0.00044417582, 0.3050129, 0.16894445, 0.0035351305, -0.39304695, 0.2788236, 0.06836325, -0.0007598641, 0.0033271324, 0.00074477645, -0.0018247553, -0.0008683412, -0.0013250061, 0.0018105913, 0.0021238532, -0.0007526237, 0.0024714079, 0.7409286, -0.0018262627, -0.92598325, 0.8034662, -0.85368824, 0.0011700438, -0.0008083113, 0.70436126, -0.0018643447, 0.26557547, -0.57510465, -0.00012859411, -0.00043114263, 8.293602e-05, -1.8806818, 0.07554265, -0.24645977, -0.0015043658, -0.00057800836, 9.667254e-06, 0.0010837556, -0.0021768177, -0.003174089, 4.280229e-05, 0.17002025, -0.1941749, -0.00068507454, 0.11251256, 1.3156966, -0.17757684, 0.0014385764, 0.00103799, 0.0010114367, -0.0009378327, -0.004221497, -0.0027989536, -4.2323318, -0.0025071036, -0.0010795888, -0.0012889768, -0.13017103, 0.00038933445, -0.0015690535, -0.21341865, 0.0023408511, -0.0017553415, -0.0012930254, -0.27084553, 0.0013338317, 0.46558955, -0.45191598, 0.0035624518, 0.00021483918, 0.0024916101, -0.5676552, -0.8381491, -1.0944631, -0.0021153889, -0.0021582837, -0.19551124, -0.0009652093, 0.0018634954, -0.00054428866, -0.00064455654, -0.70201766, 0.64549756, 0.0003136548, -0.40767828, 1.7272401, 0.10131923, -0.003296041, -0.00023763889, 0.0013886703, 0.0010464427, -0.0014257694, 0.0012837253, -2.8383653, -0.001431836, 0.004016823, 0.00088577805, -1.5227784, 0.0005682586, -7.48858e-05, -1.3543043, -0.0019768781, 0.0009662056, -0.0010688804, 0.38433677, 0.0004063114, 0.0012984696, -0.00020432635, -0.0013208776, 0.00060140196, 0.002072676, -0.0031102346, -0.00080819026, 0.00018887594, -0.0016771794, -0.001948232, -0.00059225946, -0.0020676753, -0.0020497474, -0.002322576, 0.001222682, 0.00071986427, 0.0011531524, -0.0041779326, 0.0008888358, 0.0018113299, -0.0016760922, 0.0008724883, 0.000116969575, 0.0007697937, 0.0005638689, -0.0012188252, 0.0010867529, -0.00051013223, 0.0032973024, -0.00029184297, 0.0032970314, -0.00077192794, 0.0001752722, 0.0009770419, -0.0025697243, 0.0009635788, 0.0019430303, -0.0019393865, 0.00032576406, 0.0014126097, 0.0010932647, 0.00035072275, 0.0018985242, -0.00019922153, 0.001510935, -0.0017106883, 0.0009761454, -0.00030040153, -0.0029081479, 0.0013218694, -0.0004806166, -0.0032367404, -0.0032535763, -0.0046895137, 0.00045018576, -0.0006639514, -0.00044821145, -0.00071484584, 0.002194952, -0.0008441573, -0.0017654628, 0.0022034822, 0.00059777556, 0.0003882721, 0.004858216, -0.0017054224, 0.004453837, 0.0020679554, 0.0012678241, -0.0036041597, 0.0017069292, 1.4530495e-05, -9.771669e-05, -0.00086801726, 0.0012113308, -0.000361755, 0.00017721219, 6.45841e-05, 0.0018605852, -0.00016505405, 0.0009190181, -0.00069055165, -0.00053368206, 0.0025653956, -1.8243154e-06, 0.0024764696, -2.1500513e-05, 0.0002792147, 0.00076006964, 0.0029473626, 0.0017515064, 0.0018308731, -0.00018055132, -0.00038563707, -0.00073981436, -0.0013494838, 0.0006750676, -0.00024423038, -0.0021902353, 0.0013382081, -0.00179376, -0.0012574594, -0.0013885411, 0.0005741248, 0.0010341546, 0.0007301457, -6.4377324e-05, -0.001181598, -0.0012748508, -0.0037280219, 0.0013583661, 2.36118e-05, -0.0015860968, -0.0063682413, 0.0016388518, 0.0006937535, -0.0005717997, -0.00010344328, -0.0018466813, -3.225007e-05, -1.9232185, -0.29137444, 2.6277514e-05, 0.0012988583, -0.00065015117, 0.9737528, 2.2290366, -1.127019, -0.0010998447, -0.0007253209, 4.831155e-05, 0.003085337, -0.001275707, -0.0017263169, -0.0008795999, -2.8381474, -0.20992498, 1.1125168, -0.3148713, -0.24944596, 0.63951963, 0.000703727, 0.0008552943, 0.0018454003, 0.00027149537, -0.0032678607, 0.00092088024, 1.1333244, -0.0019128112, -0.0011425593, 0.0006492079, 0.986299, 0.00020209159, -3.3045828e-05, 0.3358673, 0.42154297, -0.0019541977, -0.001558449, -1.3184444, -1.6386446e-05, 0.0019443886, 0.00060982833, 0.0019922953, 8.117058e-06, -0.0013077523, -0.0015433461, 0.001274404, -0.0041836733, -0.00038348508, -0.002738738, -0.0006651114, -0.0007616491, 0.0010795665, -0.0013946993, -0.0012981571, 0.0015465923, -0.0007219528, 0.00024039522, 0.0028527344, -0.0012881004, 0.0019615355, 0.001300401, -0.00012273791, -0.0013365708, -0.00048019568, -0.00019997227, -0.00054347253, -0.000912423, -0.0011646491, 0.0001760408, -0.0011763886, -0.0018727715, 0.0009233113, 0.00062816613, -0.0007412812, 0.00011838021, 0.00067204464, -0.00016392354, 0.00033218483, 0.00016453868, -0.06478103, 0.0006029714, -0.0009635836, -7.614304e-05, -0.0012753587, 0.59265196, -0.581075, -2.4094532, -0.0012419745, -9.307789e-05, -2.8789356e-05, 0.0007479029, -0.0006701185, 0.0021698654, 0.00034971625, 0.084779084, 0.14316745, -0.00073488813, 0.91529167, -0.6360009, 0.000119972625, -0.00022364972, 0.00043295458, -0.0008626263, -0.0026254745, -0.0013555641, 0.0017277529, -11.196775, 0.0017476594, 0.00076242513, -0.0021636942, -1.0313089, 0.0012482371, 0.18502553, -0.08095056, 0.0013001602, -0.0011957157, -2.9880408e-05, 0.12399493, -0.0014824013, -0.34086907, -0.00035958903, 0.0011635289, -0.00074267027, 0.0007363624, 0.06343627, -0.14177573, -0.3331355, 0.0015901541, 0.0006488803, 0.00038768328, -0.00020287221, 0.00013052789, -0.00131298, 0.0010734873, -0.44246045, -0.35472926, -0.0006202841, -0.2990277, -0.6160173, 1.1706518, 0.004749142, -0.00053821923, -0.0018226722, -0.003293428, -0.002690328, -0.0010588696, -2.4464273, 0.00011237257, 0.0019479993, 0.000757906, -0.4349491, -9.982145e-05, -0.0011979282, -0.05854104, 0.0014116645, -0.00073776266, -0.00011664658, -0.18912815, -0.0005978207, -0.06595078, 0.0005157962, -0.00062775036, 0.00047600237, -0.0012549204, -1.4863132, 1.2126913, -1.0772744, -0.0011978608, 0.0007158829, 0.18370198, -0.0039024877, 0.0017795584, 0.00035931135, -0.0012163492, -0.4938331, 0.2568036, -0.00015012617, -0.12454425, 1.0209665, 0.25970563, 0.0008883245, -0.0002969926, 0.0005453977, -0.00041643716, -0.0006041267, -0.0020740554, -1.5791667, 0.0014357263, 0.0015767289, -0.0015368925, -0.084170334, 0.0028237668, -0.28218028, -0.99219203, -0.00054560706, 0.0021693234, -0.00060342136, 0.51376444, 0.0007146719, -0.0010253388, 0.0004926347, -0.00036985253, -0.0010701385, -0.0019531235, 0.0009928594, 0.002887526, -0.0006855731, -0.00074247713, -0.0004928749, -0.0013945798, 0.0007069005, 0.00079564424, -0.00082470383, -0.0012805463, -0.00085601327, 0.0006461147, 0.00135318, -0.0036236672, 0.002569809, 0.00023061753, 5.385949e-05, 0.00032191194, -0.0026207229, -0.0003196702, -0.0008617993, -0.0002607794, 0.002192234, -0.00045404583, -0.0006231463, -0.000570173, -0.0017398973, -0.0010723727, -0.0038235434, 0.00096035236, 0.0018588932, 0.001040478, 0.0031908664, -0.00144853, -0.004570026, 0.00079922104, 0.00043276732, 0.0010704519, 0.001854076, 7.086614e-05, -0.0024509842, -0.0031189085, -0.0007036619, 0.0011387923, -0.00094605464, -0.00047407695, 0.00046241807, -0.001623464, 0.000722415, -0.001450589, -0.0023125764, -0.00017948903, -0.001586709, 0.0005113116, -0.0008967593, -0.00014748372, -0.0024788147, 0.0031145401, -0.00057716935, -0.0024151434, -0.0001697611, -0.0013701069, 0.00012711136, -0.004180221, 0.0014855277, 0.0006439763, 0.0012640636, -0.0014724436, -0.0005739485, -0.001035781, 0.0014466248, -0.0004944813, 0.0009567804, -0.0009741083, 0.0012992197, -0.0022886156, 0.0004534804, 0.0025057488, 0.003289227, 0.0005584881, 0.0006242954, -0.00054058107, 0.00026907772, -0.00059494993, -0.0002798906, -0.0013119301, -0.0037451119, -0.0013686263, 0.0009644321, -0.0011104776, -0.0018462006, 0.0011780511, -0.00053754984, 0.0021528802, -0.00077218126, 0.00028306083, -0.0023403238, 0.00021721868, 0.0012964515, 0.003278859, -0.0007043327, 0.0019759866, -0.0013890339, -0.000984515, -0.0029174332, -0.001246714, 0.0014089191, 0.00021730264, 0.0017901071, 0.0006464584, -0.0009023307, 0.0021738515, 0.0008368538, -0.0011603122, -0.00055870414, 0.0014189038, 0.00048312853, -0.00287435, 0.0024463935, 0.0064692404, -0.001342927, -0.00054389524, -0.0027224252, -0.00263693, 0.0019004955, 0.002449627, -0.0040899795, 0.0014877028, -0.00054279563, -0.0018315678, 0.00062532874, 0.0006466829, 0.0008472176, -0.0019398425, 0.0012754301, 6.054336e-05, -0.00090203923, 0.0014670829, -0.00041251653, -0.00077892985, -0.0016789391, -0.0007158915, 0.00077169394, 0.0006334749, -4.2417436e-05, 0.00040160562, 0.00075034384, 0.0034300662, 0.0007586102, -0.0001919801, 0.00041596606, -0.0024927123, -0.0006842596, 0.0025732694, 0.0027793103, 1.4720012, -0.00077108224, 0.0018546036, -0.0016342787, 0.0024160761, -2.355923, -0.93899685, -0.86150515, 4.15651e-05, -0.0002425753, 0.23546204, 0.0021241675, -0.0024261323, 0.0006187916, -0.0008272646, -0.00013529527, -1.5129018, 0.0003322818, 0.6508124, 0.9182001, 0.23263901, 0.0010853077, -0.0012718099, 0.0007459319, 0.0007321158, -0.0007943766, 0.0006914066, -2.4197848, 0.0006447363, -0.00074987067, -0.00090027705, -0.0005628688, -0.0026776616, 0.0047443802, 0.20870472, -0.0006554807, 0.0019444398, 0.00056216953, 1.4525995, -0.0021268805, -0.0012629766, -0.0009452492, -0.0014188691, 0.0007384919, -0.0014688101, -0.0010233584, -0.00061636185, 0.00087464286, 0.0011234283, -0.0018844132, -0.0004949791, 0.0012531618, -0.0019251202, 0.00031649315, 0.0005142334, 0.00057367596, -0.0019430831, 0.0006632813, 1.6062113e-05, -0.0025051283, 0.0008820207, -0.0011002612, -0.0021940584, -0.0037015593, -0.0012149912, 0.00091294636, -0.0017091949, -0.00071541534, 0.001211684, 0.002007859, 0.0013439883, -0.002030229, -3.1733827e-05, -0.0019285884, -0.0013564404, -0.0012719629, -0.0012519902, 6.125306e-05, 0.00067093945, -0.00012903736, 0.0014592693, 0.0012047956, 0.0003483299, 0.001151738, 0.00041963276, 0.0018175292, -0.002954344, 0.000966867, 0.0008567779, 0.0005709032, 0.00050522527, 0.00019845378, -0.00077500043, -0.0013441496, 0.0002257626, -0.0017340364, 0.0012409696, -0.0026562337, -0.00026229082, 0.0025765244, 0.0014750733, 0.00026886084, 0.00646138, 0.00054657715, -0.0009980949, -0.00010646957, -0.00023233745, -0.00068916846, -0.0012041487, -0.0006097144, -0.00025591758, -0.00032329475, 0.0008566207, -0.00032264635, -0.0015754054, -0.0044973516, -0.0010422647, 0.00045365308, -0.00014484508, 0.002555286, -1.0302874, -0.8933388, 0.0017968713, 0.00048323534, 0.00050916284, 0.123604916, 1.5062621, 0.90261465, -0.0016874158, 0.00090619596, 0.0012673683, -0.00038827193, 0.001816894, -0.0024141783, -0.0008824851, -0.00013997033, 0.045282383, 0.00491916, -0.6774784, -0.56022704, 0.95580935, -0.001952059, -0.0019398722, 0.0012819341, -0.00024675182, 5.6069788e-05, 0.00097619346, 0.003293543, -0.0013108867, -0.0028632884, 0.0017798806, 0.001410493, -1.151202e-05, 0.00017812016, -0.014389517, -0.00041402338, -0.002556127, 0.0004917853, -1.5472467, 8.3085266e-05, -0.0015955069, -0.0025759824, 0.00090594706, -4.0364524e-05, -0.00028989778, 0.0016242199, 0.0005426791, -0.00079295755, -8.332415e-05, 0.0009004566, -0.0009257164, 0.00093739945, 0.0004989384, -0.0008698064, 0.00045503693, 0.0009576023, 0.0005410096, -0.00029475283, -0.0060582366, -0.0013732496, 0.00088662276, -0.00026127888, -0.00070139684, -0.00020219176, -0.0013938242, 0.000355875, 0.00069760456, -0.0011192993, -0.0015074415, -0.003394782, 0.0018051835, -0.0024870688, -0.0006560928, 0.001494793, 4.0838495e-06, 0.00040355534, 0.0003720799, -0.0025186033, 0.00035886338, -0.002119665, -0.0018826755, 0.0015105198, 0.00053334545, -0.0025899822, 0.0012611346, -0.0009109853, -0.00055003713, -0.0009912004, -2.1079577e-06, 0.00046411107, 0.00011659175, 0.0021505535, 0.00075240526, -0.00014487328, -0.0013040238, -0.0007894243, 0.0016598111, 0.0018161573, 0.00023945648, -6.703034e-06, -0.00050076883, 0.00036901142, -0.00042897626, 0.0028517423, -0.0011004802, -0.0021619087, -0.0008024609, 0.0010088009, -0.00035198126, 0.002633682, -0.0012347876, -0.000700942, -0.00030750645, -0.0014738909, -0.0006148494, -0.0010975833, 0.0037745396, -0.0004508014, -0.0011118908, 0.001062505, 0.0014500255, -0.0016667799, -0.0010693453, 0.00064265105, 0.001747512, -0.0010427088, 0.0012414875, -0.0009992331, 0.002809713, 0.0006933116, 5.266629e-05, -0.00023820445, 0.0005128183, -0.00020640559, -0.00013577176, -0.0018211781, 0.00065372506, 0.0025530527, -0.0012987811, -0.0031147092, 0.0025478252, -0.0024722484, -0.00072035094, -0.0010252029, 0.00066355075, -5.2329153e-05, 0.0005023023, 0.00065890345, 0.00014033454, -0.0010538627, -0.00088560855, 0.002071823, 0.003045822, 0.0019481437, 0.0007550855, -0.0011401916, -0.0015541533, -0.00089913665, 0.0012996882, -0.00023461436, -0.10264351, 0.0049588587, 4.5547204e-05, 0.0012388728, -0.0006360935, -1.0723248, -0.47049454, 0.026972448, 0.0012036896, -0.0024723886, -0.27827778, 0.0002085488, 0.00030334483, -0.0014650048, 0.0017646484, -0.13829784, 0.14489573, 0.00015173483, -0.09840714, 0.5805521, -0.12998952, 0.0004954457, -0.0006058955, 9.3980445e-05, 0.0008795929, 0.0024940027, 1.4285957e-05, -3.0256221, 0.00088710076, -0.00044002815, -0.00030242954, -0.42739868, 0.0013781087, -0.42095423, -1.5340807, 0.017604169, -0.0011645299, -0.0008302249, 0.43574584, -0.0018936832, 0.0014243281, -0.0008415265, 0.0019405881, -0.00048239052, 0.0033048033, 0.0016226869, -0.0021655713, 5.3181953e-05, 0.0017684828, 0.0021906851, 0.00040026777, 0.00096060627, -0.0010925094, -0.00048393395, 0.0006752258, -0.0009230236, 0.0010661582, -0.0024483178, 0.0015020489, -0.00059017556, 0.00076868234, -0.0017134198, 0.00092022633, 0.0041397642, 0.0008913504, 0.0015049765, -0.0004996244, -0.0014971042, 0.00058322464, -0.0010272485, -0.0024670358, -0.00074670557, 0.0016183305, 0.0012352138, -0.0007370889, -0.0005847971, 0.0024687317, -0.0019450547, 0.0031131348, 0.00027822691, 0.0023356779, -0.0024471062, 0.0005052044, -0.00053166895, 0.001948476, 0.0031126323, -0.00067088794, -0.0019423965, 0.0024178424, -0.0012975511, -6.2616135e-05, -0.0020705038, 0.0007601798, 0.0017289894, 0.0024416654, -0.00058130594, -0.0011719348, -0.0014202785, -0.0012896566, -0.001989975, -0.000593068, 0.0024158359, -0.0005999252, -0.0021052454, -0.00038391922, 0.0020442358, 0.0017294803, 8.1136255e-05, 0.001490302, -0.00013486817, 0.004272215, -0.0015126079, -0.0011364019, -0.0011251457, 0.00040026393, 0.0013172479, 4.24343e-05, 0.0026064604, 0.0007595782, 0.000267165, 0.0003506628, 0.00021225214, -0.0007176676, 0.0011781004, 0.0055346466, 0.00037586395, 0.003669649, -0.0041771475, -0.0025007175, 0.00088915887, -0.0015308317, 0.0012916292, 0.0011007402, 0.0005046343, -0.0029887683, -2.7825707e-05, 6.0274237e-05, -0.0039607, 0.00050456333, 0.002734578, 0.002212491, -0.0031090202, -0.0027060118, 0.002561722, 0.00058186764, 0.0016887493, 0.0011027725, 0.0012198422, 0.0007328758, -0.0021430592, -0.0007656198, 0.003115622, -0.0011141854, 0.0004477481, -0.0016777493, 0.0010469513, -0.0028467076, 0.00027970166, 0.0005967693, -0.0051124296, 0.0006264762, 0.00092592655, 6.680188e-05, -0.00246245, -0.00063913706, 0.0003853792, -0.003924991, -0.0018424311, -0.0007489302, 0.0012070409, -0.00027700944, -0.0009833934, -0.002103773, -0.0006167439, 0.00050047785, -0.00052989076, 0.00012036812, -0.00016684603, -0.00043699064, 7.187904e-05, 0.00064418523, -0.0020357561, 0.0019644294, -0.00011941592, -0.00037027034, -0.0008707338, -8.24756e-05, -0.00097582984, -0.0024661482, 0.0015325111, 0.00022698665, -4.029469e-05, -0.0020696246, -0.0002698499, 0.000918701, 0.00023328059, -0.00039229836, 0.00012710114, 0.0015651528, -0.0017026917, -0.00087323383, 0.0008254593, -0.0023858568, -0.00073922856, 0.00081731426, 0.0012964902, -0.0012911857, -0.0009947516, -0.00078754604, 0.00074572477, 0.0012976554, 0.0003054118, -0.0006686113, 0.0010743416, 0.00029951008, -0.0007867819, -0.0002983841, 0.00022501056, -0.0016228671, 0.0006199981, 2.5566078e-05, 0.0007592287, -0.0019376419, 0.0014501109, -0.0007960417, -0.00039296038, 0.0019297395, 0.00087099214, 0.0020118968, -0.0006463749, -0.00056213187, -0.0014154343, 0.00016183627, -0.00023186218, 0.0011541762, 0.001727144, -0.0007400947, 0.00145011, 0.0009281348, -0.0012503369, -0.00010932842, -0.00086738355, -0.00031076893, -0.0023717552, -0.00036885214, -0.0005798215, -0.00010148034, -0.001229758, -0.0016252933, 0.0012909, 0.001227082, 0.0020529646, -0.00023677322, -0.00074629084, 0.00050068065, -0.0009921264, 0.00027776812, -0.0007442618, -3.960423e-05, -0.0027698716, 0.0007485339, 0.00025623222, -0.00075023866, -0.0012121322, -0.00065614475, 0.00021389546, 0.00022267108, 0.0013271341, 0.0021434375, -0.0020461988, 0.0010804667, -0.0027139666, -0.0021259058, 0.0009030242, 0.0020542736, -0.00028692535, 0.0005805228, 0.002747192, -0.0009460682, -0.0008465089, -0.0016218505, -0.0032990016, -0.0006473004, 0.0015599796, -0.00077405083, -0.0006029603, 0.0012451069, -0.0007447611, 0.0005478712, 0.000656472, -0.0010628959, -0.000652937, -0.0014531403, -0.00060773664, 0.0019717303, 0.00066501286, 0.0006534534, 0.0007424798, -0.0021607934, -0.0021900886, 0.001624462, 0.0009052396, 0.0014993075, -0.0012464259, 0.0012946514, 0.0015671471, 0.0010142921, 0.000649227, -0.0023885919, -7.97977e-05, 0.0006630505, 0.00058454665, 2.5824644e-05, -0.0012987911, 0.00075890205, 0.0007506841, -0.002191765, -0.00013571925, 0.0024415024, 0.0011910658, 0.002425655, -0.0005809551, -0.0007299838, -0.0013403367, -0.00089735555, 0.0015770997, 0.00064764504, -0.0012962602, 0.001644487, -0.0012866964, -0.001721841, -0.001372888, 0.0017673399, -0.0008427748, -0.0012958735, -0.0013813355, 0.001810324, 0.0008704422, -0.0024760468, 0.0021350482, -0.00048640417, 0.001243873, -0.0024802967, 0.0012611232, 0.003319318, 0.0005748544, 0.00030095555, -0.0007637186, -2.4661538e-05, -0.000831961, 0.00030233967, 0.001231445, -0.00024771184, -0.0019594037, -0.0006477334, 0.00059918663, -0.00072398747, 0.00095637806, -0.000675393, 0.0014598281, -0.0011330371, -0.0027714723, -0.0008814977, 0.001281278, 0.00056652003, -0.0041770376, -0.0008676266, 0.00010668684, -0.0014806346, 0.0010696342, 0.0009758168, 0.004433636, -0.001280013, 0.00017952739, -0.0008882424, 0.0016547279, 0.0008898519, 0.00015262171, -0.0009883847, -0.0008983311, 0.0003984091, -0.00053668016, -0.0019137912, 0.00017232817, 0.0011930214, 0.000952472, 0.0010356809, -0.0011646571, -0.0024693836, -0.001147757, 0.00060233165, -0.0007600725, 0.0007321967, 0.0018453951, 0.0004635161, -0.0024688654, -0.0032975497, 0.0024136398, -0.0016628392, -0.00012335746, -0.004265038, 0.00051819487, -0.00014904066, -0.002149012, 0.0029968033, 4.6428322e-05, -7.589231e-05, -0.0035969475, -0.004409511, -0.0009605775, 0.0015610997, 0.0010874278, -0.0014172841, -0.002560052, 0.0008958199, 0.0018822793, 0.00077059655, 0.0011366586, 0.00045130565, 0.00094374595, -0.0008559422, -0.0008659917, -0.00038322713, 7.633801e-05, -0.0005833019, -0.00028786412, -0.00012430453, -0.0006797422, 0.0017895347, 0.0011579875, 0.0008901956, -0.0023438288, -0.004183978, -0.0035638562, -0.0011872449, -0.0008813119, -0.0013129556, 0.0012697405, 0.0009310992, 0.0027676462, -1.1121249, 0.0008787066, 0.00015963442, -0.000756706, 0.00030308962, -3.1000745, 0.0011819903, -3.8248865e-05, -0.001870538, -0.00061319064, 2.3239227e-06, 0.000638146, 0.00061585737, -1.6657694e-05, -0.001380289, 1.2977588, 0.03947968, -0.0002740537, -0.72267324, 0.00014729772, 0.00024294225, -0.00093679276, -0.0007310867, -0.0006521917, -0.00044922432, 0.0009580776, 0.00052979274, -1.8520763, -0.0012672527, -0.00067167584, -0.0017095649, 0.70651966, -0.00097581855, 0.43462834, -0.000678345, 0.0020088616, -0.0013149832, 0.0010289241, 0.32400173, -0.0016769745, -0.0018512071, 0.00022518833, 0.00034530874, -0.0006889746, -0.0005280345, 0.0007000415, -0.00078396767, 0.00066170946, -0.00046789704, -0.0006791734, -0.0027328122, -1.8765568e-05, 0.0019009816, -2.9816649e-05, 0.00042275467, 0.00016625604, -0.00076683867, 0.0012804253, 0.0007142925, -0.0012139874, 0.0018692603, -0.00065472315, 0.0007534217, -0.0024637324, -0.0007375374, -0.0038613938, 0.0012523647, 0.0021330859, -0.000977444, -0.00043548114, 0.00065613835, -0.0012770111, -0.0010461858, 0.0011975717, -0.00045167276, -0.00039286568, 0.0019007239, -0.0003588522, 0.00032366312, 0.0011094094, -0.7929766, -0.5071454, -0.000284982, 0.0007565828, 0.00064344454, 0.8259532, -0.15586698, -0.010966532, -4.2920612e-05, -0.0001416619, -7.001919e-05, 0.00040686192, -0.0013944912, -0.0010794771, -0.0025576171, -0.5637513, -0.079441234, -0.0015934613, -0.017445184, 0.66240853, -3.7784078, 0.000591208, -0.003102663, 0.00086106546, -0.00051440386, 0.0007004581, 0.001514314, -1.5231504, 0.00067077763, 0.003759799, -0.00011827756, -1.9823786, 0.0012275514, 0.45563886, 1.1441373, -0.00024831842, 0.0021827815, 0.00016866304, -0.06421504, 0.0022274372, -0.43427998, -0.00035546545, 0.00063202763, -0.0015765065, 0.00094605295, 1.7748882, 0.30781886, -2.512625, 0.00029091293, -0.0012930786, -0.5284045, 0.0011384563, 0.00093316694, 0.0024092589, -0.00060570403, -0.18075965, -0.8214428, -0.00021248074, 0.12453417, -1.1599988, -0.79009855, -0.00076075795, 0.0018012426, 4.2115338e-05, -0.0012781487, 0.00016822628, 1.8441118e-05, 2.083697, -0.0041686352, -0.0025916845, 0.00013027183, -0.97390896, 0.0008721093, -1.0744128, -0.05872077, 0.0017432712, 0.0016214296, -0.0013348219, 0.64584374, 0.0007948794};
float bias_2[] = {-0.15659158, -0.010725679, -0.13382682, -0.6073548, 1.2657108, 0.9227235, -0.17812876, -0.014035187, -0.08276008, 0.3261156, -0.014286677, -0.035782695, 0.45272923, 0.9087983, -0.09352391, -0.14325538, -0.088992596, -0.120524675, 0.5325152, -0.036133528, -0.2506172, -0.00016139942, -0.15164761, -0.10405463, -0.06484794, 1.1034999, -0.10036659, -0.09032317, -0.096761994, -0.14713714, -0.08528019, -0.018732673, -0.21101615, -0.48416084, -0.07943905, -0.13841869, 0.7712112, -0.022650454, 0.35558915, -0.08891715};
float weight_3[] = {0.0006349004, 0.00066234305, -0.00086102606, 0.30094972, -2.9858782, -4.4771714, 0.0018084395, 8.594553e-05, -0.000377823, 2.1855056, 0.0008667097, 0.43691477, 0.36245078, 1.9890796, 0.0011997977, -0.00073973334, -0.001756919, -0.00094540056, 5.375667, -0.0008776469, -0.0009706621, -0.00893636, -0.003571927, 0.0005244693, 0.0006461251, 5.636119, 0.0005898331, 0.0018086006, -0.00012007682, -0.0012842661, -0.0013214773, 0.005322465, -0.00066612166, 9.660382e-05, -0.0007509474, -0.0022075716, 6.317776, -0.00043216016, 2.5468137, -3.239123, 0.000679912, 0.0014272481, 0.001541069, -0.117064185, -2.9015107, -3.0077853, -0.0020120272, -0.0017625268, 0.0009547324, 1.0219861, 0.0011307468, 4.0701537, 1.8475264, 1.5956178, -0.001320608, 0.0008878436, -0.0011292301, 0.0013554146, 4.858496, 0.0021430235, 0.00064646493, -1.2999014, 0.0015511336, 0.0006466523, -0.00062394305, 4.7484407, -0.0011214227, -0.0023880152, -0.00072393654, 0.00082187774, -0.0007244355, 0.0009878301, 0.0005609839, 0.000665972, 0.0011337673, -0.000534963, 0.83688974, 0.00040288758, -0.1704261, -3.481015, -0.004261487, -0.0011312702, -0.00083876116, 1.0079098, -3.4422278, -4.6509504, 0.00013217295, 0.0011544665, 0.0017780708, 1.1527288, -0.001297918, 3.7290432, -0.2758006, 4.0126085, -6.389804e-05, 0.002127728, 0.001057788, 0.0022390299, 3.6415513, 0.00022688095, -0.001663979, -0.89144254, 0.0013611309, -0.000697426, 0.0019192054, 5.987111, -0.002396889, 0.00066573283, -0.00014650327, 0.0012693467, 0.00030275597, 0.0007172902, 0.0017777652, 0.00087926927, -0.0021582523, 0.000563992, 2.3941734, 0.00093744823, 1.6783049, -3.30306};
float bias_3[] = {-0.13982609, 0.053702682, -0.16383651};
