float weight_1[] = {0.6871259, 0.3250995, -0.06977815, -0.00087245944, -0.00017345074, -0.002930821, 0.0004561494, -6.4087275e-05, 0.0010385923, -0.0018665465, 0.00055252446, -0.0039121937, 0.00088397093, 0.0011235401, 0.0005756816, 0.004131848, 0.00014544564, -0.00049438607, 0.0005410734, -1.8022722e-05, 0.00025979732, 0.00048545335, 0.00065424305, -0.00015130383, -0.35499325, 1.3851234, 0.22053018, 0.0019731876, 0.00058764126, -0.00038859717, 0.0006790352, -0.002976695, -0.00013284618, -0.00014954916, 0.0011990119, -0.00044228695, 0.004306551, 0.0030912487, 0.00019026699, -0.00046524618, 0.00046062644, 0.0014492505, -0.4625164, 0.37473145, 1.0894967, -0.0007506885, -0.0018125061, -8.290808e-05, 0.00011545123, 0.0007859876, 0.00018736726, 0.00030873145, 0.001057193, -0.001160179, -1.7338197, -0.1221948, -0.00504085, 0.00214448, 0.0010634785, -0.0012843646, -1.453304, 0.76689696, 0.0027559553, 0.47935802, 0.48579794, 0.95821923, -0.0010016295, 0.00036683877, 0.0038273549, -0.0006729727, -0.0006257573, -0.0011287321, 0.0006211352, 0.0020551116, 0.0018368242, 0.07000961, 0.20187676, -1.8435795, 0.0013076331, -0.0012842182, 0.001511674, -0.0010652514, -0.00071664876, 0.0007356401, 0.42743158, -1.0201023, 0.12696132, 0.00021665223, 0.00420521, -0.0022802984, 0.0007868091, 0.00023499946, 0.001505677, -0.0010529953, 0.0016900352, 0.0018668374, 1.1615411, -0.5089069, 0.47318813, 0.00018588343, -0.0023540622, 0.00018854963, -0.47593513, -1.1117786, -1.5540427, 9.166986e-06, -0.0021328763, -0.00037854468, 0.0005144598, 0.0024883798, 0.00013249839, 0.0011296156, -0.002643029, 0.0029097022, 0.00081673346, -0.002210836, 0.0019635628, -0.12669022, 0.48243323, 0.98777217};
float bias_1[] = {-0.7014029, -0.01376206, -0.0073722564, -0.0036654845, -0.0063084736, -0.5313376, -0.012056245, -0.006003762, -1.0102515, -0.008055532, -0.0054720254, -0.0069081783, -0.009907088, -0.008061067, -0.06787789, -0.02086223, -0.006885534, -0.0072932597, 0.48425096, -0.046571247, 0.027154738, -0.9807666, -0.4924677, -0.0052903844, -0.5169598, 0.5430129, -0.014629856, -0.032812715, 0.5074788, -0.2449174, -0.015903745, -0.5273296, -0.29128575, -0.006728391, 0.69334155, -0.46973413, -0.011377989, -0.008517259, -0.18005869, -0.24149825};
float weight_2[] = {-0.0019018034, -0.0008705819, 0.0009694214, -0.0014440485, -0.0006535891, -6.7353714e-05, -0.00048792624, -0.0014488245, 0.00012444338, 0.0006885184, -0.001027061, -0.00061312976, 0.0012150793, -0.00065330334, 0.0017800215, 0.0016297488, -0.0004646039, -0.0012916378, -0.0016040521, 0.00053318747, -0.00015156431, -0.0013462995, -0.0006847257, -0.0006820184, -0.0014309068, -0.0014378281, -5.778458e-05, 0.0006337265, -0.0010173972, 1.8785679e-05, -0.00051843666, 0.00064601796, -0.0009186582, -0.00073918386, 0.0008346441, 0.0036381138, 0.0015824338, 0.0022244428, 0.00011145737, 0.0012387283, -0.00082976767, -0.0012782575, -0.00041912496, 0.0011717323, -0.0007213955, 0.0014454594, 0.0019127566, -0.0013304651, 0.000949191, 0.0012985787, 0.00054111506, 0.003983098, -0.00046719267, 0.00013031234, 0.00080955296, 0.00035278912, -0.001734559, -0.00051652425, 0.00012727221, -0.0003278984, -0.0013275603, -0.0016419219, -0.0011637271, 0.0009000473, 0.0002331463, -0.00038956015, 0.0003670029, 0.0002149563, 0.00013168942, 0.0015316138, 0.00072980195, -0.0013793781, 0.0017208445, 0.00024572707, 1.952576e-06, -0.0004355727, 0.001076791, 0.00044266105, 5.8289515e-05, -0.0001439525, 0.0009832581, -0.001076072, 0.00015829859, -0.0005582054, -0.00074893644, -0.001215197, -0.0006561909, 0.0016232445, -0.0024455434, -0.00079643546, -0.00427403, -0.0007300976, -0.0010983257, -0.0008758755, -0.00026699892, 0.00074420834, 0.0013004566, -0.0009865625, -0.0025565736, 0.0002816508, -0.00024376973, 0.0006018957, 0.0010881533, 0.00072330784, 0.0005432936, 0.00039072928, 0.0016240787, 0.0013327731, -0.0008954913, -0.0013721042, -0.0006461743, -0.00048668706, 0.00215615, 0.0019471411, 0.0010567859, 0.004738588, 0.00058161345, -0.00087991584, -0.0021098566, -0.0004624651, -0.000806563, 0.00077289646, 0.0013470032, -0.0024774028, -0.0024165371, -0.0007257666, -0.0010498548, 0.0010291537, 0.00016159407, 0.0011809763, -0.0012827136, 0.00030439708, 0.00052130513, 0.0019319105, -0.0013305489, 0.0012150815, -0.0005691267, -0.0021480038, -0.00025875296, -0.002489959, -0.001619908, -0.0010220235, -0.00048062904, -0.0007193241, 0.00074443873, -0.0012798505, 0.0011434101, 0.0028753853, 0.0013988571, -0.0015156111, -0.0007608781, -0.0008986604, -0.0017366085, -0.00024315226, -0.0010181512, 0.0012320229, 0.0013001084, -0.0017449341, -0.00028917007, -0.0015658069, -0.0010516143, 0.00047647604, -0.0014009019, -0.00060695194, 0.0016490461, 0.00036433758, 0.002015013, -0.0019310393, -0.0011415861, 0.00213751, -0.0008783009, 0.000102015736, 0.00043534278, 0.001214135, 0.0009292748, -0.0013174913, -0.0025894507, -0.00048388715, -0.0005135606, 0.0012647731, -0.0006503115, -0.0019406393, -0.0017363708, 0.0016281419, -0.0005724792, -0.0016104287, 0.0012876319, -8.9219946e-05, 0.001365432, 0.0017234578, -0.0013034306, -0.0010783749, -0.0005822236, -0.0008915823, 0.0013602092, -0.0006015518, 0.0002792691, 0.00044712448, -3.1965348e-05, -0.00067451404, -0.00040422694, 0.0018975895, 0.0012292227, -0.0018222558, -0.0033348908, -0.0012699922, 0.0006882725, 0.00038788398, 0.0009374226, -0.0008718211, 0.0005681644, -0.0010452102, -0.001541905, 0.0008904986, 1.8646551e-07, -0.0010618304, -0.0012988214, 0.0009008318, 0.000106157735, -0.00055417785, 0.0009501954, 0.00026022596, -0.0013181611, -0.00085410423, 0.0014137554, -0.00043573923, -0.0007472491, 0.0015397875, -0.00014395072, 0.00039223372, 0.00029390585, -0.00012803939, 0.00013483361, 0.0017960038, -0.0008250373, 0.0009079782, 0.001427225, -0.0019317975, 0.0031761876, -2.7977949e-05, -0.0015307805, 0.0018170133, 0.00012232322, 0.00084173656, -0.00246765, -0.002133571, 0.0015765609, 0.0019413511, 0.0012481175, -0.00056121807, -0.00011783588, -7.8932964e-05, -0.002147392, -0.00015632535, -0.0013299994, 0.0015873885, 0.0009010997, 0.0002439029, 0.0011132322, 0.00039298972, -0.0005662613, 0.00059919275, 0.0019311802, -0.0013284287, 0.00015236271, -0.0002217649, 0.00096179824, 0.00038163853, -0.0010353153, 0.0004038067, 0.00049630774, 0.00029056077, 0.00024517975, 0.0015751191, -0.0019598312, 0.00083203486, 0.00059731293, 0.0042445604, -0.00018472178, -0.00039027812, -0.0010528846, 4.3481574e-05, 0.00058346684, -0.00063208217, -0.0019403229, 0.003431933, -0.00056313444, -0.0024745362, 0.0005754741, -0.0017030638, -0.0017577854, -0.0003657526, -0.0020605768, 0.0021980582, 0.00041604272, 0.003295918, 0.00074594904, -0.000742734, 0.0005830461, 0.00066497014, 0.00037107465, 0.0009916554, -0.00019553327, -3.306975e-05, -0.0016767087, 0.0019433527, -0.0021596965, -0.0014846226, -0.00084151945, -1.3780784e-05, -0.0011364989, -0.0015072913, 0.00046863733, 0.001240327, 0.0008125796, 0.0006231, 0.00045942666, 0.0009417009, -0.00044418802, 0.0007716071, -0.00045122893, -0.00036299817, 0.0011847441, 0.0013280571, 0.00057920616, 0.0005571503, 2.4749548e-05, 0.0010316118, 0.0013508294, -0.00087650487, 0.00056891306, -0.0012798498, -0.002431202, -0.0012117921, 0.00016641797, -2.4817069e-05, -0.000908968, 0.0008281311, -6.429848e-05, -0.00053001224, 0.0011207842, 0.00014182602, 0.0016826262, 0.0010248334, -0.00022094429, -0.0004702087, 0.00055929285, 0.00049423054, -0.00049922813, -0.00042148144, -0.0004819103, -0.0004400611, -0.0017301418, 0.0034046667, -1.5383062e-05, 0.00025764573, -0.0022776378, -0.0009900252, 0.0002970934, 0.001339403, 0.0028994996, -0.0005342247, -0.00058015593, 0.000857825, -0.0023396716, -0.0011467196, 0.00059414044, -0.0012673944, -0.0013136364, -0.00034454576, -0.001469889, -0.0021681923, 0.00069654157, 0.00057813013, 0.0011314315, 0.0021566022, -0.0016352008, 0.0020298993, 0.0049408306, -0.0004981462, -0.0058165435, -0.24233268, 0.002204535, -0.00083243166, 0.001097602, -0.20091741, 0.0018878494, 0.00029638933, 0.6524213, 0.0019440332, 0.0014553716, -0.0032440503, -0.14821406, 0.0023031032, 0.1124658, -0.0004934725, -0.0008295269, -0.0010780031, -0.00091986026, -0.051518973, -0.0014651765, 0.0008325063, 0.00089034997, 0.0017540513, -0.0009924994, 0.0016993887, -7.2441762e-06, 0.0009081919, 0.00050758605, -0.00013792358, -0.0017020558, 0.001193127, 0.001612156, 0.0012612748, -0.0011417707, 0.00054974883, -0.0024032802, 0.0004318115, -0.0014412145, -0.0012571076, 0.0007679188, -0.0002986046, 6.642373e-05, 0.00036861177, 0.0010243186, -0.00090034143, -0.00097310665, 0.0031788056, -0.00052005524, -0.0019266887, 0.0016088695, -6.7772344e-05, -0.0020064935, -0.0014301641, 7.8847865e-05, -0.0019592266, -0.000744441, 0.0013642139, -0.00052110944, 0.00034570327, -0.0012868345, -0.0021605631, 0.0006228415, -0.0008518409, -0.0011959241, -1.5733996e-05, 0.00020243629, 0.0015301589, 0.0025023436, 0.0024681124, 0.001226844, -0.00085595384, -0.001191058, 0.0012007512, -0.0014417158, 0.00072999333, -0.001102773, -0.00012132671, -0.0008333007, 0.0014633579, -0.0030419843, 0.0004003534, -0.00033534633, 0.0015682013, 7.583207e-05, 0.00058154523, -0.001586942, -0.002592148, 0.00026010873, 0.0012682651, 0.0015699491, -2.005964e-05, 0.00047943377, 0.00035957675, 0.00035907084, -0.00021199737, 0.00020962657, 0.0006989199, 0.0013375018, -0.0007556664, 4.6278205e-05, 0.0013939026, -0.00066694466, 0.0006118921, 0.0015234671, -0.00020217034, -0.0005169856, -0.0018298987, 0.0007639166, -0.0018130295, -0.00078326114, -0.0013443625, -0.0024539998, 3.108289e-08, -0.001154078, -0.00070383504, -0.0008701172, -0.0004734351, 0.00078609725, 0.000845954, 0.0012049887, 0.0009410329, -0.0016799915, 0.0005161484, 7.3675736e-05, -0.001095542, -0.0014412641, -0.0015666886, -0.002916083, -0.0018416913, 0.0004846008, 0.0036742357, -0.00033539208, -0.0027521374, 0.0016896471, -0.0015188282, 0.00069497107, 0.0018635566, -0.00266231, -2.8127688e-05, -0.0021824555, 0.0014809528, 0.0012089927, 0.0003017063, -0.00043919837, -0.00012563274, 0.0012884502, 0.0011127514, -0.0016448897, -0.0013340223, 0.0020171893, 0.0012180938, -0.0013805302, 0.0024915324, 0.0021972542, 0.0003739018, -0.002611245, 0.00015480455, -2.6815542e-05, -0.00036745472, 0.0006840548, 0.0002843923, 0.00014325185, -0.0014526772, -0.00072058826, -0.0017531635, 0.00021139265, -0.00050637696, -0.0014558889, 0.0005482385, -0.0007697338, 0.00093703554, 0.00026297139, 0.0015324561, 0.0018447461, 0.000461502, -0.00092354, 0.0017467691, 0.00014100806, 0.0010958686, 0.0025708927, -0.00196708, -0.0023727166, -0.002171514, 0.0013786453, -0.002939384, -0.0019816617, 8.2965475e-05, -0.0015771762, 0.0011437162, -0.0029075292, -0.000830875, -0.0016044024, -0.0017266814, 0.00074014836, -0.00038299535, -0.003230372, 0.0011395487, -0.00013603174, 0.0025582516, 0.0012297268, 0.0014614987, 0.0014837784, -0.00069543824, 0.0002889522, -0.0002325708, 0.0014624163, -0.0039666453, -0.00052593125, 0.0031306618, -0.0020602387, 0.000540947, 0.00047557062, -0.00042229553, 0.00030427054, -0.0010271489, -0.0010252107, -2.6228314e-05, 0.0001540138, 0.00021872297, -0.0003735164, -0.0004504506, 0.00040283785, -0.00042464823, 0.0005443804, -0.00069936796, 0.000611296, 0.002136704, 0.0033419556, 0.00049708865, -0.00064943964, 0.00045336428, 0.00041057315, -0.0009480146, -0.0024913833, -0.0007262564, 0.003091937, -0.00016099005, 0.00075263483, 0.00065980013, 0.00026606518, -0.00030376684, -3.3338845e-05, -0.0018215943, -0.00048923364, 0.0001821772, 3.709062e-05, 0.0022105959, -5.1414012e-05, 0.000867937, 0.00064604403, -0.0015226984, 0.0034430127, 0.00049197534, 0.0001602921, -0.004664976, 6.6417706e-05, 0.0020166372, 0.0011707655, 0.00086117315, -0.0005970149, -0.00016517763, -0.00046421908, 0.000888812, 0.0024676742, 0.0015012135, 0.002080989, 0.00036309374, 0.00048814426, 0.00058453064, 0.0004117292, 0.0007365467, 0.002385452, -0.00021314071, -0.0013799175, 0.0016919738, 0.0022025378, 0.0009254194, 0.0016821735, 0.00046630797, 0.00045047043, -0.0039414843, -0.003993528, -0.0020379373, 0.0008264105, -0.00030189008, 0.0001857843, 0.0011812777, 0.0008928883, 0.004190309, -3.0338742e-05, 0.0003574271, -0.00014994224, -0.0009421543, -0.00091146235, -0.0014255339, 0.00054962066, -0.0018038808, -0.00087005703, -0.0019549974, -0.0019930669, -0.0007333249, -0.0020036406, -0.000121238234, -0.00027910146, 0.0010436783, -0.0042802524, -0.0011343235, -0.00075244065, -2.697541e-05, -0.0007557998, 5.0840637e-05, 0.0007340602, -0.0014252495, 0.0010675271, 0.000619993, 0.00070945284, 0.0013181712, 0.00048332236, 0.0012693473, -0.0012757392, 0.00072911486, 8.52269e-05, -0.0008619269, -0.0007286698, -0.0008725754, -0.00036978058, -0.0015896552, -1.6607948e-05, 0.0018523077, 0.00014580932, 0.00052251515, -0.0031027626, 0.0009775091, -0.002705644, -3.913229e-05, 0.0011389243, -0.0022795252, 0.0020068053, -3.063609e-05, 0.001633992, -0.0033554784, 0.0011881357, 0.00014436129, 0.00088207005, -0.0037172185, -0.0017578606, 0.00086303474, -1.5357058e-05, 0.00075766526, 0.0011743087, -0.0014838867, 0.0006333217, -0.00018123716, 0.0009043888, 4.051579e-05, 0.0009005631, 0.0015007595, 0.00039683387, 0.0007855425, 0.00023785839, 0.0003970624, -0.002984906, -0.0010504338, -0.00018878054, -0.0016576952, 0.00030517258, -0.0005179933, -0.0008097701, 0.0006509012, 0.00015348359, 0.0019894887, 0.0013943301, 0.0002719015, -0.0009357228, -0.00015227545, -0.0009719092, 7.111067e-05, -3.285153e-05, 0.0024507695, -0.007216411, 0.0005023862, -0.0016171321, 0.0003355549, 0.00021008565, -0.0011914668, 0.0016904691, -0.0009511757, -0.0026591162, -0.0005112764, 0.0007240824, -0.00031760999, -0.0013633709, 0.0006586024, -0.5577044, -0.0008690417, 0.00036759756, -5.4399017e-05, -0.14007212, -0.0011383144, -0.8426419, 0.34620693, -0.0021371148, 0.0016507275, 0.00034008757, 0.36410815, -0.0011229034, 0.003994489, -0.0022610202, -0.00039923485, -0.0011804805, -0.00012049156, 0.44479996, 0.0014713104, 0.12510966, -0.0009318013, -1.4768913e-05, 0.0030449657, -0.00017039326, 0.0043738424, -0.0004119754, -0.00070547534, -0.0010681797, -8.318445e-05, -0.0010063673, -0.0010943001, 0.0003769493, 0.0005534352, 0.0011498135, 0.001700222, 0.0018444466, 0.0003744197, 0.00073530455, 0.0005216355, 6.654208e-05, -0.0018078993, 0.0024624877, 0.0002632096, -0.0004977433, 0.00036462466, -0.004883697, 0.0010452635, -0.001207625, 0.0021653394, 0.00089936337, 0.00043631194, -0.0022187112, 0.0010828746, 9.349472e-05, 0.00047413955, -0.002448793, -7.5093645e-05, -0.44099244, 0.0017303152, -0.0040018116, -0.0006768725, -0.001432093, -0.00027280825, -2.8531038e-05, -0.10310125, 0.0005653744, 0.00088077894, 0.0024184333, 0.0009262841, -0.0006167612, -0.0005639907, 0.0024735508, -0.0022307022, -0.000468725, 0.0005644052, -0.0014857444, -0.0025535426, 0.00087722036, -9.333348e-05, 0.0010432072, -0.00011744868, 0.0028517118, -0.0017700864, 0.0010686968, 0.0019901332, -0.000548217, 0.0019385772, -0.0044930587, -0.0019617607, -0.0010922279, -0.0012944133, 0.0012929484, -0.0023403573, 0.0024646795, 0.00096507475, -0.0041800523, -0.0004391987, -0.0002243428, -0.0012959765, -0.0011085379, -0.00066806, 0.0010359538, 0.00060073886, 0.0025415819, 0.00025740938, 0.002570407, 0.00044241495, 0.0013259829, 0.0013756843, 0.002432897, -0.00013943756, 0.0013915556, -0.00020107898, 0.0006110112, -0.0006782673, 0.0008287823, 6.500789e-05, 0.0013079279, 0.00247315, -0.0005742649, 0.00034216617, 0.000830384, -0.0013345634, 0.002272687, -0.0008261126, 0.0031311023, -0.00022994145, -0.0022111516, -0.00076504087, 0.0022645728, 0.0011056238, 0.0017570381, -0.0004456248, -9.102968e-05, 0.000108398905, -0.0033016028, 0.0021750343, 0.002442133, 0.0012160426, 0.001063181, -0.0022052974, 0.00012976659, 8.86434e-05, 0.00052544614, -0.0005881462, 8.070194e-06, 0.001464717, -0.0021947538, 0.0020195125, -0.00083053386, -0.00035062875, 0.0017947061, 0.0012585372, -0.0018959743, 0.0047531785, -0.0013670158, -0.00010866358, 0.00038941496, 0.00021726062, 0.0012019916, -0.00097445847, -0.0003670504, 0.0019071902, 8.830262e-06, 0.002251139, -0.24582674, 0.3825156, -0.00019477482, 0.0005584706, 0.0012262727, -0.224031, -0.00086218346, 0.0004784353, 0.0030692194, 0.00022280321, 0.0011220137, 0.0013153269, -0.2741734, -0.0010964031, -0.046160802, -0.0013307743, 0.0027817718, -0.00025581935, 0.0019369095, -0.07453114, 0.001386449, 0.0019636683, 0.0008853729, 0.0006578208, -0.00082702964, -0.00077011343, -0.001042283, -8.436723e-05, -0.001352631, 0.0008842954, -0.0012002764, 0.0031116433, 0.00019946677, -0.00082943373, 0.000605686, 0.0005525253, 0.00046068372, -0.00020252896, 0.00086928636, -0.0019530187, -1.3866462e-05, -0.0019175522, -0.0022637947, -0.0013907427, -0.00012864731, 0.00035326806, -0.00084574794, -0.0014069804, -0.0007437984, 0.0021343415, -0.00041029393, -0.0014832141, -0.0016787552, -0.0020023487, 0.00082733156, 0.0017205095, 0.0009829409, -0.002222582, -0.0031426104, -0.0004087551, -0.0022550593, 0.0019285735, -0.0019611435, -0.0005791359, -0.00047059898, -0.0010978801, 0.00064482883, 0.00050396915, 0.85833985, 0.001408114, 0.0007837, 8.3675375e-05, 0.0006685285, -0.0014050868, 0.031526532, -0.00026500062, -0.0012971606, 0.0024211274, -0.24670449, 0.0010081029, -0.0078081256, -0.000430348, -0.0010753351, -0.0005181939, -0.00090761814, -0.04823954, -0.002052435, 0.00028790897, -0.085237175, -0.0024658616, 2.899312e-05, -0.0023563579, -0.37782797, 0.00040034344, -0.002855283, -0.0016116285, -0.00023274875, 0.0008429156, 0.0016715758, 0.07560389, 0.002530572, -7.631135e-05, 0.0013780092, -0.0011088394, -0.0009450547, -0.00012497681, -0.0018729696, 0.0024427255, -0.10948776, 0.0002638824, 0.0002689311, -0.0011926176, 0.0015896887, -0.0012119426, -0.0012837196, -0.00017227896, -0.00078118435, 0.000957284, 0.112815745, -0.00033964764, 0.54338133, -0.2801404, -0.0018599228, -0.0004950727, 0.00022965617, -0.8627392, 0.00052671303, -0.00074069115, -0.4420476, 0.00077376305, -0.00013316952, 0.0012301346, -0.081060335, 0.0013050104, -0.00036048808, 0.0005424599, -0.0030746467, 0.0013388332, -0.0009394738, 0.00022986563, -0.9449091, -0.0010036663, 0.0017569326, -0.0007136827, -0.00068093673, 0.0013281534, 0.00020224118, 0.0014772424, -0.22095278, -0.00095400517, -0.0012125524, -0.00013195048, -0.00034708538, 0.0024769837, -0.10667216, 0.0002733681, 0.0005574708, 0.0018558992, -0.4338317, 0.0016027595, 0.004087254, 0.00030933303, 0.00029548196, 0.0003525571, 0.0009609276, 0.74862796, -0.0011095463, 0.00033418473, -0.16683613, -0.0011769223, -0.0011041337, 0.00050624314, 0.10291449, 0.0035786855, -0.0012562928, 0.004453181, -0.000795762, 0.00026025303, 0.0006836221, 0.00052109745, -0.00045718334, -0.0022774776, 0.0012050037, 0.0012900111, -0.0033080834, -0.0032337357, 0.0013539998, -0.00022486667, -0.00045493484, -0.0016089568, -0.0047426946, -0.0015574716, 0.0010969951, -0.0003275592, 0.0016810419, -0.001968361, -0.0011931036, -0.0013280218, 0.0005852805, -0.0007863181, -0.00095675926, -0.0014460934, -0.0037559099, 0.0040034726, 0.0013954754, -0.0005404895, 0.0008208625, 0.00035201502, -6.9053174e-05, -0.002096707, -0.000305605, -0.00053119287, 0.00019396096, 0.0009828814, -0.00058189395, -0.00042477102, -0.0012922437, 0.0012994296, -0.0060314145, 0.0018395875, -0.0041599683, -0.0008413903, 0.0029134357, -0.0008971115, -0.0022323192, 0.0011531103, -0.00044688556, 0.00063401007, -0.015591384, 0.0018831898, 0.0007968927, 0.0011521936, -0.0023778137, 0.0011385295, 0.010804768, 5.227793e-05, -0.001659573, 0.0011241632, 0.039171632, 0.0015971411, -0.124699906, 7.23979e-05, -0.0012697865, 0.0020449175, 0.002140873, 0.49454793, -0.0006884318, 0.00026730416, -0.7218317, 0.0012088649, 0.0009015207, -0.00068121636, 0.17930683, 0.00057348364, 0.0020151325, 0.00045351894, 0.00014582177, -0.0014407234, -0.00068939175, 0.13273673, -0.0019424842, -0.0016446598, -0.00028119658, 0.0019695233, -0.002230406, -0.0020216745, 0.0025366347, -0.0029315674, 0.00041677058, -0.00028090252, 0.00018366287, -0.0010254469, -3.4422323e-05, -0.0017788935, 6.022927e-05, 0.00038641674, 0.0032356346, -0.0019694138, -0.004862145, -0.002447187, 0.00044282147, 0.00023062027, -0.0027168624, -9.414251e-05, 0.00042506552, -0.00037900594, -0.00042634865, -0.00043329154, 0.0013331284, -0.0014746627, -0.00093321886, -0.0004374662, 0.00083472725, -8.7637745e-06, 0.0003668509, -0.0018411924, -0.0007399692, 0.0016580361, -0.002261517, -0.0007238656, 0.009677164, -0.004216848, -0.0024509358, -0.00238962, 0.0012484915, -0.00025133358, 0.0009104881, 0.0018103101, -0.2542423, -0.00051711506, -0.0013299475, -0.00036806316, -0.0011181175, -0.0004949088, 0.115767755, 0.0019813243, -0.0017680291, 0.0015798998, 0.58541423, -0.0010761183, 0.37101552, -0.052920856, 0.0019461894, -0.002093434, 0.00050178636, -0.052750908, -0.00068828644, -0.00058947364, 0.0031040893, -0.0005552378, -0.0005431659, 2.6753361e-05, 0.39674804, -0.0027679615, 0.49743932, -0.0038393345, 0.00032108347, -0.0003000293, 0.0027103806, -0.38344473, -0.0013232264, 0.00051659386, 0.0012973123, -0.00030439597, -6.155527e-05, 0.0003586018, 0.00089439395, 0.0013683806, -0.0008233318, 0.00056728686, -8.7758584e-05, -0.0027459585, 0.0012243083, 0.00038841937, -0.0008421378, -0.002473738, -0.0031183525, 0.0002986337, -0.0004261225, 0.0009882319, -0.0008742612, -0.00019134162, 0.0012825755, 0.00043713336, 0.0017641652, 0.0004892181, -0.00053610787, -0.00042896334, 0.0014035751, -0.00028706645, -0.0018534013, 0.0011004494, 2.9226358e-06, 9.3371375e-05, 0.0015538826, -0.001836724, -0.0023667938, -0.00071705796, 0.0011148141, -0.00016481258, 0.0012802193, 0.00046679087, -0.00016850373, 0.0009402546, -0.00017302117, -3.1753443e-05, 0.001160549, 0.00040337833, -0.001587359, -0.00086488266, 0.000115500356, 0.0012968597, -0.00066991796, 4.7921203e-05, -0.0006484435, 0.00034552003, 0.00046547587, -0.0013071317, 0.0016148279, 0.0008168358, 0.0001611517, -0.0008735161, -0.0012472047, -0.00086424523, 0.0015684576, 0.00055688963, 0.0005422487, 0.0018725515, -0.0014138541, 0.0040880265, 0.0006916997, 0.0006611622, 0.00070239394, 0.0017289948, 0.0018953227, 8.2655126e-05, 0.00050812605, 0.0016573354, 0.0024111667, 0.0007137783, 0.0014808008, 0.0005293066, 0.00068585697, -0.0011764625, -0.0014556653, -0.0015250335, -0.0006691525, 0.0005025318, -0.001398411, -0.0006944354, 0.001582244, -0.000104982755, 0.0005107592, 0.0010814652, 0.0014715595, 0.0024057727, -0.0008279031, 0.0033009634, 0.0021810017, -0.00060228584, -0.0012850994, 0.000883305, -0.00019503452, -0.00095954066, 0.0012398203, 0.001089409, -0.0020719594, -0.0026091784, 0.00034508738, 0.00013288713, -0.0005194337, 0.0015942939, 0.0019132175, 0.0013730978, -0.0008901115, 0.0019744802, -0.00059019437, 0.0012799915, 0.001486777, 0.0010867543, 0.0016886318, 0.00028360757, -0.0006505131, -0.00349642, 0.0012627002, -0.00048030925, 0.00083366054, -0.0007342064, 0.0014754856, 0.0015910328, -0.000354408, 0.00016530318, 0.00014127465, 0.00059405307, -0.0010662944, 0.0011194232, 0.00044474626, 0.0006882367, -0.0007182161, -0.00049399695, -0.0013726093, 0.0039393096, 0.0008257895, -0.0014128652, -0.00038979892, 0.00015938329, 0.001796074, 0.00021651352, -0.0003838936, -0.0020126137, -0.0009587014, 0.0016670346, 0.0015293445, -0.003206338, -0.00068318396, -0.001854863, 0.000658293, 0.0016556545, -0.0004805558, 0.000119509175, -0.00019076343, -0.0025408836, -0.001310325, -0.0005246968, -0.00018829346, 0.00095850136, 9.483416e-05, -0.0010864213, -0.012933896, 0.0017641425, 0.00076310104, -0.00040798, 0.00065118115, -0.0008797377, -1.1381966, 0.00090038957, 0.001094599, 0.0012597805, -0.0012880923, -0.00011367193, 0.0035282332, -0.017979193, -0.00060717115, -0.0013192475, -0.0018435242, -0.00745134, -0.0003688212, 0.0016780131, 0.27356997, -0.0008637897, 0.0006927421, -0.0002010845, 0.0020107578, 0.0012181664, -0.0030822693, 0.0005720953, -0.0006722836, 0.0003483436, -0.00041839798, 0.69975597, -0.0013877288, -0.00076518906, 0.0012986455, -0.0023639435, 0.0024175248, 5.5728422e-05, 0.001405573, -0.00074012496, -6.020951e-05, -0.00058466726, -0.0002237049, 0.0019517379, 0.0004986968, -0.002172883, -0.00024280083, 0.0014517629, 0.0010276984, -0.0012960025, 0.00107861, 0.0009020812, 0.0019420035, 0.0007591363, -0.00076551625, -0.00045444875, 0.0012601286, -0.0017693543, 0.0004852194, 0.001252598, -0.0012659326, 0.0012872675, 2.5890768e-05, 0.0014404241, -0.0041865464, 0.001002224, -0.00075794745, 0.0023755382, -0.0011930541, -0.00097472576, -8.385425e-05, -0.0012980658, 3.682868e-05, -0.0008860706, -0.0002650672, -0.00041260917, 0.0013201945, 0.00018344184, 1.3154342e-05, 0.0007050533, 0.15490425, -0.00027307012, 0.00059887033, 0.0010892521, 0.00066425523, -0.0009317457, 0.0077030356, 0.0006748472, -0.0012982966, 0.00092079834, -0.08674065, 0.0010853114, -0.0026071633, 0.8560359, 0.0009573228, -8.799363e-05, -0.00055885385, -0.0034073896, -0.0010717455, -0.0024979403, 0.00044132493, -0.0008932329, 0.00055506453, -0.0010234754, -0.25450453, 0.00021099648, -0.39693627, -0.00053860527, 0.00093867315, 0.0013214094, -0.0017874849, 0.00023595165, 0.0012381834, 0.0002262292, 0.00029699784, -0.0025587413, 0.0012403149, 0.0004647572, 0.001024779, -0.00088143424, -0.0010408524, 0.00034881686, -0.00011729571, 0.0017296834, 0.001015606, -0.0002089752, -0.0007294602, 0.00080375356, 0.0013660106, -0.0025543352, 0.2572849, 0.0009066225, -0.00010152714, -0.002190101, -6.4053515e-05, 0.00043274148, 6.183449e-05, -0.0012783613, 0.0012298569, 0.0027834626, -0.0018260909, 0.0003548318, -0.0022511974, 0.0037257383, 0.0018812115, 8.245889e-05, 1.6500336, 0.0018407563, -0.0012829587, 0.00095158874, 0.0015938736, 0.00091075455};
float bias_2[] = {-0.006278093, -0.025157282, -0.08331022, -0.10654159, -0.056975517, -0.0059888572, -0.18875766, -0.056179624, -0.0076733334, -0.19680813, -0.016041504, -0.01542891, -0.021313714, -0.081876375, -0.11779471, -0.08932979, -0.014000272, -0.15924329, -0.07419991, 0.067150936, 0.3769987, -0.09059237, -0.17883988, 0.15336703, -0.007719919, 0.13953222, 0.097642586, -0.11016784, -0.055326976, 0.22322445, -0.12035773, 0.06415466, -0.008794292, -0.007996032, -0.095325224, -0.032122012, 0.22472155, -0.15400094, 0.29994866, -1.0626479};
float weight_3[] = {-0.0012643256, 0.0014437078, 0.00066229136, 0.0006013109, -0.0006682069, 4.2402382e-05, 0.0006722989, -0.0024627987, -0.0004888694, -0.091445066, 0.00016667467, 0.0032069492, 0.0008993047, -0.0013413171, -0.0014818859, -0.0006679569, 0.00036504256, -0.0031134682, -0.00053808553, 0.88651586, -0.09693977, 0.0007388891, 0.0007292833, -0.003023645, 0.0014363306, 0.75405365, -1.399537, -0.03458948, 0.003114, -0.019560985, 0.0006807131, -0.81227, 0.0003209709, 0.0012202042, 0.0005626244, -9.683659e-05, 0.67083377, -0.0024726675, 0.31571648, -0.8084018, -0.00190147, -0.00064335496, -0.0013073597, -0.0005928196, -0.00036844693, -8.116565e-05, -0.0006710139, -0.0011311987, 0.00013648026, -0.45498806, 0.00054303976, 6.293546e-05, 0.00023545686, 0.0012269083, 0.00023876969, -0.0012944789, -0.0011131663, -0.001953675, -0.0028600385, 0.30339226, 0.19902518, 6.935347e-05, -0.00050631486, -0.06384195, -0.0023798463, 0.0004290702, 0.08435345, -0.4941317, -0.0011902221, 0.83676076, -0.000945659, -0.29983792, -0.00035832287, -0.0007996191, 0.0002549843, 0.00087420805, -0.35475352, 0.0010699502, 0.14323236, -0.9079317, -0.00051488116, -0.00050419307, -0.0006188972, -0.0016232119, 0.0011304767, 1.4175728e-05, -0.0006722672, -0.00067042833, -0.0012726877, 0.5414458, -0.0005887568, -0.00014485675, 0.0011492241, -0.0016752265, 0.0012077638, 0.0009018333, 0.00097036496, -0.0007186839, 0.0008044389, 0.28521818, 0.28120372, -0.0028515125, 0.0014329855, 0.59691215, -0.0019157924, -0.004562884, 0.17883322, -1.1958421, 0.0019373038, -0.25655365, 0.0010341206, -0.20481452, 0.000257242, 0.00011852285, 0.0011555109, -0.0012936097, -0.44371533, -0.0007397599, 0.5639326, -1.0182719};
float bias_3[] = {0.39250702, 0.3912838, 0.40669024};
