float weight_1[] = {-0.0018484734, -0.00028324025, 0.00053451123, -0.00068731175, 0.0011948182, -0.000683608, -2.4769268, -3.3317726, 0.00064992736, -0.00074015616, -0.00030327053, 0.0005796658, 0.5657943, 1.2055091, 0.027025899, 1.2652429, 0.3324278, -1.1184399, 0.0018721167, -0.00029161503, -0.0041985936, -4.674591, -0.13830216, -0.13938059, 1.1555383, -1.2281934, 0.16673665, -0.00089505425, -0.00016676757, 0.00022568484, -0.14788662, -2.1326873, -0.38094065, -0.8753798, -0.34731442, 1.9930459, -0.00054881145, 0.00035428812, -0.00089498324, 0.34235677, -1.968068, -0.5950523, -2.316514, -2.417953, 0.0013121476, -0.00085651485, 0.00034665968, -0.0012750267, -0.00071674096, 0.00024379653, -0.0004915979, -0.00022939919, 0.002689792, -0.001392905, 0.00030021954, 0.00013939373, -0.0033691148, -0.43094704, 0.17438309, 1.3690134, -0.0002673018, 0.0010835975, -0.0003944179, 0.00039584073, -7.765606e-05, -0.0003838915, 0.16690142, 0.3736421, 0.63020426, -0.0013846857, 0.0013756002, 0.0007422325, 0.00027933708, -0.0018070625, -0.0005133736, -0.9060783, 0.6094617, -0.6386302, -0.0009028864, -0.0021894563, 0.0006531106, -0.00064733217, 0.00073286, -0.0008437421, -5.0591058e-05, 0.0013026199, -5.30174e-05, 0.0015957322, -0.00049296813, 0.0010727118, 0.0014558709, 1.270447, -0.43749666, -0.5490827, -0.051756874, -5.2646144e-05, 0.0014257135, -0.0023905342, 0.00036822155, -0.0006733862, -0.00045957242, -0.0009123567, 0.00075949775, -0.0007330396, -8.046627e-05, 0.80913883, -0.10614576, -1.4889766, 0.0003218844, 0.0008745205, -0.0013408855, -0.19177222, 0.009783303, -2.8488605, -0.0015970608, -0.0036057048, -0.00055468676, -0.76963264, 1.1648881, 0.41743958};
float bias_1[] = {-0.08093308, -0.006388417, 0.36976692, -0.072437845, -1.0013427, -0.22820237, -0.34993643, 0.19060898, -0.06683177, -0.083831154, 0.5479265, -0.027862933, -0.0038221383, 0.48834717, 0.41227904, -0.016480044, -0.2866445, -0.25947866, -0.39078385, -0.5845826, -0.41798726, -0.16874328, -0.20943889, -0.41009215, -0.09107653, 0.53799224, -0.005255443, -0.069894895, -0.24607047, -0.006668314, -0.47001696, 0.3429089, -0.07360639, -0.06385542, -0.09030637, 0.04841192, -0.4544556, 0.43194038, -0.0063433694, -0.53632027};
float weight_2[] = {-0.0006758309, -0.0007837306, -0.0027512335, -0.0019717673, -0.013031657, -0.7373308, 7.587719e-05, -8.197094e-05, -1.3373042, -0.0031147553, -0.86015147, 1.020579, 0.00039207132, -0.00054613285, -0.0002724713, -0.00024835137, -0.0015344269, -0.0003846374, 0.0013126098, -0.11390486, 0.0010789513, 0.0011366977, 0.18865491, -0.00026672648, 0.0013505076, -1.0397054, 0.0014478604, 0.0010233003, 1.3362267e-05, 0.001097834, -0.00015169161, -0.09537675, 0.00132913, 0.0020091052, 0.0011229179, 0.00069906993, 0.00032319932, 0.0019462701, 0.0012152412, -0.51015353, 0.00069062103, -0.0011634289, -0.0024596532, 0.001307315, -0.00016901304, -0.0016191897, -0.00016897562, 0.0032807556, -0.00076134654, 0.00052635645, -6.039042e-05, -0.00064606423, -0.0011313352, -0.00123489, -0.001301058, -0.004757132, -0.00086793385, 0.0010308102, 0.00075878925, 0.0012833478, 0.0002073582, -0.00029868959, -0.0018068451, 0.0008611125, -0.0012853439, -0.00012457703, 0.00089348265, 0.00013902533, -0.0006546719, -0.0021576153, 0.002053546, -0.0012739112, -0.00090038235, -0.0013172085, 0.00032638432, -0.00010654965, 0.002413121, -0.00021862952, -0.001408229, 0.001312239, -0.0026538945, 0.00050719717, 0.0010500002, -0.0012193407, -0.0011913256, -0.0034390357, -0.0004979913, -0.00036513864, 0.004436296, 0.0037706057, -8.353661e-05, 9.7700744e-05, 0.0015184637, 0.00040717682, -0.00030521082, -0.0012336301, -0.0008132877, -0.0044936696, 0.00036201449, -0.00045212946, 0.0025962943, -0.0006901247, -9.126763e-05, 0.00090646057, 0.0007005155, -0.0021925473, -0.0017557603, 0.00060998584, -0.00075107766, -0.0015998327, -0.0017025915, 0.00085010694, -0.0007997657, -0.001324719, -0.0020076283, 0.004012606, 0.00092326815, -0.00013573136, 0.0011798069, 0.0037664669, -0.0007654213, -0.0011211329, 0.0008719454, -0.00096596027, 0.00056249095, 0.0018549354, -0.00038737027, 5.662322e-05, 0.0016252107, -0.00029293663, 0.0012679473, 0.00059344084, -0.00039975852, 0.0027777904, -0.0006861253, 0.0010262248, 0.0010195968, -0.003150674, -0.00037783844, -0.0002938631, 0.00049621565, -0.00037471915, -0.0011520921, -0.002521369, 0.00032467814, 0.0022106643, 0.0011750903, 0.00027925498, 0.0013192489, -0.0013782204, -0.00017000073, 0.0006740384, 0.0013551833, 0.0033442532, -0.0012130411, 0.0004521945, -0.001383163, -0.00038242096, -0.00052628445, -4.2238855e-05, 0.00012229261, 0.0019612033, 7.646438e-05, 0.00073572225, 0.0012810904, 0.0011753428, 0.0023371256, 0.0011968759, -0.00021716006, 0.0006280701, 0.0011827899, 0.0020018592, 0.00097074185, -0.0015038906, -0.00023450668, 0.00026642898, 0.00075102126, 0.001527829, -0.00096109073, 0.00031902897, 0.00039245738, -0.0010235247, 0.00094262254, -0.00063173095, -0.002228884, 0.0011044266, -0.0009232983, 0.00024882046, -0.0025657369, 0.00024205912, 0.001678033, -0.000688001, -0.0027825153, -0.00082103536, -0.0009352277, -0.00035216298, 0.0010657692, -5.6814053e-05, -0.0011411787, 0.0027231507, 0.0012845469, 0.0021923971, 4.988834e-05, 0.00021828769, -4.496899e-05, -0.041005664, -0.00094095065, -0.35700643, -0.21692866, 0.0009889662, -0.2073372, -0.9933238, -0.00036208786, -0.23699917, 0.09932242, -0.0006553947, -1.31560955e-05, -0.000100848905, -0.00062495866, 0.00086944614, 0.00075836544, -0.0012961944, -0.30221027, 0.0007139558, -0.0011483871, 0.25721934, 0.0012069312, 0.0006705944, -0.004734043, 0.00066656515, -0.41628045, 0.25179195, -0.0021591056, 0.0008271454, 0.0015146713, -0.0139146615, 0.00081646314, -0.43390712, 0.0004835471, 0.7385867, -0.0003905882, 0.00067408377, -0.0028498587, -0.0005869034, 0.00095897046, -0.0005920268, 0.0017468967, -0.00084563956, -0.0016330197, -0.0019367567, -0.0005990193, -0.0018072441, -0.00076629117, -0.003119465, -0.0016648857, -0.0019402836, -0.0020190552, 0.00058074406, -0.0018824142, -0.0006318331, -0.0010045595, 0.0013377991, 0.00067578035, 0.0033802236, -0.0021845591, -0.0004895025, 0.0010216361, -0.002215374, 0.00018738711, 0.00046731753, 0.0042801276, -0.00070332095, -0.00063801376, -0.00022211927, -0.0008340527, -0.0012828489, 0.00032455323, 0.0012593071, -0.0004486657, 0.0017274548, -0.00046402487, -4.737958e-06, -0.0016699748, -0.00081675797, -0.000108550885, 0.00076633424, -0.0031050574, -0.00016635214, 0.0015591052, -0.0013689133, 0.000329116, -0.00042310462, 0.00026918796, 0.00042145507, -0.00026963983, -3.163595e-05, 0.0012460735, -0.0017345538, -0.0013012307, 0.0001863892, 0.0019227471, -0.00030601374, 0.0012896144, 0.00096811756, 0.0042648846, -0.00080531323, -0.00023086678, -0.0011415391, 0.0028159765, -0.0028775635, -0.00021036284, 0.00085760804, 0.0018100246, 0.00046181923, 0.0014861536, -0.0010376176, -0.0017925065, -0.0010412228, -0.0010886275, -0.0011069305, -0.0017119165, -0.002270524, 0.0012882294, 0.0013545615, -0.0017330935, -0.0010881061, 0.0020310236, -0.0016358242, -0.0015738767, 0.0007208694, 0.0007344476, -0.0010839517, -0.0009437401, 9.5195035e-05, 0.00057972816, 0.00023861132, -0.0009182067, 0.0021218401, -0.0009766598, -0.00026114876, -0.0007951046, 0.0007383722, 0.0004619846, 0.00013900548, 0.001656576, -0.00012559543, -0.0013728833, 0.0032968451, 0.0012800577, -0.0018108833, -0.00034994743, 9.6380034e-05, -0.0024720752, 0.001997594, 0.0026493312, -0.0005186451, 1.4318386e-05, -0.0001906715, -0.00074597547, -0.00079634687, 0.0017528732, 0.00065542076, -0.0005212167, 5.574344e-05, -0.0011812134, 0.0015567681, 0.0033716406, 0.000692854, 0.0021706752, 0.002850271, -0.00040588458, 0.00051916105, 0.0015774242, -0.00075958145, -0.0014459114, 0.0012620951, 0.00026701068, 0.0023185515, 0.0028313773, -0.0004447283, -0.0008235543, -8.4995874e-05, 0.0017446837, -0.0016810661, 0.0014958715, 0.00022213376, -0.0006444839, 0.00017214438, -0.0013285483, 0.0018105876, 0.0012961914, 0.0005102941, 0.0012968481, -0.00013043435, 0.0019461445, -0.0024662507, -0.00064999657, -0.002445575, 0.0006526936, -0.00023801136, -0.0013858052, -0.00060591474, 0.0007324312, -0.0007216431, 0.00097215024, -0.0011594695, -0.0011377939, 0.0022650212, 0.004102329, 0.0003866529, 0.0031676223, -0.0007857351, 0.00044462382, -0.00048177852, 0.0001662281, -0.0011753837, -0.00047554635, -0.00045108344, 0.0006334361, 0.0016986259, -0.0007355772, -0.0012247863, 0.0012747224, 0.0012474366, 0.0006027207, 0.00014272518, 0.0024666716, 0.00020439975, 0.0007823586, -0.00018636353, -0.0017283325, -0.0010146733, -0.0004124474, 0.0017566232, -0.0013093504, -0.0018230794, -4.9460214e-05, 0.00020593655, -0.002891773, 0.0038260287, 0.0012283274, -0.001623458, -0.0003260137, 0.00049567816, -0.2080878, 0.26775357, 0.002167807, -0.3330237, -0.61640435, -0.0012552978, 1.2932097, -1.0831281, -0.0014596761, 0.00018587695, 6.4638516e-05, -0.00028082688, 0.0031763907, -0.0007704642, 8.8231056e-05, -0.0006295754, 0.00055441953, -0.0010810411, -0.07363519, -0.0011529631, -0.0008835815, 0.018668117, -0.003119606, -2.4453737e-05, 9.621016e-05, -0.00056258263, 0.089222446, 8.9850946e-05, -0.0011297207, -0.0013699965, 0.00015626065, 0.0003813293, -0.002220912, -0.47359386, 0.00022251089, -5.9321523e-05, 0.0006950015, 0.0005270156, 0.0021634346, -0.00053599675, -0.0012301919, 0.0014751614, -0.0018225149, -0.0006377082, -0.00029513432, -0.0019491403, -0.0010469006, 0.00047875673, 0.00032541784, -0.00046959112, -0.0019746886, 0.0031162156, -0.001799531, -0.0023295602, -0.0014058849, 0.001422195, 0.0007384935, 8.6223125e-05, -0.00058407104, -0.0009473879, -0.0004997037, 0.00032032566, 0.0006539873, 0.0022253334, -0.0009806972, 0.0011263882, -5.2058138e-05, 0.0007904762, -0.0012104397, -0.0009020418, 0.00072344544, -0.00051356904, 0.0010645858, 0.0012839804, -0.0005461443, -0.0010225382, -0.0006746379, -0.0017594489, 1.008698e-05, -0.00088384486, 0.00023537775, 0.002336946, 0.0010985658, -3.0446332e-05, 0.00078394223, -0.000879025, 0.00060236873, 0.002316039, -0.0006744775, 0.0004569639, -0.0015927984, 0.0017416748, -0.00068178045, 0.0024466298, -0.00125276, -0.00067395833, 0.0008707339, 0.0011627434, -0.0037419095, 0.0009746271, 0.0007503667, -0.003766387, 0.00013921002, 0.00097483397, 0.00090556126, -6.30953e-05, 0.0013292857, 0.00024339143, -0.0012846377, -0.0017565002, 0.0006901145, 0.0018911825, 0.0019871374, 0.00021274528, 0.00039553916, 0.0011426115, -0.0019057621, 0.0012238339, 0.000996752, 0.0020269065, -0.00042312485, -0.0005473231, -0.0015280235, 0.0013422675, 0.0024407818, 0.0011342515, 0.0003634228, -0.0011851671, 0.0006683655, -0.0006943026, -0.0011672409, -2.7902046e-05, 0.0012537016, 0.00063791673, 0.0026849264, 0.0023520812, -0.00038952823, -0.0032191584, 0.00040695016, 0.00056293915, -0.0033211275, -0.0011623511, -0.0036150767, -0.0013986349, -0.0021010023, 0.00084572163, 0.0008543828, -0.0018864387, 0.0002969558, -0.0010469818, 0.0003529032, -0.00035270752, 0.00051093334, 0.0003200716, -0.00030306738, -0.0008588324, -0.0010533778, 0.0010261942, -0.0017611028, -0.0009139767, 0.00052251964, -0.00018313018, -0.0008814634, 0.00029388804, 0.0012894517, -0.0008877112, -0.00013864401, 5.655567e-05, 0.0006756305, -0.0005201951, -0.00068429695, 0.0023753126, -0.00088986533, 0.00038511655, -0.0006182769, -0.0015598427, 0.00046690798, 0.0004783669, 0.0040604454, 0.0030961554, -0.00058273354, 0.001226519, 0.0014111031, 0.0017210082, -0.0012478455, 0.0005328045, -0.0021865815, -0.0017292972, -0.0020218564, 0.0003774204, -0.0003091184, -0.00063107634, -1.6635982e-05, 7.7788456e-05, 0.00037691754, -8.660875e-05, 0.0020025019, -0.0006703477, 0.0005223425, 0.00059772894, -0.0014191931, 0.0018048603, -0.0005602584, -0.003881927, -0.0009857402, -0.000115877774, 0.0005022591, -0.0028696482, -0.0011488707, -0.0012806187, -0.0015156112, 0.0016652634, 0.0064447355, 0.00035424525, 0.00074686855, -0.00058221514, 0.0004082067, -0.0007023462, 7.11795e-05, 0.0005147285, 0.0007645198, 0.00032929014, 0.0012322105, -0.0023662748, -0.0041246116, -0.00029458042, -0.0010203298, 0.0015199777, -1.6298145e-09, 0.00086048985, -0.00037357118, -0.0005492139, 0.0006465784, 0.0016221356, -0.0002489215, -0.001275297, 0.0031384234, -0.0007558182, -0.0083841365, -0.00046367024, -0.00085227407, 0.043051127, 8.147006e-05, -0.00077438133, 0.19003414, -0.0010921704, 0.29895896, -0.004870833, 0.0013388103, 0.92335147, -0.2662648, 0.00065176835, -0.0025319885, 0.00093697745, -0.0011226723, -0.00069721875, 0.0032626975, -0.0010720126, -0.00088166085, 0.00020182144, -0.0022595273, -0.25133067, -0.00045906985, 0.000678851, -0.0013018353, 0.0012949929, 0.00073684705, -0.56443834, -0.002867714, 0.0012315335, -0.0010842317, 0.3823249, 0.0047830944, -0.00020154977, 0.002142174, -0.0005726246, 0.00027415925, 0.000554384, 0.00033828375, 0.00133453, -0.00249526, 0.0007046595, -0.00018189952, 0.0016222409, 0.27777934, 0.0016011688, 0.8576039, -0.0002652703, 0.0023377473, 0.44576862, -8.05344e-05, 0.0020231842, 0.00031556934, -0.00080109923, -0.0017246371, -0.001336188, -0.0002052809, 0.0010250433, 0.00071195466, 0.0007427619, -0.0018550983, 1.3084369e-05, -0.0024843956, 0.0008260789, 0.0018453524, 0.00025341788, 0.0013311862, 0.00012254053, -0.0015564627, 0.0018858291, -0.002038878, 0.00026868196, 0.0013576006, 0.00019833156, 0.00038165355, 0.00021113164, -0.0026433098, 0.0011705868, 0.0012625356, -0.0025672787, -0.0011063297, 0.0018303863, -0.0021510078, -3.4531622e-06, -7.157831e-05, 0.00051232084, 2.5382411e-05, 0.00014634099, 0.00058913196, 0.0016831451, -0.00042008667, -4.4020577e-05, 0.0015271215, -0.0022303702, 0.0017367657, -0.00082442065, 2.0732783e-05, 0.0009579083, 0.0005925307, 0.001815759, 0.0010671271, -7.036826e-05, 0.00026228835, 0.00065392227, -0.0012845811, 0.001314847, -0.00019534232, -0.00023106873, 0.00013052241, -0.0011791692, 0.0005691706, -0.0014175731, -0.0006869219, 0.0006038194, 0.0017450076, 2.9564428e-05, -0.00084546744, -0.00013846316, 2.1582932, -0.0041653747, -0.17607673, -0.55483, -0.00068789104, 0.0008243382, 0.035558134, -0.004744549, 0.62293947, -4.446939, 0.0019172947, -0.61577266, 0.85922647, -0.0013116294, 0.0043639224, 0.0024116316, 0.0012382824, 0.0020041568, 0.00064418383, -0.000679409, 0.0046753525, 0.00183468, -0.0024723415, -0.09766358, -0.002469239, -0.0016233304, -0.0031034048, 0.0006855963, -0.19132662, -0.002827, -0.0002974067, 0.00034950284, 0.0006722779, -0.42957455, -0.00058737816, -0.77036977, 0.0016093269, 4.255169e-06, -0.0008906761, 0.001140461, -0.0003023691, 0.00058346963, -0.00032758582, -0.8355595, 0.0011595587, 0.00030860474, -0.00028484612, 0.001242345, 0.049107235, -0.55708635, -0.0019625856, 0.17348407, -0.15288869, 0.0002697521, 0.0022043393, -0.0011717639, -0.00075753004, -0.0026455296, -0.0011843909, -0.0042767115, -1.2536343, -0.001023697, -0.0022625832, 0.097227275, -0.00037101354, 0.0005446928, 0.001343591, 0.0019814444, -0.85177386, 0.03576471, 0.0001182296, -0.0014057714, 0.00047603482, 0.24795179, -0.0002886504, -0.39714196, 0.0008646534, 1.6728432, -0.0006402075, 0.0005348845, 0.0019885849, 0.0021613475, 0.0008673664, -0.0009819716, -0.0019883537, 0.0014219852, -0.000880997, -0.0007395214, 0.0042558266, -0.0014816782, -0.0009705423, 0.00063033274, 0.001154361, -0.0003194976, -0.002244763, -0.0002968556, 0.0011842817, -0.0002517237, -0.0009188973, -0.0023917924, -0.001928654, 0.0014117906, -0.0011291208, -0.00081440154, -2.6253052e-05, -0.0012843017, 0.0013181814, 0.0012957981, 0.0018823735, -0.00046042263, 0.0017669221, 0.0012765984, -0.0008147357, -0.0019172594, -0.0013925154, -0.0005867946, 0.00054029643, -0.0008581535, -0.00046404137, -0.00087767653, -0.00011332694, 0.0010969061, 0.0006311581, -0.0001003443, 0.0006571137, -0.0006710516, 0.00063536235, 8.904241e-05, 0.0012987778, -0.0010530527, -0.0013037585, -0.000109318295, 9.846466e-05, -0.0013019055, -0.00093256705, 0.0020728433, 0.001397067, 0.0016648243, 0.00014855713, 0.0026780905, 0.0016557124, -0.0005708773, 0.0014448268, 0.0025087995, -0.00059988204, -0.0021891168, -1.6797654e-05, -0.0024895403, 0.000119632576, 0.0018641752, 0.00061539345, -0.0014582447, 8.7958826e-05, 0.00026362148, -0.00038561685, -0.0017990313, -0.00010420545, -0.0008529155, 0.0014887741, 0.005035142, -0.00021876325, 0.0014669913, -0.2060729, 0.0943705, 0.0014045462, -0.8984118, -0.15909119, -0.0018712998, 0.00011620329, -0.11894029, 0.00030217753, -0.9180641, 0.00043894618, -0.0008835152, -0.00059039216, 0.0017659673, 0.00031185074, 0.00012135302, -0.001133542, -0.0015565105, -0.00011035272, -0.00033283277, 0.0018052558, -0.0078550745, 0.0012488996, -0.00045877963, -0.00010613818, 0.0017488908, -0.08069065, -0.19178016, -0.00053457957, -0.00061726297, -0.00034595234, 0.18323523, 0.0026125791, -0.04448047, 0.0010155975, -0.32707855, 0.00027517352, 4.1222956e-05, 0.002764761, -0.00062505837, 0.0009768992, -0.0017811839, 0.0018687174, -0.00024930073, 0.00012846908, -0.00028829597, 0.0022801661, -0.0014974334, 0.0025118534, 0.00016059511, 0.0018654738, -0.0007828638, -0.0011248162, -0.0009012304, 0.0002592515, 0.0026305676, 0.0013630966, 0.00069133204, -0.0009082874, -0.0010931034, -0.0005815089, -0.0018651062, 0.0010674936, -0.00059647876, 0.0004324194, -0.0015559433, -0.0023218866, 0.0005896597, -0.0025449125, -0.0010761505, -0.000716566, -0.0003856859, 0.001020415, -0.0020125369, 0.00036199414, 0.0017036749, -0.0008777329, 0.00024345322, -1.2398957, -0.0009282345, 0.19744618, 0.000104018305, 0.0005595563, 1.7479497, 0.47483957, -0.00047535263, 0.12588468, 1.186883, -0.00015098324, 0.53796893, -2.0969074, 0.0012325675, -0.0005296781, -0.0001371713, -0.0007179803, 0.6269868, -0.0028562848, 0.0011235062, 0.00027328506, 0.0014263955, 0.0010698608, -0.09995278, 0.001843282, -0.0017055157, 0.0036936412, -0.0016890743, 0.7919891, -0.059066683, 0.00081679836, -0.002086217, -0.0027350076, -0.06266489, 0.0014631643, 0.33831197, -0.0027942064, -0.013989583, 0.0032977718, 0.003062155, 0.0012582886, -0.00039638506, -0.0015715653, 0.00200088, -0.00052123825, 0.00027149066, -0.0012157322, 0.00072268595, 0.0018688051, 0.0005026512, 0.0005499829, -0.00087415916, 0.00067973696, -0.0006686595, -0.000975522, 0.00019490486, -0.0001247939, -0.0020474112, 0.003989691, -7.749663e-05, -0.00064892793, 0.0019563902, 0.00096813956, -0.0027648413, 0.0011152758, -0.00079284364, -0.0010905215, 0.00066961854, 0.0014790413, 0.0006413977, -0.0006447407, 0.00038017746, 0.0022705477, 0.0011801193, 0.0010039893, -0.004679765, -0.00017726934, 0.0008424148, -0.0013830165, 0.0009866889, 0.00062288606, 0.0001417175, -0.0016641886, -0.00056016596, 0.00039657077, 0.00077527406, -2.5060726e-06, 0.00020573757, -0.00037604055, -0.0009966049, 0.0010358762, -0.00031993783, -0.0018884654, -0.001147655, 0.004654277, 0.0003675922, 0.0030200856, 0.00064527453, 0.00012140779, -0.0012012355, 0.0003015589, -8.9229434e-05, -0.0009208261, -9.059947e-05, 0.00094204163, 0.00070128334, 0.00067156646, 0.0007802849, 0.0014904977, -0.001397826, -0.0019555653, -0.0016666192, 0.0010360314, -0.0007018668, 0.0028812215, -0.0015155133, -0.0004717735, -0.0007894764, 5.487424e-05, 0.0007546126, -0.001137591, 0.00037092064, 3.6165016e-05, -0.00015567755, 0.001196116, 0.00080367224, -0.0028968302, -0.00065877056, -0.0023945584, -0.0004913667, -0.00023258112, -0.00037291017, -0.0008544317, -8.345998e-05, 0.00063659565, -0.0014659737, -0.003984863, 0.00025054964, 0.00029445405, 0.0014624356, 0.0017943388, -0.00045435852, 0.001509126, 0.0012344315, 0.00011184107, 0.0010258447, -0.0001534078, -0.0027417466, -0.0026124297, 0.00069682073, -0.0012541048, 0.0014038483, -0.0015536938, 0.0024064449, 0.001521243, -0.0011769668, 0.002153682, -0.0030369111, -0.0019783147, -0.0015564315, 0.00019160382, 0.0002894802, -0.0013522251, 5.4632546e-06, 3.8098427e-05, 0.0005115404, 3.3902586e-05, -0.0005818193, 0.00013960397, -0.0014821382, 0.0010695998, 0.00041416104, -1.0999727e-05, -0.0024786233, 0.0005723386, 0.0012819913, 0.0013551142, -0.00073068065, 0.00075498834, -0.0031294967, 0.0015892613, 0.00080785836, 0.0010708407, -0.00072448247, -0.001998032, -0.00086777704, -0.00035437942, -0.0007183532, -0.0019507516, 0.0016356669, 6.707298e-05, 0.0013440461, 0.0020468459, -0.0020121378, -0.0031097778, -0.0019673605, 0.0012497872, 0.0020493453, -0.00064001547, -0.0007138248, 0.0027452197, 0.0012499875, 0.0011762267, -0.0014315549, -0.0006618469, 0.0020087608, 0.0013939219, 0.0011938213, -0.000782861, -0.00018163561, -0.0013098817, 0.0006287869, -0.001255118, 0.0007732827, -0.0018053879, 0.0005329754, -6.406169e-05, -0.0018852287, -0.0017649465, 0.0004811535, 1.1602198e-05, -0.00017851056, -0.0006916351, 0.0007686834, -0.00031769162, -0.00081245473, 0.0014274229, -0.003904872, 0.00086697197, -0.00027816417, -0.0001367749, -0.0007932215, -3.9747916e-05, -0.00043523227, 0.002832673, -0.004175378, -0.0008227868, 0.0004987031, -0.0003343639, -0.00031128095, -0.0016739437, -0.0009393397, -0.0007237175, 6.614515e-06, -6.0532708e-05, -0.0011046038, 0.00063322077, -0.0017431506, -0.0025608726, -0.00062902574, 0.0015841965, -0.0015372823, 0.002774701, -0.00030947727, 0.0012492099, 0.0006418198, 0.0010731504, 0.0019691186, 0.0006097385, -0.0010964309, 0.00030712865, -0.0020157557, -0.0018176072, -0.000822959, 0.00045105012, 0.0018127557, 0.00080157013, -0.0010456196, -0.0011023269, 7.2031806e-05, 0.0022355085, -0.003732019, 0.0012744317, -0.0028270644, 0.0001701176, -4.0249142e-07, -0.0005626364, -0.0010112433, -0.0024022493, -0.00012646569, 0.2699868, -0.0018063543, 1.0296603, -0.16960058, -0.00040255947, -0.4594105, -0.05382086, -0.0018678952, -0.00018372733, 0.20846559, -0.00051629695, 0.8381348, 0.37313047, -0.00044633728, -0.000788912, 0.0012338179, 0.0010186202, -1.0044417, 0.00071573944, -0.00056206575, 0.08226881, -0.001819231, -0.0028622805, -0.044455104, -0.0012644713, 0.0012636832, -0.0012639341, 0.00019003556, -1.1885117e-05, -0.00036482874, -0.002140535, -0.0019505353, -0.00081329764, -0.45720437, 0.0018957325, 0.0054457984, 0.0005551226, 0.005657473, 0.002472192, -0.0006771334, 0.0002873604, -0.0016377664, -0.0021668389, -0.0019338547, 0.0013457887, 0.0004687105, -0.0033026626, -0.0013000459, -0.001297314, 0.0014135959, 0.00024958624, 0.00022333325, 0.0009788632, 0.0011369305, -0.0017848475, -0.0018701851, 0.0011754257, -0.0002525914, 8.092438e-05, 0.0007384812, -0.00070028484, -0.00024310173, -0.0021446843, -0.0016883679, 0.0028599242, 0.0012974993, -0.0005580463, -0.0028566236, 0.0011406093, 0.00012720778, -0.00067721825, 0.0032981005, 0.0009840947, -0.00029262062, -0.0036180944, 0.0013009888, 0.0006033802, -0.00066659576, -0.0010926125, 0.0019423611, -0.000875388, -0.0017290541, -0.0016140174, 0.0013341445, -3.359071e-05, 0.0016291682, -0.0007770902, 0.00020804943, -0.00090114085, -0.0012365973, -0.0017113327, 0.0017102726, -0.0003016973, -0.00076173723, -0.0009793406, 0.00028914853, -0.0012144586, -0.00079269987, 0.0017754408, 0.00057181995, -0.0041814353, 0.006477548, 0.00047296577, -0.0025023534, -0.00011972111, -0.00070436986, 0.0015243561, -9.076891e-05, -0.0006545579, -0.0010780485, -0.0008791384, -0.0020111308, 7.897359e-05, -0.00088168884, -0.0010897997, -0.00056666776, -0.0012949525, 0.0005472908, -0.0013120987, -0.0007273451, -0.0006960271, 0.0004929606, -0.0012992399, -0.0010967577, -0.00059737684, -0.002290587, 0.0016935831, -4.278464e-05, -0.0017947262, -0.00059703353, -0.00029467224, -0.002324385, 0.00040952617, 0.00036814384, 0.00031265942, 0.00020861928, 0.0013753555, -0.0013109448, 0.00036481526, 0.00046856573, -3.2975222e-06, 0.0011460409, 0.0003497755, 0.00068726495, -0.0014890146, 7.136801e-05, -0.0004958097, -0.00053188193, -0.00069919316, -0.0003035358, 0.004291756, -0.0015593503, 0.0035356293, 0.00047479122, 0.00020077382, -0.001038396, -0.0006099105, 0.000927169, -0.00028345585, 0.0028122023, -0.0005779439, -5.5479875e-05, -0.13555951, -0.6068097, 0.00011863874, -0.0013941224, 0.67135656, -0.0014161258, -0.40794316, -0.29581687, 9.992477e-05, -0.13157928, -0.0019372468, 0.0012215364, 0.0007436124, 0.0027648662, 0.0034037614, 7.470301e-05, -0.000756133, 0.000888735, -0.07730064, 0.0025330726, 0.0019384887, -0.0054126293, 0.0012117652, 0.001566992, -9.554165e-05, 0.00025255737, -0.00066839176, -3.387028e-05, 0.0024167593, 5.363027e-05, 0.00088057725, -0.52312654, -0.0004482685, -0.4858185, -0.001104543, 0.00028858107, -0.0012417587, 0.0024582199, -0.0028669268, -0.0013260795, 5.903133e-05, 1.2748904, -0.0031048045, -0.0015891305, -0.00044545013, -0.00047625264, -0.0057897833, -0.567639, -0.00057998253, 0.5226925, 0.002062987, -0.0004977018, 0.0005431282, 0.003490121, -0.0022811913, 1.4769306, 0.0016415832, -0.0016219588, -0.00013373393, -0.0027674257, -0.0012829937, -1.7922037, -0.00022318709, -0.00044010964, -0.0029818765, -0.0012935633, 0.0038653924, -0.0068079657, -0.0020096425, 0.0006446874, 0.0010491372, 0.4967365, -0.00040561907, -0.26484063, -0.00038069405, 0.48572996, 0.0017669068, -0.0012452584, 0.000106832675, -0.0012949472, 1.7851562e-06, -0.00012224764, -0.00065571023, -0.0014668223, -0.000111481466, 0.0007023707, 0.42555472, 0.00015739969, -0.00016890187, 0.12588294, 9.1535534e-05, 0.00017418619, 0.00037618843, -0.0011184681, 0.00090771, 5.9979473e-05, 0.0021841158, -0.0012973933, -4.6973713e-05, 0.0007141061, 0.0010602928, -0.0026948336, 0.0011699649, 0.00049371994, -0.0035318728, -0.0017389043, -0.00021838419, -0.0004809076, 0.00045836705, -0.001147981, -0.00060767477, -0.00026554515, -0.00040549785, -0.22597685, -0.00074162544, 0.00081582204};
float bias_2[] = {0.38330746, -0.1015669, -0.14503863, -0.020721814, -0.10415749, 0.21090889, -0.0941975, -0.0072802603, -0.024185156, -0.21893258, -0.0991314, 0.22947592, -0.0066735153, -0.011684994, -0.062301897, -0.10211645, -0.041730937, -0.41579723, -0.62619126, -0.007358472, 0.36662397, 0.34453428, -0.03175989, -0.011559566, 0.21015374, -0.06687665, -0.09736392, -0.016009238, -0.08784972, -0.06707531, -0.106158115, -0.10146864, -0.13209756, 0.08793602, -0.020793272, -0.12548794, -0.15335466, 0.21568581, 0.17940564, -0.011699368};
float weight_3[] = {1.1615359, -0.0012856957, 0.001532875, -0.0002954941, -0.00015663746, 1.0049628, 0.0005832649, 0.0025718044, 5.3675438e-05, 0.0016902508, 0.0003817462, -0.6838191, 0.0009240896, 0.0013566155, 0.0005083162, 0.0037745992, -0.0012667612, -1.5756023, -8.853611e-05, 0.0034462584, 2.047804, 0.8068387, -0.00088355085, -0.00096246676, -4.674759e-06, -0.0018403089, -0.8930663, -0.0010645487, 0.0021708524, 0.0019624429, 0.00047697342, -0.00010451532, 0.00017273996, 0.96495825, 0.00065392745, 0.0012452265, -0.0018193779, -0.81586957, 1.1588447, 0.1309487, 1.1035882, 0.00043319247, -0.00052334834, -0.00039159323, -9.148609e-05, -0.12453754, 0.0014508031, 0.00020884554, 0.00082199776, -0.00080709875, 0.0008955787, 0.46167874, -0.00092417205, 0.0017918883, -0.00027000188, -0.0007149611, -0.0004554944, 0.21373446, -0.63091964, 0.0002597391, 2.5575857, 1.2411171, -0.00025585806, 0.00075804174, 1.3043612, -0.0006382052, -0.54532814, -0.0017273482, -0.00076088926, -0.0019775187, 0.003818315, 8.305501e-05, 0.0008983421, -0.8363709, -0.0014403178, -0.00088373496, -0.0005245528, -0.0003508322, 0.47029018, 2.819567e-05, 1.1130494, 0.0005966867, -0.00081221596, -0.0005140911, -0.0011933104, 1.324495, 0.0008688403, -4.2123836e-05, -0.00033666834, -8.803664e-05, -0.0006806696, 0.8242232, 0.0002554439, -0.0007390069, -8.36578e-06, 0.0009838155, 0.00072885945, 0.58631104, 0.5589108, -0.0035006471, 1.6658449, -0.94446546, -0.000511382, 1.6411708e-05, -0.46853632, -0.0020233237, -0.71091604, -0.0028139385, -0.001025615, 0.0017635962, 0.0025585198, -0.002018754, -0.00014222728, 0.16407095, 0.0024400523, -0.0012812589, -0.00021454459, 1.1267759, -0.10460221, -0.38535422};
float bias_3[] = {0.18985766, 0.13600126, 0.3490359};
