float weight_1[] = {-0.0024668789, 0.0007551321, -0.0042774854, 0.794436, 1.0609131, -1.414395, -0.6338033, 0.31031403, -1.1846614, -0.0004878633, 0.000216385, -0.0010286845, 0.00090330484, -0.0024142573, 0.0011740469, -0.00065149117, 0.0019012296, 0.0006836199, -0.00246914, -0.0012869458, 0.004270401, 0.002783908, 0.001983331, -0.0006569327, -0.0042865165, 0.0013879439, 0.00028904754, -0.6116391, -0.6506532, 0.86240125, 1.4984666, -1.5422632, 0.8841575, 0.0003444046, -4.2935688e-05, 0.0008136928, 9.976799e-05, 0.00051877135, -0.0012856151, -0.6936863, 0.9724309, 0.68777466, 0.0009736611, -0.00086905796, 0.0032922588, 0.6099338, -1.7864078, 0.5288547, -1.1062933, -0.80220765, 0.39845252, -0.0021296334, -0.0019459802, 0.0011120494, 1.0998892, 0.046765514, -0.16130686, 0.0016927775, -0.00029224931, 0.0012894026, 0.00017258083, 9.087149e-05, -0.003218262, -1.4930445, -1.3917898, -0.96448207, 2.4997862e-05, -0.0006220209, 0.00023935258, 0.23742892, -0.6115591, 0.33144847, -0.0009747959, -0.0009935556, 0.0011802757, -2.0535583, 0.1034392, -1.0222647, -0.47027782, 0.029441794, -1.2997181, 0.0011590208, -6.1597784e-05, 0.0014378402, -3.9206687e-05, -0.0012011423, 0.0006431473, -0.0006540582, -0.0018083762, -0.0021602695, 0.8131678, -0.55456674, -1.3921596, -0.00056702114, 0.0002471371, 3.1493546e-05, 0.53019875, 0.6943231, -0.915923, 0.00059471815, -0.00017245699, -0.00032229256, -1.2523494, 0.19852377, -0.48881176, -0.00090471137, 0.00098739, -0.00017897191, 1.1083455, -1.971156, -0.24723573, 0.00014304795, 0.001625468, -0.0004737157, 1.3711673, -0.061559197, 0.7673959, 0.000246628, -0.0006077493, 5.314173e-05};
float bias_1[] = {-0.6107133, -0.6160672, 0.5161437, -0.3305414, -0.3236728, -0.49763882, -0.049467523, -0.10198352, -0.13632351, 0.038070932, -1.0546428, -0.056998126, -0.017475834, -0.59121054, -0.024487717, 0.5532792, 0.72831607, -0.13576771, -0.57873225, -0.36246186, -0.013232774, 1.2954258, -0.33824223, 0.33515513, -0.26016033, 0.69533646, 0.42850947, -0.54762745, -0.00852719, -0.11526887, 0.70752496, -0.44322562, -0.013205327, -0.34845915, 0.64040405, -0.59043723, 0.12157068, -0.04196512, -0.937225, -0.00677447};
float weight_2[] = {-0.0009846102, 4.430875e-05, -0.0039159516, -0.00079574535, 0.0006099313, 0.00057018595, 4.857767e-05, 0.00048679672, -0.00097373687, 0.00096872053, -0.0013540874, -0.0003287869, 0.0023711897, -0.0014285222, -0.003259963, -0.003314199, 0.0003983806, -0.0012705188, -0.0011451206, 0.0005904609, 0.0010739679, -0.0015024043, -0.0017388383, 0.0019946806, 0.00053469953, -0.0027970963, -0.0007538348, 0.0005438582, 0.0014865573, -0.0032865452, 0.0011786954, -0.00012323295, 8.889771e-05, 0.003707354, -0.00030536402, 0.0010639862, -0.0012959552, 8.520024e-05, -0.0008606829, -0.0023520323, 0.00056495465, -0.0019126587, 0.0023898382, -0.0022129153, -0.00016514701, 0.0023311037, 0.00064350973, -0.0010208512, 0.00069456757, 0.001582493, -0.0012730705, -0.0013310518, -0.0018781843, -0.00039445853, 0.0014441148, -0.00200961, -0.0013230274, 0.00050869305, 0.0005426463, 0.0007149918, 0.0012929137, -0.0019407932, -0.0014358249, 0.001450646, -0.000903146, 3.5540434e-06, 0.0012896678, 0.004419936, -0.0014514143, -0.00023496081, -5.2689575e-05, -0.00053088926, -0.00059108227, 0.0023145864, 0.0020802538, -0.00077872083, -5.192496e-05, 0.0006988722, 0.00056091696, 0.0009198348, -0.001104966, -0.0009264904, 0.0005988952, -0.0005302242, -0.0013572635, -0.00076563976, -0.00046982084, 0.0006996461, -9.467609e-05, 0.0013784908, 0.00036303623, 0.00074072427, -0.002484825, 0.00010478601, 0.000987608, 0.0007537884, 0.0010276265, -0.0005128753, -0.0005132989, 0.0013838309, -0.00142352, 0.002034695, -0.0018592282, 0.0010754026, 0.0020353515, -0.0012670406, -0.00086409686, -0.0037529175, -0.00073209754, 0.0019196338, 0.0013961024, 5.1687442e-05, -0.0007515723, 0.00028429076, -0.0015192044, 0.0001106452, -0.00016984543, 0.0026387374, 0.0014847042, -0.00075451675, 0.00011681509, 0.00037128828, 0.00066076586, 0.0031141555, -0.0017298508, -0.0013396883, -0.0019485891, -0.0027802854, 0.00054313004, -2.6597234e-05, -0.00062430894, 8.8819885e-05, -0.0011550378, -0.0013536261, -0.0012840915, 0.0006833627, -0.0017879833, 0.0020114935, -0.0020096644, -0.0018925436, 0.0013112859, -0.0015417966, -0.00015614898, -0.00064171903, -0.00066255603, -0.0004946823, -0.0011626396, -0.0011449343, -0.0006292319, -0.0019417907, 0.00013183133, -0.00036679444, -0.0017688863, 0.00021595872, -0.0016900789, -0.0019168538, 0.0008891652, -0.00054324674, 0.0012455678, -0.0014958086, 0.0022863373, -0.0037642466, -0.0008748942, 0.0014618775, 0.0020524613, -0.00065458054, -1.2964068e-05, -0.00026005617, 0.0014701798, -0.0010090093, 0.0009018453, 0.0010211217, -0.0012182761, -0.00039597158, -0.0002488824, 0.00072155683, 0.0011493848, -0.00045665517, 0.0018951007, -0.001268871, -0.0010552926, -0.00039362386, -0.00023527288, -0.0028891866, 0.00066456513, -0.000523869, 0.0008162575, 0.00069739454, -0.0007569487, 0.0044280407, -2.2411987e-05, 0.00051498075, -0.0026400979, 0.00041369494, -5.823141e-05, -0.001205759, 5.353778e-05, 0.0010933266, -0.00018883226, -0.0030183124, 0.00021987833, -0.18926552, 0.231164, 0.0010646733, -0.0009341647, 0.00057222304, -0.0015732435, 0.0007697941, 0.0030788376, 0.8749961, -1.3008035, 0.0014997006, -0.00045085992, 0.31601453, -0.000507105, -0.14315796, -0.86308223, -0.00047731737, -0.30015007, -0.00055331347, -0.0017692667, 0.00020030065, 0.0008975227, 0.15952106, -0.0021921122, 1.0233603, -0.00013295481, 0.0023982208, 0.0012551595, -0.00050573994, -2.4729934, -0.00016615388, 0.09361844, 0.00035035732, -0.2144547, -0.00045411687, 1.7037557e-05, 8.2253595e-05, 0.4419432, -0.0007297504, -0.00130681, -1.0389572, -0.3281965, -0.0012648558, 0.0019498961, 0.0011686253, -0.0006419808, -0.00044225878, -0.0037974678, 0.19115622, -1.3845749, 0.00011120213, 0.0010364279, -0.5121839, -0.002148238, 0.44288978, 0.15842907, 0.0013946341, 0.32513177, 0.00017937284, 0.0010629507, -0.4310477, -7.8202196e-05, -0.6698178, 0.0005973826, 2.0311406, -1.2264156, 0.001297451, 0.0013778106, -0.0005480894, -0.40070903, -0.0016664679, 0.8134921, 0.0012419969, -0.6428396, -0.0005237337, -0.007157729, 0.0006997575, 0.00043098364, 0.0008987025, 0.0004302179, -0.0008969005, -0.0011876487, 0.00013823171, -0.0037302272, 0.00030968862, 0.002189859, 0.0009603845, -0.0006156693, 0.00029877573, -0.00015868945, 0.0010485542, -0.0018107416, 0.00033860642, -0.0019849348, 0.0030086688, -0.00027162384, -0.0008888153, -0.00029844523, -0.0006808673, -0.0010482012, -0.002701936, 5.5938028e-05, 0.0037851082, -0.0018006572, -0.0019960005, -0.0004548988, 0.0024145308, -0.00049415586, 0.0027819066, -0.0012615551, 0.0013427618, 0.0009364771, -0.0024219193, -0.0010824652, -0.00056383654, -0.0004055712, -0.0018810793, 0.0013095442, 9.0852845e-05, 1.9200466e-05, -0.10947371, 4.4046763e-05, 0.0005794953, -0.0024697916, 0.0008660635, -0.00030465226, -0.0013774903, -0.00046706898, -0.00022866018, -0.0004618672, -0.0010941834, -0.0032866944, -0.00068524736, 0.00079278403, -0.54577076, -0.05106736, -0.0021608325, -4.420765e-05, 0.001408237, 0.000985394, 0.00027931272, 0.0012981124, -0.061095245, -0.0006974963, 0.00070279196, -0.0001663733, -0.00018244341, 0.0017943598, 0.001943014, -2.111783e-05, -0.0023071747, 0.02406484, -0.0015536994, -0.85484725, 0.00028098398, -0.00010934922, -0.0008625135, -1.7229135, -0.0012896686, 0.0012957233, 0.0012439715, -0.0008505995, 0.0025732373, -0.0012504235, -0.0012664947, -0.0016242482, -0.00046047778, 0.00022029814, 0.0003795295, -7.766855e-05, 0.0009845513, 0.00058138045, -0.0016221646, -0.0004612069, 0.0023856289, -0.0010241404, -0.0006731241, -0.0012646802, 0.0008715252, -0.0012925421, -0.00063126715, -0.000662083, -0.0008780186, -9.633787e-05, -0.0009683532, -0.0011442846, -0.0022336175, 0.0031131185, 0.00022411585, 0.001943485, -0.0017889667, -0.00047043955, -0.00010298623, -0.0009790523, -0.00049000955, 0.0021647778, -0.0006453386, -0.00030232174, -0.00027215053, -0.0007495185, 0.90223086, 0.63053125, -0.000102834776, -0.0014579457, -0.0010113737, -0.0013016076, -0.00031799948, -0.00089053944, -0.7397362, -0.23504567, -0.00045483734, 0.0013787722, -0.79770666, -0.001030383, 1.6103289, -0.89113903, 0.0025591939, -0.24655944, -4.2025582e-05, -0.0011151982, -0.24984863, 0.0008965565, 0.24518795, 0.0006715755, 0.7845546, 7.9135854e-05, -0.0009361823, 0.0022009874, 0.0012682572, -0.1739608, 7.761025e-05, -0.27620536, -0.00088259083, -0.8011277, 0.0010127102, -1.304447, 0.0014882945, -0.9166064, 0.0015115618, -0.0014479288, 0.0017098787, -0.00023688399, -0.0007864998, -0.001626526, -4.8910617e-05, 0.00069938076, 0.00097586925, 0.0005901643, 0.00021554827, -0.0005115175, 0.0014455034, 0.00067017134, -0.00011795509, -0.0041767284, -0.00024313992, -0.0020716703, -0.001760877, 0.0007414898, -0.0031157914, -0.00044279583, -0.0012985375, 0.0012869248, -0.0009743532, 0.00043761893, 0.00073760725, -0.00417924, 0.0009899456, -0.00094200013, -0.0019010963, 0.0016472358, -0.0018172059, 0.0011303722, 0.0018007715, 0.00067548594, -0.0017505264, -0.0012985343, 0.00076011627, 0.00039472186, 0.00087999034, -1.7305138e-05, -0.00087237003, 0.00012933364, 0.000941387, -0.00027388718, 0.00086925237, 0.0005492756, 0.0027908057, -7.456448e-05, -0.0013009175, 0.0010987213, 0.0013127163, -0.0010007741, -0.00075385236, -0.00079105014, -0.00050892256, 0.0007605292, -0.00149242, -0.0026800558, -0.00038730365, -0.00078577315, -0.004289845, -2.5477158e-05, -0.0006277456, 0.0034634937, 0.00037084095, 0.0013520486, -0.00021662377, 0.00057965977, -0.0002305471, 0.00084448565, 0.0012308478, 0.0023952238, -0.004040522, 0.00022977527, -0.0016206305, -0.00066263776, -0.00018641714, 0.0002742488, -0.00060417753, 0.0003465275, -0.00022315345, -0.86227286, 0.0005511315, 0.0031167585, 0.00048097374, -0.001123653, -0.0003658291, 0.0037589516, -0.62431175, 1.3443589, 8.639658e-05, -0.0014729671, 0.91533035, -0.0022602612, 0.8088545, -0.5034615, 0.00089298276, 0.030823424, 0.0038131634, 0.00029897783, -0.0018149373, -0.0012978005, -0.08838484, -0.0012359524, -0.16737065, -9.3207695e-05, -0.0044322745, -0.0027216265, 0.0006475634, 0.0012817631, 0.0034174228, 0.46470118, -0.0024714475, -0.36762905, 0.002465318, -2.2906694, -0.0021528585, -0.7246323, -0.0013480512, 0.0011315319, 0.00016797683, 0.00030265632, 0.0017599456, -0.0009676457, 0.0015081118, -0.00090182864, -0.0020963298, 0.0007836777, -0.0007068814, 0.00065529917, 0.0007726189, -0.0007573565, -0.002190851, -0.0015207544, 0.00028483325, 0.0006449975, -0.0010357274, -0.0032999516, -0.0026508821, -0.0012969157, 0.0020914087, -0.0010258182, 0.0006587607, -0.00021733041, 0.00091383414, -0.0010219385, 0.0003120948, -0.0006092774, -0.00075027056, 0.00078642275, 0.002428373, -0.00057918584, -0.0012010478, -0.0011792487, -0.0013276276, -0.0011932651, -0.0006620632, 0.001450402, 0.0008886016, 0.0012278128, -0.0006935827, 0.0010990654, 0.002469562, -0.000999528, -0.0008831976, 9.9223864e-05, 0.0014869878, -0.0031101056, 0.00019169861, 0.00091160013, -0.0012470144, 0.0006589656, 0.0014977138, 0.00046056148, 0.0005706271, -0.0015803755, 0.0014368801, -0.0005877904, 0.0010274334, 0.0032978314, -0.0042480677, -0.0012806118, 0.0031166407, 0.003283043, 0.001252413, 0.0024774335, -3.7623133e-05, -0.00019292353, 0.0006951943, -0.001188063, -0.0011424432, 0.0025572176, -0.0008500539, 0.0009189191, -7.938652e-06, 0.000635365, 0.0005109575, -0.0030987728, 0.000732312, -0.00068686146, -0.1279467, -0.06842197, -0.00013675861, -0.00080767885, -1.8498293e-05, 0.0018005815, -0.00016115725, 0.0008905066, 0.00547766, -0.8078644, -0.0026596917, 0.003898836, 0.50356954, 0.0016479271, -0.18652922, 0.18810068, 0.00088903535, -3.623565e-05, 0.0015279751, -0.0022238747, -1.2389984, -0.0012926596, -7.3305127e-06, 0.0012780933, -0.00036971417, -0.00031802076, -0.00086536596, -0.0009009424, 0.0010678569, 0.6619985, -0.00010135956, -0.028852334, 0.0010581103, -0.013308429, 0.00086661865, -3.9230144e-06, 0.0001705832, -0.0061622984, 0.0012986572, 0.0005814589, -0.0024687857, -0.0011650673, 0.0008913185, -0.00029281038, -0.0015528763, -0.002157633, -0.0011531562, 0.0014019997, 0.0017669296, -0.00036512822, -0.0005670933, -8.398236e-05, -0.0033150874, 0.0016220706, -8.180423e-05, -0.0019975652, 0.000739806, -0.0011315696, -0.0012558483, 0.004269871, -0.0016082464, -0.00021055347, -0.0011906541, 0.001973477, 0.00062757044, -0.00084360753, 0.00023698318, 0.00076702476, 0.0012978209, -8.929928e-05, -0.0007780781, -0.00021207548, -0.0010680172, 0.0006387159, 0.000496752, -0.0012462442, 0.00088096777, -0.0012736307, 0.004177224, 0.0006936156, -0.0002926676, 0.00077146356, 0.0008337151, 0.0030203098, -0.00039534457, -0.0013521442, -0.0010525808, -0.0011835252, -0.000105196974, 0.00022978193, -0.0005744832, 0.0011667269, 0.0025381315, -0.0013781198, 0.0003722165, 0.0012290588, -0.00024698378, 5.785466e-05, -0.0013826897, 0.00065442175, 0.00056077633, -0.0010917804, -0.0013990469, 0.0018400172, 0.00030384504, 0.00020384422, 0.00026142068, -0.0010905825, -6.3362415e-05, -0.00191818, 0.0021080943, 0.0015394104, 0.00060634746, 0.003116376, -0.00041319666, 0.00085940695, -0.0013558558, 0.00035545055, 0.0007084245, -0.00017457228, 0.0006670059, 0.0024931286, -0.0021653764, -0.00060405576, -0.00019848929, 0.0023847872, -0.00014175143, -0.0011927974, -0.00311463, 0.0010692996, 0.0025682203, 0.0013022245, -0.00074626657, 0.0012998519, 0.00023804378, -0.00041208838, 0.0012444349, -0.00048618566, -0.00040575606, -0.0006553611, 0.0005174007, 0.0014509764, 0.0021618353, -0.0011438238, 0.0003842006, 0.0012967397, -0.0023034306, -0.00023775198, -0.0007402013, 0.00047330803, 0.0018311534, 0.00041202366, 0.00067085604, 0.00010598358, -0.00082618627, -0.0018868382, 0.0007410204, -0.0014957709, 0.0012973414, 0.00019454432, 0.00020251737, -0.0003899346, -0.001225908, 0.0013864281, -0.0011543923, -0.001520573, 0.00080068957, -0.0019248391, 0.00028041392, -0.00026804596, -3.1692252e-05, 0.0002782819, 0.0007483799, -0.001968927, 2.6203546e-05, 0.00068273826, -0.00069657195, -0.0004989445, 0.00063084037, 0.000672796, -0.0009641011, 0.0014612367, 0.00068577396, -0.0012704248, -0.00053581153, 0.0013054897, 0.0008127652, -0.0005257269, -0.0063132313, 0.0020321433, 0.0011357942, -0.0006837607, 0.0007600944, -1.59138e-05, 0.0021808206, 0.0014473399, 0.0005742243, -0.0016288655, -0.0011137533, 0.001947286, 0.0014283244, 0.00042281323, 0.0020148044, -0.000617761, -0.0028973904, 0.0005274853, 0.0002916694, -0.0001842491, -0.0015623512, 0.0007118747, 0.0009294743, 0.0013532154, -0.0009974346, -0.0028671997, 0.0006965817, -0.00067998446, -0.00014550856, 0.0004915219, 0.00035777636, 0.0014522285, -0.0016083182, -0.0017129299, -0.001990463, -0.00061898265, -0.00262002, -0.0012786235, -0.0026687696, 0.0006668023, -0.0021546113, -0.00071387034, 0.0006343579, -0.0012693597, -0.0007982045, -0.00034516223, 0.0012754614, -0.0010156198, 0.000675054, -0.000115206756, -0.00068571133, 7.615701e-05, -1.6216902e-05, -0.0479802, -0.0011484708, -0.0007315135, -0.0011859864, 0.002046316, -0.0017004441, -0.00040726073, 0.006288053, -0.076701604, -0.00012497365, -0.0019979458, -1.0457664, -0.002650144, 0.89998066, -0.050653342, -0.0010978221, -8.048063e-05, -2.596411e-05, 0.00023838808, -0.7226622, -0.00059793866, -4.0017305e-05, 0.00067062624, 0.0002948604, -0.00016405009, 0.0016884031, -0.00024183816, 0.001148584, -0.00038482365, -0.004582498, -8.054545e-05, -0.00010641117, 1.6630298e-05, 5.8595557e-05, -0.1846467, -0.0011588323, -0.8361803, -0.0009250605, -0.0021786927, -0.0003594476, 0.00086089334, -0.00044803345, 0.0013302595, 0.0002940877, -0.0003183384, 0.00034894317, -0.0013371921, -0.00020866568, -0.0008058884, -0.0005687624, -5.6048564e-05, 0.0025107602, 0.0005313641, 0.0016823628, 0.00016955723, 0.001290135, 0.0008074995, 0.00047601628, 0.0012696073, 1.1990778e-08, 0.0005893537, 0.0011299872, -0.0004946382, 0.00071969593, 0.0031161862, -0.0023505415, 0.0011655084, 0.00091865327, 0.0017294693, -0.002063272, 0.00027234817, 0.0012697408, 0.0010258595, 0.000559913, 0.0013997531, -0.00060743594, 0.00038229686, 0.0012116043, 0.0006101378, 0.0004647693, -0.0013018989, -0.0031151269, -0.000525706, -0.0023506272, -0.0016382473, 0.0013403429, -0.0002717761, -0.0023255278, 0.00014495553, -0.00090482266, 7.660987e-05, -0.0006083922, 0.0010365829, -0.0006966073, 0.001304063, -0.0004968175, -0.0001211756, 0.000713583, 0.00074469845, -0.0005039511, -0.00074165466, -0.0019416859, -0.00054808165, -0.0017007253, 0.002475164, -0.0002856323, -0.0004950495, -0.0012976947, 0.0018067491, -0.0020701308, 0.000119885255, -0.00030150544, 0.0009149858, -0.0016508906, -0.0006327016, 0.0017045396, 0.00013028999, -0.0002767629, 0.00041046704, -0.0031241465, 0.0031891968, -0.00082633324, -0.00078697957, -0.00020049704, -0.0018182925, -0.0006474389, 0.0012136078, -0.0018997716, 0.00056060555, -0.0021163095, -0.0013049901, 0.0005785499, 4.231301e-05, 0.001704203, -0.0012714984, -0.00077688927, -0.0062697013, -0.0011505326, -0.0013414891, 0.00043390354, 0.0006846592, 0.0013079548, 0.00019815937, 0.001294578, -0.00028754014, -0.00089012005, -0.0005650594, 0.0006414358, 0.00058152486, -0.004254637, 0.0022883606, 0.0027656555, 0.0002181817, -0.0012061967, -0.0018609809, -0.0016497994, 0.0010553943, 0.00046152668, -0.00029157195, -0.0019786556, 0.0019744465, 0.0012964943, -0.00039503264, 0.0031737853, -0.00013511913, 0.00017768002, -0.00011256721, 0.0006538355, -0.0023939598, -0.0012937073, -0.0008911653, -0.0011835829, 0.0014509372, -0.00043916836, -8.691545e-05, -0.0020093003, -0.0019713477, -0.0003558239, -0.00065500283, -0.0038622394, 0.0019420347, 0.00038059405, -0.001221343, 0.00069598213, -0.0008940817, 0.0016000611, 0.0013039245, -0.00036482548, 0.0019437318, 0.00032610504, 0.0007740518, 0.0013961806, 0.0005344223, 0.0002377326, 0.00021073956, -0.0015323935, 0.0004886064, 0.0024695392, 0.00246672, 0.00028167915, 6.257236e-05, -0.00021525455, -0.0017027351, -0.00075939985, 0.00038416462, 0.0006932459, 0.00021970924, 0.0007448305, 0.0012043695, -0.0012642713, -0.0024738451, 0.0016477208, 0.00086570834, -0.0017625656, 0.0012785065, 0.00028294223, 0.00087954843, -0.0015882677, -0.00075577607, 0.00079224684, -0.0019735724, 0.0024162112, -0.0011043854, -4.16899e-05, -0.00023923558, -0.0007625462, 0.0009945239, 0.0010879468, -0.0017041555, 0.0036071846, -0.0047554323, -0.00071907963, 0.0017687115, -0.00035913294, 0.00060152326, 0.0011577077, -0.00025594723, 8.950883e-05, 0.0005277079, -0.0017924313, 0.002337496, -0.0024926695, -0.000923426, 0.002109707, -0.0047513735, 0.00019373873, 0.002482006, -0.0007530352, -0.00012815779, 0.00063981354, 0.0005161171, -0.0007657687, -0.00029998692, 0.0010986517, 0.0012426015, 0.0016257418, 0.00056348834, -0.0018077317, 0.0011363333, 0.00045962428, 0.0014479451, -0.0013129917, 0.0007404351, -0.0010396736, -0.0012973443, -0.004742443, -0.00064296846, 0.0011305794, -0.0005819185, 0.003970907, -0.00052916113, 0.0025572227, 0.0013326728, -0.0019771634, 0.0006472002, -0.0008827729, 0.0016647134, 0.00089973316, 0.0011321733, -0.5946686, -0.54576224, -0.002384355, 0.0005608494, -0.0006478472, 0.0011767715, 0.0010454131, -0.0005515686, -1.5105969e-05, -0.19757442, -0.0010787563, 0.004298268, -0.96517086, 0.0002387918, -0.5065946, 0.3800716, -0.0011158693, 0.41854772, -0.001916735, 0.0004578036, -0.013988391, -0.00063000416, 0.053020522, 0.0020103466, -0.0007865904, -0.00043792644, 0.0006008976, -0.0014315869, -0.00028075968, -6.830857e-05, -0.00094536133, -0.10129716, -0.0012180284, -0.30767253, 0.00040739926, -0.18317747, 0.0008601166, -0.2565749, 0.0012766952, -0.0009069903, 0.22932996, 0.0022514204, -0.0007574968, -0.0004558112, 0.0060281586, 0.002586028, 0.0015343152, 9.35489e-05, 5.891856e-06, 6.741003e-05, 0.0025396114, -0.00085600035, 0.021251949, 0.00021350384, 0.18174568, -0.014812295, 0.0014191953, 9.6445365e-05, -0.00034599646, -0.0005987492, -1.6904073, 0.001347356, 1.7831448e-05, -0.0012788605, 4.870545e-05, 8.1255916e-05, -0.0008224319, 0.0022500434, -0.0013960688, 0.5975344, 0.00037819432, 9.833039e-05, -0.0008080965, 0.07104687, 0.000528906, 0.09242949, 0.0010686432, -0.24524501, 0.0008889916, -0.0004951444, 0.0014202562, -5.2925665e-05, 0.0010704957, -0.0014150519, -0.003542691, 0.00427734, -0.0019229618, 0.00016422436, 0.0004916006, 0.0007710764, -0.0024707979, -0.0014503777, 0.000676819, 0.0014402573, 0.0024040719, 0.0021695262, -0.00075663126, -0.00029032375, -0.0004913744, 0.0014645724, -0.001313018, -0.0010621466, -0.0006554361, -0.000230895, 0.00045889115, 0.00089175504, -0.002839782, -0.00080511713, 0.0024719494, 0.0006711173, 0.0003205011, 0.0024719597, -0.004751828, -0.0034263707, -0.00054189074, 0.00036443764, 0.00013858388, -0.0004595361, 0.0012970596, -0.0024843076, -0.00132838, 0.0016105393, -0.0019643847, -0.0012422445, -0.00026219536, 0.0011820777, 0.0003889837, 0.0005797055, 0.00069334323, -0.0006081248, 0.0033390285, 0.00012566487, -0.0010545728, -0.0010243201, -0.0034630846, 0.0007423403, -0.0001684479, -0.001947015, -0.00015581434, -0.0012410027, 0.0017191169, 0.0016271768, 0.001094594, 0.0015854413, 0.00030556088, -0.0009191853, 0.0016131091, -0.0010267998, -0.0011537863, -0.0019530415, 0.0025097644, -0.00019453457, 0.0018114356, -0.00036439346, -0.0004920388, -0.0006421643, -0.0008265901, 0.0010105763, 0.0033019958, -0.00072082196, -0.00039374613, -0.0010791023, 0.0007543633, 0.00027773148, 0.0013044585, 0.0005406034, -0.0013156319, 3.5604142e-05, -0.00041569013, 0.0006261318, -0.00023060129, -0.0012438043, 0.00027509744, -0.0007469059, 0.0018071291, -0.0013328041, -0.00042990583, 0.00076994835, -0.000430085, 0.0012975219, -0.00075160444, 0.0022631476, -0.0006545197, 5.0198636e-05, 0.0019159637, 0.0013291775, 0.0015749229, -0.0013871789, -0.0024756524, 0.00027779792, 0.00043086585, -0.0019664592, -0.0009248663, 0.0005497383, -0.0019312773, 0.00034523066, 0.00216128, 8.192181e-05, -0.0004941287, 0.0020914027, 0.0015224495, -0.0006751943, -0.004805461, -0.0024992926, 2.9142713e-05, -0.00024313503, 0.0022489233, -0.00078097504, -0.002044879, 0.0007331646, 0.00020712917, -0.0016439534, -7.873656e-05, 0.0007324495, 0.0005023562, 0.0022727526, -0.0017871982, 0.0005564597, 0.00019215606, -0.0017181663, -0.00115044, 0.0011341344, 0.0007238144, -0.00096403575, -0.00017916801, 0.0065860804, 0.0008829322, 0.0022236344, -9.220635e-05, -0.00011014007, 2.3259083e-05, 0.0008274594, 0.0011592344, 0.0009433221, 0.00081535365, -0.000797475, 0.0017813506, 0.0023105384, 0.0010185543, 0.0011649481, 0.0020524925, 0.00044785131, 0.00030410476, 0.0002972323, 0.0005905328, 0.0018434708, -0.0004684659, 0.0015554037, -0.00023031957, -0.0006134117, 0.00062153046, 0.001250546, 0.0006269096, 0.0006966877, 0.0012554991, 0.001493201, -0.001258184, -0.0009801972, -0.002472849, 0.00038254634, 0.0018679693, -0.00079860416, 2.2894179e-05, 0.00022476382, 0.00214309, -0.0011855859, 0.00076759723, 0.0004901871, 0.0020411448, 0.00049759704, 0.0011459856, -0.000967066, 0.00040463766, 0.00024304306, 0.0010395944, 0.0005813216, -0.0011964124, -0.0022816663, -0.0011249493, -0.00073417707, 0.82275707, 0.12707898, -0.0008285003, 0.00086780445, 0.0028721937, -0.0012462162, 0.0020544082, 0.0010624952, 0.00014351652, -0.00012327381, -0.0023686707, -0.00020074961, 0.00015525398, -0.0018798577, 0.00031622173, 0.0012230354, -0.0024722465, -0.17174943, 0.0009973265, -0.00029572262, 0.014842184, -0.00081424875, 0.0002473761, 0.0013257463, -0.035907928, 5.7196896e-05, 0.0037042678, 0.0010428185, 0.000679592, 0.07950373, -0.00034838822, 5.883014e-05, -0.00038147054, -0.12759446, -0.0018020001, -0.00012902415, 0.0006988534, -0.5584924, 7.794314e-05, -0.001207182, 7.025903e-05, 0.0028600872, -0.00086103467, -0.0007940503, 0.0019536829, 0.0016636415, -0.00069407583, 0.00026326627, -0.0019323787, -0.0006552335, 0.003113228, 0.00049259444, -0.0015515474, 0.00018124719, 0.001159278, 0.0017689404, 0.00026617097, -0.0009744687, -0.0003724189, 0.0006434033, 0.0002814897, -0.0012953557, 0.0013912129, -0.0032974607, -0.0007745973, 0.0019277177, 0.00026783394, -0.0005643959, 0.00076544157, 0.0006002192, 0.0002581285, -0.00018192764, -0.00074025115, 0.0010514033, -0.0011594903, 0.0012799406, 0.0005928971, 0.0010693637, -0.0011701201, 0.0013340334, 0.0031746523, 0.000985504, -0.00066885236, 0.00025527822, -0.0002687449, -0.00036528602, -0.001528574, 0.0013328843, 0.0013983259, 0.0011100753, -0.00015433278, 0.0024722507, 6.75317e-05, -0.00058907835, -0.0014134704, 1.7562415e-06, 0.002672784, -7.680763e-05, 0.0005086751, -0.00011781446, 0.00087730185, -1.3831042e-05, -0.0031141778, 0.0012500482, -0.00028236117, -0.001944471, 0.00058352633, -0.00045847532, -0.0012947257, -0.00014142419, 0.0002701059, -0.00066326157, 0.0012685941, -0.0038215476, 0.00092022365, -0.0012816826, -0.0008813887, 0.0013011011, -0.001288628, 0.00041054073, -0.00083378155, 0.00097383227, 1.6195932e-05, 1.3794517e-05, -0.0025381958, -0.00036825787, -6.71139e-05, -0.0017636097, 0.00059153565, 0.00017986004, -0.0020182123, -0.0037524793, -0.0034336357, 0.00065986434, 0.00056101516, 0.0002935469, -0.0014140634, -6.335351e-06, 0.00016463271, -0.001120642, -0.001224984, 0.00035848102, 0.0009259491, 4.169706e-06, 0.0033149142, -0.0040029055, 0.0018113609, -0.0009545614, 0.0014755655, -0.0011255955, -0.00035191828, -0.00017783514, -0.0018148406, 0.0010691492, -0.0026853527, 0.0001275572, 0.00023274566, -0.0017931175, -0.0017398925};
float bias_2[] = {-0.15041366, -0.12921764, -0.1452968, -0.060695708, -0.07169421, 0.1653959, 0.34528595, -0.1452336, 0.36652875, -0.098441444, 0.044776514, -0.113386445, -0.06846194, -0.26769507, -0.07629968, -0.10180565, -0.2921122, -0.17993303, -0.013759868, -0.11826578, -0.0075726546, -0.03478697, -0.30796134, -0.013492608, -0.022197245, -0.2804217, -0.1954262, -0.048085343, -0.14878492, 0.5377693, -0.10331372, -0.16974463, -0.010467217, -0.078924276, -0.1570309, -0.37845948, -0.17382948, -0.14287165, -0.119571105, -0.13823059};
float weight_3[] = {-0.0008144377, 0.0006127636, 0.0006441688, -0.0006800116, -0.001298022, 0.7410522, 1.3791335, 0.0013108477, -0.72060204, -0.0011305959, 0.8690911, -0.0013335589, 0.0019732236, 1.8878852, 0.0021634218, -0.0014348803, 0.46345124, -0.00088774104, -0.00069215015, 0.0006444925, 0.0006962844, -0.00075623265, -0.9749494, -0.0012433426, -0.0003510082, -0.0012945888, 0.0024953687, -0.0006998787, 0.0016592075, 0.8284854, 0.30301422, 0.0013318798, 0.00073298, 0.00011571741, 3.694283e-05, 0.00066666247, 1.0052599, -0.00075849926, 0.0006694723, -0.001040214, -0.0003869379, -0.0007337424, -0.0012937965, 0.00068097975, -0.0008029212, 0.96204, 0.92639995, -0.00084271, 1.2040468, 0.0012892424, 1.164628, 0.00034639245, 7.870416e-05, 0.6111005, 0.0012968772, 0.00079828204, 0.23462373, -0.00058820605, -0.0015448729, 0.00012255862, -0.0013870824, -0.00096080784, 0.3344004, 0.00127266, 0.001300149, -0.0002960097, -0.00032244204, 0.0031136642, 0.0021632717, -0.7924268, 0.13187167, -0.0012648164, -0.001026326, -0.00011881051, -0.00040837936, 0.0006055724, -0.055636935, -0.0011481147, -0.0005388243, -0.0016195788, 0.002513512, -0.0014194224, -0.0017771601, -0.00028322116, -0.0005805049, 1.4272089, -0.2171854, -0.00037259771, -0.19415593, -0.00070993946, 0.75903666, 0.003112841, -0.0015695614, 1.3958147, 0.001188816, 0.000676931, -1.4713911, 0.0015546865, 0.0017595121, 9.5586176e-05, -0.00010371732, -0.0003027406, 0.27509922, 0.0010691218, -0.002145768, 0.0027589835, 0.001427317, -0.00059407926, 0.0006683608, 0.9013855, 0.8022162, 0.000739528, -0.002874979, 0.0012973917, -0.0003149356, -0.0005701843, -0.0001840991, -0.00011888245, -0.0014488068, 0.0007552624};
float bias_3[] = {0.0042804996, 0.030324882, 0.014359837};
