float weight_1[] = {0.9857057, -0.8412103, -1.1297512, -0.0020138146, 0.0021617205, -0.0005194992, -0.0006792577, 0.0010514042, -0.0005968155, 0.0022484188, 0.00075781916, -0.0009957622, -0.76644164, -0.0019197002, 0.14798169, -0.0021768722, 0.0037586847, 0.0004427128, 0.00035811414, 0.0020007917, -0.001063097, -0.0012839756, -0.0007501263, 0.0006984116, 0.00044463127, -0.0013598971, -0.0028447185, -0.78443515, 0.51692617, 1.4233476, -1.0598295, -0.001651599, 0.84129536, -0.00031934452, 0.001186877, 0.0009025418, 0.004168152, -0.0013319869, -0.0006993328, -1.1506152e-05, 0.10224679, -0.8017912, 0.00016167422, -4.2774365e-05, -0.00063674815, -1.7666044, -0.076870956, -0.18633452, -1.5643992, -0.67408824, 0.24393563, -0.58718306, -1.1388618, 1.1821573, -0.60042673, 0.008301097, -0.6208773, -0.0024740135, -6.254506e-05, 0.0007576059, -0.0024374437, 0.0031098947, 0.0005043424, -1.2547657, 0.103743814, 1.0493361, 0.000732528, -0.0030499366, -0.0012562852, -0.52455527, 0.95308316, -1.0289831, 0.0006752546, -0.0014405361, 0.0013630759, 0.0008827045, -0.0032185381, -0.00074497075, -0.16862266, -0.92395234, -0.67342687, 0.033116423, 0.17601405, -1.6559236, -0.0004967958, -0.0005750561, 0.00085593853, 0.0016899337, 0.0002514078, 0.0010341245, 0.0009235094, -7.94885e-05, 0.0011154973, -0.0013142958, 0.0005395934, 0.0006608834, 0.00046982616, -0.00048545928, 0.0012781785, 0.0010538652, 0.0012948863, -0.0038882124, 0.0006589984, 0.0019881898, -0.002751721, 0.000701049, 0.001812827, -0.00048794854, 0.94106, 0.11966106, -1.3253216, 0.65523523, -0.68867236, -0.04205339, -0.0023617279, -3.7585094e-05, -0.0014319324, 0.001587714, 0.00076011487, -0.0014977204};
float bias_1[] = {0.9024713, -0.0028186017, -0.122277685, -0.18322648, -0.093085505, -0.5741638, -0.17583062, -0.39212692, -0.4658493, -1.0616165, 0.00040771716, -0.52316576, -0.46623358, 0.10191739, -0.27621055, 0.79185194, 0.8993294, 0.5026573, 1.1023945, -0.265193, -0.034412112, -0.04299704, -0.5318349, 0.6105169, -0.40053612, -0.3939609, 0.66552985, 0.74472994, -0.052257717, -0.15322582, -0.12087076, -0.3020307, -0.44604176, -0.4595194, -0.28410882, -0.07036954, 0.33293307, -0.067968346, -0.47106397, -0.21400493};
float weight_2[] = {-0.000104506384, 0.001555635, -0.0007178729, -0.0006023121, 0.00093103567, 0.0016484745, -8.152536e-05, 3.564953e-05, 0.00046040688, 6.0150618e-05, 0.0003733501, 0.00025900197, -0.00071765465, 0.00027394423, 2.3683737e-05, -0.00018642913, -0.0004038044, 0.0003320187, -0.0013465537, -9.57548e-05, 0.0013026374, 0.00035586848, 0.001867387, 0.0011435236, 0.0015933721, -0.0016612754, -0.00050111837, -0.0007750754, 0.0005798475, -0.0032127262, -0.0005921589, -0.0007618674, 0.0008886977, 0.0011830039, -0.0009469801, -0.0005901512, 0.0011779696, 0.00039254132, 1.5719444e-05, -0.0021508988, -0.27847964, -0.002496739, -0.0008427379, 0.00068002957, -0.00013987008, 0.00094831304, 0.003262151, -0.0001545577, -0.0021569526, -1.1778568, 8.610089e-05, -0.00035758154, 0.0016240771, 0.000108272245, 0.0012684725, -0.0008043164, 0.00046042207, -1.7099019, -2.147189, -0.000877707, 0.00012868951, 0.0003742592, -0.0007778584, 2.7551212, -0.0006165977, -0.00089085044, -0.0010998116, 0.00020322908, -0.0009601969, -0.0016929398, -0.0002815596, -0.000725136, -0.001042665, 0.00015573544, 0.0037929148, 0.0036074326, 0.21963142, 0.0024218445, 0.0011596902, -0.0005407834, -0.18923956, 0.0005788979, -0.0021774515, -0.0014511629, 0.13768421, 0.002044266, 0.00094784924, -0.0021580881, -0.0019352742, 2.7629485, 0.08387572, 0.0025675143, -0.00060118054, 0.0007136849, -0.0015616153, -1.6414129, -0.6570626, 0.89794344, 0.45557266, 0.0016240259, 0.00061926496, 0.9661071, 0.0009719349, 0.091908194, -0.0009562469, 0.0018171133, -0.00034517184, -0.0015652985, -0.003118237, -0.00041653914, 0.00050126313, -0.001190851, -8.395192e-05, -2.7324597e-05, 0.00024046563, -0.00062201713, -0.39820567, -0.00024776673, -0.00068436714, 0.00016743195, -0.00033725053, 0.003706339, -0.00027969514, 0.0009035432, -0.0009936722, 0.0012467076, 0.0013131513, -0.0006935771, 0.00027585076, 0.001560272, -0.00043659157, -0.00064159336, -0.0010140176, 0.0018849702, -0.0010263183, 0.0034714649, 0.001172088, -0.0019946313, -0.00013741269, 5.9260987e-05, 0.0004268448, -0.00094901776, -0.0020711008, -3.277106e-05, 0.0016935605, 0.0025823787, -0.0008777588, -0.001726289, 0.0006830145, 0.001542884, -2.6253052e-05, 0.0014183123, -0.0034379861, -0.0024968784, -0.0009373488, -0.0010550387, -0.00019598851, 0.00055845117, -0.0010024951, -0.0010126785, -0.00043986074, -0.0013977599, 0.0007127015, 0.0005369162, -0.00042995752, 0.0009254926, 0.0041806856, -0.0015615519, 0.0010303984, -0.00015201705, 0.0016500908, 0.001152402, -0.0047561848, 0.00041436419, 0.0006947268, 8.0683385e-06, 0.00042450684, 0.00087587093, 0.0032612416, -1.16892625e-05, -0.0012959619, -9.1247086e-05, 5.0735267e-05, -0.0024869852, 0.0006890199, 0.0008623764, -0.0031237276, 0.00087146857, -0.0012883426, -0.0008006434, -0.0018873361, -0.00085619907, -0.0028475162, 0.00088167307, 0.0011002843, 0.0013553213, 0.0012242591, -0.001119361, -0.00012168009, -0.0004066602, 0.0009014179, -0.0010727737, -0.0013074249, -0.0013422227, -0.0005091812, -0.004120183, 0.0020795488, -0.0020140056, -0.0008903132, -0.0009296452, 0.0006735406, 1.2412638e-05, -0.0012375666, 0.000125469, 0.0005048595, -0.0013608227, -0.0012145515, -0.0013188506, -0.0017569347, -0.0012273842, -0.0024160696, -0.0006587735, -0.0023439915, 0.0021348177, -0.001153913, 0.0012288523, 0.0013474044, -0.0004040724, -0.001742198, 0.0027092341, 0.0018042453, -0.0012997712, -0.00026435463, 0.00088612654, -0.0025532895, -0.0012387007, -0.0009451061, -0.00063805614, 0.0007138731, 0.0045240684, -0.00076694414, 0.0042780396, -0.001125153, -0.0021343753, 0.002907727, 0.00049872696, -0.0006216632, -0.000401615, 0.00062609476, -0.0002708639, 0.00038732032, -0.00011254568, 0.0024319144, -7.1126386e-05, 0.0018558949, 0.100864634, 1.6976641, -0.008364118, 0.29503313, -0.00080845464, 0.00022734818, 0.5219921, -0.0014326251, 0.07720973, -2.3889355e-05, 0.0005531893, 0.6650226, -0.017958572, 0.0008770413, 0.0012982587, -0.0011869683, -0.0010424263, 0.0010360498, 0.0030925074, -0.0009885591, 0.0011597873, -0.09520717, -0.0006782302, 0.00029326655, 0.00086209027, -1.4463665, -0.0010616626, 0.0005383952, 0.0012428209, 0.3491034, -0.00021673864, -0.00020647328, 0.0023893598, 9.4396586e-05, -5.5094075, 1.0150502, 0.00034873094, -0.00068484707, -0.0011403288, 0.00070996286, -1.4280497, -0.22060758, -0.19376706, 0.59806865, -0.00038512528, -0.0028548616, -0.72613955, -0.000580434, 0.13162085, -0.00056626776, -0.0017709937, -0.0010999705, -0.016587509, -0.00018540327, -0.0017951746, -0.0016701741, 0.00017804094, -0.00025815377, 0.0010834904, 0.0019674199, 0.0010096118, 1.5311533, 0.033670608, 0.0008034259, 0.001035541, -0.20889847, 0.00059663126, 0.0017387981, 0.00060227857, -0.0016426233, -0.00063668983, 0.0021733092, -0.0009546087, 0.0004113808, 0.019608254, 0.021477023, -0.0010735387, -0.0010359491, -2.0533567e-05, 0.0008918522, -1.4808148, 0.7629876, 0.4755324, -0.13830642, 7.453596e-05, 0.00046297756, 0.43494606, 0.0002788477, -0.06556472, -0.001932105, 0.0012410252, 0.00028029713, -1.7064791, 0.0018806377, -0.0012983852, 0.0011647372, 0.001128829, -0.0016142784, 0.000567136, 0.0006242269, 0.0018486349, 0.0022643702, 0.109648734, -0.0005257097, -0.0014771617, 8.718006e-05, 0.0008378965, -0.0010609251, 0.0013445567, -0.0008481489, -0.00040059537, 0.0041048657, -0.0016381985, 0.003728033, 0.0023808724, -0.0017100137, -0.003089259, -0.0023393757, 0.0009134468, 0.0012675691, -0.0010061234, -0.00056188577, 0.00057434326, -0.00016012951, -0.0021169065, -0.0012453228, -0.00018457905, 0.0016632684, -9.081955e-05, -0.0011368622, 0.000894929, -0.0008337273, -0.0006305829, -0.0004130706, 0.00064238557, -0.00017232058, -0.00070970296, 0.0020480892, -0.00016844862, 0.0005294123, -0.00289328, 0.0018073102, -0.0006129566, 2.2475957e-05, 0.00045260543, 0.0003633534, 0.0008963483, -0.0005928093, 0.0007338185, -0.001319285, -0.0017403092, -0.0012525218, 0.0015231896, -0.0027876312, -0.001622949, -0.0013124987, 0.0007641129, 0.00070796785, -0.0009493381, 0.000784552, -0.00082464353, 0.00030442007, 0.0004803359, -3.55581e-05, -0.00087467924, 0.0014600577, -0.0018145257, -0.0008620195, 0.001084493, -0.00052930054, 0.0014710398, 0.0009931836, -0.00011710194, 0.00045655726, 0.00067871634, -0.0031123417, 0.00062905665, -0.0011614473, -0.0006417165, -0.0011560944, -0.0016062252, 0.0011333296, -0.0014528163, -0.0002378184, -0.0038440311, -0.0004586574, 0.0012964563, -0.00030097715, -0.000302264, 0.0008926293, -0.00077971583, 0.0025798255, 0.0023983517, -0.0008795694, -0.0047525563, -0.0008717554, -0.0038243758, 0.0018231036, 0.0014506669, -0.0006174234, 0.0007029652, 0.000654289, -0.000886589, -0.003294974, 0.00088617014, -0.0007807058, -0.0014229664, 0.0009396863, 0.00041177523, -0.000646662, -0.00035247084, 0.0026774532, 0.002182079, 0.0009024132, 0.0012985638, 0.00088906236, 0.00064561405, -0.000201124, -0.00072562485, 0.0008579993, 0.00015724357, 0.0024225276, -0.0017256767, -0.0013486666, 0.0003795548, 0.0008382917, -0.0013026174, 0.0032159318, 0.0014971097, -0.00096659677, 0.00016714589, 0.000891553, -0.0004610307, 0.0006784244, -0.0025380123, 0.00052146986, -0.0019400003, -0.00028920558, 0.0015974761, 9.517599e-05, 0.0009827442, -0.0033335749, -0.0013353496, 0.00053332304, -0.0010411409, -0.0024313745, 0.0012791653, -0.003402799, -0.002844691, -0.0028279882, -0.0028917608, -0.0011384496, 0.001255516, -0.001245561, -0.0007625425, -6.6266104e-05, -0.0004090724, -8.593785e-05, -0.001745145, 0.0006399008, 0.00014187582, -0.002181769, -0.00073866243, -0.0014996418, -0.0016327787, -0.00015632168, -0.0015679884, 0.0025141044, 0.00031574286, -0.0008973396, 0.0060965028, -0.0015362424, -0.0037928727, 0.00041249418, -0.0009824301, 0.001675297, -6.810595e-05, -0.0008381258, -0.0010446744, -0.0010369509, -5.773938e-06, -5.0889823e-05, -0.000492184, -0.0008826756, 0.00047311297, -0.0014536597, 0.002683731, -0.0022877248, -0.0014834761, -0.00050067465, 0.001232739, 0.002452585, 0.0010743449, 0.000673717, 0.0018413216, -0.0014240686, -0.00039232062, -0.0018360112, -0.00013424124, 0.0010073626, 0.0023575188, -0.0002890369, -0.00080677867, 0.0007780849, -8.92976e-05, -4.5563965, 0.0003011464, 0.0013062474, 0.0009861685, -0.00015660955, -0.00060091895, 0.00014573603, -0.000100313686, 0.0008238886, 1.6233737, -0.00065909745, -0.002837012, 0.0024776761, -0.0016714097, 0.001345346, 0.0017834731, -0.00068461214, -0.82302827, -0.56523156, 8.447899e-05, 0.0022010047, -0.0012602403, 0.0022797883, -0.012175175, 8.592033e-06, -0.0026707049, -0.0012606662, -0.0030915798, -0.0011925853, -0.002955894, 0.0014174215, -0.0013111194, 0.0010572434, -0.0010944903, -0.00012550128, 0.0011501418, 1.599202, -0.0009143214, -0.001169616, -0.0011239307, 0.43781626, -0.0014005619, -0.0012926583, -0.003113064, -0.13830456, 0.00072491553, -0.0016156493, 0.0065281373, 0.0018195315, -0.62520635, -0.0012142084, 0.0016258252, 0.0006524196, 0.0027698232, 0.0016678018, -0.00046179706, 0.00051856553, 0.5027509, 0.0062381076, 0.0014415442, 0.0006614981, -0.07595169, 0.001480887, -1.9876722, -0.0023026867, -0.003181226, 0.0009790012, 0.00052249944, -1.2050354e-05, -0.00014732132, -0.00273943, -0.00092735444, 0.00076249987, -0.0014351206, -0.0012876996, 0.001333249, -1.1826069, 0.009807927, -0.0020703548, 0.0005286886, -0.00072542555, 0.00088062737, 0.0015834722, 0.0021509398, -0.00085740985, -0.0009568623, 0.0013905772, -0.0010616105, 0.0016318888, 0.0014676439, 0.0024425546, -0.004029436, -0.0021792832, 0.001939826, -0.0012996488, 0.00024785765, 0.0003351007, 0.0018419293, 0.0012816323, 0.0012519388, -0.00037161162, -0.0012459392, -0.0009918077, 0.0009803753, -0.0011289301, -0.00057237747, 0.00041308164, 0.0007246696, -0.0007962487, 0.00030622477, 0.00047295983, -0.0005254188, 0.00037064357, 0.00075609935, 0.001859656, -0.0025614053, 0.0013554521, 0.0020838256, -0.0020339545, -0.00079866144, -0.00053730863, 0.0018108954, 0.0033017076, -0.0005380963, -0.0012056844, -0.0036534471, -0.00060559856, 0.000904998, -0.0011599576, 0.0009530178, 0.00247213, 0.0002337643, -0.0010758998, 0.000101436744, 0.0016709237, -0.00033273076, 0.0003972518, 9.3308336e-05, 0.0027610096, 0.0041596163, -0.00087770884, -0.001231112, 0.0013383074, -0.0012433587, 0.0002751011, -0.0016715785, -0.00064253295, 3.4462384e-05, -7.567578e-07, 0.00067663286, -0.0007275781, -0.0007472901, 0.0025458543, 0.0011274794, 0.00034058533, 0.00018579874, -0.002101411, 0.0011869238, -0.0016941566, 0.0002508494, -0.35511002, 0.0014250318, -8.233625e-05, -0.0021582614, -1.9785424e-05, -3.73066e-06, -0.0020349543, -0.00067121466, -0.000883741, 2.7206013, -0.08767334, 0.0006847783, -0.00079988135, -0.00032480754, -0.00054180727, 0.0006174918, 0.0023056504, -0.04548076, -2.5581357, 0.0012997541, -0.0020152426, -0.88199466, -0.00021864596, 3.6990974, -0.001096645, 0.002623271, -0.0013989523, -0.0011445938, 0.0010122894, 0.00017676913, 0.0011959717, -0.0009301594, 0.0006155307, -0.0005355508, 0.0001514442, -0.0010628449, 0.57219625, -0.0005267171, -0.000493977, 0.000793967, -0.0002248364, 0.0012454307, -0.0005782952, 0.00075371435, 1.7482904e-05, -0.0028792524, 0.00034100743, -0.00028519833, -0.0012838813, -0.0012151601, -0.0019972788, -0.0007029171, 0.00059458776, 0.00038526085, 0.0031922893, 2.3070374e-05, -0.0012271991, 0.0013320608, -3.5212193e-05, 0.0017954567, -0.002414647, 0.0010324658, 0.0027585565, -0.0011745817, -0.0015005347, 0.0008030159, -0.00069558184, 0.0017992363, 0.0026170423, 0.0009994109, -0.0004668649, -0.0024399601, -0.0014195137, 0.0020353366, 0.00022124965, 0.0017037053, -0.00016842468, -1.887788e-05, -0.0014797766, 0.00061352085, -0.18689936, 0.0017650236, 0.0025745244, 0.0023885518, -3.300357e-05, -0.0038545346, 0.0004921639, 0.00041944062, -0.0006966506, -1.6295795, -0.026801853, -0.00061487476, 0.0007228373, 0.00077356916, 0.0005502647, -0.39492777, 0.36502656, -2.0309613e-05, -0.009788015, 0.0013670059, -0.00018173485, -0.299615, 0.0007247753, -0.16004057, -0.0015836749, 0.002378707, -0.0002847847, 7.5278476e-06, 0.0014113381, -0.0020362004, -0.0017193123, -0.0010249753, 0.00090899284, -0.001663699, 0.0012999177, -0.00015340286, -0.00081811176, -0.00021365166, -0.002796078, -0.0018794474, 0.008243506, 0.00091226277, -0.00065125705, 0.0023816898, -2.7983595e-05, -0.0012016806, -0.0011445188, 0.00092933467, -0.000802526, 0.16780442, 0.00030487555, -0.0010021299, 0.002156364, 0.0010601322, 0.0023708767, -0.0017455579, 0.00088546803, -0.19853923, -0.0113739045, -0.00019748654, 0.0004885235, -1.1884024, -0.00060238625, -1.2128688, -0.0027560273, 0.0011575925, 0.0008448066, -8.729603e-06, 0.0012634549, -0.00026747206, 0.0009728608, -0.002440141, 0.0011929017, -0.00057087187, -0.00066316803, -0.0011411139, 0.10072876, -0.0019584121, 0.00086779473, -0.0014988743, 0.00013283339, -0.0042765327, -0.00052560255, -0.00064620335, 0.00065821264, -0.00044241396, -0.00012107656, 0.00087934046, 0.00060979254, -0.00088286516, -0.0007532275, -0.0006988881, 0.0004949875, 0.0028069515, 0.001146022, -0.000117725926, 0.001745692, 0.0011040742, 0.0025189267, -0.00051103736, -0.002447543, -9.65622e-05, -0.0008902599, -0.002399641, -5.2959076e-05, -0.0014774418, -0.00045759964, 0.0005355808, 0.002163495, -0.0020470745, 0.0013945489, 0.0006576713, 3.5119738e-05, -0.002469361, 0.002661517, -0.0006176281, -0.00075077463, 0.0030776032, -0.0035800347, -0.0008336164, -0.0012822347, -0.00016762549, -0.00054457155, -0.00091107824, 0.002154997, 0.0017669676, -0.00047214897, 0.001252372, -0.0019247937, -9.0100104e-05, -0.0007367935, 0.00073415716, 0.00064150605, 0.0007252296, 6.925687e-05, 0.00088059355, 0.0018018009, 0.0013323867, 0.00037343818, 0.0021635848, 0.0006016085, 0.000449743, -0.0006552915, 0.0006274922, 0.0013928432, 0.0022604996, -1.3672747e-05, 0.0004536605, -0.00086304767, 0.00069599145, -0.0008828252, -0.0008697805, 0.00043326532, 0.00019923272, -0.0006013958, 3.413693e-05, 0.0032966007, 0.0020872531, 0.0011358911, -0.001688742, -0.0793291, -0.0012096198, -8.239609e-05, 0.0019103034, 1.9284946e-05, 1.5720725e-06, -0.0018503667, 0.00072915386, 0.0009839144, -0.6800584, -0.20633322, -0.00096669147, -0.00059209834, 0.0010069963, -0.0001599975, -0.063959025, 1.401222, -0.00078826235, -0.020610156, 0.0010695844, -0.0008840714, -0.037407186, 0.0036381236, -0.023359878, 0.00047604018, 0.0014772338, -0.0024938476, -1.7495583, -0.0012707226, -0.000117511605, 0.0018751596, 0.0016699615, -0.003830607, -0.0013500769, -0.00055364426, -0.0011424351, 0.0004638253, -0.00019721943, -0.0029301248, 0.001275474, 0.21306929, 0.0005243574, 0.0032961927, 0.0008558896, -0.3491848, 0.004368482, -0.0010207917, 0.00073919416, 0.0014774321, 2.8354478, -0.008739463, -0.0026445705, -0.00028941198, -0.0002961976, 0.0026636547, 0.62330663, -0.90313655, 0.40278965, 0.3870557, -0.002471779, 0.00027508894, 0.007978697, 0.0012480188, -0.8520831, -0.00018306743, -0.00086436747, 0.00011441327, -0.00035639238, 0.0020977762, -0.0015818039, 0.00010936201, 0.0014621196, -0.00037646166, -0.00045654282, -0.00044270768, -0.0005900729, -1.1705519, -0.23923385, 0.0022183724, -0.0012259468, -0.0006628816, 0.000884148, 0.0047470466, 0.0006433089, 0.0017611042, 0.0006776116, -0.0028319252, 0.00012992579, -0.0014516851, 2.6155496e-05, -0.0013088916, -0.00056014676, -0.0012944641, 0.0007580779, -0.0006033737, 0.0032162792, -0.00040605175, 0.0003058632, 0.0015014115, -0.0010972987, -0.0013097796, -0.00045227376, -0.00021750589, -0.00023012585, -0.00071786117, 0.0026099146, 0.0016800386, -0.0024579628, -0.0007394076, -0.00044487687, 0.000542567, -0.0025708051, -0.00040261983, 3.6907128e-05, -0.0003119774, 0.0025172178, 5.3454656e-05, 0.0015605058, 0.002525045, -0.002318365, -0.0007860096, 0.0013123095, -0.001942942, -0.0009730247, -0.0007283398, -0.00080012996, -9.8992925e-05, -0.0017056486, 0.00017463512, 0.0013361581, -0.0018201527, 0.003877407, -0.0011881168, -0.0018078169, -0.0031402432, 5.1015e-05, 0.00096450705, 0.0024144093, 0.0019335734, -0.00034927868, -0.0007881349, -0.00049599324, 0.00084160705, 0.0017867532, 0.0023821061, 0.00062444754, 3.5686528e-05, -0.0023981072, -0.00023330603, -0.00040700403, 0.0041272035, 0.0012868086, -0.0011926305, -0.0013431129, -0.0019772276, 0.0020223323, -0.00048711384, -0.0017586269, -0.00030019658, 0.00081867917, -0.002473496, 0.00047276996, 0.0006600995, 0.00021589646, -0.00122105, -0.002193039, -0.0012274878, -5.4648874e-05, -4.2635816e-05, -0.0010670794, 0.00070032745, -0.0030517378, 0.0021570146, -0.0007939824, -0.0006626578, -0.0008988735, -0.0016281102, -0.0008856422, -0.0019252034, 0.0012156616, 0.0008151944, -0.0020206496, -7.210765e-07, 0.00074233336, 0.0024074926, 0.00087757, -0.0009563761, -0.00020159793, 0.0016236997, -0.00037650228, -0.00059093366, -0.0009093486, 0.001522881, 0.00068842643, 0.0065228622, 0.0017445061, 0.0004641309, -0.00063240144, 0.00089570787, 0.00034989486, -0.00062486436, -6.49342e-05, -0.00036330696, -0.0025802567, -0.0021282397, 0.000626904, 0.0005659815, -0.0012497315, -0.0010297543, 0.002329441, -0.0018462554, -0.00035309847, 0.0014093015, 0.00016621576, -0.0007905555, -0.002194885, 0.00020593806, 0.0012614772, 0.0006350744, 0.0017642623, 2.913209e-05, -0.00058550516, 0.0009944229, -0.0017931551, 0.0007044039, -0.00057245657, -0.0027158612, -0.0012243346, 0.0009457399, 0.0012582693, 6.670423e-05, 0.0001724904, -0.0016827612, 0.0039056437, -0.0011728142, 0.00035335287, 0.00074124266, 0.0032373802, -0.00072328583, -0.0027790817, 0.1780912, -0.0016313812, -0.0014213223, 0.0006843416, -5.1469406e-06, -0.00014686046, 0.0033005464, 0.00046134903, 0.0007599838, -0.00065401767, 0.0005479147, -0.00044256693, -0.0006455415, -0.0006176343, 0.0004934579, 2.3682232, 1.0903671, 0.25039572, 0.11639046, 0.0018074691, -0.0017250982, 0.16394027, 0.0012268339, -0.2228166, 0.0006232103, -0.0023265681, 0.031101309, -0.00032901939, -0.0012330503, 0.00032152928, -1.2441888e-09, 0.001057649, 0.0007320505, 0.0013010133, -0.0012616635, 0.00063198444, 6.647635e-05, -0.001108083, -0.0004955717, 0.00035073608, 0.00059237634, 0.0007658104, -0.0013211847, 0.0005069392, -0.0011820536, 0.001613392, 0.00045647973, -0.00047637138, 0.0039256345, -0.0028850671, 0.0011240054, 0.00045306724, -0.00018540269, -0.00051299576, 0.0038274238, 0.0015386997, -0.00039702165, 0.0018823374, -0.0016220439, 5.4259435e-05, 0.003073703, 0.002781846, 0.002312565, 0.0016883357, 0.00022873888, -0.0016223477, 0.00080549513, -0.0018071961, 0.00058612094, 0.0011067246, 0.0014980875, 0.0004764792, 0.0030592582, -0.00042086118, -0.00048211013, 0.00023799413, -1.565332e-05, 0.0020813383, 0.00010952784, -0.0026441156, -0.00012226246, 0.00021666652, 0.000513079, -0.0032992605, -0.0021594956, -0.0019004149, -0.003134485, 0.0041216295, 0.0005425103, 0.00033430255, 0.00076246855, 0.0027528608, 2.4531619e-05, 0.0010766508, -0.0017602601, -0.0022557683, 0.0006117354, -0.0006440558, 0.0019296928, 0.0006754258, 0.00072328886, 0.0012702858, 2.529123e-07, 0.0007835552, -0.00076710386, 0.0013277681, 0.006183779, 0.00036464224, -0.0033550854, -0.0029236237, -0.000622349, -0.0024652756, 0.0002752589, 0.0016805676, 0.0007155959, -0.00031977857, -0.00077139196, -0.00075826084, -0.0007534638, -0.0015483012, 0.00084379746, 0.002573709, -0.00035583862, -0.0017163088, -0.00012803404, 0.00023034241, -0.0018566488, 0.001025855, 0.0013429353, 0.006401157, -4.3151376e-05, 0.0012017752, 0.0020365142, -0.0010582134, -0.00070789736, 0.001994261, -0.00091604877, -0.0026759193, -0.0022892894, -0.00037324056, 0.00041662008, 0.0019214344, -0.003989474, -0.00051934144, -0.0008915322, -0.0018283194, -0.00021487412, 0.0018354165, 0.0007939863, 0.0036496273, 0.0027633577, 0.0008907031, -0.0018446478, 0.0012428729, 8.514535e-05, -0.00040691174, -9.751439e-05, -0.00070726336, -0.0013703557, 0.00017490162, -0.019156933, -0.00038733182, 0.0013908191, 0.0027769723, -1.1180755e-06, 0.00057430065, 0.0008252562, 0.0008136925, -0.0021513859, -0.0018372154, 0.0002022382, -0.001048078, -0.0019351647, 0.00066948985, -0.0019170635, 0.08798161, 0.037605405, 1.4436531, 0.16575259, 0.0031075026, -0.00064164697, 0.19551177, -0.00037090725, -0.2503065, 0.0013960485, -0.00019574523, 9.808061e-05, 0.061909616, -0.0047264094, 0.0015184383, 0.0005579365, -0.00018435367, 0.00088562805, -0.00053847965, -0.0017184301, -0.0006429717, -1.1275309, -0.00010045577, -0.00041270012, 0.0010531801, 0.0009864608, -0.0014888818, -0.00053957495, 0.0024703885, -0.002487313, -0.0014014915, 0.0013395455, 0.00015506527, -0.00064918486, -0.0011663358, -0.0009920327, -9.2574744e-05, -0.0007326455, 0.0019791096, 0.0019450337, -0.0048076673, 0.0013272074, -0.0004253873, -0.0010728863, -0.0013108172, 0.000782361, 0.0013125458, -0.0022095295, 0.00016307842, 0.000880223, 0.0005134795, 0.0010425266, -0.0033091307, 0.0016746509, 0.0020524855, -0.0006243008, -0.0016643513, -0.0019690562, -0.0006601165, -0.0011863899, -0.0006689218, 0.0011329153, 0.004003722, -0.0002312588, 0.00079465, 1.1045551, -0.0019687072, 0.0012248701, 0.00030305865, 0.017975822, -0.00021929282, 0.0037690322, 0.0002268001, -0.0007115879, 5.7208223, -0.3087958, -0.00056054007, -0.0008854316, 0.0004907192, -0.00057054334, 0.1664277, 0.65585077, 0.6566678, 0.09093355, 0.00049617415, 0.000966953, 1.0071471, -0.00057384395, -0.24912009, 0.00029100158, -1.475399e-05, -0.822341, -0.052232612, -0.001763347, -0.000701511, 0.00010170101, 0.0013025466, 0.002017417, 0.0026181862, -0.0038972637, 0.0013734878, -1.1475065, 0.4206374, -0.00086972985, -0.0025228814, 0.002355603, -0.00040367062, -1.7510138e-05, -0.001879398, -0.0007473567, -0.0014447815, 0.0002344707, -0.00090112974, -0.0005756853, 0.0012933635, -0.00086462457, -0.0012804413, 0.0025624584, 0.0008446404, -0.0010799066, -0.00080542016, 0.0017141834, 0.0005098715, -0.00032754516, -1.0878051e-05, -0.00035480646, 2.6420195e-05, -0.000757306, 0.00053338986, 0.0027361566, 0.00060395134, 0.0016222211, 3.850572e-05, 0.0017374912, -6.415794e-05, 0.00037207775, 0.00046397815, 0.0030136653, -3.1467527e-05, -0.0014882244, 0.002322041, -0.00066172355, -0.000277496, 0.00090484874, 0.0011371978, -5.036337e-05, -2.8519928e-05, 0.00032243604, -0.000966382, 9.724603e-05, -0.0004308431, -0.002219586, 0.001744435, -8.680939e-05, -0.00060175214, 5.5235985e-05, -0.0001734274, 0.00047243352, 0.0048901043, -2.5334164e-05, -6.616942e-05, 0.0002641979, 4.02418e-05, -2.5301117e-05, 0.00036452396, 0.00086745684, 8.52959e-05, 0.001336721, 4.4332366e-05, -1.8635474e-05, 0.00031405367, -0.00041471794, -0.0003266663, 0.0008634833, -0.0030240193, -6.1103085e-05, -0.002736593, 0.0006980228, -0.00034182216, -0.00024678325, -0.0007080224, -7.703251e-05, 0.00047635759, 0.002277099, -0.0002660555, 0.00011008984, 0.0009590727, 0.0019199238, 0.00033876766, -0.0012431426, 0.0005009289, -0.00025145378, 0.001212263, 0.0027722802, -0.0018289573, -0.0011588297, -0.00060087687, 0.00051522243, 0.0005483183, -0.0042659617, -0.0003020364, -0.0011137415, 0.0011266456, 0.00053858303, 0.00012133428, -0.0026670564, -0.0015090092, -0.001745899, -0.0013562855, 0.000731124, 0.00027415535, 0.003766758, -0.00035920244, -0.0006400454, -0.0017529698, 0.0017675151, 8.419249e-05, -0.0024034826, 0.0028392905, 0.0009782981, -0.003910525, 0.00089191634, -0.002452822, -0.0014678612, 0.00062452204};
float bias_2[] = {-0.0053779334, 0.28373063, 0.058308065, -0.13235995, -0.009424044, -0.1955455, -0.4757422, 0.22651069, 0.27393252, -0.08112986, -0.0940152, -0.13521045, -0.12593152, -0.11136474, 0.060490858, 0.30468372, -0.017241074, -0.07340236, -0.25678825, -0.014680831, 0.12130406, 0.3847812, -0.18098167, -0.020629844, 0.048236948, 0.052874975, -0.15386765, -0.028758122, -0.181906, -0.08188742, -0.66467726, -0.058079336, -0.111605145, -0.057014734, -0.34608042, -0.31098655, -0.36237758, -0.13444, -0.047958832, -0.13533044};
float weight_3[] = {-0.0006334128, -0.77220917, -0.21016517, -0.0013544299, 0.00047342555, 0.00065256626, 0.030942483, -0.34545454, -0.41121843, 0.00014413797, 0.0030899257, -0.004175299, -0.0014754876, 0.0016919714, 0.67453116, -1.9384146, -0.0018635291, 0.0007645366, 1.8067412, -0.0016860405, -0.0024367608, 1.4704936, -0.0010506383, -0.0017797926, -0.20207721, 0.04626762, 0.0021297347, 7.2810595e-05, -0.004173751, 0.0011382378, -0.31726998, 0.00025050703, -0.0019407292, 0.00042540696, 1.9320498, -0.003142795, -0.9176044, -2.3871558e-05, -2.4035935e-06, 0.001472472, -0.0007845245, -0.33555537, 0.5505696, -0.0013198636, -0.0015366287, 0.00022255327, -1.3927379, -1.3979497, 1.2552679, 0.0013828888, 0.00042021158, -0.0012555427, -0.0010520183, -0.0018011597, 1.8752111, -0.50649613, 0.00047245366, 0.00089636043, 1.7251564, -0.0018543482, 0.71476156, -0.48972976, -0.00024080952, -0.0014718021, 0.61118716, -2.4951196, 0.0042760745, 0.0017040309, -0.0012980228, -0.00013025111, 1.3692523, -0.0010414304, 0.0005911083, 0.0007005652, -0.025413346, -0.0013927825, -1.1531214, 0.0017258455, -3.952845e-05, 0.00019693843, -4.3505395e-05, -1.5546936, -0.9240717, 0.0012472674, 0.0007718783, 0.0023859837, -1.3005475, 2.49518, 0.59415936, -9.9281315e-05, 0.00066895026, 0.00065527216, -4.7028298e-06, -0.00040407665, 1.4286451, 0.5744195, -0.00027235414, 0.0006652089, 0.42940867, -0.00026565517, 0.0035425576, 0.1326577, 0.0021405611, 0.0013371264, -0.1373048, 1.1912863, 0.0006691706, 0.0014620889, -0.0016735641, -3.0467985e-05, -0.15385641, 0.00049258117, -0.0012908289, 0.0005073157, -0.14128856, -7.6047494e-05, 3.3096542, -0.00035173594, 8.090911e-06, -0.0014471665};
float bias_3[] = {0.6260104, 0.44908163, -0.2562995};
