float weight_1[] = {-0.0002488601, 0.00255173, -0.0016218859, -1.8550789, -0.05384949, 0.8091859, -0.0024925126, 0.0014553616, 0.0007033021, 0.00031421578, 0.0009077545, 0.0015036464, 0.0009906646, 0.00067543116, -0.0002968855, -0.0006615336, 4.8028487e-05, 0.00089578796, 0.0005230431, 0.0016018099, -0.0025830893, 0.0047405674, 0.0025576646, 0.00076330604, -0.0008833541, -0.004170387, 0.001275266, 0.000111344736, -0.00097356254, 0.00045281905, -0.0005623998, 0.002559146, 0.0001166382, 0.000913518, 0.00060092745, 0.0015813323, 0.0018076114, -1.506554e-05, -0.0026710732, -3.59455e-05, -0.00076099817, 0.00093021407, 0.0006686505, 0.00065256667, 0.0009833929, -0.0026766171, 0.0008085416, -0.0017547531, -0.0013024247, 0.0009175505, -6.815644e-06, 0.0009149965, -0.00064928294, -0.0012348911, 0.0013109843, 0.0014467433, -0.0028495875, -0.0016522293, -0.00034822844, 0.00197138, 0.00051746005, 0.0018478633, -0.0015967146, 0.00047767456, -0.0031120284, -0.0015090979, -0.00028985407, 0.7565101, -0.014192403, -0.0004878661, 0.0014517175, -0.0017751034, -0.00021902286, 0.00033541193, 0.0007834836, -0.0021679944, -0.0003026505, 0.0008730045, -0.00019803538, 0.0005122775, 0.00053093315, -0.2918269, -1.4534346, -0.030926859, 0.30036256, -0.0016233115, -1.0017054, 0.12057461, -0.027420584, 1.4166493, 8.310235e-05, -0.001246252, 0.0010828957, 0.0006026732, 0.0013462931, -0.00042295625, 0.0025749533, 0.0010109111, -0.0021102624, 0.00029877946, 0.001883785, 0.0013216588, -0.8552322, 0.18164647, -0.31653845, -0.0031142957, -0.0013301463, -0.0012438551, -0.0013029241, 8.393044e-05, -0.0013026384, 0.0002974685, -0.00058368314, -0.0006411498, -7.2560506e-05, -0.0002595759, 0.0024937445, 0.0005621208, 0.0010631004, -0.0007099707, 0.00036593014, -0.0035875507, 0.0004311163, -0.0014163633, 0.0001181353, 0.0008652131, -0.0017079834, 0.00074176374, -0.0031091287, -0.00050640595, 0.0022011003, -0.00204399, -5.016895e-05, -0.00074736506, 0.0033359472, 0.0014308129, 0.0004755215, 0.0014311499, 0.05861679, 0.82120097, 0.45532158, -0.00086217513, -0.00062587915, -0.0005228425, -0.00076431024, -0.0025209156, -4.7071575e-05, -0.36580014, -1.4782981, -0.4322305, 0.29151928, -0.67642987, -0.11690989, 0.00028233454, -0.001747605, -0.0019018432, 0.0022900722, 0.0015395832, 0.0005163963, 0.00045010436, 0.00015000772, 0.0006692425, 0.00052386173, -0.0006866515, -0.0008276148, -0.0021927515, 1.0477379e-09, 0.00022337702, 0.5744976, 0.44860303, 0.23975268, -0.0020740386, 0.00067057053, -0.0009896018, 0.001574815, 0.00024205749, 8.227059e-05, 0.0010883042, -2.7973088e-05, 0.0010089468, -0.0018855394, 0.0005387007, -2.8039416e-05, 0.0013158737, -0.0023895837, -0.00328507, 0.0018106708, -0.0047363434, -0.0026071535, -0.0020106891, 0.00041326846, 0.00027968013, 0.00056440715, -1.2561213e-07, -0.00012563134, 0.00030182675, -0.0023085421, 0.0006838312, -1.5461643e-05, -0.0012151184, 0.00027121772, 0.77144015, -0.18848397, 0.00023365277, -1.2689853, 0.7100504, 0.0014660725, -0.00051170925, -0.0003881643, 0.0016888669, 0.00069214305, -0.0015126178, 0.0025086605, -0.0013059085, 0.0005985845, 0.0018063738, -0.00066924177, 0.00243044, -0.001450487, -0.0022504749, 0.001932724, 0.00042738684, 0.10846856, 0.16849023, -1.3654997, 0.0019467337, 0.0003937637, -0.0018429845, -0.35557082, 0.48928037, -0.8595432, 0.0004770666, 0.001135827, 0.00063772086, -0.0017247773, 0.0003688513, 0.0005946951, -0.0023548065, -0.0032903869, -0.0031130342};
float bias_1[] = {-0.12427774, 0.029059207, -0.0149096185, -0.010132022, -0.0041659866, -0.46970206, -0.008650081, -0.01878749, -0.090147264, -0.5549625, -0.015359393, -0.40443683, -0.14265046, -0.0036070289, -0.015846612, -0.33036646, -0.0027258168, -0.004794156, -0.017843202, -0.27867, -0.026377723, -0.018084308, -0.07879458, -0.07215401, -0.09934619, -0.21826766, -0.028948316, 0.30688062, 0.07072253, -0.4260867, -0.41733968, -0.034247942, -0.11437073, -0.05270347, 0.165929, -0.3820343, -0.02936827, -0.0065965154, -0.55556834, -0.33197933, -0.008821254, -0.022474676, -0.0060773953, -0.008261512, -0.09283141, -0.08679628, -0.7329253, -0.006253852, -0.112566516, 0.097867936, 0.040594973, -0.10262097, -0.059625223, -0.0075683803, -0.32183397, -0.25872305, -0.6785236, -0.54887795, -0.016450824, -0.17145482, -0.006203593, -0.5329652, -0.5092389, -0.0047017364, -0.14837557, -0.114581905, -0.6802537, -0.05641197, -0.08026927, -0.0039317384, -0.022235665, -0.29195154, -0.24589333, -0.016254766, 0.2673859, -0.23492035, 0.18760435, -0.5082528, -0.27136296, -0.06486768};
float weight_2[] = {0.00013289845, 0.0020077743, -0.0005324133, 0.0006013554, 0.004742067, 0.0014375456, -0.0011105742, -0.0012398947, -0.00028359928, -8.1423146e-05, -0.0012452018, -0.0011321903, 0.0042716837, -0.0012863439, 0.0011725051, -0.00024104374, 0.0013201694, -0.0008923737, 0.0008548165, 0.0004952016, 0.00018480519, 0.0019582908, 0.00011574087, 0.0006627817, 0.0015047666, -0.001949911, -0.00064364594, -0.00053595623, 0.0013844206, -0.0033025993, -0.0013190927, 0.0024704845, 0.000820294, 0.001239279, -0.0017952054, -0.0017952083, 0.00417911, -0.0010710107, 0.001217224, 0.0017282856, 0.0006627962, -0.0010482164, -0.001298578, 0.0013990328, -0.00090341805, -0.00093224016, -0.0009842109, 0.0002810875, -0.0008916236, -0.0012903572, -0.00060232106, -0.0017052039, -0.0011206684, -0.00037240412, -0.003956558, 0.0019855232, 0.0006564312, 0.00085265655, -0.0024625305, 0.00059682643, -0.003113925, -0.0018864246, 0.0016023798, -0.0019426706, -0.0010052056, -0.00031931972, 0.0025575776, 0.0006789043, -0.0024650274, -0.0001355962, -0.00087967975, -0.0006946799, 0.00021882751, 0.0024198026, -0.0020958104, -0.0008489891, 0.0012356895, 0.0011478297, 0.00073026476, -0.001297601, 0.0012998714, -0.0002104312, 0.0013563705, -0.00082779926, -0.0019379585, 0.00078849646, -0.0029365742, 0.0009062834, -0.00089995156, -0.0009176149, 0.00036406924, 0.0008854207, 0.0008470388, -0.0013672784, 0.0006608215, -0.0008962868, 0.0009771929, 0.001952364, 0.0017690558, 0.0016902689, 0.0012508257, 0.0016631102, -0.0010430638, -0.00022007944, -0.0019696373, -0.0014477696, 0.00062966655, -0.00013146224, 0.00071427657, -0.0011371375, 0.00061867805, -0.00036639895, 0.0006805647, -0.0011904994, 0.00073740387, 0.0006529018, 0.0018099985, 0.00088596356, 0.0015924191, 0.00042407092, -5.2386895e-10, 0.002470476, -0.0012981101, 0.0013195341, -0.00034202723, -0.00057385926, -0.0010334573, 0.00060250045, 0.0022119733, -0.0011640345, 0.002042951, 0.001808365, 0.0010175586, -0.0004737979, -4.859065e-05, -0.0007214831, 0.0018068902, -0.00082004175, -0.000667128, 0.0005910504, -0.0019838833, 0.0011467054, -0.0016453944, 0.00058257644, -0.001202659, -0.00075590156, 0.00029321268, 0.00097064686, 0.00068994646, 0.00055486057, -0.0010045497, 0.0026915595, 0.00032702507, -0.0024574825, 0.0013280716, 0.00097193255, 0.00018519745, 0.0014500483, -0.00041905424, -0.002450663, 0.0013273966, -0.0023319742, 0.0013605086, -0.0005888274, 0.0018817213, -0.0004108009, 0.0013169945, -0.00091370195, -0.000641815, -0.00011074869, -0.0028607915, -0.0023762078, 0.00045615755, -0.002698546, -0.0024146836, 0.00072626583, 0.0012525134, 0.0018116052, 0.0022885003, -0.0027511562, -0.0005550742, -0.0031226326, -0.0040352065, -0.0016989303, 1.3269746e-05, -0.00052491215, -0.0006140645, -0.00071890984, -0.001768792, -0.001824771, -0.0005712315, -0.0008453117, -0.00028781046, 5.0003993e-05, 0.0005230601, 0.0011668259, 0.0012929145, 0.00022346934, 8.5290405e-05, 0.0010293641, -0.0017719739, 0.00021543531, -0.0032368894, -0.0018561597, -0.00265533, 0.00022158516, 0.00088229496, 0.00024926662, 0.00018150965, -0.001211161, -0.0010174162, 0.0006674017, 0.00277808, -0.00036210922, 0.002539748, -4.1601015e-05, -0.00041140022, -0.00046649366, -0.0004019657, 4.389589e-05, 0.002540028, 0.0017106968, 0.0010682485, 0.002504344, -0.003754613, 0.002770403, -0.0017675362, -0.0018645591, -0.001127671, -0.0012270883, 0.0014271655, -0.0016750031, 0.00056742947, 0.0004893497, 0.002272019, -0.0018746494, -0.00082940335, -0.00024885032, 0.00080004305, -0.0006494075, -0.00050084904, -0.00072021445, -0.00051279255, -0.0012985455, -0.0008898719, -0.0029524886, 0.0012779796, 0.0005966428, -0.0009027798, -0.0004280224, -0.00061638345, -0.0013282248, 0.0004733628, 2.7339993e-05, 0.0017697446, 0.0009927697, 0.0018098332, -0.0009328583, 0.00036493863, -0.0005311448, -0.0014192401, -5.1021576e-05, 0.0013335375, 0.0012882398, -0.0024393215, 0.00088078756, -0.00064205175, 8.413789e-05, -0.002250363, 0.00023587473, 0.0010406799, 0.00086880167, 0.0015742728, 0.0007874386, 9.323133e-05, 0.00072997215, 0.0012935689, 0.0017485381, 0.0022669532, 0.0020989534, 0.0019534312, -0.0006724996, -0.0015138151, 0.001911641, 0.00015433837, -0.001227656, 0.00011841935, -0.0006066815, 0.00047894943, 0.0023215434, 0.003294738, 0.001512223, -0.00013925601, -0.00064559706, 0.0003138744, -0.00036910537, 0.0014275052, -0.0012563253, -0.0011238406, 0.0031546275, -8.391158e-05, 0.0013787551, 0.0033569718, 0.0008841273, 0.0015516313, -0.0009846113, 0.0012769506, -0.00078645954, -0.00070857944, -0.0012957653, 0.001245911, -0.002136981, 0.0007145967, -0.001234849, 0.002174612, -0.0026354955, 0.002473428, -1.0992226e-05, 0.0017388384, 0.0015951787, -0.0008189529, 0.00085873593, 0.00023816021, 0.00022058794, -0.0013278734, 0.0019056099, -0.000101947575, -0.0008140366, 5.0215916e-05, -0.0037231273, 0.00078803353, 0.00018325401, 0.00032617367, -0.0007627656, 0.00036356715, 0.00033072536, -0.003651274, 0.0020440156, -0.0014869337, 0.002507653, -0.0003193862, -0.00017239852, 0.0012958453, -0.0008919067, -0.0037091032, 0.0037009597, -0.0015099964, 0.0005788965, 0.001077408, -0.0011702308, -9.5756055e-05, -0.0028539593, -7.861876e-06, -0.0012652517, -0.0010137944, 6.370316e-05, -0.0014266671, -0.003690945, -0.00084212876, -0.0013956383, 0.00065492885, 0.00013441837, -1.5167709e-05, 0.0016394028, 0.000568275, 0.00087383454, 0.0017316128, 3.7404126e-05, -0.0006787516, -0.0007047659, 0.00071446307, -0.000108093795, -9.113413e-05, -0.0012004548, 0.0021044961, -0.0016415052, 0.0010246015, 0.00040397063, -6.435439e-05, -0.004142819, -0.00024885917, 0.00031138337, 0.0018009176, -0.0009325906, -0.0011368322, -0.00033168553, 0.0011007764, 0.0010715649, -0.0015759224, 0.00043540262, 0.0010903334, 0.0014842125, -0.0017796452, -0.0016469929, -0.0018595689, -0.0011665886, 0.00029311192, 0.00073303067, -0.0028887873, -4.6130946e-05, 0.00017339922, -0.0005311607, -0.00026568637, -0.0049431846, 0.000882559, -0.00038576685, -0.0020472258, 0.0011629335, -0.0005276787, -0.0008004064, -0.00031290425, -0.001364395, 0.0005222523, 0.00034331356, -0.0037836786, 0.00010481221, -0.00068224984, -0.0033564246, 0.0009379935, -0.0064279046, -0.0061529204, -0.0007134541, -0.0015592374, -0.0009463001, 0.001016146, -0.00044606993, 0.0024783944, 0.0013648993, 0.00036835752, 0.00040305642, -0.0011161121, -0.0013424307, -0.002448397, 0.00040577224, -0.00028145494, 0.0020815588, 0.0012596645, -0.0010248814, -0.0012618705, 0.006142279, -0.0007659467, 0.00062455575, -0.0005706975, -0.001414297, 6.122951e-06, 0.0016377352, 0.0017215944, -0.0015419333, -0.00076901715, -0.00031842798, 1.2621633e-05, 8.4258376e-05, 0.0023187748, 0.0012070675, -0.001342529, 0.00081866235, -0.0007733683, -0.0026391484, -0.001546976, 0.00050605333, 0.001043223, -0.001044925, -0.0004500192, 0.0011854377, 0.0010978739, -0.001940955, -0.00053228985, 0.0007032237, -0.000909762, -0.0011405679, 0.0010037599, 0.0018350298, -0.00016191404, 0.0014468707, -0.0027689415, 0.0018493453, -0.00049758644, -1.5417347e-05, -0.0006293601, 0.0003056042, -0.0004731659, 0.00085017685, 0.0021612803, 5.8339094e-05, -0.0014731269, -0.0008582527, 0.0024481828, 0.0031214622, 2.8576353e-05, 0.0015260377, 0.0003031632, -0.0007313058, 0.0003506651, 0.0007471667, 0.0024296346, -0.0016483116, 0.004171014, 0.0018646739, -0.0006552503, 0.00060715235, 0.0012924088, -0.002442444, 0.0024017687, -0.0006574634, 0.00061969226, -0.0024682416, -0.0010126474, -0.0006248452, 0.0014913535, 0.0007657221, 0.000762032, 0.0011640997, -0.0015559923, -0.00036403106, -0.0016475078, 0.00043556272, 0.0032976475, 0.0006578296, -0.006407162, -0.0013855804, 0.00052659045, 0.0018141061, -0.0010167244, 0.0007994376, 0.0010488476, 0.00017615517, -0.00090304774, 8.5348845e-05, -0.00046842755, 0.00048467313, -0.0008794786, -0.0031113406, 0.002226247, 0.00026823897, -0.0027527995, -0.0017090801, 0.0008925532, 0.0014014279, 5.7632307e-05, 0.001903556, 0.0031150598, -0.0016148791, 0.0012655025, 0.0012997538, 0.0007469492, 0.002344946, 0.0008158852, -0.0013006832, 0.0021997765, 0.002081949, 0.0006991598, -0.0027520387, 0.0011439681, -0.0018920735, -0.000743542, -0.00041875802, -0.0032979767, 0.00040414263, 0.0044872547, -0.0026268768, 0.0015538082, 0.00072890427, 0.0019720008, -0.0004519062, -0.0015853936, -0.0041623544, -0.0009892246, 0.0011897257, 0.003449251, -0.0014677283, 0.0008063916, -0.0015839287, 0.0001158523, 0.0026207967, -0.0018022088, 0.00031518505, 0.0009354013, -0.00088897673, -0.0006793896, -0.0010834147, -0.0012942704, -0.0013221352, -0.00093241147, 0.0008491727, 0.00020430346, -0.00060219667, -0.0004728249, 0.0023844321, -0.0015004931, -7.8743324e-07, 0.00062959315, 0.0008839755, -0.00027300837, -0.0011568291, 0.0014926719, 0.0012481986, -0.0024465637, 0.002377801, 0.0009142582, -0.0017324265, 0.0021799728, -5.7053112e-05, 0.0012503593, 0.002877411, -0.0032988656, -0.00040800765, 0.0009843502, -0.00085049553, 0.001861199, -0.0011139675, 0.0005073657, -0.00025181577, 0.00073111686, 0.0014304783, 0.000256751, -3.1611882e-05, -0.0023518926, -0.00034729065, -0.0018324377, 0.0004915779, 0.00057186955, -0.00078989286, 0.0020637899, -0.0038181576, -0.00045282696, 0.00063737517, -0.0023323202, -0.0019314559, 0.0039307587, 0.0008109809, 0.0013727057, -0.0018242435, -0.001202401, 0.000657873, -0.0005716799, -0.000226854, 0.0001022605, -0.0009499266, -0.0020329985, 0.0008921111, 0.00011033006, 6.48945e-05, 0.001995064, -0.0013830464, -0.0014430098, -0.0025579808, 0.0006215718, -0.0006459264, 0.0012368867, -0.0031172517, -0.0013202429, -0.0009162556, 0.00028435304, 5.4621836e-05, -0.002472137, 0.0009569125, -0.0024772407, -0.000800351, 0.00156083, 0.00087029213, 0.00019296363, -0.0019314453, 0.001981705, -0.00038651747, 0.0007545322, 0.0012167217, -0.00018782, -0.0021034728, -0.0023900298, 0.0021682244, -0.0007957572, 0.0016388497, 0.0015841075, -0.00058842235, -0.0020706523, 9.773357e-06, 0.00036012125, -0.001453486, 0.0014869857, -0.00015866866, 0.00069451606, -0.0004835478, 0.000115952746, -0.0012773103, -0.00062559464, -0.0013983739, -0.0021030654, 0.0012812384, -0.000788, -0.00042962783, 0.0017961378, 0.0017097173, 0.00119061, 0.0002008088, 0.0014949834, -0.001274127, 0.00078699866, 0.0007146183, 6.3661544e-05, 0.0023870398, -0.0006167902, 0.0012877516, -0.0047180317, -0.0006905729, -0.0005792497, -0.0011936098, -0.0031154146, -0.0004706129, -0.00034256672, 0.002914825, 0.0012721971, 0.00027397502, 0.00070758484, 8.665104e-05, 0.00027053175, -0.00047424436, -0.0026921742, 0.00017475107, 0.003811569, -0.00084150693, 0.00054556306, -0.0016582236, 9.497168e-05, -0.0005811232, 0.0011309078, 0.0018044161, 0.00061948644, 0.0011329023, 0.0024222224, 4.046131e-06, -0.00047186943, -0.002173701, 0.0002333771, 0.0007999422, 0.0012926453, -0.0015215448, -0.00078413246, -0.00018437067, -0.00046823127, -0.0016605399, -0.0025403495, 0.0024726037, -0.0031262273, 0.0007823801, -0.00057197694, -0.00029243203, 0.0021886735, -0.0026034815, 0.000115239294, 0.0009821795, 0.0017411015, 0.0007006113, -0.0013778033, -0.001839255, 0.0033991984, -0.00086373324, -0.0014699779, 0.00073536276, 0.00042486392, -0.0038313055, 0.00072820345, 0.0011214932, 0.0011085647, -0.00022884505, 0.0019547585, 0.0015253385, 0.0005891244, 0.00077635003, 0.00051843456, -0.0011234523, -0.00012854843, 0.0017192815, -0.0023776726, -8.066499e-05, 0.0063870978, -0.00073195307, 0.0032812771, 0.0032841552, 0.0012634129, -0.0036001215, 0.002765413, 9.885075e-05, 0.0027159879, -0.0003192625, 8.817094e-05, -0.0017658714, -0.000831317, -0.00076700054, 0.0032968991, 0.00073054933, 0.0008415966, -0.00036245218, -0.0012214966, -0.0014052733, 0.0007338722, 0.0015146354, 0.0005652765, -0.003073723, -0.00042707703, 0.0006361403, -0.00069646764, -0.00046597037, 0.0025126047, 0.0014840217, -0.0019368947, -0.0013868166, 0.00063596154, -0.0010978982, -0.0006178798, 0.0022962333, -0.00022183848, 0.002036369, 0.0030523797, -0.0033085584, -0.00023361473, 0.0027072255, 0.000667108, 8.91207e-05, 0.0019130142, 0.0009270198, 0.00067200925, 0.0015690363, -0.0007399387, -0.0006996794, 0.001311618, 0.000585924, 0.0009112741, 0.0033079665, -0.00081119617, -0.0010170536, 0.0013127329, 0.00037087465, 0.0016799334, -0.002438756, -0.000789776, 0.0019154755, -0.00014266052, -0.00041198282, -0.00019639253, 0.00021383725, 0.00037252178, 0.0009355537, -0.0013775146, -0.00037368442, -0.0007834706, -7.744151e-05, -0.0005447183, -0.0009842076, 0.0011941728, -0.00066352566, 0.001702294, 9.6533164e-05, 0.00076643913, -0.0014491826, 0.0020242492, -0.0014532679, -0.0013743932, 0.00041852103, 0.0011690219, -0.00033728871, 0.00056616636, 0.001127562, 0.00073359814, 0.0016314161, 0.0029922992, 0.0006491408, 0.00070014497, 0.0013474856, -0.00086617254, -0.0017379352, 0.00037994783, -0.0023205313, 0.0012327541, -0.0032958062, 0.0011531203, 0.0031068758, 0.00030849082, 0.0014865453, 0.0003685611, 0.0001542276, 0.00064277614, -0.0008938439, -0.0031175022, -0.00060060894, -0.0019534663, -0.0008372621, 0.0011443414, 0.001196334, -0.0006600662, 0.0028732247, 0.00066531816, 0.0006096693, 0.00013839288, -0.0021563869, 0.0018099468, -0.003847957, -0.00076550175, 0.002216593, 0.0024743294, 0.0025575012, 0.003293268, 0.0016232063, 0.0008620023, -0.00049530366, 0.00040725333, 0.0020388342, 0.0007571565, 2.4244771e-05, -0.00075314526, 0.0013144437, 0.00095876097, -0.0005704942, -0.0011848629, -0.00028829114, -0.00082085235, -0.0014177777, -0.00088836503, 0.0012472053, -0.00051541935, -1.2986813e-05, 0.00033230032, -2.3347617e-05, -0.0005608902, 0.00027570958, -0.0008112323, 0.0015360459, 0.0012995262, -0.0005743245, 0.0006068879, -0.0022249226, 0.0024207328, 0.0012963874, 0.00019294443, -0.0014430564, 0.0026695963, 8.601957e-05, -6.306774e-05, -0.0005050938, -0.0025603827, 0.00047799875, 0.0024412677, -0.0035693059, 0.0006571295, -0.0016364688, 1.4512683e-05, 0.00088175636, 0.0022225133, 0.0012987339, -0.0012689786, -0.0010706419, 0.0024351303, 0.0011158562, -0.0022170923, -0.0005015069, -0.001764233, 0.0037242332, -0.0006001692, -7.087411e-05, -0.0027144658, 0.0019455078, -0.0009857175, 0.0006489522, -0.001322505, 0.0018802121, -0.0013709972, 0.00063588365, -3.7582293e-05, -0.00063243654, 0.0012133773, -0.0007100189, 0.0016766, 0.0061562937, 0.0025374317, -0.0010428363, -0.0002762557, 0.000978047, -0.0006729328, 0.0013296879, -0.0012363412, 0.002200062, 0.000614307, 0.00010838598, -0.0017576695, -0.00043197477, 0.0001607514, 0.0006951023, -0.0010716527, -0.0014891396, -0.0004538888, 0.00083330955, -0.0025477798, -9.876897e-05, 0.0018577317, 0.0009402224, 0.000938087, 0.00042608372, -0.0006006958, -0.0008764731, -0.00047118426, 0.0008521879, 0.0016268794, 0.0019429234, -0.0006746141, -0.0007861231, -0.0026604058, -0.0027400418, 0.0018558286, 0.00076931156, 0.0011868558, 0.0014976595, 0.0006627983, -0.0018785011, -0.00011969323, 0.00082357513, -0.0026963258, -0.0014337241, 0.00043548126, -0.002055646, -0.0009392136, 0.0012490385, 0.0019365124, 0.0021468652, 0.0009563413, -0.00077189296, 0.00045575356, 0.0011875036, 0.0013093171, 0.0007688845, -0.00081150717, -0.0006053542, -0.00048095477, -0.00056252023, 0.0011932711, 0.001045347, 0.0012596251, 6.794231e-05, 0.0008300374, 0.0006865624, 0.00019748183, 0.0013325806, 0.0002984316, 0.00061107747, 0.0041741747, 0.0012417124, -0.00086164515, -0.00023546303, -0.0031456912, -0.0007245929, -0.00011907943, -0.0006538725, -0.00089492084, -0.0012154868, 0.0014470507, -0.001145361, -0.00030034175, -0.00015882961, 0.00015998405, 0.0015544443, -0.000894003, -0.0010280058, -0.0026679253, 0.0024011345, -0.0024923433, -0.00047482096, 0.0011677493, 0.0027085526, 0.00066301314, -0.0010353475, 0.0017689347, 8.499541e-05, 0.002084304, -5.277805e-05, -0.00036341487, -0.0010311904, 0.0011309223, 0.00055696245, 0.00088844675, -0.0015441527, -0.0016383076, 0.00028577365, -0.0011150241, -0.0007029764, -0.0006013938, -0.00012310059, -0.0025060098, 0.0027528938, -0.00020331173, -0.0008834183, -0.000120537705, -0.0031714947, 0.00013394759, -8.8489265e-05, 0.001046874, -0.0010685832, 0.00042864826, -0.0018124884, 0.00038237975, 0.0007414627, -0.0001678114, -0.0012110537, -0.0025892276, 0.0016916839, -5.121011e-05, 0.0020107373, -0.0022347476, 0.0018173094, 0.0026801918, -0.00022040695, -0.00068627176, -0.00089214364, -0.000665019, 0.00075821544, 8.6418644e-05, 0.000983231, -0.0010490564, -2.819288e-05, 0.00020361698, -0.0008609814, -0.0005030773, -0.00079356384, -0.0005381834, -0.0015915816, 0.0016162882, 0.0011291074, 0.0012948769, 0.0017250448, 0.0006676053, -0.00070919836, -0.0005964073, 6.5370295e-05, 0.0013344721, -0.0013225831, -0.00042026144, 0.0006861609, 0.0013349784, -0.0009643839, -0.0007392607, 0.0008694841, 0.00049689296, 0.002376124, 0.0031121005, -0.0010457891, 0.0011068734, -0.0002538505, 0.0012946386, -0.001420026, -0.0021257976, -0.0024750838, 0.0015307635, -0.003346229, -0.000108449225, -0.0013144816, -0.0017695938, -0.0024675885, -0.0013198073, -0.0019336302, -0.00040579005, 0.0016222242, 0.002728526, 0.000499448, -0.0019474829, -0.00067911623, -0.0012747454, -0.0018079627, 0.0020340418, 2.9543662e-06, -0.0009943327, -0.00049211853, -0.0009027309, -0.0018337511, 0.00045463082, 0.0005201605, -0.0009020364, 0.00044669988, -4.3185835e-05, 0.00077942177, -0.0013312306, 0.00059211685, -8.7960274e-05, 0.0034804638, 0.0010989469, -0.0007211934, 0.0037801922, -0.00054208346, -0.0019126255, -0.0015825855, -0.0002483495, 0.0005359919, 0.00023713036, 0.0008916251, -0.0024718423, 0.0013804233, 0.0022588992, 0.0023572925, -0.0009803366, -0.00037322578, 0.0008898018, 7.515965e-05, 0.0006536874, 0.0001983709, 0.0003865407, -0.0009105905, -0.002281055, 0.001301731, -0.0006740671, -0.0011471583, 0.0006912427, -0.00038466963, 0.00022126074, 0.0009050941, -0.0018448028, 0.0011390713, -0.0008816348, 0.0014278674, -0.0013328614, -0.0012432841, -8.6182845e-06, 0.00029502774, -0.0004958145, 0.001904415, 0.0005988796, 0.0012102978, 0.0011584738, 0.00018578541, -0.0016138402, 0.00061570335, 0.0019166464, 0.00043032144, -0.00052298955, -0.00088238815, -0.00040928146, -0.0010646852, -0.0011724089, 0.0020143834, -0.001042498, -0.002699646, -0.00038647966, -0.0010703965, 0.00092093134, -0.0007275685, -0.002109722, -0.001145728, 0.00022483448, 0.0010322162, -0.00034596678, 0.0026594088, -0.001840858, 0.00013014686, 0.0025794175, 0.0010010613, -0.00010335649, 0.0006443406, 0.001780137, 0.0007469782, -0.0026866922, -0.00060319173, 0.00240189, 0.0030062879, -0.0013007284, -0.00024136389, -0.0019228917, 0.0001406467, 0.00027387834, 0.0020059866, 0.0005090435, 0.0033119516, -0.0018134365, -0.0010737097, 0.00020735717, 0.0010476408, -0.0012897835, -4.9358234e-05, -0.0013224701, -0.0007279658, -0.00039096863, 0.00014133586, 0.0015757215, -0.0009985254, -0.0034315712, 4.3864304e-05, -0.00028056512, 8.140103e-05, -0.0006014186, 0.00047920283, 0.00066407415, -0.0017328765, -0.0009961384, 0.0013156035, 0.0019453558, -0.000883085, -0.002157302, 0.00043062415, -0.0013086654, 0.00055411714, -0.0024746135, -0.00088796596, -0.0021578097, 0.0006300138, 0.00058220857, -0.00021586986, -0.0019956126, -0.0010239938, 0.0019467286, 0.0007897923, -0.0007847693, 0.0017310235, 0.000757184, 0.00026902222, -0.0006669837, 0.0009846458, 0.0010234186, 0.0007403522, 0.003805047, -0.00049047486, -0.0006753292, 0.0023732972, -0.00058959116, -0.0005418934, -0.001148865, -0.00056689564, -0.00133273, -0.0021553063, -0.0014437884, -0.0013026241, 0.00043950765, -0.00034745783, 0.00075585756, -0.0018024176, 0.00130227, 0.0008822032, -0.0008777775, -0.00217846, 3.2873417e-05, -0.000983947, -0.00039569498, -0.0012523967, -0.0025547468, -0.000686687, -0.0012923578, -0.00021997967, -0.0005791545, 0.0017739002, -0.0009863932, 0.0015143434, 0.0040155184, 0.00063705235, 0.0006122772, 0.0008551573, -0.0014450676, 0.0016775057, -0.0010339384, -0.0013792928, -0.000686532, 0.0008683505, 0.00094552216, 0.0019877679, 5.663431e-06, 0.0013769373, 0.0012704488, -0.00086733996, -3.1679112e-05, 0.001268382, -0.0006914038, 0.0021640118, -0.0002721808, -0.00076949317, -0.001823922, -0.00014800025, 0.0011294532, 0.00068652024, 0.0006096035, 0.0028916216, 0.00022140995, 0.0009432478, -0.00095130375, -0.0003719472, 0.0012843681, -0.0011954352, -0.0009029782, -0.00097315304, -0.0005078436, 0.0020207528, -0.00026208838, -0.0017478724, 0.00025265757, 0.0017914639, -0.00047885522, -0.00065115443, -0.0005909222, 0.00024948406, 0.0016515234, 0.001091588, -0.001733543, 0.0005850872, -0.001580901, 0.00013482379, 0.0002185634, 0.001328764, -0.0005239423, 0.002696429, 0.000751557, -0.00032408495, -0.0012930838, -0.000572319, 0.00054151216, -0.00018113216, -0.0023860272, -0.0013252881, -0.0012277644, 0.00059181696, 0.0017297886, 0.00077736075, 0.00029582856, -0.0005825592, -0.0006185726, -0.0010719704, 0.0017138048, 0.000967213, -0.0007901266, -0.0014091856, 0.00064635987, 0.0018451659, -0.00070337905, 0.00074030005, -0.00065766065, 0.0002286039, 0.00053052336, -0.00062993314, 0.00079425, 0.00012711697, -0.00014784356, -0.0007901641, -0.0016825423, -0.0006740747, -0.0009297926, -0.00045844982, -0.0010891799, 0.0013116306, -0.00089777267, 0.0006323617, 0.0025912733, -0.0006675677, -0.0006666144, -0.0010587433, -0.0003227591, -0.0031000846, -0.00078918046, -0.0011692402, -0.004183842, -0.0016790021, -0.00012239185, 0.0009533045, 0.0003081304, -0.0038658585, 0.0007691596, 0.0004168023, -0.0016954967, -0.00069692, 0.0005400708, -0.0007296312, 0.0018009332, 0.00034961832, -0.0016587026, 0.0010648314, -0.00097173685, 0.0014465892, -0.0012663009, 2.981309e-05, -0.0016952108, -0.00020306231, 0.00075188756, 0.0014551063, -0.0013496582, -0.0008869354, -2.4688434e-05, 0.0009263443, -0.00022209785, 0.0011453244, -0.0010070475, 0.0036202401, 0.0013366907, 0.00027388282, 0.0018396532, -0.00046043843, -0.00078255555, -0.0010547299, -0.00040308398, 0.0008578993, -0.0008393787, 0.0018100601, -0.0022065416, 0.0020560846, 0.0001306719, -0.0013308559, 0.0013664161, 0.00092190807, 0.00068948953, -0.0019138597, 0.0026274347, -0.0002807629, -0.003878221, -0.00048103102, -0.00082800846, -0.0038451739, 0.0012342446, -0.00081022794, 0.00026115542, -0.0003758308, -0.00020872083, 0.000928041, -0.0010894316, 0.0009782691, -0.0025474082, 0.0010066541, 0.0017025609, 0.0010179668, -0.00041557752, -9.627268e-05, 0.0007135023, -0.00093665253, -0.0021050964, -0.00127394, 0.002352931, 0.00058774534, 0.0024696663, -0.0011947053, 0.0006763, -0.0008976629, -0.0005260779, -3.3886856e-05, 0.001142997, 0.0018580583, 0.0019220011, 0.0018216871, 0.002468788, -0.00045035855, -8.3671766e-05, -0.0047555906, -0.0010098122, -0.00050063373, -5.999423e-05, -0.0024733967, 0.00096901174, -0.0007809676, 0.00268705, -0.0006487872, -0.0010787533, 0.00030888733, -0.00043366372, -0.00022204104, 0.00045749496, 0.0016517369, 0.0015649837, 0.004242789, -0.0017273714, -0.0001393797, 0.0031160237, 0.0032907343, 0.00026894367, 0.001566017, -0.0015752914, 0.002351162, -0.00027818768, -0.0021525123, 0.0023588743, 0.003659279, -0.0001558236, -0.0006454437, 0.0042381464, -0.0008577611, 0.0010436953, 0.0020155923, 0.0006642123, -0.0017926684, 0.002934033, -0.0024746624, -0.0007585153, 0.0012779251, 0.00012827042, -0.00046434868, 0.0014273847, -0.0014988307, 0.00061594194, -0.0002377301, 0.0015195983, 4.3246313e-05, -0.0009806998, 7.413567e-05, 0.0028390954, 0.0006959285, 0.0004126, -0.0012453052, 0.0012869838, 0.00058083824, -0.00017121457, 0.0014613201, -0.0010230087, 0.0009743234, 0.00016617792, 0.00055449334, 0.00056749675, -0.0011825748, 0.0015953551, 0.0024297838, 0.0010601773, 0.0012265779, 0.00050445227, 0.0004636766, 0.00025273988, 0.0018544787, 0.0025982014, 0.00062293076, -0.000638789, 0.00051773235, 0.0002701377, -0.0001625882, 0.0025528786, 0.0015874516, -0.00089473434, -0.001526934, -0.00020197639, 0.00046832932, -0.0022853008, 0.0013384523, -0.0026439647, -0.0006542289, 0.00059274473, -0.0014322747, 0.0021125101, 0.001426807, -1.832396e-05, -0.0005945522, 0.0012971624, 0.0006234931, 0.00027611814, -0.00018573404, -0.0007683622, 0.00050938415, -0.00053639506, -0.0010783384, 0.00011313538, 0.00044066578, -0.00087319285, 0.0023629887, -0.0032161782, 0.0027411075, -6.1297615e-05, 0.0006977816, -0.00075076084, 0.0015611871, -0.0012298336, 0.0008066802, 0.00046047132, 0.0007097923, -0.00022056636, 0.001215115, 0.0031080726, 0.00038348098, -0.0009815547, -0.00020573733, -0.0010331249, -0.0026295052, 3.2069045e-05, 0.0011162368, -0.0037274132, 0.0013124179, 0.0009168977, -0.00035112124, 0.00037890737, -0.00038385668, -0.0013983082, 0.0014214129, 0.001212942, 0.0012240235, 0.0031251898, 0.0010767521, 0.00047593017, -0.00046769984, -0.001335223, 0.001267202, -0.0031558261, 0.002961, -0.001813375, 0.0012974213, 0.0024090642, 0.0003959185, -0.0013075968, 0.0013063578, 0.00058920006, 0.00064781535, 0.0015337059, 0.0012947958, -0.0008268305, 0.00011459511, -0.0024396044, -0.0033722355, 0.00019994203, -0.0013915696, 0.0013901708, -0.00076152955, -0.0015986399, 2.4688314e-05, -0.00067301135, 0.0007378865, -0.00284637, 0.0004929426, -0.0011887483, 0.00061732414, -0.0021632619, 0.0012802491, 0.0020718174, -0.0013387001, -0.0008067461, -0.00076104124, -0.00068554044, 0.0012884309, -0.0021261424, 0.0004034526, 0.0013138137, 0.0010688755, 0.0005617109, -0.001264882, -0.0015546874, -0.0012729678, 0.00054067647, -0.0022698545, 0.0019593327, 0.0014255338, 0.0013203898, 0.0006899303, 0.00071754784, -0.0007306329, 0.00058936176, -0.0010681194, 0.0008561551, 0.0005300125, -0.002164915, 3.2434473e-05, 0.0012011087, 0.0016244886, 0.0011660849, 0.002379579, 0.0003687925, -0.00090297696, -0.000376612, -0.0013656644, -0.002099004, 0.0018019506, -0.0017895695, -0.0013064141, -0.004751351, 0.0027436153, 0.00074060675, -0.0021562062, 0.00070837844, 0.000576366, 0.002169516, -0.00064730766, 0.0008721838, -0.0003182505, -0.003817502, 0.105912715, 0.00061551586, -0.002824097, 0.0018660619, 0.0010554404, -0.00071865285, -0.0012698299, -0.0008721307, -0.003698171, 0.0018524205, -0.0010548938, 0.0022173317, 0.0011477811, -0.001615875, 0.0018015103, -0.0019086875, 0.0010888698, -0.00055886514, -0.0006795377, 0.0011243304, -0.002394857, 0.00013985253, 0.00029653823, 0.0011883688, -0.00043394562, 0.0019503884, -0.10071594, -1.0750988, -0.18514563, -0.0006502257, 0.000506274, 0.0016672688, 0.00070084067, 0.00016084194, 0.00027632015, 0.0007290767, 0.0011460392, 0.0013422503, -0.0006847129, -0.00053804787, 0.0005832199, 0.00029853015, 0.00045021126, 0.0014009525, 0.000642057, 0.5743416, 0.00062756625, -0.0008066147, -0.00044963649, 0.00048397123, -0.0018961162, -0.0026878281, -0.0012736833, -0.0039810445, 0.0017667534, 0.000210077, 0.00067848107, 0.0016025294, -0.00067265716, 0.0022342326, -0.00020106422, 1.2791148e-05, -0.0013023744, 0.0018289884, 0.00037656858, -0.0010957448, 0.004187505, -0.103875816, -0.0009857293, 0.0006238345, 0.00064091914, -0.00073386374, 0.0006889973, 0.00010062763, -0.00057860254, -0.18245956, -0.00027817325, -0.0025380873, 1.7150945e-05, -0.0015028317, 0.00093041325, -0.0011266471, -0.0036176718, -0.0007327824, -0.00044425967, -0.000111519825, -0.0013277722, -0.0008535879, 0.0008061232, 0.0025205864, 0.0013580455, 0.0005804922, -0.0020468482, -0.0014180684, -0.0026695323, -0.00020390449, -0.0005618341, 0.0014354663, 0.0012463125, -0.0008837157, -0.0030758192, -0.003116841, -0.0011624609, -6.126196e-05, 0.00040648607, 0.0019709715, -0.00030368916, 0.0011495053, 0.00043999348, -3.7515594e-05, 5.366438e-05, -0.0015998157, 0.0001530661, -0.006297594, -0.00034919824, 0.00042970307, 0.0006582043, -0.0018511856, 0.002044949, -0.001113728, 0.00010635343, 0.001359885, 0.0009114549, 0.0001192253, 0.00084894267, -0.0014211128, -0.0024332828, 0.00067517173, 0.000821084, -0.0022637495, 0.0014306613, -0.0035483683, -0.0021995462, -0.00068908196, -0.00015258079, -0.0008297429, -0.0044842795, 0.0011621646, 0.0010003255, 0.0030047672, -0.00058845925, -0.0011146065, -0.0004228279, -1.0010321e-05, -0.0007335773, 0.0009046957, -0.00202956, 5.540847e-05, -0.00081991946, -0.0023738025, -0.0028169593, 0.0012912995, -0.00097243814, -2.0671403e-05, -0.0020242198, -0.0009240002, 0.00227162, -0.000803371, -0.0022385991, -0.0019952226, 0.0011975593, -0.00065368274, 0.00076343573, 0.0011549462, 0.0001998689, -0.0016870551, 0.0014188956, -0.0017683401, -0.00069203484, 0.0005883805, -0.0003557807, 0.0024111988, -0.002151081, 0.0016233062, -6.5367494e-06, -0.0032960828, -0.0019370832, -0.0032967567, -0.0013319389, 0.0010706093, -0.0004807789, -0.0016271595, 0.003295485, -0.0013937511, -0.00060405716, -0.0012366921, -0.0007863926, -0.00046465144, -0.0013328469, 0.0015941705, -0.0006704, 0.000104629726, -0.00052238436, 2.9205636e-05, -0.00084872864, -0.0012941642, -0.0006659194, -0.00011652149, 0.0005278108, 1.4545454e-05, 0.00057544693, -0.0020116789, 0.0002237871, -0.00030581153, -0.0006531826, 0.0028478627, -0.00015072973, 0.00039341638, -0.0017701045, 0.00058305054, 0.0004858576, -0.0020329698, -0.0001204508, -0.0024024814, 0.0004471091, -0.0003027334, 0.0010773594, -0.0013017893, 0.0017304112, 0.000798032, 0.0010095679, 0.0023793117, -0.00060224923, -0.0021432065, 0.00092614134, -0.000650185, 0.00058678346, -0.0011841735, -0.0013489146, -0.0007500431, -0.00079920224, -0.0014882477, -0.001442224, 0.0017715677, 0.0023821774, 0.0011971341, 0.0005726539, 4.691907e-05, -0.00050171965, 0.00018735835, 0.00017790508, 0.0033864055, 0.00043713418, -1.1150347e-05, -0.0023248773, -0.0004536112, 0.0012613169, -0.0031248014, -0.000843805, 0.0012075625, -0.0019543488, 0.0007184432, -0.0014801375, 0.0017259981, 0.00324198, 0.0008774076, -0.0023397554, -0.0016737826, -0.0009304432, 0.0007450675, -0.0004960762, -0.24417274, -0.00045059668, 0.00092088024, 0.0025232015, 0.0007306616, -0.20996843, -0.0016419813, 0.1365847, 0.0015599143, 0.00067274435, 0.0005848486, 0.0005848345, -0.17808989, -2.9320683e-05, 0.002162538, 0.0023341137, -0.00022190524, -0.0003088341, 0.001243896, -2.5902875e-05, -0.0010101302, 0.0013221367, 3.2770316e-05, -0.00031910406, 0.06342279, -0.0035916718, -0.00049565895, 0.00065983937, -0.0005951638, 0.00046204973, -0.0009241947, 0.0041030636, 7.2778465e-05, 0.0007520936, 0.24670753, -0.0004615478, 0.00039638043, -0.0007746295, -0.00013106555, -0.000638613, 0.00023841951, 0.00090524927, 0.00016742162, 0.001969752, 0.0005997017, 0.08819361, -0.003030355, -0.0012582038, 0.0006328555, 0.0012681712, -0.0003818808, -0.0012324352, -0.41316247, -0.0022813396, -0.6239747, 0.0019698006, 3.8673403e-05, -0.0015528771, 0.0013107935, 0.00093728176, -0.0019418226, 0.0031084036, 0.0021667113, 0.0022936852, -0.0010550163, 0.0012724826, 0.0047413125, 0.003242802, 0.0008365379, 0.0014111972, 0.0018393924, -0.00032434106, 0.00064362615, 0.0064256024, 0.000591502, -0.003295422, -0.0014008548, 0.00054781605, 0.00188044, 0.0012939895, 0.0010958861, 0.0015768476, 0.00072855246, 0.0032811263, -0.0024425753, -0.00010710751, 0.0035048784, -0.00046031128, -0.0012076665, 0.0012097566, 0.0028364894, -0.0022518262, 0.0009101631, -0.0012506365, 0.0031110612, 0.000766843, 0.0017222471, 0.00044060504, -0.00035141094, -0.0021577207, -0.00022361032, 0.0016206151, 4.4486485e-05, -0.0014887119, -0.0016597605, -8.275185e-05, 0.00037653735, -0.00095282414, -0.0025143684, -0.00017226557, -0.0024491842, 0.00075839565, 0.0015837541, -0.0011014452, 0.00081120245, 0.0026383381, 0.00091412495, 0.0005190706, -0.0012935161, 8.474663e-05, -0.0020510573, 0.0013017965, -0.0016395572, -0.0012297044, -7.705658e-05, -0.0004932482, 0.00025990536, 0.00026526526, -0.0004616793, -0.0011337213, -0.00085789664, -0.0021439372, 0.0018747363, 0.0001516412, -0.0012430709, 0.0015741903, -0.0019480479, 0.0016996587, -0.00072077906, -0.0004165339, -0.00010173948, 6.9849193e-10, 0.0009797877, -0.0006632671, 0.0013371943, 0.00015480432, 0.00011654716, -0.0001354969, -0.0013549946, -0.0009525508, 0.001695078, 0.00020844248, -0.0014498681, -8.711126e-05, 0.0032420508, 2.4872716e-06, 0.00064642925, -7.297384e-05, -0.00042845256, -0.0011645644, -0.18167013, -0.0012958549, 0.0026567404, 0.0030707936, -0.0012505527, 0.07215785, 0.00050347426, -0.003487789, 0.0005213395, 0.00030264142, 0.0004439971, 0.0008522155, 0.00038919784, -0.00182356, 0.004743057, -0.0003394408, -8.235639e-05, -0.0013553895, 0.0005527147, 0.0032809456, 0.000817511, 0.0018981016, -0.0005371728, -0.002714669, 0.0016424914, -0.0010992254, -0.0011229358, 0.791345, 0.7126097, -0.0005034166, -0.00079675554, -0.0016201874, -0.0007400095, -0.0014383465, -0.008257111, 0.001241292, -0.003304184, 0.00087851577, 0.00036124006, -0.0006096257, -0.0005498305, 0.0011083854, -0.00037228985, 0.0014287072, -0.003111933, 0.00078731275, -0.51383674, 0.0013086989, -0.00027006306, 0.0008936426, -0.0011902803, 0.00053541455, 0.13410638, -0.0013732709, -0.20370637, 0.00010984871, 0.0036197484, 0.0016515133, 0.002951737, -0.00021826537, 0.0021830632, 0.001108625, 0.0006235442, -0.0012602814, -0.0008655211, -0.00038334925, -0.0010653848, 0.0010146378, 0.0007615761, -0.0008963977, -0.00046330615, 0.0013255489, 0.0014523144, -0.00021757631, -0.0021439765, -0.0005701207, -0.0024736268, 0.0024683373, 0.00033830805, -0.00047680002, -0.00094017084, -0.0008897597, 0.0010814796, 0.0014344379, 0.00015335009, 0.0006624979, 0.0013044433, -0.0008689045, 0.0015000697, -0.0024717222, 0.0026950052, 0.00064793957, 0.0021643061, -0.0014985316, -0.0017682512, 0.0031146295, 0.00039439392, -0.00013641937, -0.0007655113, -0.00065187475, 0.001769074, -0.002359071, -0.0007483407, 0.00040365447, 0.00061015796, -0.0012767934, -0.00063116534, 0.00056192605, 0.00064854434, 0.0028452103, 0.0011276511, 0.00053169247, -0.00084680936, -0.00029342854, -0.0006939498, -0.0003803409, -0.0019563239, 0.0003441732, -0.0006346934, -0.0019270986, -0.0009528884, -0.002470072, 0.0019946117, 0.00032599317, 0.00062386645, -0.0024660383, 0.00045743736, -0.0025536437, -0.0015559572, -0.0006537655, -0.00074245466, 0.0007309195, -0.0031111124, -0.00048777892, 0.0019433879, 0.0017090583, 0.0003500328, 0.0013688534, -0.00061666477, -9.254913e-05, -0.0031151264, -0.0024645259, 0.00036572234, -0.00030151903, -0.0012296429, -0.00053509366, -0.00070467376, 0.0018363819, -0.00066898856, 0.00067508465, -0.0012903763, 0.0019094871, -0.0013999492, 0.0017332722, 0.0013091714, 0.00036841765, -0.0013741048, 0.000637678, 0.0001619265, 0.000117621734, 2.4600537e-05, 0.00010442041, -0.0028339322, -0.00090974005, -0.0001871273, 0.0006493518, 0.00036406837, -0.0012289535, -0.0014846346, 0.00073240214, -0.0017923345, 0.0009774835, -0.0024827323, -0.00078515103, -0.0012234082, -0.0015752118, 0.0015675738, -0.00028368767, 0.00054559007, 0.00091013423, -0.0012974702, 0.0011435326, -0.0036121956, -2.2285618e-05, 0.00043003878, 8.383242e-05, -0.002046013, -0.0014649307, -0.00057095895, -0.0007362758, -0.0034317574, -0.0019283275, 0.00014301762, 0.0020317603, 0.00087107177, 0.00035216365, 0.001295833, -0.00019347912, 0.00067126605, -0.0023550976, 0.001063159, -0.00065644144, -0.0021709811, 0.00087968394, 0.0005035311, 0.0013077607, -0.000695455, 0.00013602065, -0.00024436924, 0.00040123923, 0.0028547714, 0.000113573915, -0.00081810425, -0.00013398658, 0.00051511615, 0.0012047221, -0.0029573315, 0.0008588156, 0.00034696108, 0.0007812008, -0.00094870955, -0.0026485478, -0.0005574352, 0.00036687579, -0.0007879061, 0.00088537455, 0.0008306931, 0.00013475493, 0.0005529644, 0.0003941378, 8.009933e-05, 0.00079705054, -0.0006663689, 0.0032640013, -0.00048461024, -0.0006708647, -0.0010180318, -0.00088132883, -0.00049667235, 4.116702e-05, -0.0016278636, -0.00064667914, 0.00031735218, -0.0042889807, -0.0008465333, -0.00021995726, 0.003321004, -0.00044562755, -0.0012275996, -0.0011946867, 0.0021370947, -0.00020646193, 0.0003678928, 0.0015391781, -0.00037787756, 0.00019575341, -5.4280958e-05, -0.000278173, -0.0006045524, -0.0015196183, -0.0004709683, 0.0015832762, 0.00036104547, -0.00049937866, 0.00022532104, -0.0009812515, -5.5310054e-05, -0.0019128796, -0.002288322, 0.0016506723, -0.00040171514, 0.0010716664, -5.170054e-05, -0.000872367, -0.0007614385, -0.001530176, -0.000892193, 0.000722163, 0.0005149387, 0.0017799059, -0.0002125228, -0.0016287685, -0.00024501467, -0.00062996737, -0.0007415003, -0.0010477004, 0.001001932, 0.00050646253, 0.00077590375, -0.00019605167, 0.0011652934, 0.00012736168, 0.00060807966, 0.00032309338, 0.00022616272, 0.002494187, 0.0008750611, 0.0008595908, -0.0017287272, -0.0012668719, 0.0010723793, -0.0004965479, -0.0013927552, -0.0023455045, 0.004360413, -0.0005846947, -0.0007656795, -0.00093841227, -0.0018267814, 0.0014725786, 0.00045925938, -0.0019452319, 0.0024718423, -0.0015571535, -0.001116584, 0.001155781, 0.0014047758, 0.0017674898, -0.0014326078, 0.002853825, 0.0012889609, -0.0017710862, -0.00084353006, 0.0005418719, -0.001028337, 0.0023890203, 0.0014112962, 0.0024321314, -0.0026583923, 0.00075059116, -0.0021953972, -0.00012391456, -0.0006141549, -0.0008757379, 0.00083223474, 4.80796e-05, -0.00043971837, 5.6634017e-06, -0.0011189211, -0.0012690303, 0.00063046865, -0.00040703663, -0.0004175444, -0.0011352943, -0.0009076716, 0.000669202, 0.0011569513, -0.00041176757, 0.0020094074, 0.00074588053, -5.367532e-06, -0.001080133, 1.984759e-05, 0.0025904845, -0.00047499375, -0.0028700542, 0.00077772234, -0.00081029045, 0.0011133086, -0.0012558522, 0.0008272423, -0.0002980046, -0.0023336788, 0.0002979939, -0.0003735026, 0.0012465923, -0.0008901315, 8.3751394e-05, 0.000651922, 0.00034303137, 0.00022346037, 0.0002225677, 0.00166511, 0.0017997413, -0.0013013872, 0.0018001116, -0.0014226098, 0.00091107184, 0.0026098187, -0.0031488026, 0.004174172, 0.0004959298, 0.00053271296, 0.0027883763, -7.773953e-05, 0.0009020236, 0.0012986994, -0.002574897, 0.0016222696, -0.0002501179, -0.00055382214, -0.0016240396, -0.00022218592, 0.00036832562, -0.00088227, -0.00042527006, 0.00088371075, 0.00046600343, 0.000109591114, 0.0014511938, 0.00075413694, -0.00064383337, 0.0011009176, 0.0006804977, 0.0017690833, -0.0016359871, -0.0003042839, -0.003232792, -0.0015499414, -0.0011529087, -0.0044513782, -0.00020085444, -0.00086144666, 0.0022155137, 0.00022280432, 0.0005297336, 0.0023390711, 0.00082697364, 0.00055368943, 0.0010246232, -0.004746733, 0.0008018378, -0.00072837865, -0.0005751257, 0.00022191834, 0.0004664542, -0.0004590283, 0.0008983183, 0.0024760826, -0.00070302805, -0.0012522043, -0.001163664, -0.00018399162, 0.0013022132, 0.001298567, -0.00075774826, -0.00030258298, 0.00047582955, 0.0021232788, 0.000110678026, 0.0005805716, 0.0005264729, -0.0018071667, -0.0012390364, 0.00038216147, -0.002164136, 0.00047215194, -0.001296839, -0.0007784486, -0.0014153966, 0.0047120727, 0.0010702636, 0.0024960414, -0.0036939476, 0.003308006, 0.0013853414, -0.0022931346, -0.002014803, -0.0015268967, -0.0005417062, 0.00054127665, -0.0010837641, -0.0011732583, -0.0003985305, 0.00135276, 0.002150871, -0.0012518326, -0.00024352351, -0.0022018843, -0.0013218848, -0.00078246614, 0.00052705593, 0.0012810447, -0.00043163923, -0.0013834492, -0.0016304388, -0.0009608899, 0.001453313, -3.700424e-05, -0.0003811029, 0.00091158476, -0.00022640429, -0.00014194314, 0.001117107, 0.0013276538, 0.0013729992, -0.0013205506, 0.0014384959, -0.0014905179, -0.0003073404, -0.0020060856, -0.00036434492, 0.0013444811, 0.0014283082, 0.0010661563, 0.0011144982, -0.00131619, -0.0013395508, -0.00029150187, 0.00080201344, 0.0010392801, -0.0033401882, 0.00049667165, 0.0027850932, 0.0010409056, -0.0016692092, -0.0025558583, -0.0009229076, -0.0024105303, -0.0006414395, -0.0002340991, -0.0014058611, 0.0029289243, 0.0018721562, 0.0013601386, 0.00021584032, -0.0009861898, -0.00041941076, 0.0025618952, 0.00046828878, -0.00058667327, 0.0015454467, 0.0012627845, -0.0014233666, 0.0017438482, -0.002651024, -0.00063694513, -0.00045614262, -0.00088158896, 0.00075047987, -0.0015616076, -1.17111485e-05, -0.001067258, 0.0030967724, 0.00097053766, -0.002718714, 0.000107831336, 0.0006805563, -0.0042026467, 0.0005611993, 0.0012446407, -0.0017695192, -0.0024653235, 0.0013261397, 3.397819e-05, -0.0019269226, -0.0010399194, -0.00096583966, -0.000662985, 0.00027213665, 0.0012874106, 0.0011319856, -0.0014494322, 0.00024163077, 0.0009107172, 0.0017518026, 0.00082956767, 0.0012870852, 0.00026355032, -0.0010692971, 0.0010791572, -0.0013903636, 0.0021733101, -0.00075828575, 0.0024715862, -0.0024427774, -0.0018006588, -0.0005853513, -0.0038761487, -9.364949e-05, -0.00068393047, 0.0014665239, -0.0005218521, 0.001314971, -0.0015765115, -0.00093376724, 7.4985495e-05, 0.0008610195, 7.622532e-05, 0.0031185057, 0.002162626, 2.394314e-06, -0.0016337223, -0.0007848056, 0.0006015775, 0.0010698976, -0.000750654, -0.002339514, -0.0004963672, 0.0011695031, -3.204029e-05, 0.000104203005, -0.00089177815, -0.00022422342, 0.0006451484, -0.0006392568, -2.9379356e-05, -5.6503166e-05, -0.0011452147, -0.00010052367, 0.001006639, 0.00022309652, 0.00027345866, 0.00051307515, 0.0012701151, -0.0032973825, -0.0010359547, -0.0017698489, 0.002008933, -0.00076501805, -0.00094686064, -0.00068572344, 0.0006716428, -0.00027756765, 0.0002216266, 2.204557e-06, -0.001018838, 0.00052451773, -0.00028013065, 0.0019633682, -0.0005245348, -0.00049385906, 0.0009918871, 0.0023802654, -0.00068295747, -0.0005534078, 0.0005959083, 0.0009017352, -0.001939389, -0.001318193, 0.0004672661, -0.00062783563, 0.00027501286, -0.0008936032, 0.00027171185, -0.00062141626, -0.001315903, -0.0006676064, 0.000958267, -0.0018150808, 0.06771632, 0.0015618264, -0.002130713, 0.0020671005, -0.0012508545, -0.21919452, 0.036062278, -0.0006112327, -0.0018248076, -0.0012329407, 0.00054571626, -0.0020296911, -0.0004615261, 0.0004246371, -0.0004555903, 0.00042867742, 0.00026899145, -0.0014076803, 0.0025191335, 0.001400406, -0.00088044826, 0.000992673, 0.00016182022, 0.0020469897, -0.0027430952, -0.0010975412, 0.00082265853, -0.004359667, -0.0009848227, -0.0005823644, -0.0018915473, 0.0012361715, -0.0061484333, 0.00049454137, -0.0013952779, -0.0021267757, 0.0016331605, 0.0016790384, 0.00029172323, 6.412834e-05, 0.0020571821, -0.0015983392, -0.0006141047, -0.0015689376, 0.0006860119, 0.01676609, -0.10273952, 0.00088905706, 0.000595601, 0.00053906336, 0.0006082153, 0.0010960633, 0.48977935, -0.00045493862, 0.3939116, -0.0010439083, 0.0007071544, -0.0014680856, -0.0026939444, 0.0030834365, 0.00068834564, 0.00025146373, -0.0022025765, 0.0006691456, -0.0011782926, 0.0008814532, 0.0006542379, 0.0012045896, -0.0010846695, 0.0009849065, -0.0006695475, -0.0008538616, -0.0016269897, -1.5631755e-05, -0.00045312353, -0.00017425936, 0.0007705763, 0.00039352255, -0.0009571197, -0.0007618981, -0.00089110824, 0.0012910014, -0.0017385402, 0.000634122, 0.000480169, -0.0013335198, -0.0013158901, 0.00047420876, -0.0019361181, -0.0006729436, 0.0013953727, 0.0005296651, 0.0013502083, 0.0007969403, 0.00090264715, -0.0013172497, 0.00063352665, -0.0022437796, -0.0014111305, 0.000274421, -0.0008903266, 0.0006006049, -0.0014903098, 0.0018331923, 0.0010699201, -0.0008911159, -0.0018987512, -0.0005526199, -0.0019343749, 0.0019464412, 0.00017002794, 0.0011323913, 0.0020713476, 0.0004119324, -0.0021445185, -0.00018881209, -0.0012909697, 0.00080508366, 0.0016224065, -0.00045023128, -0.0001537051, 0.001665203, -0.0012127394, -0.0011596007, -0.0014089176, 0.0023897693, 0.003307017, -0.00054159894, 0.0006785378, 0.0019665498, 0.00076747104, -0.00012840453, -0.00049905706, 0.0016394407, 0.0008889846, 0.0012357875, 0.00065363053, -1.1375465e-05, 0.0009486668, -0.0011170045, 0.0021558846, 0.00046302314, -0.00042955868, -0.0031761206, -0.001794446, 0.00038655044, 0.0014486406, 0.0020262962, -0.0061803493, -0.00012564531, 0.00048858364, 0.0001811976, -8.66536e-05, -0.0006597745, -0.002122898, 0.0010722595, 0.0016351041, 0.0004782384, 0.0020231004, -0.0007181639, 0.0017158659, 0.00063853135, -0.0021128242, -0.0014399342, 0.0008256546, -0.0008126387, 0.00083162147, 0.0011715656, -0.000509633, 0.004189091, 0.0008247944, -0.0012326706, -0.001981703, 0.00017986266, 0.0007734415, 0.002637853, -0.00030560026, 5.5987974e-05, -0.0024404277, 0.0001460014, -0.0021497454, 0.00033946327, -0.0009546834, -0.0013437867, 0.00012370427, 0.0019657537, -0.00021563962, -0.00034869506, -0.001735793, 0.0041864747, -0.0011626468, -0.0017821793, 0.0014241738, -0.0011608505, -0.0007250133, -8.80663e-05, -0.00045940105, -0.00033464283, 0.00075930904, 0.0004243921, 0.00024814176, -0.004746203, 0.0003456272, -0.0005478064, 0.0018280647, 0.0022796802, 0.00036728493, -0.001139052, 0.0024926974, -0.0018402718, 0.0006740029, 0.0008010556, -0.0026905772, 0.00026481657, -0.0006695188, -0.0016456246, -0.00095262425, 0.0012043914, -0.0041157724, -0.00024784415, -0.0009605066, 0.003002693, -0.00089577487, 0.0003197688, -9.343901e-05, -0.0012652092, -0.0012479471, -0.0008693327, -8.278282e-05, -0.0004522677, 0.00059727253, 0.0005136779, -0.002225026, 0.0007538358, 0.0007421054, 0.001583747, 0.0009728026, 0.0011182218, -0.0018706943, 0.0011038373, 0.0012838395, -0.00014073035, 0.002996465, 0.001136435, -8.13565e-05, -0.0032713297, -0.00018752948, 0.0010394484, -0.0007349864, -0.00086840795, 0.0039049652, 0.0021416913, 0.0007450165, -0.0011756865, -0.00058997644, -0.0009455726, -0.00013642432, 0.0020253304, 0.0016880572, -0.0007527258, 0.0006577137, 0.0018378468, -0.0005815791, -4.9605864e-05, 0.0014700716, -3.1003583e-05, -0.0017630651, -0.0007196857, 0.0014947827, 0.0012612178, -0.0003686552, -0.0012430702, 0.004249444, -0.0014322824, -0.0006306164, 0.0010733234, -0.00139269, 0.0012877369, -0.0006464881, 0.00072985387, -0.0010994652, 0.00064579217, -0.002844402, 0.0007547039, 0.0033796332, 0.0006837323, 3.2654032e-05, 0.00049021165, 3.7840568e-05, -0.0003099622, -0.0005597614, -0.00015524167, 0.0007154642, 0.0009267741, 0.0002172406, 0.0014037914, 0.001735494, 0.0007535922, 0.00014578586, -9.026716e-05, 0.00215048, 0.0016488539, -0.0021593014, 0.0002028998, 0.00050875556, 0.0010857431, 0.0011418909, 0.0006004601, -0.0019462357, 0.002728322, -0.0014899252, -0.00018922018, -0.000120418204, 0.0007316309, 0.00089889154, -0.00058371905, 0.0005427416, -0.0007456785, 0.0016325107, 0.0031133532, -0.0012936323, 0.00047427253, -0.0008790037, -0.001386649, 0.0010310457, 0.0020065813, 0.0008863529, -0.0028506008, -0.00058153813, 0.0014206055, 0.00015298286, -7.647282e-05, -0.0006690758, -0.0005095833, 0.001944221, 0.0008747526, -0.000599509, 0.0033831059, 0.0020855975, -0.00047321967, -0.00066677685, -0.0003181796, 0.0018527973, -0.0015454262, 0.00014825171, -0.0006153778, -0.0005451003, -0.0004698838, 0.0012937598, 0.0010679073, 0.0016301762, -0.0006273963, -0.004658792, -0.00065272406, 0.002459423, -0.00073640374, -0.00019518897, -0.0017693965, -0.00046434824, -0.0015723825, 0.00013950502, 0.00074495573, -0.0010810164, 0.0011949225, 0.0024738084, 0.0019247012, 0.0031435564, 0.0024406055, -0.004279023, -0.0013268592, 0.002114647, -0.0006812162, 0.0013062758, -0.0017250224, -0.0013330738, 0.00018214883, 0.0037431396, -0.00072863203, -0.0013132745, 0.0011167094, -0.0017251335, 0.0021348877, -0.0027537355, 0.00028632517, 0.0015256777, 0.0005411463, -0.00022772118, 0.0005347064, -0.0011101591, -0.001090215, 8.080236e-05, -0.00087814464, 0.0024629645, -0.0012118829, 0.00068797095, 0.0016189369, 0.0013667899, -0.00016095972, 0.0015399512, -0.00039084512, -0.0003959916, -0.0009426472, 0.00053715176, -0.00054691546, 0.0014422212, -0.0012695142, 0.00037433277, 0.0013632108, -0.00030336156, -0.0010166018, 0.0005199134, 0.0010813805, -0.00089100533, -0.00041797024, 0.0007088926, 0.001624729, 0.0015192097, 0.0028651375, 0.0012503574, 7.669127e-05, 0.00014809612, 0.00070794515, 0.0015289811, -0.0008878338, 0.0011337076, 0.0010302871, -0.00090613053, 0.00020888832, -0.0008692868, -0.00047907178, 3.2332027e-06, 0.00021795917, 0.0003057178, -0.0011365059, 0.0005890584, -0.0017911955, 0.00090589613, -0.0020371336, 0.0005577235, 0.0012435828, -0.0005872607, 0.001134771, -0.0023771047, -0.0032974714, -0.0015259149, -0.0011011078, -0.00048338436, -0.0001622067, 0.00046182086, 0.00044909015, 0.0018103003, -0.0018688302, 0.0006309686, -0.0007429003, 0.0013976299, -0.0006696334, 0.0028381434, 0.00052988884, 0.0026123477, 0.0017632109, 0.0012419473, 0.00068831333, -0.0008774036, 0.00058863254, -0.0007343304, -0.00046887228, -0.0013042875, -0.0012284366, -0.0015701399, 0.0014455193, 0.00059727265, -0.00047993194, 0.0012226067, -0.0025367546, -0.001393965, 0.000745352, -0.000303393, -0.00027223537, 0.0016294459, 0.00068540015, 0.00064537657, 0.000109503104, 0.00034262938, -0.0019403849, 0.0019127254, 0.00068727275, -0.0009053174, 0.003093535, -0.00036919396, 0.0004358285, 0.0009841543, -0.0012370106, 0.0013972236, -0.00022557518, 0.00083389366, 0.0024974365, -0.00045085247, 0.0019769939, 0.0021738785, 0.0007703086, -0.0024778913, 0.0025538132, -0.0014448152, -0.0015046869, -0.00059972977, 0.00021905272, -0.00021260395, 0.0005202134, 0.00084743503, -0.00044583448, -0.0008092697, 0.00050305465, 0.0007687937, -0.0012996899, -0.00023515022, 0.00010186725, 0.0011329552, 0.003717135, 0.00038962846, 0.0013639512, 0.0017164769, 0.0004755091, 0.0009789006, 0.00034793626, 0.00015451678, 0.0005968031, 0.0011346404, 0.0005930737, -0.0041881055, 0.00058032735, -0.0006951294, 0.00068292225, -0.0012990033, 0.0019291723, 0.0001307007, 0.00049454585, 0.0001515972, 0.0009111302, 0.00011494721, -0.000627856, -4.380774e-05, -0.0032784338, -0.0013818296, -0.0009373748, 0.0009316493, -0.001194904, -0.0008711262, -0.0003525705, -0.0008147315, 0.0013995025, -0.0016835757, -0.0005138981, 0.0018932624, 1.9981526e-05, -0.0011681691, -2.034023e-05, 0.0005985101, -0.0002780758, 0.0010203011, -4.191314e-05, -0.00037900594, -0.0012243304, 1.748174e-05, -0.0010367141, -9.739371e-06, 0.0009820728, 0.0006465579, 0.0024599654, -0.0011151957, -0.0006067211, 0.00046090444, -0.001059419, -0.0005253707, 0.0016964308, 0.0010927316, -0.00065964396, 0.0028153877, -0.0026913155, -0.0006270631, 0.00039341603, 0.0012620384, -0.0017152044, -1.3278048e-05, 0.002770749, -0.00082561397, -0.00020899624, 0.00080505013, 0.0011938649, -0.0006378887, 0.00052271876, 0.0012330372, -0.006046748, 0.0029472155, 0.00017378223, -0.0011381209, 0.00052793126, 0.0005264833, -0.0015966826, 0.0003153656, 0.00013407937, -0.0011808136, 0.0022211876, 6.006242e-05, 0.0016487655, -0.00049021735, 0.0040153833, 0.0017134392, -0.0017312213, -0.0011290369, -0.00038464082, 0.0012005956, -0.0010685402, -0.0004397728, 3.0355295e-08, -0.000625493, 0.0009354406, 7.7795135e-05, -0.0038505308, 0.0009900411, -0.0019854265, -0.002408797, 0.0012989145, -0.0015110156, 0.0014107425, 0.00046488614, 0.0005989116, -0.00076606136, -0.0015018864, 0.0014518248, 0.00026063004, 0.003644742, 0.00016594716, -0.001908327, 0.0021900495, 0.0011339935, 9.062997e-05, 0.0001258917, -0.0017765841, -0.00094559096, 0.0006647226, -0.00082950067, 0.0014326522, -1.1285127e-05, -0.0012285197, 0.0001236634, 0.0008752599, -0.0006047337, 0.00047340157, 0.0006799437, -0.0024033017, 0.00040200842, -0.0005808498, 0.0008432608, -0.00082685304, -0.0019399675, -0.00070678245, -0.0015154523, -0.0017620671, -0.0004939295, -0.0007960135, 0.00088351563, 0.0003112384, -0.0032928223, 0.002011328, 0.00017469731, 0.0021551424, 5.4308213e-05, 0.0027640313, -5.4877484e-05, 0.0008787838, -7.0604437e-06, -0.0014379725, 0.0022690697, 0.0011896233, -0.00022997882, -0.00063202804, 0.000101290876, 0.003147365, 0.0007493893, -0.0008029054, -0.0011566714, 0.0002436738, 0.0004355067, 0.0011539159, 0.0002600019, 0.0015853137, 0.002195559, -0.00085224834, -0.0006622248, -0.00016162341, -0.001130237, -0.0011913956, -0.0004977988, 0.0019774605, -0.0006619741, -0.0021179668, 0.0005850906, -0.0015181025, 0.0020267074, 0.0015292512, 0.00077395653, 0.00033946283, -0.0013494978, 0.0012489412, 0.0038649836, -0.0006757548, 0.00040216977, -0.0015842528, 0.00042067218, -0.00037029944, -0.0026905222, 0.0018897974, 0.0003083212, -0.001047365, 0.00087078894, -5.1676296e-05, 0.0016584215, -0.0018962463, 0.0012251792, -0.00043970288, -0.0004987312, 0.00068567984, -0.0017156552, 0.0010558539, 0.0003363485, 0.00033271092, -0.0021705315, -0.0030681533, -0.0016609923, 0.00012878637, -0.0010307073, 0.0010133677, 0.00051908393, -0.0007765462, 0.0014117288, -0.00040188822, -0.0028553098, -0.00068848266, 0.00084823463, -0.0026165142, 0.0008647443, 0.0017948778, 0.0008869732, -0.00070008857, -0.0005130138, -0.0016410495, 0.000104621664, -2.7744129e-05, -0.0015622487, 8.435815e-05, 0.0027153736, 2.7052047e-06, -0.00042408897, 0.0017732275, 0.0016187577, -0.0003836551, -0.00021433434, -0.0022384317, -0.0015688153, 0.0009549954, -0.00035169732, -0.0017880221, -0.0036547063, -0.0016268, -0.00065772224, 0.00077219517, -0.00018299896, 0.0017006077, -0.00010183634, 0.0012502035, 0.00071594183, 0.0013937812, -0.0009809157, -3.0150055e-05, 0.0005272017, -0.00035578758, -0.00043222203, 0.00072843477, -0.0008890182, -0.0015526969, 0.0017545519, 0.00247578, 0.0018145163, 0.0002098261, -0.0011861837, 0.0024743564, -0.00016758102, -9.899086e-06, 0.0029068596, 0.003070825, 0.0005323052, -0.0006592354, -0.0010336683, -0.00076420326, -0.00040875463, 0.0021599, -0.0005421301, -0.0020314325, 0.0012205862, -0.0019638655, -0.0012504994, -0.0031088656, -0.00030963792, -0.0013660246, -0.0012838009, 0.00044277226, -5.1324605e-05, 0.0003326923, -7.6952914e-05, 0.0005291024, 6.308648e-05, 0.001064151, 0.0017529954, 0.0021638349, 0.0019065193, -0.0018544794, -0.0009144677, 0.0020045284, -0.0034617344, -0.0018018816, -0.001043591, -0.0004123948, -0.00018591562, -2.9670307e-05, 0.00073826977, -9.536056e-05, -0.0018201756, 0.0005930731, -0.0021691334, -0.00034338294, -0.0024218746, 0.00036842178, -0.0003240984, 0.0011722106, -0.00059051596, -0.0014842311, 0.0024691005, 0.00019331492, -0.001306863, -0.0018860028, -0.0038023093, -0.001959246, -0.0007429868, -0.0007405034, 0.0014007671, 0.00022792863, -0.00046198047, 0.0012972766, -0.0011536713, -0.0015112804, 0.0008440931, -0.00045540952, -0.0015295692, 0.00056919444, 0.0008734154, 0.00046066695, -0.00022434167, 0.0006743173, -0.0006127635, 0.0019514783, 0.0011103612, -0.0017134629, 0.00041382498, -0.0011731494, -0.0012295162, -0.00028208309, -0.00029706408, -0.0004382016, 0.0010735169, -0.0022778003, -0.00078090746, -0.00020311389, -0.0006532261, -0.0024196384, -0.001912295, -0.0021181707, 0.00074458047, 0.0008480605, 0.0007414514, 0.0008286945, 0.0009065767, -0.00030714693, -0.00087699876, -0.00027468652, 0.0015005809, -0.00078693696, 0.0005605342, -0.0014908463, 0.002443318, -0.00055602373, -0.0009422004, -0.0002436135, 0.00022469103, -7.226711e-05, 0.000558683, 0.003166076, -0.0018161202, -0.00033921743, 0.00095358316, 0.00073133694, -0.0006478889, -0.0010815342, -0.0005295695, -0.0017098845, -0.0024014951, -0.0011796376, -0.0011687253, -7.882016e-05, 0.0010838973, 0.0015536927, -0.00012723067, -0.00037020806, 0.0006549974, -0.00058048544, 0.0007920741, -0.0016452455, -0.00096763077, -0.0018896798, -0.0013020125, -2.1862099e-05, -0.0006472103, -0.0006263279, -0.003744719, -0.00047561259, -0.0024720416, 0.0005996434, 0.0005792631, -0.00073701557, -0.00042760826, -0.0012721096, -0.0010143108, 0.00034102544, 0.0013858132, -0.0005610259, -0.0025881818, 0.0008936992, -0.002283732, 0.00018532202, 0.0002075682, 0.0011042133, -0.0014334377, 0.0020351172, 0.0020825434, 0.0010090454, 0.0025249189, -0.0027320352, -0.0035907933, -2.673475e-05, 3.9094477e-05, 0.00057899393, -0.0015816547, 0.0016311225, 0.0020911722, -0.0014397937, 0.001596076, -0.0015822412, -0.003915095, -0.002900169, 0.0019393064, -0.00038041617, -0.0011974752, 0.00044838162, 0.00040483527, 0.0012382297, 0.0015914647, 0.00033154653, 0.00024528673, 0.0011888808, -8.0325524e-05, 0.0006089512, 0.0004592389, -0.00027635187, -0.0041611325, -6.0603372e-05, -0.0023816917, 0.0022669777, -0.0007657404, 5.173727e-05, -0.0010612819, -0.0007780326, 0.0045951344, -0.0017846206, 0.006533092, 0.002849999, 0.0006935164, 0.00096248114, -0.0015326537, -0.00041665108, 0.0005659494, 0.00013534725, -0.00092990533, 0.0018822032, -0.0004993688, 0.002516904, 0.00089076173, 0.00089417613, 0.0007317449, -0.0019092385, 0.00062976504, -0.00014803765, 3.9978768e-05, 0.0015148813, 0.00096636126, 0.002367556, -0.0017913136, 0.0006317368, -0.0022433354, 0.0023285502, -0.0011722682, -0.0016595655, 0.0003347161, -0.00011783093, -0.0007873933, 0.0008128637, -0.0029702159, 0.002017112, 0.0006063699, 0.00023207178, -0.0021952072, -0.0011746995, -0.00049601693, -0.0006518231, 0.002342662, -0.002185331, -0.00041391328, 0.001511244, 0.0005996613, 0.00084345945, -0.001030359, -0.0012799362, 0.0005412529, 0.0004954735, 0.0020120398, -0.0012316434, -0.000827665, 0.0018046806, 0.0026222486, 0.00067706185, -0.0005521788, -0.00089086656, 0.004551023, 0.0012838352, 0.001058765, -0.00040120407, 0.0005808074, -0.2464479, -0.0019919986, -0.6237186, 0.0005344772, 0.0016453189, -0.00055648026, 0.000464036, -0.8470834, 0.00055265235, 0.00088012236, 0.00068287586, -0.00060903793, -0.0019985754, 0.0004946997, -0.0014433707, -0.0012322662, 0.0007753961, -0.0009555093, -0.0023611235, -0.00018589891, -6.5288565e-05, -0.0012288915, 0.0025033418, 0.0018380256, -0.001294012, -0.0010997676, -0.0024099508, -0.0027706511, 0.0013300949, -0.23664923, -0.00087390014, -0.002150116, -0.0021677492, -0.0005440069, -3.7413556e-05, 0.00043090945, -0.0017141083, -0.0023404597, 0.0033327015, 0.00045350497, 0.0078620715, -0.9797277, 7.738051e-05, -0.004275731, -0.0013069632, 0.00080806034, -0.0013661187, -0.0028398249, 0.0013422554, -0.0019668443, 0.0040250793, 0.00037986762, -0.00025336584, 0.001134211, 0.0025118005, -0.00013020245, 0.00064887863, -0.0005116669, 0.001349068, -0.0022540935, -0.0030906522, 0.0007535211, 0.00017561391, 0.0016711548, 0.0006988647, -0.0009319026, -0.0023286212, -0.0008376463, -0.00054291496, -0.0031149462, 0.004890973, 0.00075632177, 0.00051643373, -0.0005958685, 0.00023159914, -0.0013422668, 0.00030198751, -4.874711e-05, -0.00018371653, 0.00054545153, -0.00016643098, -0.00045851356, -0.002742324, 0.00040320365, -0.0011343834, 0.00037770433, -0.0014553529, 0.00012133719, -0.00013587286, 0.00067786215, -0.0010985429, 0.00073396973, -0.0004730106, -0.0012747184, -0.00058949256, -0.0005331161, 0.0005132946, -0.0046226317, 0.0005925341, 0.0016041019, 0.00075499655, -0.0020156747, 0.0023154675, -0.001912901, -0.00047764543, 0.00024372782, -0.00071065506, -0.0017811414, 0.0012317181, -0.00043535838, -0.0008834974, 0.0016053236, 0.0025550025, -0.0012989478, -0.003150303, 5.435897e-05, 0.0013086924, -0.00042965886, -5.1484094e-06, -0.00054390694, 0.000549781, 7.220822e-05, 0.0007317498, -0.00012693898, -0.0006541153, -0.00074235455, 8.454244e-05, 0.0010342437, 0.001606138, 0.001887475, -0.00054039515, -0.0020826198, 0.0013603745, 0.00379994, 0.0012883719, -0.00053246866, 0.0006772326, 0.0012368965, 0.00042590444, -4.0557643e-05, 0.00087607437, 0.0011079686, 0.00076551887, 0.0006733732, -0.0008756626, -0.00022177957, 0.0020093408, 0.0008783505, -0.00066967297, -0.0024715234, -8.955633e-05, -0.0011556792, -0.0008808483, -0.00050371455, -0.0008925446, 0.0016548294, -0.0005627908, -0.00046611286, 0.00051200733, -0.00088297547, -0.00026672613, -0.001037617, 0.0007111097, -0.0014924926, 0.0023564529, -5.630136e-06, 0.0017131951, -0.0013343818, 9.3157985e-05, 0.0016251875, 0.00058757624, 0.0014825305, 0.0013254592, -0.0009127568, 0.0019181037, 0.0008724387, 0.0013147676, -0.0011617393, -0.0020946655, -0.0018278324, 0.00042508787, -0.0019837609, 0.0011568696, 5.758513e-05, -0.00050924474, 0.0019997675, -0.0011284708, -0.003234184, 0.0002708023, 0.00091540045, -0.0008587056, 0.0012967589, -0.0033940459, 0.00028504198, 0.0024011456, 0.00025045546, 0.0021602, 0.0013447348, -0.00073240674, -0.00024319382, -0.000590088, -0.0012478633, -0.0006613291, -0.0011546739, -0.0032995353, 0.00067292096, -0.00048496644, 0.0008624673, -0.0014766396, 0.0011366325, 0.0017747881, 0.0012905097, -0.0014222345, -0.0015468084, 0.0018081958, 0.0007866677, -0.00086077215, 0.00061879505, 0.0019607914, 0.00013471284, 0.0013107862, 0.00062915444, 0.000497053, -0.0011078359, -0.0012696767, 0.001429715, -0.0026918256, 0.00029383763, -0.00013997732, -0.0010703849, 0.00056424004, -0.00026482024, 0.00019697903, 0.00018434116, 0.00084084296, 0.0005178412, -0.0015402271, -0.0009191309, -0.0017070923, 0.0027683633, -0.0007786943, -0.0014284228, -0.0005788724, -0.0014704524, -0.0011360248, 0.00035086382, 0.0009056052, -0.00058173516, -0.00014595443, -0.0006871323, 6.227911e-05, -0.0012872091, 0.0042154244, -0.001001831, 0.001539702, 0.0010894987, -0.0010264469, 0.00040975853, 0.001225003, 0.00051689305, 0.0014442278, -0.0017445288, 0.00021594163, 0.00020256883, -0.001360011, 0.00083778007, -0.0011046199, 0.0008436833, -0.0009090217, -0.0010958381, 0.0012411913, 0.0015175769, 0.00239549, 0.00045060914, 0.0025092005, 6.967665e-05, -0.0013408097, -0.00012211336, 9.526301e-05, -0.0016537018, 0.0035868485, -0.0011596822, -0.00066960475, 0.00046532066, 0.0007349155, 0.00088969455, 7.356756e-05, 0.0042050555, 0.0011805517, -0.0020539158, 0.0013580997, 0.0002729384, -0.0010996689, 0.0011087821, 0.0019745259, 0.00084924174, -0.0014965613, 0.0020255449, -0.001211734, -0.0020419927, 0.0014378324, -0.00065949623, 0.00048801873, -0.0008164106, -0.0019292329, 0.0012927897, -0.00054203876, 0.00028089015, 0.0007510758, 0.0021444387, -0.00048314602, -0.0023216614, -0.001476931, -0.00022315537, 0.00013526721, -8.2378465e-05, 0.00022943155, 0.00025063253, -0.0007042223, 0.00025828765, -1.2031771e-05, -0.0001418897, 0.00046472187, 0.006193539, 0.0005570351, -0.00063213997, 0.0018456783, -8.8670815e-05, 0.00090287224, -0.00046530797, 0.0011161696, -0.0005552273, 0.0033371383, 0.0029410215, -0.00018831511, -0.0013569561, 0.00021218602, -0.0024282984, -0.0033785081, 0.00171625, 0.0004346018, -0.0013902364, -0.0013201488, 0.0014032689, -0.00067232846, -0.004466197, -0.0037405384, -0.00020848983, 0.0013338556, 0.00045666902, 0.0005709721, -0.0006779441, 0.0002954272, 0.0018955746, -0.0011764766, -0.00022254, -0.0007165637, -0.0025502471, 0.0001847368, -0.0013729612, 0.00024849075, 0.00029849523, -0.00042490952, -0.0017047026, -0.0004410611, -0.00020809693, -0.0012865108, 0.00014496682, 0.0010229445, -0.00029666995, 0.0009896654, 0.00018025299, -0.0013872469, -0.0019318732, 0.0010800461, 0.0010803514, -0.0014380603, -0.0013983485, -0.0013698704, 0.0007974441, 0.0025529661, -0.0012983356, -0.00019827331, 0.0007722367, -0.00068152323, 1.3449819e-05, -7.224374e-05, 0.0024631834, 0.0005458689, 0.001558862, 0.0012278503, 0.000804135, 0.00062135526, -0.0007942334, 0.00063091697, 0.0010729682, 0.0013302577, -0.0002102917, 0.00077976385, 0.000710377, -9.6986536e-05, 0.0012881495, 0.00020753953, 0.0006422966, 0.000788263, 0.0012324124, 0.00052221096, -0.002979499, 0.001506579, 0.0006407449, -0.0006839533, -0.00089444057, -5.751122e-05, -0.001241341, 0.00077675097, 0.0012728481, 0.0004573843, 0.0006365476, -0.0008387838, -0.0014074931, 0.0006508093, -0.003274389, 0.0010049967, 3.7005288e-05, -0.00055203866, 0.0016029864, 0.0021140168, 0.00010605063, 0.0007404174, -0.0011730061, 0.00037822826, -0.002353713, -0.0009747635, -0.002572461, 0.0023700686, 0.0004028252, -0.0028090975, -0.0019158055, -0.0017449188, -0.0010252529, 0.00091041345, -0.00072109746, -0.0013543563, -0.0017046933, 4.018133e-06, 0.00022164785, 0.0012246999, 0.0020446326, 0.0015970094, -0.0006303611, -0.0010653611, 0.0007182281, 0.0025063276, 0.0009539947, -0.0016180398, 0.0021432526, -0.0007578257, -0.0008814546, -0.00090306887, -0.0015687392, -0.00011765637, -0.0024624732, -0.0007263816, 0.000642717, 0.0011235566, 0.0005003025, -0.0021710065, 0.0006500363, 0.003439223, 0.00047292374, 0.0024342837, -0.0011302443, 0.00043091108, -9.673048e-05, 0.0005182853, 0.0005042457, 0.0013821509, 0.0010094226, 0.0017960956, 0.0019872787, 0.003111388, -0.0018049056, -0.0025011103, -0.0012024655, 0.000262073, 0.002519431, -0.0002202476, -0.0004938997, 0.0011823138, 0.0012841956, 0.0014441113, -0.002584423, -0.0026629744, 0.0011296641, -0.00075790926, -0.00088240876, 0.00073655613, 0.00012341706, -0.001043228, -0.001385502, 0.00058784033, 0.0023005786, -0.00090177567, 0.00044255788, 0.0013792457, -0.00086674007, 0.0003862268, 0.0018460122, 0.00097275176, 0.0012950599, 0.00021236134, 0.0014207307, -0.001807252, 0.004271731, 0.0007757676, 0.0027819427, -0.0006447009, 0.001150839, -0.0010967641, 8.239027e-05, -0.0012573358, -0.00085826457, 0.00058111316, -0.0002526755, 0.0041639693, 0.0010376129, 0.0012706945, 0.00081237906, 0.0021204557, 0.0013030155, 0.0008126951, -0.0002406654, 0.0019434242, -0.00015572272, -7.664703e-05, 0.00023980136, 7.5906282e-06, -0.0012986971, -0.00042065204, -0.0031097038, 0.0013237582, 0.0011490615, 0.002616569, -0.002158875, 5.6031655e-05, 0.0019482943, 0.0013018282, 0.0013009716, 0.0008550137, -0.0016380791, -0.0021655925, 0.0041734707, 0.003110061, -0.0014886376, -0.002462645, 0.00089025934, 0.00086950854, -0.00044626417, -0.0011314949, -0.0022507622, -0.0007859727, 0.00058713555, 0.001812822, 0.00017213565, -0.0024168133, 0.0016266953, 0.0020991152, -0.0013139853, 0.0006903198, -0.0018140568, -0.0005423459, -0.0007106004, 0.00087850075, 0.003297587, -0.0012973102, 0.00089994224, -0.0006620746, 0.0023099447, 0.0005946838, 0.0004957726, -0.0010691746, -0.0024710181, -0.0006569213, 0.0012970986, -0.0006032057, 0.0004099333, -0.0010354536, 0.0010790189, -0.00027234005, 0.0011969706, 0.0015685079, 0.004174563, -0.0027501297, 0.00058674417, 0.0008139534, 0.0003662585, 0.0012993846, 0.0009670275, -0.0004301138, 0.002470926, -0.00067244464, 0.0006582033, 0.00076067855, -0.0019426778, -0.00084721897, 0.00036312814, 0.0013180391, 0.0013027351, -7.6544486e-05, 0.0006443309, -0.0004200611, 0.0036042328, -0.002463235, -0.0012290475, -0.0008406105, 0.0014004982, 0.0011199319, 0.0012415084, 0.000866394, 0.0006506719, -0.00058467104, -0.0015705352, 5.280727e-05, -0.0022532244, -0.00033151032, 0.0010462482, -0.00052736315, 0.0015777288, -0.00061538874, 0.0013157129, -0.001808779, -0.0012448784, -0.0017720424, 0.00043960323, -0.0007551025, 0.00075787224, -0.0021550725, -0.0026546807, 0.0006190842, -0.0020145404, -0.00089410105, -0.0012755349, 0.0017845883, 0.0006418228, 0.0005421911, 0.0013054569, -0.001845898, 0.0012394257, 3.7310412e-05, -0.0016787963, -0.0022009993, 0.00038563917, -0.0011640443, 0.0015081842, 0.0009005527, -0.0017704114, 0.00039442838, -0.003973061, -0.00061517686, -0.00052881177, -0.0006456883, 0.0011797717, -0.0008051852, 0.0014443167, 0.0006625241, -0.00036609918, -0.0005804188, 0.0035920397, -0.0020128905, 0.0001804473, 0.001117452, -0.0008862367, 0.001369782, -0.0019850028, 0.00057035, 0.0005614966, 0.0013768324, -0.00055286905, -0.00026732287, -0.0016764307, -0.0009032317, 0.0024743136, -0.0024074824, -0.00089975225, 0.0013114848, 0.00042182882, 0.002392401, -0.0003853051, 0.0015502276, -0.0025779936, 0.0019905302, 0.002839688, 0.00053752493, -0.00414706, -1.8257554, -0.0013365187, 0.00024646416, -0.00033767696, 0.00036784424, -0.00049209787, 0.00030422444, -0.00060222734, -0.00035446938, -0.00075327617, 0.001148893, 0.000762663, 0.0006369673, 0.0023850093, 0.0008838788, 0.0007110066, -0.0009567295, -0.0012850843, 0.00018279231, 0.0005981611, -0.0001909922, 0.028083572, -8.3910185e-05, -0.0036562947, -0.00047623762, 0.0012271309, 0.41186512, -0.00066704163, -0.31183895, 0.0011329438, 0.0031029722, 0.00019775104, -0.0010737528, -0.014855792, 0.0011493404, -0.0011544456, 0.0032645017, 0.0016810828, 0.0007502297, -0.00028633978, 0.00030345097, 5.674499e-05, -6.3097104e-06, -0.00059792335, 0.001581666, 0.24254055, -0.00085847103, -0.0025369567, -1.3031499, -0.21900295, -0.0011628822, -0.0010633369, -0.0008479531, 0.00033461046, 0.001813173, 0.00027629692, 0.0016692539, 2.7310918e-05, 0.0007388885, -2.0125357e-05, -0.002211124, -0.0006754047, 0.0006807759, -0.0036186231, 0.00093533285, -0.0013251964, 0.0027622022, 0.09235243, 0.0028024497, -0.0002500997, -0.0004957372, -0.0014270308, 0.0018270457, -0.18772392, 7.487269e-05, -0.0002899103, -0.0014279075, 0.0014315308, 0.00026746676, 0.0017777923, 0.0011326433, 0.0008620611, 0.0007553486, -5.5551587e-05, 0.00043299195, -0.0023833655, 0.0008038948, -0.0005919516, 0.0015095288, -0.0010700251, 0.0014171668, -0.0020233402, 0.0031095902, 0.0021553854, 0.00027739635, 0.0012798833, 0.00058282824, 0.00027588458, -0.00022044411, 0.0021650074, -0.0001840776, 0.00073640805, -0.00073776033, -0.0028396244, 0.001001175, -0.00054598786, -0.0008001845, 0.00054122636, 0.00018432742, -0.00048888975, 8.651882e-05, 0.000671586, 0.0010597415, -0.0008974268, 0.0007884223, 0.0006738978, 3.4494908e-05, 0.0037512826, -0.0011648535, -0.00022539595, 0.002712293, -0.00035331317, 0.0019527165, -0.00067206915, 0.00017798564, 0.00037200027, -0.0010496089, 0.0006234986, -0.00089448225, 0.0018149881, -0.00085705187, 0.006025859, 0.0005635228, 0.0002666776, 0.00030361605, -0.00041108302, 0.0014978749, -0.0018095482, -0.00020111795, -0.0008929653, -0.0005005366, 0.00031066034, 0.00056719943, -0.0006621362, -0.0005513951, 0.0006402181, -0.0012359298, 0.00075902743, -0.0007362199, -0.0023728595, 0.00088538136, -0.0010971207, 0.0003551509, -0.0008057366, 0.0022527329, 6.369219e-05, -0.0002578136, -0.0032641161, -0.0005644199, -0.0031826003, -0.00069184013, 0.0012981817, 0.00089835346, -0.001902566, 0.0002591205, -0.0016280434, -0.00044133415, 0.0005226978, -0.0038662106, 0.0009630789, 0.0009776731, -0.00091716455, -0.0003339349, -0.0018033447, -0.0004728968, -0.0015208127, -0.00081529433, -0.0003666099, -0.0021289394, -0.0007042018, -0.00028363886, 0.0011427251, -7.294357e-05, 0.0011926845, -0.00055603695, -0.0012885996, -0.00085254427, 0.00080059306, -0.0012860897, 0.0012392533, 0.00050706347, 7.7418284e-05, 9.5536816e-05, 0.00010588055, 0.0024719653, 0.0017204646, 0.00024559558, -0.0040067676, -0.00116249, 0.00038357612, -0.0006800849, -0.00022193702, -0.00041456788, -0.000438025, 0.0024066241, 0.0012821476, 0.0013785618, 0.0015347144, -0.0009170881, 0.0011162185, -0.000659835, -0.00010573732, -0.0007342902, -0.00023344185, 0.001359629, -0.0013123451, 0.0028317966, -0.0014859512, 0.0007113281, 0.0012848945, 0.0027441042, -0.001666556, -0.000617366, -0.0006992139, 0.0010129841, 0.0007400048, 0.0011329529, 0.0026010913, 0.0005408783, 0.00022500497, 0.0011287174, -0.0016010052, -0.0008642326, -0.0010484227, 0.0017478971, 0.0019225568, 0.001798099, -0.00034060283, 0.00021496898, -0.0023233718, -0.0012362634, -0.0024368616, 0.00049482536, -0.0022135845, 0.002523507, -0.00078318536, -0.0012687831, -0.001287787, -0.0013072067, -0.0028602874, 0.001175626, -0.00093662145, -0.002724233, -0.0012916751, 0.0005679385, 4.3980544e-05, -0.002501681, -0.00070232846, 8.272182e-05, -0.00010948075, -5.6211895e-05, 0.001468396, 0.0010227419, 0.0008580889, -0.0005826751, -0.0026057097, -0.0032567908, -0.0012119652, 1.1445547e-05, 0.0015005143, -0.00045819083, 0.00030485354, 0.00090700306, 0.0012609243, 0.00076299685, 0.00018968055, -0.00033635186, -0.0001234035, 0.0017917065, -0.0009496308, 0.00029308163, -0.0002666315, -0.0009285492, 0.0013489369, 0.0009797384, 0.00035933722, -0.0006323409, 0.00050704624, 0.00014056801, 0.0023082728, 0.00067461416, 0.0005709315, 0.0007481063, 0.00057374535, -0.0011332569, 0.0012924054, -6.572007e-05, -0.0009385707, 0.0004617467, 0.0011206109, 0.001235866, 0.00022124278, -0.0018788651, -0.0025101395, -0.001109225, -0.0013186987, 0.0013444585, -0.0009828627, -0.00049313944, 0.0016235602, 0.0026902668, 0.001391112, 0.001676427, 0.001864721, 0.0032088063, -0.00024245869, 0.0006589334, -0.0026594545, -4.418088e-05, 0.0032312411, 0.0014000612, 0.0009682563, 9.060709e-05, -0.0021856253, -0.001275469, 0.0008427794, 0.00020330225, -0.0010157725, 0.00092875847, -0.0004736894, -0.00060293765, 0.00081792497, -0.0005768228, -0.0008646226, -0.0009498908, 0.00016028646, 0.0022802295, 6.984966e-05, -0.0004440487, 0.00057081424, -0.003333098, -0.0006993613, 0.00056694436, 0.00082573807, 0.002466361, 0.00016485603, -0.00048759143, -0.001536085, -0.002661762, -0.0005110344, -0.0041715484, 0.002115573, 0.0008755871, -0.0004520244, -0.0015135517, -0.0036448715, 0.00077794265, -0.00069420395, -0.002209083, -0.00013978704, -0.0009829283, 0.0020234901, -0.0010420723, 0.0016984174, -0.0005809975, -0.001079335, 0.0012628061, 0.0021094135, -0.002602776, -0.0024244178, -0.00059957826, -0.0031753127, -0.00022881117, -0.0013170531, 0.0013431413, -0.001417288, 0.0014909143, 0.0008079411, -0.0035898993, -0.00067475776, -0.0010826784, -0.0039475057, -0.0013053053, 0.00049685535, -0.0031314963, -0.001828341, -0.0017014032, 0.0015159752, 0.00033836963, -0.0026235187, -0.00036711118, -0.00035718805, -4.8113987e-05, 2.419157e-05, 0.0010966575, 0.001690138, -0.000119866105, 0.0012043084, -0.0013850261, -0.0011524637, 0.001098625, -0.0009825146, -0.0004306707, 0.0019999845, -0.0006278815, 9.668234e-06, -0.0002943112, 0.00050980545, 0.0012402125, 0.0006080654, -0.0006641826, -0.00071272545, -0.00251674, -0.00057432137, -0.0023680914, 0.0014742694, -0.0019925206, 1.8626219e-05, -0.000425564, 0.0016895778, 0.0016111662, -0.1841272, -0.00063680427, -0.0013533314, 0.0006878208, 0.0014671244, -0.00065458973, -0.08604002, 0.0002089801, -0.000805925, 0.0017622362, 0.0025541238, 0.0005712741, -1.5108861e-05, -0.0013817393, 0.0021527251, 0.00082059414, 0.0023316694, -0.0016897458, -0.0001590072, -0.0006720227, 1.639314e-05, -0.00042231794, 0.0010377993, 0.000742642, -1.3984012e-05, -0.0016800246, -0.00025880086, 8.384348e-05, 0.0001860998, 0.0008708273, -0.0010478059, -0.00045303314, -0.0012782691, 0.00093640725, 1.7720835e-05, -0.0013534331, -0.0008417123, -0.0010552877, 0.0010213054, -7.703528e-05, -0.0002012534, -0.0006652006, -0.0008209395, -0.0005762509, 0.00064144103, 0.0037804767, -0.000892411, 0.0010745963, 0.0011888285, 0.0026299483, 0.0023815362, -0.00042024767, -0.022277746, 0.0018742912, -0.45995885, -0.0013802892, 0.00020165241, -0.0012364984, -0.0006517434, 0.29916045, -0.00011578633, -0.00040896388, -0.0005647163, -0.0006583454, 0.0010839815, 0.00041459547, 0.00060264335, 0.0017075378, -0.0005520651, -6.0712104e-05, -0.00018755067, -0.0004185849, -0.00022353773, -2.7529139e-05, 0.000844368, 0.0006861792, 0.0007041691, 0.0008287324, -0.0014489291, -0.0013022688, -0.075986326, -0.0010759439, -8.737232e-06, 0.0013211049, 0.0017106968, -0.0002697461, 0.007898134, -0.37649393, 0.0006026651, 0.0023867697, 0.004484975, 0.0017668783, -0.0005987324, 0.0008534528, -0.0005607377, 0.00196371, 0.0012438818, 0.0015721321, 0.002381151, 0.00080537447, -0.00060813595, -0.00040933443, 0.0005341057, 0.0007484178, 0.06804928, 0.0016752443, -0.0003237065, -0.031880833, -0.001112361, -0.002462281, 0.00010756927, -0.00083581806, 0.0010440678, -0.00097373384, -0.00045568775, -0.0017796131, -0.0013366494, 0.001214894, -0.0008904742, -0.00075902493, -0.0013703587, 0.0010694837, -0.0012321774, 0.00036479475, 0.0008285159, -0.8579252, 0.18161206, 0.0004802544, 0.0017376475, 0.002481752, 0.00080251595, -0.001449896, -0.57536066, 0.00011616433, -0.00321797, 0.0010084682, -0.0013868415, 0.0012588295, 0.001454602, -2.1745895e-05, -0.00014616083, -0.0015850601, -0.0006133927, 0.0021902856, 0.0016118399, 0.0024413506, -0.0007120105, -0.00060564314, 0.0018300625, -0.0022006957, -5.4889708e-05, -0.00028454827, -0.0004136967, 0.00043546737, -3.7601974e-05, 0.00012647593, -0.00059316953, -0.0010987876, -0.0013523158, 0.0024992593, 0.00017230309, -0.00027493632, 0.002086075, -0.000118104894, 0.0029126802, -0.0010278851, -0.00060708995, -0.00021838059, 0.0013325886, 0.00053111743, 0.0023066178, 0.0006488459, 0.0015032971, 5.012376e-05, 0.00036285663, -0.0008970525, 0.0016019018, -0.00086274964, -0.0007316199, 0.00036632217, -0.00044689013, -0.0004146112, 0.0009310975, -0.0009408817, -0.0016906396, -0.0013710964, -0.0026810581, -0.0061607566, 5.00101e-05, -0.0017400607, -0.0014319757, 0.001741145, -0.0012178221, 0.0012069361, -0.0008633088, -0.0017896052, 0.0005676472, 0.00025128812, -0.0024877302, 0.002195133, 0.002142998, 0.00050433003, -0.00016399694, 0.0028384405, 0.0013214139, -0.00027930713, 0.002701082, -0.0024908595, 0.0027546324, 0.00053020206, -0.0003232906, -0.0008317396, -0.0013699029, 0.00011218798, -0.0010686086, 0.0007563303, 0.00070466916, -0.0009779936, 0.0011591952, 0.0012554182, -0.0024142894, -0.0011660436, 0.00071074016, 0.0003751719, 0.001139347, -0.0002014924, 0.0012837981, -0.0017821674, 0.0007339794, 4.4903514e-05, 0.0013506933, -0.0012755983, -0.000928963, 0.0012413131, -6.414909e-05, -0.0003415483, -0.00055974955, -0.0004684893, 0.0011427879, 0.000586669, -0.001693588, -0.0012972779, -0.001198939, -0.00060000806, -0.00049133966, -0.00012647366, -6.086717e-05, 0.0007192338, 0.000605224, 0.00016042503, 0.0009476142, 0.0006559241, -0.0033087889, -0.0030856845, -0.00087308645, 0.0013050073, -0.0012425573, -0.0006967406, 0.0021637033, 0.00037870527, -0.0007595542, -0.00026715605, 4.0778017e-05, 5.4860953e-05, -0.0027151029, -8.822291e-05, -0.003130938, 9.00054e-05, 3.8586833e-05, 0.0011366244, -0.0013442507, 0.00022442895, -0.0010588918, -7.823779e-06, -0.00034015044, -0.0014112091, -0.0017041438, 0.001303273, 0.0018063654, 0.002801462, 0.0009986383, 0.0012828526, 0.00026215182, 0.0010064883, -0.004844432, -0.0012992426, 0.00083115505, -0.00076069485, 0.0004425029, -0.0011983602, 0.0016176677, 0.0013169611, 0.0025120524, 0.0014717006, 0.00092098187, 0.0009314674, -0.0013683042, -0.0011539464, 9.253646e-05, -0.001044705, -8.2577e-05, 0.00059318694, -0.0005223673, -0.00021612807, 0.00046563917, -0.004764479, 0.0006503324, 0.0014102377, 0.0006466525, 0.0018399259, -0.0019008808, 0.00049348664, 0.00097521284, 0.00063192425, -0.002176597, 0.001321034, -0.000825978, 0.0012793315, -2.2738823e-06, 0.0004634253, -0.0006902256, 0.0019415495, 2.3653978e-05, 0.0009825485, 0.002621247, -0.000118708296, -0.0007426349, -0.0007188708, 0.0007201503, -0.00075787085, -0.0006962407, 0.002363553, 0.0004230197, 0.0019620147, 0.00059808994, 0.000494884, 0.0016505468, 0.0022159144, 0.00046243824, 0.00077204127, -0.00013532263, 0.00075963594, -0.0014458694, 0.00014323695, -0.0023866505, -0.0017673925, -0.0006026099, 0.0003963447, -0.0015288716, 0.0006564326, -0.002699934, -0.00113051, 0.002309734, 0.0014439204, 0.0011703845, 0.0015471958, 0.0019407835, 0.003535136, 0.0012820435, 0.00076468545, -0.0019391365, 0.00040239585, -0.0015170695, -0.0023029922, 0.0028683678, -0.00064587983, -0.0014430436, -0.00011230545, -0.0008988219, -0.0022619904, -0.0012176663, -0.0012832095, 0.0012199502, -0.00017111248, -0.0031226636, 0.0039276443, -0.0005657434, -0.0012398595, 0.0008590069, 0.0012502905, -2.4665816e-05, -0.00034898, -0.0013868777, 0.00095160026, 0.0019044756, 0.0013192805, -0.001270188, -0.00058844, 0.0008708769, -0.0015100541, -0.0024203777, 0.0013634288, 0.002558236, -0.0015133081, -0.0012846331, -0.0011371812, -0.0019104091, -0.0021098782, -0.00064198574, -0.0005139158, 0.0005791363, -0.00054126664, 0.0031993152, 0.00069107424, 0.0011290684, -0.0017277491, 0.0009690808, -0.0013009171, -0.0014833596, -0.0023933628, 0.0039213104, -0.0005097679, 0.0013979906, -0.0012961664, -0.0013045515, -0.00012582575, -0.0035825977, 0.0016701708, -0.0002901409, 0.0017273744, -0.00084959663, 0.0011313539, -0.00042220013, -0.0041326964, 0.0006526401, -0.004226504, -0.002474151, 0.0015058329, -0.002189089, 0.00033102208, 0.0012583854, 0.00076612696, -0.00095494126, -0.0024144112, 0.00012308118, 0.0016340682, 0.0021750252, 0.0028136317, -0.0008997684, -0.0026433528, -0.0013278414, 0.0027596005, 0.0007856329, -0.0009090719, 0.0015338004, -0.0015981852, -0.0009008179, -0.0008522459, -0.00024402654, -0.0013238295, 0.0018089239, -0.0014340093, -0.0015577025, 0.0019647, -0.0007205168, 0.00076178, 0.0011300371, 0.0019999116, 0.00086503365, 1.7849496e-05, 0.0013881102, 0.00062903226, -0.004249779, -0.0005420232, 0.0018525766, 7.727125e-06, -0.0013415668, 0.0014563787, -6.2932144e-05, -0.0008666506, 2.7567148e-06, 0.0008206802, 0.001092931, -0.0002585239, 0.004024608, 0.00084484054, -0.0042020585, 0.0007178327, -0.0012746584, 0.00023821415, 0.0031579523, -0.0014625494, 0.00020760996, -0.0010600223, -0.0018988592, 7.597561e-05, 0.001172375, -0.00037247478, -0.0010034471, 0.0025862248, -0.0008893703, -0.0014679258, 0.00013886765, -0.00026748457, 0.0016875678, 0.0001306776, -0.0010934118, -0.0025601839, 0.0010307987, 9.872281e-06, 0.0036851512, 0.0005218954, 0.0009970148, 0.0012106932, 0.00013105059, -0.0006715419, 0.0006658343, -0.00033513515, 0.0020471648, -0.00045458076, -0.00016971724, -0.00059806404, -0.00041894277, 0.0025158627, 0.00047550543, -0.0007675013, 0.001250255, 0.0036933096, -0.0012206798, -0.0033939753, 0.0020439888, 0.002867098, 0.0011115244, -0.0016252548, -0.0014288583, -0.0036561713, 0.00063658704, -0.0024837935, 0.0005518552, 0.0014826183, 0.0014847191, -0.002559769, -0.0022584894, -0.0026269963, 0.0014069779, 0.0017052174, 0.00065096986, -0.0004863282, 0.0008183407, 0.0008726256, 0.0012591484, -0.000889125, -0.0019419863, -0.001326743, 0.00032246253, -0.00020949934, -0.0018094374, 0.001362537, -0.00047611177, -8.031796e-05, -5.2254647e-05, -7.464655e-05, 0.0012284906, -0.0013407074, 0.00017461606, -0.0024431788, -0.00030307937, 0.0018348262, 0.0005637136, 0.00027993592, -0.00013359083, -0.0014495382, 0.0009233882, 0.00047348638, 0.00024362351, -0.0011512936, -0.00042909005, -0.0013456703, 0.0012305303, 0.00036888232, 0.0017093539, -0.00080557825, 0.0015447951, -5.5519602e-05, 0.0024755714, 0.0013364139, 0.002102268, -0.00091901986, 0.0011069037, -0.0024957424, -0.00074187585, 0.00024073804, -0.0016401192, 0.00035372993, 0.0021935927, 0.000672019, 3.2518154e-05, 0.00069878995, 0.00012374308, 0.0031127664, -0.0006761295, 0.0012349051, -0.0021842008, -0.0021462394, -0.0032952959, 5.543139e-05, 0.0001410789, -0.0023953845, 8.914864e-05, 0.0012619761, 0.0011948263, -0.0005756688, 0.0008914228, 0.00042049334, 0.0021780923, -0.00017261034, 0.0003031157, 0.0024737045, 0.0024660667, -0.0007246124, 0.00065496017, -0.00013246984, -0.0017303971, 0.0026581043, -0.0012199644, -0.00082132017, -0.0016593605, -0.002560575, -0.00023196315, 0.027487503, -0.00073225, 0.0003565992, 0.00026128325, 0.003318495, 0.0008252792, 0.0018017801, -0.0005712287, -0.00068226614, 0.00059229205, -0.0025345413, -0.00057287025, -0.00051719055, 0.0010078212, 0.0010367978, 0.0017245773, -0.0015392572, 0.00067327166, -0.00032688375, 0.0021682964, 0.00065520796, 0.43954173, -0.00058539, -0.00075882365, 0.0012920877, 0.0006641056, -0.66030574, 0.034986142, 0.23754627, -0.0009704473, -0.00044718443, 0.0016623893, 0.0008895548, -0.04740526, 0.0005375159, -0.0013214628, 0.0026131775, -0.00066715863, 0.0019959817, -0.00062651536, 0.00091967615, 0.00013461092, 0.002707283, 0.000467626, -0.0015178812, 0.0036385641, -0.002620656, 0.00047864395, -0.0055215075, -0.000517659, 0.00072751276, 0.00080350856, -0.00058844447, -0.0013396353, 0.0012907934, 0.58023816, 0.0017804038, -0.0008613851, -0.001502919, -0.00039742328, -0.0011479869, 0.0019266729, 0.00023714814, 0.0011306767, -0.0016131768, 0.000985746, 0.09410694, -0.017372988, 0.0003652851, 0.00066678366, 0.0012627633, -0.00051480875, 0.0008925122, 1.6341117e-05, -0.000281286, -0.002669984, -0.0017650926, 0.00079669454, -0.0022197072, -2.3539367e-05, -0.0016813767, 0.00066866743, -0.0015753641, -0.0016570038, -8.586835e-05, -0.001628879, -8.4322615e-05, -0.0013189558, 0.0044140653, -0.0005317698, 0.002357637, -0.000954799, 0.00047687293, -0.0011965658, 0.0032240439, 0.0006023073, 0.00065205584, 0.00090027286, 0.00023806142, -7.806928e-06, 0.0010685592, 0.000665459, 0.0012118774, 0.0012557077, 0.0026768926, -0.0010312315, -0.0012453352, 0.00050375063, 0.0022936217, 0.0009046758, 0.00022705202, 0.00082806183, -0.0010684542, -0.00025819137, 0.0003869496, 0.0011429229, 0.00022308147, -0.0008825423, -7.644744e-05, -0.0019442613, -0.001944689, -0.0024717217, -0.00066010345, -0.0008388455, 0.0017458918, 0.00056699803, 0.00046031864, -0.0012658958, 0.00054845604, -2.4554116e-05, -8.211692e-05, 0.00025128934, -0.0025044759, 0.00045191986, -0.0034321821, 0.00085740763, 0.00016735011, -0.0012854473, 0.000904158, -0.0006406771, 0.003245661, 0.001620397, 0.0019397297, 0.0011462186, -0.000527477, -0.0011075346, 0.001067944, -0.0009825042, -0.0002424235, -0.0042808717, 0.0017625542, -0.002092779, -0.0013582841, -0.00073566183, 0.0041293353, -0.0031158817, 0.0005627066, -0.00044870516, -0.0009124444, -0.0006763224, -0.00015676382, -0.00011785497, -0.0005997703, 0.0021588763, -0.0013048988, -0.00039360067, -0.0010705462, -0.000812749, 0.00031096867, -0.0013738754, 0.001005098, -6.819749e-05, 0.0011412513, 0.0014324621, -0.0013079088, -0.0012961915, 0.0018083124, 0.0019437055, 0.0010687965, -0.001032106, 0.0013474128, 0.0011402703, 0.0011304744, -0.002833264, -0.0013293236, -0.002463372, -0.0019395455, -0.0016634682, -0.00093142095, 0.00085348357, -0.00030182186, -0.0005011768, 0.0013028494, 0.0014865381, 0.0013010522, 0.0011307016, 0.0013483346, 2.1631131e-05, -6.9573405e-05, -0.00012856565, 0.0010799329, -0.0005917854, 0.00052734517, 0.00056632934, -0.0025329392, -0.002411025, -0.001277617, 0.0012289335, -0.00013790201, 0.0042612515, 0.0005675701, -0.00018617057, 0.0019349825, 0.00052530697, -0.0015309004, -0.0018094891, -0.0003497873, 0.0001238329, 0.00076620106, 0.0010659987, 0.0019291047, 0.0028625675, 0.0014850106, 0.0013280166, -0.00088117115, -3.7853053e-05, -0.00073881925, 0.00067916134, -0.0015524387, 0.0014352468, 0.0009810945, -0.00020514667, 0.001301568, 0.0010155294, -3.111195e-05, -0.0042782165, -0.0031488885, -0.000691392, -0.00067268725, -0.0014815452, -0.0009752916, 0.00046498957, 0.0025841985, -0.0008067054, 0.0032553289, -0.00072993047, 0.0012463061, -0.000887413, 0.00017749623, 0.0005146141, 9.702948e-06, -0.0006839993, -0.00045694655, -0.003299024, -0.000521109, 0.002218639, 4.314829e-05, -0.0012812961, 0.0013362747, 0.0015661117, 0.001130877, 0.004749755, -0.00058946636, 6.386734e-05, -0.0011040317, -8.660118e-05, 0.0022236868, -0.0009470081, -0.0037958666, 0.00026926165, 0.0021984114, -0.002798421, 0.0011822768, -0.00075458165, 0.0031447932, -0.00087733817, 0.0021751842, -0.0014238525, -0.0039858604, 0.003288935, 0.000850941, -0.0009798765, -0.0007862197, -0.0005115614, 0.0008737595, -0.0033042822, 0.0006584703, -0.0025285268, 1.3796314e-05, 0.0012752038, -0.0012694406, -0.0020386288, 0.000112632406, 0.0024875877, -0.0020722274, -0.0014490806, -0.0022398606, 0.0021612344, -0.00021755078, 0.0011532821, 0.002556036, 0.0013494008, 0.00073955965, -0.0012707021, -0.001268281, 0.00078694057, -0.00077715656, 0.00077812636, -0.0021533105, -0.0012928367, -0.0034113997, 0.0016789816, -0.0016163065, -0.0024727755, -0.0012692309, -0.0010178107, -0.0009541056, 0.000963475, 0.0024710256, -0.00079243473, 0.0010233012, 0.0012839187, -0.0017481587, -0.0007304307, -0.0014176597, -0.0007530063, 0.0008896371, -0.0013340269, 0.00070764474, 0.0012896098, -0.00076772145, -0.0015461594, 0.00074787426, -0.0012427997, 0.00064498244, 0.00063610176, -0.00025634738, 0.0031109499, 0.00075678097, -0.0006202845, 0.0004471204, -0.0009020852, -0.0008764476, -0.001700159, -0.0019466536, -8.1975595e-05, 0.0020054604, 0.0008153773, 0.00083830714, 0.0025252542, -7.841841e-05, 0.0027864396, 0.00075422216, -0.0003057781, -0.00071609823, 0.0011319813, 0.0012674464, -0.003219456, -0.00013817387, 0.0009096983, -0.0009220537, 7.785644e-05, -0.0006794197, -0.0005766896, -0.00064463913, 0.00016915431, -0.0014467335, -0.0019201407, -0.00086474745, -0.00013167353, 0.0019695805, 0.0002343829, 0.002414138, 0.0024341398, 0.004223204, -0.00065284, -0.00033182674, 0.00012600265, -0.00094599393, -0.00069377065, -0.0002018768, -0.0034514973, -5.0537754e-05, -0.0064137187, -0.00027508615, 0.0023797273, 0.0013051915, 0.00014833227, -0.00057529117, -0.0021851915, -0.0023871914, -0.000674463, -0.0007391024, 0.00078617607, 0.0015609676, -0.0012852224, -0.0033142013, 0.0005301414, -0.000583271, -0.0015940964, 0.0015051772, -0.0007279087, 0.0009243542, 0.00040439115, 6.9329515e-05, 0.0004238446, 0.0012445783, -0.00051256147, 0.0018596165, -0.0019291848, 6.794749e-05, -0.0001909475, 0.0010612183, -0.0017960967, 0.0011806013, 0.0005796739, -0.0009174732, 0.0010713101, -5.6280405e-06, 0.0025313501, -8.3610765e-05, -0.0012141119, 0.0016196136, -0.0006092704, 0.0011275986, -0.0012673824, 0.00020018127, -0.00065040257, -0.001483507, -0.0027878785, -0.0012793259, 0.0015760452, 0.0010637674, -2.076033e-05, -0.0010961108, 0.0007366723, -0.0006027997, -7.263012e-05, 0.002178442, -0.0012797326, 0.0013599049, 0.0013326537, -0.0014317211, 0.0008777684, -0.000650445, 0.001866811, 0.0005865044, 0.00013510889, 0.0020013927, -0.0006537341, -0.001616072, 0.0016628738, 0.0014289909, -0.001946242, 0.00063323806, -0.00044109573, 0.0006271432, -0.00087807555, 0.0023956916, -0.0014801427, 0.0017414221, -0.00086873415, -0.0015286704, -0.0009453889, 0.0013361732, 0.0011668878, 0.00200677, 0.0012728795, -0.00019689678, 0.0010237343, -1.012336e-05, -0.0013038301, 0.00034053385, -0.0020577952, -0.0013115028, -8.110568e-05, 0.0005250689, 0.0028002174, -0.002391799, 0.003642098, -0.0014378864, 0.00108229, 0.0010183615, 0.0006833832, -4.3641754e-05, 0.006575292, -0.00023983978, 0.00083380804, -0.0011005597, 0.00018267106, 0.00049878063, -0.0020156372, -0.00045661023, 0.0005478407, 0.00040821303, 8.855482e-05, -0.0007081039, -0.0011086966, 0.00027423527, 0.00091654505, 0.0009121732, 0.0003634597, -0.0005764171, -0.00046989345, 0.0020197213, 0.0013349681, 0.0018937953, 0.00269072, -0.0015485159, -0.0006572758, 0.0005915708, -0.00095496257, -0.00069106265, -0.0018203747, -0.00015731485, -0.0014479642, -0.00041638105, 0.00077542814, 0.0037596107, 0.0038097915, 0.00060375093, -0.0013399109, 0.0003586547, -0.0009876797, 0.00031764124, -0.0027240461, -0.0013459064, 0.002810937, -0.0041379007, -0.0003346892, 0.0004952604, 0.0005798476, 0.0015611682, 0.0008985484, 0.00032857864, 0.0012143624, 0.0062697064, -0.0015165339, -0.0005530451, -0.001431939, -0.0010861682, 0.0038243919, -0.0001352402, -0.0026392806, -0.0018061158, -0.00048904144, 0.00075395824, 0.00046470773, 0.0006332054, 0.00081896945, 0.000103237806, 0.0025957935, 0.0019468619, 0.0012353561, -0.001381827, 0.0006070018, 0.0020541968, 0.00055637944, -3.1183125e-05, 0.002621544, 0.0008044816, -0.0007408391, -0.001814786, -0.00097318704, 5.7306723e-05, 0.0007818203, 0.0003062148, 0.00074150844, 0.001268166, 0.0024186913, 0.0008258724, -0.0012558519, -0.0018139608, -0.00286078, -0.0013125609, 0.0010031391, 0.0005162695, 0.00067330035, -0.0020071105, -0.0024139415, -0.0010357097, -0.00087334233, 0.0011728688, -0.002155671, 0.00063553324, 0.00030092127, 0.0005496453, -0.0013269634, 0.000894826, 0.00069356756, -0.00046368025, 0.0036640516, 0.0005680029, 0.0032958928, -0.0013347557, 0.0007416626, -0.0016408267, 0.0011250097, -0.00045959395, -0.0022538374, -0.00044281108, 0.0025892276, 4.6022236e-05, 0.00014244072, 0.00085083087, -0.0006455293, -0.000675888, 0.0013733249, 0.0007333306, 0.0019959346, -0.00056069065, -0.0017895976, -0.0013075165, 0.003715341, 0.0015708989, -0.0013337929, 0.0022707535, -0.00075857446, 0.0010004875, -0.0012456733, -0.0009626063, -0.0006664564, 0.00029574335, -0.0020267107, -0.0017337753, -0.0020748975, 0.0009451688, -0.0014239901, 0.0013298732, -0.0012446127, 2.857142e-05, 0.0011876079, 0.0018934602, -0.0024033976, -0.00071983767, 0.001162105, 0.0039431695, 0.00094974274, -0.0012995874, 0.0018204646, -0.0010321552, -0.00046267628, -0.0013838154, 0.0019452394, 0.0018631779, 0.00078988005, -0.0011342488, 0.00016859378, -0.0005629744, 0.0012950121, -0.0010076665, 0.0042915693, -0.00046370993, 0.00018784503, -0.0012928286, -0.00086763425, 0.0009097523, 0.0006021994, -0.00071035716, 0.0011373166, 0.0012272429, -8.8955625e-05, 0.0013286286, -0.00031742133, -0.0004253827, 0.00010469027, -0.0010679147, 0.0016577222, 0.0008915257, 0.0019230176, 0.0004504451, -0.0006681209, 0.0031194128, 0.0030987542, -0.000636343, 0.0006438748, -0.001219037, 0.0007663726, 0.00029123342, 0.0030828845, 0.00043795563, 0.001035083, 0.00071603653, 0.0014551479, -0.00021441933, 0.0004105972, 2.1015578e-05, -0.0013716047, 0.00094284036, 0.0031634048, -0.0004994861, -0.0017129781, 0.0005335788, 0.0015437047, -0.000485843, -0.0014835887, -0.0032302798, 0.0013117301, -0.0036100028, 0.00066744, 5.6215504e-05, 0.00025048363, -0.002386797, 0.0008071211, 0.0031066295, 0.0006378801, -0.00090299814, 0.00038981854, -0.0026027712, -0.0015569389, -0.0009929307, -0.0021448745, -0.00021895854, 0.0007850549, 0.00022241194, 2.3938483e-06, 0.0012360706, 0.0015384073, 0.0007251302, -0.00043660673, -0.0021832592, -0.00013620878, -0.0008896491, -0.0006457307, -0.00065361196, 0.0017776742, 0.0012388427, -0.0012879341, 0.001008007, 0.0015201531, 0.0018000682, -0.00080086367, -0.0003275947, -0.00022148277, -0.0028193542, -0.0011625949, 0.0017707215, 6.839592e-05, -0.000119654986, 0.0014970421, 0.002016789, -0.0011356546, -0.0006523874, -0.00086417235, -0.0031183716, -0.00059400196, -0.0007604499, 0.0015364323, 0.001345709, -9.005744e-07, -0.0015627224, 0.000882664, 0.0004571312, -0.00054366083, 0.00090140937, -0.0006769112, 0.0013858177, -0.000649529, 0.003308033, 0.0019909537, 0.0015554543, -0.0010666917, -0.00055870647, 0.0004827988, 0.0013042188, 0.00019129395, -0.0017145884, -0.0008701256, -0.00060629146, -0.0007534559, 0.00020651805, -0.003272709, -0.00045910233, 0.0015864976, 5.8757956e-05, -0.0012444507, 0.0009957803, 0.0012856845, -0.0013453815, -0.001957941, 0.0014840971, -0.0003780866, -0.001600515, 0.0012675903, 0.0012886819, -0.00068104116, -0.004184706, -0.0013236455, 0.0014507615, -0.00045941083, 0.00082715665, 0.0008880324, -0.0013225006, -0.00029553962, -0.001193417, -0.0025555356, -0.00048285653, 0.0003828607, 0.0021567857};
float bias_2[] = {-0.02296043, -0.1519862, -0.06402906, -0.15330814, -0.07904298, -0.06908589, -0.116944924, -0.103133135, -0.0069491793, -0.08006801, -0.008947718, -0.16923364, -0.0058036754, -0.043882348, -0.11335861, -0.00487231, -0.14101371, -0.02527398, -0.052970376, -0.0063074427, -0.010093354, -0.015764337, 0.09622241, -0.102972105, -0.071396135, 0.30424464, -0.041677933, 0.11342461, -0.013047009, -0.1299503, -0.051084638, -0.13522106, -0.053904947, -0.014867686, -0.07226111, -0.14012533, -0.04805513, -0.0068656993, -0.16825108, -0.024095513, -0.010731426, -0.025431294, -0.07036213, -0.0044471743, -0.046499684, -0.106026396, -0.0069983536, -0.06849748, 0.21592143, -0.0048859995, -0.033031847, -0.015110713, -0.0030079852, -0.007425493, -0.078457996, -0.073228784, -0.04893647, 0.11321463, -0.12037506, -0.02608105, -0.009635779, -0.0657998, 0.08910408, 0.4297405, -0.032045074, -0.007065716, -0.079954006, -0.0068213525, -0.051397566, -0.13047299, 0.2081001, -0.06277802, -0.031973183, -0.060112447, -0.17395273, -0.0052723745, -0.042908475, -0.07516742, -0.014879879, -0.14308856};
