// CSR Neural Network Parameters
// Weight threshold: 0.0015, Bias threshold: 1e-06
#ifndef MODEL_PARAMETERS_CSR_H
#define MODEL_PARAMETERS_CSR_H

#include <stdint.h>
#ifdef ARDUINO
#include <avr/pgmspace.h>
#define CSR_PROGMEM PROGMEM
#else
#define CSR_PROGMEM
#endif

const float weight_1_values[] CSR_PROGMEM = {
    0.00255173f, -0.00162189f, -1.85507894f, -0.05384949f, 0.80918592f, -0.00249251f, 0.00150365f, 0.00160181f, 
    -0.00258309f, 0.00474057f, 0.00255766f, -0.00417039f, 0.00255915f, 0.00158133f, 0.00180761f, -0.00267107f, 
    -0.00267662f, -0.00175475f, -0.00284959f, -0.00165223f, 0.00197138f, 0.00184786f, -0.00159671f, -0.00311203f, 
    -0.00150910f, 0.75651008f, -0.01419240f, -0.00177510f, -0.00216799f, -0.29182690f, -1.45343459f, -0.03092686f, 
    0.30036256f, -0.00162331f, -1.00170541f, 0.12057461f, -0.02742058f, 1.41664934f, 0.00257495f, -0.00211026f, 
    0.00188379f, -0.85523218f, 0.18164647f, -0.31653845f, -0.00311430f, 0.00249374f, -0.00358755f, -0.00170798f, 
    -0.00310913f, 0.00220110f, -0.00204399f, 0.00333595f, 0.05861679f, 0.82120097f, 0.45532158f, -0.00252092f, 
    -0.36580014f, -1.47829807f, -0.43223050f, 0.29151928f, -0.67642987f, -0.11690989f, -0.00174761f, -0.00190184f, 
    0.00229007f, 0.00153958f, -0.00219275f, 0.57449758f, 0.44860303f, 0.23975268f, -0.00207404f, 0.00157482f, 
    -0.00188554f, -0.00238958f, -0.00328507f, 0.00181067f, -0.00473634f, -0.00260715f, -0.00201069f, -0.00230854f, 
    0.77144015f, -0.18848397f, -1.26898527f, 0.71005040f, 0.00168887f, -0.00151262f, 0.00250866f, 0.00180637f, 
    0.00243044f, -0.00225047f, 0.00193272f, 0.10846856f, 0.16849023f, -1.36549973f, 0.00194673f, -0.00184298f, 
    -0.35557082f, 0.48928037f, -0.85954320f, -0.00172478f, -0.00235481f, -0.00329039f, -0.00311303f
};

const int32_t weight_1_indices[] CSR_PROGMEM = {
    1, 2, 0, 1, 2, 0, 2, 1, 2, 0, 1, 1, 
    1, 2, 0, 2, 0, 2, 2, 0, 2, 1, 2, 1, 
    2, 1, 2, 2, 0, 0, 1, 2, 0, 1, 2, 0, 
    1, 2, 0, 2, 1, 0, 1, 2, 0, 2, 1, 0, 
    2, 1, 2, 2, 0, 1, 2, 1, 0, 1, 2, 0, 
    1, 2, 1, 2, 0, 1, 0, 0, 1, 2, 0, 0, 
    0, 1, 2, 0, 1, 2, 0, 1, 0, 1, 0, 1, 
    2, 1, 2, 2, 1, 0, 1, 0, 1, 2, 0, 2, 
    0, 1, 2, 0, 0, 1, 2
};

const int32_t weight_1_indptr[] CSR_PROGMEM = {
    0, 2, 5, 6, 7, 7, 7, 9, 11, 12, 12, 13, 
    14, 16, 16, 16, 18, 18, 18, 19, 21, 23, 25, 27, 
    28, 28, 29, 29, 32, 35, 38, 38, 38, 40, 41, 44, 
    45, 45, 45, 46, 46, 47, 47, 49, 51, 52, 52, 55, 
    55, 56, 59, 62, 64, 66, 66, 66, 67, 70, 71, 72, 
    72, 73, 75, 78, 79, 79, 80, 80, 82, 84, 85, 87, 
    88, 89, 91, 94, 96, 99, 99, 100, 103
};

const float bias_1_values[] CSR_PROGMEM = {
    -0.12427774f, 0.02905921f, -0.01490962f, -0.01013202f, -0.00416599f, -0.46970206f, -0.00865008f, -0.01878749f, 
    -0.09014726f, -0.55496252f, -0.01535939f, -0.40443683f, -0.14265046f, -0.00360703f, -0.01584661f, -0.33036646f, 
    -0.00272582f, -0.00479416f, -0.01784320f, -0.27867001f, -0.02637772f, -0.01808431f, -0.07879458f, -0.07215401f, 
    -0.09934619f, -0.21826766f, -0.02894832f, 0.30688062f, 0.07072253f, -0.42608669f, -0.41733968f, -0.03424794f, 
    -0.11437073f, -0.05270347f, 0.16592900f, -0.38203430f, -0.02936827f, -0.00659652f, -0.55556834f, -0.33197933f, 
    -0.00882125f, -0.02247468f, -0.00607740f, -0.00826151f, -0.09283141f, -0.08679628f, -0.73292530f, -0.00625385f, 
    -0.11256652f, 0.09786794f, 0.04059497f, -0.10262097f, -0.05962522f, -0.00756838f, -0.32183397f, -0.25872305f, 
    -0.67852360f, -0.54887795f, -0.01645082f, -0.17145482f, -0.00620359f, -0.53296518f, -0.50923890f, -0.00470174f, 
    -0.14837557f, -0.11458191f, -0.68025368f, -0.05641197f, -0.08026927f, -0.00393174f, -0.02223567f, -0.29195154f, 
    -0.24589333f, -0.01625477f, 0.26738590f, -0.23492035f, 0.18760435f, -0.50825280f, -0.27136296f, -0.06486768f
};

const int32_t bias_1_indices[] CSR_PROGMEM = {
    0, 1, 2, 3, 4, 5, 6, 7, 8, 9, 10, 11, 
    12, 13, 14, 15, 16, 17, 18, 19, 20, 21, 22, 23, 
    24, 25, 26, 27, 28, 29, 30, 31, 32, 33, 34, 35, 
    36, 37, 38, 39, 40, 41, 42, 43, 44, 45, 46, 47, 
    48, 49, 50, 51, 52, 53, 54, 55, 56, 57, 58, 59, 
    60, 61, 62, 63, 64, 65, 66, 67, 68, 69, 70, 71, 
    72, 73, 74, 75, 76, 77, 78, 79
};

const float weight_2_values[] CSR_PROGMEM = {
    0.00200777f, 0.00474207f, 0.00427168f, 0.00195829f, 0.00150477f, -0.00194991f, -0.00330260f, 0.00247048f, 
    -0.00179521f, -0.00179521f, 0.00417911f, 0.00172829f, -0.00170520f, -0.00395656f, 0.00198552f, -0.00246253f, 
    -0.00311392f, -0.00188642f, 0.00160238f, -0.00194267f, 0.00255758f, -0.00246503f, 0.00241980f, -0.00209581f, 
    -0.00193796f, -0.00293657f, 0.00195236f, 0.00176906f, 0.00169027f, 0.00166311f, -0.00196964f, 0.00181000f, 
    0.00159242f, 0.00247048f, 0.00221197f, 0.00204295f, 0.00180836f, 0.00180689f, -0.00198388f, -0.00164539f, 
    0.00269156f, -0.00245748f, -0.00245066f, -0.00233197f, 0.00188172f, -0.00286079f, -0.00237621f, -0.00269855f, 
    -0.00241468f, 0.00181161f, 0.00228850f, -0.00275116f, -0.00312263f, -0.00403521f, -0.00169893f, -0.00176879f, 
    -0.00182477f, -0.00177197f, -0.00323689f, -0.00185616f, -0.00265533f, 0.00277808f, 0.00253975f, 0.00254003f, 
    0.00171070f, 0.00250434f, -0.00375461f, 0.00277040f, -0.00176754f, -0.00186456f, -0.00167500f, 0.00227202f, 
    -0.00187465f, -0.00295249f, 0.00176974f, 0.00180983f, -0.00243932f, -0.00225036f, 0.00157427f, 0.00174854f, 
    0.00226695f, 0.00209895f, 0.00195343f, -0.00151382f, 0.00191164f, 0.00232154f, 0.00329474f, 0.00151222f, 
    0.00315463f, 0.00335697f, 0.00155163f, -0.00213698f, 0.00217461f, -0.00263550f, 0.00247343f, 0.00173884f, 
    0.00159518f, 0.00190561f, -0.00372313f, -0.00365127f, 0.00204402f, 0.00250765f, -0.00370910f, 0.00370096f, 
    -0.00151000f, -0.00285396f, -0.00369094f, 0.00163940f, 0.00173161f, 0.00210450f, -0.00164151f, -0.00414282f, 
    0.00180092f, -0.00157592f, -0.00177965f, -0.00164699f, -0.00185957f, -0.00288879f, -0.00494318f, -0.00204723f, 
    -0.00378368f, -0.00335642f, -0.00642790f, -0.00615292f, -0.00155924f, 0.00247839f, -0.00244840f, 0.00208156f, 
    0.00614228f, 0.00163774f, 0.00172159f, -0.00154193f, 0.00231877f, -0.00263915f, -0.00154698f, -0.00194095f, 
    0.00183503f, -0.00276894f, 0.00184935f, 0.00216128f, 0.00244818f, 0.00312146f, 0.00152604f, 0.00242963f, 
    -0.00164831f, 0.00417101f, 0.00186467f, -0.00244244f, 0.00240177f, -0.00246824f, -0.00155599f, -0.00164751f, 
    0.00329765f, -0.00640716f, 0.00181411f, -0.00311134f, 0.00222625f, -0.00275280f, -0.00170908f, 0.00190356f, 
    0.00311506f, -0.00161488f, 0.00234495f, 0.00219978f, 0.00208195f, -0.00275204f, -0.00189207f, -0.00329798f, 
    0.00448725f, -0.00262688f, 0.00155381f, 0.00197200f, -0.00158539f, -0.00416235f, 0.00344925f, -0.00158393f, 
    0.00262080f, -0.00180221f, 0.00238443f, -0.00150049f, -0.00244656f, 0.00237780f, -0.00173243f, 0.00217997f, 
    0.00287741f, -0.00329887f, 0.00186120f, -0.00235189f, -0.00183244f, 0.00206379f, -0.00381816f, -0.00233232f, 
    -0.00193146f, 0.00393076f, -0.00182424f, -0.00203300f, 0.00199506f, -0.00255798f, -0.00311725f, -0.00247214f, 
    -0.00247724f, 0.00156083f, -0.00193145f, 0.00198170f, -0.00210347f, -0.00239003f, 0.00216822f, 0.00163885f, 
    0.00158411f, -0.00207065f, -0.00210307f, 0.00179614f, 0.00170972f, 0.00238704f, -0.00471803f, -0.00311541f, 
    0.00291482f, -0.00269217f, 0.00381157f, -0.00165822f, 0.00180442f, 0.00242222f, -0.00217370f, -0.00152154f, 
    -0.00166054f, -0.00254035f, 0.00247260f, -0.00312623f, 0.00218867f, -0.00260348f, 0.00174110f, -0.00183925f, 
    0.00339920f, -0.00383131f, 0.00195476f, 0.00152534f, 0.00171928f, -0.00237767f, 0.00638710f, 0.00328128f, 
    0.00328416f, -0.00360012f, 0.00276541f, 0.00271599f, -0.00176587f, 0.00329690f, 0.00151464f, -0.00307372f, 
    0.00251260f, -0.00193689f, 0.00229623f, 0.00203637f, 0.00305238f, -0.00330856f, 0.00270723f, 0.00191301f, 
    0.00156904f, 0.00330797f, 0.00167993f, -0.00243876f, 0.00191548f, 0.00170229f, 0.00202425f, 0.00163142f, 
    0.00299230f, -0.00173794f, -0.00232053f, -0.00329581f, 0.00310688f, -0.00311750f, -0.00195347f, 0.00287322f, 
    -0.00215639f, 0.00180995f, -0.00384796f, 0.00221659f, 0.00247433f, 0.00255750f, 0.00329327f, 0.00162321f, 
    0.00203883f, 0.00153605f, -0.00222492f, 0.00242073f, 0.00266960f, -0.00256038f, 0.00244127f, -0.00356931f, 
    -0.00163647f, 0.00222251f, 0.00243513f, -0.00221709f, -0.00176423f, 0.00372423f, -0.00271447f, 0.00194551f, 
    0.00188021f, 0.00167660f, 0.00615629f, 0.00253743f, 0.00220006f, -0.00175767f, -0.00254778f, 0.00185773f, 
    0.00162688f, 0.00194292f, -0.00266041f, -0.00274004f, 0.00185583f, -0.00187850f, -0.00269633f, -0.00205565f, 
    0.00193651f, 0.00214687f, 0.00417417f, -0.00314569f, 0.00155444f, -0.00266793f, 0.00240113f, -0.00249234f, 
    0.00270855f, 0.00176893f, 0.00208430f, -0.00154415f, -0.00163831f, -0.00250601f, 0.00275289f, -0.00317149f, 
    -0.00181249f, -0.00258923f, 0.00169168f, 0.00201074f, -0.00223475f, 0.00181731f, 0.00268019f, -0.00159158f, 
    0.00161629f, 0.00172504f, 0.00237612f, 0.00311210f, -0.00212580f, -0.00247508f, 0.00153076f, -0.00334623f, 
    -0.00176959f, -0.00246759f, -0.00193363f, 0.00162222f, 0.00272853f, -0.00194748f, -0.00180796f, 0.00203404f, 
    -0.00183375f, 0.00348046f, 0.00378019f, -0.00191263f, -0.00158259f, -0.00247184f, 0.00225890f, 0.00235729f, 
    -0.00228106f, -0.00184480f, 0.00190441f, -0.00161384f, 0.00191665f, 0.00201438f, -0.00269965f, -0.00210972f, 
    0.00265941f, -0.00184086f, 0.00257942f, 0.00178014f, -0.00268669f, 0.00240189f, 0.00300629f, -0.00192289f, 
    0.00200599f, 0.00331195f, -0.00181344f, 0.00157572f, -0.00343157f, -0.00173288f, 0.00194536f, -0.00215730f, 
    -0.00247461f, -0.00215781f, -0.00199561f, 0.00194673f, 0.00173102f, 0.00380505f, 0.00237330f, -0.00215531f, 
    -0.00180242f, -0.00217846f, -0.00255475f, 0.00177390f, 0.00151434f, 0.00401552f, 0.00167751f, 0.00198777f, 
    0.00216401f, -0.00182392f, 0.00289162f, 0.00202075f, -0.00174787f, 0.00179146f, 0.00165152f, -0.00173354f, 
    -0.00158090f, 0.00269643f, -0.00238603f, 0.00172979f, 0.00171380f, 0.00184517f, -0.00168254f, 0.00259127f, 
    -0.00310008f, -0.00418384f, -0.00167900f, -0.00386586f, -0.00169550f, 0.00180093f, -0.00165870f, -0.00169521f, 
    0.00362024f, 0.00183965f, 0.00181006f, -0.00220654f, 0.00205608f, -0.00191386f, 0.00262743f, -0.00387822f, 
    -0.00384517f, -0.00254741f, 0.00170256f, -0.00210510f, 0.00235293f, 0.00246967f, 0.00185806f, 0.00192200f, 
    0.00182169f, 0.00246879f, -0.00475559f, -0.00247340f, 0.00268705f, 0.00165174f, 0.00156498f, 0.00424279f, 
    -0.00172737f, 0.00311602f, 0.00329073f, 0.00156602f, -0.00157529f, 0.00235116f, -0.00215251f, 0.00235887f, 
    0.00365928f, 0.00423815f, 0.00201559f, -0.00179267f, 0.00293403f, -0.00247466f, 0.00151960f, 0.00283910f, 
    0.00159536f, 0.00242978f, 0.00185448f, 0.00259820f, 0.00255288f, 0.00158745f, -0.00152693f, -0.00228530f, 
    -0.00264396f, 0.00211251f, 0.00236299f, -0.00321618f, 0.00274111f, 0.00156119f, 0.00310807f, -0.00262951f, 
    -0.00372741f, 0.00312519f, -0.00315583f, 0.00296100f, -0.00181338f, 0.00240906f, 0.00153371f, -0.00243960f, 
    -0.00337224f, -0.00159864f, -0.00284637f, -0.00216326f, 0.00207182f, -0.00212614f, -0.00155469f, -0.00226985f, 
    0.00195933f, -0.00216491f, 0.00162449f, 0.00237958f, -0.00209900f, 0.00180195f, -0.00178957f, -0.00475135f, 
    0.00274362f, -0.00215621f, 0.00216952f, -0.00381750f, 0.10591272f, -0.00282410f, 0.00186606f, -0.00369817f, 
    0.00185242f, 0.00221733f, -0.00161588f, 0.00180151f, -0.00190869f, -0.00239486f, 0.00195039f, -0.10071594f, 
    -1.07509875f, -0.18514563f, 0.00166727f, 0.57434160f, -0.00189612f, -0.00268783f, -0.00398104f, 0.00176675f, 
    0.00160253f, 0.00223423f, 0.00182899f, 0.00418751f, -0.10387582f, -0.18245956f, -0.00253809f, -0.00150283f, 
    -0.00361767f, 0.00252059f, -0.00204685f, -0.00266953f, -0.00307582f, -0.00311684f, 0.00197097f, -0.00159982f, 
    -0.00629759f, -0.00185119f, 0.00204495f, -0.00243328f, -0.00226375f, -0.00354837f, -0.00219955f, -0.00448428f, 
    0.00300477f, -0.00202956f, -0.00237380f, -0.00281696f, -0.00202422f, 0.00227162f, -0.00223860f, -0.00199522f, 
    -0.00168706f, -0.00176834f, 0.00241120f, -0.00215108f, 0.00162331f, -0.00329608f, -0.00193708f, -0.00329676f, 
    -0.00162716f, 0.00329548f, 0.00159417f, -0.00201168f, 0.00284786f, -0.00177010f, -0.00203297f, -0.00240248f, 
    0.00173041f, 0.00237931f, -0.00214321f, 0.00177157f, 0.00238218f, 0.00338641f, -0.00232488f, -0.00312480f, 
    -0.00195435f, 0.00172600f, 0.00324198f, -0.00233976f, -0.00167378f, -0.24417274f, 0.00252320f, -0.20996843f, 
    -0.00164198f, 0.13658470f, 0.00155991f, -0.17808989f, 0.00216254f, 0.00233411f, 0.06342279f, -0.00359167f, 
    0.00410306f, 0.24670753f, 0.00196975f, 0.08819361f, -0.00303036f, -0.41316247f, -0.00228134f, -0.62397468f, 
    0.00196980f, -0.00155288f, -0.00194182f, 0.00310840f, 0.00216671f, 0.00229369f, 0.00474131f, 0.00324280f, 
    0.00183939f, 0.00642560f, -0.00329542f, 0.00188044f, 0.00157685f, 0.00328113f, -0.00244258f, 0.00350488f, 
    0.00283649f, -0.00225183f, 0.00311106f, 0.00172225f, -0.00215772f, 0.00162062f, -0.00165976f, -0.00251437f, 
    -0.00244918f, 0.00158375f, 0.00263834f, -0.00205106f, -0.00163956f, -0.00214394f, 0.00187474f, 0.00157419f, 
    -0.00194805f, 0.00169966f, 0.00169508f, 0.00324205f, -0.18167013f, 0.00265674f, 0.00307079f, 0.07215785f, 
    -0.00348779f, -0.00182356f, 0.00474306f, 0.00328095f, 0.00189810f, -0.00271467f, 0.00164249f, 0.79134500f, 
    0.71260971f, -0.00162019f, -0.00825711f, -0.00330418f, -0.00311193f, -0.51383674f, 0.13410638f, -0.20370637f, 
    0.00361975f, 0.00165151f, 0.00295174f, 0.00218306f, -0.00214398f, -0.00247363f, 0.00246834f, 0.00150007f, 
    -0.00247172f, 0.00269501f, 0.00216431f, -0.00176825f, 0.00311463f, 0.00176907f, -0.00235907f, 0.00284521f, 
    -0.00195632f, -0.00192710f, -0.00247007f, 0.00199461f, -0.00246604f, -0.00255364f, -0.00155596f, -0.00311111f, 
    0.00194339f, 0.00170906f, -0.00311513f, -0.00246453f, 0.00183638f, 0.00190949f, 0.00173327f, -0.00283393f, 
    -0.00179233f, -0.00248273f, -0.00157521f, 0.00156757f, -0.00361220f, -0.00204601f, -0.00343176f, -0.00192833f, 
    0.00203176f, -0.00235510f, -0.00217098f, 0.00285477f, -0.00295733f, -0.00264855f, 0.00326400f, -0.00162786f, 
    -0.00428898f, 0.00332100f, 0.00213709f, 0.00153918f, -0.00151962f, 0.00158328f, -0.00191288f, -0.00228832f, 
    0.00165067f, -0.00153018f, 0.00177991f, -0.00162877f, 0.00249419f, -0.00172873f, -0.00234550f, 0.00436041f, 
    -0.00182678f, -0.00194523f, 0.00247184f, -0.00155715f, 0.00176749f, 0.00285382f, -0.00177109f, 0.00238902f, 
    0.00243213f, -0.00265839f, -0.00219540f, 0.00200941f, 0.00259048f, -0.00287005f, -0.00233368f, 0.00166511f, 
    0.00179974f, 0.00180011f, 0.00260982f, -0.00314880f, 0.00417417f, 0.00278838f, -0.00257490f, 0.00162227f, 
    -0.00162404f, 0.00176908f, -0.00163599f, -0.00323279f, -0.00154994f, -0.00445138f, 0.00221551f, 0.00233907f, 
    -0.00474673f, 0.00247608f, 0.00212328f, -0.00180717f, -0.00216414f, 0.00471207f, 0.00249604f, -0.00369395f, 
    0.00330801f, -0.00229313f, -0.00201480f, -0.00152690f, 0.00215087f, -0.00220188f, -0.00163044f, -0.00200609f, 
    -0.00334019f, 0.00278509f, -0.00166921f, -0.00255586f, -0.00241053f, 0.00292892f, 0.00187216f, 0.00256190f, 
    0.00154545f, 0.00174385f, -0.00265102f, -0.00156161f, 0.00309677f, -0.00271871f, -0.00420265f, -0.00176952f, 
    -0.00246532f, -0.00192692f, 0.00175180f, 0.00217331f, 0.00247159f, -0.00244278f, -0.00180066f, -0.00387615f, 
    -0.00157651f, 0.00311851f, 0.00216263f, -0.00163372f, -0.00233951f, -0.00329738f, -0.00176985f, 0.00200893f, 
    0.00196337f, 0.00238027f, -0.00193939f, -0.00181508f, 0.06771632f, 0.00156183f, -0.00213071f, 0.00206710f, 
    -0.21919452f, 0.03606228f, -0.00182481f, -0.00202969f, 0.00251913f, 0.00204699f, -0.00274310f, -0.00435967f, 
    -0.00189155f, -0.00614843f, -0.00212678f, 0.00163316f, 0.00167904f, 0.00205718f, -0.00159834f, -0.00156894f, 
    0.01676609f, -0.10273952f, 0.48977935f, 0.39391160f, -0.00269394f, 0.00308344f, -0.00220258f, -0.00162699f, 
    -0.00173854f, -0.00193612f, -0.00224378f, 0.00183319f, -0.00189875f, -0.00193437f, 0.00194644f, 0.00207135f, 
    -0.00214452f, 0.00162241f, 0.00166520f, 0.00238977f, 0.00330702f, 0.00196655f, 0.00163944f, 0.00215588f, 
    -0.00317612f, -0.00179445f, 0.00202630f, -0.00618035f, -0.00212290f, 0.00163510f, 0.00202310f, 0.00171587f, 
    -0.00211282f, 0.00418909f, -0.00198170f, 0.00263785f, -0.00244043f, -0.00214975f, 0.00196575f, -0.00173579f, 
    0.00418647f, -0.00178218f, -0.00474620f, 0.00182806f, 0.00227968f, 0.00249270f, -0.00184027f, -0.00269058f, 
    -0.00164562f, -0.00411577f, 0.00300269f, -0.00222503f, 0.00158375f, -0.00187069f, 0.00299646f, -0.00327133f, 
    0.00390497f, 0.00214169f, 0.00202533f, 0.00168806f, 0.00183785f, -0.00176307f, 0.00424944f, -0.00284440f, 
    0.00337963f, 0.00173549f, 0.00215048f, 0.00164885f, -0.00215930f, -0.00194624f, 0.00272832f, 0.00163251f, 
    0.00311335f, 0.00200658f, -0.00285060f, 0.00194422f, 0.00338311f, 0.00208560f, 0.00185280f, -0.00154543f, 
    0.00163018f, -0.00465879f, 0.00245942f, -0.00176940f, -0.00157238f, 0.00247381f, 0.00192470f, 0.00314356f, 
    0.00244061f, -0.00427902f, 0.00211465f, -0.00172502f, 0.00374314f, -0.00172513f, 0.00213489f, -0.00275374f, 
    0.00152568f, 0.00246296f, 0.00161894f, 0.00153995f, 0.00162473f, 0.00151921f, 0.00286514f, 0.00152898f, 
    -0.00179120f, -0.00203713f, -0.00237710f, -0.00329747f, -0.00152591f, 0.00181030f, -0.00186883f, 0.00283814f, 
    0.00261235f, 0.00176321f, -0.00157014f, -0.00253675f, 0.00162945f, -0.00194038f, 0.00191273f, 0.00309354f, 
    0.00249744f, 0.00197699f, 0.00217388f, -0.00247789f, 0.00255381f, -0.00150469f, 0.00371713f, 0.00171648f, 
    -0.00418811f, 0.00192917f, -0.00327843f, -0.00168358f, 0.00189326f, 0.00245997f, 0.00169643f, 0.00281539f, 
    -0.00269132f, -0.00171520f, 0.00277075f, -0.00604675f, 0.00294722f, -0.00159668f, 0.00222119f, 0.00164877f, 
    0.00401538f, 0.00171344f, -0.00173122f, -0.00385053f, -0.00198543f, -0.00240880f, -0.00151102f, -0.00150189f, 
    0.00364474f, -0.00190833f, 0.00219005f, -0.00177658f, -0.00240330f, -0.00193997f, -0.00151545f, -0.00176207f, 
    -0.00329282f, 0.00201133f, 0.00215514f, 0.00276403f, 0.00226907f, 0.00314737f, 0.00158531f, 0.00219556f, 
    0.00197746f, -0.00211797f, -0.00151810f, 0.00202671f, 0.00152925f, 0.00386498f, -0.00158425f, -0.00269052f, 
    0.00188980f, 0.00165842f, -0.00189625f, -0.00171566f, -0.00217053f, -0.00306815f, -0.00166099f, -0.00285531f, 
    -0.00261651f, 0.00179488f, -0.00164105f, -0.00156225f, 0.00271537f, 0.00177323f, 0.00161876f, -0.00223843f, 
    -0.00156882f, -0.00178802f, -0.00365471f, -0.00162680f, 0.00170061f, -0.00155270f, 0.00175455f, 0.00247578f, 
    0.00181452f, 0.00247436f, 0.00290686f, 0.00307083f, 0.00215990f, -0.00203143f, -0.00196387f, -0.00310887f, 
    0.00175300f, 0.00216383f, 0.00190652f, -0.00185448f, 0.00200453f, -0.00346173f, -0.00180188f, -0.00182018f, 
    -0.00216913f, -0.00242187f, 0.00246910f, -0.00188600f, -0.00380231f, -0.00195925f, -0.00151128f, -0.00152957f, 
    0.00195148f, -0.00171346f, -0.00227780f, -0.00241964f, -0.00191230f, -0.00211817f, 0.00150058f, 0.00244332f, 
    0.00316608f, -0.00181612f, -0.00170988f, -0.00240150f, 0.00155369f, -0.00164525f, -0.00188968f, -0.00374472f, 
    -0.00247204f, -0.00258818f, -0.00228373f, 0.00203512f, 0.00208254f, 0.00252492f, -0.00273204f, -0.00359079f, 
    -0.00158165f, 0.00163112f, 0.00209117f, 0.00159608f, -0.00158224f, -0.00391509f, -0.00290017f, 0.00193931f, 
    0.00159146f, -0.00416113f, -0.00238169f, 0.00226698f, 0.00459513f, -0.00178462f, 0.00653309f, 0.00285000f, 
    -0.00153265f, 0.00188220f, 0.00251690f, -0.00190924f, 0.00151488f, 0.00236756f, -0.00179131f, -0.00224334f, 
    0.00232855f, -0.00165957f, -0.00297022f, 0.00201711f, -0.00219521f, 0.00234266f, -0.00218533f, 0.00151124f, 
    0.00201204f, 0.00180468f, 0.00262225f, 0.00455102f, -0.24644791f, -0.00199200f, -0.62371862f, 0.00164532f, 
    -0.84708339f, -0.00199858f, -0.00236112f, 0.00250334f, 0.00183803f, -0.00240995f, -0.00277065f, -0.23664923f, 
    -0.00215012f, -0.00216775f, -0.00171411f, -0.00234046f, 0.00333270f, 0.00786207f, -0.97972769f, -0.00427573f, 
    -0.00283982f, -0.00196684f, 0.00402508f, 0.00251180f, -0.00225409f, -0.00309065f, 0.00167115f, -0.00232862f, 
    -0.00311495f, 0.00489097f, -0.00274232f, -0.00462263f, 0.00160410f, -0.00201567f, 0.00231547f, -0.00191290f, 
    -0.00178114f, 0.00160532f, 0.00255500f, -0.00315030f, 0.00160614f, 0.00188748f, -0.00208262f, 0.00379994f, 
    0.00200934f, -0.00247152f, 0.00165483f, 0.00235645f, 0.00171320f, 0.00162519f, 0.00191810f, -0.00209467f, 
    -0.00182783f, -0.00198376f, 0.00199977f, -0.00323418f, -0.00339405f, 0.00240115f, 0.00216020f, -0.00329954f, 
    0.00177479f, -0.00154681f, 0.00180820f, 0.00196079f, -0.00269183f, -0.00154023f, -0.00170709f, 0.00276836f, 
    0.00421542f, 0.00153970f, -0.00174453f, 0.00151758f, 0.00239549f, 0.00250920f, -0.00165370f, 0.00358685f, 
    0.00420506f, -0.00205392f, 0.00197453f, 0.00202554f, -0.00204199f, -0.00192923f, 0.00214444f, -0.00232166f, 
    0.00619354f, 0.00184568f, 0.00333714f, 0.00294102f, -0.00242830f, -0.00337851f, 0.00171625f, -0.00446620f, 
    -0.00374054f, 0.00189557f, -0.00255025f, -0.00170470f, -0.00193187f, 0.00255297f, 0.00246318f, 0.00155886f, 
    -0.00297950f, 0.00150658f, -0.00327439f, 0.00160299f, 0.00211402f, -0.00235371f, -0.00257246f, 0.00237007f, 
    -0.00280910f, -0.00191581f, -0.00174492f, -0.00170469f, 0.00204463f, 0.00159701f, 0.00250633f, -0.00161804f, 
    0.00214325f, -0.00156874f, -0.00246247f, -0.00217101f, 0.00343922f, 0.00243428f, 0.00179610f, 0.00198728f, 
    0.00311139f, -0.00180491f, -0.00250111f, 0.00251943f, -0.00258442f, -0.00266297f, 0.00230058f, 0.00184601f, 
    -0.00180725f, 0.00427173f, 0.00278194f, 0.00416397f, 0.00212046f, 0.00194342f, -0.00310970f, 0.00261657f, 
    -0.00215888f, 0.00194829f, -0.00163808f, -0.00216559f, 0.00417347f, 0.00311006f, -0.00246265f, -0.00225076f, 
    0.00181282f, -0.00241681f, 0.00162670f, 0.00209912f, -0.00181406f, 0.00329759f, 0.00230994f, -0.00247102f, 
    0.00156851f, 0.00417456f, -0.00275013f, 0.00247093f, -0.00194268f, 0.00360423f, -0.00246324f, -0.00157054f, 
    -0.00225322f, 0.00157773f, -0.00180878f, -0.00177204f, -0.00215507f, -0.00265468f, -0.00201454f, 0.00178459f, 
    -0.00184590f, -0.00167880f, -0.00220100f, 0.00150818f, -0.00177041f, -0.00397306f, 0.00359204f, -0.00201289f, 
    -0.00198500f, -0.00167643f, 0.00247431f, -0.00240748f, 0.00239240f, 0.00155023f, -0.00257799f, 0.00199053f, 
    0.00283969f, -0.00414706f, -1.82575536f, 0.00238501f, 0.02808357f, -0.00365629f, 0.41186512f, -0.31183895f, 
    0.00310297f, -0.01485579f, 0.00326450f, 0.00168108f, 0.00158167f, 0.24254055f, -0.00253696f, -1.30314994f, 
    -0.21900295f, 0.00181317f, 0.00166925f, -0.00221112f, -0.00361862f, 0.00276220f, 0.09235243f, 0.00280245f, 
    0.00182705f, -0.18772392f, 0.00177779f, -0.00238337f, 0.00150953f, -0.00202334f, 0.00310959f, 0.00215539f, 
    0.00216501f, -0.00283962f, 0.00375128f, 0.00271229f, 0.00195272f, 0.00181499f, 0.00602586f, -0.00180955f, 
    -0.00237286f, 0.00225273f, -0.00326412f, -0.00318260f, -0.00190257f, -0.00162804f, -0.00386621f, -0.00180334f, 
    -0.00152081f, -0.00212894f, 0.00247197f, 0.00172046f, -0.00400677f, 0.00240662f, 0.00153471f, 0.00283180f, 
    0.00274410f, -0.00166656f, 0.00260109f, -0.00160101f, 0.00174790f, 0.00192256f, 0.00179810f, -0.00232337f, 
    -0.00243686f, -0.00221358f, 0.00252351f, -0.00286029f, -0.00272423f, -0.00250168f, -0.00260571f, -0.00325679f, 
    0.00150051f, 0.00179171f, 0.00230827f, -0.00187887f, -0.00251014f, 0.00162356f, 0.00269027f, 0.00167643f, 
    0.00186472f, 0.00320881f, -0.00265945f, 0.00323124f, -0.00218563f, 0.00228023f, -0.00333310f, 0.00246636f, 
    -0.00153609f, -0.00266176f, -0.00417155f, 0.00211557f, -0.00151355f, -0.00364487f, -0.00220908f, 0.00202349f, 
    0.00169842f, 0.00210941f, -0.00260278f, -0.00242442f, -0.00317531f, -0.00358990f, -0.00394751f, -0.00313150f, 
    -0.00182834f, -0.00170140f, 0.00151598f, -0.00262352f, 0.00169014f, 0.00199998f, -0.00251674f, -0.00236809f, 
    -0.00199252f, 0.00168958f, 0.00161117f, -0.18412720f, -0.08604002f, 0.00176224f, 0.00255412f, 0.00215273f, 
    0.00233167f, -0.00168975f, -0.00168002f, 0.00378048f, 0.00262995f, 0.00238154f, -0.02227775f, 0.00187429f, 
    -0.45995885f, 0.29916045f, 0.00170754f, -0.07598633f, 0.00171070f, 0.00789813f, -0.37649393f, 0.00238677f, 
    0.00448497f, 0.00176688f, 0.00196371f, 0.00157213f, 0.00238115f, 0.06804928f, 0.00167524f, -0.03188083f, 
    -0.00246228f, -0.00177961f, -0.85792518f, 0.18161206f, 0.00173765f, 0.00248175f, -0.57536066f, -0.00321797f, 
    -0.00158506f, 0.00219029f, 0.00161184f, 0.00244135f, 0.00183006f, -0.00220070f, 0.00249926f, 0.00208608f, 
    0.00291268f, 0.00230662f, 0.00150330f, 0.00160190f, -0.00169064f, -0.00268106f, -0.00616076f, -0.00174006f, 
    0.00174115f, -0.00178961f, -0.00248773f, 0.00219513f, 0.00214300f, 0.00283844f, 0.00270108f, -0.00249086f, 
    0.00275463f, -0.00241429f, -0.00178217f, -0.00169359f, -0.00330879f, -0.00308568f, 0.00216370f, -0.00271510f, 
    -0.00313094f, -0.00170414f, 0.00180637f, 0.00280146f, -0.00484443f, 0.00161767f, 0.00251205f, -0.00476448f, 
    0.00183993f, -0.00190088f, -0.00217660f, 0.00194155f, 0.00262125f, 0.00236355f, 0.00196201f, 0.00165055f, 
    0.00221591f, -0.00238665f, -0.00176739f, -0.00152887f, -0.00269993f, 0.00230973f, 0.00154720f, 0.00194078f, 
    0.00353514f, -0.00193914f, -0.00151707f, -0.00230299f, 0.00286837f, -0.00226199f, -0.00312266f, 0.00392764f, 
    0.00190448f, -0.00151005f, -0.00242038f, 0.00255824f, -0.00151331f, -0.00191041f, -0.00210988f, 0.00319932f, 
    -0.00172775f, -0.00239336f, 0.00392131f, -0.00358260f, 0.00167017f, 0.00172737f, -0.00413270f, -0.00422650f, 
    -0.00247415f, 0.00150583f, -0.00218909f, -0.00241441f, 0.00163407f, 0.00217503f, 0.00281363f, -0.00264335f, 
    0.00275960f, 0.00153380f, -0.00159819f, 0.00180892f, -0.00155770f, 0.00196470f, 0.00199991f, -0.00424978f, 
    0.00185258f, 0.00402461f, -0.00420206f, 0.00315795f, -0.00189886f, 0.00258622f, 0.00168757f, -0.00256018f, 
    0.00368515f, 0.00204716f, 0.00251586f, 0.00369331f, -0.00339398f, 0.00204399f, 0.00286710f, -0.00162525f, 
    -0.00365617f, -0.00248379f, -0.00255977f, -0.00225849f, -0.00262700f, 0.00170522f, -0.00194199f, -0.00180944f, 
    -0.00244318f, 0.00183483f, 0.00170935f, 0.00154480f, 0.00247557f, 0.00210227f, -0.00249574f, -0.00164012f, 
    0.00219359f, 0.00311277f, -0.00218420f, -0.00214624f, -0.00329530f, -0.00239538f, 0.00217809f, 0.00247370f, 
    0.00246607f, -0.00173040f, 0.00265810f, -0.00165936f, -0.00256058f, 0.02748750f, 0.00331849f, 0.00180178f, 
    -0.00253454f, 0.00172458f, -0.00153926f, 0.00216830f, 0.43954173f, -0.66030574f, 0.03498614f, 0.23754627f, 
    0.00166239f, -0.04740526f, 0.00261318f, 0.00199598f, 0.00270728f, -0.00151788f, 0.00363856f, -0.00262066f, 
    -0.00552151f, 0.58023816f, 0.00178040f, -0.00150292f, 0.00192667f, -0.00161318f, 0.09410694f, -0.01737299f, 
    -0.00266998f, -0.00176509f, -0.00221971f, -0.00168138f, -0.00157536f, -0.00165700f, -0.00162888f, 0.00441407f, 
    0.00235764f, 0.00322404f, 0.00267689f, 0.00229362f, -0.00194426f, -0.00194469f, -0.00247172f, 0.00174589f, 
    -0.00250448f, -0.00343218f, 0.00324566f, 0.00162040f, 0.00193973f, -0.00428087f, 0.00176255f, -0.00209278f, 
    0.00412934f, -0.00311588f, 0.00215888f, 0.00180831f, 0.00194371f, -0.00283326f, -0.00246337f, -0.00193955f, 
    -0.00166347f, -0.00253294f, -0.00241103f, 0.00426125f, 0.00193498f, -0.00153090f, -0.00180949f, 0.00192910f, 
    0.00286257f, -0.00155244f, -0.00427822f, -0.00314889f, 0.00258420f, 0.00325533f, -0.00329902f, 0.00221864f, 
    0.00156611f, 0.00474975f, 0.00222369f, -0.00379587f, 0.00219841f, -0.00279842f, 0.00314479f, 0.00217518f, 
    -0.00398586f, 0.00328893f, -0.00330428f, -0.00252853f, -0.00203863f, 0.00248759f, -0.00207223f, -0.00223986f, 
    0.00216123f, 0.00255604f, -0.00215331f, -0.00341140f, 0.00167898f, -0.00161631f, -0.00247278f, 0.00247103f, 
    -0.00174816f, -0.00154616f, 0.00311095f, -0.00170016f, -0.00194665f, 0.00200546f, 0.00252525f, 0.00278644f, 
    -0.00321946f, -0.00192014f, 0.00196958f, 0.00241414f, 0.00243414f, 0.00422320f, -0.00345150f, -0.00641372f, 
    0.00237973f, -0.00218519f, -0.00238719f, 0.00156097f, -0.00331420f, -0.00159410f, 0.00150518f, 0.00185962f, 
    -0.00192918f, -0.00179610f, 0.00253135f, 0.00161961f, -0.00278788f, 0.00157605f, 0.00217844f, 0.00186681f, 
    0.00200139f, -0.00161607f, 0.00166287f, -0.00194624f, 0.00239569f, 0.00174142f, -0.00152867f, 0.00200677f, 
    -0.00205780f, 0.00280022f, -0.00239180f, 0.00364210f, 0.00657529f, -0.00201564f, 0.00201972f, 0.00189380f, 
    0.00269072f, -0.00154852f, -0.00182037f, 0.00375961f, 0.00380979f, -0.00272405f, 0.00281094f, -0.00413790f, 
    0.00156117f, 0.00626971f, -0.00151653f, 0.00382439f, -0.00263928f, -0.00180612f, 0.00259579f, 0.00194686f, 
    0.00205420f, 0.00262154f, -0.00181479f, 0.00241869f, -0.00181396f, -0.00286078f, -0.00200711f, -0.00241394f, 
    -0.00215567f, 0.00366405f, 0.00329589f, -0.00164083f, -0.00225384f, 0.00258923f, 0.00199593f, -0.00178960f, 
    0.00371534f, 0.00157090f, 0.00227075f, -0.00202671f, -0.00173378f, -0.00207490f, 0.00189346f, -0.00240340f, 
    0.00394317f, 0.00182046f, 0.00194524f, 0.00186318f, 0.00429157f, 0.00165772f, 0.00192302f, 0.00311941f, 
    0.00309875f, 0.00308288f, 0.00316340f, -0.00171298f, 0.00154370f, -0.00323028f, -0.00361000f, -0.00238680f, 
    0.00310663f, -0.00260277f, -0.00155694f, -0.00214487f, 0.00153841f, -0.00218326f, 0.00177767f, 0.00152015f, 
    0.00180007f, -0.00281935f, 0.00177072f, 0.00201679f, -0.00311837f, 0.00153643f, -0.00156272f, 0.00330803f, 
    0.00199095f, 0.00155545f, -0.00171459f, -0.00327271f, 0.00158650f, -0.00195794f, -0.00160051f, -0.00418471f, 
    -0.00255554f, 0.00215679f
};

const int32_t weight_2_indices[] CSR_PROGMEM = {
    1, 4, 12, 21, 24, 25, 29, 31, 34, 35, 36, 39, 
    51, 54, 55, 58, 60, 61, 62, 63, 66, 68, 73, 74, 
    4, 6, 17, 18, 19, 21, 24, 36, 38, 41, 48, 50, 
    51, 56, 60, 62, 71, 73, 79, 1, 4, 10, 11, 13, 
    14, 17, 18, 19, 21, 22, 23, 28, 29, 40, 42, 43, 
    44, 52, 54, 60, 61, 63, 64, 65, 66, 67, 71, 74, 
    75, 5, 14, 16, 24, 28, 32, 37, 38, 39, 40, 42, 
    43, 49, 50, 51, 59, 62, 64, 71, 74, 75, 76, 78, 
    79, 5, 9, 16, 17, 19, 24, 25, 26, 31, 37, 43, 
    46, 54, 55, 59, 62, 68, 72, 73, 74, 78, 3, 6, 
    14, 17, 19, 20, 22, 26, 32, 35, 39, 45, 46, 47, 
    52, 57, 58, 65, 71, 74, 75, 2, 6, 7, 9, 14, 
    15, 16, 17, 21, 22, 25, 32, 34, 36, 38, 41, 51, 
    52, 54, 55, 59, 60, 61, 65, 68, 69, 71, 73, 76, 
    78, 79, 0, 2, 4, 5, 8, 11, 13, 14, 27, 28, 
    36, 37, 39, 40, 43, 44, 48, 56, 58, 62, 63, 66, 
    67, 68, 71, 78, 2, 5, 9, 14, 16, 18, 21, 22, 
    27, 28, 29, 31, 32, 34, 46, 50, 51, 59, 62, 66, 
    69, 76, 78, 1, 5, 8, 11, 15, 19, 20, 21, 22, 
    26, 27, 30, 33, 34, 39, 44, 45, 51, 52, 54, 56, 
    57, 59, 60, 62, 65, 68, 75, 77, 2, 4, 9, 11, 
    12, 13, 15, 18, 21, 27, 32, 33, 35, 50, 54, 63, 
    64, 69, 71, 73, 75, 2, 4, 9, 13, 14, 15, 17, 
    18, 19, 20, 21, 25, 45, 49, 50, 54, 58, 60, 61, 
    63, 66, 70, 72, 74, 75, 78, 79, 3, 10, 11, 12, 
    19, 22, 30, 32, 40, 41, 44, 45, 46, 51, 54, 57, 
    60, 61, 2, 6, 17, 20, 21, 22, 25, 28, 30, 37, 
    38, 44, 45, 49, 55, 60, 61, 63, 64, 65, 66, 1, 
    2, 5, 19, 20, 26, 27, 28, 29, 32, 33, 35, 37, 
    38, 40, 43, 44, 49, 59, 62, 64, 65, 70, 72, 73, 
    2, 10, 19, 24, 26, 33, 35, 40, 45, 46, 48, 52, 
    54, 56, 57, 60, 63, 65, 66, 76, 78, 5, 8, 10, 
    14, 16, 20, 22, 25, 32, 35, 41, 47, 51, 56, 61, 
    63, 64, 69, 75, 3, 6, 11, 21, 23, 25, 30, 32, 
    34, 39, 46, 50, 56, 61, 72, 0, 5, 8, 9, 13, 
    16, 20, 22, 28, 39, 42, 49, 50, 51, 57, 58, 60, 
    63, 72, 74, 0, 2, 4, 11, 12, 13, 14, 17, 21, 
    24, 31, 32, 33, 34, 36, 37, 39, 40, 41, 43, 44, 
    45, 48, 51, 53, 54, 55, 64, 68, 2, 3, 9, 10, 
    16, 17, 19, 22, 24, 28, 43, 44, 45, 49, 56, 61, 
    64, 74, 0, 1, 2, 4, 10, 14, 15, 20, 24, 28, 
    30, 36, 42, 45, 46, 56, 59, 61, 66, 67, 68, 70, 
    71, 73, 76, 0, 1, 3, 4, 9, 10, 12, 14, 15, 
    16, 21, 26, 27, 28, 29, 32, 46, 51, 52, 54, 55, 
    58, 60, 64, 67, 68, 76, 78, 0, 3, 10, 13, 15, 
    21, 22, 26, 32, 34, 38, 39, 47, 50, 52, 53, 57, 
    60, 67, 70, 71, 75, 77, 79, 0, 6, 8, 12, 13, 
    14, 16, 17, 18, 22, 23, 30, 42, 46, 49, 52, 54, 
    59, 62, 64, 74, 75, 2, 5, 8, 11, 14, 15, 17, 
    18, 22, 25, 27, 28, 29, 30, 34, 36, 37, 46, 47, 
    53, 56, 65, 67, 68, 74, 75, 76, 77, 79, 2, 3, 
    4, 5, 8, 9, 12, 15, 17, 20, 23, 25, 26, 28, 
    32, 33, 36, 38, 41, 43, 46, 50, 52, 54, 57, 62, 
    64, 73, 74, 77, 78, 79, 12, 16, 22, 24, 25, 27, 
    29, 35, 36, 41, 43, 45, 46, 49, 50, 53, 56, 58, 
    66, 68, 74, 76, 78, 79, 0, 2, 16, 18, 19, 30, 
    31, 32, 34, 36, 37, 42, 43, 51, 58, 61, 63, 64, 
    67, 69, 70, 74, 76, 77, 2, 3, 9, 13, 15, 24, 
    32, 34, 37, 38, 44, 48, 52, 53, 55, 61, 64, 72, 
    78, 3, 15, 22, 25, 28, 32, 35, 41, 43, 49, 50, 
    51, 57, 61, 63, 77, 0, 5, 6, 10, 13, 14, 15, 
    19, 21, 23, 27, 29, 30, 32, 50, 55, 57, 64, 74, 
    75, 77, 0, 1, 2, 5, 9, 10, 13, 26, 27, 29, 
    30, 32, 35, 38, 42, 50, 60, 64, 67, 72, 74, 75, 
    76, 78, 79, 0, 7, 10, 17, 32, 43, 45, 47, 48, 
    50, 54, 55, 60, 63, 66, 67, 72, 75, 77, 0, 3, 
    4, 7, 17, 24, 26, 27, 28, 30, 36, 41, 42, 44, 
    49, 67, 69, 70, 1, 5, 10, 21, 22, 23, 24, 25, 
    27, 28, 30, 33, 40, 45, 46, 49, 52, 54, 57, 58, 
    59, 62, 63, 65, 67, 68, 74, 76, 0, 1, 4, 14, 
    24, 30, 39, 45, 48, 50, 51, 54, 56, 60, 63, 67, 
    68, 71, 75, 2, 5, 6, 9, 10, 16, 18, 20, 22, 
    24, 31, 34, 37, 40, 42, 47, 50, 51, 53, 63, 66, 
    67, 70, 71, 74, 77, 0, 3, 14, 17, 20, 24, 27, 
    32, 33, 39, 40, 43, 48, 54, 64, 66, 78, 2, 3, 
    4, 10, 11, 20, 21, 27, 29, 36, 39, 40, 44, 45, 
    52, 54, 56, 59, 61, 66, 67, 68, 69, 70, 72, 75, 
    78, 2, 3, 4, 6, 14, 17, 20, 37, 38, 39, 44, 
    57, 59, 64, 65, 66, 72, 73, 78, 0, 1, 10, 15, 
    20, 25, 26, 29, 37, 39, 40, 42, 43, 45, 59, 62, 
    70, 75, 3, 12, 14, 29, 35, 38, 39, 43, 45, 53, 
    54, 59, 63, 65, 67, 68, 69, 79, 1, 2, 4, 9, 
    12, 14, 15, 19, 31, 36, 38, 39, 44, 45, 47, 49, 
    54, 59, 67, 68, 75, 77, 79, 0, 1, 6, 9, 12, 
    13, 18, 19, 24, 28, 29, 30, 38, 41, 43, 47, 50, 
    52, 55, 56, 59, 60, 63, 64, 65, 69, 1, 2, 3, 
    4, 7, 10, 11, 17, 19, 21, 23, 34, 35, 36, 37, 
    39, 40, 41, 48, 50, 52, 58, 61, 62, 63, 71, 74, 
    1, 3, 11, 15, 16, 17, 26, 30, 37, 38, 45, 46, 
    51, 57, 59, 64, 66, 76, 78, 3, 4, 6, 7, 8, 
    12, 13, 14, 16, 17, 18, 19, 20, 26, 34, 36, 37, 
    42, 43, 44, 45, 48, 53, 55, 59, 63, 65, 66, 68, 
    69, 71, 76, 77, 0, 4, 5, 7, 14, 17, 18, 22, 
    27, 28, 29, 31, 34, 39, 45, 49, 50, 53, 54, 56, 
    58, 59, 63, 64, 65, 67, 68, 70, 74, 76, 77, 1, 
    6, 7, 10, 13, 16, 17, 29, 44, 46, 48, 49, 50, 
    54, 58, 59, 61, 75, 76, 78, 0, 13, 16, 22, 31, 
    33, 36, 41, 45, 46, 48, 52, 54, 59, 61, 63, 71, 
    77, 0, 1, 5, 13, 23, 25, 26, 39, 41, 48, 58, 
    59, 61, 66, 67, 74, 76, 1, 4, 6, 11, 16, 18, 
    30, 33, 39, 40, 44, 45, 46, 52, 53, 60, 64, 70, 
    0, 7, 14, 16, 34, 35, 48, 52, 53, 58, 60, 61, 
    63, 64, 65, 70, 74, 75, 79, 1, 2, 6, 8, 13, 
    15, 17, 25, 26, 27, 28, 29, 32, 38, 39, 48, 54, 
    59, 60, 62, 71, 75, 79, 6, 9, 10, 12, 16, 17, 
    18, 19, 21, 26, 29, 31, 32, 33, 36, 40, 44, 48, 
    57, 58, 59, 66, 70, 78, 79, 8, 10, 14, 17, 19, 
    23, 24, 26, 29, 33, 36, 37, 40, 42, 44, 54, 55, 
    60, 66, 68, 69, 73, 75, 76, 77, 78, 0, 1, 14, 
    22, 24, 27, 29, 31, 34, 37, 38, 45, 46, 48, 49, 
    50, 55, 57, 61, 64, 67, 68, 69, 73, 74, 0, 6, 
    9, 12, 13, 14, 20, 24, 38, 41, 43, 50, 52, 58, 
    70, 75, 78, 0, 4, 6, 9, 14, 16, 19, 35, 36, 
    38, 45, 48, 57, 61, 62, 68, 72, 75, 76, 77, 0, 
    2, 4, 5, 10, 13, 17, 26, 27, 30, 39, 50, 63, 
    64, 70, 71, 73, 74, 75, 78, 0, 4, 17, 21, 25, 
    28, 29, 31, 32, 35, 36, 39, 42, 44, 48, 49, 50, 
    52, 59, 62, 65, 66, 67, 68, 70, 76, 4, 13, 15, 
    17, 20, 21, 22, 28, 31, 32, 36, 38, 39, 47, 67, 
    71, 72, 74, 75, 76, 1, 9, 22, 26, 28, 29, 31, 
    32, 33, 37, 39, 40, 46, 47, 49, 51, 57, 67, 68, 
    70, 71, 74, 76, 3, 5, 6, 7, 10, 11, 21, 24, 
    26, 32, 34, 38, 46, 48, 49, 51, 53, 57, 60, 61, 
    62, 65, 68, 69, 70, 2, 9, 22, 34, 35, 40, 46, 
    48, 58, 60, 61, 66, 72, 74, 7, 11, 12, 16, 23, 
    26, 33, 35, 38, 39, 46, 47, 50, 52, 54, 57, 58, 
    59, 62, 64, 65, 66, 71, 76, 77, 6, 11, 12, 14, 
    15, 18, 19, 24, 27, 31, 32, 38, 39, 41, 45, 47, 
    48, 49, 50, 55, 57, 58, 59, 61, 63, 66, 67, 72, 
    74, 75, 79, 4, 6, 16, 18, 22, 26, 31, 36, 39, 
    42, 50, 55, 59, 61, 62, 63, 65, 67, 69, 73, 74, 
    75, 77, 4, 8, 17, 19, 32, 34, 36, 38, 41, 44, 
    46, 51, 54, 55, 56, 59, 66, 69, 70, 74, 75, 78, 
    79, 1, 5, 7, 11, 16, 17, 20, 22, 27, 28, 29, 
    32, 34, 37, 39, 43, 45, 46, 47, 49, 56, 57, 59, 
    62, 65, 67, 68, 76, 77, 79, 1, 3, 4, 6, 9, 
    11, 15, 25, 29, 40, 41, 42, 45, 53, 55, 61, 62, 
    63, 70, 71, 72, 75, 76, 4, 17, 18, 24, 26, 27, 
    28, 45, 46, 50, 53, 55, 56, 61, 62, 69, 76, 77, 
    3, 5, 14, 16, 20, 22, 27, 29, 31, 32, 35, 37, 
    39, 40, 46, 48, 52, 54, 55, 57, 58, 61, 69, 71, 
    72, 73, 74, 79, 3, 12, 18, 24, 25, 27, 30, 32, 
    38, 48, 51, 53, 54, 55, 62, 64, 66, 70, 71, 75, 
    77, 0, 1, 9, 10, 14, 20, 23, 30, 32, 39, 46, 
    49, 51, 52, 54, 59, 61, 63, 67, 74, 78, 79, 0, 
    6, 12, 25, 27, 28, 29, 34, 39, 40, 46, 48, 49, 
    53, 57, 58, 62, 64, 65, 72, 73, 77, 0, 3, 10, 
    13, 14, 19, 20, 24, 32, 34, 37, 40, 42, 50, 52, 
    54, 55, 57, 64, 65, 66, 73, 74, 77, 0, 4, 5, 
    12, 28, 30, 33, 34, 40, 50, 52, 54, 57, 59, 63, 
    65, 69, 70, 72, 78, 1, 6, 10, 11, 15, 17, 21, 
    25, 28, 31, 39, 40, 41, 47, 52, 54, 60, 63, 67, 
    76, 79
};

const int32_t weight_2_indptr[] CSR_PROGMEM = {
    0, 24, 43, 73, 97, 118, 139, 170, 196, 219, 248, 269, 
    296, 314, 335, 360, 381, 400, 415, 435, 464, 482, 507, 535, 
    559, 581, 610, 642, 666, 690, 709, 725, 746, 771, 790, 808, 
    836, 855, 881, 898, 925, 944, 962, 980, 1003, 1029, 1056, 1075, 
    1108, 1139, 1159, 1177, 1194, 1212, 1231, 1254, 1279, 1305, 1330, 1347, 
    1367, 1387, 1413, 1433, 1456, 1481, 1495, 1520, 1551, 1574, 1597, 1627, 
    1650, 1668, 1696, 1717, 1739, 1761, 1785, 1805, 1826
};

const float bias_2_values[] CSR_PROGMEM = {
    -0.02296043f, -0.15198620f, -0.06402906f, -0.15330814f, -0.07904298f, -0.06908589f, -0.11694492f, -0.10313313f, 
    -0.00694918f, -0.08006801f, -0.00894772f, -0.16923364f, -0.00580368f, -0.04388235f, -0.11335861f, -0.00487231f, 
    -0.14101371f, -0.02527398f, -0.05297038f, -0.00630744f, -0.01009335f, -0.01576434f, 0.09622241f, -0.10297211f, 
    -0.07139613f, 0.30424464f, -0.04167793f, 0.11342461f, -0.01304701f, -0.12995030f, -0.05108464f, -0.13522106f, 
    -0.05390495f, -0.01486769f, -0.07226111f, -0.14012533f, -0.04805513f, -0.00686570f, -0.16825108f, -0.02409551f, 
    -0.01073143f, -0.02543129f, -0.07036213f, -0.00444717f, -0.04649968f, -0.10602640f, -0.00699835f, -0.06849748f, 
    0.21592143f, -0.00488600f, -0.03303185f, -0.01511071f, -0.00300799f, -0.00742549f, -0.07845800f, -0.07322878f, 
    -0.04893647f, 0.11321463f, -0.12037506f, -0.02608105f, -0.00963578f, -0.06579980f, 0.08910408f, 0.42974049f, 
    -0.03204507f, -0.00706572f, -0.07995401f, -0.00682135f, -0.05139757f, -0.13047299f, 0.20810010f, -0.06277802f, 
    -0.03197318f, -0.06011245f, -0.17395273f, -0.00527237f, -0.04290847f, -0.07516742f, -0.01487988f, -0.14308856f
};

const int32_t bias_2_indices[] CSR_PROGMEM = {
    0, 1, 2, 3, 4, 5, 6, 7, 8, 9, 10, 11, 
    12, 13, 14, 15, 16, 17, 18, 19, 20, 21, 22, 23, 
    24, 25, 26, 27, 28, 29, 30, 31, 32, 33, 34, 35, 
    36, 37, 38, 39, 40, 41, 42, 43, 44, 45, 46, 47, 
    48, 49, 50, 51, 52, 53, 54, 55, 56, 57, 58, 59, 
    60, 61, 62, 63, 64, 65, 66, 67, 68, 69, 70, 71, 
    72, 73, 74, 75, 76, 77, 78, 79
};

const float weight_3_values[] CSR_PROGMEM = {
    0.00155495f, -0.00194185f, -0.00214501f, -0.00200119f, 0.76416832f, 0.17092323f, 0.51405191f, -0.00155624f, 
    0.31960946f, -0.00260781f, 0.00183309f, 0.00154583f, 0.00151996f, 1.38275015f, 0.00179433f, 0.00167281f, 
    -0.00215100f, -0.00215785f, -0.00329673f, 1.36454332f, 0.00247494f, -1.03648353f, 0.00363330f, 0.00194083f, 
    0.39661363f, 0.00179860f, -0.00185126f, 0.00181255f, -0.00329710f, -0.00190829f, -0.00155604f, -0.00211340f, 
    -0.22779448f, -0.93574685f, -0.00246680f, 0.00246517f, -0.00203939f, 0.00182644f, 0.32706988f, -0.00329925f, 
    0.00329758f, 0.00249504f, 0.53792894f, -0.57221681f, 0.15224925f, -0.00195696f, -0.00163985f, 0.73349530f, 
    -0.00247373f, 0.00247291f, 0.00239790f, 0.00417611f, -0.00215882f, -0.00367474f, -0.00260208f, 0.00241613f, 
    -0.00150171f, -0.00246325f, 0.71512872f, 1.03587449f, -0.00180947f, -0.57666421f, -0.72209287f, 0.00162260f, 
    -0.10946430f, 0.89516777f, -0.00188515f, 0.47756493f, 0.00310348f, 0.16059047f, 0.00201009f
};

const int32_t weight_3_indices[] CSR_PROGMEM = {
    1, 3, 8, 19, 22, 25, 27, 28, 35, 38, 42, 44, 
    47, 48, 49, 50, 54, 55, 56, 57, 58, 63, 68, 69, 
    70, 75, 76, 77, 3, 9, 10, 18, 25, 27, 32, 36, 
    43, 46, 48, 50, 54, 56, 57, 62, 63, 65, 68, 70, 
    77, 0, 1, 3, 6, 7, 9, 13, 18, 21, 22, 25, 
    26, 27, 35, 36, 48, 57, 60, 63, 64, 70, 72
};

const int32_t weight_3_indptr[] CSR_PROGMEM = {
    0, 28, 49, 71
};

const float bias_3_values[] CSR_PROGMEM = {
    0.26926064f, 0.28004718f, 0.10316411f
};

const int32_t bias_3_indices[] CSR_PROGMEM = {
    0, 1, 2
};

typedef struct {
    const float* values;
    const int32_t* indices;
    const int32_t* indptr;
    int32_t nnz;
    int32_t rows;
    int32_t cols;
} csr_matrix_t;

typedef struct {
    const float* values;
    const int32_t* indices;
    int32_t nnz;
    int32_t size;
} csr_vector_t;

const csr_matrix_t weight_1_csr = {
    weight_1_values, weight_1_indices, weight_1_indptr,
    103, 80, 3
};

const csr_vector_t bias_1_csr = {
    bias_1_values, bias_1_indices, 80, 80
};

const csr_matrix_t weight_2_csr = {
    weight_2_values, weight_2_indices, weight_2_indptr,
    1826, 80, 80
};

const csr_vector_t bias_2_csr = {
    bias_2_values, bias_2_indices, 80, 80
};

const csr_matrix_t weight_3_csr = {
    weight_3_values, weight_3_indices, weight_3_indptr,
    71, 3, 80
};

const csr_vector_t bias_3_csr = {
    bias_3_values, bias_3_indices, 3, 3
};

#ifdef ARDUINO
#define READ_PROGMEM_FLOAT(addr) pgm_read_float(addr)
#define READ_PROGMEM_DWORD(addr) pgm_read_dword(addr)
#else
#define READ_PROGMEM_FLOAT(addr) (*(addr))
#define READ_PROGMEM_DWORD(addr) (*(addr))
#endif

static inline float get_csr_weight(const csr_matrix_t* csr, int row, int col) {
    int32_t start = READ_PROGMEM_DWORD(&csr->indptr[row]);
    int32_t end = READ_PROGMEM_DWORD(&csr->indptr[row + 1]);
    for (int32_t i = start; i < end; i++) {
        if (READ_PROGMEM_DWORD(&csr->indices[i]) == col) {
            return READ_PROGMEM_FLOAT(&csr->values[i]);
        }
    }
    return 0.0f;
}

static inline float get_csr_bias(const csr_vector_t* csr, int index) {
    for (int32_t i = 0; i < csr->nnz; i++) {
        if (READ_PROGMEM_DWORD(&csr->indices[i]) == index) {
            return READ_PROGMEM_FLOAT(&csr->values[i]);
        }
    }
    return 0.0f;
}

#endif // MODEL_PARAMETERS_CSR_H
