float weight_1[] = {-0.6821956, -0.5085878, 0.56946146, -0.0004684256, -0.0022667553, 0.0014999781, 0.649529, -1.5953776, -0.0013176791, -0.017582914, 1.5302898, 0.32304755, -6.0998078e-05, 0.0016823496, -0.0007775634, -0.001816812, 0.0014659608, 0.0017728095, 0.0023914517, 5.1217416e-05, 0.0006120786, -0.0033017388, -0.002157689, 0.0012872634, 0.0044689267, -0.0013553406, -0.0019836915, -0.001232244, 0.000104565755, 0.0015078177, 0.00036697212, 0.0015999615, 7.306953e-06, -0.0010620763, 0.0012905371, 0.003097985, 1.2609499, -1.5182612, -0.2503198, 0.00050128053, 0.00056614744, 0.0013820903, -4.7504007e-05, 2.4833502e-05, 0.012862926, -1.087383, 0.72569734, -1.1213032, -0.0032720363, 0.0013346697, 0.0005150491, 0.15621535, 1.4974799, -0.33798373, -1.105296, -1.3005043, -0.4394209, -0.0011724116, 0.002319311, 0.0008490583, -0.00019115937, -0.0032999017, -6.6256325e-06, 0.8982292, -1.2137204, 0.13430263, 0.003056745, -0.0014554355, 0.00032755526, 0.0014422616, 0.00096612266, -0.0017394125, -0.0009882817, -0.0012176572, -0.00018182572, 0.0015407645, -0.0016743524, -0.0018871493, -0.0008511243, -0.00024987094, 0.0009945676, 1.0656505, 0.18295872, -1.0551598, -0.13071986, -0.8036944, -0.7433835, 0.002215974, -0.001779335, 0.0011328656, 1.4819809, -1.5871359, -0.5178396, -0.0021126433, -0.0017641083, -0.0021302726, 0.00076559186, 0.0001830068, 0.0006418018, -0.0026389793, -6.3173706e-05, 0.0063504037, 0.0010744757, -0.000536046, -0.0010562908, 0.5767011, 0.32298848, -0.8628403, -0.0019999403, -0.0018568628, -0.0017613457, -0.2671069, -0.09287265, -1.3980013, -0.0020913032, 0.00029903965, 0.00092435506, -1.0926927, 0.13645086, 0.9747815};
float bias_1[] = {0.46476138, -0.0056226617, 0.060053412, -0.48058367, -0.47286254, -0.2010087, -0.25460306, -0.1426556, -0.2331326, -0.27543497, -0.4230557, -0.12159453, 0.3043962, -0.002869093, -0.1318197, 0.35532397, -0.030637834, -0.75622517, 0.49266618, -0.09274265, -0.18560885, 0.37899414, -0.0062837345, -0.25388238, -0.005462541, -0.5708174, -0.42494145, 0.15333216, 0.073544465, -0.5136849, 0.03807738, -0.053873204, -0.002504883, -0.41103595, -0.2580594, -0.007704441, -0.014035408, 0.69390583, -0.46122247, 0.09568842};
float weight_2[] = {-0.84942955, -0.00023526757, -0.0016125597, 1.6157484, -0.0018513897, 0.00095756695, 0.0011265203, -0.0009794672, 1.8468389e-05, -0.0026160737, -0.00086036965, -0.00065030425, 0.28490415, 0.00063358643, -7.673116e-06, -0.24020198, 0.0006794973, -1.0615029, -0.0005365474, 0.0006849689, -0.0006200537, -0.21269226, -0.0017082694, -0.000686591, 0.00057462836, 0.0015080085, 0.00036919437, 0.11022837, 0.0007083672, 0.004310785, 0.6482835, -0.00018429157, 0.0017790394, 0.0012832313, 0.0009263736, 0.18727803, -0.0006186182, 0.3170449, 0.0015611817, 0.2623847, -0.0005654695, -0.0008150283, -0.0009173855, 0.0007674034, -0.0012236678, 0.0018553054, -0.00036120176, 0.0013359205, -0.00025461096, -0.000273148, -0.0063879695, -0.0014608079, -0.0020117697, 0.00012955448, 0.0021623303, -0.0012340837, -0.001314239, 0.0024625547, -0.00091562385, -0.00065098674, -0.0004120347, -0.00058969244, 0.0021441965, 0.0014656979, -0.0019420964, -0.0011318596, -0.0026129736, 0.0019420871, 0.0025031888, 0.00010086034, 0.0013696569, 0.0007735545, 0.0012983623, -8.085265e-05, 0.0023932443, -2.4309964e-05, 0.0008962934, 0.00036492746, -0.0006620244, 0.0021557698, -0.0025070673, 5.3614727e-05, -0.0011242745, -0.0004806599, -0.0010392007, -0.00022326282, -0.0046388693, -0.00048075255, -0.001958264, 0.0008067252, -0.0009403588, 0.00033892784, -0.00015386303, -0.0012730625, -0.0024486943, 0.0012888632, -0.0009571188, -4.872796e-06, -0.0027007894, 0.0005956894, 0.0016135523, -0.00014812608, -0.00036732096, -0.00092423626, -0.0016595972, -0.0016457677, 0.0014032921, 0.0024651303, 0.00019213127, 0.0005460655, -0.002048199, -0.0039413404, 0.0005140451, 0.00084765826, 0.0016197142, 0.0011927527, 0.00025550276, 0.0005447393, -0.00088495883, -0.0016986245, 0.00091256713, -0.0007697347, 0.00091001624, 0.00091178995, -0.0016046409, -0.001301436, 0.0012161776, 0.001151195, -0.0014071146, 0.0016948485, 0.00055668066, -0.0006823434, 0.0009033735, -0.003525572, -0.00094514, -0.00078192784, -0.0008238999, 0.0023461236, -0.004447995, -0.00023846264, 0.0015750057, -0.0010017798, 0.00020955375, 0.0016485912, -0.0017206115, -0.0009485247, -0.001248311, 0.00042164073, 6.948158e-05, 0.0020627703, 0.0030228295, 0.0013872392, 0.0012758841, -0.0013518312, 0.00039929035, -0.00095173536, 0.00074810506, 0.0008852037, 0.0008194371, -0.00077281595, 0.10925598, -0.0012391001, -0.002416586, 0.026514638, -0.00018797179, 0.0012140514, 0.0023795196, -0.00039328483, 0.00029367776, -0.0010662571, -0.0007240453, -0.00027661945, 3.9091203e-05, 0.00078124146, -7.2585855e-05, 0.20294972, -0.001582255, -0.014062257, 0.7144386, -0.00014005892, 0.0011400357, -0.16277319, 0.0012806081, -0.000781578, 0.00144458, 0.0012606941, 0.00022433934, -1.722694, 0.1511813, -4.1613763e-05, -0.22153953, 0.00036593934, -0.0001333885, 0.00087153923, -0.0010288744, 0.00062387425, -0.00040784632, 0.004642443, 0.0010241253, 0.41895825, -0.0017345892, -0.00013606355, 0.0003769981, 0.00073298626, -0.0006827755, 0.00029972522, -0.00035655554, -0.0005515385, -0.0015057495, -0.0011214667, -0.0014769814, 0.003341054, 0.0003127983, 0.0020564818, 0.00021437411, -0.00048713852, 0.0007488794, 5.4263917e-05, 0.0012908991, -0.0014556635, 0.0004602417, -0.0003367141, 0.0006963454, 0.002046349, 0.0005389331, 0.0011333313, -0.0023439473, 0.0036716536, -0.00078608387, -6.274713e-05, 0.0003849711, 0.002133004, 5.2448948e-05, 0.00024416205, -0.0010081286, 0.0028466915, -0.00074375933, 0.0007939267, -0.00027005794, -0.0021960298, 0.0025010894, 0.00041834614, -0.0014639287, 0.00024744042, 0.00092133787, -0.0046290047, 0.0017070317, 0.0024086619, -0.00093934126, -0.0010083538, 0.0018712954, -0.00061520626, -0.0033222623, 0.00051917334, -0.0012221218, 0.00039592548, -0.0012637798, -0.0005890303, -0.0004887199, 0.0013542839, 0.0005270071, -0.0007119848, 0.0009801444, -0.0003161116, 0.00016195845, 0.0004480998, -0.00031370381, -0.00064074184, -0.0005375498, 0.00076021336, -0.0011222358, -0.0006852599, 0.0014296855, 0.0014570951, -0.00075237406, -0.00076750794, 0.0005132209, 0.0009145612, -0.0022259261, 0.0030925628, -0.00093411957, -0.00047419866, 0.0008762953, -0.00024030649, 0.00032474566, 0.0005612414, 0.0036459444, 0.00033967133, -0.0014849154, -0.0008506856, 0.00025644666, 0.00050137483, 0.0013617796, 0.00055760995, -0.0015151695, 0.00019153266, -0.00016227609, -0.0014015919, 0.0014019108, -0.00031087038, 7.207034e-05, 3.4295314e-05, 0.0008479602, 0.0008880517, -0.00026979845, -0.001505397, -3.7721838e-06, 0.0006391539, -0.0008870446, -0.001801285, 0.0016946426, -0.0012436316, 0.00065376353, -0.00046537502, 0.0008781827, -0.0013389047, 0.0008912578, -0.0019162954, 0.0017895938, 0.0027018632, -0.00066838233, 0.0008338676, 0.0013562463, 0.00010072661, 0.00024468324, -0.0016011932, 0.00022624107, 0.00043803093, 0.0034162677, 0.00067750615, -0.0031190957, 0.0003274663, 0.0011936481, -0.00045128656, -0.00029884253, -0.00072421547, 0.00089171017, 0.0002252332, -0.0004426118, -0.0003892463, 0.0023812368, -0.0013449185, 0.002346038, -0.00059226283, 0.0015183052, 0.0019941637, 0.0039906446, -0.0012632004, 0.003095928, -0.0008044253, 0.0006927629, 0.0012949436, 0.0012610676, -0.0015770154, -0.001109274, -0.00070609676, -0.0012012429, 0.00027761084, -0.00073066883, 0.0022430266, 6.7327055e-06, 0.0007342503, -0.0016927645, 0.00056996965, -0.0003340022, 0.004599172, -0.00014646963, 0.0008834197, -0.0013777467, -0.0003838545, -1.4124023e-05, -0.0010014581, 0.00036685017, 0.002613, -0.0012063385, -0.0017169693, 0.0025437227, 0.0014451325, -0.0016568748, -0.0022510837, 0.0005964377, 0.0004506552, 0.00049452594, 0.00044161803, 0.0011238704, -0.00031410647, -0.0005057752, -9.0573216e-05, 0.00017569266, 0.0009887721, 0.0001365366, -0.0018119515, 0.00030679256, -0.0007734054, -0.00020893046, -0.0019471645, 0.00088021444, -0.0022581532, -0.0014836479, -0.0007537112, 0.001189416, -0.0015883713, 6.733717e-05, 0.0013926667, -0.0012753491, -0.0008234121, -0.00066030456, 0.0022131677, -0.00044383024, 1.20203185e-05, 0.0014152278, 0.0016624549, 0.000647443, 0.0040635746, -0.0013867295, -0.0026835373, -0.0012111302, 0.0012433126, -0.0019946015, 0.002291904, 0.00063639483, -0.0015103864, -0.00010638684, -0.0001529856, -0.00032721506, 0.0010007276, 0.0012736194, 0.0007093321, -0.0025513151, 0.0016184775, -0.00018937129, -0.00075593137, 0.00078669284, -0.000984654, -5.576406e-05, 0.00046550727, -0.0013222198, 0.000534446, 0.003300109, -0.0013138975, -0.18505923, -0.0011855956, -0.00012125261, 0.45525765, 0.001810083, 0.0009115226, -0.0009575748, -0.0006614839, 0.00037608092, -0.0024968642, 0.00028270856, 0.002389391, -0.00213144, -0.0007196158, -1.5278514e-05, 0.0018080215, -0.0011929966, 1.8711435e-05, -0.0016873041, 0.0003980949, 0.00215472, -1.2078359, -0.00031689668, 0.0014625015, 0.00030042557, 0.0014858963, 0.0006264176, -0.26674128, -0.00046689343, 0.00037184905, 0.0010285777, -0.00068377954, 0.0011231422, 0.00047257915, -0.0017925311, -2.9678864e-05, 0.0008165443, 0.0026057304, -0.0037803221, -0.0025853738, 0.0014057354, 0.00047342223, 0.00080870045, 0.00047841755, -0.003637136, 0.00022954034, -0.0016136207, 0.00012658624, 0.001665931, -0.0002669498, -0.0014710266, 0.0014013778, -0.0005979351, 0.0013019671, -0.002554176, 0.0019367329, 0.002147646, 0.002016014, 0.00082250976, -5.5211654e-05, -0.00081057486, 0.000316952, 0.0014235007, 0.00084152614, -0.00059409696, -0.002049046, -0.0014464632, -0.0012600415, 0.0006910741, 0.0010251921, -0.0007562599, 0.0012363341, -0.0012821555, 0.0005994016, -0.00016760244, -0.0012661349, -0.0007581649, -0.0010503752, 0.0020776885, -0.00055076106, 0.0016334355, 0.003573672, -0.0005036292, -0.0017218469, 0.0022315446, -0.0011157983, 0.0014370341, 0.0012878764, -0.00043469353, -0.0022015774, -0.0021743458, -0.0013289677, -0.0024000308, -0.0012973634, -0.0010680329, -0.001542049, -0.00051804015, -1.656689e-05, 0.0010672059, -0.00034645898, -0.00033859984, -0.0014210768, 0.0017444615, -6.972419e-05, 0.0011428895, 0.0014090193, 0.00019465154, -0.0013395974, 1.1348195e-05, 0.0020655664, 0.0006644136, 0.00051997404, 0.00062591134, -0.00012264399, -0.00193013, -0.0012217327, 0.0005780689, -0.000213539, -6.561373e-05, -0.0017285788, 7.8055054e-05, 0.001837433, 0.5038553, 0.4629478, -0.0010525036, -0.0008893865, -0.000467834, -0.00022476545, 7.428067e-05, -0.0008873334, -8.790012e-06, -0.000123979, -0.26281738, 2.2312044e-05, 4.829891e-05, 0.31786814, 0.0032707497, -0.05182449, -1.2792238, 0.001636286, -0.0016226061, -0.014332097, 0.00025848742, -0.0017575254, -0.0005803329, 0.0037885108, -0.0014877839, 0.15344764, -0.00077610515, 0.0004744194, 0.00052308396, -0.0015419812, -0.0032872446, -0.0022823624, -0.00059639744, 0.00034818682, -0.00012464379, 0.12816289, -0.00016301079, 0.10986364, 0.000502896, -0.0029155107, 0.0011187023, 0.0021583461, 0.0026804379, 0.001127488, 4.655961e-05, 0.00060325087, 0.0012522596, -0.001273515, -0.00027539063, 0.00036639103, 0.0047333664, -0.00048408296, -0.0011318702, 0.00048239413, 1.8121733e-05, 0.0014495435, -0.002409238, -0.0024523784, 0.0023681552, 0.0018983749, 7.6196826e-05, 0.0016158136, -0.00013081584, 0.0032611783, 0.00022547157, 0.0007378092, -0.0012030129, -0.00071586506, -0.00084006216, -0.0010695278, -0.0006404996, 0.00020107825, -0.0010293049, 0.00054498506, -0.0006302646, 0.0006712666, 0.0017753768, -0.001569507, -4.082251e-05, -0.0011900711, -0.0006966167, 0.0011086665, 0.0012317493, -0.0004752553, 0.00072880706, -0.0005770416, 0.0009123106, 0.0022224977, 0.0007386277, 0.0016394581, 0.00024009857, 0.00089429994, -0.00055826595, -0.0006759005, -0.0024848543, 0.0010402179, -0.0003692602, 0.00055097416, 0.001918642, -0.000761853, 0.00059063203, -0.0020440677, -0.0009398544, 0.006514324, -0.001854042, 0.0021848876, 0.00066095917, -0.00081868033, 0.00044324563, 0.0008196857, 0.0012342473, -0.00013379293, -0.00026086764, 0.001284528, 0.00020742818, 0.00030373558, 0.0016192929, -0.0012775704, 0.022255417, 0.0010744568, -1.0559683, 0.2652326, 0.00074968726, -0.00049010257, -0.0007362265, 0.00055315904, 0.00076184096, -0.0010611337, -0.003207631, -0.00032656026, -1.5856552, -0.0028361084, -3.6123674e-05, -0.3799726, -1.5771773e-05, -0.5464225, 0.17813994, -0.0011328561, -0.0031005666, 0.8225297, 0.0016269857, -0.00015758393, 0.00010681065, 0.00368076, 0.00024307363, -0.00017334487, -0.8392265, -0.0017380875, 1.0354502, 0.00067695347, 0.0008783192, 0.0009584385, 0.0005691036, -0.00989156, 0.0005302924, 0.8088841, 1.8265098e-05, -0.4093347, -0.0009336902, -0.0021673425, 0.0005741433, -0.0013407369, -0.00095405744, -0.0011217552, -0.000720183, -0.00022166484, -0.00019508367, 0.0018131965, 0.0008708963, 0.000903679, 0.00044046238, -0.0018130328, -0.0012673037, -0.0019250087, 0.0001567278, -0.0021579568, 8.4461295e-05, -8.165266e-05, -0.0036028149, -0.0047469023, 0.0018108111, 0.002007072, 0.0009745665, 0.0021537864, 0.0009809649, 0.0006573858, 0.0026837913, -0.0018695967, -0.0004733833, -0.0026250393, 0.0012555683, -0.00041489562, 0.0019829962, -0.00070128695, 0.00029341667, -0.0010472322, -0.0008410858, 0.0019481264, -0.0036250348, 0.0013477427, 0.0021795512, 0.0018485413, -0.0013358197, 0.0017448405, -0.0015654664, 0.002369771, 0.0017710386, -0.0010970221, 7.4144424e-05, 0.00046900852, -0.0012495661, 0.0025005294, 0.000816095, -0.0011427454, 0.00065243355, -0.00015430851, 0.0002362784, -0.0012669337, -0.0018429683, 0.0018654051, -2.29523e-06, -0.00051672925, -0.00021076057, 0.0026394078, -0.00057567714, -1.1858534e-05, 0.0016549794, -0.002481414, 0.002956511, 0.0016293952, -0.00028974196, -0.004026534, -0.0005307025, 0.0007940144, 0.0017365749, 0.0036976198, -4.3729553e-05, 0.000609602, -5.2252843e-05, 0.0005774017, -0.0008444791, -0.0017889505, 0.0013331677, -0.001849525, 5.0721937e-05, -0.0006642048, -0.0007475364, -0.0011192758, 0.0016346619, -0.0012143573, 0.0007553679, -0.00080436486, 0.0016600776, -0.0018230239, 0.00036261993, -0.0031123103, 0.0010238071, 0.0012072297, -0.001359021, -0.00013155746, -0.0011774227, 0.0007453157, -0.0019089717, -0.00035042243, -0.001263379, 0.0015951582, -0.0016615295, 0.0020445483, -0.00063174265, -0.0004248294, -0.0007364942, -0.0010769146, -0.004095031, -0.0008618939, -0.0004525541, -0.003101711, -0.0008807677, 0.0001703105, -0.00021534419, 0.0006413865, -0.00021605747, -0.0024651121, 0.0022929364, -0.00018381188, 0.0005039279, -0.0010454624, 0.0008762403, -0.0023114216, -0.0033218546, 0.00016976846, -0.0021618404, 0.0012864276, -0.0025539882, 0.0031254357, 6.471379e-05, 0.0010285263, 0.00035634186, 0.0028052027, -0.0006709629, -0.0020405124, 7.061532e-05, 0.0040799063, -0.0010393253, -2.013566e-05, -1.5697238e-05, 0.0011227905, -0.0022470804, -0.0010556033, 7.090234e-05, -0.0016301037, -0.0004960377, -0.00012196088, -0.0022529215, -0.0004929579, 5.2863266e-05, -0.0026298342, 0.000380225, 0.0012549745, 0.0020624197, 0.0019386335, -0.0016032928, -0.0011893816, -0.0044344706, -0.004207728, -0.00090902625, -0.00015692058, 0.0012281581, 0.0003445818, 0.0010526422, -2.907042e-05, 0.00014369638, -0.0005894682, 0.0008261627, 0.0010690221, 0.0021587492, 0.00074135617, -0.00010924775, -0.0010184036, 0.000672237, -0.0014761769, 0.0024378805, 0.0014108518, 0.00066897686, 0.0002509472, 0.0024883314, -0.002158358, 0.0004214106, 0.0006314545, -0.0018806241, -0.00056621816, 0.0024744645, 0.0012935481, -0.0006312894, -0.001297559, 0.001212433, -0.0021671434, 0.004167704, 0.00078109396, -0.0007330637, -0.0012491829, 0.00053832243, 0.00022055232, 0.0010051929, 0.00023132551, -3.7453428e-06, -0.004183476, -0.0017432133, -0.0009702079, -0.0006644641, 0.0004700313, 5.7421217e-05, -0.00128739, 0.0006483862, -0.0020454563, 0.00427505, -0.003115051, 0.0022860765, 0.0010303998, 0.0006571781, -0.0011845246, -0.0007862599, 0.0018469873, -0.0012960123, 0.0014209175, 0.00035531656, -0.0005192149, -0.0015402564, -0.0016270005, -0.00053705304, 0.0012011409, 0.0025938465, 0.00051596324, -0.0005991644, 0.00012603967, 0.00074026745, 0.0015127746, 0.003708438, 1.1911354e-05, -0.0010408093, -0.0007075199, -0.0011338881, -0.0018986706, -0.0005891945, -0.004636738, -0.003809841, -0.002143262, -0.0014754583, -0.0027143143, -0.003609958, 0.0011533954, -0.00013674505, -0.0012914528, 0.0001717892, 0.00017915398, 0.0015365148, 0.0003863125, -0.0006705138, -0.0012584265, -0.0015183275, -0.0021036486, -0.00286081, 0.0010775548, -0.0013657913, -0.00039278506, 0.00020739136, -6.139811e-05, 0.0027088933, 0.003688977, 0.00013453123, -0.0001100034, 0.0014054235, -0.0009832678, 2.2262233e-05, 0.0003759329, 0.000889223, 0.0004947671, 0.0019123103, 0.0012409897, -0.003113592, -0.00015211443, 0.0005257003, 0.00022482115, 0.00078470004, 0.00035306066, 4.233484e-05, -0.000117015385, -0.0015668054, -0.0008294643, 0.0011138406, -0.0012453116, -0.00052527466, 0.0042705014, 0.0004612418, 0.0009740971, -0.0012893949, 0.0021578886, 0.0047504394, 0.00067112007, -0.0006279584, 0.0005254601, -0.0008758582, -0.000349061, -7.722393e-05, -0.001129322, -2.7715578e-06, -0.0005309166, -0.0024520766, 0.0028503088, 0.0022097356, 0.00162746, -0.0012843139, 0.00020993745, 0.0029720566, 0.0012342511, -0.00049647246, -0.0010457684, 0.001700324, 0.0016897941, 0.0011220089, -0.0018192885, 0.0015771219, -0.0024218298, 0.0005518017, -0.002286201, 0.0013615496, -0.0014669388, -0.0014054291, -0.0007216321, -0.0004448438, 0.0016649505, 0.0010633732, 0.0014099979, -0.0017832175, -0.0017495387, 0.0027650779, 0.0007335829, 0.00089095853, -0.00040860768, 0.0008917602, 0.00070579135, -0.0009802022, -0.000533674, -0.0034809606, -0.0037226276, -0.002013878, -0.0005474391, -0.0039114747, 0.00021930342, -0.0010190692, 0.00022527593, -0.00054621533, 0.00044642057, -0.003519806, 0.000940072, -0.00044385967, 0.0006218826, -0.0038872948, -0.00016663759, -0.00045945996, -0.00032397927, -0.00046330155, -0.0012388916, 0.0019197811, -0.0013947149, 9.605488e-05, 0.0007130748, -0.003280646, -0.0008866714, -0.0007416016, -0.0005511355, 0.00036963355, -0.000469876, -0.00066724117, -0.0012038056, -0.0002638196, 0.00066190946, -0.00067531463, -0.00050588045, -0.0014346463, 0.0014755774, 0.0035739685, -0.0010625087, -0.0008517355, 0.0004316317, 0.00012429937, -0.0017612799, 0.00027926808, -0.000106582884, 0.0017672507, 0.0007585062, -0.00078604586, 0.0008847016, -0.0015240265, 0.0013946397, -0.00038705044, 0.0021388272, 0.0004010701, -0.0012401259, 0.0010910303, 0.002415929, -0.0015152259, 0.0016865837, -0.00028752748, -0.00029182993, 0.0017138764, -0.0005722394, 0.0038333016, -0.00224396, 0.0014925876, 0.0031105373, -0.0032284684, -0.00073110836, -0.0017890825, -0.0021979304, -0.0005081622, -0.0020156032, -0.0006099796, -0.0006804449, 0.0005589832, 0.0021143567, -0.0006513171, -1.5660917e-06, -6.2136416e-05, 0.0017911291, 0.00021899858, 0.0010280268, -4.9492286e-05, -0.0003285358, 0.00015474239, 0.0016163546, -0.00017870334, -3.494788e-05, -0.00046329768, -0.0035881212, -0.00011440361, 0.0014829506, -0.00068904227, 0.00044777794, 0.00033638842, -0.0008797687, -9.620504e-06, 0.0010485162, -0.0012455606, 0.0026174262, 0.003918157, -0.00049644767, 0.0010841379, -0.00042989766, -0.0009862098, 0.0009799151, 0.41414943, 0.0018189872, 0.00011415168, 0.0003244002, -0.00161276, 0.15703501, -0.0009571803, -0.0005380495, 0.00018417818, 0.012893826, -0.00089003943, 0.0009878433, 0.0018423669, -0.0017156738, 0.00040260516, -0.03333037, 0.0019089031, -0.00048225682, -0.19092885, 0.0005947651, 0.0007359887, 0.0017105038, -0.0007370481, -0.24585299, 0.0010121118, -0.37807858, 0.0022193429, -0.40269318, 0.0012364734, -0.0032881247, 0.00049699645, 0.00044282954, -0.001297855, -8.170481e-05, 0.0008042103, -7.808913e-05, 0.0003934193, 0.0003285898, 0.002401796, 0.0003291554, -0.001256854, -0.00091632886, 0.00030047994, 0.002647186, 0.0034811418, -0.00050710724, 0.0014124368, 0.0010213836, 0.0006451506, 0.0005910249, 0.0007809568, -0.0030061998, 0.0006008342, -0.000996501, 0.0015978878, 0.00088187173, -0.001232134, 0.0011290265, -0.0014999949, 0.0006071497, 0.00015589493, -0.0006159463, 0.0003909513, 0.00010566751, 0.0032656589, -0.0028309526, 0.000680286, -2.0214284e-06, 0.52498215, 0.001031986, -0.00017108006, 0.45697394, 0.0014535984, -0.0019453926, 8.407887e-05, -0.0004917106, -0.00015773042, -0.0013577931, 0.0006715304, 0.0013124179, 0.0072952756, -0.0015084539, 2.2265882e-05, 0.00048804292, 0.0011098161, 0.10715163, 0.023821617, 0.00056129554, -0.00028971536, 0.002629859, 0.0011256706, -0.0026574992, -0.0007464752, 0.0018742055, 0.0019848621, -0.3860407, 0.49158645, -0.0027136316, -0.056189157, 0.0012642948, 0.00067137595, -0.0018622176, -0.00045654498, -0.7058665, -0.0007210501, 0.11052373, -0.0043499894, -0.04544617, 0.0009733076, -0.0007853547, 0.0011293964, 0.0038008075, -4.823436e-06, -0.0017987876, -5.1215364e-05, -0.0014483936, -0.002555726, 0.00080999744, 0.0016341202, -2.3845758e-05, -0.0014298293, 0.0005477796, 0.0012708626, 0.0011596305, 0.0010775429, -0.0008575733, -0.00028928882, -0.00028141207, 0.001767296, 0.0024094135, -4.269881e-06, -0.000564, 0.0003434223, 0.0009225616, -0.0013737972, 0.00359722, 0.00095872814, -0.0014392928, 6.8541645e-05, 0.0005813738, 0.0007214525, -0.0006146658, 0.00037891627, -0.0010892523, 0.0010887403, -0.006387597, 0.001134186, 9.847751e-05, -0.00038896987, 0.0018592082, 0.00015746627, -0.0026902757, -6.403195e-05, -0.003611376, -0.00078196294, 0.002473333, -0.00097462954, 0.0024146256, -0.0018525287, -0.0009882543, -3.5943085e-06, 0.00074891385, 0.00067008607, 0.0007299967, 0.00088110607, -0.0006025669, 0.00030959374, -1.7882558e-06, -0.0020846506, 0.0024651298, 0.0012897253, 0.00062110974, -0.0012805632, 0.00027784012, -0.0023551658, -0.0008131499, -0.0014426985, 0.00021278765, -0.0014468282, -0.0015872067, -0.0012971446, 0.00029671832, 0.0016507, 0.001287677, 0.0047489577, -0.00017024553, 0.0012915186, 0.0028496676, -0.059453998, -0.00061542296, -0.3251549, -0.5997151, 0.0013159314, 0.00086154207, 0.0014029746, -0.0014522811, 1.5593614e-06, -0.0014930967, 0.0022842013, -7.156865e-05, -1.3039058, 0.0019367624, -8.58372e-07, 0.62069964, -0.0004585246, 0.5927595, -0.0006675663, 6.6378096e-05, -0.003055178, 0.74093634, -0.0002722199, -0.0016110823, -0.0005557367, -0.0022632424, -7.69617e-05, 0.29152593, 0.0006490895, 0.0013050319, 1.0846355, 2.107393e-05, -0.003294326, 0.00073054293, -0.0015402009, 0.00012068166, -0.0011716214, -1.2397889, -0.0004065433, -0.62611645, -0.00022733683, 0.00059001235, -0.0013556553, 0.0010569659, 0.00038731695, 0.0005771918, 0.0005505695, -0.0003938868, -0.0015706631, -0.00026702648, -0.00043694372, 0.0017364044, -0.0032911077, -0.003437762, 0.00045790244, 8.3927356e-05, -0.0013314676, 0.0010285573, 0.00012800423, -0.002869358, -0.0008968415, 0.0007454513, 0.0042890403, -2.5670102e-05, -0.0007229439, -0.0024029526, -0.000664291, 6.406644e-05, -0.0009914973, -9.4620395e-05, -0.00018227515, -1.0095333e-05, -0.0011908335, 0.0016803187, -0.0007510141, -0.0029370347, 0.0010617529, 0.0033211322, -0.0019984376, -0.0008388566, 0.0006224314, 0.0001123969, 0.00014613016, -0.002176309, 0.0017700718, 0.0016410914, 0.0005764335, 0.00046412463, 0.0009810166, 0.0016239503, -0.0014826681, 0.0002451915, 0.00033465022, -0.0016596359, -0.001079096, 0.0012944072, 0.0018711551, -0.001123949, 0.000740253, -0.0009579528, -0.0025565308, -0.00017507357, 0.0015118133, 0.000816233, -0.0028252252, 0.00015380338, 0.0005322549, 0.001867167, 0.000903605, 0.0012807718, 0.0027695268, 0.0009621307, -0.0006160099, -0.0023657219, -0.0010706257, -0.0012368211, -0.0022436546, 0.0008091813, 0.0017697972, 0.0014456231, 0.418673, -0.0015338574, -0.13734801, 0.16814786, 0.0008079408, 0.00028861372, -0.0011101195, 0.00034279202, -0.0001990789, 0.001958196, -0.00091720396, 0.00011789106, 0.14431019, -0.0014625662, 0.00025271482, -0.49645057, 0.00080746505, -2.2234802, -0.45010096, 0.0013459461, -0.001230896, 0.17180836, -0.0020446188, 0.0019487645, 0.00071120146, 0.00048101268, -0.0005150188, 0.23411041, -0.00028196062, 0.00276218, -0.5570486, 0.0012351335, 0.0011265685, -0.000647666, 2.6461552e-05, -0.50779563, 0.0013264674, -0.0854978, 0.0009782028, 0.07219272, -0.0017433157, 0.00051451824, -0.00087051955, -0.00044284016, 0.00033423177, 0.0019278782, 0.00013387864, -0.0009019728, 0.0028666635, 0.0011076373, -0.00039451537, -0.0012128325, 0.0011070445, 0.0010035882, -0.0006799707, 0.0009959737, -0.0014676142, -0.0012373814, 0.00049663207, 0.00087064237, 0.00096770684, -0.0036045194, -0.0012763549, -0.00033335332, -0.0025288719, -0.0010740991, -0.0011109696, -0.00057394226, -0.00115791, -0.0004490771, -0.0025466187, 9.719748e-05, 0.0013833568, -0.0022487915, 0.0021828376, 0.0017533163, -0.0010230413, 0.0010993172, 0.002989302, -0.001546072, 0.0028333322, -0.0024736454, -0.001220322, 0.00036352783, 0.0017475638, 0.0025892332, 0.002032049, 0.0016288913, -0.0008746466, -0.0006017665, 0.0017711301, 0.002356385, 0.00022364105, 0.000750413, -0.00066262734, -0.00047693797, 0.0002899177, -0.000489044, -0.001648424, 0.0030991235, 0.0010956881, -0.00089745916, 0.00089918554, -0.0008879696, 0.0016222266, -0.0013927899, 0.0011000619, -0.0013140885, 1.2245029e-05, -0.0018413414, -0.00024265904, -0.00058392383, 0.0014162785, -0.0012652806, 0.0010301316, 0.0018715941, 0.0002830349, -0.00089618884, 7.0346956e-05, 0.00022384297};
float bias_2[] = {-0.39445895, -0.007747698, -0.14067984, -0.04337126, -0.06753292, -0.123629555, -0.04233071, -0.0066461014, -0.14951168, -0.0067550153, -0.11554569, -0.01860372, -0.017532274, -0.14157945, 0.09040919, -0.04518206, -0.0074025313, -0.22952646, -0.09990953, -0.08791324, -0.14938736, -0.0145189995, -0.1469568, -0.13690709, -0.053212937, -0.1995593, -0.10688235, -0.12690544, -0.08977877, 0.092488505, -0.024671232, 0.14974633, -0.11384325, -0.23447928, 0.31711876, -0.011907093, -0.146705, 0.3314336, -0.08829498, -0.13420226};
float weight_3[] = {1.3273565, 0.0006018811, 0.0011515683, 0.000101725105, -1.5867791, -0.0011611716, -0.0012906953, 0.00069364294, 0.00013916506, 0.00051565, 0.00088381674, -0.5351959, 0.0020017119, -0.00025360123, -0.65074074, -0.0020158403, -0.0014682184, -1.0921297, -0.0010515014, 0.00028797053, 0.0013466964, 8.407919e-05, -0.0023893404, -0.00017491414, 0.00047686594, -0.0007400947, 0.0011676955, 0.0015615004, 0.0005902375, -0.033271007, 0.00264182, -0.8905543, 0.00086265523, 0.0003020675, 0.11110474, -0.0010723071, -0.000105533894, 0.7251341, 0.00041840388, -0.00053108897, 0.40794015, 0.00066090905, -0.00067049684, 0.0018319705, -0.19878855, -2.5460322e-05, -0.00048057188, 0.00024400325, 0.00028688245, 0.00025747594, -0.0009151217, -0.51602185, -0.0013991767, -0.0008072891, 0.81145746, -0.0018640282, 0.0011874859, 1.5088706, 0.0042748014, 0.000481083, 0.0011806926, 0.0010557107, -0.00021466968, -0.0012883481, 8.488947e-05, -0.0003031001, 0.0001270576, -5.2090734e-05, -0.00059569505, -0.61394805, -0.0013049659, -0.0012879404, -0.00034952653, -2.4230336e-05, -0.5373031, 0.0015542218, 0.0009921498, 0.3591384, -0.0027220824, 0.0028016893, 0.34690225, -0.0024721818, 0.0008408041, 0.0012947359, -0.07206321, 9.0191024e-05, -0.001008937, -0.0011229622, 0.00017904112, 0.00046469163, 0.0027108253, 0.5753721, 0.00046889286, 0.00047999725, 0.17250122, -0.001066309, 0.00022289949, -0.3388463, 0.0007513893, -0.0009961862, -0.0004844186, -0.0011886795, 0.0014184933, 0.0014181403, -0.0013013729, 0.002155338, 0.0005366153, -0.00053618586, -0.00049753406, 0.47733417, 0.0008029983, 0.28782004, -0.00025552002, 0.0012892841, -1.6910294, 0.002009624, 0.000106743246, 1.131022, -0.0006160778, 0.0018104428};
float bias_3[] = {0.6072156, 0.1324042, -0.057321254};
