// CSR Neural Network Parameters
// Weight threshold: 1e-07, Bias threshold: 1e-06
#ifndef MODEL_PARAMETERS_CSR_H
#define MODEL_PARAMETERS_CSR_H

#include <stdint.h>
#ifdef ARDUINO
#include <avr/pgmspace.h>
#define CSR_PROGMEM PROGMEM
#else
#define CSR_PROGMEM
#endif

const float weight_1_values[] CSR_PROGMEM = {
    -0.00193607f, 0.00052621f, -0.00039820f, 0.00033500f, 0.00148302f, -0.00061115f, -0.00066593f, -0.00040665f, 
    0.00013321f, 0.21376017f, 1.24363256f, -1.65688694f, 0.00042599f, 0.00055567f, -0.00246759f, -0.75898194f, 
    1.09364188f, 0.86708134f, 0.00160098f, 0.00153420f, -0.00142286f, 0.00317895f, -0.00008820f, 0.00038351f, 
    -0.00056323f, 0.00184774f, 0.00174891f, 0.00053715f, 0.00106842f, -0.00242931f, -0.00073490f, -0.00028141f, 
    -0.00010100f, 0.00232020f, -0.00467277f, 0.00051509f, -0.00218122f, -0.00058589f, -0.00099029f, -0.00092654f, 
    -0.00180095f, 0.00278617f, -0.00045589f, 0.00182896f, -0.00022800f, 0.92820764f, -0.79813915f, 1.00597382f, 
    -0.35479736f, 0.00110594f, -1.64801550f, -0.00086629f, -0.00178391f, 0.00243666f, 0.00043496f, 0.00176183f, 
    -0.00005910f, 0.00044605f, 0.00144468f, -0.00077993f, 0.48854610f, -1.16831195f, -1.08690906f, 0.00067094f, 
    0.00004107f, 0.00325380f, -0.00197916f, 0.00162390f, -0.00139183f, -0.00216619f, 0.00093403f, 0.00023368f, 
    0.00143354f, 0.00142301f, -0.00128964f, -0.00064254f, 0.00125849f, 0.00130743f, 0.00045561f, 0.00056331f, 
    0.00155860f, 0.00068252f, -0.00329242f, -0.00029788f, 0.00066600f, -0.00006112f, 0.00038579f, -0.00008048f, 
    0.00000954f, -0.00165847f, 0.00045320f, -0.00112489f, 0.00048023f, 0.00079754f, -0.00072128f, 0.00094376f, 
    0.00066458f, -0.00130709f, 0.00035128f, -0.00423062f, -0.00058315f, -0.00112120f, 0.00142330f, -0.00071655f, 
    0.00126105f, -0.00075181f, -0.00080951f, 0.00048680f, 0.00001195f, 0.00040199f, 0.00183002f, 0.00145036f, 
    -0.00093098f, -0.00022321f, 0.00014100f, 0.00285373f, -0.00194075f, 0.00010680f, 0.00043700f, 0.00249441f, 
    -0.00144190f, -0.00038457f, -0.00046129f, -0.00086916f, 0.00170825f, -0.00058802f, -0.00092796f, -0.00006897f, 
    0.00116617f, -0.00090962f, 0.00068243f, 0.00112111f, -0.00021940f, 0.00072115f, -0.00097643f, 0.44947943f, 
    -0.97907573f, -1.93373191f, -1.14831769f, 0.34705028f, 0.14543290f, 0.00445694f, 0.00076042f, -0.00114877f, 
    0.00069414f, -0.00401489f, -0.00153721f, 0.00111550f, 0.00133395f, -0.00089240f, -0.00114874f, 0.00128576f, 
    -0.00155935f, -0.00143977f, -0.00079925f, 0.00023758f, -0.00194873f, 0.00024500f, 0.00052085f, -0.34448293f, 
    -0.41206017f, 1.40223718f, 0.94378757f, -0.79023308f, -0.13816878f, 0.00141307f, -0.00109011f, -0.00110168f, 
    -0.00215803f, 0.00046233f, -0.00195020f, 0.00086473f, -0.00246440f, 0.00055643f, -1.00998485f, 1.25895202f, 
    -0.03599699f, 0.00003341f, 0.00127810f, -0.00058265f, 0.00132189f, 0.00037091f, 0.00051359f, -0.00164721f, 
    -0.00333556f, -0.00128302f, 0.00190115f, -0.00011768f, -0.00361235f, -0.00074820f, -0.00007399f, 0.00058260f, 
    0.00052201f, -0.00205489f, 0.00005458f, -0.00230869f, -0.00002658f, -0.00153173f, -0.00043454f, -0.00039764f, 
    -0.00087325f, -0.00081854f, 0.00003554f, 0.00145352f, 0.84408575f, 0.12642950f, 0.00055768f, -0.00177480f, 
    0.00123379f, 0.00176853f, 0.00065755f, 0.00216027f, -0.00180800f, 0.42516828f, 0.14850852f, 0.80734104f, 
    -0.69382209f, 0.01187618f, -0.14017466f, 0.02880820f, 0.79872245f, 0.43202710f, -0.00118242f, 0.00249499f, 
    -0.00208010f, 0.53217196f, -0.00397716f, -0.67933446f, 0.00119095f, 0.00156461f, -0.00131852f, -0.00451974f, 
    -0.00233651f, -0.00128890f, 0.00137148f, 0.00181939f, -0.00287799f, -2.37139559f, -5.62185049f, -0.02340755f
};

const int32_t weight_1_indices[] CSR_PROGMEM = {
    0, 1, 2, 0, 1, 2, 0, 1, 2, 0, 1, 2, 
    0, 1, 2, 0, 1, 2, 0, 1, 2, 0, 1, 2, 
    0, 1, 2, 0, 1, 2, 0, 1, 2, 0, 1, 2, 
    0, 1, 2, 0, 1, 2, 0, 1, 2, 0, 1, 2, 
    0, 1, 2, 0, 1, 2, 0, 1, 2, 0, 1, 2, 
    0, 1, 2, 0, 1, 2, 0, 1, 2, 0, 1, 2, 
    0, 1, 2, 0, 1, 2, 0, 1, 2, 0, 1, 2, 
    0, 1, 2, 0, 1, 2, 0, 1, 2, 0, 1, 2, 
    0, 1, 2, 0, 1, 2, 0, 1, 2, 0, 1, 2, 
    0, 1, 2, 0, 1, 2, 0, 1, 2, 0, 1, 2, 
    0, 1, 2, 0, 1, 2, 0, 1, 2, 0, 1, 2, 
    0, 1, 2, 0, 1, 2, 0, 1, 2, 0, 1, 2, 
    0, 1, 2, 0, 1, 2, 0, 1, 2, 0, 1, 2, 
    0, 1, 2, 0, 1, 2, 0, 1, 2, 0, 1, 2, 
    0, 1, 2, 0, 1, 2, 0, 1, 2, 0, 1, 2, 
    0, 1, 2, 0, 1, 2, 0, 1, 2, 0, 1, 2, 
    0, 1, 2, 0, 1, 2, 0, 1, 2, 0, 1, 2, 
    0, 1, 2, 0, 1, 2, 0, 1, 2, 0, 1, 2, 
    0, 1, 2, 0, 1, 2, 0, 1, 2, 0, 1, 2, 
    0, 1, 2, 0, 1, 2, 0, 1, 2, 0, 1, 2
};

const int32_t weight_1_indptr[] CSR_PROGMEM = {
    0, 3, 6, 9, 12, 15, 18, 21, 24, 27, 30, 33, 
    36, 39, 42, 45, 48, 51, 54, 57, 60, 63, 66, 69, 
    72, 75, 78, 81, 84, 87, 90, 93, 96, 99, 102, 105, 
    108, 111, 114, 117, 120, 123, 126, 129, 132, 135, 138, 141, 
    144, 147, 150, 153, 156, 159, 162, 165, 168, 171, 174, 177, 
    180, 183, 186, 189, 192, 195, 198, 201, 204, 207, 210, 213, 
    216, 219, 222, 225, 228, 231, 234, 237, 240
};

const float bias_1_values[] CSR_PROGMEM = {
    -0.00657973f, -0.01748888f, -0.25150639f, 0.14054151f, -0.36360636f, -0.80061084f, -0.01189034f, -0.26208603f, 
    -0.24043313f, -0.61845320f, -0.58125353f, -0.09986117f, -0.21156701f, -0.01195671f, -0.50140417f, -0.64609057f, 
    0.72802085f, -0.00543425f, -0.24658117f, -0.01623547f, 0.69403392f, -0.01463994f, -0.00799504f, -0.01388857f, 
    -0.13110289f, -0.15063997f, -0.26801714f, -0.21352518f, -0.42683402f, -0.00528165f, -0.01019230f, -0.43823344f, 
    -0.00590233f, -0.00594080f, -0.28142679f, -0.51793778f, -0.22833291f, -0.04410231f, -0.00801876f, -0.01024587f, 
    -0.32693720f, -0.31739318f, -0.01183534f, -0.41034949f, -0.34797099f, 0.42446825f, -0.06142342f, -0.31283289f, 
    -0.34205097f, -0.01554013f, -0.00626276f, -0.00568203f, -0.02379691f, -0.41245252f, -0.05420078f, -0.03822452f, 
    -0.11767638f, -0.01610691f, 0.31175297f, -0.55684090f, -0.16245715f, -0.01122102f, -0.55378473f, -0.35662684f, 
    -0.48201695f, -0.45050132f, -0.21723615f, -0.11407319f, -0.59488058f, -0.54684925f, -0.21355397f, -0.95917201f, 
    0.50151765f, -0.47277969f, -0.07726356f, -0.15817675f, -0.04923499f, -0.48655310f, -0.42555496f, 0.68461466f
};

const int32_t bias_1_indices[] CSR_PROGMEM = {
    0, 1, 2, 3, 4, 5, 6, 7, 8, 9, 10, 11, 
    12, 13, 14, 15, 16, 17, 18, 19, 20, 21, 22, 23, 
    24, 25, 26, 27, 28, 29, 30, 31, 32, 33, 34, 35, 
    36, 37, 38, 39, 40, 41, 42, 43, 44, 45, 46, 47, 
    48, 49, 50, 51, 52, 53, 54, 55, 56, 57, 58, 59, 
    60, 61, 62, 63, 64, 65, 66, 67, 68, 69, 70, 71, 
    72, 73, 74, 75, 76, 77, 78, 79
};

const float weight_2_values[] CSR_PROGMEM = {
    0.00069623f, 0.00261856f, 0.00143383f, -0.02314781f, -0.00115377f, -0.00014815f, 0.00066752f, 0.00055561f, 
    -0.00112144f, 0.00061102f, 0.00074828f, -0.00279263f, 0.00116418f, -0.00046621f, 0.00070350f, 0.01211561f, 
    0.01666729f, -0.00134696f, 0.00199747f, -0.00018447f, 0.51065713f, 0.00119018f, 0.00131097f, -0.00075824f, 
    -0.00298564f, 0.00058385f, -0.00245908f, -0.00185906f, 0.00284074f, 0.00124521f, -0.00159538f, -0.00180933f, 
    -0.00077359f, 0.00088727f, 0.00066961f, -0.00103401f, 0.00141098f, 0.00111331f, 0.00310906f, 0.00036074f, 
    0.00133189f, 0.00238221f, 0.00047418f, 0.00225226f, -0.00097915f, 0.14964090f, 0.00016888f, -0.00000833f, 
    0.00090514f, -0.00062469f, 0.00025265f, -0.00129391f, 0.00130148f, -0.00022262f, -0.00289826f, -0.00035379f, 
    0.00007277f, 0.00036682f, -0.38874421f, -0.00002361f, -0.00203943f, 0.00058998f, 0.00095089f, 0.00070141f, 
    0.00189614f, 0.00071146f, -0.00117165f, 0.00032264f, -0.24601655f, -0.00045495f, 0.00128934f, -0.00085254f, 
    0.01496466f, -0.00611563f, -0.00003585f, -0.42284262f, -0.00123586f, -0.00051616f, -0.00086030f, -3.80740285f, 
    -0.00122971f, 0.00079606f, 0.00045085f, -0.00149350f, -0.00051703f, -0.00067718f, 0.00055764f, -0.00131329f, 
    -0.00110864f, -0.00020715f, -0.00121482f, -0.00286204f, 0.00096567f, -0.00173524f, -0.00023221f, -0.00080118f, 
    -0.00275995f, 0.00000688f, 0.00052281f, 0.00150472f, -0.00324461f, -0.00058796f, 0.00000191f, -0.00089919f, 
    -0.00072870f, 0.00000822f, -0.00155674f, 0.00060508f, 0.00129407f, -0.00051978f, 0.00162770f, -0.00016969f, 
    -0.00110507f, 0.00247802f, -0.00070080f, -0.00316917f, 0.00031356f, -0.00077377f, -0.00180195f, -0.00082379f, 
    -0.00036160f, -0.00083288f, -0.00394598f, 0.00108640f, 0.00051168f, -0.00059811f, 0.00405049f, -0.00049018f, 
    0.00129061f, -0.00094825f, 0.00146277f, 0.00066921f, -0.00029642f, -0.00082285f, -0.00125598f, 0.00037297f, 
    -0.00205770f, 0.00099363f, -0.00221632f, 0.00008965f, 0.00403134f, -0.00270106f, 0.00179771f, -0.00424605f, 
    0.00411211f, 0.00043590f, -0.00001310f, 0.00216295f, 0.00170103f, -0.00009060f, -0.00158316f, 0.00005137f, 
    0.00027953f, -0.00018298f, -0.00022910f, 0.00011349f, 0.00145155f, 0.00082239f, -0.00123994f, 0.00104875f, 
    0.00103651f, 0.00215714f, -0.00025348f, 0.00067731f, 0.00032513f, -0.00022285f, -0.00020985f, 0.00180966f, 
    0.00241246f, -0.00210473f, -0.00088727f, -0.00185221f, -0.00178040f, -0.00105080f, 0.00008178f, -0.00030863f, 
    0.00090390f, 0.00116161f, -0.00216090f, -0.00118311f, 0.00233994f, -0.00052617f, -0.00053084f, -0.00241226f, 
    -0.00055850f, 0.00124489f, -0.00144807f, -0.00024164f, -0.00113614f, -0.00059180f, 0.00222951f, 0.00017662f, 
    -0.00107070f, -0.00059964f, 0.00066029f, 0.00000969f, 0.00410504f, -0.00094038f, 0.00075902f, 0.00067041f, 
    -0.00249587f, -0.00127974f, -0.00196544f, -0.00087081f, 0.00070731f, -0.00149134f, -0.00143793f, -0.00084439f, 
    -0.00391533f, -0.00311167f, -0.00050951f, 0.00255433f, -0.00064203f, -0.00091172f, 0.00156634f, 0.00317035f, 
    0.00329793f, 0.00045149f, 0.00075620f, -0.00167400f, 0.00129425f, 0.00057634f, -0.00070713f, 0.00203099f, 
    -0.00051224f, 0.00380404f, 0.00142522f, 0.00093805f, -0.00057523f, -0.00027625f, -0.00060215f, -0.00132167f, 
    -0.00248228f, 0.00151291f, -0.00067695f, -0.00046110f, 0.00241423f, -0.00029840f, 0.00129194f, -0.00086785f, 
    -0.00020601f, -0.00417989f, -0.00018908f, 0.00216158f, 0.00201955f, 0.00247376f, 0.00164919f, 0.00264497f, 
    -0.00009848f, -0.00056479f, -0.00022989f, 0.00239401f, 0.00122962f, 0.00049643f, 0.00078435f, 0.00249877f, 
    -0.00256067f, 0.00155400f, -0.00043101f, -0.00143418f, 0.00152281f, -0.00016969f, 0.00011817f, 0.00088405f, 
    -0.00261540f, 0.00145180f, -0.00018287f, -0.00075670f, 0.00051963f, 0.00102759f, 0.00021883f, 0.00009377f, 
    0.00066416f, -0.00129716f, 0.00029165f, 0.00059571f, 0.00000844f, 0.00129997f, -0.00074056f, 0.00215328f, 
    0.00070591f, -0.00113285f, -0.00128913f, -0.00089322f, -0.00189328f, 0.00244379f, -0.00065369f, 0.00035401f, 
    -0.00024170f, 0.00067276f, 0.00086284f, -0.00157729f, 0.00201095f, -0.00064612f, 0.00065206f, -0.00030897f, 
    -0.00133399f, -0.00000579f, 0.00083041f, 0.00129386f, 0.00120419f, 0.00013143f, 0.00084095f, 0.00194504f, 
    0.00084380f, -0.00034713f, -0.00181535f, 0.00028166f, 0.00002571f, -0.00079335f, 0.00215830f, -0.00059865f, 
    0.00056632f, 0.00077278f, -0.00011952f, 0.00113545f, 0.00129813f, 0.00100559f, 0.00193953f, 0.00426552f, 
    -0.00065569f, -0.00030706f, 0.00011140f, -0.00021953f, 0.00054409f, -0.00061280f, -0.00121741f, 0.00030648f, 
    -0.00091954f, -0.00329057f, 0.00106903f, -0.00039815f, -0.00094215f, -0.00072434f, 0.00185926f, 0.00066132f, 
    0.03583393f, 0.00062512f, 0.00005789f, -0.00063689f, -0.44623822f, -0.00001556f, -0.00045930f, 0.00074590f, 
    0.00245493f, 0.00058289f, -0.00129967f, -0.00122922f, -0.00105838f, -0.00094567f, 0.00137673f, 0.00101428f, 
    0.00115043f, 0.00078433f, -0.00033575f, -0.00251495f, 0.00080082f, -0.00036744f, 0.00196200f, 0.00076351f, 
    0.00328636f, -0.00077494f, -0.00010273f, 0.00451154f, -0.00130886f, 0.01848477f, 0.26849785f, -0.00029885f, 
    0.00249324f, 0.00082537f, 0.00011202f, 0.00098533f, -0.00074030f, -0.89804471f, -0.35880670f, -0.00036649f, 
    -0.00171182f, -0.00068489f, 0.61931252f, -0.00085879f, -0.00128933f, 0.00069447f, 0.00104377f, -0.00068964f, 
    0.00221752f, -0.00091315f, -0.00043462f, 0.00099645f, 0.06152375f, -0.00105248f, 0.00030187f, -0.00359922f, 
    -0.00070229f, 0.48053998f, 0.00143979f, -0.00149434f, -0.00016956f, -0.00076488f, 0.00200227f, -0.00815901f, 
    0.00049599f, -0.00204483f, 0.00112303f, -0.00093926f, -0.00164703f, 0.00188880f, 0.00063220f, 0.00006977f, 
    0.00086942f, -0.00453187f, -0.00019595f, 0.00151531f, 0.00069136f, -0.00083807f, -0.00023950f, -0.00192406f, 
    0.00014994f, -0.00052082f, 0.00013625f, 0.00157678f, 0.00105831f, -0.00054475f, -0.00065734f, -0.00078992f, 
    -0.00104584f, 0.00052244f, 0.00056282f, 0.00039535f, 0.00038598f, -0.00100165f, -0.00130170f, 0.00430944f, 
    -0.00117113f, -0.00254990f, -0.00002173f, 0.00414128f, 0.00134190f, -0.00051098f, -0.00062700f, 0.00152414f, 
    0.00002598f, 0.00095180f, -0.00019238f, -0.00073557f, 0.00054689f, 0.00293290f, -0.00163278f, 0.00184173f, 
    0.00164407f, -0.00088720f, -0.00110863f, -0.00049309f, -0.00075831f, -0.00080767f, -0.00298496f, -0.00038354f, 
    -0.00223015f, 0.00447638f, 0.00031630f, -0.00054185f, -0.00000203f, -0.00105118f, 0.00024712f, 0.00013087f, 
    0.00118756f, 0.00121879f, -0.00084325f, -0.00032327f, -0.00075722f, 0.00044542f, 0.00007463f, -0.00094288f, 
    -0.00086046f, -0.00225289f, 0.00056121f, 0.00104484f, -0.00006663f, -0.00204353f, -0.00080572f, -0.00199369f, 
    -0.00088480f, -0.00067905f, -0.00067910f, -0.00079897f, 0.00144410f, 0.00004583f, 0.00120222f, -0.00108133f, 
    0.00069422f, -0.00182328f, 0.00118706f, 0.00245147f, -0.00389770f, -0.00063325f, 0.00099983f, 0.00451748f, 
    0.00065660f, 0.00123377f, -0.00377717f, -0.00185892f, -0.00043603f, 0.00065023f, -0.00213769f, -0.00093525f, 
    0.00078218f, -0.00065706f, -0.00067535f, -0.00182869f, -0.00000170f, 0.00070869f, 0.00331409f, 0.00006390f, 
    0.00177417f, -0.00047565f, -0.00175965f, -0.00039442f, 0.00002781f, 0.00121493f, 0.00117378f, 0.00104231f, 
    0.00003632f, -0.00184902f, 0.00107137f, 0.00064119f, 0.00280851f, -0.00362958f, 0.00058683f, 0.00123345f, 
    0.00095540f, -0.00089960f, 0.00306835f, -0.00025066f, 0.00250139f, 0.00135858f, -0.00230116f, -0.00160859f, 
    -0.00073775f, -0.00097927f, 0.00137787f, 0.00193341f, -0.00224676f, 0.00076666f, -0.00168662f, 0.00034017f, 
    -0.00036720f, 0.00076303f, -0.00112188f, -0.00052216f, -0.00023072f, -0.00046168f, 0.00003356f, 0.00062195f, 
    -0.00076402f, 0.00251955f, -0.00041539f, 0.00020240f, 0.00131247f, -0.00102159f, -0.00073739f, 0.00083038f, 
    0.00173385f, 0.00054538f, 0.00075748f, 0.00145289f, -0.00026020f, 0.00042224f, -0.00194143f, 0.00027042f, 
    -0.00147500f, 0.00114548f, -0.00050215f, 0.00203233f, 0.00003902f, 0.00124123f, 0.00066713f, -0.00100057f, 
    -0.00007726f, 0.00071841f, 0.00146696f, 0.00084271f, -0.00068100f, -0.00051609f, 0.00193132f, 0.00069403f, 
    0.00073608f, 0.00049215f, -0.00067398f, -0.00044710f, 0.00081457f, 0.00139616f, -0.00041427f, -0.00180663f, 
    0.00015234f, -0.00193734f, -0.00233092f, -0.00084726f, 0.00389265f, -0.00176871f, -0.00005842f, -0.00197450f, 
    -0.00143973f, -0.00026438f, -0.00009783f, 0.00150395f, 0.00047704f, 0.00006650f, 0.00127620f, 0.00066414f, 
    -0.00023689f, -0.00014159f, 0.00073564f, 0.00167831f, -0.00076690f, 0.00073371f, 0.00010106f, -0.00139761f, 
    -0.00109544f, 0.00195607f, -0.00002967f, -0.00004953f, 0.00166663f, -0.00033774f, 0.00083062f, -0.00264494f, 
    -0.00082905f, 0.00218953f, 0.00002699f, -0.00056306f, -0.00018813f, -0.00245571f, -0.00127950f, -0.00181303f, 
    0.00011233f, -0.00079562f, 0.00076720f, 0.00255644f, 0.00052668f, -0.00037612f, 0.00189490f, 0.00106015f, 
    -0.00098115f, -0.00215923f, 0.00040714f, -0.00061337f, -0.00059997f, -0.00131296f, 0.00067043f, -0.00054802f, 
    -0.00209410f, -0.00070436f, -0.00026402f, -0.00028100f, 0.00016699f, 0.00194975f, 0.00021352f, 0.00166427f, 
    -0.00008198f, -0.00113118f, -0.00121539f, 0.00089010f, -0.00128013f, 0.00078058f, 0.00067016f, -0.00112821f, 
    0.00003379f, -0.00087442f, -0.00140728f, -0.00286556f, 0.00087451f, 0.00087932f, -0.00047096f, -0.00265762f, 
    0.00170133f, -0.00074088f, -0.00000454f, -0.00378483f, -0.00001423f, 0.00181032f, -0.00067066f, -0.00216411f, 
    -0.00020703f, 0.00170443f, -0.00113838f, -0.00359771f, -0.00070776f, 0.00062575f, 0.00213899f, -0.00122811f, 
    -0.00025403f, 0.00129592f, 0.00311406f, -0.00285838f, -0.00286166f, -0.00129680f, 0.00098576f, 0.00022784f, 
    -0.00068354f, 0.00086219f, 0.00051350f, -0.00195155f, -0.00002590f, 0.00073982f, -0.00337957f, 0.00308991f, 
    0.00122036f, 0.00078449f, -0.00079638f, -0.00226686f, -0.00098478f, -0.00253819f, 0.00021303f, -0.00141461f, 
    0.00089903f, -0.00144148f, -0.00106540f, 0.00068419f, 0.00069807f, -0.00099678f, -0.00087135f, 0.00195556f, 
    -0.00074556f, 0.00098066f, -0.00269633f, -2.05731511f, 0.00036123f, -0.08969446f, -0.00059546f, 0.00117230f, 
    -0.00113887f, -0.00205799f, 0.00055179f, 0.00022570f, -0.00215971f, 0.00075376f, -0.00128934f, 0.00070986f, 
    0.03745905f, 0.00126832f, 0.00114810f, -0.00102002f, 0.00069511f, -0.00156107f, 0.00158495f, 0.00072411f, 
    0.00064346f, -0.00080569f, 0.00128711f, -0.00023992f, 0.00228958f, -0.00055190f, -0.00111247f, -0.00091563f, 
    -0.00058773f, -0.00118267f, -0.00105470f, 0.00013766f, -0.00123001f, 0.00205336f, 0.00110532f, -0.00062624f, 
    -0.00328592f, 0.00049586f, 0.00335151f, 0.00149830f, 0.00008732f, -0.00913355f, -0.74194491f, -0.00073308f, 
    -0.00079953f, 0.00115142f, 0.00011479f, 0.00132149f, -0.00072772f, -0.92241591f, -0.23890337f, -0.00312831f, 
    -0.00069593f, 0.00126173f, 0.27947903f, -0.00130224f, -0.00061533f, -0.00631275f, -0.00204431f, 0.00193859f, 
    -0.00310733f, -0.00205969f, 0.00346442f, -0.00078620f, -0.00032869f, -0.00218614f, -0.00193692f, 1.01941502f, 
    0.44621462f, -0.00009078f, -0.00023316f, -0.00099570f, 0.00201447f, -0.00002373f, 0.00017403f, 1.11392605f, 
    0.00130096f, -0.00157769f, -0.00196335f, -1.25473857f, -0.00159862f, 0.55332690f, -0.00063056f, 0.00184422f, 
    -0.00058319f, 0.00136912f, 0.00274917f, 0.00041553f, -0.00087361f, -0.00407011f, 0.00019265f, -0.00938128f, 
    0.46466154f, -0.00020772f, -0.00081250f, 0.00048403f, -0.41478527f, 0.00068339f, -0.00194776f, 0.00178585f, 
    0.00094786f, 0.00008270f, 0.00060080f, -0.00176399f, -0.00085109f, -0.00019062f, 0.00032331f, 0.00083778f, 
    0.00084430f, -0.00163419f, -0.00127468f, -0.00000098f, 0.00008535f, 0.00073864f, 0.00064306f, 0.00130338f, 
    -0.00002967f, -0.00046381f, -0.00201118f, -0.00167552f, 0.00030002f, -0.12236521f, 0.07480747f, 0.00375655f, 
    0.00110811f, -0.00030546f, 0.00147819f, -0.00042573f, -0.00238506f, -0.02955996f, -0.01717291f, 0.00010938f, 
    -0.00044487f, -0.00035994f, -0.00056371f, 0.00068587f, 0.00026892f, 0.00184238f, -0.00157077f, 0.00078234f, 
    0.00142162f, -0.00188896f, 0.00074865f, -0.00012028f, 0.02905128f, 0.00143704f, 0.00088322f, 0.00011447f, 
    -0.01134312f, -0.02544854f, -0.00016088f, -0.04632933f, 0.00246327f, 0.00059780f, 0.00115949f, 1.03618836f, 
    -0.00059927f, 0.00010221f, -0.00176131f, 0.00355420f, -0.00067806f, 0.00002505f, 0.00080852f, -0.00133076f, 
    0.00040327f, -0.00157955f, -0.00270347f, -0.00302737f, 0.00057756f, -0.00084228f, 0.00070101f, -0.00137455f, 
    0.00054167f, 0.00137569f, -0.00061890f, -0.00111718f, -0.00365784f, -0.00244542f, -0.00053941f, 0.00027898f, 
    -0.00043582f, 0.00007541f, 0.00121706f, 0.00270396f, -0.00032317f, -0.00154387f, -0.00104647f, -0.00091661f, 
    -0.00028419f, 0.00050926f, -0.00030371f, -0.00003468f, -0.00252144f, -0.00194394f, -0.00028650f, -0.00125966f, 
    -0.00019777f, -0.00334560f, 0.00146969f, 0.00446889f, 0.00177348f, -0.00269670f, 0.00057411f, 0.00093695f, 
    0.00022076f, -0.00257135f, -0.00138760f, 0.00263670f, 0.00027848f, -0.00051711f, -0.00131273f, -0.00034581f, 
    0.00079001f, 0.00136658f, -0.00077151f, -0.00112806f, 0.00152756f, -0.00250356f, 0.00114515f, 0.00257960f, 
    -0.00035070f, 0.00087982f, -0.00043639f, 0.00080788f, -0.00270752f, 0.00094477f, 0.00144756f, 0.00163455f, 
    -0.00068850f, 0.00057070f, 0.00123182f, 0.00077414f, 0.00278965f, 0.00077565f, 0.00138858f, -0.00341646f, 
    -0.00146586f, -0.00000591f, 0.00044656f, 0.00176627f, -0.00034975f, -0.00252895f, 0.00310027f, -0.00472325f, 
    -0.00141731f, 0.00013192f, 0.00029241f, -0.00086947f, -0.00013505f, 0.00045242f, -0.00111930f, 0.00039678f, 
    0.00079808f, 0.00016947f, 0.00053858f, 0.00036044f, -0.00154362f, 0.00105932f, 0.00126342f, -0.00162610f, 
    0.00264583f, 0.00030904f, -0.00014249f, -0.00059517f, -0.00153661f, 0.00124470f, 0.00139861f, 0.00041278f, 
    0.00044575f, -0.00055357f, 0.00198354f, 0.00132801f, 0.00255201f, 0.00250251f, -0.00053394f, -0.00131675f, 
    -0.00120982f, 0.00188850f, 0.00115864f, -0.00046316f, -0.00044751f, 0.00060186f, 0.00142221f, -0.00112114f, 
    0.00150163f, 0.00007873f, 0.00016136f, -0.00375000f, 0.00125564f, -0.00117072f, 0.00035688f, 0.00051790f, 
    -0.00018278f, -0.00024225f, 0.00232354f, 0.00097282f, 0.00087552f, 0.00058804f, -0.00129105f, -0.00163410f, 
    0.00169273f, 0.00259591f, 0.00074276f, -0.00127368f, 0.00376584f, -0.00099960f, -0.00241694f, 0.00207133f, 
    0.00216307f, 0.00069119f, -0.00249821f, 0.00138586f, 0.00202544f, -0.00027580f, 0.00045937f, 0.00051711f, 
    0.00222679f, 0.00077327f, 0.00328936f, -0.00190169f, -0.00059267f, 0.00193567f, -0.00049230f, -0.00056670f, 
    0.00218126f, 0.00090391f, 0.00181044f, 0.00086481f, 0.00381014f, -0.00034383f, 0.00333667f, 0.00005755f, 
    -0.00191854f, -0.00082697f, 0.00220832f, -0.00186687f, 0.00064350f, 0.00163859f, 0.00104798f, 0.00006153f, 
    -0.00063898f, 0.00023770f, -0.00134742f, 0.00218084f, 0.00084037f, -0.00032484f, -0.00206165f, 0.00319774f, 
    0.00192782f, -0.00191776f, 0.00033029f, -0.00052348f, 0.00085734f, -0.00056168f, 0.00056318f, -0.00095921f, 
    -0.00009009f, -0.00089460f, -0.00022636f, 0.00275199f, 0.00103593f, -0.00046705f, 0.00074154f, -0.00242804f, 
    0.00136946f, -0.00078866f, -0.00014355f, 0.00014374f, -0.00243252f, -0.00170480f, 0.00412114f, -0.00107066f, 
    0.00125606f, 0.00140365f, 0.00103926f, -0.00017601f, -0.00089719f, 0.00132344f, 0.00002654f, 0.00120633f, 
    -0.00191026f, -0.00108960f, -0.00080393f, 0.00325194f, 0.00108587f, 0.00051435f, -0.00026210f, -0.00089833f, 
    0.00279431f, 0.00066433f, 0.00124331f, 0.00020864f, -0.00195070f, -0.00018043f, -0.00066613f, 0.00042740f, 
    0.00068992f, 0.00063715f, 0.00379220f, 0.00043131f, -0.00278982f, -0.00142169f, 0.00243190f, -0.00031623f, 
    0.00040450f, -0.00014692f, -0.00201592f, 0.00359948f, -0.00102370f, -0.00204047f, 0.00012762f, -0.00166629f, 
    0.00184166f, -0.00177503f, 0.00283107f, 0.00090015f, 0.00088190f, 0.00312430f, -0.00072171f, 0.00073688f, 
    -0.00064447f, -0.00004575f, 0.00371172f, 0.00264126f, 0.00023106f, 0.00152184f, -0.00186241f, -0.00016849f, 
    0.00160826f, -0.00257484f, -0.00145543f, 0.00284008f, -0.00266030f, 0.00280418f, -0.00037994f, 0.00293106f, 
    0.00000742f, 0.00057054f, -0.00094821f, -0.00107956f, 0.00375848f, 0.00176103f, 0.00092622f, 0.00175188f, 
    0.00160009f, -0.00003963f, -0.00080649f, -0.00047821f, 0.00061342f, 0.00378189f, -0.00149786f, 0.00064759f, 
    0.00025424f, -0.00018349f, 0.00169403f, 0.00647416f, 0.00242623f, -0.00000919f, -0.00262434f, 0.00081043f, 
    0.00029919f, 0.00120169f, 0.00138876f, -0.00077555f, -0.00086703f, 0.00136897f, 0.00096328f, -0.00062552f, 
    -0.00165486f, 0.00112494f, -0.00099860f, -0.00131291f, -0.00219557f, 0.00030589f, -0.00059003f, -0.00009434f, 
    -0.00064834f, -0.00198801f, 0.00027758f, -0.00051954f, -0.00086657f, 0.00190157f, -0.00016653f, -0.00108062f, 
    -0.00330822f, -0.00189492f, 0.00097880f, -0.00123530f, 0.00222103f, -0.00211307f, -0.00051600f, 0.00477349f, 
    -0.00022299f, 0.00002618f, 0.00064852f, -0.00122549f, -0.00078731f, -0.00248128f, 0.00329755f, -0.00044645f, 
    -0.00129149f, 0.00180092f, 0.00214815f, 0.00078177f, -0.00053280f, -0.00077060f, 0.00130111f, 0.00020292f, 
    0.00126538f, -0.00063992f, 0.00177292f, -0.00052610f, 0.00064099f, 0.00115074f, -0.00056449f, 0.00095613f, 
    -0.00127533f, -0.00180992f, 0.00027358f, 0.00066979f, 0.00148699f, -0.00179607f, -0.00044688f, -0.00107708f, 
    0.00283627f, -0.00248117f, -0.00162596f, -0.00168397f, 0.00246253f, -0.00137588f, -0.00066239f, 0.00081202f, 
    0.00155930f, -0.00311432f, -0.00247318f, -0.00184011f, -0.00005201f, 0.00042452f, -0.00080810f, 0.00073622f, 
    0.00021984f, 0.00152282f, 0.00165478f, 0.00009148f, 0.00017438f, -0.00207566f, 0.00251879f, -0.00103208f, 
    0.00058941f, -0.00022501f, 0.00081036f, -0.00056497f, 0.00076157f, 0.00022578f, 0.00184024f, -0.00077919f, 
    -0.00131570f, -0.00141075f, 0.00260658f, -0.00142724f, -0.00105599f, -0.00075800f, 0.00239159f, -0.00029482f, 
    0.00170265f, 0.00007040f, 0.00049326f, 0.00002320f, -0.00001502f, 0.00103577f, 0.00260539f, 0.00195575f, 
    0.00238574f, 0.00010739f, -0.00350301f, -0.00069638f, -0.00031618f, 0.00247039f, -0.00145194f, 0.00111264f, 
    0.00119702f, 0.00012520f, 0.00130418f, 0.00195057f, 0.00100313f, -0.00054248f, 0.00012462f, -0.00090134f, 
    0.00046145f, -0.00088061f, 0.00046352f, -0.00174652f, 0.00069815f, -0.00142757f, 0.00088917f, 0.00216075f, 
    0.00040254f, -0.00069768f, 0.00220111f, 0.00121053f, 0.00167163f, 0.00164350f, 0.00053948f, -0.00621150f, 
    -0.00078132f, 0.00065708f, 0.00049000f, 0.00181285f, -0.00192624f, -0.00083867f, 0.00193721f, -0.00218211f, 
    0.00107321f, -0.00116888f, 0.00465949f, -0.00086741f, -0.00247181f, 0.00260129f, -0.00074974f, 0.00046930f, 
    -0.00100670f, 0.00031110f, -0.00078812f, 0.00009306f, 0.00012557f, 0.00032321f, 0.00009974f, -0.00144869f, 
    -0.00169866f, 0.00079469f, 0.00074730f, -0.00132383f, 0.00053130f, 0.00359631f, -0.00151049f, -0.00058769f, 
    -0.00036621f, -0.00121239f, 0.00285078f, 0.00103014f, 0.00100082f, -0.00008625f, 0.00064545f, -0.00096785f, 
    0.00136045f, 0.00020167f, 0.00016080f, -0.00159075f, -0.00062980f, -0.00159239f, -0.00138731f, 0.00147065f, 
    -0.00098169f, 0.00021963f, -0.00110036f, -0.00311023f, 0.00107288f, 0.00060672f, 0.00069982f, 0.00127256f, 
    0.00306843f, -0.00028129f, 0.00093161f, 0.00132217f, -0.00140940f, 0.00247323f, -0.00106511f, -0.00260664f, 
    0.00067632f, 0.00017046f, -0.00014382f, -0.00093325f, 0.00030048f, -0.00030182f, 0.00246642f, -0.00046142f, 
    -0.00029302f, -0.00037008f, 0.00030252f, 0.00266422f, -0.00063941f, 0.00098388f, 0.00044366f, 0.00165757f, 
    -0.00219939f, -0.00311461f, -0.00124517f, -0.00114061f, -0.00427580f, 0.00037191f, 0.00115708f, -0.00021899f, 
    0.00057761f, -0.00241252f, -0.00230135f, 0.00267649f, -0.00076815f, -0.00092932f, 0.00361573f, 0.00179803f, 
    0.00255278f, -0.00006988f, 0.00002617f, 0.00052760f, 0.00107201f, -0.00088893f, -0.00012477f, 0.00093895f, 
    -0.00058233f, -0.00238288f, 0.00156813f, -0.00181371f, 0.00044678f, -0.00115312f, 0.00076036f, -0.00131269f, 
    -0.00061708f, 0.00130899f, -0.00067831f, -0.00185021f, 0.00043681f, -0.00042294f, -0.00000861f, -0.00166467f, 
    -0.00134063f, 0.00075986f, 0.00000141f, -0.00119759f, 0.00167534f, 0.00215738f, 0.00010469f, 0.00375361f, 
    0.00131405f, 0.00130090f, -0.00380810f, 0.00046340f, 0.00149195f, 0.00013557f, 0.00008079f, 0.00049959f, 
    -0.00115160f, 0.00053517f, -0.00008478f, -0.00059088f, -0.00344188f, 0.00083065f, 0.00103740f, -0.00159402f, 
    -0.00125995f, -0.00050286f, 0.00198166f, -0.00003103f, -0.00102499f, 0.00125198f, -0.00105156f, -0.00059573f, 
    0.00109173f, -0.00060064f, -0.00162142f, 0.00047779f, -0.00009982f, 0.00000749f, 0.00241438f, 0.00004777f, 
    0.00042977f, -0.00215440f, 0.00074233f, -0.00145183f, -0.00418195f, -0.00071052f, 0.00089397f, -0.00282523f, 
    0.00133811f, -0.00155262f, -0.00163275f, 0.00057691f, 0.00106742f, 0.00129511f, -0.00265769f, -0.00105429f, 
    -0.00311219f, -0.00232671f, -0.00096624f, -0.00032241f, -0.00054422f, -0.00026844f, 0.00329991f, -0.00012746f, 
    0.00084907f, 0.00089941f, 0.00037136f, 0.00160408f, 0.00027345f, -0.00125462f, 0.00135175f, 0.00025973f, 
    0.00090708f, 0.00214076f, -0.00069437f, -0.00270244f, 0.00171588f, -0.00197340f, 0.00090148f, 0.00178138f, 
    0.00061888f, -0.00133318f, -0.00125313f, 0.00150981f, -0.00087200f, -0.00118888f, -0.00219626f, 0.00202023f, 
    -0.00068041f, -0.00110430f, 0.00100941f, 0.00287442f, -0.00260213f, -0.00030251f, 0.00081865f, 0.00188197f, 
    -0.00062689f, 0.00093917f, -0.00039959f, 0.00049068f, 0.00006074f, -0.00127590f, 0.00131419f, -0.00015003f, 
    -0.00188957f, 0.00079155f, 0.00130106f, -0.00017119f, -0.00147944f, 0.00085546f, -0.00049330f, -0.00087217f, 
    0.00007797f, -0.00004712f, -0.00120975f, -0.00021094f, 0.00268738f, 0.00004826f, -0.00021872f, -0.00267855f, 
    0.00080920f, 0.00120038f, -0.00204093f, -0.00021836f, -0.00099381f, -0.00069013f, 0.00164371f, 0.00216112f, 
    -0.00066671f, -0.00144522f, -0.00098055f, 0.00007202f, 0.00064627f, 0.00005016f, 0.00142684f, 0.00013478f, 
    0.00039538f, -0.00152795f, -0.00138393f, -0.00304222f, -0.00029581f, -0.00042300f, -0.00354476f, 0.00002345f, 
    -0.00000614f, -0.00040974f, 0.00285248f, 0.00234902f, 0.00054667f, -0.00162754f, 0.00155400f, 0.00319981f, 
    0.00091357f, 0.00081482f, 0.00018574f, 0.00237837f, -0.00086461f, -0.00164777f, 0.00071540f, -0.00120812f, 
    -0.00474748f, 0.00091883f, 0.00129604f, 0.00076386f, -0.00052290f, -0.00125517f, 0.00184351f, -0.08243623f, 
    -0.00224674f, -0.00041582f, -0.00091755f, -0.00026620f, -0.00393191f, 0.00025919f, -0.00039826f, -0.00038748f, 
    -0.00006713f, 0.00149514f, -0.00136398f, 0.00151178f, 0.00080904f, 0.00036638f, -0.00125020f, 0.00110022f, 
    -0.00132793f, -0.00023541f, -0.00079008f, -0.00083255f, -0.00125079f, 0.00103489f, -0.00256239f, -0.00352726f, 
    -0.00136995f, -0.00106768f, -0.00092428f, -0.00049376f, 0.00014707f, -0.21188538f, -0.00076743f, -0.00042737f, 
    0.00051371f, 0.00067764f, -0.00066246f, -0.00062941f, -0.00089938f, 0.00197239f, 0.01760601f, -0.00017208f, 
    0.00008404f, -0.00012461f, -1.38581574f, -0.00138569f, 0.00074010f, 0.00020967f, -0.00032059f, 0.00328540f, 
    -0.00426621f, 0.00031081f, 0.00073780f, 0.00013656f, -0.00075450f, 0.00316331f, -0.00048843f, -0.00140152f, 
    -0.01781412f, 0.01264029f, 0.00022818f, -0.00413287f, -0.00192141f, 0.00276654f, 0.00015070f, 0.00472517f, 
    -0.00131750f, 0.00017428f, -0.00153458f, 0.00280986f, -0.00139871f, 0.00059282f, -0.00130883f, -0.00033833f, 
    0.00203798f, 0.00282917f, 0.00107816f, -0.00055354f, -0.00046641f, 0.00097459f, 0.00456354f, 0.00173153f, 
    -0.00019705f, 0.00119806f, 0.00043648f, 0.00136771f, 0.00391512f, -0.00041326f, -0.00051474f, 0.00110094f, 
    0.00203575f, 0.00063579f, 0.00024464f, -0.00045776f, 0.00205387f, 0.00082761f, 0.00041768f, 0.00172844f, 
    0.00064765f, -0.00083391f, -0.00109318f, 0.00004740f, 0.00071154f, 0.00034975f, -0.00000210f, 0.00041971f, 
    0.00088860f, -0.00133555f, -0.00029224f, 0.00241592f, -0.00004542f, 0.00040422f, -0.00083056f, -0.00076929f, 
    -0.00098101f, -0.00215575f, 0.00133948f, 0.00132754f, -0.00091843f, -0.00266530f, -0.00067870f, -0.00019602f, 
    -0.00213467f, 0.00224222f, 0.00035562f, -0.00376063f, 0.00073109f, 0.00095081f, -0.00268000f, 0.00006349f, 
    0.00029427f, 0.00043086f, 0.00270234f, 0.00006943f, -0.00087049f, -0.00185902f, -0.00109373f, -0.00008632f, 
    0.00113912f, 0.00042622f, -0.00083885f, 0.00260360f, -0.00067762f, -0.00065158f, -0.00070523f, -0.00113635f, 
    -0.00311394f, 0.00088189f, 0.00138549f, -0.00039730f, 0.00173624f, -0.00130573f, 0.00215744f, 0.00051226f, 
    -0.00164956f, 0.00111869f, -0.00247870f, -0.00007973f, 0.00124340f, 0.00129290f, 0.00087326f, 0.00198911f, 
    -0.00216232f, -0.00124432f, 0.00141315f, -0.00066301f, 0.00216214f, 0.00128866f, 0.00162332f, 0.00135555f, 
    0.00268317f, -0.00157506f, 0.00124434f, 0.00065092f, 0.00001595f, 0.00088204f, -0.00045459f, -0.00040415f, 
    0.00255413f, 0.00008785f, 0.00038882f, -0.00039758f, 0.00004311f, -0.00037003f, 0.00426851f, -0.00088788f, 
    0.00020772f, -0.00066369f, -0.00216126f, 0.00072122f, 0.00054171f, 0.00052309f, -0.00047832f, -0.00140650f, 
    -0.00210197f, 0.00200338f, -0.00088127f, 0.00126228f, 0.00090476f, 0.00057918f, -0.00066193f, 0.00018550f, 
    -0.00196395f, -0.00117620f, 0.00287927f, -0.00002957f, 0.00126767f, -0.00097373f, 0.00062093f, 0.00247333f, 
    0.00089076f, 0.00194674f, -0.00144296f, 0.00117818f, 0.00129890f, -0.00176095f, 0.00130328f, -0.00064738f, 
    0.00130238f, 0.00426950f, 0.00282602f, 0.00130808f, -0.00076531f, -0.00099177f, 0.00150259f, 0.00065014f, 
    0.00071261f, -0.00102704f, -0.00311050f, 0.12797485f, 0.00056997f, -0.00006316f, -0.00369824f, 0.00058636f, 
    0.00168210f, -0.00128043f, -0.00011847f, 0.00126177f, 0.00192262f, 0.00080063f, 0.00077180f, 0.00038778f, 
    0.00032354f, -0.00067702f, -0.00121281f, 0.00058544f, -0.32962495f, 0.00065642f, 0.00311046f, 0.00067713f, 
    0.00045518f, 0.00109148f, -0.00130184f, 0.00034953f, -0.00181563f, 0.00147467f, -0.00151483f, -0.00075000f, 
    -0.00065806f, -0.00115529f, -0.00080282f, 0.00100660f, -0.00206940f, 0.00002548f, 0.00109863f, -0.00026686f, 
    -0.00175402f, -0.00246751f, 0.00251923f, 0.00140288f, 0.00014250f, -0.01555346f, -0.00025697f, -0.00150550f, 
    0.00032651f, -0.00059180f, 0.00238628f, 0.00010459f, 0.00149593f, -0.00175464f, -0.00081015f, 0.00005274f, 
    0.00329642f, -0.00242819f, -0.62710184f, -0.00074398f, 0.00089736f, -0.00005416f, -0.00264880f, -0.00129498f, 
    -0.00129909f, -0.00173773f, 0.00199073f, -0.00002781f, 0.60469127f, 0.00108910f, 0.00193828f, 0.00253631f, 
    -0.27700764f, 0.24308705f, 0.00059120f, 0.00353680f, 0.00264792f, -0.00029855f, -0.00010766f, 0.00462590f, 
    0.00095333f, 0.00057102f, 0.00095216f, 0.00127618f, -0.00079844f, -0.00224214f, 0.00008294f, -0.00025790f, 
    -0.00054221f, -0.00050187f, 0.00052685f, 0.00008952f, -0.00113659f, 0.00019990f, -0.00037236f, 0.00069036f, 
    0.00219850f, -0.00089642f, -0.00085598f, -0.00112662f, -0.00255943f, -0.00010916f, 0.00129507f, 0.00091752f, 
    -0.00000873f, -0.00069949f, -0.00051916f, 0.00087677f, -0.00016557f, 0.00311049f, -0.00101794f, 0.00022953f, 
    0.00121332f, -0.00181115f, -0.00044763f, 0.00334533f, -0.00398738f, -0.00145606f, 0.00112466f, 0.00013870f, 
    -0.00017398f, -0.00072949f, 0.00156772f, -0.00110100f, -0.00021692f, -0.00084357f, -0.00139608f, 0.00050406f, 
    -0.00100063f, 0.00026592f, 0.00057098f, -0.00011150f, -0.00064063f, -0.00150369f, -0.00112383f, 0.00167904f, 
    -0.00108950f, -0.00036662f, -0.00070304f, 0.00152822f, -0.00067876f, -0.00114428f, -0.00016453f, 0.00008768f, 
    0.00176268f, -0.00168151f, -0.00193316f, -0.00077957f, -0.00039762f, -0.00438694f, -0.00129392f, -0.00133467f, 
    -0.00067437f, 0.00118999f, -0.00397911f, -0.00064962f, -0.00051136f, 0.00077500f, -0.00176410f, 0.00145260f, 
    -0.00074512f, 0.00071847f, 0.00040201f, -0.00045472f, 0.00066942f, 0.00216502f, -0.00008196f, 0.00035554f, 
    -0.00410876f, 0.00127826f, 0.00010269f, -0.00044631f, -0.00179910f, 0.00122321f, 0.00077643f, -0.00087275f, 
    -0.00069910f, 0.00023853f, 0.00037396f, 0.00058016f, 0.00142928f, -0.00072906f, 0.00190577f, 0.00013923f, 
    -0.00202434f, -0.00032716f, 0.00111435f, 0.00045048f, -0.00317776f, -0.00020058f, -0.00131122f, -0.00081854f, 
    -0.00255341f, 0.00143007f, 0.00108216f, -0.00046786f, -0.00155573f, 0.00006539f, 0.00075446f, -0.00006420f, 
    -0.00107269f, 0.00202454f, -0.00112180f, -0.00180001f, -0.00045921f, -0.00012608f, 0.00144819f, 0.00090261f, 
    0.00004768f, -0.00056426f, 0.00076926f, 0.00028650f, -0.00065813f, -0.00159166f, -0.00027752f, 0.00007715f, 
    -0.00022216f, -0.00025814f, 0.00159982f, -0.00186629f, 0.00036571f, 0.00148750f, -0.00387166f, -0.00174969f, 
    -0.00251052f, 0.00020844f, 0.00050723f, -0.00131552f, 0.00166173f, -0.00146244f, 0.00176439f, 0.00179544f, 
    0.00009562f, 0.00114032f, 0.00024595f, -0.00199195f, -0.00167014f, -0.00004006f, 0.00013919f, 0.00089155f, 
    -0.00165655f, -0.00117858f, -0.00004140f, 0.00047202f, -0.00038154f, 0.00151825f, 0.00145988f, 0.00369053f, 
    0.00347764f, 0.00076377f, -0.00097929f, -0.00057175f, -0.00041703f, 0.00027596f, -0.00261703f, -0.00118431f, 
    0.00212356f, 0.00124243f, 0.00133933f, -0.00185017f, -0.00255144f, -0.00078403f, 0.00021327f, 0.00025013f, 
    0.00148940f, 0.00053118f, -0.00074934f, 0.00142799f, -0.00196014f, 0.00078865f, 0.00126795f, -0.00263485f, 
    -0.00253286f, -0.00276443f, -0.00220637f, -0.00218677f, -0.00104105f, -0.00022468f, -0.00011264f, -0.00189152f, 
    0.00030248f, 0.00144884f, -0.00042491f, 0.00160977f, 0.00147154f, -0.00231127f, -0.00040309f, 0.00640380f, 
    -0.00169328f, -0.00130066f, 0.00170402f, 0.00074620f, -0.00087056f, -0.00000780f, 0.00068621f, -0.00066829f, 
    0.00310797f, -0.00152097f, -0.00167355f, -0.00202986f, 0.00046690f, -0.00038481f, -0.00073961f, 0.00012963f, 
    0.00110258f, 0.00093883f, 0.00165524f, 0.00101276f, 0.00101029f, -0.00110314f, 0.00045248f, -0.00021714f, 
    -0.00005594f, 0.00270467f, -0.00068150f, -0.00115714f, 0.00064698f, 0.00074826f, -0.00184339f, 0.00114016f, 
    -0.00064528f, -0.00022229f, -0.00276241f, -0.00257230f, -0.00115292f, 0.00417862f, -0.00005177f, 0.00084230f, 
    0.00284061f, -0.00045152f, -0.00199106f, 0.00121011f, -0.00171623f, 0.00026181f, -0.00087428f, -0.00169089f, 
    0.00131795f, -0.00151877f, -0.00191957f, -0.00475503f, -0.00196079f, 0.00147648f, -0.00239058f, -0.00016560f, 
    -0.00087685f, -0.00056439f, -0.00066225f, -0.00070508f, -0.00144871f, -0.00030177f, 0.00087551f, 0.00153923f, 
    -0.00024397f, 0.00066136f, -0.00050499f, 0.00023211f, 0.00057745f, 0.00078636f, 0.00098820f, -0.00073934f, 
    0.00475201f, -0.00113106f, -0.00123121f, 0.00154700f, 0.00074214f, 0.00142608f, 0.00073726f, 0.00053464f, 
    0.00203081f, 0.00073668f, 0.00062514f, -0.00018712f, 0.00066588f, -0.00171243f, 0.00088065f, -0.00304291f, 
    0.00247192f, 0.00074102f, -0.00072134f, -0.00089808f, -0.00160932f, -0.00128927f, -0.00016191f, 0.00113320f, 
    -0.00107246f, -0.00038519f, -0.00243877f, -0.00129804f, -0.00019863f, -0.00219806f, 0.00047910f, -0.00076437f, 
    0.00068624f, -0.00025286f, 0.00152329f, -0.00091508f, -0.00129779f, -0.00054650f, -0.00091300f, -0.00062266f, 
    -0.00047667f, 0.00020079f, -0.00009053f, -0.14624046f, -0.00041088f, -0.02356941f, 0.00179239f, 0.00036874f, 
    0.00097912f, -0.00068976f, -0.00109895f, 0.00002499f, -0.00354330f, -0.00056592f, 0.00178008f, -0.85200673f, 
    0.00420647f, 0.00064315f, 0.00104954f, -0.00007618f, -0.06466033f, -0.00028269f, 0.00311185f, -0.00179559f, 
    -0.00069211f, 0.00013581f, -0.00150679f, 0.00122913f, -0.00027535f, 0.00077663f, -0.00131012f, 0.00200683f, 
    -0.00037806f, 0.00000116f, -0.00218977f, -0.00027678f, -0.00063525f, -0.00018519f, 0.00330315f, -0.00012200f, 
    -0.00079970f, -0.00162462f, 0.00234857f, 0.00221481f, -0.00039672f, -0.55492026f, 0.35481501f, 0.00150452f, 
    0.00005838f, -0.00068338f, 0.00162322f, -0.00064824f, -0.00144146f, -0.17203392f, -0.79538566f, 0.00077752f, 
    -0.00247272f, -0.00057725f, -0.73648304f, -0.00151677f, 0.00089419f, 0.00088239f, 0.00061642f, -0.00124760f, 
    0.00198051f, -0.00111531f, -0.00131952f, -0.00159650f, -0.14330545f, 0.00086388f, -0.00104271f, 0.00078532f, 
    0.00142022f, -0.00066723f, -0.00009350f, -0.00045352f, 0.00190232f, 0.00217181f, -0.00161861f, 0.41038224f, 
    -0.00158077f, 0.00138729f, 0.00377982f, 0.00008707f, 0.00121652f, -0.00178819f, -0.00022031f, -0.00188424f, 
    -0.00043834f, -0.00009655f, -0.00259735f, -0.00310354f, 0.00049886f, 0.00092775f, -0.00359856f, 0.00083384f, 
    -0.00173665f, 0.00077008f, 0.00031059f, -0.00132342f, 0.00071849f, -0.00024390f, -0.00086285f, -0.00113792f, 
    0.00008542f, 0.00096889f, 0.00126946f, 0.00009867f, 0.00193739f, -0.00104576f, -0.00122495f, -0.00036600f, 
    0.00216143f, 0.00046482f, -0.00036030f, -0.00168235f, -0.00121731f, -0.00428558f, 0.00097831f, 0.00241700f, 
    0.00097099f, 0.00070219f, -0.00006373f, -0.00020004f, -0.00011229f, 0.00045681f, -0.00124492f, 0.00006623f, 
    0.00131207f, -0.00132946f, 0.00035170f, 0.00055329f, -0.00171421f, 0.00194640f, -0.00140457f, -0.00142982f, 
    0.00136245f, 0.00046226f, -0.00085963f, 0.00367775f, -0.00017725f, 0.00154070f, 0.00107975f, -0.00130594f, 
    -0.00037861f, -0.00065014f, 0.00167206f, -0.00049325f, -0.00175352f, -0.00071950f, 0.00128941f, -0.00333205f, 
    0.00034202f, 0.00190589f, -0.00154574f, 0.00207751f, 0.00158923f, 0.00053543f, -0.00029538f, -0.00163818f, 
    0.00231127f, -0.00170654f, -0.00003146f, -0.00014657f, 0.00332818f, -0.00189580f, 0.00088043f, 0.00128776f, 
    0.00054614f, 0.00111438f, -0.00051196f, -0.00021189f, 0.00077021f, -0.00016993f, 0.00039200f, -0.00078424f, 
    -0.00037024f, -0.00163827f, -0.00116106f, 0.00006439f, 0.00123058f, -0.00134291f, -0.00010185f, -0.00065290f, 
    0.00157410f, 0.00130994f, 0.00054003f, 0.00008998f, 0.00084523f, 0.00065862f, 0.00063709f, 0.00323348f, 
    0.00055234f, -0.00009252f, 0.00117801f, -0.00079682f, 0.00055258f, 0.00035403f, 0.00056843f, -0.00131980f, 
    0.00064558f, -0.00033438f, -0.00193574f, 0.00044162f, 0.00241354f, 0.00136965f, 0.00328781f, 0.00069555f, 
    0.00099091f, -0.00285895f, -0.00043575f, -0.00034677f, -0.00184582f, -0.00074724f, -0.00189819f, 0.00064542f, 
    0.00113149f, -0.00093873f, -0.00131541f, -0.00196760f, -0.00071207f, 0.00037601f, -0.00140964f, -0.00142608f, 
    0.00236579f, 0.00162057f, -0.00184727f, 0.00164704f, 0.00159806f, -0.00174037f, 0.00070918f, 0.00080130f, 
    -0.00045992f, -0.00126472f, 0.00085840f, -0.00028893f, -0.00084196f, 0.00054991f, -0.00084478f, 0.00133048f, 
    -0.00194118f, 0.00086202f, 0.00001226f, 0.00086560f, 0.00012942f, 0.00019453f, 0.00053152f, 0.00001180f, 
    0.00254897f, -0.00101281f, -0.00098012f, 0.00065343f, 0.00193611f, -0.00033917f, 0.00241265f, 0.00022679f, 
    0.00041603f, -0.00056599f, -0.00022101f, 0.00088115f, 0.00035051f, 0.00194157f, -0.00004924f, 0.00079873f, 
    -0.00044655f, 0.00058113f, 0.00200227f, 0.00172759f, 0.00083603f, -0.00021635f, 0.00128981f, 0.00072507f, 
    -0.00051926f, -0.00128959f, 0.00066319f, -0.00018157f, -0.00022397f, -0.00150149f, -0.00088417f, -0.00130783f, 
    0.00044524f, -0.00203235f, -0.00024916f, -0.00113863f, -0.00126583f, 0.00070436f, 0.00122454f, 0.00192831f, 
    -0.00206704f, -0.00063599f, 0.00080309f, -0.00285436f, 0.00120112f, -0.00010055f, -0.00218847f, 0.00168557f, 
    -0.00255431f, -0.00077377f, -0.00015556f, -0.00128290f, -0.00144972f, 0.00095937f, 0.00154163f, 0.00184207f, 
    -0.00005240f, 0.00005009f, 0.00028920f, 0.00410586f, -0.00136513f, 0.00257980f, 0.00134442f, -0.00020179f, 
    0.00123463f, -0.00051155f, 0.00372856f, -0.00129025f, 0.00246388f, -0.00271795f, -0.00088712f, 0.00012388f, 
    -0.00075941f, -0.00477787f, -0.00076319f, -0.00295235f, 0.00166509f, 0.00066192f, 0.00091035f, 0.00265674f, 
    -0.00118974f, -0.00090909f, 0.00098031f, 0.00287544f, 0.00070530f, 0.00012134f, 0.00199655f, 0.00128908f, 
    0.00026123f, -0.00181016f, 0.00069240f, 0.00132772f, -0.00194723f, 0.00090251f, 0.00076219f, -0.00181149f, 
    0.00056398f, 0.00027671f, -0.00134340f, -0.00026577f, -0.00027017f, -0.00211921f, -0.00475840f, -0.00032371f, 
    -0.00065584f, -0.00004222f, 0.00084045f, -0.00101195f, 0.00127822f, -0.00129568f, 0.00022446f, -0.00075919f, 
    -0.00037724f, 0.00037698f, -0.00053502f, 0.00166168f, 0.00105348f, 0.00013606f, -0.00160105f, -0.00098231f, 
    0.00155506f, -0.00121456f, 0.00137474f, -0.00059940f, 0.00310283f, -0.00030521f, -0.00239414f, 0.00268563f, 
    0.00108276f, -0.00059623f, -0.00185122f, -0.00241126f, 0.00128914f, -0.00086839f, 0.00087299f, -0.00172241f, 
    0.00071756f, -0.00023807f, -0.00251851f, 0.00262193f, -0.00058680f, 0.00041692f, 0.00052581f, -0.00193296f, 
    0.00154842f, 0.00025567f, 0.00153932f, -0.00135105f, 0.00187444f, 0.00118439f, -0.00111213f, -0.00024171f, 
    -0.00069105f, 0.00081339f, 0.00103553f, 0.00133182f, -0.00079462f, 0.00627886f, 0.00073502f, 0.00298750f, 
    -0.00019393f, -0.00033161f, 0.00097798f, -0.00021471f, 0.00133402f, -0.00427495f, 0.00065388f, -0.25708014f, 
    0.45568696f, -0.00075371f, -0.00205825f, 0.00147445f, 0.00157279f, 0.00089735f, -0.00088233f, -0.00134282f, 
    0.00102759f, 0.00180968f, 0.00052762f, 0.00095634f, -0.00108118f, -0.00351782f, -0.00019062f, -0.00060111f, 
    0.00243866f, -0.00082750f, -0.00177995f, -0.00057174f, 0.00380775f, 0.00193912f, -0.00056532f, 0.00019607f, 
    0.00008178f, -0.00118873f, -0.00032627f, 0.00121605f, 0.00189435f, 0.01322003f, 0.00058241f, -0.00101121f, 
    0.00267735f, -0.00114593f, 0.00021255f, 0.00053766f, 0.00151612f, -0.00915699f, -0.20249474f, -0.00058271f, 
    -0.00090030f, -0.00001007f, -0.29463571f, 0.00113265f, -0.00016130f, 0.00007927f, -0.00086725f, -0.00164939f, 
    -0.00009561f, 0.00002860f, 0.00186469f, -0.00395385f, -0.00059700f, 0.00412717f, -0.00474836f, 0.00014338f, 
    0.00029329f, -0.05687787f, -0.00076248f, -0.02752271f, 0.00004890f, 0.00203558f, 0.00244572f, 0.01994424f, 
    -0.00256723f, 0.00036853f, 0.00136442f, 0.00085467f, 0.00009314f, -0.00241116f, 0.00144078f, -0.00094895f, 
    -0.00121906f, 0.00003194f, -0.00020099f, 0.00120833f, 0.00220176f, 0.00025632f, 0.00061398f, -0.00252268f, 
    -0.00011582f, -0.00009889f, -0.00046477f, 0.00037350f, -0.00091711f, -0.00146636f, 0.00140406f, -0.00237650f, 
    0.00361039f, -0.00061096f, 0.00089477f, 0.00084817f, 0.00124149f, -0.00082791f, -0.00218476f, -0.00060369f, 
    0.00026843f, 0.00004604f, 0.00070214f, -0.00028568f, 0.00060614f, -0.00053589f, 0.00237848f, 0.00119605f, 
    -0.00073922f, 0.00099785f, -0.00087185f, 0.00025578f, -0.00203430f, -0.00092990f, -0.00104720f, -0.00091183f, 
    -0.00037107f, 0.00196876f, 0.00170860f, -0.00063446f, -0.00624521f, 0.00156890f, 0.00159542f, 0.00161742f, 
    0.00381380f, 0.00419462f, -0.00182236f, -0.00062699f, 0.00087204f, -0.00105571f, 0.00151046f, -0.00174557f, 
    -0.00191525f, 0.00315675f, -0.00012485f, 0.00062106f, 0.00009532f, 0.00095900f, 0.00044838f, -0.00006168f, 
    -0.00266362f, -0.00147770f, -0.00101604f, 0.00080428f, -0.00104140f, -0.00005015f, 0.00012494f, 0.00179901f, 
    0.00193982f, -0.00142484f, -0.00003377f, 0.00129920f, -0.00109695f, -0.00140990f, 0.00217435f, 0.00012526f, 
    -0.00644257f, 0.00035333f, 0.00070652f, 0.00335700f, 0.00279243f, 0.00185243f, 0.00372129f, 0.00177230f, 
    -0.00118851f, 0.00215638f, 0.00038416f, 0.00248917f, 0.00165442f, 0.00008891f, 0.00055899f, -0.00128384f, 
    0.00078480f, -0.00181615f, 0.00050787f, 0.00050066f, 0.00071923f, -0.00176814f, -0.00064420f, 0.00129340f, 
    -0.00248682f, -0.00047751f, 0.00133333f, 0.00071517f, 0.00027572f, 0.00159298f, 0.00118054f, 0.00198155f, 
    0.00069175f, -0.00020993f, 0.00193395f, 0.00219838f, -0.00099232f, 0.00052996f, 0.00118362f, -0.00027629f, 
    -0.00099234f, 0.00065860f, 0.00046916f, 0.00120288f, -0.00176954f, 0.00062932f, -0.00014901f, 0.00132948f, 
    0.00136038f, -0.00051071f, -0.00000273f, 0.00322188f, -0.00110482f, -0.00327374f, -0.00070026f, 0.00000843f, 
    -0.00114465f, 0.00041670f, 0.00065253f, 0.00024798f, -0.00085745f, 0.00181029f, 0.00155618f, -0.00039667f, 
    -0.00249894f, 0.00029739f, -0.00066654f, 0.00017123f, -0.00216348f, -0.00423026f, -0.00060928f, 0.00013502f, 
    -0.00129192f, -0.00113051f, 0.00098681f, 0.00012936f, 0.00112968f, -0.00090121f, -0.00180839f, -0.00038493f, 
    0.00010381f, 0.00056615f, -0.00124480f, -0.00101236f, 0.00124264f, 0.00153660f, -0.00097352f, 0.00141517f, 
    -0.00213540f, 0.00128939f, -0.00104082f, -0.00110077f, 0.00201203f, 0.00116658f, -0.00135766f, 0.00075593f, 
    -0.00086275f, 0.00012126f, -0.00244162f, 0.00015883f, -0.00084299f, -0.00475104f, -0.00129364f, 0.00257259f, 
    0.00067651f, -0.00056186f, 0.00160747f, -0.00025132f, 0.00125908f, 0.00030300f, 0.00056259f, -0.00013912f, 
    0.00075931f, 0.00045986f, -0.00224457f, 0.00133372f, -0.00139981f, 0.00112975f, -0.00151421f, -0.00078758f, 
    0.00010844f, 0.00109867f, 0.00258327f, 0.00130797f, 0.00087209f, 0.00052240f, -0.00016957f, 0.00110673f, 
    0.00171027f, -0.00059861f, 0.00047742f, 0.00104771f, -0.00155943f, -0.00155433f, -0.00001223f, -0.00130613f, 
    -0.00124376f, -0.00133675f, -0.00135232f, -0.00001073f, -0.00162408f, 0.00115006f, -0.00238888f, -0.00173216f, 
    0.00089007f, -0.00201204f, -0.00320095f, 0.00062789f, 0.00075078f, -0.00120820f, 0.00037194f, 0.00033852f, 
    0.00277317f, -0.00018421f, -0.00238896f, 0.00081732f, 0.00012611f, -0.00127041f, -0.00059531f, -0.00149850f, 
    -0.00085459f, -0.00259257f, -0.00082223f, 0.00141041f, -0.00017541f, -0.00094960f, 0.00099606f, -0.00281362f, 
    -0.00054503f, 0.00076580f, -0.00125304f, 0.00186272f, 0.00173476f, 0.00405952f, 0.00044514f, -0.00058362f, 
    -0.00039672f, 0.00280003f, 0.00377718f, 0.00095147f, -0.00180124f, -0.00033906f, -0.00037430f, 0.00184509f, 
    0.00141459f, -0.00254857f, 0.00139016f, -0.00061143f, 0.00284604f, 0.00063912f, 0.00374831f, -0.00066961f, 
    0.00090320f, -0.00052643f, 0.00116054f, 0.00144060f, -0.00092210f, -0.00020183f, 0.00112136f, -0.00019550f, 
    -0.00071061f, 0.00050682f, 0.00210561f, -0.00102973f, 0.00398770f, -0.00054686f, -0.00003945f, 0.00182763f, 
    0.00128880f, 0.00070313f, 0.00024669f, -0.00092028f, -0.00201728f, 0.00139804f, 0.00001765f, -0.00065596f, 
    0.00021757f, 0.00103780f, -0.00109081f, -0.00086591f, 0.00252733f, -0.00192466f, -0.00102839f, 0.00475203f, 
    0.00192475f, 0.00274493f, -0.00077311f, 0.00018220f, -0.00070744f, -0.00373437f, -0.00297048f, -0.00142620f, 
    -0.00132219f, 0.00194917f, 0.00117304f, -0.00082374f, -0.00122194f, 0.00055497f, 0.00023861f, -0.00054774f, 
    0.00017499f, -0.00100810f, 0.00115957f, 0.00089942f, -0.00185389f, 0.00086835f, -0.00139302f, -0.00022271f, 
    -0.00135204f, 0.00247419f, 0.00112505f, -0.00076744f, -0.00184367f, 0.00048523f, 0.00132487f, -0.00241744f, 
    -0.00017226f, 0.00098776f, 0.00115682f, 0.00048675f, 0.00013669f, -0.00215823f, 0.00086105f, -0.00164983f, 
    0.00076415f, 0.00165807f, -0.00107918f, -0.00059740f, 0.00002039f, -0.00071111f, -0.00046043f, 0.00000852f, 
    -0.00052930f, -0.00023028f, -0.00008258f, -0.00236860f, -0.00050713f, 0.00140954f, 0.00116926f, -0.00045561f, 
    -0.00118376f, 0.00196595f, 0.00086995f, 0.00168198f, 0.00046226f, 0.00179685f, -0.00046940f, -0.00092882f, 
    0.00075897f, -0.00000477f, -0.00080705f, 0.00237033f, -0.00089655f, -0.00002752f, -0.00219658f, 0.00039800f, 
    0.00009033f, -0.00401534f, 0.00050040f, 0.00158365f, -0.00241061f, 0.00042377f, -0.00030657f, 0.00059332f, 
    0.00181543f, -0.00268531f, 0.00071877f, 0.00104944f, -0.00008621f, 0.00291255f, -0.00250681f, -0.00118925f, 
    -0.00198381f, -0.00118348f, -0.00455863f, -0.00104389f, 0.00058816f, 0.00027287f, -0.00013193f, 0.00027331f, 
    -0.00280421f, -0.00017002f, 0.00137868f, 0.00093976f, 0.00007135f, -0.00178304f, 0.00058552f, 0.00005667f, 
    -0.00049054f, -0.00142534f, 0.00080834f, 0.00151095f, -0.00047939f, 0.00044085f, 0.00138054f, 0.00287961f, 
    -0.00282542f, -0.00026831f, -0.00027641f, -0.00134231f, 0.00269797f, -0.00032087f, -0.00056567f, 0.00040869f, 
    -0.00137559f, -0.00143325f, 0.00197127f, 0.00306126f, -0.00237765f, 0.00244973f, 0.00209096f, -0.00068991f, 
    0.00247898f, -0.00023402f, 0.00031294f, -0.00174008f, -0.00090365f, 0.00071086f, -0.00285026f, 0.00211607f, 
    -0.00025568f, -0.00035983f, 0.00176387f, -0.00056196f, 0.00174045f, 0.00151784f, 0.00087768f, -0.00054851f, 
    -0.00320133f, -0.00009818f, -0.00119471f, -0.00100913f, -0.00013924f, -0.00072292f, -0.00165166f, -0.00100931f, 
    0.00097911f, -0.00188419f, 0.00000967f, -0.00161029f, 0.00135399f, 0.00004075f, -0.00027251f, -0.00179101f, 
    0.00055789f, -0.00167459f, 0.00059620f, -0.00098615f, -0.00162271f, -0.00167779f, 0.00061051f, -0.00071938f, 
    0.00008986f, 0.00018864f, -0.00041418f, -0.00057771f, -0.00330332f, -0.00058316f, -0.00046438f, 0.00395495f, 
    -0.00076850f, -0.00016966f, 0.00056339f, 0.00121302f, 0.00084135f, 0.00182464f, -0.00382094f, -0.00157107f, 
    -0.00155823f, 0.00133084f, -0.00011465f, -0.00050767f, 0.00012069f, 0.00025624f, 0.00237622f, -0.00170041f, 
    0.00021968f, -0.00075948f, 0.00162109f, -0.00047301f, -0.00184009f, -0.00101718f, -0.00011656f, 0.00178489f, 
    -0.00155171f, -0.00207781f, 0.00017676f, -0.00008352f, 0.00194261f, 0.00129535f, -0.00123715f, 0.00059815f, 
    -0.00103481f, 0.00072514f, -0.00007971f, 0.00063667f, 0.00099749f, -0.00114611f, 0.00028208f, 0.00033205f, 
    -0.00238779f, 0.00056380f, -0.00307963f, -0.00093879f, 0.00154165f, -0.00048274f, -0.00153049f, -0.00106400f, 
    0.00000617f, -0.00180878f, -0.00018016f, -0.00037130f, 0.00230466f, -0.00141313f, -0.00074478f, -0.00192047f, 
    0.00046080f, 0.00311811f, -0.00017114f, -0.00104113f, 0.00054758f, -0.00106223f, -0.00252745f, 0.00031813f, 
    0.00002220f, -0.00007514f, -0.00097970f, 0.00090444f, -0.00005984f, 0.00085081f, 0.00089211f, 0.00175175f, 
    -0.00108128f, -0.00004258f, 0.00178679f, -0.00113962f, 0.00052479f, 0.00107840f, 0.00098015f, -0.00153923f, 
    -0.00052406f, -0.00107076f, 0.00135426f, 0.00177395f, -0.00051791f, -0.00200094f, 0.00145182f, -0.00060591f, 
    -0.00048531f, 0.00148015f, 0.00039979f, -0.00056775f, 0.00120454f, -0.00194293f, -0.00016947f, -0.00091548f, 
    -0.00025792f, -0.00139378f, -0.00067654f, 0.00235831f, 0.00129057f, 0.00166742f, 0.00204547f, 0.00049575f, 
    0.00241858f, 0.00131138f, 0.00147844f, -0.00038873f, 0.00102916f, 0.00216303f, -0.00144786f, 0.00066315f, 
    0.00163873f, -0.00025103f, -0.00080002f, -0.00050810f, -0.00098422f, -0.00247507f, -0.00244124f, -0.00149922f, 
    -0.00026171f, 0.00132609f, 0.00188498f, -0.00112939f, 0.00333205f, -0.00088925f, 0.00092404f, 0.00011841f, 
    0.00067292f, -0.00068053f, -0.00052441f, 0.00050278f, -0.00131617f, -0.00053510f, -0.00245496f, 0.00080068f, 
    -0.00244449f, -0.00087084f, 0.00064530f, -0.00067291f, 0.00176372f, -0.00005461f, 0.00064767f, 0.00046443f, 
    -0.00214400f, 0.00249488f, -0.00211208f, -0.00110516f, -0.00085017f, 0.00060525f, 0.00078892f, 0.00127934f, 
    -0.00029841f, -0.00188641f, 0.00135106f, 0.00049857f, 0.00276467f, 0.00203189f, 0.00125071f, 0.00003585f, 
    0.00071763f, -0.00126981f, 0.00015035f, -0.00117184f, -0.00047236f, 0.00125333f, -0.00093469f, 0.00069347f, 
    0.00160236f, -0.00004741f, -0.00234573f, -0.00095259f, 0.00047825f, -0.00145279f, -0.00039119f, -0.00048479f, 
    0.00068741f, -0.00113526f, 0.00059373f, 0.00152288f, -0.00093291f, 0.00000036f, 0.00102806f, -0.00062120f, 
    -0.00330482f, 0.00136089f, -0.00261142f, 0.00129004f, 0.00050946f, 0.00078680f, -0.00090194f, 0.00053186f, 
    0.00315070f, 0.00108143f, 0.00098334f, -0.00063408f, 0.00014133f, 0.00080246f, -0.00023507f, 0.00017936f, 
    0.00330824f, 0.00112702f, -0.00006340f, 0.00001339f, 0.00189341f, 0.00082677f, 0.00181800f, -0.00127308f, 
    0.00133886f, 0.00097135f, 0.00005748f, -0.00016773f, 0.00167448f, -0.00626295f, -0.00158505f, -0.00095355f, 
    0.00258334f, 0.00034330f, -0.00060767f, -0.00179522f, 0.00046219f, -0.00170467f, 0.00078643f, 0.00104418f, 
    -0.00010922f, -0.00002524f, 0.00082768f, 0.00139927f, -0.00051479f, -0.00458607f, -0.00167910f, 0.00128998f, 
    -0.00201490f, 0.00061868f, 0.00056391f, -0.00169409f, 0.00244159f, -0.00215980f, 0.00054189f, -0.00259780f, 
    0.00078897f, -0.00103430f, 0.00015082f, 0.00055302f, -0.00097693f, -0.00155128f, 0.00056428f, -0.00065102f, 
    0.00194899f, 0.00164797f, -0.00243423f, 0.00091258f, -0.00074447f, -0.00180765f, -0.00122395f, 0.00173594f, 
    -0.00090247f, -0.00195604f, 0.00006134f, -0.00178396f, 0.00129496f, 0.00130065f, -0.00111089f, 0.00131984f, 
    -0.00130036f, 0.00310775f, 0.00394286f, 0.00163858f, -0.00066569f, 0.00162195f, 0.00220301f, 0.00061699f, 
    -0.00123132f, 0.00130865f, -0.00124434f, 0.00119208f, -0.00128304f, -0.00138574f, 0.00061851f, -0.00047665f, 
    -0.00244244f, -0.00045423f, -0.00089195f, -0.00194370f, 0.00001168f, 0.00204973f, -0.00249451f, 0.00065829f, 
    -0.00029061f, 0.00063891f, 0.00249206f, -0.00046335f, -0.00131235f, 0.00333517f, 0.00048126f, -0.00021683f, 
    0.00175542f, -0.00181526f, -0.00215150f, -0.00091546f, -0.00046993f, 0.00259808f, -0.00124524f, -0.00113106f, 
    0.00011927f, 0.00389080f, -0.00021981f, -0.00124436f, 0.00096732f, 0.00022162f, -0.00056937f, -0.00132787f, 
    0.00089470f, -0.00094848f, 0.38280448f, -0.00127883f, -0.00198952f, -0.00042029f, -0.00072936f, 0.00058915f, 
    0.00024447f, 0.00144979f, -0.00100832f, 0.00241296f, 0.00065440f, 0.00139041f, -1.41513765f, 0.02617554f, 
    -0.00001157f, 0.00204498f, 0.00024324f, 0.43819237f, -0.00094586f, 0.00136615f, -0.00057469f, -0.00138520f, 
    0.00072913f, 0.00186361f, 0.00328130f, -0.00055650f, -0.00143622f, -0.00166703f, -0.00372505f, 0.00087584f, 
    -0.00043564f, -0.00041927f, -0.00182354f, 0.00335467f, 0.00330065f, 0.00064580f, -0.00123543f, 0.00240050f, 
    0.00128030f, 0.00089844f, -0.00119822f, 0.00263826f, -1.18139100f, 0.00080400f, -0.00076862f, 0.00279672f, 
    -0.00143700f, 0.00003636f, -0.00329520f, -0.00162588f, -0.00162206f, 0.00009204f, -0.00061741f, -0.00173257f, 
    0.00056561f, -0.39630195f, 0.00049814f, -0.00062721f, -0.00094686f, -0.00124694f, -0.00063516f, 0.00128464f, 
    -0.00163973f, -0.00107480f, -0.00215685f, -0.00699566f, 0.00172205f, 0.00263248f, 0.00187187f, 0.02595695f, 
    -0.00795534f, 0.00087740f, -0.00058622f, -0.00012883f, 0.00127545f, 0.00007144f, 0.00092016f, -0.00026864f, 
    -0.00031377f, 0.00334861f, -0.03234384f, 0.00028102f, 0.00071969f, -0.00179746f, 0.00017634f, -0.00139496f, 
    0.00117315f, -0.00475634f, -0.00168270f, -0.00020182f, -0.00098069f, -0.00219972f, -0.20626527f, -0.00109335f, 
    0.00041106f, 0.00064704f, -0.00081336f, -0.65340471f, 0.00007709f, -0.00002971f, 0.00060413f, -0.00442091f, 
    -0.00087827f, 0.00241148f, -0.00018129f, 0.00027679f, -0.00070357f, 0.00012589f, -0.00006088f, 0.00130541f, 
    0.00186855f, 0.00087574f, 0.00036921f, -0.00037786f, -0.00246455f, -0.00019834f, -0.00087012f, -0.00099222f, 
    0.00097401f, 0.00120076f, 0.00025896f, 0.00073443f, -0.00105375f, 0.00234774f, 0.00104946f, 0.00028073f, 
    -0.00064854f, -0.00173066f, -0.00084733f, -0.00130091f, -0.17494456f, 0.00447306f, -0.00089924f, -0.00045651f, 
    -0.00029111f, -0.66259575f, 0.00131820f, 0.00040709f, -0.00117337f, 0.00197839f, 0.00054082f, 0.00044581f, 
    0.00000319f, -0.00059197f, -0.00620861f, 0.01566959f, 0.00099863f, -0.00081987f, -0.10313278f, -0.00648906f, 
    -0.09102114f, -0.00233389f, -0.02365053f, 0.00176443f, 0.00246082f, 0.00078685f, -0.00318630f, -0.00157487f, 
    0.00214008f, 0.00089487f, 0.00113095f, 0.00252249f, 0.00305456f, 0.00210940f, -0.00011843f, -0.00031273f, 
    0.00131441f, 0.00064536f, -0.00319968f, -0.00037222f, 0.00064324f, 0.00009528f, 0.00054978f, 0.00234478f, 
    0.00201494f, 0.00004912f, 0.00009173f, 0.00047048f, -0.00005646f, -0.00021340f, 0.00222846f, -0.00246951f, 
    -0.00001493f, 0.00171649f, 0.00016723f, 0.00134337f, 0.00075010f, -0.00097943f, 0.00061130f, 0.00055128f, 
    0.00085296f, 0.00144567f, -0.00104179f, 0.00018953f, 0.00110735f, 0.00214792f, -0.00075568f, -0.00103078f, 
    -0.00249332f, -0.00078554f, -0.00120150f, 0.00174913f, -0.00049329f, -0.00001294f, -0.00126813f, 0.00125045f, 
    0.00087130f, 0.00089561f, -0.00036591f, -0.00122350f, -0.00075615f, 0.00065631f, 0.00048020f, -0.00061437f, 
    -0.00066975f, -0.00464345f, 0.00008160f, -0.00025684f, -0.00027367f, -0.00151035f, 0.00045393f, -0.00142511f, 
    0.00158568f, 0.00007458f, -0.00232391f, -0.00116998f, -0.00087081f, 0.00011114f, -0.00033856f, -0.00012692f, 
    0.00000617f, 0.00160167f, -0.00108982f, 0.00066145f, 0.00261205f, 0.00010191f, 0.00028400f, -0.00251262f, 
    0.00089112f, -0.00140732f, -0.00131038f, 0.00097714f, -0.00116541f, 0.00120120f, 0.00088834f, -0.00060970f, 
    -0.00077551f, -0.00064252f, 0.00047449f, 0.00097396f, -0.00049986f, 0.00041654f, 0.00196523f, 0.00088827f, 
    0.00078081f, 0.00006793f, 0.00165633f, 0.00098550f, 0.00083741f, -0.00216448f, -0.00217306f, 0.00125833f, 
    0.00063038f, -0.00056667f, -0.00008775f, -0.00072935f, -0.00136506f, -0.00122335f, 0.00186132f, 0.00132553f, 
    -0.00149091f, 0.00064800f, -0.00333448f, 0.00201197f, 0.00030303f, 0.00063790f, 0.00097910f, 0.00122556f, 
    0.00236043f, -0.00091081f, -0.00094621f, -0.00132022f, -0.00179724f, 0.00019939f, -0.00036788f, 0.00070027f, 
    0.00065387f, 0.00127480f, 0.00010331f, 0.00059289f, -0.00125728f, 0.00167359f, -0.00068285f, -0.00168337f, 
    0.00064145f, 0.00023560f, 0.00199409f, 0.00130031f, 0.00086589f, -0.00114258f, 0.00213423f, -0.00015313f, 
    0.00155157f, 0.00068899f, -0.00054187f, 0.00097708f, 0.00178962f, 0.00058876f, -0.00037862f, -0.00040596f, 
    -0.00130082f, -0.00003108f, 0.00119251f, -0.00312291f, 0.00006963f, -0.00029161f, -0.00087511f, 0.00049091f, 
    -0.00068493f, -0.00130280f, -0.00135519f, -0.00121146f, 0.00124822f, 0.00108335f, -0.00009206f, 0.00220898f, 
    0.00031068f, 0.00040160f, -0.00157478f, -0.00015362f, -0.00200401f, 0.00062439f, 0.00084895f, 0.00029853f, 
    0.00127228f, 0.00098506f, 0.00196555f, 0.00115960f, 0.00017672f, -0.00180792f, -0.00034479f, 0.00098571f, 
    -0.00074280f, 0.00073506f, 0.00089559f, 0.00008640f, -0.00030608f, 0.00201396f, 0.00303317f, -0.00159886f, 
    -0.00124510f, -0.00097281f, -0.00241135f, -0.00309966f, -0.00241762f, 0.00052361f, -0.00143620f, -0.00007850f, 
    0.00000214f, 0.00065821f, -0.00070456f, 0.00279117f, 0.00141725f, 0.00028354f, 0.00175887f, -0.00241518f, 
    0.00046251f, 0.00176560f, -0.00061428f, -0.00137550f, 0.00156443f, -0.00089735f, -0.00075936f, -0.00285704f, 
    0.00147790f, -0.00066923f, 0.00038055f, -0.00219574f, 0.00074044f, 0.00252710f, 0.00246740f, -0.00177909f, 
    -0.00003221f, 0.00046386f, 0.00062271f, 0.00213001f, 0.00066732f, -0.00043380f, -0.00050322f, -0.00002614f, 
    0.00310241f, 0.00114851f, -0.00227377f, 0.00157421f, 0.00166635f, 0.00043026f, 0.00000379f, -0.00106835f, 
    0.00085501f, 0.00098781f, -0.00233051f, -0.00410803f, -0.00085864f, 0.00086752f, 0.00256356f, -0.00081793f, 
    -0.00183775f, 0.00100226f, -0.00155050f, 0.00144028f, -0.00246692f, -0.00041478f, -0.00138469f, -0.00116172f, 
    0.00044799f, 0.00129267f, 0.00255703f, 0.00044386f, 0.00065197f, 0.00033382f, -0.00062618f, -0.00049744f, 
    0.00149961f, -0.00032873f, -0.00051475f, -0.00010850f, 0.00059564f, 0.00014600f, 0.00119516f, 0.00126111f, 
    0.00060679f, -0.00112263f, 0.00334881f, 0.00052805f, -0.00159363f, 0.00107394f, -0.00124851f, -0.00276146f, 
    -0.00117182f, -0.00246038f, -0.00099816f, -0.00071985f, 0.00025442f, -0.00049523f, -0.00012340f, -0.00125512f, 
    -0.00191477f, 0.00188449f, -0.00136295f, -0.00087695f, 0.00015551f, -0.00133405f, 0.00259887f, -0.00087367f, 
    -0.00026727f, -0.00002513f, -0.00097878f, 0.00055920f, 0.00154351f, 0.00372905f, -0.00028644f, 0.00106283f, 
    0.00051324f, -0.00087324f, -0.00221549f, 0.00166373f, -0.00014960f, 0.00026320f, 0.00186559f, 0.00315460f, 
    -0.00098136f, 0.00070978f, -0.00301933f, -0.00124615f, -0.00004645f, -0.00082672f, 0.00217065f, 0.00425864f, 
    0.00068026f, -0.00173706f, -0.00054127f, 0.00069120f, -0.00090751f, -0.00046099f, 0.00160485f, 0.00217720f, 
    0.00059014f, 0.00075059f, 0.00133060f, 0.00137679f, -0.00065690f, 0.00388200f, -0.00329465f, 0.00065317f, 
    0.00180537f, 0.00130136f, 0.00077973f, -0.00163633f, 0.00271292f, -0.00005227f, 0.00169608f, -0.00018237f, 
    0.00415785f, -0.00042512f, -0.00022231f, -0.00080355f, -0.00062350f, 0.00194243f, 0.00032925f, 0.00056393f, 
    -0.00247384f, -0.00013554f, -0.00017373f, 0.00043529f, -0.00087331f, 0.00123289f, 0.00012662f, -0.00066649f, 
    -0.00145033f, -0.00008775f, 0.00141540f, -0.00025112f, 0.00524268f, -0.00200912f, -0.00132875f, 0.00018450f, 
    0.00130296f, -0.00231209f, -0.00249468f, -0.00132130f, -0.00003626f, -0.00075494f, -0.00218972f, 0.00006546f, 
    -0.00009116f, -0.00092457f, 0.00144827f, -0.00198789f, 0.00144588f, -0.00051917f, 0.00044031f, 0.00043633f, 
    0.00050336f, -0.00044845f, -0.00038596f, -0.00023143f, -0.00063100f, -0.00014447f, 0.00206045f, 0.00130453f, 
    -0.00025871f, 0.00389122f, -0.00095052f, -0.00071192f, -0.00021453f, 0.00088828f, -0.00128252f, -0.00026203f, 
    0.00129504f, -0.00249979f, 0.00025429f, -0.00067851f, -0.00313278f, 0.00143642f, -0.00015860f, 0.00052719f, 
    0.00082117f, -0.00168325f, -0.00011569f, -0.00422482f, -0.00065428f, -0.00075145f, -0.00044217f, -0.00052106f, 
    -0.00473945f, 0.00070538f, -0.00023223f, 0.00090280f, -0.00029558f, 0.00008186f, -0.00115340f, 0.00069507f, 
    -0.00065001f, -0.00087649f, 0.00162554f, -0.00118820f, -0.00067532f, 0.00030208f, -0.00024513f, 0.00285125f, 
    -0.00250103f, 0.00063855f, 0.00134386f, 0.00064186f, 0.00049359f, -0.00246922f, -0.00215682f, -0.00198877f, 
    -0.00064572f, -0.00063834f, 0.00087563f, 0.00297304f, 0.00069633f, -0.00101942f, 0.00193054f, -0.00136932f, 
    -0.00141656f, 0.00034911f, -0.00049119f, 0.00011813f, 0.00180032f, 0.00107475f, 0.00078310f, 0.00049695f, 
    -0.00310802f, -0.00061766f, -0.00010164f, 0.00079566f, 0.00127950f, 0.00173226f, 0.00201349f, 0.00080536f, 
    0.00025741f, -0.00001016f, -0.00024308f, -0.00218839f, -0.00078849f, 0.00084443f, 0.00189405f, -0.00159782f, 
    -0.00046343f, -0.00013082f, -0.00125412f, -0.00059549f, 0.00136891f, 0.00100707f, 0.00225465f, -0.00140068f, 
    -0.00033655f, 0.00119804f, -0.00141136f, 0.00262119f, 0.00205103f, -0.00015955f, 0.00203493f, -0.00078841f, 
    0.00026019f, 0.00010827f, -0.00419810f, -0.00044810f, -0.00067440f, 0.00065527f, -0.00010116f, -0.00312061f, 
    0.00040146f, 0.00378231f, -0.00080713f, 0.00232709f, 0.00195657f, 0.00186868f, 0.00322627f, -0.00387278f, 
    -0.00091530f, -0.00139200f, 0.00308083f, 0.00136629f, -0.00129470f, 0.00060338f, 0.00023921f, -0.00077493f, 
    0.00176739f, 0.00046916f, 0.00177778f, 0.00115342f, -0.00163989f, 0.00019148f, -0.00041362f, -0.00036987f, 
    0.00027734f, -0.00061566f, 0.00038677f, 0.00108480f, 0.00021511f, 0.00051334f, 0.00053025f, -0.00036499f, 
    0.00028917f, -0.00127826f, -0.00089553f, 0.00051220f, 0.00114737f, 0.00117242f, -0.00043278f, 0.00080131f, 
    -0.00003888f, -0.00010597f, 0.00197640f, -0.00248490f, 0.00055180f, 0.00003586f, -0.00002893f, -0.00180187f, 
    -0.00034526f, -0.00046570f, -0.00141050f, -0.00327285f, 0.00078137f, -0.00307723f, 0.00223608f, -0.00153760f, 
    -0.00062145f, -0.00025763f, 0.00185328f, 0.00055701f, -0.00194676f, 0.00032797f, 0.00021099f, 0.00124496f, 
    -0.00046361f, -0.00178428f, 0.00086422f, 0.00007793f, 0.00180482f, 0.00065537f, 0.00040869f, -0.00164839f, 
    -0.00110792f, -0.00311920f, -0.00039324f, -0.00127432f, 0.00048212f, -0.00039284f, -0.00002637f, 0.00194390f, 
    0.00122358f, -0.00090569f, 0.00047247f, -0.00128744f, 0.00121001f, 0.00067641f, 0.00011057f, 0.00382248f, 
    -0.00023028f, 0.00009739f, -0.00129874f, -0.00100257f, 0.00065384f, -0.00030274f, 0.00101405f, -0.00066826f, 
    0.00089000f, 0.00030423f, 0.00118675f, 0.00062161f, -0.00101400f, -0.00115249f, 0.00076270f, 0.00075836f, 
    -0.00008247f, 0.00149596f, 0.00020683f, -0.00115228f, 0.00074615f, -0.00239381f, 0.00310966f, 0.00080166f, 
    0.00022481f, 0.00241850f, 0.00107150f, 0.00022398f, -0.00157441f, -0.00087955f, -0.00022830f, -0.00051950f, 
    -0.00087593f, -0.00127738f, -0.00056140f, 0.00022344f, -0.00070340f, 0.00078368f, -0.00162593f, 0.00191921f, 
    0.00120014f, 0.00310127f, -0.00114555f, 0.00062864f, -0.00098069f, 0.00241217f, -0.00029608f, 0.00060581f, 
    0.00078629f, 0.00033137f, 0.00113317f, -0.00067155f, -0.00086436f, 0.00247056f, -0.00068507f, -0.00330892f, 
    -0.00200860f, 0.00343053f, -0.00019011f, 0.00319149f, -0.00139470f, -0.00058731f, 0.00066544f, 0.00007719f, 
    0.00022914f, 0.00016204f, -0.00014735f, -0.00141643f, 0.00086850f, 0.00194998f, -0.00006215f, -0.00090868f, 
    -0.00130680f, 0.00010958f, 0.00005821f, 0.00065266f, 0.00021980f, -0.00088459f, 0.00019096f, -0.00132021f, 
    -0.00038204f, 0.00067782f, -0.00110770f, -0.00207692f, 0.00073474f, 0.00007976f, 0.00057108f, 0.00178979f, 
    -0.00192437f, -0.00000665f, -0.00157320f, 0.00603743f, 0.00124456f, 0.00182604f, 0.00214944f, 0.00060283f, 
    -0.00066617f, 0.00034738f, 0.00247007f, -0.00098567f, 0.00179432f, -0.00134758f, -0.00017661f, 0.00082135f, 
    0.00046518f, -0.00086871f, 0.00163658f, -0.00132125f, -0.00084235f, -0.00059748f, 0.00123112f, 0.00019634f, 
    0.00189761f, -0.00169921f, 0.00285364f, 0.00047225f, 0.00094867f, 0.00084075f, 0.00076354f, -0.00210559f, 
    -0.00071445f, 0.00166597f, -0.00007055f, -0.00039298f, -0.00613258f, -0.00069711f, -0.00242689f, -0.00073769f, 
    0.00055415f, -0.00275903f, -0.00061940f, 0.00067679f, 0.00020473f, 0.00027985f, 0.00163028f, -0.00181222f, 
    0.00143169f, -0.00193966f, 0.00050028f, 0.00008546f, -0.00163718f, -0.00057309f, 0.00139671f, -0.00112818f, 
    -0.00119214f, 0.00087575f, -0.00051873f, -0.00161052f, 0.00163938f, 0.00070131f, 0.00101053f, 0.00000516f, 
    -0.00020823f, -0.00052917f, -0.00119908f, 0.00281496f, -0.00059840f, -0.00134100f, 0.00037480f, 0.00105321f, 
    0.00124125f, 0.00004712f, -0.00011455f, 0.00130242f, 0.00024476f, -0.00180328f, -0.00164084f, 0.00199234f, 
    -0.00089909f, -0.00072922f, -0.00022852f, 0.00035095f, 0.00060233f, -0.00124620f, 0.00097083f, -0.00206264f, 
    0.00041857f, -0.00030739f, -0.00008282f, 0.00121632f, -0.00264152f, -0.00471793f, -0.00218526f, 0.00058531f, 
    0.00241605f, 0.00073969f, -0.00058018f, 0.00234761f, 0.00142766f, -0.00000327f, -0.00069186f, -0.00069588f, 
    0.00252526f, 0.00060413f, 0.00086539f, -0.00016983f, 0.00070019f, 0.00076268f, -0.00210729f, -0.00075001f, 
    -0.00175513f, -0.00131766f, -0.00036732f, 0.00075735f, -0.00003665f, -0.00013812f, 0.00111812f, -0.00214293f, 
    0.00048462f, 0.00074911f, -0.00111060f, -0.00021806f, -0.00154911f, -0.00003908f, -0.00118600f, 0.00212847f, 
    0.00113659f, 0.00093862f, -0.00188817f, -0.00065200f, -0.00093628f, -0.00048742f, -0.00276336f, 0.00073369f, 
    0.00060012f, 0.00057907f, 0.00032971f, -0.00037527f, 0.00067588f, -0.00003376f, -0.00041343f, 0.00253166f, 
    -0.00175395f, -0.00093232f, 0.00311423f, 0.00008378f, 0.00089197f, 0.00006134f, 0.00238831f, -0.00006533f, 
    -0.00130000f, -0.00113152f, -0.00090007f, 0.00266895f, -0.00113651f, -0.00067415f, -0.00116695f, -0.00127435f, 
    0.00194571f, -0.00074022f, -0.00074865f, -0.00002594f, -0.00087158f, -0.00088820f, 0.00073806f, 0.00002532f, 
    -0.00128621f, -0.00088217f, -0.00183860f, 0.00270512f, -0.00056260f, 0.00027379f, -0.00188986f, 0.00084994f, 
    0.00181054f, -0.00124298f, -0.00087142f, -0.00128866f, -0.00091454f, -0.00057093f, 0.00003699f, 0.00141746f, 
    0.00106198f, -0.00078632f, -0.00023298f, -0.00113002f, 0.00060133f, -0.00011172f, 0.00216712f, -0.00128222f, 
    -0.00185755f, 0.00007755f, -0.00089688f, 0.00047154f, 0.00076685f, -0.00130950f, -0.00198297f, 0.00241399f, 
    -0.00255395f, 0.00257503f, -0.00109873f, 0.00076539f, -0.00169056f, -0.00124594f, -0.00074078f, 0.00049783f, 
    0.00086581f, -0.00129224f, 0.00173622f, 0.00299322f, 0.00108568f, -0.00056730f, -0.00314349f, -0.00096068f, 
    0.00183802f, -0.00065828f, -0.00150674f, -0.00031298f, 0.00012447f, 0.00069330f, -0.00384617f, -0.00039064f, 
    0.00146202f, -0.00213407f, 0.00003101f, -0.00170825f, 0.00215539f, -0.00216709f, 0.00161638f, -0.00373675f, 
    -0.00161561f, -0.00133028f, -0.00177553f, 0.00270236f, 0.00013402f, -0.00053928f, -0.00086156f, -0.00125122f, 
    0.00137469f, 0.00072439f, 0.00149922f, 0.00008876f, 0.00027001f, -0.00155548f, -0.00086534f, 0.00166736f, 
    -0.00328762f, -0.00014771f, 0.00130731f, -0.00187728f, 0.00090186f, 0.00061249f, -0.00016630f, -0.00073509f, 
    0.00139801f, -0.00003025f, -0.00064682f, -0.00012409f, -0.00326487f, -0.00093789f, 0.00035583f, -0.00064451f, 
    0.00441102f, -0.00164741f, 0.00109596f, 0.00066441f, -0.00128673f, 0.00098261f, 0.00105676f, -0.00032787f, 
    -0.00164885f, -0.00122315f, 0.00035103f, -0.00207058f, 0.00013741f, 0.00098799f, 0.00121935f, -0.00062157f, 
    0.00010673f, -0.00043680f, 0.00062467f, -0.00237649f, -0.00271066f, -0.00057395f, 0.00050275f, -0.00097967f, 
    -0.00142532f, 0.00072847f, -0.02959763f, 0.00107467f, -0.08711284f, 0.00162920f, 0.00048075f, 0.00189130f, 
    0.00029522f, 0.00087420f, 0.00004051f, 0.00126320f, 0.00072891f, -0.00273212f, 0.07198445f, -0.31652409f, 
    -0.00005773f, 0.00108002f, 0.00027911f, 0.15718801f, -0.00172296f, 0.00067046f, 0.00058007f, 0.00010533f, 
    0.00329823f, 0.00074298f, -0.00129043f, -0.00049092f, -0.00056581f, 0.00256464f, -0.00165063f, 0.00132674f, 
    0.00055771f, 0.00473728f, -0.00076467f, -0.00245283f, 0.00130908f, 0.00096819f, 0.00073510f, 0.00037126f, 
    0.00100526f, -0.00024188f, 0.00112852f, -0.00007038f, 0.00256519f, -0.00092962f, -0.00100221f, -0.00032417f, 
    0.00311208f, -0.00007244f, -0.00126571f, 0.00066384f, -0.00012617f, 0.22575940f, 0.00086883f, -0.00112974f, 
    -0.00007781f, -0.17725961f, 0.00332805f, -0.00086934f, -0.00017071f, -0.00054488f, -0.00180405f, 0.00074969f, 
    0.00053229f, -0.00015846f, -0.00007365f, 0.00119192f, -0.00038347f, -0.00099704f, -0.00016273f, -0.04185484f, 
    0.01604205f, -0.00124986f, 0.00238280f, 0.00080055f, 0.00174335f, 0.00015003f, 0.00109044f, -0.00057964f, 
    -0.00125270f, 0.00191169f, -0.00073220f, -0.00371266f, -0.00151981f, 0.00060022f, -0.00064315f, -0.00055839f, 
    0.00085440f, -0.00051352f, -0.00080906f, 0.00070414f, -0.00019429f, -0.00258492f, -0.00174695f, 0.00115812f, 
    0.00005203f, -0.00152113f, -0.00026973f, -0.00069344f, 0.00201247f, -0.00080140f, -0.00062332f, -0.00057363f, 
    -0.00084711f, 0.00113030f, -0.00106507f, -0.00153917f, -0.00078653f, -0.00008078f, 0.00238431f, -0.00082262f, 
    -0.00042202f, 0.00277707f, 0.00180239f, -0.00247006f, 0.00191367f, -0.00049844f, -0.00234306f, -0.00026048f, 
    -0.00098537f, 0.00224884f, 0.00001815f, 0.00110731f, -0.00044795f, 0.00026451f, -0.00255475f, 0.00230490f, 
    0.00076246f, 0.00047909f, 0.00051278f, -0.00087622f, -0.00042993f, -0.00196318f, 0.00173452f, 0.00224762f, 
    0.00017968f, 0.00189044f, 0.00090914f, -0.00141907f, -0.00090635f, -0.00032598f, 0.00187926f, 0.00053344f, 
    0.00050535f, 0.00257284f, 0.00080574f, -0.00059197f, -0.00015956f, -0.00103876f, 0.00163511f, -0.00044788f, 
    0.00026622f, -0.00060753f, 0.00008274f, -0.00247677f, -0.00067982f, -0.00165465f, -0.00086388f, 0.00072202f, 
    0.00090853f, 0.00080652f, -0.00196770f, -0.00001763f, -0.00056013f, 0.00136046f, 0.00089942f, -0.00021540f, 
    0.00180644f, 0.00034611f, 0.00621044f, -0.00155619f, 0.00265888f, -0.00052296f, -0.00014165f, 0.00180983f, 
    -0.00032924f, 0.00000466f, -0.00368309f, 0.00027522f, -0.00089510f, 0.00093179f, 0.00004367f, -0.00090112f, 
    0.00328856f, -0.00094986f, 0.00317936f, -0.00162360f, -0.00214857f, 0.00035449f, -0.00077114f, -0.00017090f, 
    -0.00139733f, -0.00033062f, 0.00075453f, -0.00247553f, -0.00124351f, -0.00272673f, -0.00254968f, -0.00021690f, 
    0.00110110f, 0.00059091f, 0.00268281f, 0.00051910f, -0.00024809f, -0.00415955f, -0.00161133f, 0.00139648f, 
    0.00239808f, -0.00121289f, 0.00052579f, 0.00090593f, 0.00071659f, 0.00087544f, 0.00028417f, -0.00085736f, 
    0.00165151f, 0.00022902f, -0.00036489f, 0.00098389f, -0.00376651f, -0.00209108f, 0.00062596f, 0.00047813f, 
    -0.00135833f, 0.00013515f, -0.00370139f, -0.00334184f, 0.00088377f, 0.00193957f, 0.00077692f, 0.00041602f, 
    0.00291368f, 0.00140061f, 0.00129569f, 0.00021830f, -0.00161394f, 0.00000387f, 0.00008211f, -0.00146644f, 
    -0.00126229f, -0.00960976f, 0.00266012f, 0.04469437f, -0.00019657f, 0.00080217f, 0.00062353f, -0.00036136f, 
    0.00120573f, 0.00152425f, -0.00112098f, 0.00329005f, 0.00087258f, -0.32459429f, -0.00248659f, -0.00066572f, 
    -0.00028580f, 0.00011877f, -0.44627690f, 0.00200675f, 0.00132411f, 0.00140742f, -0.00002608f, -0.00151768f, 
    0.00130574f, -0.00109594f, -0.00042047f, 0.00037537f, 0.00065084f, -0.00124524f, -0.00046250f, -0.00208771f, 
    0.00047508f, 0.00150506f, 0.00034358f, -0.00092101f, 0.00127293f, -0.00035265f, -0.00086701f, 0.00329320f, 
    -0.00003605f, -0.00096467f, -0.00084612f, -0.08810564f, -0.00009580f, 0.00062789f, 0.00044988f, 0.00181322f, 
    0.00240272f, -0.00252341f, -0.00098094f, -0.00161208f, -0.15880570f, -0.00331598f, -0.00091488f, 0.00045041f, 
    0.02455579f, 0.00366209f, 0.00038210f, -0.00014899f, -0.00061794f, -0.00312004f, -0.00246975f, 0.00215563f, 
    -0.00283363f, 0.00022356f, -0.00545216f, -0.00260603f, -0.00027952f, 0.00059983f, 0.21659124f, -0.44300544f, 
    0.00168802f, -0.01156555f, -0.00030398f, 0.00112370f, -0.00014493f, -0.01106604f, 0.00166835f, -0.00131954f, 
    -0.00344747f, -0.00022914f, 0.00115372f, -0.00067785f, 0.00022333f, 0.00164409f, -0.00022977f, 0.00090095f, 
    0.00086028f, -0.00397159f, 0.00238381f, -0.00215405f, 0.00034895f, 0.00004954f, -0.00129326f, -0.00144321f, 
    -0.00160855f, 0.00006512f, -0.00011009f, -0.00193755f, 0.00055856f, 0.00311581f, -0.00116122f, 0.00041085f, 
    0.00128615f, -0.00068885f, 0.00045879f, 0.00143694f, -0.00176695f, 0.00100869f, 0.00244159f, -0.00199752f, 
    0.00113229f, -0.00094087f, -0.00059182f, -0.00046932f, 0.00088037f, -0.00012291f, -0.00083624f, 0.00088273f, 
    0.00311330f, -0.00268830f, -0.00018710f, 0.00108507f, 0.00130146f, -0.00244838f, -0.00086697f, -0.00243871f, 
    -0.00114647f, 0.00124548f, -0.00114839f, -0.00128997f, -0.00075754f, 0.00231579f, 0.00145086f, -0.00059909f, 
    0.00003022f, 0.00051120f, 0.00012962f, -0.00075153f, -0.00107110f, 0.00106911f, 0.00074117f, 0.00042872f, 
    -0.00103408f, 0.00054259f, 0.00056407f, 0.00367623f, 0.00018295f, 0.00126662f, 0.00084114f, -0.00245887f, 
    -0.00062981f, -0.00013611f, 0.00116329f, 0.00376311f, 0.00363386f, -0.00089325f, -0.00133231f, 0.00007638f, 
    0.00150491f, -0.92732239f, 0.00163337f, 0.12005349f, -0.00064113f, 0.00028444f, 0.00054660f, -0.00096615f, 
    0.00246826f, 0.00155446f, 0.00097353f, -0.00043599f, 0.00255826f, -0.27015659f, -1.34552336f, 0.00095495f, 
    -0.00086042f, 0.00107023f, 0.33410972f, -0.00082089f, 0.00200802f, 0.00062285f, 0.00081918f, -0.00049439f, 
    -0.00215337f, 0.00073277f, 0.00431408f, 0.00049112f, 0.00005728f, 0.00041406f, 0.00193764f, -0.00036667f, 
    -0.00007663f, 0.00013050f, -0.00202422f, -0.00044920f, 0.00475611f, 0.00060035f, -0.00128539f, -0.00088977f, 
    0.00024400f, 0.00039708f, -0.00029275f, -0.00132999f, -0.00199879f, -0.00282741f, -0.00116018f, -0.00126813f, 
    0.00076332f, 0.00115671f, -0.00219818f, -0.11616669f, -0.00146629f, -0.00003492f, -0.00067458f, -0.00065700f, 
    -0.16417730f, -0.00013180f, 0.00075147f, -0.00217212f, 0.00019199f, 0.00064222f, 0.00312126f, 0.00088946f, 
    0.00089874f, 0.00004304f, -0.35190290f, 0.00074891f, -0.00087279f, 0.00132023f, -0.26287085f, -0.07261074f, 
    -0.00106845f, -0.43514699f, -0.00215075f, -0.00144382f, -0.00126793f, -0.00097571f, 0.00001635f, -0.00078856f, 
    -0.00195120f, -0.00048370f, -0.00239074f, -0.00046439f, 0.00037321f, -0.00016447f, 0.00000574f, 0.00079931f, 
    0.00065179f, -0.00128252f, -0.00022359f, 0.00010025f, 0.00129989f, -0.00184997f, 0.00013657f, -0.00131606f, 
    -0.00107246f, 0.00173784f, -0.00053887f, 0.00050400f, -0.00120505f, -0.00235203f, -0.00141941f, -0.00139213f, 
    0.00142647f, 0.00075843f, -0.00071722f, -0.00139810f, 0.00043251f, 0.00091342f, 0.00424355f, -0.00109722f, 
    -0.00099676f, -0.00013879f, 0.00379756f, -0.00478790f, 0.00148651f, -0.00007652f, -0.00089342f, -0.00021605f, 
    -0.00018511f, -0.00203166f, 0.00048401f, -0.00177762f, -0.00089689f, 0.00110351f, 0.00107843f, -0.00225290f, 
    -0.00044650f, -0.00048506f, -0.00234694f, -0.00183182f, 0.00043282f, -0.00011488f, -0.00132085f, -0.00072245f, 
    -0.00270915f, 0.00167305f, 0.00176214f, -0.00123873f, 0.00135243f, -0.00012848f, 0.00099679f, -0.00100890f, 
    -0.00315239f, -0.00085764f, 0.00049683f, -0.00244512f, -0.00295110f, -0.00014240f, 0.00241980f, 0.00120504f, 
    0.00079970f, -0.00076227f, 0.00078267f, 0.00100437f, -0.00132598f, -0.00104448f, -0.00145089f, 0.00144520f, 
    0.00142246f, -0.00173913f, -0.00044411f, -0.00107013f, -0.00113159f, -0.00650590f, 0.00045844f, -0.00130504f, 
    -0.00048438f, -0.00104063f, -0.00039721f, 0.00011777f, 0.00066668f, -0.00143444f, -0.00165483f, -0.00062992f, 
    -0.00051868f, -0.00046320f, 0.00073551f, 0.00087978f, -0.00088580f, -0.00215126f, 0.00152299f, -0.00105003f, 
    0.00138445f, 0.00141735f, -0.00054907f, -0.00064504f, -0.00129817f, 0.00226309f, 0.00050841f, 0.00329760f, 
    -0.00116459f, -0.00255736f, 0.00124909f, -0.00124433f, 0.00247154f, -0.00070269f, -0.00221071f, 0.00180848f, 
    -0.00013892f, 0.00382724f, 0.00075622f, -0.00189220f, 0.00062898f, -0.00031016f, -0.00329159f, 0.00093884f, 
    -0.00015633f, 0.00066032f, -0.00126496f, -0.00239170f, 0.00474439f, 0.00014670f, -0.00032782f, -0.00054858f, 
    0.00318420f, -0.00061879f, 0.00140756f, -0.00247162f, -0.00194660f, -0.00065786f, 0.00011147f, -0.00127052f, 
    0.00076375f, -0.00057396f, 0.00311195f, 0.00018127f, -0.00193646f, 0.00132229f, -0.00217387f, 0.00045763f, 
    0.00109723f, 0.00005123f, 0.00009737f, 0.00149868f, 0.00207730f, -0.00062070f, -0.00087999f, 0.00124315f, 
    0.00001267f, 0.00002672f, -0.00206548f, 0.00058716f, -0.00047710f, -0.00076099f, -0.00094201f, -0.00195382f, 
    -0.00138977f, 0.00249805f, -0.00047892f, -0.00130986f, -0.00075491f, 0.00079677f, 0.00108704f, 0.00081620f, 
    0.00187035f, 0.00029145f, 0.00169938f, 0.00064480f, -0.00002079f, -0.00174916f, -0.00074371f, 0.00171546f, 
    -0.00246256f, 0.00050826f, 0.00197920f, -0.00241542f, -0.00183446f, -0.00226844f, -0.00193954f, 0.00087543f, 
    0.00141313f, -0.00209725f, -0.00309422f, -0.00008315f, 0.00030154f, -0.00089247f, 0.00128312f, 0.00206523f, 
    -0.00036428f, 0.00108018f, 0.00043238f, 0.00091496f, 0.00044729f, 0.00113855f, -0.00124432f, -0.00128206f, 
    -0.00065368f, 0.00021588f, 0.00087493f, -0.00124083f, 0.00036197f, -0.00000990f, 0.00180978f, 0.00133305f, 
    -0.00063315f, -0.00109810f, -0.00162427f, 0.00128834f, 0.00140877f, 0.00096410f, 0.00089989f, -0.00035149f, 
    -0.00181558f, 0.00053030f, -0.00121605f, -0.00007221f, 0.00026784f, -0.00089267f, -0.00045651f, -0.00003693f, 
    0.00089723f, -0.00218687f, -0.00004299f, 0.00004401f, 0.00182908f, -0.00070975f, 0.00019951f, 0.00109289f, 
    0.00156562f, 0.00031894f, 0.00026717f, -0.00191798f, -0.00049174f, -0.00040649f, -0.00004771f, -0.00026469f, 
    0.00120827f, -0.00149232f, 0.00071733f, -0.00155965f, -0.00003379f, -0.00068885f, -0.00212793f, -0.00268859f, 
    0.00218327f, -0.00135697f, -0.00288233f, -0.00266834f, -0.00037419f, 0.00082670f, 0.00377668f, 0.00047698f, 
    -0.00194465f, -0.00024561f, 0.00086243f, -0.00053517f, -0.00241205f, -0.00045884f, 0.00156421f, 0.00195837f, 
    -0.00049493f, 0.00063700f, -0.00090424f, -0.00059449f, 0.00048752f, 0.00138421f, -0.00111285f, -0.00075699f, 
    0.00038605f, -0.00005364f, 0.00008502f, 0.00035124f, -0.00055502f, -0.00115403f, 0.00045941f, -0.00070153f, 
    0.00015205f, 0.00036638f, 0.00066361f, -0.00107562f, -0.00086342f, -0.00087579f, -0.00074398f, -0.00126299f, 
    0.00085247f, -0.00084304f, 0.00039339f, -0.00075086f, 0.00107285f, 0.00266294f, 0.00018243f, -0.00128292f, 
    -0.00196261f, -0.00128480f, 0.00033061f, -0.00000285f, -0.00161442f, -0.00032966f, -0.00079821f, -0.00073650f, 
    -0.00051038f, 0.00291489f, 0.00037720f, -0.00043229f, -0.00373760f, -0.00058464f, 0.00020159f, 0.00022402f, 
    -0.00187417f, -0.00123965f, -0.00075496f, 0.00212242f, -0.00034620f, 0.00003637f, -0.00139363f, 0.00122504f, 
    -0.00151282f, 0.00061898f, -0.00049430f, -0.00180963f, -0.00043809f, 0.00182568f, -0.00160653f, 0.00080412f, 
    0.00091514f, -0.00241539f, -0.00246485f, -0.00090934f, 0.00075523f, 0.00063405f, -0.00079396f, 0.00112256f, 
    -0.00059675f, -0.00056700f, 0.00182106f, 0.00088279f, -0.00016195f, -0.00154467f, -0.00013309f, -0.00098817f, 
    -0.00247516f, -0.00155083f, 0.00000999f, -0.00053131f, 0.00329738f, 0.00240897f, 0.00020025f, 0.00181025f, 
    -0.00012074f, -0.00109494f, 0.00043387f, 0.00134192f, 0.00064363f, 0.00054651f, -0.00102741f, 0.00129359f, 
    -0.00124460f, -0.00076405f, 0.00067100f, 0.00199576f, 0.00162218f, -0.00123928f, -0.00106963f, 0.00195139f, 
    0.00062483f, 0.00019146f, 0.00139059f, 0.00011898f, 0.00037288f, 0.00092177f, 0.00016644f, -0.00078415f, 
    -0.00139140f, -0.00186447f, 0.00072372f, 0.00029038f, 0.00247100f, 0.00128342f, 0.00140326f, -0.00054254f, 
    -0.00013291f, 0.00129931f, 0.00215720f, -0.00038408f, -0.00061434f, -0.00111278f, 0.00160274f, -0.00075185f, 
    -0.00153086f, 0.01548491f, 0.00132034f, -1.56303823f, 0.00058750f, -0.00000549f, -0.00077137f, 0.00018209f, 
    -0.00262103f, -0.00156075f, 0.00004919f, 0.00088683f, 0.00076107f, -0.00268211f, 0.00219146f, -0.00018547f, 
    0.00031601f, 0.00124436f, 0.12269156f, -0.00051898f, -0.00027574f, -0.00030932f, 0.00177052f, 0.00175809f, 
    -0.00144602f, 0.00122950f, -0.00282092f, -0.00030486f, 0.00038538f, 0.00394766f, 0.00425781f, 0.00044886f, 
    0.00106650f, -0.00240127f, -0.00123908f, 0.00063313f, -0.00427857f, 0.00059177f, 0.00347424f, -0.00286076f, 
    -0.00007486f, -0.00004127f, 0.00091135f, -0.90814573f, -0.00095116f, 0.00087534f, 0.00068270f, -0.00133386f, 
    0.00175657f, -0.00164868f, -0.00071041f, -0.49631292f, 0.08683249f, -0.00122202f, 0.00246532f, 0.00092553f, 
    -0.00538992f, -0.00029076f, 0.00137432f, -0.00290463f, -0.00235524f, -0.00142252f, -0.00227832f, 0.00115952f, 
    -0.00074040f, 0.00060394f, 0.06394000f, 0.00370023f, 0.00110421f, -0.00634349f, -0.04019438f, 0.17780647f, 
    0.00065412f, 0.01119878f, -0.00008298f, -0.00110552f, -0.00160635f, -0.00092377f, -0.00010083f, -0.00033011f, 
    0.00300580f, -0.00084922f, 0.00123438f, -0.00027628f, -0.00133312f, 0.00054657f, -0.00022930f, 0.00007230f, 
    0.00107658f, -0.00180272f, -0.00084663f, 0.00118752f, 0.00002043f, 0.00011994f, 0.00312165f, 0.00048680f, 
    0.00144736f, 0.00041365f, 0.00063547f, -0.00032852f, 0.00062313f, -0.00039873f, -0.00054350f, 0.00474833f, 
    0.00064148f, -0.00073382f, -0.00046449f, -0.00065054f, -0.00061883f, 0.00111550f, -0.00084659f, 0.00049913f, 
    0.00098115f, 0.00024726f, 0.00007060f, 0.00010492f, -0.00331268f, -0.00180328f, -0.00036001f, -0.00126129f, 
    -0.00046076f, -0.00030221f, -0.00157484f, 0.00202332f, -0.00094465f, -0.00037943f, -0.00059442f, -0.00017939f, 
    0.00000495f, -0.00235107f, -0.00048712f, -0.00062387f, -0.00019205f, -0.00184833f, 0.00083371f, -0.00111187f, 
    0.00068169f, -0.00046511f, 0.00329101f, 0.00152975f, -0.00263016f, -0.00156219f, 0.00029095f, -0.00121041f, 
    -0.00266373f, -0.00044593f, -0.00256621f, 0.00445927f, 0.00182532f, -0.00086006f, -0.00324591f, -0.00047340f, 
    0.00123133f, 0.00064509f, -0.00003555f, -0.00029857f, 0.00046314f, -0.00055822f, -0.00056215f, -0.00311392f, 
    0.00055717f, -0.00192476f, -0.00162707f, 0.00049375f, -0.00217201f, 0.00158991f, 0.00133789f, -0.00055165f, 
    -0.00120370f, 0.00255161f, 0.00048583f, -0.00045987f, -0.00023167f, -0.00021878f, 0.00067194f, -0.00124753f, 
    0.00129078f, -0.00311952f, -0.00195016f, -0.00021518f, -0.00096467f, 0.00198665f, 0.00101847f, 0.00129868f, 
    0.00130196f, 0.00145121f, -0.00262133f, -0.00055667f, -0.00020113f, 0.00110920f, -0.00133181f, -0.00124130f, 
    0.00028107f, -0.00365565f, 0.00069778f, -0.00059431f, 0.00215863f, 0.00199302f, 0.00073092f, 0.00014516f, 
    0.00162584f, 0.00186160f, 0.00085627f, 0.00141975f, -0.00133156f, -0.00040828f, 0.00066183f, -0.00311320f, 
    0.00107913f, 0.00249244f, -0.00108210f, 0.00129197f, 0.00247288f, 0.00289964f, -0.00171400f, 0.00164431f, 
    -0.00004010f, -0.00111345f, -0.00156541f, 0.00155440f, 0.00126397f, -0.00129823f, 0.00144738f, -0.00138405f, 
    -0.00120779f, 0.00094538f, 0.00002757f, -0.00309669f, 0.00194520f, -0.00022092f, 0.00200902f, -0.00107786f, 
    -0.00006281f, 0.00058489f, 0.00113626f, -0.00265259f, -0.00013970f, -0.00130062f, 0.00065530f, 0.00162776f, 
    -0.00093466f, 0.00258598f, -0.00050872f, -0.00149171f, 0.00007733f, 0.00420429f, -0.00056464f, 0.00222511f, 
    -0.00244397f, -0.00064775f, 0.00138279f, -0.00176764f, 0.00059510f, 0.00200355f, -0.00055147f, -0.00012687f, 
    0.00184104f, 0.00200920f, -0.00418150f, -0.00089945f, 0.00133331f, 0.00096101f, -0.00039368f, 0.00106700f, 
    -0.00110152f, 0.00162454f, 0.00120578f, -0.00046768f, 0.00075929f, -0.00047573f, 0.00066059f, -0.00234475f, 
    0.00158345f, 0.00157948f, 0.00048160f, -0.00165714f, 0.00140863f, -0.00162196f, -0.00127244f, 0.00054954f, 
    -0.00059007f, -0.00129028f, -0.00107146f, -0.00242718f, -0.00023808f, -0.00080530f, 0.00140365f, -0.00124537f, 
    0.00088917f, 0.00047808f, -0.00052013f, -0.00137358f, -0.00141186f, 0.00040201f, 0.00049888f, 0.00006813f, 
    0.00061811f, 0.00046377f, 0.00112375f, -0.00014849f, -0.00004645f, 0.00163008f, -0.00162100f, -0.00119921f, 
    0.00003059f, 0.00189273f, -0.00070337f, 0.00047921f, -0.00052618f, -0.00154247f, -0.00144956f, 0.00020822f, 
    -0.00129157f, -0.00076658f, 0.00128005f, 0.00156849f, -0.00110453f, -0.00030676f, -0.00157719f, -0.00238095f, 
    0.00020391f, -0.00139629f, -0.00253690f, -0.00167316f, 0.00101230f, 0.00068887f, 0.00041325f, -0.00013720f, 
    -0.00157742f, 0.00252287f, 0.00043594f, 0.00108310f, -0.00276158f, 0.00180067f, 0.00063343f, -0.00038938f, 
    0.00152554f, -0.00019503f, -0.00067616f, -0.00191579f, -0.00087578f, 0.00027586f, 0.00441161f, -0.00095350f, 
    0.00129883f, -0.00054765f, 0.00009240f, 0.00008324f, -0.00024154f, -0.00365102f, 0.00133653f, 0.00095119f, 
    0.00083324f, 0.00040762f, 0.00151297f, 0.00016546f, 0.00065570f, -0.00063897f, -0.00063978f, 0.00021820f, 
    -0.00199311f, -0.00065577f, 0.00112028f, -0.00140223f, 0.00188306f, -0.00068017f, -0.00297668f, -0.00078002f, 
    -0.00044140f, 0.00059449f, -0.00040532f, -0.00057509f, -0.00144682f, 0.00022304f, -0.00162700f, -0.00121447f, 
    -0.00057805f, -0.00160619f, 0.00074079f, -0.00051431f, -0.00044770f, 0.00018144f, 0.00156972f, 0.00093241f, 
    -0.00121665f, 0.00014728f, 0.00047913f, 0.00030613f, 0.00005607f, 0.00029243f, 0.00001238f, 0.00153980f, 
    0.00029271f, -0.00083480f, 0.00129519f, 0.00003244f, 0.00312626f, -0.00332165f, -0.00123386f, -0.00037773f, 
    -0.00011862f, -0.00291525f, -0.00054397f, -0.00154809f, -0.00272912f, 0.00121538f, -0.00186610f, -0.00394791f, 
    0.00049133f, 0.00202295f, -0.00159012f, 0.00078070f, -0.00002654f, 0.00190316f, 0.00403118f, 0.00090283f, 
    -0.00030432f, 0.00370066f, 0.00007968f, 0.00008299f, 0.00064265f, 0.00004241f, -0.00020780f, 0.00628599f, 
    0.00369219f, -0.00003925f, 0.00059458f, -0.00269887f, -0.00081060f, 0.00095326f, 0.00071906f, -0.00171040f, 
    0.00090610f, -0.00027725f, 0.00061016f, 0.00072628f, -0.00018388f, -0.00022161f, -0.00036253f, -0.00123400f, 
    -0.00040822f, -0.00151428f, 0.00185872f, -0.00379836f, -0.00034853f, 0.00189349f, 0.00616836f, 0.00072578f, 
    0.00098740f, -0.00067345f, -0.00147790f, 0.00052073f, -0.00181340f, 0.00198679f, -0.00127178f, 0.00035065f, 
    -0.00051858f, -0.00116683f, 0.00065195f, -0.00108469f, 0.00051208f, 0.00175838f, -0.00123662f, 0.00088829f, 
    -0.00000919f, -0.00195608f, -0.00012706f, -0.00078005f, -0.00025434f, 0.00114964f, 0.00149939f, 0.00156647f, 
    -0.00158052f, -0.00112180f, -0.00045124f, 0.00159674f, -0.00066599f, -0.00217672f, 0.00021506f, -0.00059676f, 
    -0.00136150f, -0.00103985f, -0.00076870f, -0.00092496f, 0.00063199f, -0.00072128f, 0.00094224f, -0.00148457f, 
    0.00463546f, -0.00236282f, -0.00006257f, -0.00129666f, 0.00173488f, 0.00314117f, -0.00241792f, -0.00156039f, 
    -0.00008313f, -0.00006369f, -0.00167737f, 0.00030604f, 0.00058134f, 0.00216108f, 0.00368430f, 0.00068330f, 
    0.00064373f, 0.00052096f, 0.00107730f, 0.00062359f, -0.00237902f, -0.00010065f, 0.00049740f, -0.00103979f, 
    -0.00076748f, 0.00272196f, -0.00240226f, -0.00126277f, 0.00013004f, 0.00067246f, -0.00002034f, 0.00046320f, 
    0.00129951f, -0.00182494f, -0.00036963f, -0.00061034f, -0.00023548f, 0.00131556f, 0.00178079f, 0.00329662f, 
    -0.00129408f, -0.00139250f, 0.00097510f, -0.00028136f, 0.00257620f, -0.00086089f, 0.00035651f, 0.00097761f, 
    0.00224453f, 0.00007089f, -0.00128932f, -0.00061448f, 0.00076044f, -0.00033889f, -0.00041936f, -0.00222836f, 
    0.00216154f, -0.00355849f, -0.00123826f, -0.00067215f, -0.00064681f, 0.00070155f, 0.00142347f, -0.00076098f, 
    0.00003912f, 0.00073352f, 0.00128527f, 0.00016966f, 0.00216012f, -0.00146021f, 0.00101989f, 0.00077331f, 
    0.00129850f, -0.00197627f, 0.00025060f, -0.00113632f, 0.00074580f, 0.00175777f, 0.00257025f, 0.00034315f, 
    0.00270484f, -0.00132784f, 0.00035791f, 0.00059750f, 0.00073958f, -0.00181317f, -0.00323687f, -0.00205720f, 
    0.00006280f, 0.00171729f, -0.00141693f, 0.00006608f, 0.00139310f, 0.00149657f, -0.00018440f, -0.00005028f, 
    0.00140506f, 0.00036338f, -0.00184548f, -0.00072975f, -0.00115944f, 0.00142786f, -0.00194229f, 0.00165784f, 
    -0.00058865f, 0.00052921f, -0.00074036f, 0.00129116f, -0.00168649f, -0.00056320f, 0.00097667f, -0.00104251f, 
    0.00312170f, 0.00009071f, 0.00138158f, -0.00112190f, -0.00258147f, -0.00010199f, -0.00152917f, -0.00045515f, 
    0.00139177f, -0.00085062f, 0.00046548f, -0.00378002f, -0.00136965f, -0.00079397f, -0.00099695f, 0.00134351f, 
    -0.00176253f, 0.00345363f, 0.00131903f, 0.00059561f, 0.00042211f, 0.00193466f, 0.00172579f, -0.00000320f, 
    -0.00174305f, 0.00017608f, -0.00026841f, 0.00036889f, -0.00071045f, 0.00172659f, 0.00065349f, 0.00042682f, 
    -0.00141034f, 0.00134976f, -0.00097475f, -0.00141921f, 0.00204528f, 0.00129208f, -0.00048553f, -0.00064196f, 
    -0.00062011f, 0.00072500f, 0.00072435f, 0.00240693f, -0.00079157f, 0.00066984f, 0.00258066f, -0.00160951f, 
    -0.00032351f, -0.00246871f, 0.00438675f, -0.00064447f, -0.00140239f, -0.00231286f, 0.00018277f, -0.00073847f, 
    0.00386589f, 0.00121754f, 0.00099510f, -0.00055659f, -0.00214411f, 0.00179002f, 0.00196428f, 0.00032270f, 
    0.00215068f, -0.00186588f, 0.00630380f, -0.00006001f, 0.00109248f, 0.00230879f, 0.00312466f, 0.00054902f, 
    -0.00011118f, 0.00236968f, 0.00251351f, 0.00029872f, -0.00029088f, 0.00005237f, -0.00101857f, 0.00244388f, 
    -0.00058248f, -0.00119276f, -0.00270330f, -0.00085362f, 0.00110057f, 0.00259354f, -0.00006940f, -0.00073222f, 
    0.00113739f, -0.00141020f, 0.00043398f, -0.00069476f, 0.00018596f, 0.00009353f, -0.00154288f, 0.00159369f, 
    -0.00168259f, -0.00030880f, 0.00024555f, -0.00044324f, -0.00072979f, -0.00079258f, 0.00142143f, -0.00131972f, 
    -0.00037425f, -0.00270946f, 0.00075785f, 0.00186323f, 0.00070618f, 0.00019153f, -0.00030510f, 0.00188608f, 
    0.00030870f, -0.00165556f, -0.00124853f, -0.00005073f, -0.00183866f, -0.00444375f, -0.00474851f, 0.00009132f, 
    -0.00032260f, 0.00179726f, -0.00080829f, -0.00043594f, 0.00113534f, 0.00066394f, 0.00048528f, -0.00113390f, 
    0.00065567f, -0.00160409f, 0.00119493f, -0.00107459f, 0.00150894f, 0.00022795f, -0.00035483f, 0.00061985f, 
    0.00196861f, -0.00090358f, -0.00255572f, -0.00012277f, -0.00128889f, 0.00040950f, 0.00059790f, -0.00063683f, 
    0.00265297f, -0.00065125f, 0.00014002f, 0.00067767f, 0.00006312f, -0.00390237f, 0.00052645f, -0.00129555f, 
    0.00236680f, 0.00109733f, 0.00088121f, 0.00162347f, -0.00330121f, -0.00069019f, -0.00088090f, 0.00097934f, 
    0.00168141f, -0.00004066f, -0.00169671f, -0.00152094f, 0.00109320f, -0.00006803f, 0.00015590f, -0.00176853f, 
    0.00084227f, -0.00028028f, -0.00004262f, 0.00237750f, 0.00102739f, -0.00252819f, 0.00149571f, 0.00121237f, 
    0.00120902f, 0.00384429f, -0.00071158f, -0.00109609f, 0.00383805f, 0.00009980f, -0.00011179f, -0.00158176f, 
    -0.00064289f, 0.00043937f, 0.00100347f, 0.00066937f, 0.00074243f, 0.00133061f, 0.00106665f, 0.00185138f, 
    -0.00102851f, -0.00148416f, 0.00108122f, 0.00043781f, 0.00138345f, 0.00123005f, -0.00129386f, -0.00049122f, 
    -0.00379668f, 0.00116496f, -0.00013664f, -0.00014001f, 0.00063905f, 0.00015989f, 0.00015346f, -0.00084986f, 
    -0.00205814f, -0.00204144f, 0.00027150f, 0.00092832f, -0.00048224f, -0.00017962f, -0.00047816f, -0.00061157f, 
    0.00054497f, -0.00014478f, 0.00083006f, 0.00079657f, -0.00190229f, 0.00003062f, 0.00047523f, -0.00049984f, 
    0.00311346f, -0.00113607f, 0.00107224f, 0.00045302f, 0.00001835f, 0.00010805f, 0.00065270f, -0.00213985f, 
    0.00126242f, -0.00089891f, 0.00151705f, -0.00246380f, -0.00050391f, 0.00100033f, -0.00263490f, 0.00073428f, 
    -0.00128683f, -0.00107208f, 0.00178178f, 0.00028193f, -0.00109373f, -0.00092160f, -0.00027369f, 0.00417740f, 
    0.00128965f, 0.00257283f, -0.00200413f, -0.00141471f, -0.00247226f, -0.00247276f, -0.00149828f, -0.00124381f, 
    -0.00076270f, 0.00021032f, -0.00195365f, -0.00196993f, -0.00142050f, 0.00018899f, 0.00642508f, 0.00031443f, 
    0.00022204f, 0.00069281f, -0.00005575f, 0.00222696f, 0.00066067f, -0.00319180f, 0.00046456f, 0.00246449f, 
    0.00039363f, 0.00145158f, 0.00090881f, -0.00114008f, -0.00157297f, -0.00076185f
};

const int32_t weight_2_indices[] CSR_PROGMEM = {
    0, 1, 2, 3, 4, 5, 6, 7, 8, 9, 10, 11, 
    12, 13, 14, 15, 16, 17, 18, 19, 20, 21, 22, 23, 
    24, 25, 26, 27, 28, 29, 30, 31, 32, 33, 34, 35, 
    36, 37, 38, 39, 40, 41, 42, 43, 44, 45, 46, 47, 
    48, 49, 50, 51, 52, 53, 54, 55, 56, 57, 58, 59, 
    60, 61, 62, 63, 64, 65, 66, 67, 68, 69, 70, 71, 
    72, 73, 74, 75, 76, 77, 78, 79, 0, 1, 2, 3, 
    4, 5, 6, 7, 8, 9, 10, 11, 12, 13, 14, 15, 
    16, 17, 18, 19, 20, 21, 22, 23, 24, 25, 26, 27, 
    28, 29, 30, 31, 32, 33, 34, 35, 36, 37, 38, 39, 
    40, 41, 42, 43, 44, 45, 46, 47, 48, 49, 50, 51, 
    52, 53, 54, 55, 56, 57, 58, 59, 60, 61, 62, 63, 
    64, 65, 66, 67, 68, 69, 70, 71, 72, 73, 74, 75, 
    76, 77, 78, 79, 0, 1, 2, 3, 4, 5, 6, 7, 
    8, 9, 10, 11, 12, 13, 14, 15, 16, 17, 18, 19, 
    20, 21, 22, 23, 24, 25, 26, 27, 28, 29, 30, 31, 
    32, 33, 34, 35, 36, 37, 38, 39, 40, 41, 42, 43, 
    44, 45, 46, 47, 48, 49, 50, 51, 52, 53, 54, 55, 
    56, 57, 58, 59, 60, 61, 62, 63, 64, 65, 66, 67, 
    68, 69, 70, 71, 72, 73, 74, 75, 76, 77, 78, 79, 
    0, 1, 2, 3, 4, 5, 6, 7, 8, 9, 10, 11, 
    12, 13, 14, 15, 16, 17, 18, 19, 20, 21, 22, 23, 
    24, 25, 26, 27, 28, 29, 30, 31, 32, 33, 34, 35, 
    36, 37, 38, 39, 40, 41, 42, 43, 44, 45, 46, 47, 
    48, 49, 50, 51, 52, 53, 54, 55, 56, 57, 58, 59, 
    60, 61, 62, 63, 64, 65, 66, 67, 68, 69, 70, 71, 
    72, 73, 74, 75, 76, 77, 78, 79, 0, 1, 2, 3, 
    4, 5, 6, 7, 8, 9, 10, 11, 12, 13, 14, 15, 
    16, 17, 18, 19, 20, 21, 22, 23, 24, 25, 26, 27, 
    28, 29, 30, 31, 32, 33, 34, 35, 36, 37, 38, 39, 
    40, 41, 42, 43, 44, 45, 46, 47, 48, 49, 50, 51, 
    52, 53, 54, 55, 56, 57, 58, 59, 60, 61, 62, 63, 
    64, 65, 66, 67, 68, 69, 70, 71, 72, 73, 74, 75, 
    76, 77, 78, 79, 0, 1, 2, 3, 4, 5, 6, 7, 
    8, 9, 10, 11, 12, 13, 14, 15, 16, 17, 18, 19, 
    20, 21, 22, 23, 24, 25, 26, 27, 28, 29, 30, 31, 
    32, 33, 34, 35, 36, 37, 38, 39, 40, 41, 42, 43, 
    44, 45, 46, 47, 48, 49, 50, 51, 52, 53, 54, 55, 
    56, 57, 58, 59, 60, 61, 62, 63, 64, 65, 66, 67, 
    68, 69, 70, 71, 72, 73, 74, 75, 76, 77, 78, 79, 
    0, 1, 2, 3, 4, 5, 6, 7, 8, 9, 10, 11, 
    12, 13, 14, 15, 16, 17, 18, 19, 20, 21, 22, 23, 
    24, 25, 26, 27, 28, 29, 30, 31, 32, 33, 34, 35, 
    36, 37, 38, 39, 40, 41, 42, 43, 44, 45, 46, 47, 
    48, 49, 50, 51, 52, 53, 54, 55, 56, 57, 58, 59, 
    60, 61, 62, 63, 64, 65, 66, 67, 68, 69, 70, 71, 
    72, 73, 74, 75, 76, 77, 78, 79, 0, 1, 2, 3, 
    4, 5, 6, 7, 8, 9, 10, 11, 12, 13, 14, 15, 
    16, 17, 18, 19, 20, 21, 22, 23, 24, 25, 26, 27, 
    28, 29, 30, 31, 32, 33, 34, 35, 36, 37, 38, 39, 
    40, 41, 42, 43, 44, 45, 46, 47, 48, 49, 50, 51, 
    52, 53, 54, 55, 56, 57, 58, 59, 60, 61, 62, 63, 
    64, 65, 66, 67, 68, 69, 70, 71, 72, 73, 74, 75, 
    76, 77, 78, 79, 0, 1, 2, 3, 4, 5, 6, 7, 
    8, 9, 10, 11, 12, 13, 14, 15, 16, 17, 18, 19, 
