float weight_1[] = {-0.0019360676, 0.00052620634, -0.00039820175, 0.00033499557, 0.0014830232, -0.0006111464, -0.0006659301, -0.00040664678, 0.00013320718, 0.21376017, 1.2436326, -1.6568869, 0.0004259908, 0.00055566663, -0.0024675853, -0.75898194, 1.0936419, 0.86708134, 0.0016009803, 0.0015342011, -0.0014228558, 0.00317895, -8.819591e-05, 0.00038350667, -0.00056323473, 0.0018477379, 0.0017489083, 0.00053715205, 0.0010684193, -0.0024293058, -0.00073490443, -0.00028141114, -0.00010099949, 0.0023202023, -0.0046727704, 0.0005150933, -0.002181217, -0.0005858899, -0.0009902868, -0.00092654116, -0.0018009451, 0.0027861665, -0.00045588872, 0.0018289628, -0.00022800325, 0.92820764, -0.79813915, 1.0059738, -0.35479736, 0.0011059443, -1.6480155, -0.0008662883, -0.0017839129, 0.0024366628, 0.00043496361, 0.0017618318, -5.91008e-05, 0.0004460505, 0.0014446846, -0.00077993236, 0.4885461, -1.168312, -1.086909, 0.00067093846, 4.106669e-05, 0.0032538038, -0.0019791557, 0.0016238983, -0.0013918285, -0.0021661927, 0.0009340264, 0.00023367861, 0.0014335358, 0.0014230069, -0.001289642, -0.000642538, 0.0012584908, 0.0013074322, 0.0004556072, 0.00056331, 0.0015586003, 0.0006825204, -0.0032924158, -0.00029787584, 0.0006659981, -6.111956e-05, 0.00038578708, -8.047611e-05, 9.539246e-06, -0.0016584733, 0.00045319519, -0.0011248903, 0.0004802316, 0.0007975372, -0.0007212815, 0.00094375585, 0.0006645811, -0.0013070875, 0.00035128207, -0.004230625, -0.00058315345, -0.0011212011, 0.0014233012, -0.0007165525, 0.0012610456, -0.00075180596, -0.0008095071, 0.00048679757, 1.1946744e-05, 0.0004019906, 0.0018300193, 0.0014503568, -0.00093097833, -0.00022320502, 0.0001409995, 0.0028537319, -0.0019407488, 0.00010679988, 0.00043700138, 0.0024944125, -0.0014419018, -0.00038457487, -0.00046128815, -0.00086916395, 0.0017082507, -0.00058802223, -0.0009279563, -6.8971945e-05, 0.001166166, -0.00090961903, 0.00068242534, 0.0011211098, -0.0002193976, 0.00072115305, -0.00097643153, 0.44947943, -0.97907573, -1.9337319, -1.1483177, 0.34705028, 0.1454329, 0.0044569364, 0.00076041935, -0.0011487658, 0.0006941372, -0.004014887, -0.0015372111, 0.0011154971, 0.0013339522, -0.00089240115, -0.0011487356, 0.0012857612, -0.001559346, -0.0014397692, -0.0007992538, 0.00023758295, -0.0019487279, 0.00024499535, 0.00052084913, -0.34448293, -0.41206017, 1.4022372, 0.9437876, -0.7902331, -0.13816878, 0.0014130727, -0.0010901084, -0.0011016777, -0.002158029, 0.00046233286, -0.0019502047, 0.0008647345, -0.002464397, 0.00055643177, -1.0099849, 1.258952, -0.03599699, 3.3407126e-05, 0.0012781014, -0.00058264856, 0.0013218897, 0.00037091074, 0.00051359367, -0.0016472088, -0.0033355614, -0.0012830182, 0.0019011501, -0.00011767697, -0.003612354, -0.0007482023, -7.39891e-05, 0.00058259745, 0.00052200584, -0.0020548936, 5.457882e-05, -0.002308687, -2.6581969e-05, -0.0015317303, -0.0004345429, -0.0003976368, -0.0008732467, -0.00081853615, 3.5541307e-05, 0.0014535239, 0.84408575, 0.1264295, 0.0005576846, -0.0017748019, 0.001233786, 0.0017685338, 0.0006575484, 0.0021602702, -0.0018079976, 0.42516828, 0.14850852, 0.80734104, -0.6938221, 0.011876176, -0.14017466, 0.028808197, 0.79872245, 0.4320271, -0.0011824244, 0.0024949885, -0.002080096, 0.53217196, -0.0039771646, -0.67933446, 0.0011909535, 0.0015646074, -0.0013185198, -0.00451974, -0.0023365056, -0.0012889024, 0.0013714766, 0.0018193867, -0.0028779884, -2.3713956, -5.6218505, -0.023407552};
float bias_1[] = {-0.006579727, -0.01748888, -0.2515064, 0.14054151, -0.36360636, -0.80061084, -0.011890337, -0.26208603, -0.24043313, -0.6184532, -0.5812535, -0.099861175, -0.21156701, -0.0119567085, -0.50140417, -0.64609057, 0.72802085, -0.005434252, -0.24658117, -0.016235473, 0.6940339, -0.014639943, -0.00799504, -0.013888574, -0.13110289, -0.15063997, -0.26801714, -0.21352518, -0.42683402, -0.0052816547, -0.0101923, -0.43823344, -0.005902329, -0.0059408015, -0.2814268, -0.5179378, -0.2283329, -0.044102315, -0.008018765, -0.010245871, -0.3269372, -0.31739318, -0.011835337, -0.4103495, -0.347971, 0.42446825, -0.06142342, -0.3128329, -0.34205097, -0.01554013, -0.0062627587, -0.0056820335, -0.023796907, -0.41245252, -0.054200783, -0.03822452, -0.11767638, -0.016106911, 0.31175297, -0.5568409, -0.16245715, -0.011221021, -0.5537847, -0.35662684, -0.48201695, -0.45050132, -0.21723615, -0.11407319, -0.5948806, -0.54684925, -0.21355397, -0.959172, 0.50151765, -0.4727797, -0.07726356, -0.15817675, -0.049234994, -0.4865531, -0.42555496, 0.68461466};
float weight_2[] = {0.00069622905, 0.0026185552, 0.0014338256, -0.023147814, -0.0011537736, -0.00014815276, 0.00066751667, 0.00055560726, -0.0011214399, 0.00061102, 0.0007482782, -0.0027926287, 0.0011641794, -0.00046621135, 0.00070350274, 0.0121156145, 0.016667292, -0.0013469573, 0.0019974727, -0.00018446811, 0.51065713, 0.0011901802, 0.0013109683, -0.00075824297, -0.002985635, 0.00058385055, -0.0024590835, -0.0018590592, 0.0028407392, 0.0012452109, -0.0015953819, -0.0018093325, -0.00077359425, 0.00088726514, 0.00066960574, -0.0010340131, 0.0014109788, 0.0011133126, 0.003109058, 0.00036074404, 0.0013318857, 0.0023822142, 0.00047418292, 0.00225226, -0.0009791454, 0.1496409, 0.00016887882, -8.33485e-06, 0.00090513815, -0.0006246925, 0.0002526492, -0.0012939142, 0.0013014753, -0.00022262131, -0.0028982637, -0.0003537885, 7.276569e-05, 0.00036682014, -0.3887442, -2.3608445e-05, -0.0020394295, 0.00058998243, 0.00095089054, 0.0007014136, 0.001896137, 0.00071145664, -0.0011716535, 0.00032263645, -0.24601655, -0.00045495247, 0.0012893449, -0.00085254345, 0.014964657, -0.00611563, -3.5845267e-05, -0.42284262, -0.001235855, -0.00051615905, -0.00086029764, -3.8074028, -0.001229715, 0.0007960594, 0.0004508455, -0.001493505, -0.00051703304, -0.0006771758, 0.000557645, -0.001313289, -0.001108638, -0.00020714803, -0.0012148208, -0.002862039, 0.0009656674, -0.0017352446, -0.00023220852, -0.0008011799, -0.0027599495, 6.8759546e-06, 0.00052280707, 0.0015047186, -0.0032446051, -0.00058796385, 1.910841e-06, -0.0008991863, -0.00072870497, 8.224917e-06, -0.0015567389, 0.00060508284, 0.0012940656, -0.0005197781, 0.001627698, -0.00016969342, -0.0011050712, 0.002478024, -0.0007008037, -0.003169173, 0.00031356094, -0.000773769, -0.0018019471, -0.0008237852, -0.00036160255, -0.00083287735, -0.0039459774, 0.0010864033, 0.0005116764, -0.0005981091, 0.0040504914, -0.00049017987, 0.0012906097, -0.0009482522, 0.0014627719, 0.00066920905, -0.0002964203, -0.0008228549, -0.0012559806, 0.00037297123, -0.0020577018, 0.0009936251, -0.0022163212, 8.965342e-05, 0.0040313434, -0.0027010576, 0.0017977137, -0.0042460538, 0.0041121077, 0.00043589502, -1.31025445e-05, 0.0021629494, 0.001701026, -9.059557e-05, -0.001583159, 5.1369425e-05, 0.0002795254, -0.00018297904, -0.00022909837, 0.00011348599, 0.0014515509, 0.00082239415, -0.0012399434, 0.0010487535, 0.0010365112, 0.0021571408, -0.00025347772, 0.00067730725, 0.00032512785, -0.00022284553, -0.00020984822, 0.0018096564, 0.002412465, -0.0021047269, -0.0008872669, -0.0018522111, -0.0017804, -0.0010507967, 8.17781e-05, -0.00030863108, 0.0009038996, 0.0011616098, -0.0021609, -0.0011831056, 0.002339939, -0.0005261676, -0.0005308404, -0.0024122633, -0.0005584955, 0.0012448896, -0.0014480748, -0.00024164445, -0.0011361426, -0.000591805, 0.0022295055, 0.00017662204, -0.0010707048, -0.00059964467, 0.0006602883, 9.690411e-06, 0.0041050445, -0.00094038347, 0.00075901754, 0.00067040906, -0.0024958712, -0.0012797413, -0.0019654427, -0.00087081187, 0.00070730597, -0.0014913359, -0.0014379299, -0.0008443941, -0.003915334, -0.0031116707, -0.0005095073, 0.0025543333, -0.00064202707, -0.0009117239, 0.0015663438, 0.00317035, 0.0032979315, 0.00045148554, 0.0007562019, -0.0016740018, 0.0012942539, 0.00057634077, -0.0007071264, 0.0020309878, -0.0005122448, 0.0038040385, 0.0014252219, 0.0009380529, -0.0005752335, -0.00027624884, -0.0006021469, -0.0013216686, -0.0024822792, 0.0015129087, -0.00067695265, -0.0004611042, 0.0024142312, -0.0002984038, 0.0012919432, -0.0008678533, -0.00020600698, -0.0041798865, -0.0001890785, 0.0021615762, 0.0020195458, 0.0024737553, 0.0016491894, 0.0026449738, -9.8483e-05, -0.0005647901, -0.00022989162, 0.0023940117, 0.0012296216, 0.0004964295, 0.00078435394, 0.0024987685, -0.0025606742, 0.0015540029, -0.00043100817, -0.0014341841, 0.0015228057, -0.00016969116, 0.0001181651, 0.00088405283, -0.002615403, 0.0014518048, -0.00018286624, -0.000756699, 0.00051962666, 0.0010275933, 0.00021883083, 9.377068e-05, 0.0006641582, -0.0012971581, 0.00029164855, 0.0005957119, 8.436851e-06, 0.0012999665, -0.00074055756, 0.002153277, 0.00070590543, -0.0011328511, -0.0012891323, -0.00089321926, -0.0018932784, 0.0024437935, -0.0006536867, 0.0003540133, -0.00024170335, 0.00067275594, 0.0008628356, -0.0015772937, 0.0020109469, -0.0006461206, 0.0006520577, -0.00030896626, -0.0013339878, -5.792419e-06, 0.0008304096, 0.0012938551, 0.0012041883, 0.00013143366, 0.0008409496, 0.0019450419, 0.000843801, -0.00034713384, -0.0018153485, 0.0002816622, 2.5713292e-05, -0.0007933524, 0.0021582958, -0.00059864554, 0.0005663188, 0.00077277794, -0.00011952308, 0.0011354507, 0.0012981324, 0.0010055929, 0.0019395326, 0.0042655217, -0.00065569126, -0.00030706008, 0.00011139689, -0.00021953078, 0.00054408953, -0.0006127979, -0.001217406, 0.0003064812, -0.00091953564, -0.003290575, 0.0010690338, -0.00039815428, -0.00094215444, -0.000724345, 0.0018592556, 0.00066132296, 0.035833932, 0.0006251166, 5.7887395e-05, -0.00063688646, -0.44623822, -1.5556638e-05, -0.00045929977, 0.00074590486, 0.002454934, 0.0005828912, -0.0012996686, -0.0012292175, -0.0010583776, -0.0009456696, 0.00137673, 0.0010142807, 0.0011504348, 0.00078433286, -0.00033575093, -0.0025149481, 0.0008008168, -0.00036744017, 0.0019620005, 0.0007635142, 0.0032863636, -0.00077493815, -0.00010273082, 0.0045115417, -0.0013088598, 0.018484775, 0.26849785, -0.00029885367, 0.0024932425, 0.0008253724, 0.000112020934, 0.0009853272, -0.00074029865, -0.8980447, -0.3588067, -0.0003664946, -0.001711817, -0.00068489317, 0.6193125, -0.0008587886, -0.001289329, 0.00069447025, 0.0010437734, -0.0006896364, 0.0022175203, -0.0009131518, -0.00043461766, 0.0009964549, 0.061523747, -0.001052479, 0.0003018668, -0.0035992246, -0.0007022931, 0.48053998, 0.0014397926, -0.0014943413, -0.00016955525, -0.00076488295, 0.002002271, -0.008159008, 0.000495991, -0.0020448323, 0.0011230251, -0.0009392575, -0.0016470256, 0.0018887972, 0.000632201, 6.976735e-05, 0.00086942187, -0.0045318743, -0.00019595271, 0.0015153092, 0.0006913558, -0.00083807047, -0.00023950083, -0.0019240606, 0.00014993653, -0.00052081596, 0.00013625337, 0.0015767801, 0.0010583128, -0.0005447499, -0.000657342, -0.0007899222, -0.001045845, 0.0005224439, 0.0005628215, 0.00039534713, 0.00038598292, -0.0010016529, -0.0013017037, 0.004309438, -0.0011711271, -0.002549895, -2.1733198e-05, 0.004141284, 0.0013418995, -0.00051098317, -0.0006269988, 0.0015241399, 2.5977548e-05, 0.0009517964, -0.00019238098, -0.00073556975, 0.000546893, 0.002932901, -0.0016327826, 0.0018417258, 0.0016440738, -0.00088719634, -0.0011086294, -0.0004930851, -0.00075831043, -0.00080766936, -0.0029849582, -0.00038353723, -0.0022301537, 0.0044763824, 0.00031630194, -0.0005418516, -2.0292355e-06, -0.0010511826, 0.00024711533, 0.00013086898, 0.001187562, 0.0012187912, -0.00084325415, -0.00032327086, -0.00075722445, 0.0004454233, 7.462621e-05, -0.00094287837, -0.00086046476, -0.0022528938, 0.00056121347, 0.0010448446, -6.662577e-05, -0.0020435285, -0.0008057158, -0.0019936878, -0.00088480103, -0.00067905185, -0.00067910017, -0.00079897005, 0.0014441021, 4.5832712e-05, 0.0012022234, -0.0010813298, 0.00069422345, -0.0018232762, 0.0011870615, 0.002451474, -0.0038977046, -0.0006332499, 0.0009998311, 0.00451748, 0.0006565964, 0.0012337747, -0.003777166, -0.0018589199, -0.00043602724, 0.00065023376, -0.002137695, -0.0009352502, 0.00078217604, -0.0006570552, -0.0006753525, -0.0018286854, -1.7013808e-06, 0.00070869195, 0.003314092, 6.3897794e-05, 0.0017741742, -0.00047564728, -0.00175965, -0.00039442178, 2.780906e-05, 0.0012149289, 0.0011737844, 0.0010423113, 3.6324345e-05, -0.0018490243, 0.0010713708, 0.0006411894, 0.002808506, -0.0036295801, 0.0005868321, 0.0012334519, 0.0009554031, -0.000899598, 0.0030683512, -0.00025065747, 0.0025013918, 0.0013585843, -0.0023011616, -0.0016085899, -0.0007377474, -0.0009792665, 0.0013778731, 0.001933415, -0.00224676, 0.000766657, -0.0016866206, 0.00034016994, -0.0003672, 0.0007630271, -0.0011218756, -0.00052215543, -0.00023072195, -0.00046167817, 3.3555058e-05, 0.00062195177, -0.0007640161, 0.0025195458, -0.00041539338, 0.00020240154, 0.0013124725, -0.0010215857, -0.00073739025, 0.0008303822, 0.0017338486, 0.0005453798, 0.0007574839, 0.0014528867, -0.00026019732, 0.0004222374, -0.0019414328, 0.00027042197, -0.0014749952, 0.0011454785, -0.00050214696, 0.0020323254, 3.901719e-05, 0.0012412341, 0.0006671301, -0.0010005728, -7.726383e-05, 0.0007184124, 0.0014669609, 0.000842706, -0.00068099867, -0.00051609305, 0.0019313168, 0.00069402927, 0.0007360757, 0.0004921507, -0.00067397574, -0.00044710495, 0.00081457256, 0.001396161, -0.0004142688, -0.0018066319, 0.00015233859, -0.001937342, -0.0023309235, -0.0008472551, 0.0038926452, -0.0017687117, -5.841913e-05, -0.0019744998, -0.0014397284, -0.00026437663, -9.783462e-05, 0.0015039479, 0.00047704217, 6.6502194e-05, 0.0012761974, 0.00066414184, -0.00023688604, -0.00014158589, 0.0007356424, 0.0016783138, -0.00076689676, 0.00073371123, 0.00010105944, -0.0013976091, -0.001095444, 0.0019560661, -2.967121e-05, -4.9529277e-05, 0.0016666341, -0.00033773572, 0.0008306168, -0.0026449363, -0.0008290501, 0.0021895326, 2.698932e-05, -0.0005630626, -0.00018812591, -0.0024557088, -0.0012794998, -0.0018130313, 0.00011232559, -0.0007956228, 0.0007671966, 0.002556439, 0.0005266834, -0.00037611907, 0.0018948992, 0.001060155, -0.000981151, -0.0021592278, 0.0004071371, -0.00061336823, -0.0005999661, -0.0013129571, 0.0006704347, -0.00054802047, -0.0020940977, -0.00070435833, -0.00026401936, -0.0002809976, 0.0001669894, 0.0019497477, 0.00021351746, 0.0016642727, -8.198002e-05, -0.0011311757, -0.0012153863, 0.00089010055, -0.0012801257, 0.0007805847, 0.00067016244, -0.0011282078, 3.3790187e-05, -0.00087442336, -0.0014072792, -0.0028655587, 0.0008745077, 0.00087931793, -0.0004709595, -0.0026576181, 0.0017013318, -0.00074088445, -4.539819e-06, -0.0037848325, -1.4228426e-05, 0.001810318, -0.0006706572, -0.002164107, -0.00020703144, 0.0017044325, -0.0011383822, -0.0035977075, -0.00070776336, 0.00062575407, 0.0021389925, -0.0012281062, -0.00025402772, 0.0012959207, 0.0031140633, -0.0028583782, -0.0028616565, -0.0012967963, 0.0009857574, 0.00022783573, -0.0006835402, 0.00086219044, 0.00051350205, -0.0019515519, -2.5897752e-05, 0.00073982135, -0.0033795736, 0.003089907, 0.0012203644, 0.00078448706, -0.00079638185, -0.0022668561, -0.000984777, -0.0025381946, 0.00021303305, -0.0014146126, 0.0008990314, -0.0014414759, -0.0010653954, 0.0006841898, 0.0006980704, -0.000996783, -0.0008713474, 0.0019555644, -0.000745562, 0.0009806571, -0.0026963258, -2.057315, 0.0003612278, -0.08969446, -0.00059546105, 0.0011722953, -0.0011388711, -0.002057992, 0.00055179175, 0.0002257037, -0.0021597117, 0.00075376057, -0.0012893439, 0.000709859, 0.037459046, 0.0012683173, 0.0011481012, -0.0010200203, 0.00069511216, -0.0015610651, 0.0015849475, 0.0007241114, 0.000643457, -0.000805692, 0.0012871115, -0.00023992464, 0.0022895834, -0.00055189995, -0.0011124744, -0.0009156313, -0.0005877331, -0.0011826737, -0.0010546988, 0.00013766304, -0.0012300123, 0.002053362, 0.0011053176, -0.0006262443, -0.0032859226, 0.0004958601, 0.0033515128, 0.0014983013, 8.7320004e-05, -0.009133555, -0.7419449, -0.0007330811, -0.0007995272, 0.0011514233, 0.00011478935, 0.0013214896, -0.000727725, -0.9224159, -0.23890337, -0.0031283065, -0.0006959265, 0.0012617265, 0.27947903, -0.0013022434, -0.00061533, -0.006312751, -0.0020443061, 0.0019385928, -0.0031073294, -0.0020596874, 0.0034644182, -0.0007862044, -0.0003286926, -0.0021861447, -0.0019369192, 1.019415, 0.44621462, -9.0778674e-05, -0.000233158, -0.0009957013, 0.002014472, -2.3733824e-05, 0.00017402775, 1.113926, 0.0013009603, -0.0015776947, -0.0019633505, -1.2547386, -0.001598624, 0.5533269, -0.00063056214, 0.0018442164, -0.0005831927, 0.0013691224, 0.0027491667, 0.0004155311, -0.00087360584, -0.0040701074, 0.0001926478, -0.009381282, 0.46466154, -0.00020772108, -0.0008125009, 0.00048403363, -0.41478527, 0.00068338553, -0.0019477574, 0.0017858539, 0.0009478595, 8.269737e-05, 0.00060079864, -0.0017639862, -0.0008510919, -0.00019061952, 0.00032330956, 0.00083777704, 0.0008443024, -0.0016341903, -0.0012746768, -9.775395e-07, 8.535462e-05, 0.0007386423, 0.0006430551, 0.0013033771, -2.9667135e-05, -0.00046381482, -0.002011182, -0.0016755232, 0.00030002487, -0.12236521, 0.07480747, 0.0037565539, 0.0011081079, -0.00030545692, 0.0014781863, -0.00042573354, -0.0023850626, -0.029559962, -0.017172908, 0.00010937918, -0.00044487184, -0.00035994017, -0.000563711, 0.0006858688, 0.00026892388, 0.0018423777, -0.0015707742, 0.0007823433, 0.0014216183, -0.001888961, 0.0007486469, -0.00012027986, 0.029051283, 0.0014370382, 0.0008832174, 0.00011447194, -0.0113431215, -0.025448538, -0.00016087573, -0.046329327, 0.0024632714, 0.0005977957, 0.0011594902, 1.0361884, -0.0005992695, 0.00010220584, -0.001761307, 0.0035542045, -0.0006780551, 2.5050394e-05, 0.0008085198, -0.001330763, 0.00040326722, -0.0015795454, -0.0027034709, -0.0030273723, 0.0005775553, -0.0008422781, 0.0007010073, -0.001374553, 0.00054166804, 0.0013756923, -0.00061889674, -0.0011171849, -0.0036578411, -0.00244542, -0.0005394132, 0.00027897902, -0.0004358248, 7.540776e-05, 0.0012170644, 0.0027039605, -0.00032317318, -0.0015438742, -0.0010464708, -0.00091661356, -0.00028418645, 0.0005092584, -0.00030371104, -3.4678e-05, -0.0025214432, -0.0019439438, -0.0002865013, -0.0012596621, -0.00019777264, -0.0033456, 0.001469694, 0.0044688866, 0.0017734845, -0.002696702, 0.00057411066, 0.00093695195, 0.00022076344, -0.002571347, -0.0013875954, 0.0026367004, 0.00027847898, -0.0005171125, -0.001312728, -0.00034580647, 0.0007900129, 0.001366576, -0.000771513, -0.0011280566, 0.0015275562, -0.0025035604, 0.001145151, 0.0025795966, -0.00035069522, 0.00087982323, -0.0004363882, 0.00080788287, -0.002707524, 0.00094477367, 0.0014475624, 0.001634554, -0.0006885039, 0.0005706989, 0.0012318231, 0.00077414355, 0.0027896534, 0.00077565486, 0.0013885803, -0.0034164614, -0.0014658635, -5.910697e-06, 0.0004465587, 0.0017662653, -0.00034974894, -0.0025289496, 0.0031002741, -0.0047232546, -0.001417307, 0.00013192013, 0.00029241352, -0.00086947065, -0.00013504637, 0.00045242265, -0.0011192966, 0.0003967781, 0.00079808384, 0.00016947137, 0.00053857523, 0.00036043918, -0.0015436233, 0.0010593211, 0.0012634177, -0.0016261038, 0.0026458306, 0.00030904126, -0.00014249404, -0.0005951679, -0.0015366133, 0.0012446952, 0.0013986131, 0.00041278356, 0.00044574693, -0.0005535716, 0.0019835397, 0.0013280093, 0.0025520127, 0.0025025113, -0.00053394435, -0.0013167518, -0.0012098195, 0.0018885026, 0.0011586386, -0.00046315533, -0.00044750667, 0.0006018617, 0.0014222116, -0.0011211372, 0.0015016254, 7.8728306e-05, 0.00016135676, -0.003749997, 0.0012556378, -0.00117072, 0.00035687594, 0.0005179031, -0.00018277562, -0.00024224585, 0.0023235362, 0.0009728153, 0.0008755217, 0.0005880386, -0.0012910465, -0.0016340994, 0.0016927314, 0.0025959122, 0.0007427619, -0.0012736766, 0.003765836, -0.0009996006, -0.0024169353, 0.0020713257, 0.002163073, 0.0006911919, -0.002498209, 0.0013858601, 0.0020254417, -0.0002757975, 0.00045937055, 0.0005171138, 0.002226794, 0.0007732677, 0.0032893564, -0.0019016941, -0.0005926707, 0.001935673, -0.0004922956, -0.0005667043, 0.0021812634, 0.00090390735, 0.0018104407, 0.00086481066, 0.0038101384, -0.00034383358, 0.0033366743, 5.755335e-05, -0.0019185368, -0.0008269719, 0.002208323, -0.0018668659, 0.0006435042, 0.0016385927, 0.0010479775, 6.1528815e-05, -0.00063897984, 0.00023769675, -0.0013474231, 0.002180841, 0.0008403748, -0.00032484002, -0.0020616536, 0.0031977359, 0.0019278219, -0.0019177631, 0.000330289, -0.00052347954, 0.0008573406, -0.00056168076, 0.0005631807, -0.00095920864, -9.008555e-05, -0.00089459535, -0.00022636447, 0.002751989, 0.0010359337, -0.00046704954, 0.00074153714, -0.0024280436, 0.0013694615, -0.0007886565, -0.00014355441, 0.00014373854, -0.0024325217, -0.001704796, 0.004121137, -0.0010706567, 0.0012560561, 0.0014036493, 0.0010392618, -0.00017601151, -0.0008971869, 0.0013234379, 2.6541966e-05, 0.0012063286, -0.0019102581, -0.0010896011, -0.0008039336, 0.0032519388, 0.0010858697, 0.0005143514, -0.00026209626, -0.00089832547, 0.0027943123, 0.00066433486, 0.0012433126, 0.00020863558, -0.0019507044, -0.0001804328, -0.0006661261, 0.00042740314, 0.00068992167, 0.0006371536, 0.0037922012, 0.00043130858, -0.0027898212, -0.0014216916, 0.0024319033, -0.00031623058, 0.00040450384, -0.00014692156, -0.0020159243, 0.0035994793, -0.0010236953, -0.002040473, 0.00012762472, -0.001666289, 0.0018416569, -0.0017750342, 0.002831073, 0.0009001503, 0.00088190293, 0.0031243037, -0.00072171097, 0.00073687686, -0.0006444702, -4.5753914e-05, 0.0037117223, 0.002641256, 0.00023106486, 0.0015218416, -0.0018624123, -0.00016848845, 0.0016082623, -0.0025748448, -0.0014554254, 0.0028400808, -0.0026602983, 0.0028041843, -0.00037994192, 0.0029310603, 7.417053e-06, 0.00057054375, -0.00094821025, -0.0010795566, 0.0037584775, 0.0017610331, 0.0009262222, 0.0017518827, 0.0016000929, -3.963418e-05, -0.00080649275, -0.00047820737, 0.00061342283, 0.0037818854, -0.0014978619, 0.00064759166, 0.00025424449, -0.00018348591, 0.0016940272, 0.006474158, 0.0024262273, -9.194075e-06, -0.0026243438, 0.0008104316, 0.0002991855, 0.0012016858, 0.0013887587, -0.0007755484, -0.00086702686, 0.001368965, 0.0009632781, -0.0006255184, -0.0016548578, 0.0011249399, -0.0009986022, -0.0013129052, -0.0021955725, 0.00030588516, -0.00059002504, -9.4341e-05, -0.0006483436, -0.0019880147, 0.0002775822, -0.0005195424, -0.00086657377, 0.0019015714, -0.00016652851, -0.0010806234, -0.0033082226, -0.0018949182, 0.0009787992, -0.0012353016, 0.0022210255, -0.002113074, -0.00051600486, 0.004773485, -0.00022299174, 2.6175403e-05, 0.0006485167, -0.0012254901, -0.000787314, -0.0024812785, 0.0032975525, -0.00044645148, -0.0012914862, 0.0018009228, 0.0021481456, 0.00078176754, -0.00053280394, -0.0007706043, 0.0013011086, 0.00020292247, 0.0012653754, -0.00063992274, 0.0017729215, -0.00052609923, 0.00064098544, 0.0011507407, -0.00056449324, 0.0009561327, -0.0012753272, -0.001809917, 0.00027358104, 0.00066978903, 0.0014869857, -0.0017960664, -0.00044688414, -0.0010770841, 0.0028362689, -0.0024811672, -0.001625963, -0.001683967, 0.0024625338, -0.0013758813, -0.00066239474, 0.0008120211, 0.001559297, -0.003114318, -0.002473177, -0.0018401118, -5.2008778e-05, 0.00042452174, -0.00080809684, 0.00073621515, 0.00021984364, 0.0015228151, 0.0016547763, 9.1483234e-05, 0.00017438439, -0.0020756647, 0.0025187926, -0.0010320771, 0.0005894107, -0.00022501155, 0.00081035774, -0.0005649654, 0.0007615695, 0.00022577809, 0.0018402375, -0.0007791887, -0.0013157005, -0.0014107539, 0.0026065833, -0.0014272416, -0.0010559903, -0.0007579975, 0.0023915884, -0.0002948158, 0.0017026473, 7.040307e-05, 0.0004932564, 2.3202141e-05, -1.5016296e-05, 0.0010357749, 0.0026053921, 0.00195575, 0.0023857385, 0.00010739372, -0.0035030101, -0.0006963775, -0.00031618192, 0.00247039, -0.0014519389, 0.001112642, 0.001197025, 0.0001252038, 0.001304178, 0.0019505656, 0.0010031291, -0.00054247584, 0.00012461626, -0.00090133864, 0.00046145043, -0.0008806072, 0.00046351808, -0.0017465232, 0.0006981521, -0.0014275732, 0.0008891727, 0.0021607475, 0.00040254294, -0.00069767697, 0.00220111, 0.0012105331, 0.0016716308, 0.0016434996, 0.0005394825, -0.006211495, -0.00078131724, 0.00065707526, 0.00049000315, 0.0018128544, -0.0019262357, -0.0008386722, 0.00193721, -0.0021821128, 0.0010732112, -0.0011688832, 0.0046594925, -0.000867415, -0.0024718116, 0.002601292, -0.0007497386, 0.00046929717, -0.0010066981, 0.00031110214, -0.00078812207, 9.306094e-05, 0.0001255747, 0.00032321428, 9.9737954e-05, -0.0014486897, -0.0016986618, 0.0007946923, 0.00074730045, -0.0013238331, 0.000531305, 0.0035963089, -0.0015104851, -0.0005876873, -0.0003662085, -0.0012123946, 0.0028507812, 0.0010301443, 0.0010008177, -8.625013e-05, 0.00064544665, -0.000967848, 0.0013604467, 0.00020167447, 0.00016080425, -0.0015907534, -0.00062980043, -0.0015923869, -0.0013873127, 0.0014706533, -0.0009816894, 0.00021962827, -0.0011003577, -0.0031102286, 0.0010728815, 0.00060672296, 0.0006998191, 0.0012725648, 0.0030684331, -0.00028129193, 0.0009316138, 0.0013221711, -0.0014093993, 0.0024732305, -0.0010651051, -0.0026066415, 0.0006763166, 0.0001704595, -0.00014382001, -0.0009332502, 0.00030048087, -0.00030182162, 0.0024664165, -0.00046142435, -0.00029302132, -0.00037007837, 0.0003025178, 0.0026642154, -0.00063940836, 0.0009838778, 0.00044365786, 0.0016575698, -0.0021993946, -0.0031146067, -0.0012451727, -0.0011406061, -0.0042758044, 0.00037191447, 0.0011570778, -0.00021899166, 0.0005776088, -0.0024125162, -0.0023013456, 0.002676489, -0.0007681515, -0.0009293162, 0.0036157272, 0.0017980282, 0.0025527778, -6.987517e-05, 2.6170164e-05, 0.0005275995, 0.0010720063, -0.00088892516, -0.00012477353, 0.00093894685, -0.0005823252, -0.0023828752, 0.0015681251, -0.0018137145, 0.00044678303, -0.0011531231, 0.0007603596, -0.0013126931, -0.0006170813, 0.0013089932, -0.00067830976, -0.0018502105, 0.00043681456, -0.00042294062, -8.613308e-06, -0.0016646725, -0.0013406309, 0.0007598583, 1.4110119e-06, -0.001197593, 0.0016753394, 0.00215738, 0.000104688515, 0.0037536104, 0.001314051, 0.0013009012, -0.0038080998, 0.00046339683, 0.0014919492, 0.00013557001, 8.078769e-05, 0.00049959205, -0.0011515996, 0.00053517084, -8.4777945e-05, -0.000590882, -0.0034418828, 0.0008306517, 0.0010374029, -0.0015940189, -0.0012599542, -0.0005028647, 0.0019816628, -3.1027215e-05, -0.0010249867, 0.0012519846, -0.0010515571, -0.000595733, 0.0010917328, -0.0006006428, -0.0016214236, 0.0004777853, -9.9824625e-05, 7.4855343e-06, 0.0024143835, 4.7765556e-05, 0.00042977172, -0.0021543968, 0.0007423257, -0.0014518299, -0.0041819494, -0.0007105182, 0.00089397345, -0.00282523, 0.001338108, -0.0015526211, -0.00163275, 0.0005769105, 0.001067421, 0.0012951107, -0.0026576852, -0.0010542903, -0.0031121932, -0.0023267062, -0.0009662407, -0.0003224092, -0.0005442197, -0.00026843738, 0.0032999134, -0.00012746296, 0.00084907113, 0.0008994111, 0.00037135824, 0.0016040801, 0.0002734474, -0.0012546183, 0.0013517508, 0.00025973143, 0.00090708415, 0.002140764, -0.0006943724, -0.0027024413, 0.001715878, -0.0019734034, 0.00090147567, 0.00178138, 0.00061888044, -0.001333179, -0.0012531346, 0.0015098145, -0.0008719985, -0.0011888762, -0.0021962558, 0.0020202252, -0.00068041385, -0.0011043008, 0.0010094114, 0.0028744198, -0.0026021283, -0.00030251453, 0.0008186531, 0.0018819739, -0.000626895, 0.00093917386, -0.00039959291, 0.0004906812, 6.0744118e-05, -0.0012759028, 0.0013141873, -0.00015002897, -0.0018895672, 0.0007915525, 0.0013010632, -0.00017119246, -0.0014794366, 0.00085546426, -0.0004932987, -0.0008721663, 7.797108e-05, -4.711654e-05, -0.0012097529, -0.00021093882, 0.002687381, 4.8264475e-05, -0.00021871761, -0.0026785487, 0.000809198, 0.0012003789, -0.0020409327, -0.00021836013, -0.0009938087, -0.00069012993, 0.0016437097, 0.0021611247, -0.00066671416, -0.001445217, -0.0009805541, 7.201743e-05, 0.0006462717, 5.0164177e-05, 0.0014268435, 0.00013477501, 0.0003953774, -0.0015279502, -0.0013839345, -0.003042216, -0.00029580967, -0.00042299897, -0.0035447571, 2.3445464e-05, -6.141345e-06, -0.0004097367, 0.002852478, 0.0023490165, 0.0005466676, -0.0016275417, 0.0015539968, 0.0031998092, 0.00091357384, 0.0008148152, 0.00018573797, 0.0023783725, -0.0008646131, -0.001647773, 0.00071540475, -0.0012081207, -0.0047474764, 0.00091882836, 0.0012960399, 0.0007638553, -0.0005229027, -0.0012551725, 0.0018435135, -0.082436234, -0.002246743, -0.00041581565, -0.0009175479, -0.00026619819, -0.003931912, 0.00025918632, -0.00039825903, -0.00038747644, -6.7126704e-05, 0.0014951385, -0.0013639786, 0.001511777, 0.0008090439, 0.0003663848, -0.0012502044, 0.0011002173, -0.0013279335, -0.00023540785, -0.0007900784, -0.0008325549, -0.0012507923, 0.0010348911, -0.0025623948, -0.0035272578, -0.0013699492, -0.0010676795, -0.0009242752, -0.00049376464, 0.00014707213, -0.21188538, -0.0007674346, -0.00042736589, 0.00051370554, 0.0006776386, -0.0006624558, -0.00062940724, -0.0008993774, 0.0019723894, 0.017606007, -0.00017207616, 8.4035215e-05, -0.00012461492, -1.3858157, -0.0013856877, 0.0007401007, 0.00020966801, -0.00032058737, 0.0032854015, -0.0042662146, 0.0003108145, 0.0007377957, 0.0001365628, -0.0007545003, 0.0031633056, -0.00048842945, -0.0014015203, -0.017814122, 0.012640287, 0.00022818265, -0.0041328655, -0.0019214073, 0.0027665407, 0.00015069777, 0.0047251694, -0.001317501, 0.00017428087, -0.0015345839, 0.002809857, -0.0013987096, 0.0005928244, -0.0013088259, -0.00033832557, 0.0020379757, 0.0028291729, 0.001078155, -0.00055353716, -0.00046641487, 0.00097459176, 0.0045635365, 0.0017315345, -0.00019704929, 0.0011980603, 0.0004364836, 0.0013677116, 0.0039151153, -0.00041325702, -0.00051474373, 0.0011009437, 0.0020357538, 0.0006357904, 0.00024463993, -0.00045775913, 0.0020538727, 0.0008276071, 0.00041768388, 0.0017284367, 0.00064765476, -0.00083391083, -0.0010931791, 4.7402806e-05, 0.0007115377, 0.0003497539, -2.1015003e-06, 0.0004197074, 0.0008886042, -0.0013355482, -0.00029223785, 0.0024159215, -4.5419176e-05, 0.00040421553, -0.00083055557, -0.000769292, -0.0009810067, -0.0021557538, 0.001339475, 0.0013275375, -0.0009184278, -0.0026653027, -0.00067869754, -0.00019601505, -0.0021346656, 0.0022422187, 0.00035562005, -0.003760628, 0.00073109224, 0.00095080596, -0.0026799974, 6.349271e-05, 0.00029427453, 0.00043086463, 0.0027023384, 6.943106e-05, -0.0008704899, -0.0018590167, -0.0010937282, -8.632039e-05, 0.0011391202, 0.000426218, -0.0008388494, 0.0026035968, -0.0006776224, -0.0006515767, -0.0007052334, -0.0011363453, -0.0031139422, 0.0008818942, 0.001385492, -0.00039730314, 0.0017362414, -0.0013057274, 0.0021574365, 0.0005122563, -0.0016495558, 0.0011186914, -0.0024787034, -7.9725694e-05, 0.0012434049, 0.0012929039, 0.00087325857, 0.0019891146, -0.002162323, -0.0012443152, 0.0014131529, -0.0006630108, 0.0021621443, 0.0012886552, 0.0016233153, 0.0013555465, 0.0026831713, -0.0015750567, 0.0012443354, 0.0006509213, 1.594516e-05, 0.00088204397, -0.00045458664, -0.00040415034, 0.0025541335, 8.785201e-05, 0.00038881876, -0.0003975819, 4.3106265e-05, -0.00037003044, 0.0042685084, -0.00088788377, 0.00020772388, -0.00066369254, -0.0021612598, 0.0007212235, 0.0005417111, 0.00052309205, -0.00047831822, -0.0014065006, -0.00210197, 0.002003385, -0.00088126695, 0.0012622834, 0.00090476463, 0.0005791832, -0.00066192535, 0.0001855013, -0.0019639488, -0.0011762038, 0.0028792736, -2.9572315e-05, 0.0012676716, -0.00097372645, 0.00062092673, 0.002473333, 0.0008907576, 0.0019467352, -0.001442956, 0.001178185, 0.0012988984, -0.0017609475, 0.0013032821, -0.0006473845, 0.0013023798, 0.0042694993, 0.0028260215, 0.0013080846, -0.0007653136, -0.0009917696, 0.0015025875, 0.0006501401, 0.00071261486, -0.0010270441, -0.0031104987, 0.12797485, 0.00056996517, -6.316113e-05, -0.0036982363, 0.00058635825, 0.0016820999, -0.0012804272, -0.00011847104, 0.0012617683, 0.0019226191, 0.00080062734, 0.0007718002, 0.00038777644, 0.00032354085, -0.00067701575, -0.0012128064, 0.0005854394, -0.32962495, 0.0006564249, 0.0031104647, 0.0006771266, 0.00045517914, 0.0010914779, -0.0013018416, 0.00034952982, -0.0018156325, 0.0014746734, -0.0015148309, -0.0007499972, -0.0006580579, -0.0011552913, -0.00080281944, 0.0010066042, -0.0020693983, 2.5480636e-05, 0.0010986275, -0.00026685605, -0.0017540155, -0.0024675108, 0.0025192257, 0.0014028786, 0.00014250368, -0.015553459, -0.00025696633, -0.0015054976, 0.00032651378, -0.00059180305, 0.0023862831, 0.00010458732, 0.0014959301, -0.0017546365, -0.0008101506, 5.274256e-05, 0.003296419, -0.0024281908, -0.62710184, -0.00074398227, 0.0008973637, -5.4155593e-05, -0.0026487987, -0.0012949758, -0.0012990914, -0.0017377334, 0.0019907323, -2.781034e-05, 0.60469127, 0.0010890962, 0.0019382801, 0.0025363115, -0.27700764, 0.24308705, 0.00059120415, 0.003536801, 0.0026479242, -0.0002985514, -0.00010766408, 0.0046258997, 0.0009533323, 0.0005710155, 0.0009521567, 0.001276182, -0.00079843507, -0.0022421358, 8.2935556e-05, -0.00025790377, -0.0005422095, -0.0005018746, 0.0005268502, 8.952158e-05, -0.0011365932, 0.0001999024, -0.00037235743, 0.00069036486, 0.0021985006, -0.0008964161, -0.00085597887, -0.0011266242, -0.0025594337, -0.000109156244, 0.0012950699, 0.0009175224, -8.734874e-06, -0.0006994877, -0.0005191589, 0.0008767652, -0.00016557358, 0.003110486, -0.0010179381, 0.00022953132, 0.001213324, -0.0018111482, -0.0004476261, 0.0033453251, -0.0039873812, -0.0014560573, 0.0011246558, 0.0001386992, -0.0001739841, -0.0007294883, 0.0015677185, -0.001101, -0.0002169204, -0.00084357354, -0.0013960823, 0.00050405704, -0.0010006336, 0.00026592208, 0.0005709822, -0.00011150085, -0.00064062944, -0.0015036871, -0.0011238331, 0.0016790384, -0.0010894977, -0.00036662392, -0.00070303906, 0.0015282175, -0.00067876343, -0.0011442841, -0.00016453024, 8.767727e-05, 0.0017626815, -0.0016815118, -0.001933156, -0.0007795745, -0.00039762363, -0.004386936, -0.0012939152, -0.0013346698, -0.0006743732, 0.001189989, -0.00397911, -0.0006496203, -0.0005113575, 0.0007749953, -0.0017640967, 0.0014526028, -0.000745125, 0.0007184675, 0.00040200868, -0.0004547193, 0.0006694155, 0.0021650218, -8.1960025e-05, 0.000355536, -0.004108757, 0.0012782603, 0.000102691934, -0.00044630794, -0.0017991033, 0.0012232137, 0.00077643455, -0.0008727452, -0.00069909793, 0.00023853045, 0.0003739619, 0.00058015564, 0.001429284, -0.0007290557, 0.0019057723, 0.00013923462, -0.0020243395, -0.00032716128, 0.0011143546, 0.00045047706, -0.0031777564, -0.00020058165, -0.0013112181, -0.0008185428, -0.0025534136, 0.0014300742, 0.0010821625, -0.00046786456, -0.0015557256, 6.5391476e-05, 0.0007544594, -6.41979e-05, -0.0010726892, 0.0020245386, -0.0011218045, -0.0018000123, -0.00045921275, -0.00012607727, 0.0014481898, 0.00090260815, 4.7678943e-05, -0.0005642597, 0.0007692586, 0.0002864995, -0.0006581314, -0.0015916598, -0.0002775177, 7.715066e-05, -0.00022215728, -0.0002581416, 0.0015998163, -0.0018662924, 0.00036570698, 0.0014875049, -0.0038716644, -0.0017496921, -0.0025105232, 0.00020843919, 0.00050723035, -0.001315517, 0.0016617344, -0.0014624419, 0.0017643895, 0.0017954449, 9.5618256e-05, 0.0011403211, 0.00024594503, -0.001991952, -0.0016701352, -4.005994e-05, 0.00013918796, 0.0008915455, -0.0016565475, -0.0011785824, -4.139752e-05, 0.0004720178, -0.00038154257, 0.0015182508, 0.0014598779, 0.0036905268, 0.0034776377, 0.000763774, -0.0009792865, -0.0005717451, -0.00041703135, 0.00027595964, -0.002617033, -0.0011843082, 0.0021235573, 0.0012424265, 0.0013393313, -0.0018501735, -0.0025514432, -0.00078403484, 0.00021326664, 0.00025013022, 0.0014894025, 0.00053117785, -0.00074933923, 0.0014279853, -0.0019601432, 0.00078865135, 0.0012679481, -0.0026348527, -0.0025328612, -0.002764427, -0.0022063719, -0.0021867729, -0.0010410545, -0.00022467581, -0.00011264428, -0.0018915226, 0.00030248426, 0.0014488418, -0.00042491325, 0.0016097723, 0.0014715369, -0.0023112723, -0.00040309154, 0.006403802, -0.0016932751, -0.0013006608, 0.0017040176, 0.00074619835, -0.00087056117, -7.7992445e-06, 0.0006862122, -0.00066828716, 0.00310797, -0.0015209749, -0.0016735481, -0.0020298567, 0.00046690402, -0.0003848088, -0.0007396091, 0.0001296273, 0.0011025844, 0.00093882525, 0.0016552353, 0.0010127637, 0.001010293, -0.0011031379, 0.0004524832, -0.0002171424, -5.593509e-05, 0.0027046697, -0.00068150484, -0.0011571384, 0.0006469795, 0.0007482597, -0.00184339, 0.0011401557, -0.000645276, -0.00022229482, -0.0027624124, -0.0025723036, -0.0011529248, 0.004178617, -5.1765703e-05, 0.0008422977, 0.0028406119, -0.00045151863, -0.0019910566, 0.0012101093, -0.0017162258, 0.00026180773, -0.0008742815, -0.0016908939, 0.0013179476, -0.0015187702, -0.001919568, -0.00475503, -0.0019607851, 0.0014764814, -0.0023905826, -0.00016559992, -0.00087684905, -0.0005643916, -0.00066224666, -0.00070508284, -0.0014487122, -0.00030177296, 0.0008755093, 0.0015392292, -0.00024397462, 0.00066136423, -0.0005049886, 0.00023210561, 0.00057745026, 0.0007863586, 0.0009881988, -0.0007393403, 0.0047520096, -0.0011310562, -0.0012312073, 0.0015470036, 0.00074213836, 0.0014260816, 0.00073725695, 0.00053463905, 0.0020308122, 0.00073668116, 0.0006251364, -0.00018711976, 0.0006658807, -0.0017124269, 0.0008806469, -0.00304291, 0.0024719164, 0.00074101577, -0.0007213427, -0.0008980781, -0.0016093195, -0.0012892702, -0.00016191369, 0.001133198, -0.0010724601, -0.00038519473, -0.002438768, -0.0012980399, -0.0001986344, -0.0021980607, 0.00047910097, -0.0007643659, 0.00068623706, -0.00025285792, 0.0015232906, -0.0009150795, -0.0012977904, -0.00054650055, -0.00091299927, -0.0006226647, -0.00047666873, 0.0002007926, -9.053486e-05, -0.14624046, -0.0004108848, -0.023569414, 0.0017923904, 0.00036874233, 0.0009791155, -0.0006897559, -0.0010989523, 2.4987268e-05, -0.0035433033, -0.0005659234, 0.001780079, -0.85200673, 0.004206469, 0.0006431476, 0.0010495378, -7.618076e-05, -0.06466033, -0.0002826902, 0.0031118463, -0.0017955878, -0.0006921142, 0.00013581413, -0.0015067946, 0.0012291288, -0.00027535477, 0.0007766268, -0.0013101236, 0.0020068309, -0.00037805515, 1.1633529e-06, -0.002189774, -0.00027677644, -0.00063525414, -0.00018519437, 0.0033031474, -0.000121996854, -0.0007997002, -0.0016246224, 0.0023485685, 0.0022148055, -0.0003967185, -0.55492026, 0.354815, 0.0015045197, 5.8384365e-05, -0.0006833751, 0.0016232169, -0.00064824003, -0.0014414573, -0.17203392, -0.79538566, 0.0007775177, -0.0024727234, -0.0005772546, -0.73648304, -0.0015167678, 0.0008941909, 0.00088239415, 0.0006164189, -0.0012476023, 0.0019805129, -0.001115313, -0.0013195188, -0.0015965011, -0.14330545, 0.0008638776, -0.0010427053, 0.000785316, 0.0014202159, -0.00066723465, -9.3497394e-05, -0.0004535172, 0.0019023175, 0.0021718098, -0.0016186112, 0.41038224, -0.0015807657, 0.0013872935, 0.003779823, 8.707226e-05, 0.0012165229, -0.0017881864, -0.00022030994, -0.0018842374, -0.00043833512, -9.6551026e-05, -0.002597349, -0.003103538, 0.00049885764, 0.00092775165, -0.003598561, 0.0008338386, -0.001736654, 0.0007700834, 0.00031059072, -0.0013234181, 0.00071848824, -0.0002439034, -0.000862854, -0.0011379193, 8.542474e-05, 0.0009688868, 0.0012694577, 9.867363e-05, 0.0019373852, -0.0010457641, -0.0012249497, -0.0003659987, 0.0021614295, 0.00046481623, -0.00036029663, -0.0016823453, -0.0012173094, -0.0042855786, 0.0009783142, 0.0024170042, 0.0009709902, 0.00070219295, -6.373279e-05, -0.0002000366, -0.0001122939, 0.0004568128, -0.0012449203, 6.623275e-05, 0.0013120696, -0.0013294613, 0.00035170268, 0.0005532913, -0.0017142079, 0.0019463957, -0.0014045689, -0.001429824, 0.0013624491, 0.00046226394, -0.0008596252, 0.0036777512, -0.00017724908, 0.0015407008, 0.0010797533, -0.0013059351, -0.0003786095, -0.0006501395, 0.0016720558, -0.0004932538, -0.0017535246, -0.00071950105, 0.0012894128, -0.0033320533, 0.0003420204, 0.0019058947, -0.0015457437, 0.0020775124, 0.0015892279, 0.00053543434, -0.00029538316, -0.0016381803, 0.002311269, -0.0017065442, -3.1458192e-05, -0.0001465726, 0.0033281795, -0.0018958014, 0.0008804271, 0.0012877564, 0.000546135, 0.0011143838, -0.0005119584, -0.00021189242, 0.0007702081, -0.0001699269, 0.00039199623, -0.00078424194, -0.00037024298, -0.001638268, -0.0011610623, 6.4393505e-05, 0.0012305841, -0.0013429087, -0.000101852755, -0.0006529029, 0.0015740979, 0.0013099352, 0.00054003194, 8.998002e-05, 0.0008452252, 0.0006586198, 0.0006370881, 0.0032334793, 0.0005523421, -9.251817e-05, 0.0011780052, -0.0007968202, 0.0005525823, 0.00035403285, 0.0005684288, -0.0013197996, 0.00064558355, -0.00033437886, -0.0019357372, 0.0004416193, 0.002413538, 0.0013696514, 0.0032878066, 0.0006955466, 0.0009909095, -0.0028589463, -0.0004357526, -0.000346765, -0.0018458219, -0.0007472354, -0.0018981859, 0.00064542465, 0.0011314927, -0.00093872525, -0.0013154123, -0.001967597, -0.0007120733, 0.00037601026, -0.0014096431, -0.0014260837, 0.0023657863, 0.001620575, -0.0018472687, 0.0016470351, 0.0015980647, -0.001740365, 0.00070918084, 0.00080130465, -0.0004599196, -0.0012647187, 0.00085840106, -0.00028893282, -0.0008419575, 0.0005499084, -0.0008447792, 0.0013304794, -0.0019411821, 0.00086202234, 1.2264092e-05, 0.0008655995, 0.00012941676, 0.00019453012, 0.0005315166, 1.1802833e-05, 0.0025489656, -0.0010128076, -0.0009801236, 0.00065343373, 0.0019361051, -0.0003391661, 0.0024126507, 0.00022678648, 0.00041603472, -0.00056598865, -0.00022100814, 0.0008811546, 0.0003505058, 0.0019415709, -4.9243565e-05, 0.0007987319, -0.00044654953, 0.0005811342, 0.00200227, 0.0017275938, 0.0008360264, -0.00021635421, 0.0012898141, 0.0007250669, -0.0005192574, -0.0012895935, 0.0006631943, -0.00018157047, -0.00022396687, -0.0015014923, -0.0008841736, -0.0013078273, 0.0004452396, -0.0020323517, -0.00024915824, -0.0011386346, -0.0012658274, 0.00070435717, 0.0012245405, 0.0019283076, -0.0020670402, -0.0006359865, 0.0008030885, -0.0028543642, 0.001201123, -0.00010054902, -0.0021884744, 0.0016855719, -0.0025543119, -0.0007737675, -0.0001555612, -0.0012829042, -0.001449723, 0.0009593731, 0.0015416314, 0.0018420735, -5.2396223e-05, 5.0093877e-05, 0.0002892043, 0.004105862, -0.0013651281, 0.0025797961, 0.00134442, -0.00020178658, 0.0012346279, -0.00051155314, 0.0037285634, -0.001290246, 0.0024638786, -0.0027179474, -0.00088712195, 0.00012388191, -0.0007594131, -0.0047778697, -0.000763192, -0.0029523491, 0.00166509, 0.0006619219, 0.000910354, 0.002656735, -0.0011897442, -0.0009090937, 0.0009803129, 0.0028754387, 0.00070530066, 0.00012133911, 0.0019965526, 0.0012890799, 0.00026123202, -0.0018101622, 0.0006924006, 0.0013277186, -0.0019472304, 0.00090251083, 0.00076219195, -0.0018114897, 0.00056398165, 0.00027670813, -0.001343396, -0.000265772, -0.00027016914, -0.0021192105, -0.0047583994, -0.0003237133, -0.0006558401, -4.221819e-05, 0.0008404539, -0.0010119549, 0.0012782157, -0.0012956779, 0.00022445602, -0.000759194, -0.00037724376, 0.00037698055, -0.0005350203, 0.0016616802, 0.0010534758, 0.0001360628, -0.0016010527, -0.0009823131, 0.0015550622, -0.0012145607, 0.0013747403, -0.0005994043, 0.0031028274, -0.00030521318, -0.002394137, 0.0026856323, 0.0010827563, -0.00059622823, -0.0018512167, -0.002411256, 0.0012891393, -0.00086839264, 0.00087299204, -0.0017224068, 0.00071755704, -0.0002380726, -0.0025185104, 0.00262193, -0.0005867997, 0.00041691973, 0.00052581285, -0.0019329601, 0.0015484199, 0.000255674, 0.0015393157, -0.0013510527, 0.001874444, 0.0011843909, -0.0011121258, -0.0002417072, -0.00069104764, 0.0008133925, 0.001035533, 0.0013318184, -0.0007946229, 0.0062788595, 0.0007350153, 0.0029874989, -0.00019393349, -0.00033161178, 0.0009779827, -0.00021471467, 0.0013340205, -0.004274952, 0.0006538817, -0.25708014, 0.45568696, -0.00075370516, -0.0020582487, 0.0014744484, 0.0015727903, 0.0008973481, -0.00088233076, -0.0013428171, 0.0010275871, 0.0018096777, 0.0005276236, 0.00095634314, -0.0010811769, -0.0035178235, -0.00019061804, -0.0006011098, 0.0024386565, -0.0008274968, -0.001779949, -0.0005717351, 0.0038077543, 0.0019391245, -0.0005653198, 0.00019606657, 8.1783044e-05, -0.0011887338, -0.0003262697, 0.0012160474, 0.0018943492, 0.013220035, 0.0005824093, -0.0010112098, 0.002677349, -0.0011459319, 0.000212554, 0.00053765636, 0.0015161199, -0.009156994, -0.20249474, -0.0005827064, -0.0009002994, -1.0071439e-05, -0.2946357, 0.001132655, -0.00016130216, 7.9265796e-05, -0.00086725014, -0.0016493897, -9.560597e-05, 2.8602604e-05, 0.0018646909, -0.0039538452, -0.000597, 0.004127172, -0.0047483626, 0.0001433818, 0.000293285, -0.056877866, -0.00076248124, -0.027522711, 4.889682e-05, 0.0020355848, 0.0024457164, 0.019944241, -0.0025672263, 0.00036852786, 0.0013644228, 0.00085467484, 9.313853e-05, -0.0024111583, 0.0014407823, -0.00094894593, -0.0012190609, 3.1935633e-05, -0.00020099, 0.00120833, 0.0022017562, 0.0002563207, 0.00061397615, -0.0025226779, -0.000115817646, -9.888777e-05, -0.000464771, 0.00037350084, -0.00091710873, -0.0014663582, 0.0014040642, -0.0023764982, 0.0036103905, -0.0006109551, 0.00089477154, 0.0008481685, 0.0012414857, -0.0008279086, -0.002184761, -0.00060368644, 0.00026843091, 4.603919e-05, 0.0007021397, -0.00028567575, 0.00060614385, -0.0005358862, 0.0023784812, 0.0011960538, -0.0007392222, 0.0009978536, -0.0008718542, 0.0002557821, -0.002034299, -0.0009298981, -0.0010472011, -0.00091182825, -0.00037106758, 0.0019687633, 0.0017086026, -0.0006344608, -0.006245208, 0.0015689, 0.0015954152, 0.0016174194, 0.003813796, 0.004194623, -0.0018223645, -0.000626993, 0.0008720431, -0.0010557128, 0.001510462, -0.0017455686, -0.0019152535, 0.00315675, -0.00012485139, 0.00062106014, 9.531755e-05, 0.00095899677, 0.00044838223, -6.168109e-05, -0.0026636247, -0.0014777031, -0.0010160443, 0.00080427696, -0.0010413957, -5.0153583e-05, 0.00012494496, 0.0017990125, 0.001939823, -0.0014248448, -3.3771037e-05, 0.0012991976, -0.0010969546, -0.0014098992, 0.002174347, 0.00012526495, -0.0064425673, 0.00035333307, 0.0007065161, 0.0033570016, 0.0027924296, 0.0018524341, 0.0037212889, 0.0017723, -0.0011885114, 0.0021563824, 0.00038415566, 0.0024891668, 0.0016544246, 8.890929e-05, 0.0005589915, -0.0012838352, 0.0007848046, -0.0018161504, 0.00050786824, 0.00050066184, 0.0007192345, -0.0017681352, -0.0006442034, 0.0012933991, -0.0024868222, -0.00047750658, 0.0013333323, 0.0007151652, 0.00027572276, 0.001592981, 0.0011805443, 0.0019815534, 0.0006917459, -0.00020992733, 0.0019339517, 0.0021983779, -0.0009923187, 0.0005299571, 0.0011836225, -0.00027629026, -0.0009923425, 0.0006585964, 0.00046915983, 0.0012028813, -0.0017695439, 0.00062931795, -0.00014900748, 0.0013294796, 0.0013603778, -0.0005107109, -2.7254864e-06, 0.0032218758, -0.0011048233, -0.0032737376, -0.0007002554, 8.429088e-06, -0.0011446518, 0.00041669564, 0.00065252685, 0.0002479779, -0.00085745094, 0.0018102928, 0.0015561766, -0.0003966688, -0.0024989361, 0.0002973862, -0.0006665449, 0.00017122971, -0.0021634821, -0.004230259, -0.00060927594, 0.00013501791, -0.0012919216, -0.0011305147, 0.0009868132, 0.00012936472, 0.0011296761, -0.00090121356, -0.0018083892, -0.00038493046, 0.00010380533, 0.00056614634, -0.0012448041, -0.0010123581, 0.00124264, 0.0015366031, -0.0009735157, 0.001415174, -0.0021354025, 0.0012893863, -0.0010408213, -0.0011007697, 0.0020120332, 0.0011665772, -0.001357658, 0.00075593067, -0.00086274534, 0.00012125616, -0.002441615, 0.00015883232, -0.0008429914, -0.004751042, -0.0012936448, 0.0025725923, 0.0006765064, -0.0005618596, 0.0016074737, -0.0002513188, 0.0012590811, 0.00030299532, 0.00056258653, -0.00013911613, 0.00075931184, 0.00045985653, -0.0022445729, 0.0013337218, -0.0013998093, 0.0011297524, -0.00151421, -0.0007875847, 0.000108435575, 0.0010986691, 0.0025832737, 0.0013079651, 0.0008720881, 0.00052239955, -0.00016956683, 0.0011067281, 0.0017102661, -0.00059860735, 0.0004774173, 0.0010477095, -0.0015594274, -0.0015543312, -1.2233912e-05, -0.0013061331, -0.0012437596, -0.001336746, -0.0013523162, -1.0734009e-05, -0.0016240787, 0.0011500624, -0.0023888818, -0.0017321552, 0.0008900654, -0.002012042, -0.0032009478, 0.00062788586, 0.00075078115, -0.0012082005, 0.00037194253, 0.0003385173, 0.0027731743, -0.00018421048, -0.0023889556, 0.00081731816, 0.00012610597, -0.0012704094, -0.00059530867, -0.0014985049, -0.0008545938, -0.0025925727, -0.0008222313, 0.0014104135, -0.00017541011, -0.000949595, 0.0009960593, -0.0028136156, -0.0005450259, 0.000765802, -0.0012530375, 0.0018627164, 0.0017347615, 0.004059516, 0.00044514466, -0.00058361684, -0.0003967206, 0.0028000297, 0.003777177, 0.0009514737, -0.0018012377, -0.0003390618, -0.0003742976, 0.0018450856, 0.001414589, -0.002548567, 0.0013901595, -0.000611427, 0.0028460412, 0.0006391193, 0.0037483135, -0.0006696093, 0.0009031966, -0.0005264344, 0.001160541, 0.0014406004, -0.00092209515, -0.00020182575, 0.0011213636, -0.00019550242, -0.00071061275, 0.0005068239, 0.0021056067, -0.0010297281, 0.0039877016, -0.00054686156, -3.9451785e-05, 0.0018276343, 0.0012888026, 0.0007031325, 0.00024669198, -0.0009202772, -0.0020172754, 0.0013980394, 1.764798e-05, -0.00065595977, 0.00021757057, 0.0010378022, -0.0010908132, -0.00086591137, 0.0025273268, -0.0019246603, -0.0010283937, 0.0047520287, 0.0019247455, 0.0027449322, -0.00077311, 0.00018219696, -0.000707438, -0.0037343681, -0.0029704766, -0.001426196, -0.0013221871, 0.0019491654, 0.0011730352, -0.00082373753, -0.0012219411, 0.0005549729, 0.00023861346, -0.000547735, 0.00017499132, -0.0010080964, 0.00115957, 0.0008994179, -0.0018538914, 0.00086835277, -0.0013930169, -0.00022271113, -0.0013520389, 0.0024741879, 0.0011250527, -0.000767442, -0.0018436719, 0.00048523094, 0.0013248683, -0.0024174396, -0.00017225544, 0.000987762, 0.0011568159, 0.0004867459, 0.00013668739, -0.002158227, 0.00086105237, -0.0016498326, 0.0007641547, 0.0016580686, -0.0010791838, -0.0005974031, 2.03862e-05, -0.0007111144, -0.000460435, 8.521485e-06, -0.0005292975, -0.00023028074, -8.257909e-05, -0.0023685961, -0.0005071304, 0.0014095381, 0.0011692558, -0.00045560868, -0.0011837641, 0.001965951, 0.00086994556, 0.0016819834, 0.00046226068, 0.0017968455, -0.00046940282, -0.00092881604, 0.0007589678, -4.7733774e-06, -0.00080704596, 0.0023703254, -0.00089654507, -2.7520698e-05, -0.002196578, 0.00039800187, 9.033276e-05, -0.0040153386, 0.00050040433, 0.0015836548, -0.002410613, 0.00042377357, -0.00030656916, 0.0005933151, 0.0018154305, -0.0026853126, 0.0007187701, 0.001049442, -8.621451e-05, 0.0029125488, -0.0025068102, -0.0011892486, -0.001983811, -0.0011834761, -0.0045586266, -0.0010438885, 0.00058815663, 0.0002728738, -0.00013192958, 0.00027330732, -0.0028042118, -0.00017002143, 0.0013786773, 0.00093976245, 7.134961e-05, -0.0017830414, 0.0005855239, 5.6671794e-05, -0.00049053517, -0.0014253354, 0.0008083394, 0.0015109461, -0.0004793948, 0.00044085074, 0.0013805426, 0.0028796133, -0.002825418, -0.00026831147, -0.00027641133, -0.0013423056, 0.0026979682, -0.00032086554, -0.0005656684, 0.00040869255, -0.0013755946, -0.0014332482, 0.0019712728, 0.0030612596, -0.0023776474, 0.0024497346, 0.002090965, -0.00068991416, 0.0024789823, -0.00023402483, 0.00031294237, -0.0017400803, -0.00090365123, 0.0007108642, -0.002850261, 0.0021160673, -0.00025567668, -0.0003598322, 0.0017638664, -0.0005619595, 0.0017404475, 0.0015178368, 0.0008776844, -0.0005485056, -0.0032013324, -9.8181736e-05, -0.0011947092, -0.001009132, -0.00013924419, -0.0007229198, -0.001651658, -0.0010093113, 0.0009791119, -0.0018841856, 9.671756e-06, -0.0016102865, 0.0013539866, 4.0751765e-05, -0.00027251465, -0.001791005, 0.00055788545, -0.0016745892, 0.0005962049, -0.0009861527, -0.0016227143, -0.0016777932, 0.0006105078, -0.0007193849, 8.985668e-05, 0.00018863508, -0.00041418336, -0.00057771173, -0.0033033155, -0.0005831558, -0.00046438223, 0.003954945, -0.000768497, -0.0001696573, 0.0005633868, 0.0012130243, 0.00084134587, 0.0018246389, -0.0038209357, -0.0015710742, -0.0015582344, 0.0013308377, -0.00011464715, -0.00050766533, 0.000120690325, 0.00025623594, 0.0023762197, -0.0017004122, 0.00021967734, -0.00075947994, 0.0016210892, -0.00047301396, -0.001840088, -0.0010171796, -0.0001165641, 0.0017848853, -0.0015517053, -0.0020778135, 0.00017675856, -8.352149e-05, 2.9976945e-09, 0.0019426116, 0.0012953476, -0.0012371512, 0.0005981458, -0.0010348078, 0.0007251423, -7.970739e-05, 0.000636666, 0.0009974896, -0.001146114, 0.00028208373, 0.00033204793, -0.0023877863, 0.0005637984, -0.0030796318, -0.00093878916, 0.0015416511, -0.00048274337, -0.001530489, -0.0010639996, 6.1700994e-06, -0.0018087811, -0.00018015737, -0.00037129864, 0.002304656, -0.0014131293, -0.0007447795, -0.0019204711, 0.00046079926, 0.0031181076, -0.00017114112, -0.0010411288, 0.0005475811, -0.0010622283, -0.0025274549, 0.0003181311, 2.2201086e-05, -7.5140444e-05, -0.0009797045, 0.00090443634, -5.9839338e-05, 0.0008508109, 0.0008921113, 0.00175175, -0.0010812823, -4.2582164e-05, 0.0017867946, -0.0011396217, 0.0005247867, 0.0010784033, 0.0009801458, -0.0015392264, -0.00052405684, -0.0010707604, 0.0013542607, 0.0017739506, -0.0005179086, -0.002000943, 0.0014518155, -0.0006059058, -0.0004853101, 0.0014801496, 0.00039979245, -0.00056775473, 0.0012045404, -0.0019429255, -0.00016946957, -0.0009154825, -0.0002579195, -0.0013937796, -0.00067654153, 0.00235831, 0.0012905698, 0.0016674192, 0.002045475, 0.0004957523, 0.0024185777, 0.0013113781, 0.0014784377, -0.00038872834, 0.0010291579, 0.0021630288, -0.0014478571, 0.000663151, 0.0016387269, -0.00025103148, -0.00080001826, -0.00050809875, -0.000984216, -0.0024750698, -0.002441237, -0.0014992211, -0.00026170723, 0.0013260876, 0.0018849765, -0.001129391, 0.0033320468, -0.0008892456, 0.00092404254, 0.00011841004, 0.0006729241, -0.00068052945, -0.00052441296, 0.0005027754, -0.0013161707, -0.00053509953, -0.0024549635, 0.0008006755, -0.0024444936, -0.00087083684, 0.0006452956, -0.0006729057, 0.0017637219, -5.461421e-05, 0.00064766605, 0.00046443002, -0.0021439968, 0.0024948753, -0.0021120764, -0.0011051632, -0.0008501692, 0.00060525234, 0.00078892295, 0.0012793394, -0.0002984102, -0.0018864092, 0.0013510624, 0.00049857085, 0.0027646702, 0.002031891, 0.0012507142, 3.5848178e-05, 0.00071762747, -0.0012698076, 0.00015034733, -0.0011718381, -0.00047235726, 0.0012533262, -0.0009346906, 0.0006934672, 0.0016023562, -4.7414316e-05, -0.002345728, -0.000952589, 0.00047824596, -0.0014527871, -0.00039118843, -0.00048479234, 0.00068741466, -0.0011352606, 0.00059373054, 0.0015228789, -0.0009329106, 3.559835e-07, 0.0010280551, -0.00062119646, -0.003304821, 0.0013608901, -0.002611423, 0.0012900396, 0.00050945964, 0.00078680064, -0.0009019446, 0.000531858, 0.0031506964, 0.0010814257, 0.000983342, -0.00063408224, 0.00014133222, 0.000802459, -0.00023506887, 0.00017935704, 0.0033082399, 0.0011270188, -6.339955e-05, 1.3392186e-05, 0.0018934082, 0.000826774, 0.0018179995, -0.0012730751, 0.0013388596, 0.0009713496, 5.7475612e-05, -0.00016773195, 0.0016744798, -0.0062629487, -0.0015850525, -0.0009535458, 0.0025833352, 0.00034330273, -0.00060767215, -0.0017952207, 0.00046218792, -0.0017046711, 0.00078643265, 0.0010441837, -0.00010921905, -2.5243964e-05, 0.00082767894, 0.0013992735, -0.000514788, -0.0045860745, -0.0016790963, 0.001289976, -0.0020149027, 0.00061867665, 0.0005639079, -0.0016940895, 0.002441588, -0.0021598022, 0.0005418862, -0.0025978042, 0.0007889688, -0.0010342997, 0.00015082018, 0.00055302144, -0.0009769335, -0.0015512819, 0.00056428136, -0.000651016, 0.001948991, 0.001647973, -0.0024342288, 0.0009125843, -0.0007444716, -0.0018076465, -0.001223946, 0.0017359395, -0.00090247404, -0.0019560445, 6.1338826e-05, -0.0017839575, 0.0012949582, 0.0013006545, -0.0011108944, 0.0013198376, -0.001300356, 0.0031077513, 0.0039428584, 0.0016385834, -0.00066568627, 0.0016219472, 0.002203015, 0.0006169934, -0.0012313153, 0.001308652, -0.0012443401, 0.0011920802, -0.0012830417, -0.0013857444, 0.00061851274, -0.00047665148, -0.002442442, -0.00045423367, -0.0008919532, -0.0019437027, 1.1681084e-05, 0.0020497274, -0.002494506, 0.00065829133, -0.00029060704, 0.00063890975, 0.0024920637, -0.0004633452, -0.0013123476, 0.0033351714, 0.0004812626, -0.00021682974, 0.0017554172, -0.0018152591, -0.0021515025, -0.0009154563, -0.00046993128, 0.0025980766, -0.0012452411, -0.0011310556, 0.000119274075, 0.0038908024, -0.00021980802, -0.0012443603, 0.0009673186, 0.00022161857, -0.0005693716, -0.0013278718, 0.000894701, -0.00094847614, 0.38280448, -0.0012788293, -0.0019895185, -0.00042028935, -0.000729364, 0.00058915385, 0.0002444658, 0.0014497943, -0.0010083175, 0.0024129585, 0.0006543953, 0.001390408, -1.4151376, 0.02617554, -1.157017e-05, 0.0020449832, 0.0002432439, 0.43819237, -0.0009458594, 0.0013661537, -0.0005746906, -0.0013852015, 0.00072913384, 0.0018636127, 0.0032813, -0.0005565031, -0.0014362172, -0.0016670299, -0.0037250496, 0.00087583874, -0.00043563935, -0.00041927455, -0.0018235446, 0.003354675, 0.003300649, 0.00064579915, -0.0012354287, 0.0024004993, 0.0012803036, 0.0008984403, -0.0011982156, 0.0026382576, -1.181391, 0.0008040045, -0.00076862477, 0.0027967189, -0.0014369991, 3.6364305e-05, -0.0032952023, -0.0016258806, -0.0016220594, 9.20383e-05, -0.00061741046, -0.001732568, 0.00056561024, -0.39630195, 0.0004981366, -0.00062721, -0.00094685634, -0.0012469403, -0.0006351601, 0.0012846389, -0.0016397296, -0.0010747982, -0.0021568467, -0.0069956626, 0.0017220494, 0.0026324806, 0.0018718742, 0.025956951, -0.007955336, 0.0008774046, -0.0005862157, -0.00012882618, 0.0012754507, 7.1441056e-05, 0.0009201576, -0.00026864017, -0.00031376537, 0.003348609, -0.032343842, 0.0002810175, 0.0007196895, -0.0017974615, 0.00017634017, -0.0013949581, 0.001173147, -0.004756342, -0.0016827032, -0.0002018193, -0.0009806928, -0.0021997213, -0.20626527, -0.00109335, 0.00041106317, 0.0006470442, -0.00081336306, -0.6534047, 7.708734e-05, -2.9709976e-05, 0.0006041279, -0.0044209105, -0.0008782727, 0.0024114763, -0.00018129015, 0.00027678855, -0.00070356834, 0.00012588713, -6.088242e-05, 0.0013054106, 0.0018685505, 0.0008757379, 0.0003692056, -0.00037786004, -0.0024645533, -0.00019834132, -0.0008701195, -0.0009922236, 0.00097400777, 0.0012007565, 0.00025896297, 0.00073442515, -0.0010537463, 0.002347736, 0.0010494589, 0.00028072717, -0.00064854336, -0.0017306596, -0.00084732956, -0.0013009084, -0.17494456, 0.0044730552, -0.0008992404, -0.00045651023, -0.0002911128, -0.66259575, 0.0013181998, 0.0004070899, -0.0011733682, 0.0019783909, 0.00054082234, 0.00044581073, 3.1937961e-06, -0.00059196784, -0.006208608, 0.015669586, 0.0009986276, -0.00081986806, -0.10313278, -0.0064890566, -0.09102114, -0.0023338883, -0.023650533, 0.0017644286, 0.0024608166, 0.0007868516, -0.0031863, -0.0015748728, 0.0021400813, 0.00089487305, 0.001130949, 0.0025224946, 0.003054558, 0.0021093956, -0.000118426746, -0.000312732, 0.001314406, 0.00064535806, -0.003199685, -0.0003722154, 0.0006432366, 9.527909e-05, 0.0005497829, 0.0023447776, 0.0020149448, 4.912069e-05, 9.1734924e-05, 0.00047047675, -5.6460558e-05, -0.00021339545, 0.0022284589, -0.0024695126, -1.4931371e-05, 0.0017164901, 0.00016723364, 0.00134337, 0.0007501048, -0.0009794269, 0.000611297, 0.0005512829, 0.0008529643, 0.0014456712, -0.0010417916, 0.0001895339, 0.0011073535, 0.002147918, -0.00075567886, -0.0010307789, -0.0024933203, -0.0007855407, -0.0012014959, 0.0017491262, -0.0004932893, -1.2937555e-05, -0.0012681258, 0.0012504496, 0.00087130436, 0.0008956147, -0.0003659131, -0.001223499, -0.00075615384, 0.00065631274, 0.00048019818, -0.0006143726, -0.00066975225, -0.0046434463, 8.159598e-05, -0.0002568406, -0.0002736721, -0.0015103471, 0.00045393256, -0.0014251074, 0.001585677, 7.457912e-05, -0.0023239139, -0.0011699836, -0.00087081175, 0.00011114107, -0.00033856498, -0.00012691825, 6.168266e-06, 0.0016016704, -0.0010898187, 0.0006614539, 0.0026120488, 0.00010190981, 0.00028399948, -0.002512619, 0.00089111686, -0.0014073171, -0.0013103756, 0.0009771422, -0.0011654128, 0.0012011991, 0.0008883367, -0.00060969545, -0.00077551417, -0.00064252474, 0.00047448557, 0.00097396015, -0.00049986277, 0.00041653862, 0.0019652287, 0.00088826614, 0.0007808067, 6.793183e-05, 0.0016563288, 0.0009855045, 0.0008374133, -0.0021644845, -0.002173059, 0.0012583258, 0.00063038006, -0.0005666694, -8.774747e-05, -0.00072935224, -0.0013650575, -0.0012233539, 0.001861319, 0.0013255309, -0.0014909119, 0.000648, -0.0033344838, 0.0020119715, 0.00030303, 0.0006379028, 0.0009790972, 0.0012255618, 0.00236043, -0.0009108105, -0.0009462085, -0.0013202239, -0.0017972357, 0.0001993892, -0.00036787626, 0.00070027367, 0.00065386755, 0.0012747981, 0.000103307364, 0.00059289037, -0.0012572757, 0.0016735932, -0.000682845, -0.0016833688, 0.0006414525, 0.00023559737, 0.001994092, 0.0013003051, 0.0008658929, -0.001142584, 0.0021342344, -0.00015313394, 0.0015515664, 0.00068898895, -0.00054187, 0.0009770774, 0.0017896225, 0.00058875553, -0.0003786221, -0.00040595623, -0.0013008177, -3.1083124e-05, 0.0011925106, -0.0031229141, 6.962611e-05, -0.0002916108, -0.00087511115, 0.0004909131, -0.0006849337, -0.001302802, -0.0013551901, -0.0012114584, 0.0012482158, 0.0010833483, -9.206447e-05, 0.002208976, 0.0003106799, 0.0004016038, -0.0015747839, -0.00015362096, -0.0020040085, 0.00062439335, 0.00084895117, 0.00029852823, 0.0012722765, 0.0009850566, 0.0019655502, 0.0011595964, 0.00017672457, -0.0018079189, -0.00034478563, 0.0009857112, -0.00074280007, 0.00073505717, 0.00089558633, 8.639986e-05, -0.00030608487, 0.0020139634, 0.0030331665, -0.0015988607, -0.0012451038, -0.00097280956, -0.0024113539, -0.0030996636, -0.0024176151, 0.00052360765, -0.0014362, -7.849751e-05, 2.14373e-06, 0.000658211, -0.00070455554, 0.0027911677, 0.0014172486, 0.00028354247, 0.0017588714, -0.002415175, 0.000462514, 0.0017655997, -0.00061427726, -0.0013755003, 0.0015644336, -0.00089734764, -0.0007593576, -0.0028570436, 0.0014779011, -0.0006692329, 0.0003805459, -0.00219574, 0.0007404404, 0.002527099, 0.0024673967, -0.0017790941, -3.2206357e-05, 0.0004638643, 0.0006227065, 0.0021300109, 0.0006673159, -0.00043380237, -0.00050322316, -2.6137335e-05, 0.0031024055, 0.0011485142, -0.0022737738, 0.0015742107, 0.0016663548, 0.00043026416, 3.7948048e-06, -0.0010683519, 0.0008550058, 0.0009878059, -0.0023305058, -0.0041080266, -0.00085863995, 0.0008675214, 0.0025635585, -0.0008179258, -0.0018377536, 0.0010022579, -0.0015505035, 0.0014402797, -0.002466923, -0.00041477676, -0.0013846881, -0.001161716, 0.0004479877, 0.0012926741, 0.0025570337, 0.00044386357, 0.0006519715, 0.000333822, -0.00062617817, -0.0004974437, 0.0014996098, -0.00032872695, -0.0005147498, -0.00010850205, 0.00059563736, 0.00014599727, 0.0011951604, 0.0012611107, 0.00060679216, -0.0011226274, 0.003348812, 0.0005280465, -0.0015936276, 0.0010739397, -0.0012485131, -0.0027614632, -0.0011718152, -0.0024603829, -0.0009981648, -0.0007198483, 0.00025441742, -0.00049523474, -0.0001234035, -0.0012551177, -0.0019147706, 0.0018844933, -0.0013629454, -0.000876951, 0.00015550538, -0.001334054, 0.0025988722, -0.0008736706, -0.000267267, -2.5128815e-05, -0.0009787821, 0.0005592025, 0.0015435081, 0.0037290463, -0.00028643664, 0.0010628297, 0.00051324046, -0.00087323994, -0.00221549, 0.0016637328, -0.00014960428, 0.0002632009, 0.0018655942, 0.0031545996, -0.0009813596, 0.00070977747, -0.0030193313, -0.0012461476, -4.6447356e-05, -0.00082671863, 0.0021706515, 0.0042586364, 0.00068025565, -0.0017370565, -0.00054127356, 0.000691196, -0.0009075083, -0.00046098896, 0.001604846, 0.0021771963, 0.00059014384, 0.00075059384, 0.0013306017, 0.0013767931, -0.00065689615, 0.003882002, -0.0032946514, 0.0006531745, 0.0018053661, 0.0013013565, 0.00077973335, -0.0016363335, 0.002712918, -5.227048e-05, 0.0016960797, -0.00018237461, 0.0041578496, -0.0004251169, -0.00022230978, -0.0008035493, -0.0006234981, 0.0019424256, 0.0003292528, 0.0005639256, -0.0024738363, -0.00013554137, -0.00017372615, 0.00043528836, -0.0008733139, 0.0012328925, 0.00012661662, -0.00066648604, -0.0014503282, -8.7747e-05, 0.001415397, -0.0002511227, 0.0052426835, -0.0020091238, -0.0013287498, 0.00018449794, 0.0013029595, -0.0023120865, -0.0024946807, -0.0013213033, -3.6260695e-05, -0.0007549353, -0.00218972, 6.546383e-05, -9.116414e-05, -0.00092457247, 0.0014482678, -0.001987891, 0.0014458837, -0.00051916565, 0.0004403091, 0.00043633487, 0.0005033638, -0.00044845417, -0.00038596467, -0.00023142551, -0.0006310046, -0.00014446973, 0.0020604462, 0.0013045325, -0.00025870698, 0.0038912212, -0.0009505164, -0.00071191776, -0.00021453417, 0.00088828144, -0.0012825186, -0.00026202938, 0.0012950426, -0.0024997904, 0.00025428977, -0.00067851075, -0.00313278, 0.0014364212, -0.00015859713, 0.000527194, 0.00082116947, -0.0016832501, -0.000115688425, -0.0042248196, -0.0006542839, -0.00075144833, -0.00044217356, -0.00052105985, -0.0047394545, 0.0007053828, -0.00023222808, 0.0009027977, -0.0002955806, 8.185941e-05, -0.0011533975, 0.0006950698, -0.0006500149, -0.00087649445, 0.001625543, -0.0011882036, -0.0006753164, 0.00030208356, -0.000245134, 0.002851247, -0.0025010267, 0.0006385463, 0.0013438566, 0.0006418611, 0.0004935919, -0.002469223, -0.0021568246, -0.0019887702, -0.00064571615, -0.0006383408, 0.0008756268, 0.0029730448, 0.00069632824, -0.0010194163, 0.0019305431, -0.0013693164, -0.001416558, 0.00034910656, -0.0004911937, 0.00011813216, 0.001800317, 0.001074753, 0.0007830984, 0.00049695047, -0.0031080153, -0.0006176563, -0.000101641985, 0.00079565716, 0.0012795008, 0.0017322551, 0.0020134859, 0.0008053608, 0.00025741238, -1.0157528e-05, -0.00024307519, -0.002188394, -0.0007884883, 0.00084443245, 0.0018940503, -0.0015978203, -0.00046343298, -0.00013082055, -0.0012541241, -0.000595493, 0.0013689081, 0.0010070673, 0.002254653, -0.001400678, -0.0003365518, 0.0011980386, -0.0014113573, 0.0026211878, 0.0020510266, -0.00015955209, 0.0020349289, -0.0007884135, 0.0002601855, 0.00010827181, -0.0041980976, -0.00044810033, -0.00067440484, 0.0006552675, -0.00010116387, -0.0031206077, 0.00040145905, 0.0037823126, -0.00080713263, 0.0023270862, 0.0019565702, 0.0018686804, 0.0032262662, -0.0038727822, -0.0009152963, -0.0013919971, 0.0030808323, 0.0013662935, -0.0012947015, 0.00060337636, 0.00023921137, -0.0007749314, 0.0017673888, 0.0004691551, 0.001777776, 0.0011534247, -0.0016398928, 0.00019147602, -0.0004136189, -0.00036987057, 0.0002773439, -0.0006156608, 0.00038676732, 0.0010848048, 0.00021511095, 0.0005133421, 0.000530249, -0.00036498782, 0.00028916588, -0.0012782563, -0.0008955332, 0.0005121953, 0.0011473728, 0.0011724214, -0.0004327806, 0.00080130744, -3.8883787e-05, -0.00010597485, 0.0019764015, -0.002484898, 0.000551801, 3.5860052e-05, -2.8932584e-05, -0.0018018654, -0.00034526305, -0.00046570122, -0.0014104999, -0.0032728473, 0.0007813723, -0.0030772267, 0.0022360794, -0.0015375975, -0.00062145194, -0.0002576277, 0.0018532792, 0.0005570071, -0.0019467556, 0.00032797141, 0.00021099357, 0.0012449643, -0.0004636097, -0.0017842829, 0.00086422445, 7.792542e-05, 0.0018048155, 0.00065536675, 0.00040868693, -0.0016483872, -0.0011079188, -0.0031192, -0.0003932363, -0.0012743216, 0.00048212416, -0.00039283762, -2.6370864e-05, 0.0019439029, 0.0012235823, -0.00090568536, 0.0004724682, -0.0012874394, 0.0012100122, 0.000676412, 0.00011057133, 0.0038224813, -0.00023028339, 9.739364e-05, -0.0012987378, -0.0010025719, 0.0006538379, -0.00030274107, 0.0010140548, -0.00066826114, 0.00088999904, 0.00030423352, 0.0011867548, 0.0006216145, -0.0010140005, -0.0011524911, 0.00076270394, 0.0007583633, -8.247339e-05, 0.0014959571, 0.00020682835, -0.0011522773, 0.0007461532, -0.0023938082, 0.0031096623, 0.0008016565, 0.00022481452, 0.0024184985, 0.001071495, 0.00022397964, -0.0015744058, -0.0008795496, -0.00022829836, -0.0005194989, -0.0008759256, -0.0012773803, -0.000561403, 0.00022344454, -0.0007034025, 0.0007836765, -0.0016259276, 0.0019192109, 0.001200137, 0.003101272, -0.0011455545, 0.0006286427, -0.0009806856, 0.0024121678, -0.00029608305, 0.00060580747, 0.0007862903, 0.00033137258, 0.0011331689, -0.0006715457, -0.00086436106, 0.002470561, -0.0006850678, -0.003308916, -0.0020086027, 0.003430534, -0.00019010855, 0.003191485, -0.0013946989, -0.0005873125, 0.00066544424, 7.7189994e-05, 0.00022913737, 0.00016203837, -0.00014734778, -0.0014164327, 0.0008684964, 0.0019499788, -6.215065e-05, -0.00090867555, -0.0013068039, 0.000109576096, 5.8208032e-05, 0.00065266335, 0.00021980313, -0.00088458695, 0.00019095828, -0.0013202133, -0.00038204272, 0.0006778181, -0.0011076976, -0.0020769169, 0.0007347367, 7.975538e-05, 0.0005710764, 0.0017897879, -0.0019243729, -6.647606e-06, -0.0015731994, 0.0060374346, 0.0012445557, 0.0018260415, 0.002149439, 0.00060283433, -0.00066616776, 0.00034738262, 0.0024700663, -0.0009856675, 0.001794323, -0.0013475823, -0.00017661299, 0.0008213497, 0.00046517598, -0.0008687129, 0.0016365764, -0.0013212536, -0.000842347, -0.0005974803, 0.0012311179, 0.00019633636, 0.0018976111, -0.0016992063, 0.0028536362, 0.00047224844, 0.00094867405, 0.0008407516, 0.0007635426, -0.0021055874, -0.00071445334, 0.001665971, -7.0549955e-05, -0.00039298082, -0.0061325785, -0.0006971128, -0.002426892, -0.0007376916, 0.00055415166, -0.0027590278, -0.0006194029, 0.000676792, 0.00020473148, 0.00027984648, 0.0016302752, -0.0018122202, 0.0014316933, -0.0019396553, 0.00050028076, 8.546177e-05, -0.0016371767, -0.0005730901, 0.0013967076, -0.0011281804, -0.0011921433, 0.00087574974, -0.0005187305, -0.001610517, 0.0016393817, 0.0007013144, 0.0010105253, 5.161739e-06, -0.00020823424, -0.0005291742, -0.0011990843, 0.002814963, -0.0005984038, -0.0013410036, 0.00037479925, 0.001053208, 0.0012412537, 4.7118927e-05, -0.00011454971, 0.0013024162, 0.00024476042, -0.0018032768, -0.0016408428, 0.001992336, -0.00089908665, -0.0007292235, -0.00022851536, 0.0003509546, 0.0006023276, -0.0012462039, 0.00097083236, -0.0020626392, 0.00041857408, -0.00030739343, -8.281704e-05, 0.0012163229, -0.0026415226, -0.004717928, -0.0021852634, 0.0005853088, 0.0024160505, 0.0007396905, -0.00058018364, 0.0023476118, 0.0014276607, -3.27194e-06, -0.0006918598, -0.00069588213, 0.0025252632, 0.00060412637, 0.0008653898, -0.00016983217, 0.00070019497, 0.00076268305, -0.0021072878, -0.0007500071, -0.0017551266, -0.0013176634, -0.00036731898, 0.00075735233, -3.6650337e-05, -0.00013812433, 0.0011181245, -0.0021429341, 0.00048462464, 0.0007491112, -0.0011106017, -0.00021806295, -0.00154911, -3.907585e-05, -0.0011859951, 0.0021284667, 0.0011365947, 0.00093861995, -0.001888171, -0.00065200403, -0.00093628117, -0.00048742368, -0.0027633638, 0.00073369336, 0.00060012005, 0.00057907344, 0.00032970525, -0.00037527364, 0.00067587907, -3.3763616e-05, -0.00041343336, 0.0025316584, -0.0017539549, -0.0009323164, 0.0031142319, 8.377584e-05, 0.0008919653, 6.1344326e-05, 0.0023883064, -6.533315e-05, -0.0013000008, -0.001131515, -0.0009000689, 0.0026689526, -0.0011365124, -0.0006741529, -0.0011669472, -0.0012743548, 0.0019457134, -0.00074022275, -0.000748654, -2.5944537e-05, -0.00087158027, -0.0008881969, 0.0007380551, 2.5324407e-05, -0.0012862128, -0.0008821743, -0.0018385986, 0.0027051212, -0.0005626036, 0.00027378998, -0.0018898629, 0.0008499361, 0.0018105415, -0.001242975, -0.00087142474, -0.001288656, -0.0009145438, -0.00057092955, 3.699203e-05, 0.0014174562, 0.0010619794, -0.0007863161, -0.00023298257, -0.0011300222, 0.00060132676, -0.000111717665, 0.0021671169, -0.0012822174, -0.0018575455, 7.7548495e-05, -0.0008968807, 0.00047154402, 0.00076684845, -0.0013095045, -0.0019829727, 0.0024139904, -0.0025539487, 0.002575035, -0.0010987325, 0.0007653894, -0.0016905627, -0.0012459401, -0.000740775, 0.0004978293, 0.00086581, -0.0012922393, 0.0017362185, 0.0029932198, 0.0010856753, -0.0005673026, -0.003143489, -0.0009606775, 0.0018380234, -0.0006582813, -0.0015067423, -0.00031297904, 0.00012447248, 0.0006933024, -0.0038461725, -0.00039063906, 0.0014620157, -0.002134068, 3.1008007e-05, -0.0017082511, 0.0021553875, -0.0021670868, 0.0016163781, -0.0037367465, -0.0016156128, -0.0013302835, -0.0017755264, 0.0027023607, 0.0001340154, -0.00053928245, -0.00086155534, -0.0012512207, 0.0013746913, 0.00072439335, 0.0014992196, 8.876168e-05, 0.00027000945, -0.0015554767, -0.0008653424, 0.001667358, -0.0032876208, -0.00014770782, 0.0013073068, -0.0018772774, 0.0009018559, 0.00061249075, -0.0001662951, -0.0007350887, 0.0013980095, -3.0254203e-05, -0.0006468162, -0.0001240928, -0.003264867, -0.0009378919, 0.00035582698, -0.00064451207, 0.0044110166, -0.0016474124, 0.001095957, 0.0006644087, -0.0012867274, 0.0009826068, 0.0010567596, -0.0003278664, -0.0016488475, -0.0012231478, 0.0003510281, -0.0020705794, 0.00013741269, 0.0009879911, 0.0012193492, -0.0006215687, 0.000106729975, -0.00043680065, 0.0006246718, -0.0023764912, -0.0027106558, -0.00057395396, 0.0005027461, -0.0009796729, -0.0014253197, 0.00072847324, -0.029597625, 0.0010746707, -0.087112844, 0.0016292003, 0.0004807472, 0.0018913033, 0.00029522146, 0.0008742029, 4.0508778e-05, 0.0012631961, 0.0007289087, -0.002732117, 0.07198445, -0.3165241, -5.7731057e-05, 0.0010800177, 0.00027910783, 0.15718801, -0.0017229589, 0.0006704593, 0.00058006984, 0.00010532536, 0.0032982263, 0.0007429832, -0.0012904298, -0.0004909167, -0.00056580757, 0.002564644, -0.001650633, 0.001326737, 0.00055770617, 0.004737279, -0.0007646732, -0.0024528308, 0.0013090773, 0.00096819026, 0.00073509634, 0.00037126287, 0.0010052569, -0.0002418753, 0.0011285199, -7.037993e-05, 0.0025651907, -0.00092962314, -0.0010022136, -0.00032416554, 0.0031120805, -7.24406e-05, -0.0012657118, 0.0006638425, -0.00012617232, 0.2257594, 0.00086883036, -0.0011297393, -7.7812525e-05, -0.17725961, 0.003328046, -0.0008693351, -0.00017071125, -0.00054487726, -0.001804055, 0.00074969046, 0.0005322882, -0.00015846436, -7.3646836e-05, 0.0011919165, -0.00038346607, -0.0009970389, -0.00016272992, -0.041854836, 0.016042046, -0.001249858, 0.0023828, 0.0008005507, 0.0017433459, 0.00015003257, 0.001090436, -0.00057964347, -0.0012527017, 0.0019116931, -0.0007322047, -0.003712656, -0.0015198136, 0.000600216, -0.0006431467, -0.0005583863, 0.00085439597, -0.00051351864, -0.00080906146, 0.0007041424, -0.00019428512, -0.0025849235, -0.0017469479, 0.0011581187, 5.2029733e-05, -0.0015211264, -0.00026973328, -0.0006934435, 0.002012472, -0.00080139865, -0.0006233225, -0.00057362695, -0.0008471135, 0.0011302953, -0.0010650698, -0.0015391672, -0.0007865317, -8.077966e-05, 1.8510036e-08, 0.0023843055, -0.00082261866, -0.00042201573, 0.0027770726, 0.0018023852, -0.002470064, 0.0019136741, -0.00049844, -0.002343059, -0.0002604837, -0.0009853708, 0.0022488441, 1.8154038e-05, 0.0011073074, -0.0004479455, 0.00026450545, -0.0025547533, 0.0023049014, 0.00076246087, 0.00047909177, 0.0005127769, -0.0008762178, -0.0004299307, -0.0019631798, 0.0017345184, 0.0022476157, 0.0001796761, 0.0018904441, 0.0009091377, -0.0014190709, -0.0009063482, -0.0003259819, 0.0018792587, 0.00053344073, 0.0005053531, 0.0025728361, 0.00080573786, -0.00059197156, -0.00015955919, -0.0010387624, 0.0016351069, -0.0004478848, 0.00026622036, -0.0006075286, 8.2738814e-05, -0.002476767, -0.00067982305, -0.001654649, -0.000863878, 0.0007220224, 0.00090852793, 0.0008065247, -0.0019677042, -1.7629995e-05, -0.00056012673, 0.0013604631, 0.00089942425, -0.00021540356, 0.0018064395, 0.00034610683, 0.006210437, -0.0015561938, 0.0026588824, -0.0005229574, -0.00014164945, 0.0018098272, -0.00032923586, 4.661153e-06, -0.0036830872, 0.00027522055, -0.0008951008, 0.0009317938, 4.3670123e-05, -0.0009011244, 0.00328856, -0.00094986166, 0.003179355, -0.001623601, -0.0021485703, 0.00035449455, -0.00077114045, -0.00017090148, -0.0013973339, -0.0003306191, 0.0007545323, -0.0024755318, -0.0012435112, -0.0027267342, -0.002549679, -0.00021690183, 0.0011010962, 0.0005909145, 0.0026828065, 0.0005190952, -0.00024809455, -0.0041595474, -0.0016113317, 0.0013964828, 0.002398084, -0.0012128865, 0.0005257906, 0.00090592715, 0.0007165923, 0.00087544066, 0.0002841739, -0.0008573646, 0.0016515118, 0.00022902318, -0.00036488974, 0.0009838933, -0.0037665078, -0.0020910755, 0.0006259569, 0.00047813065, -0.001358333, 0.0001351528, -0.0037013923, -0.0033418396, 0.0008837729, 0.0019395708, 0.0007769177, 0.0004160197, 0.0029136844, 0.0014006109, 0.001295688, 0.00021829875, -0.0016139442, 3.87372e-06, 8.211064e-05, -0.0014664414, -0.0012622946, -0.009609761, 0.0026601162, 0.044694368, -0.00019657216, 0.00080216984, 0.0006235299, -0.00036136154, 0.0012057279, 0.0015242456, -0.0011209785, 0.003290054, 0.00087258336, -0.3245943, -0.0024865947, -0.0006657198, -0.00028579618, 0.000118767435, -0.4462769, 0.002006754, 0.0013241149, 0.0014074164, -2.6082926e-05, -0.001517684, 0.0013057376, -0.0010959404, -0.00042046874, 0.00037536997, 0.0006508384, -0.0012452442, -0.00046250212, -0.002087714, 0.00047508476, 0.0015050641, 0.00034357613, -0.0009210051, 0.001272928, -0.00035264713, -0.0008670128, 0.0032932018, -3.6054756e-05, -0.00096467225, -0.00084612315, -0.08810564, -9.58046e-05, 0.00062789454, 0.00044988398, 0.0018132176, 0.002402724, -0.0025234064, -0.0009809354, -0.0016120763, -0.1588057, -0.0033159766, -0.0009148787, 0.00045041414, 0.02455579, 0.0036620912, 0.00038210073, -0.00014899176, -0.0006179449, -0.0031200396, -0.002469752, 0.0021556271, -0.0028336283, 0.00022356119, -0.0054521603, -0.002606028, -0.0002795238, 0.0005998305, 0.21659124, -0.44300544, 0.0016880179, -0.011565546, -0.00030397996, 0.0011237037, -0.00014492703, -0.011066035, 0.0016683495, -0.0013195408, -0.003447474, -0.00022913818, 0.0011537229, -0.0006778547, 0.00022333028, 0.0016440866, -0.00022976508, 0.0009009544, 0.000860281, -0.003971585, 0.0023838072, -0.0021540471, 0.00034895242, 4.9538445e-05, -0.0012932606, -0.0014432111, -0.0016085493, 6.5123866e-05, -0.00011008611, -0.0019375483, 0.0005585551, 0.0031158072, -0.0011612186, 0.00041084725, 0.0012861472, -0.000688848, 0.00045879057, 0.0014369385, -0.0017669528, 0.0010086889, 0.0024415853, -0.0019975244, 0.0011322873, -0.00094087387, -0.00059182255, -0.000469318, 0.0008803731, -0.00012291159, -0.0008362378, 0.00088272797, 0.003113301, -0.0026882978, -0.00018710317, 0.001085069, 0.0013014568, -0.0024483849, -0.0008669699, -0.0024387112, -0.0011464708, 0.0012454835, -0.0011483886, -0.0012899737, -0.0007575402, 0.0023157948, 0.0014508632, -0.000599086, 3.021909e-05, 0.00051119504, 0.00012962177, -0.0007515339, -0.0010710962, 0.001069111, 0.0007411713, 0.00042872352, -0.0010340767, 0.0005425891, 0.0005640703, 0.0036762324, 0.00018295395, 0.0012666236, 0.00084113894, -0.0024588741, -0.0006298118, -0.00013611169, 0.0011632899, 0.0037631067, 0.0036338605, -0.0008932468, -0.0013323077, 7.6383236e-05, 0.001504912, -0.9273224, 0.0016333697, 0.12005349, -0.000641134, 0.00028443895, 0.0005465969, -0.0009661453, 0.0024682581, 0.001554456, 0.0009735289, -0.0004359921, 0.0025582616, -0.2701566, -1.3455234, 0.0009549511, -0.0008604207, 0.0010702347, 0.33410972, -0.0008208919, 0.0020080197, 0.00062285084, 0.0008191756, -0.00049438677, -0.0021533743, 0.0007327687, 0.00431408, 0.00049112015, 5.7284662e-05, 0.00041405612, 0.0019376351, -0.0003666702, -7.6631724e-05, 0.00013049936, -0.0020242156, -0.00044919818, 0.0047561084, 0.00060034805, -0.0012853928, -0.00088976574, 0.00024400163, 0.00039707753, -0.00029275427, -0.0013299871, -0.0019987896, -0.0028274094, -0.0011601804, -0.0012681297, 0.00076332025, 0.001156706, -0.0021981776, -0.11616669, -0.0014662945, -3.4922996e-05, -0.00067457807, -0.0006570017, -0.1641773, -0.00013179705, 0.0007514743, -0.0021721192, 0.00019198615, 0.0006422217, 0.0031212592, 0.0008894624, 0.0008987374, 4.3042353e-05, -0.3519029, 0.0007489143, -0.0008727905, 0.0013202259, -0.26287085, -0.072610736, -0.0010684478, -0.435147, -0.00215075, -0.0014438173, -0.0012679286, -0.00097570923, 1.6347876e-05, -0.0007885565, -0.0019512048, -0.00048370368, -0.0023907365, -0.0004643909, 0.0003732146, -0.0001644711, 5.7417783e-06, 0.0007993098, 0.0006517923, -0.0012825215, -0.00022358893, 0.00010025353, 0.0012998931, -0.001849969, 0.00013656792, -0.0013160624, -0.0010724592, 0.0017378435, -0.0005388721, 0.0005040029, -0.0012050527, -0.002352031, -0.0014194105, -0.0013921317, 0.0014264694, 0.00075843005, -0.0007172242, -0.0013980988, 0.0004325069, 0.0009134227, 0.004243547, -0.0010972244, -0.0009967552, -0.00013878752, 0.0037975595, -0.0047879047, 0.0014865141, -7.651595e-05, -0.00089342287, -0.00021604507, -0.00018511183, -0.0020316648, 0.0004840139, -0.0017776194, -0.00089688774, 0.0011035057, 0.0010784343, -0.002252899, -0.0004465047, -0.00048506097, -0.0023469434, -0.0018318193, 0.00043281878, -0.000114884926, -0.0013208542, -0.0007224456, -0.0027091533, 0.0016730537, 0.0017621444, -0.0012387307, 0.0013524299, -0.00012848206, 0.0009967851, -0.001008903, -0.0031523877, -0.0008576364, 0.00049683393, -0.002445118, -0.0029511044, -0.00014239928, 0.0024198, 0.0012050365, 0.0007996992, -0.00076226675, 0.00078266585, 0.0010043663, -0.0013259756, -0.0010444834, -0.0014508874, 0.001445196, 0.0014224567, -0.0017391264, -0.0004441127, -0.0010701306, -0.0011315941, -0.0065058973, 0.00045843865, -0.0013050442, -0.00048437738, -0.0010406275, -0.00039720524, 0.00011777255, 0.00066668226, -0.0014344438, -0.0016548326, -0.00062991754, -0.00051868317, -0.000463202, 0.0007355056, 0.00087978196, -0.00088579784, -0.0021512585, 0.0015229869, -0.001050028, 0.0013844495, 0.0014173521, -0.0005490683, -0.00064503547, -0.0012981675, 0.0022630896, 0.00050841295, 0.0032975976, -0.0011645898, -0.0025573592, 0.0012490926, -0.0012443347, 0.0024715397, -0.00070269493, -0.0022107076, 0.0018084805, -0.00013891613, 0.0038272375, 0.0007562161, -0.0018922035, 0.00062897586, -0.00031016272, -0.0032915915, 0.00093883707, -0.00015633245, 0.00066031836, -0.0012649626, -0.0023916995, 0.0047443896, 0.00014670228, -0.00032782124, -0.00054858084, 0.0031842045, -0.0006187941, 0.0014075609, -0.0024716165, -0.0019465962, -0.00065786456, 0.000111465924, -0.0012705188, 0.00076374516, -0.00057396357, 0.0031119469, 0.00018127245, -0.0019364624, 0.0013222939, -0.0021738715, 0.00045762752, 0.0010972328, 5.1231124e-05, 9.736989e-05, 0.0014986786, 0.0020772982, -0.0006206987, -0.0008799887, 0.0012431529, 1.2665521e-05, 2.672209e-05, -0.002065477, 0.00058716204, -0.0004771012, -0.00076098676, -0.00094201416, -0.0019538233, -0.0013897684, 0.00249805, -0.00047892338, -0.0013098606, -0.0007549146, 0.0007967723, 0.0010870422, 0.0008161979, 0.0018703515, 0.00029144666, 0.0016993756, 0.0006448008, -2.079364e-05, -0.001749162, -0.0007437116, 0.0017154624, -0.0024625557, 0.0005082609, 0.001979204, -0.0024154172, -0.0018344598, -0.002268441, -0.0019395399, 0.0008754334, 0.0014131349, -0.0020972532, -0.003094223, -8.314836e-05, 0.0003015441, -0.00089246937, 0.0012831157, 0.0020652332, -0.0003642802, 0.0010801816, 0.0004323764, 0.0009149581, 0.00044729322, 0.0011385538, -0.0012443156, -0.0012820619, -0.0006536768, 0.00021588188, 0.00087493326, -0.0012408315, 0.00036196574, -9.900192e-06, 0.0018097797, 0.0013330476, -0.0006331506, -0.0010980954, -0.0016242657, 0.0012883414, 0.0014087686, 0.000964097, 0.00089988776, -0.00035149418, -0.0018155776, 0.0005303046, -0.0012160466, -7.221206e-05, 0.0002678399, -0.0008926735, -0.00045650746, -3.692694e-05, 0.0008972346, -0.0021868683, -4.298985e-05, 4.4013344e-05, 0.0018290814, -0.0007097505, 0.00019950542, 0.0010928893, 0.0015656237, 0.000318938, 0.00026717456, -0.0019179822, -0.0004917437, -0.00040648907, -4.770969e-05, -0.00026469427, 0.0012082679, -0.0014923222, 0.00071733206, -0.0015596513, -3.3791235e-05, -0.0006888547, -0.0021279254, -0.0026885923, 0.0021832741, -0.0013569673, -0.0028823337, -0.002668343, -0.00037418713, 0.00082670245, 0.003776684, 0.00047697767, -0.0019446458, -0.00024560513, 0.0008624317, -0.00053516653, -0.0024120463, -0.00045883533, 0.0015642125, 0.0019583711, -0.0004949313, 0.0006370046, -0.00090423564, -0.0005944852, 0.00048752083, 0.0013842095, -0.0011128496, -0.00075698853, 0.0003860538, -5.36383e-05, 8.502032e-05, 0.00035124354, -0.0005550174, -0.00115403, 0.00045941287, -0.0007015333, 0.00015204685, 0.00036637706, 0.00066360645, -0.0010756218, -0.00086342305, -0.0008757915, -0.00074398285, -0.001262994, 0.00085247227, -0.00084304495, 0.00039338798, -0.0007508563, 0.0010728487, 0.00266294, 0.0001824291, -0.0012829195, -0.0019626052, -0.0012848014, 0.00033060665, -2.8530922e-06, -0.0016144156, -0.0003296585, -0.0007982068, -0.0007364979, -0.0005103805, 0.0029148865, 0.00037720264, -0.00043229223, -0.0037375996, -0.00058463856, 0.00020159228, 0.00022401992, -0.001874174, -0.0012396546, -0.0007549629, 0.0021224152, -0.00034619618, 3.6369718e-05, -0.0013936277, 0.0012250438, -0.001512823, 0.00061898475, -0.000494297, -0.0018096279, -0.00043809283, 0.001825681, -0.0016065256, 0.000804117, 0.00091514015, -0.0024153888, -0.0024648537, -0.0009093424, 0.0007552275, 0.00063404854, -0.0007939624, 0.0011225624, -0.000596748, -0.0005670041, 0.0018210639, 0.00088279153, -0.00016194687, -0.0015446674, -0.00013309118, -0.0009881742, -0.002475161, -0.0015508297, 9.990632e-06, -0.00053131476, 0.0032973806, 0.002408971, 0.000200254, 0.0018102453, -0.00012073974, -0.0010949409, 0.0004338655, 0.0013419162, 0.0006436321, 0.0005465106, -0.0010274064, 0.0012935875, -0.0012446004, -0.00076405227, 0.00067100365, 0.001995757, 0.00162218, -0.0012392803, -0.0010696279, 0.0019513904, 0.0006248308, 0.00019145908, 0.0013905927, 0.00011897768, 0.00037287705, 0.0009217721, 0.00016644393, -0.0007841507, -0.0013913955, -0.0018644733, 0.0007237159, 0.00029038463, 0.002471, 0.0012834194, 0.0014032561, -0.00054253836, -0.000132913, 0.0012993083, 0.0021572, -0.00038407525, -0.00061434077, -0.0011127768, 0.001602739, -0.00075184554, -0.0015308553, 0.015484909, 0.0013203351, -1.5630382, 0.00058750063, -5.4919874e-06, -0.0007713651, 0.00018208579, -0.0026210304, -0.0015607469, 4.919246e-05, 0.0008868323, 0.00076106726, -0.0026821108, 0.0021914574, -0.00018547327, 0.00031600636, 0.0012443631, 0.12269156, -0.0005189759, -0.00027573752, -0.00030931772, 0.0017705164, 0.0017580885, -0.0014460179, 0.0012295006, -0.0028209179, -0.00030486227, 0.0003853782, 0.0039476613, 0.0042578056, 0.0004488608, 0.0010664954, -0.0024012737, -0.0012390836, 0.00063312665, -0.004278574, 0.000591766, 0.003474243, -0.0028607605, -7.485779e-05, -4.127038e-05, 0.0009113455, -0.9081457, -0.00095116, 0.0008753389, 0.0006827037, -0.0013338556, 0.0017565734, -0.0016486848, -0.00071041257, -0.49631292, 0.086832486, -0.0012220175, 0.002465319, 0.0009255323, -0.0053899167, -0.00029075565, 0.0013743236, -0.002904626, -0.0023552373, -0.0014225205, -0.002278319, 0.0011595191, -0.00074039784, 0.000603943, 0.06394, 0.0037002275, 0.001104211, -0.0063434923, -0.040194385, 0.17780647, 0.0006541243, 0.011198778, -8.298305e-05, -0.0011055208, -0.0016063526, -0.0009237715, -0.00010083261, -0.00033011206, 0.0030058036, -0.00084922224, 0.0012343826, -0.00027627771, -0.0013331156, 0.0005465733, -0.00022929933, 7.2298455e-05, 0.0010765799, -0.0018027155, -0.0008466303, 0.0011875237, 2.0432286e-05, 0.00011993613, 0.0031216517, 0.00048680184, 0.001447355, 0.00041364547, 0.00063547364, -0.00032852023, 0.00062313187, -0.00039873284, -0.0005434997, 0.004748333, 0.00064148306, -0.00073381525, -0.00046448916, -0.0006505425, -0.0006188288, 0.0011154979, -0.0008465882, 0.00049912813, 0.0009811482, 0.0002472569, 7.0595124e-05, 0.000104924315, -0.0033126823, -0.0018032773, -0.00036000545, -0.0012612937, -0.00046075782, -0.0003022063, -0.0015748406, 0.0020233227, -0.00094465184, -0.00037942608, -0.0005944191, -0.00017939205, 4.952657e-06, -0.002351066, -0.00048712338, -0.00062387035, -0.00019205321, -0.0018483329, 0.00083370914, -0.001111873, 0.00068168977, -0.00046511448, 0.0032910057, 0.0015297459, -0.0026301607, -0.0015621894, 0.00029095123, -0.0012104055, -0.0026637255, -0.0004459337, -0.0025662081, 0.0044592735, 0.0018253248, -0.0008600649, -0.003245912, -0.00047340163, 0.0012313279, 0.00064509036, -3.5551842e-05, -0.00029856595, 0.00046314168, -0.00055821764, -0.0005621542, -0.0031139217, 0.00055717264, -0.0019247577, -0.0016270697, 0.00049375393, -0.0021720075, 0.00158991, 0.0013378874, -0.00055164844, -0.0012036967, 0.0025516094, 0.00048582762, -0.00045986765, -0.00023167394, -0.00021877783, 0.00067193777, -0.0012475275, 0.0012907765, -0.003119518, -0.0019501577, -0.00021517748, -0.0009646713, 0.0019866454, 0.0010184693, 0.0012986794, 0.0013019646, 0.0014512108, -0.002621328, -0.00055666873, -0.00020113314, 0.0011091994, -0.0013318113, -0.0012413017, 0.00028107213, -0.0036556527, 0.00069778436, -0.000594313, 0.002158626, 0.0019930152, 0.0007309213, 0.00014515774, 0.0016258352, 0.0018615952, 0.0008562707, 0.0014197505, -0.001331559, -0.00040827587, 0.0006618269, -0.0031132046, 0.0010791265, 0.0024924388, -0.0010820953, 0.0012919712, 0.002472876, 0.00289964, -0.0017139975, 0.0016443124, -4.0100058e-05, -0.0011134485, -0.0015654092, 0.0015543987, 0.0012639656, -0.0012982317, 0.0014473796, -0.0013840499, -0.0012077878, 0.00094537775, 2.7571892e-05, -0.0030966892, 0.0019452, -0.00022091815, 0.0020090158, -0.0010778632, -6.2806066e-05, 0.00058489176, 0.0011362564, -0.0026525909, -0.00013970179, -0.0013006249, 0.00065530476, 0.0016277636, -0.0009346581, 0.0025859794, -0.00050871563, -0.0014917133, 7.7326986e-05, 0.0042042863, -0.0005646426, 0.0022251136, -0.0024439695, -0.000647755, 0.0013827882, -0.0017676402, 0.0005950971, 0.0020035491, -0.0005514713, -0.00012686691, 0.0018410357, 0.002009197, -0.0041815024, -0.00089945144, 0.0013333079, 0.0009610138, -0.00039367712, 0.0010669992, -0.0011015171, 0.0016245397, 0.0012057819, -0.00046767772, 0.0007592902, -0.00047572574, 0.0006605852, -0.0023447475, 0.0015834466, 0.0015794784, 0.0004815976, -0.0016571444, 0.0014086349, -0.0016219644, -0.001272442, 0.0005495371, -0.00059007126, -0.0012902791, -0.00107146, -0.0024271756, -0.00023808057, -0.0008053002, 0.0014036549, -0.0012453678, 0.00088916643, 0.00047807733, -0.00052012654, -0.0013735803, -0.001411863, 0.00040201144, 0.00049887586, 6.813157e-05, 0.0006181124, 0.00046377245, 0.0011237488, -0.0001484866, -4.645111e-05, 0.0016300774, -0.0016209981, -0.0011992096, 3.059313e-05, 0.0018927343, -0.0007033689, 0.00047920595, -0.0005261819, -0.0015424739, -0.0014495642, 0.0002082212, -0.0012915723, -0.00076658337, 0.0012800505, 0.0015684927, -0.0011045292, -0.00030675775, -0.0015771852, -0.0023809453, 0.00020390964, -0.0013962883, -0.002536905, -0.0016731573, 0.0010123022, 0.0006888743, 0.00041324823, -0.00013720186, -0.001577423, 0.0025228742, 0.0004359407, 0.0010831025, -0.0027615814, 0.0018006687, 0.0006334258, -0.0003893794, 0.001525543, -0.00019502692, -0.00067616143, -0.0019157936, -0.00087578193, 0.00027586217, 0.004411606, -0.00095349964, 0.0012988325, -0.0005476462, 9.2397444e-05, 8.3243125e-05, -0.00024154142, -0.0036510185, 0.0013365262, 0.0009511922, 0.00083324243, 0.00040761675, 0.0015129654, 0.00016545557, 0.00065570103, -0.0006389726, -0.00063978427, 0.00021819855, -0.001993113, -0.0006557667, 0.0011202815, -0.0014022313, 0.001883059, -0.0006801672, -0.0029766806, -0.0007800225, -0.0004414023, 0.0005944885, -0.00040531968, -0.0005750873, -0.0014468157, 0.00022304343, -0.0016269952, -0.0012144744, -0.00057805434, -0.0016061908, 0.0007407892, -0.00051431195, -0.00044770437, 0.00018143869, 0.001569716, 0.00093241147, -0.0012166455, 0.00014728023, 0.0004791274, 0.0003061304, 5.606725e-05, 0.00029242982, 1.238368e-05, 0.0015398046, 0.0002927109, -0.0008348021, 0.0012951891, 3.243907e-05, 0.0031262594, -0.0033216486, -0.0012338632, -0.00037772875, -0.00011861866, -0.002915245, -0.00054397236, -0.0015480875, -0.0027291188, 0.0012153827, -0.0018660955, -0.003947908, 0.0004913324, 0.0020229463, -0.0015901186, 0.00078070036, -2.6543974e-05, 0.0019031586, 0.0040311757, 0.0009028348, -0.00030432385, 0.0037006633, 7.967639e-05, 8.299283e-05, 0.0006426462, 4.2409738e-05, -0.00020779553, 0.0062859934, 0.0036921948, -3.925078e-05, 0.0005945775, -0.002698874, -0.0008106005, 0.0009532622, 0.0007190625, -0.0017103961, 0.000906095, -0.00027725048, 0.0006101609, 0.0007262819, -0.0001838808, -0.0002216067, -0.00036253408, -0.0012340042, -0.0004082179, -0.0015142787, 0.0018587195, -0.003798359, -0.00034853333, 0.00189349, 0.006168356, 0.000725775, 0.0009874027, -0.0006734497, -0.0014779018, 0.000520729, -0.0018134024, 0.0019867872, -0.0012717822, 0.00035065334, -0.0005185845, -0.0011668279, 0.0006519486, -0.0010846888, 0.0005120848, 0.0017583799, -0.0012366177, 0.0008882917, -9.185882e-06, -0.0019560778, -0.00012705832, -0.00078005187, -0.0002543372, 0.0011496386, 0.0014993923, 0.0015664748, -0.0015805163, -0.0011217972, -0.0004512354, 0.0015967408, -0.0006659924, -0.002176715, 0.00021506177, -0.00059676444, -0.0013614995, -0.0010398484, -0.00076869555, -0.0009249597, 0.00063199253, -0.0007212752, 0.0009422413, -0.0014845708, 0.0046354616, -0.0023628203, -6.256951e-05, -0.001296657, 0.0017348768, 0.0031411732, -0.002417917, -0.0015603922, -8.3130086e-05, -6.3685206e-05, -0.0016773683, 0.00030604296, 0.0005813411, 0.002161076, 0.0036843002, 0.0006832969, 0.0006437342, 0.00052095705, 0.0010773009, 0.00062358985, -0.0023790174, -0.00010065373, 0.0004973954, -0.0010397923, -0.0007674772, 0.002721959, -0.0024022558, -0.0012627707, 0.000130039, 0.00067245984, -2.0340522e-05, 0.00046320388, 0.0012995118, -0.0018249417, -0.00036963192, -0.0006103402, -0.00023547636, 0.0013155586, 0.0017807939, 0.0032966165, -0.0012940755, -0.0013924986, 0.00097510155, -0.00028136116, 0.002576196, -0.00086088706, 0.0003565125, 0.0009776091, 0.0022445275, 7.088841e-05, -0.0012893243, -0.0006144754, 0.00076043897, -0.00033888977, -0.0004193621, -0.0022283585, 0.002161543, -0.0035584918, -0.0012382586, -0.0006721481, -0.0006468054, 0.00070155424, 0.0014234724, -0.0007609773, 3.911658e-05, 0.00073351956, 0.0012852664, 0.00016966253, 0.0021601177, -0.0014602051, 0.0010198948, 0.00077331485, 0.0012985023, -0.0019762672, 0.00025059993, -0.0011363153, 0.00074579986, 0.0017577687, 0.002570252, 0.0003431463, 0.0027048404, -0.0013278427, 0.00035790633, 0.0005974961, 0.0007395819, -0.0018131651, -0.0032368652, -0.0020571996, 6.280478e-05, 0.0017172873, -0.00141693, 6.607521e-05, 0.001393104, 0.0014965688, -0.00018440087, -5.028487e-05, 0.0014050629, 0.00036337666, -0.0018454755, -0.00072975096, -0.0011594442, 0.0014278595, -0.0019422934, 0.001657838, -0.0005886534, 0.0005292097, -0.00074036245, 0.0012911645, -0.0016864857, -0.0005631991, 0.0009766722, -0.0010425143, 0.0031216973, 9.071472e-05, 0.0013815796, -0.0011219013, -0.002581473, -0.0001019881, -0.0015291739, -0.0004551467, 0.0013917701, -0.00085061736, 0.00046547933, -0.0037800178, -0.0013696516, -0.0007939691, -0.0009969523, 0.0013435099, -0.0017625294, 0.003453632, 0.001319028, 0.0005956053, 0.00042211235, 0.0019346571, 0.001725792, -3.195346e-06, -0.0017430478, 0.00017607713, -0.0002684142, 0.00036888558, -0.000710451, 0.0017265934, 0.00065348856, 0.00042681908, -0.0014103372, 0.0013497642, -0.00097475137, -0.0014192129, 0.0020452812, 0.0012920825, -0.0004855271, -0.0006419628, -0.0006201116, 0.0007249982, 0.00072435243, 0.002406926, -0.0007915692, 0.00066984375, 0.002580663, -0.0016095096, -0.00032351428, -0.0024687143, 0.0043867496, -0.00064446835, -0.0014023914, -0.0023128602, 0.00018276821, -0.00073846907, 0.003865894, 0.0012175416, 0.0009951014, -0.00055659417, -0.0021441139, 0.0017900163, 0.0019642825, 0.0003226997, 0.0021506762, -0.0018658793, 0.0063038003, -6.000983e-05, 0.0010924757, 0.0023087938, 0.0031246599, 0.0005490174, -0.00011117646, 0.0023696772, 0.0025135116, 0.00029872195, -0.00029087617, 5.237077e-05, -0.0010185726, 0.0024438766, -0.0005824799, -0.001192763, -0.0027032956, -0.00085362134, 0.0011005673, 0.0025935383, -6.940054e-05, -0.0007322152, 0.001137394, -0.0014102017, 0.00043397828, -0.0006947563, 0.00018596422, 9.353098e-05, -0.0015428845, 0.001593689, -0.0016825909, -0.0003087991, 0.00024554972, -0.00044323824, -0.0007297889, -0.0007925791, 0.0014214333, -0.0013197225, -0.00037424956, -0.0027094642, 0.00075784535, 0.00186323, 0.00070618273, 0.00019152992, -0.0003051029, 0.0018860819, 0.00030870206, -0.0016555618, -0.0012485292, -5.0729497e-05, -0.0018386622, -0.004443748, -0.004748507, 9.132258e-05, -0.00032260013, 0.0017972629, -0.00080829166, -0.00043594255, 0.0011353354, 0.0006639365, 0.00048527867, -0.0011338957, 0.0006556703, -0.001604087, 0.0011949334, -0.0010745856, 0.0015089384, 0.00022794676, -0.0003548279, 0.00061984727, 0.0019686078, -0.0009035833, -0.0025557154, -0.00012276584, -0.001288887, 0.00040950364, 0.00059789827, -0.0006368346, 0.0026529743, -0.0006512534, 0.00014002237, 0.000677674, 6.311695e-05, -0.0039023655, 0.0005264452, -0.0012955545, 0.0023668, 0.0010973292, 0.0008812058, 0.0016234701, -0.0033012144, -0.0006901861, -0.0008808953, 0.0009793432, 0.0016814145, -4.0662548e-05, -0.0016967066, -0.0015209424, 0.0010932031, -6.8032125e-05, 0.00015590293, -0.0017685329, 0.0008422728, -0.00028027958, -4.262243e-05, 0.0023775003, 0.0010273912, -0.0025281897, 0.0014957127, 0.0012123695, 0.0012090232, 0.003844289, -0.0007115773, -0.0010960916, 0.003838054, 9.9801575e-05, -0.00011179008, -0.0015817634, -0.00064289145, 0.00043936877, 0.0010034712, 0.0006693726, 0.0007424335, 0.0013306113, 0.0010666493, 0.0018513828, -0.0010285089, -0.0014841612, 0.0010812175, 0.00043780624, 0.0013834457, 0.0012300459, -0.0012938632, -0.0004912192, -0.0037966773, 0.0011649581, -0.00013663992, -0.00014001451, 0.0006390495, 0.00015988573, 0.00015346205, -0.0008498598, -0.0020581381, -0.0020414377, 0.00027150335, 0.0009283232, -0.00048224177, -0.00017961842, -0.00047815804, -0.00061156886, 0.0005449663, -0.00014478486, 0.00083006197, 0.00079657213, -0.0019022912, 3.062276e-05, 0.00047522841, -0.00049983914, 0.0031134598, -0.0011360662, 0.0010722415, 0.00045302382, 1.835043e-05, 0.000108053966, 0.0006527009, -0.0021398517, 0.0012624168, -0.0008989133, 0.0015170523, -0.002463799, -0.0005039078, 0.0010003347, -0.0026349039, 0.00073428475, -0.0012868296, -0.0010720787, 0.0017817784, 0.0002819285, -0.001093728, -0.00092159724, -0.00027368695, 0.0041774027, 0.0012896459, 0.0025728308, -0.0020041286, -0.0014147131, -0.0024722614, -0.0024727595, -0.0014982787, -0.0012438071, -0.0007627004, 0.00021032302, -0.0019536521, -0.0019699335, -0.0014204973, 0.00018898843, 0.006425081, 0.0003144251, 0.00022203824, 0.00069280737, -5.5753684e-05, 0.0022269562, 0.0006606683, -0.0031917978, 0.00046455942, 0.0024644947, 0.00039362797, 0.0014515752, 0.0009088143, -0.0011400809, -0.0015729677, -0.0007618469};
float bias_2[] = {-0.14443018, -0.060629766, -0.15670124, -0.07125499, 0.058598448, -0.110296346, -0.11380243, -0.008202752, -0.08964273, 0.090257354, 0.2556213, -0.10501242, -0.095786124, -0.08014691, -0.08142082, -0.030546833, -0.09029859, -0.15195854, -0.151443, -0.009945323, 0.19892657, -0.00788289, -0.060839813, 0.3770246, -0.07578651, -0.00788566, -0.00588186, -0.012339541, 0.50808835, -0.014820614, -0.015242627, -0.009015137, -0.013100318, 0.2020692, -0.10739707, -0.020198077, -0.11635391, -0.09684785, -0.026713705, -0.10916183, -0.0072751576, -0.01378417, -0.007784687, -0.034909513, -0.09206724, 0.34734347, -0.0066180904, -0.046801083, -0.014584459, -0.008011375, -0.115338124, -0.014266662, -0.15108404, -0.05028201, -0.005097624, -0.013763966, -0.03727139, -0.21918646, 0.058636293, -0.009184031, -0.28080106, 0.1889322, -0.081504114, 0.19164434, -0.028593931, -0.11144279, -0.007907607, -0.010956332, -0.10704351, 0.12351582, -0.13954407, -0.08537234, -0.09793905, -0.029076036, -0.08453767, -0.09886535, -0.09083639, -0.094265714, -0.005604347, -0.043835893};
