float weight_1[] = {-0.00089098193, -0.002801023, -0.0010707933, 0.0006527017, 0.0011335475, 0.0008910179, 0.00076695683, 0.0007396104, -0.0009442737, -0.0010197503, -0.0014207147, 0.0011643902, 6.883888e-05, 0.0006726412, -0.0012118428, -0.002544485, -0.000700238, -0.0008917335, 0.03271531, 0.76153487, 0.510087, -0.05141276, 0.029257575, 0.68597233, 0.00022048873, -0.0005922832, -0.00084857916, 0.0014445037, 0.0012109736, 0.0021191873, -0.7406705, 0.010462641, 0.29319364, 0.004160447, -0.0012802563, 0.0011862908, -0.0022441624, 0.0003871239, 0.001523286, -0.0015457894, -0.0025620016, -0.0015542936, -5.7111087e-05, 8.7562774e-05, -0.0015120003, 0.0010172924, -0.00084526435, -0.000489252, -0.002760719, 0.0025455826, -0.00084979075, -0.27625212, -1.2159655, -0.20149243, 0.00015774096, -0.0007601733, 0.00046695292, 2.7213704e-05, 0.000518176, 0.0007362275, -0.22855043, 0.9288125, -0.92152655, 0.0008992415, -0.000178825, -0.0009459464, 0.3988538, -1.0098689, 0.5106447, 0.5881339, 0.6456309, 0.47736198, 0.00024034828, -0.0027161946, -0.0007886235, -0.0005335731, 0.95628846, -1.1540338, -0.0017348224, 0.00031589696, -0.00038439725, -0.41951135, -0.96840227, 0.27888444, -1.235852e-05, 0.0009862094, 0.0005863445, -0.15840468, -1.4438492, -1.4541264, -0.0005404494, 0.0003942569, -0.00046362705, 0.0008169981, 0.00035453192, -3.653296e-05, -0.38977295, 0.15862572, 0.1295393, 0.256334, -0.51474893, -0.5272742, -0.101716064, 0.17811975, -2.3487093, 0.9664709, -0.025655132, 0.2780137, 0.0006409889, -0.00312451, -0.0022757722, 0.0013680403, -0.0047490443, -0.0011789656, 0.00076064083, -0.00020735007, -0.0010511474, 0.002338163, 0.0022620528, -0.00045056443};
float bias_1[] = {-0.37964094, -0.016633455, -0.20989609, -0.009228953, -0.0049318476, -0.21943477, -0.7175169, -0.0161693, -0.33800575, -0.006749166, 0.42066297, -0.13732198, -0.0050307247, -0.34484327, -0.004100279, -0.007986803, -0.13350031, 0.42918104, -0.021615475, -0.0173432, 0.0776867, -0.011559363, 0.20746608, -0.52448314, -0.5614728, -0.26592326, -0.005493751, 0.16343942, -0.0065389476, 0.13563406, -0.0048938636, -0.3332166, 0.09329689, 0.36319712, 0.4746641, -0.10507169, -0.008492319, -0.22528255, -0.012559988, -0.02738469};
float weight_2[] = {0.0007196331, -0.000366194, -0.0015886066, 0.0017890603, -0.00046453986, 0.0006493507, 0.00198618, 0.0006099789, -0.0010359486, -0.0012746467, -0.0008119345, -0.000909092, -0.0023882329, 0.00030433282, -0.0013211548, -0.00056309823, -0.00016783667, 0.0004631403, -6.712295e-05, 0.0015266542, 0.0013478536, 0.001771898, -0.0014684564, -2.4293142e-05, -0.0008406937, -0.0013461164, -1.2848497e-05, 0.0009270897, 0.0020459155, 0.00044017343, 0.0005771163, -0.0011679927, 0.0005545553, -0.0012602245, 0.0015710252, -0.0005801468, -0.0016970527, 0.00016980065, 0.00024145823, 0.0007058527, -0.0012118658, -0.0024851891, -0.000678899, -0.0006379231, 0.0005026393, -0.0010065401, 0.0008478331, 0.00068492576, -0.0017348458, 0.0010295059, -0.0001445795, -0.00044850647, -0.0014991353, 0.0008815733, 0.0019291424, 0.001081503, -0.002055831, -0.0011209958, 0.0008926142, -0.001120759, 0.0007191416, 0.0013137273, -0.0018650983, -0.0013398735, -0.0025299962, 0.0003426611, -0.0011614366, 0.0006411457, -0.0005884373, 0.00033581944, 0.00093994313, 0.0027381377, 0.0017490571, -0.00027813017, 0.0012771996, -0.0025165498, 0.0005718416, -0.00023531629, -9.2613045e-05, 0.00078245066, 0.00048181938, 0.0007978944, 0.0003463021, -0.00034041662, 0.00055182783, -0.0042480165, -0.17002615, -0.00034745777, -0.0025680596, 0.0035317282, -0.13379371, -0.00084870314, 0.00015698705, 0.0008687866, 0.0019241512, 0.0014429346, -0.00072777, -0.4872159, -0.0019517712, 0.0017800162, -0.23252894, -0.0006089516, 0.20602664, 0.025640873, 0.0008641153, 0.54790634, -0.00028186408, 0.9380092, 0.001918268, 1.0948744, -0.0010805917, 0.0006426765, -0.0020736982, 0.3967072, -0.41304016, -7.804501e-05, -0.0011311058, -0.00021739269, -0.002281006, 0.0015488457, -0.003889479, 0.0012973046, 0.0006492102, 0.0013241539, -0.0009172481, 0.0014463667, -0.0028617058, -0.0013324651, 0.0004687645, 0.00050063303, -0.00067238807, 0.0024173749, -0.00025797752, -0.0005459836, 0.00024198112, -0.0018063114, 0.0004537686, 0.0019292749, -0.000562923, -0.0012716551, 0.001399613, -0.0010239407, -0.0008875627, -0.0025024395, -0.0005370049, -0.00054944155, 0.0004597829, -0.00020173137, -0.0042718323, 0.0015751973, -0.0006620769, -0.001927739, 0.0024725404, -0.0011138883, -0.0017776176, -0.0009242009, -0.00065549987, -0.0009986437, 0.0005930566, -0.0005626265, 0.0011297239, 0.00085213024, -0.0022272822, 0.0012610181, 0.0015456983, -0.0016684385, -0.0009330469, -0.0015360484, -0.0021157002, 0.0015126748, -0.00022942878, -0.0017510924, -0.0004974102, 0.00084102177, -0.00041517525, -0.00086936634, -0.00081006857, -0.0023776158, -0.0037449794, -0.0007120756, -0.0026876684, -0.00030643702, 0.00021778722, 0.002323901, 0.0012932292, -0.0023830514, -0.0005638358, 0.00038000476, -0.00043238263, -0.00015636161, 0.00028747786, -0.0011077604, 0.0024954232, -0.0011764987, 0.0016709629, -0.001510613, -0.00089956255, -0.0007088602, 0.0007685535, 0.001069258, -0.0007114451, 0.001012933, -0.0039196433, -0.0024705194, -0.0019178212, -0.00019483827, 3.8064492e-05, 0.00083309435, -7.301057e-05, -0.001807646, 0.00094037637, 0.0025551245, -0.00060186343, 0.0016653375, -0.00027269637, 0.0017410525, -0.0014859539, 0.00073896034, 0.0019713845, 0.0011140676, -0.00086425315, 0.0005154845, -0.0021680503, 0.00038599418, -0.0007929499, 0.0023600427, 0.0024752952, -0.0009300152, 0.00090037467, 0.001024417, 0.0011705357, 0.00074855925, 0.0007913271, -0.0011684693, 0.00017475802, -0.0005495776, 0.0005084507, -0.00058137736, 0.00015615497, 0.00067723833, 0.00032924744, 0.00067671563, -0.0012819031, 0.00039061054, 0.0010781325, -0.0016522303, 0.0010716866, -0.0019323493, -0.00031980022, 0.00048330514, -0.058269203, 0.001894866, -0.0022461563, 0.002859601, 0.001044405, -0.0027185497, -0.001992048, -0.12009004, -0.00021458563, 0.0015426683, 0.06237486, -0.0012799681, -0.18965137, 0.5974374, -0.0015052182, 0.028583856, -0.0012638182, -0.07347189, -0.0009927572, -0.28801987, 0.00066733843, -0.0007974068, 0.0035919952, 0.002050515, 0.16109563, 0.0017319376, 0.0014506397, 0.0023151652, -0.0010460508, 0.0004235094, 0.0016520086, 0.002145281, -0.0014007702, 0.0009813363, -0.0019667961, 0.0018622928, 0.0015371859, 0.44104877, 0.0030879132, 0.001112909, 0.0008646416, -0.0005294066, 0.00021408277, 0.0007605602, -0.00045979675, -0.0023977943, -0.0017903978, -0.0027071987, 0.0013777282, 0.00037051865, 0.4070308, -0.0006703224, -0.0016762621, 0.0015077542, 0.0015831015, 0.0028910993, 0.0006623231, 0.0021013075, -0.0013131731, 0.00055960554, 0.0002598976, -0.0005937753, 0.004773667, -0.06071295, -0.3959919, 0.019571047, 0.00067106035, 0.00010176562, -0.00075683556, 2.3883185e-06, -0.0002616741, -6.351524e-05, -0.002470897, -0.00056581607, 0.00064155896, 0.0011622568, -0.0006886026, 0.0014237531, 0.0009537005, 0.00073636614, -0.0019384188, 0.0031178081, 4.0411658e-05, -0.0010868286, 0.0007464035, 0.0012262011, 0.00040620292, -0.0008982163, 0.0015188345, -0.00039351976, -0.00020405016, -0.0031109117, 0.0005495626, 0.0021468042, 0.0009799288, -0.0006532213, -0.0023839092, -0.000816131, -0.00036289997, -0.00024140265, 0.0025530765, -0.0013721925, 0.0006594309, -0.0014512097, 0.0007976046, 0.000363018, -0.0031140372, 0.0006209829, -0.00073499413, -0.0018074397, -0.0005985884, 0.002008884, -0.0005657149, -0.000508763, 0.0014076431, 0.0001703081, -0.4978966, -0.2983766, 0.0029796185, -0.00056116754, -0.44102478, 8.299027e-05, -0.0003371325, -6.0206337e-05, 0.000514525, 0.00280772, 0.00034577644, -0.020919364, -0.0010538913, 0.00023824279, 0.094420984, 0.00062265777, -0.0009417781, 0.03082995, -0.0017572198, -6.175935e-05, 0.00015949417, 0.0032853172, -7.243594e-05, -0.0026456923, -0.00019702152, 0.000801475, 0.00022543094, 0.00074072817, -0.0022923695, 0.008290016, 0.0006460592, -0.00048012508, -0.0024320397, -0.0015068282, 1.9500265e-05, 0.0005196492, 0.0007578068, -0.000592211, -0.001754374, 0.0033058045, -0.0005033496, 0.00041064422, 0.0009284083, -0.0018813018, 0.004173816, 0.00065377983, -0.003117721, 0.00067610666, -0.0019393064, -0.0019416284, 0.0025653844, 0.00028123744, 0.0001360075, 0.0024788557, -4.1287625e-05, -0.0011032538, -0.0017671713, -0.00018348481, 0.0006525172, 0.0031163692, 0.002410808, -0.00065289217, 0.0008442474, -0.00094625517, -0.0012958559, -0.0008460146, -0.0007111189, -0.00065807387, -0.0013565642, 0.0010341218, 0.0041769287, 0.0031717108, -0.00021314208, 0.0032959222, -0.0017081543, 0.0016068933, -0.0008473308, 0.0012664105, 0.0022102294, 0.00020850208, -0.0008407879, -0.0033775494, 0.001395233, -0.0010843957, -0.0008305953, -0.00187411, -0.00026949565, 0.00031802699, -0.0014093487, -0.0020694789, 0.0024138193, -0.0011674718, 0.0013055059, 0.0008737542, 0.0014241227, 0.00015188387, -0.00018663859, 0.0021866418, 0.0017838661, 0.00062855467, -0.0005179437, -0.00039374607, 0.0011436162, -1.21216e-05, 0.0008774829, 0.00015207124, 0.0008115061, 0.0012721957, 0.0014301222, 0.0011525243, -0.0011912956, 0.0009842071, 0.00038484565, -0.0018159854, 0.0028534767, -0.0011207799, -0.00020279633, 0.0019419914, -0.0013048537, -0.00061033666, 0.00012991583, 0.002087186, -0.0018047882, -0.0019773429, -0.0010788376, -0.0012784351, -0.0013106398, -0.0013537003, -0.0005159933, -0.0015841378, 0.0010803854, -0.000519444, 0.001971147, 0.00068890536, 0.00071563775, -0.0006767799, 0.0016379089, 8.8009634e-05, -0.0014177503, 2.7692266e-05, 0.0020151555, 0.0005806075, -0.0017701315, 0.0030861874, 0.0012611547, -6.8913185e-05, -0.00034937324, -0.000689638, 0.0012355994, 0.0030964958, -0.0001759667, 0.0022842789, -0.002862207, -0.0015544895, 0.0034978236, -0.0006659249, 8.439791e-05, 0.00040879345, -0.0026466905, -0.00033151783, -0.0011061662, 0.00093358796, 0.0012371584, -0.0013467988, -0.00081726536, 0.00015008019, -0.0023837816, 0.0015737603, 0.0014142913, -0.00085058145, 0.0007914228, -0.00061997486, 0.00022794196, 0.0023480288, -0.00025514304, -0.003333114, -0.0015383918, 0.0008251788, 0.00091686717, -0.0007170993, -0.0010637728, -0.002065522, -0.00075371424, -0.00086443743, -8.226401e-06, 0.0011374279, 0.00048669346, 0.00041649945, 7.0048263e-06, -0.00089904916, -0.0032934775, -0.0016884662, -0.00016760023, -0.0021419614, -0.0014073112, 0.0024752622, 6.3711836e-05, 0.0012414622, 0.0021755404, 0.0023246105, -0.0006660574, 0.00180511, -0.002250724, 0.0031138696, 0.001842395, 6.115489e-05, 0.0019425097, 5.3712865e-06, -8.21272e-05, 0.0003003003, -0.0014128499, -0.0012929509, 0.0032966314, -0.00020514528, 0.0006461158, -0.0013317969, -0.002008315, 0.0007690694, -0.0005649441, 0.0009396846, 0.001622752, 0.0012962489, -0.0013656297, 0.00065346685, 0.0019411613, 0.00040446589, -0.0019390424, -0.0019377525, -0.0019246537, 0.00057447905, -0.00058935996, -0.0018671129, -0.0007604578, -0.0012981476, -0.0022042256, 0.0015434767, 0.0012262388, 0.00037578732, -0.00091549987, 0.004046662, -0.002504129, -0.0023579584, 0.0035966132, -0.0006248828, -0.00013941026, -0.001406506, -0.00050323375, -1.2585442e-05, -0.001044701, -0.0029822704, 0.0010482767, 0.0013654031, -0.00041571833, -0.0038708001, 2.4841167e-05, 0.00018653614, 0.0010018101, -0.0065033343, -0.00029172748, -0.0007217318, 0.0016128221, 0.0010408578, 0.00035999325, -0.00085492595, -0.0010643326, 0.00036068098, 0.0014534749, 0.0009608049, 0.00085368473, 0.0005219843, 0.00010921122, 0.0009841028, -0.00030265946, -0.0010383737, -0.0017562959, 0.0014424789, 0.0005713061, 0.0010557349, -0.0009049365, 0.00048425712, -0.0013152453, 0.00065814605, -0.0014901506, 0.00072878075, 0.00067617506, -0.002173007, -0.0011304611, -0.0015686252, 0.0007290807, -0.0009805232, -0.00011714125, 0.0006844442, 0.0007587465, 0.00080782064, -0.001622553, 0.0007173884, 0.0017973765, -0.0024711974, 0.0024895759, 0.0028501593, -9.82302e-05, -0.0003479012, -0.0024743942, -0.003310577, 0.0016275465, -0.0029001886, -0.00059755816, 0.0014132163, -0.0007810714, -0.0012918257, 0.00024927352, -0.00029016193, 0.0021639543, 0.0005855744, 0.00051902723, -0.0017704992, 0.0007478781, 0.0033494222, -0.00043369993, 0.0019568, -0.001338852, 0.0023779997, -0.0025171554, 0.0030446448, -0.00016337885, 0.00057560066, -0.00019179477, 0.0014011096, -0.00082818954, -7.5659715e-05, 0.0016856723, -0.0013446924, 0.0012368849, -0.0018660419, -0.0026766188, 0.0038021833, 0.0003359202, -0.00042286367, 0.0022246859, -0.00205292, 0.001742085, 0.001691879, -0.0017817648, -0.003341837, 0.0018665724, -0.001160167, -0.0006483566, 0.0019354643, -0.00032279704, 0.0009855095, 0.0011280702, 0.00054856087, -0.001745767, 0.0005556537, -0.00057094824, 0.0017534008, -0.0028845868, -0.0028824243, 0.0024065324, -0.0017091322, -0.00014109875, -0.0013522396, -0.0011698052, 0.0011973653, 0.0006020369, -0.0013588439, -0.00020307628, -0.0012083623, -0.0005891741, -0.0011056736, -0.00181281, -0.0016799521, -0.0024681808, -0.0012750768, 6.77027e-05, -0.0008009291, 0.0017502754, 0.0012460545, 0.00043804361, 0.0005832941, -0.0007279121, 0.0015688011, -0.0010257416, -0.00024434924, 0.0010216881, -0.002223471, -0.003483769, -0.002679958, -0.001141403, -0.0009119713, 8.390157e-05, -0.00081715593, 0.00044524786, -0.0006290661, 0.0006111725, 0.0013320353, -0.00057687593, -0.002413149, 0.0007427634, -0.0010331497, 0.0024285081, 0.00091510196, 0.0008417198, 0.0023422795, -0.0014491018, 0.0017947793, -0.0012657894, -0.00044851378, -0.00012401404, -0.0004820673, 0.00021422433, 0.61445785, 0.001294509, 0.00096512306, 0.54381806, -5.6534132e-05, -0.9621781, -0.0005029108, 0.0016946162, -0.6094989, 0.00054093194, 0.29072797, 0.0012967219, 0.8902568, 0.002160092, -0.0020156088, -0.004385424, -0.0007887919, -0.61033106, -1.4518155, -0.00087682385, -0.0006272485, -0.00088050397, -0.001671324, -0.0013922792, -0.0012995633, 0.00068440096, -0.0012944643, 0.0010171242, 0.0008254803, -0.00047623343, 0.0002090985, 0.0009320136, 0.0012872315, -0.0012978639, -0.001299202, 0.001202106, -0.0022179645, 0.00075729063, -0.0012982195, -5.665672e-06, 0.0010616437, -0.0018084991, 0.00074712385, 0.0015410051, 0.0010508944, -0.0012954964, 0.00064895506, -0.0015513806, -5.286839e-05, 5.615881e-05, -0.0019953875, 5.1924726e-06, 0.0012868512, -0.0012626522, 0.0005768299, -0.0012585798, 0.00020457321, -0.0016987732, 0.0019438445, -0.0031145145, -0.0010360267, -0.0005984222, -0.0007615319, -0.00206583, 0.0010309563, 0.00079313596, 0.0014027362, 0.0003521823, -0.0016815853, -0.0012252044, 0.1158528, -0.003547714, -0.0017517753, -0.0013464723, -0.00038210262, 0.00049144204, -0.0008873026, 0.0008050085, 0.00017579517, -0.0013429828, 0.33709082, -0.0019344989, 5.5591692e-05, -0.21892162, 0.0006682809, 0.41872984, -0.00083983806, 0.0015446434, -0.0005442982, -0.0004503053, 0.1296344, 0.0014366788, -0.0030790712, 0.0014111141, 0.0012115252, -0.17572114, -0.35477877, -0.5393208, 0.02311667, 0.0012047546, -0.00092311035, 0.001126122, -0.00024691317, -0.0004549582, 0.000112851674, -0.0010279914, 0.00031686874, 0.0010209725, -0.00030331872, -0.00081848813, -0.00087836996, 8.156534e-05, -0.00028029736, -2.310099e-05, -0.000637338, -0.00085842, 0.0014303555, -0.00068585994, -0.00086295925, 0.004199205, 6.0891063e-05, -0.00076258014, -0.0010068055, 0.0017990354, -0.0014744187, -0.0018504256, -0.0028057361, -0.0006124864, -0.0012133754, -0.00040362863, 0.0010675386, -1.2353528e-05, 0.0011546514, 0.0016106506, -0.00067603216, -0.0005557896, 0.000591928, 0.0011817879, 0.0003524347, -0.00076406135, 0.0016143238, 0.00058598456, -0.0005163477, -0.0013994356, -0.0004900892, -0.0008673568, 0.0021928633, 2.3108849e-05, 0.000735985, 0.00072027056, 0.00044229272, 0.00043588132, 0.00026011016, -0.0006441808, 0.0005068505, 0.0003223779, -0.00042498356, 0.00038251336, -0.00035932433, 0.0008798563, 0.00045654806, -0.0014455891, -0.00059022254, -8.409482e-05, -0.0024751765, -0.0014615604, -0.00023800804, -7.559989e-05, -0.00052174984, -0.0010479589, 4.3023785e-05, 0.00020667314, 0.0011744454, -0.00091418874, 0.0005212943, -0.00012699026, 0.00023328268, 0.00082511717, 0.00021935574, -0.00090091873, 0.0030006967, 0.0008007206, 0.0001577469, -0.0006079455, 0.0006027768, -0.0007285568, -0.0006006307, -0.00087973656, -0.0016704997, 0.0017686286, 0.00036415912, 0.00029864954, -0.0008881848, 0.0006023382, -0.0014282634, 0.0012839523, -0.00019778527, -0.00076153653, 0.0024749706, -0.0006109368, 0.0010699751, 0.0021625487, -0.0004432717, 0.00024142745, 0.0012434041, -0.0018096139, -0.0006007086, 0.0022730962, -0.00011740514, 0.0009004275, 0.0012358341, -0.00075847807, 0.0008582165, 0.00012673374, 0.0003852643, 0.00021466869, 5.8947655e-05, 0.002106885, 0.0005419372, -0.00059728674, -0.00086269446, -0.0012854282, -0.0041739494, 0.0008128258, 0.0014281702, -0.000544176, 0.0011485717, -0.00065188407, -0.0007800022, -0.0002695515, -0.00012444798, -0.0023683459, 0.0006101278, -0.0006478704, -0.0002609146, 0.0012322663, 0.0008649316, -0.0009076276, 0.0019312806, -0.0021967476, -0.002280303, -0.0023091438, -0.000512365, -0.00093981693, 0.0017737874, 0.0011650813, -0.0006976914, 0.00036222715, 0.0006300628, -0.0013175644, 0.0008676671, 0.00022243708, 0.0011712423, -0.0011452206, 0.0011407507, 0.00068881037, 0.001757666, 0.0018427115, -0.0017530358, -0.00046323694, -0.0039085904, 0.0012511963, -0.002213073, -0.002542681, 0.00074791495, -0.0011668894, 0.00034056007, 0.00026343798, 0.00043914188, 0.003628254, -0.0013914697, 0.0014287322, 0.00018798019, -0.0007291287, -0.0012748386, 0.0005673213, -0.00035470334, -0.0007247577, 0.0010692776, -0.0027372804, -0.0010895994, 0.0012626527, -2.7432921e-05, 0.0008980584, -0.00036674284, -0.00072564115, -0.0005141108, -0.0011334345, 0.0008226264, 0.0020776305, 0.0011485596, 0.0007773632, 0.0011025938, 0.0010324654, 0.003126795, -0.000420155, 0.0020676984, 0.0036349008, 0.000833323, -0.002083163, -0.00010360597, 0.002146448, -0.0006435965, 0.00033827027, 0.000775133, 0.00028240407, 0.0010238774, -0.0004495961, 0.0007183114, -0.00078964117, -0.00069162296, 0.00012294023, -0.0004750758, -0.002922008, 0.003288973, -0.00049683463, -0.00021859072, -0.0012349286, 0.000826874, -0.002724567, -0.0007727587, -0.0005894459, 8.489183e-05, -0.00014064962, 0.0002652288, 0.0017122094, -0.0015401242, 0.0024793963, 0.0007003023, 0.0006423268, 3.8383703e-05, 0.0005642382, 0.0012532796, 0.00048601854, -0.001567526, 0.00069430104, 0.0021008728, 0.00071028067, -8.802512e-05, -0.0012706672, 1.6194772e-05, 0.00049799256, -0.00066135655, 0.0007384622, -0.00014540169, 0.0025607962, 0.0013771887, -0.001017067, -0.0013945645, -0.0020411839, -0.05821621, -0.006050652, 0.0009964361, -0.41066873, 0.00017899851, -0.0005354085, 0.00029750145, 0.002369001, 0.00026645313, 0.00014161476, 0.04102891, -0.0005394568, -0.00049116346, 0.26648346, 0.0025137323, 0.1638835, -0.15204994, -0.0005046504, -0.2665965, -0.0022764732, -0.0077853967, 0.0009230987, 0.0058446787, 0.00027158647, 0.0018809675, -0.5190411, 0.3863657, -0.5510734, 0.002128654, -0.0031112782, 0.0027450062, 0.0013090246, 0.0004937091, -0.0014100259, -0.00023765955, 0.00045122276, 0.0018316898, 0.0015213033, -0.0019243918, -0.00060273404, -0.00053256063, -0.0013278702, -0.0001221287, 0.0014688909, 1.2521486e-06, 0.0013372812, 0.0019393883, 0.00071616523, 6.2625564e-05, 0.00420825, 0.0012372178, 0.001468567, 0.0042253267, 0.0019708048, -0.0010461987, 0.0005191007, 0.00061708165, 0.0009201425, 0.0016698674, 0.00019666055, -0.0005405653, -5.411415e-05, 0.0007550927, -0.0024632756, -0.00019651992, 0.0033281292, -0.0018858616, 0.001267115, -0.00044620415, 0.00030518498, 4.0972867e-05, 0.0005272558, -0.0005966142, 0.0004540822, -0.0022302652, 0.00034264487, 0.0020361105, -0.0006166877, -0.002624239, -0.0002247626, 0.0010684521, 0.00015413125, 0.0010928661, -0.0026048867, -0.0015131873, -6.735342e-05, 0.0016254844, -0.0006494186, 0.0008114618, 0.0027489848, -0.0001396937, 0.00071379973, 0.0026359851, 0.0009713755, 0.00014937136, -0.0012841844, -0.000408179, -0.0002881945, 0.00211914, -0.00051131926, 0.00074334256, 0.0020255358, 0.0016621742, -0.0007902676, 0.0005601475, -0.001658504, -0.0023857898, -0.0007832629, 0.001179493, -0.0034281546, -0.00063532055, 0.00044661155, 0.0020316802, -0.000119061144, 0.0012903048, -0.0009009127, 0.0005387574, 0.0011626021, -8.688483e-05, 0.7593877, -0.0007325158, 0.00039999236, -0.00024035003, 0.00020712207, 0.00076477934, -0.0010902965, 0.00089133065, 0.0002906872, -0.0009862152, -0.00055384706, 0.001962899, -0.0020089375, -0.0024307733, 0.0040061977, 0.00046179176, -0.00010200415, -0.1441417, -7.887336e-05, -0.061269987, 0.0010314942, -0.0033202567, 0.0012422685, 0.0010691942, -0.0013213366, 0.0016378502, 0.0008444766, -0.00022933434, -0.50450575, -0.00092332804, 0.0012973938, -0.00094359054, -0.0016420761, -0.0024454459, 0.0003880841, 0.000729915, -0.0013757788, -0.0018105559, 0.0032961937, 0.00075777946, 0.0012377346, 0.0012066297, -1.4525343e-05, -0.0008128788, -0.002856794, 0.0021598141, 0.0012435534, 0.00233235, 0.0013003587, -0.0032949243, -0.0009083797, 0.00028333804, -0.0013336525, -0.0019332917, 0.0015576085, -0.0012929806, 0.0021578993, 0.0019931218, 0.0022095088, -0.0031126025, -0.0016143558, -0.0012962989, 0.001065848, 0.0025604735, -9.0954476e-05, -7.626321e-05, -0.0002972111, 0.0010924817, -0.00029077567, 0.0019083696, 0.00011863705, -0.0005633971, -0.00069886434, 0.0014275117, 0.0031232978, -0.00022047531, 0.00070807163, -0.0012986753, 0.00049617165, -0.0026899588, -0.0008937115, -0.0010810737, -0.00174864, -0.0007390125, -8.284615e-05, -0.0022346503, 0.0019426548, 0.00043998501, 0.0004591382, 0.00086302805, 0.00081685674, -0.000722045, 0.00058201025, 0.0015395789, 0.0020120826, -0.0009992745, 0.00059489696, 0.0013201858, -0.0039846282, -0.00063607685, 0.0013475328, 0.000567909, -0.0012842211, 1.4157646e-05, -0.0010695726, -0.0031471574, 8.594722e-05, -0.00255859, 0.0011885989, -0.00040377007, -0.003302806, -0.0025703246, -0.0001226762, 0.0012319726, 0.00034023667, -0.000563744, -0.002463812, 0.0006858065, -0.001009962, 0.0007400442, 0.0006021603, 0.00041823753, -0.001070459, 0.00022450759, -0.6151413, -0.0008786424, -0.00083424966, 0.00233518, -0.0016079653, 0.0023049864, 0.0010633868, 0.0014469652, -0.0024795905, 0.00019921607, 0.161088, 0.0016545423, 0.00017436675, 0.79076415, -0.0010649362, 0.08079024, -0.00016294644, 0.00093644636, 0.00043610326, 0.0032971706, -0.0007748618, -0.0010901825, 0.0034441995, -0.0022884547, -0.008590312, 0.0022728243, 0.0012738539, -0.0006529712, 0.00077876623, -0.000822455, 0.00134754, 0.002471936, 0.0012852508, -0.00075743755, 0.0019352151, 0.0004825382, 0.0019419625, 0.0014611651, -0.0012359663, 0.0008865052, 0.0011480037, 0.0026048794, -0.00048300473, 0.00017049779, 0.0014182951, -0.0024838, -0.00091027154, -0.0011343756, 0.0021159148, 0.0024171327, -0.0012448903, 0.000116271956, 0.0018838426, -7.243495e-05, -0.0015182632, -0.0008878654, 0.0007655561, 0.0012793988, -0.00060254574, -0.00018294028, 0.0024190764, 0.00038002408, -0.0012950901, -0.00044453132, 8.213252e-05, -0.0025591068, -0.0006854203, -0.0014265261, 0.00061984186, -0.0012881835, 0.0023725033, 0.0018309111, -0.00035397275, -0.0015945336, -0.00017288633, 0.00022563193, 0.0013772043, -0.001060386, 0.00041590031, -0.0013242876, -0.0010682893, 0.00053440046, -0.0020348507, -0.0016241417, -0.00028864032, -0.001076016, -0.0009211658, 0.0006252075, -0.0027964914, 3.803731e-05, -0.003738628, -0.00032699498, 0.0008585282, -0.0007109498, -0.00015886159, -0.0014098871, 0.0010082255, 0.00016195443, 0.0006525215, -0.0008084451, -0.0018454478, 0.0014667176, -0.00399627, -0.00075950834, 0.0007746143, 0.002072434, -0.0016191908, 0.00068664714, 0.0020653214, 0.00035494624, -0.0003663628, -0.0024377778, -0.00064017536, -0.0028546678, 0.001769487, 0.0013319681, 0.001025719, 0.0006331846, -0.0008102434, 0.0011647351, -0.000121657795, -0.0010988461, -5.1091192e-06, -0.00205683, 0.0020094085, 0.0009013891, 0.0022487578, -0.0012256047, 0.0031136372, 0.0014590356, -0.00088427024, 0.0013942975, -0.0014385686, -0.0011679237, 0.0029178795, -0.0008189659, -0.0012204959, 0.0021952018, 0.0014236995, -0.0010607985, -0.00079009315, 8.8055676e-05, -0.0006587355, 0.0012958497, -0.00026390815, -0.0013162487, 0.0016220836, -0.00043731986, 0.002004326, 0.00064158725, 0.0017574253, -0.00073235115, -0.002158112, 0.0015125651, -0.00038449594, 0.00039503266, -0.003293159, 0.0013078541, 0.0012757801, -0.0010801095, -0.001246256, 0.00046153006, 0.0007212203, -0.0014997099, -0.0031131972, 0.0018078737, 0.000855947, 0.00088078826, 0.0009334949, -0.000106139545, -5.2061398e-05, -0.0011273893, 0.0015121748, -0.0006964157, -0.0017804257, 0.0009778467, 0.0008891597, 0.0007342623, 3.2289594e-05, 0.0024647922, 0.0012980714, 0.0017788028, -0.0005970273, 0.0021594265, 9.544293e-05, -0.0015057551, 0.0005061443, 0.00039563904, -0.00055672036, -0.0032965657, 0.0010305789, -0.0004930155, 0.0005017826, -0.0018785612, -0.00051096076, 0.0022737337, 0.13063164, 0.15083016, -0.0016951183, 0.00093197555, 0.023750031, -0.0019382156, 0.0003529589, -0.00039173238, 0.00080163666, 0.0005264762, 0.0004827876, -0.19605759, -0.00060246274, 5.7687634e-05, 0.21168317, 0.0025590248, -0.045210212, -0.48570853, 0.00034138397, -0.21907693, -0.0011118979, 0.0018416297, 0.00053012336, -0.5029246, -0.001251475, -0.0005100135, 0.0022508951, 0.0023739045, -0.19400038, -0.11582951, -0.002472179, -0.0009265542, 0.0014112365, -0.002558385};
float bias_2[] = {-0.0053140745, -0.016782722, 0.123177685, -0.08514064, -0.08569402, -0.0065679923, 0.08417613, 0.11034994, -0.04047041, 0.26674443, -0.018390514, -0.016081216, -0.20579939, -0.09761877, -0.10114334, -0.099158265, -0.1615296, -0.12659086, -0.0084343515, 0.22686465, -0.045092206, 0.2699429, -0.0060691056, -0.003618043, -0.03593946, -0.006021548, -0.11039398, -0.18438463, 0.29777765, -0.09520644, -0.14212005, 0.23693562, -0.104072995, -0.057731576, -0.1969171, -0.14614917, -0.013568396, -0.20450899, -0.04236162, 0.22332962};
float weight_3[] = {-0.0024503032, -0.00277076, 0.0039376826, -0.0019406384, 0.002240507, -0.00044154096, -0.00093792856, -0.0023955319, 0.0012994875, 0.06360957, 0.00076549576, 0.0025303205, 0.0024808124, -0.00046031247, -0.00047689618, 0.00032119727, -0.00091020216, -0.0006833791, -0.0012683163, -2.0522249, 0.00064555305, -0.54768956, 0.0015266454, -0.0005624102, 0.0008881932, 0.00056613766, 0.0007671144, 0.0015852972, 1.0061438, 0.00020232977, -0.0016831919, 0.050101493, 0.00066836545, -0.0010882167, 0.7347053, -0.001289834, -0.0010063378, 0.0018081606, 0.0024191416, -0.0070019737, -0.00016814476, 0.00013162941, -0.69823956, -0.0016398407, 0.00015193457, 0.00064972497, 0.6971996, 0.46326676, -6.0704508e-05, 0.45116985, -0.001435526, 0.00051261054, 0.0015540089, 0.002326494, 0.00022303691, 0.0020758235, 0.0009826694, -0.0002850201, 0.00055110396, -0.34182918, 0.0005427343, -0.037041914, -0.0005367523, 0.00054663897, -0.0007594683, 0.00039062332, 0.0012693298, 0.0018127596, -0.079307765, 0.00011730683, 0.0001802064, -0.0037451838, 0.0014504427, -0.0002832831, 0.15013765, 0.0047468827, -0.00021087704, 0.0007469959, -0.0007211893, 0.8203368, -0.0002109507, -0.0024853416, -1.1100341, -0.0020685417, 0.0027845704, 0.0008648228, -0.2884989, 0.25534448, 0.0031141876, -0.4267585, -0.00030374713, 0.0029166352, 0.0006590271, -0.0012930103, 0.00061151624, 0.0021651096, 0.0012954879, 0.00064807123, 5.6764024e-05, -0.4398968, 0.001622624, 0.6706594, -0.00084368297, 0.0014283402, 0.0006546575, 0.001324642, 0.0013372138, 0.00016131497, 0.17876978, 0.0007817955, 0.0022436958, 0.6590249, -0.00021746435, -0.00021375116, 0.36635828, 0.00022977381, -0.0016380526, -0.0004924821, 0.0006627249, 0.37378412};
float bias_3[] = {0.55957514, 0.23743586, 0.30456966};
