float weight_1[] = {-0.00093137857, -0.0006233669, 0.0004275598, 0.18138357, -0.29042366, 0.9982942, -0.2241536, -0.0013703492, 0.48903272, 0.00086344185, -0.0014026932, -0.0018593132, -0.4218597, -0.050307713, -0.9124804, 9.673223e-05, -0.0025198956, 0.0035047696, 3.3516204e-05, 0.0011618244, 0.0006582431, 0.38897777, -2.8834896, 0.4854368, 0.0005628725, 0.00046201222, 0.0019405483, 0.9378525, 0.120916486, 0.49691576, -0.0023863374, 0.002251537, 0.001658317, 0.7526842, 0.38776797, -0.46551645, 0.01885067, 0.049089666, -0.75583065, -0.00076837186, -0.0017109173, 0.0007395211, -1.2984651, 1.2987714, 0.4554325, -0.00038440654, -0.0007616087, 0.00023256737, 0.8482637, 0.38585207, 0.31666338, 0.0008692626, -0.00063529296, 0.00029007977, 0.0010270771, -0.00023607747, 0.0016533271, 0.3929711, -0.25258607, 1.2098969, 0.23672678, -0.46590015, 0.8041818, 0.9199892, -0.564298, 0.55859023, 0.00036765556, -4.309116e-05, 0.0007760563, 0.00039973584, -0.00017077368, 0.00047292162, -4.1799853e-05, 1.1683784e-05, 0.00053777953, 0.000191383, -0.00071032986, -0.0002764163, -0.0005027553, 0.00076487823, 0.00035164345, 0.0016220126, -0.0019546363, 0.0019385858, -0.0011089498, 0.00040750546, -0.00035932026, 0.002378278, -0.0008179019, -0.0006636084, -0.002480226, -2.8518e-05, 0.0004627643, -1.3772146, 1.1413603, 0.32723126, 0.002763673, -0.0007881989, 0.00015459466, 0.27022636, -0.6675692, -0.46878093, -0.0024144617, 0.00061782857, -0.00087903015, 0.0021259822, 0.00026860886, -0.0024078297, 0.00048361951, -0.0006345453, -0.0006408929, 0.0005949824, 0.0015380108, -0.00038102048, 0.0013640764, 0.00022612412, -0.24250832, 0.3597898, 0.81245685, 0.4052978};
float bias_1[] = {-0.05481751, -0.52219844, -0.024340654, -0.007496912, 0.6155944, -0.018306253, -0.038050603, 0.6358942, -0.0095340405, -1.5155817, -0.01105661, -0.16615386, 0.4787839, -0.321661, -0.12940043, -0.06170152, -0.65074724, -0.3267077, -0.43421072, -0.5858887, -0.055990376, -0.39740294, -0.43505943, -0.41900086, -0.16039985, -0.037157353, -0.0068585863, -0.009308908, -0.38821796, -0.15621376, -0.32887888, 0.005655415, -0.4888447, 0.48405784, -0.02874168, -0.01292376, -0.5170526, -0.028777089, 0.11791058, -0.54022795};
float weight_2[] = {-0.0012020769, -0.0005762126, -0.00034514803, 0.00087681314, 0.0027688409, -0.00053494, -5.7854893e-05, 0.002447525, 0.00067784905, 0.0013807123, -9.554537e-05, 0.00090961525, -0.0011591285, 0.0027330266, 0.001275677, -0.0018158547, 0.0025768557, 0.0026012037, -0.0011782645, 0.0017933458, -0.0006280663, 0.0006951086, 0.00045867567, 0.0015477719, -0.0024075736, -0.0015406444, -0.0011473754, -0.001766802, 0.002288831, 0.0009281909, -0.00029507803, -0.0007416323, 0.0019478205, -0.0015841275, 0.0005658963, -0.0003644431, -0.00045908405, 0.0017792416, -0.0013424777, 0.00048013372, 0.002356805, -0.00031469506, -0.0012654219, -0.0006591097, 0.0006981081, 0.00071696716, 0.0034117186, -0.00012902427, -0.0014028442, 0.0013853045, -0.0019178096, -0.0009749603, -0.001392968, -0.00093896326, 6.452273e-05, 0.00055709574, 0.0021460159, 0.00063905737, 0.00082223554, 0.0010963238, 0.000563791, -0.0007381062, -0.00071250054, 0.0028548758, 0.002639967, -0.0013371176, 0.00028396153, -0.00051613664, 6.148126e-05, -0.0010490018, 0.0033775924, -6.0654187e-05, 0.00049647945, -0.00070433057, 0.00030024903, 0.0012592799, -0.0013783626, -0.0014945015, -0.0008659661, 0.0022074678, 0.00029841706, 0.0011108504, -0.0013529435, 0.0008697187, -0.0037425305, 0.00060948083, 0.0013693306, -0.0021999276, -0.0010231801, -0.00391352, 0.0020009885, 0.0021996703, -0.0015325847, 0.00019538845, -0.00023429655, 0.0013967983, 0.0028473192, 0.0012110469, -0.0017933616, -0.0016077317, -0.0018720502, -0.00089734554, -0.00033670658, 0.002537335, -0.0012383404, -0.00078244286, -0.0017435843, -0.00058643776, -0.0002714247, 0.00016139238, -0.00045580394, 0.0011924969, -0.00028744794, 0.0032523214, 0.0014002696, 0.001041108, 0.00123943, 0.0020482603, 0.00017548096, -0.0007005313, -0.00020467566, -0.00027030858, -0.002178626, -0.00079369737, 0.0008113763, -0.0004980081, -0.005384029, -0.0003296386, 0.0033366797, 0.00026010018, 0.0023167343, -0.0015576507, -0.0015370372, -0.00014617873, -0.0015707859, 0.002022899, -0.0011131596, 0.0028661354, -0.0007542088, -0.0023609034, -0.0019731803, -0.0027581605, 0.000863074, 0.00086403114, -0.0034457045, -0.0018189359, -0.00041381223, -0.0010715039, -0.00070721016, -0.00015492333, 0.0008339955, 0.0005018461, 2.1126296e-05, 0.0007885047, -0.0007939575, 0.0010820224, 0.0011476129, -0.00030029844, 0.000358995, -0.0028872394, 0.00067609793, -0.0020804452, 0.0013306662, 0.00035215967, 0.0005900829, -0.0016231004, -0.004275523, -0.00048581208, -0.0016257681, 0.0006784748, -0.0015655615, 0.0008740816, -0.00045903726, 0.0012156827, -0.00080429605, -0.0002713541, 0.0002174867, 0.0026948412, -0.0012462013, -0.00067549077, -0.003114644, -0.0011687034, 1.7339073e-05, 0.0015886021, 0.00045114086, -0.00022503478, -1.2041914e-05, 0.00075980986, -0.0017286378, 3.905115e-05, -0.001822366, 0.00067635736, -6.2056642e-06, 0.00067739765, 6.356646e-05, 0.00084659917, 0.0017928673, 0.0021630118, 0.001635367, 0.0006601826, -0.0002578378, -0.0017279317, -0.00022020191, 0.0006721027, -0.00066934805, 0.0005215794, -0.0019557765, -0.0005561744, 0.0017610573, 0.0013276163, 0.0016515398, -6.598437e-05, 0.0018119426, 0.00045645295, 8.0001715e-05, 0.0003494465, 0.0005314773, -0.0017421898, -0.0010023336, -0.00084935455, 0.00010298006, -0.003934388, -0.00079290336, -0.00017560588, -0.0033447805, -0.0013188366, -0.0019714946, -0.0003659873, -0.002303807, -0.0006900953, 0.0007226595, -0.0016718842, 0.0011374936, -0.00051665434, 0.0006015057, 0.00095839, -0.0015014157, -0.002611901, 0.0008756579, 0.0005657174, 7.678417e-05, -0.0014594422, 0.0010613457, 0.0006618029, -0.0012854831, -5.1592244e-05, -0.0012487529, 0.00028769393, -0.001296233, -0.0014785498, 7.74325e-05, -0.0016824685, 0.0012499925, 4.781621e-05, 0.0014387605, -0.00054760923, 0.00025208923, 0.0017416489, 0.0009862971, 0.00044334182, -0.0001580478, -0.00121185, -0.0009753538, 8.596557e-05, 0.001975994, -0.001816068, 0.00012913247, -0.00020173291, -0.0012519615, -0.0010533334, -0.0015911565, 0.0011713846, 0.0029059001, 0.003079196, 0.0008756381, -0.0006404428, 0.0014171072, 0.001924523, -0.0018307102, -0.00049023016, 0.0006398405, -0.0015050138, 0.00079758, -4.995434e-05, 0.00011265371, 0.00078745984, -0.003202497, 0.0015726078, -0.00015539327, -1.6461097e-05, -0.0022414785, -0.0009529022, 0.0012726112, -0.0007497859, -0.00038484499, -0.00094068947, -0.0007135423, -0.0005249561, 0.0011009348, -0.004220886, -0.0013848953, 0.0005822241, -0.00057773886, -0.0036884448, 0.0010175179, 0.0005768895, 2.1254156e-05, -0.0006540487, -0.00028524775, -0.0008060235, -0.00032378113, -0.0011342985, -0.0009646999, 0.0017999085, -0.0036846707, 0.0007673865, 0.0005973329, 0.0014881464, 0.00090619293, -0.0029093365, -0.001332075, -0.00040612198, -0.002154335, -0.0005575977, 0.0007396132, 0.001135064, 0.0007000381, -0.0013799875, 0.00020360207, 0.0019821918, -0.0013198407, 0.0011774357, -0.0006520799, -0.00030363665, 0.0013301801, 0.0006361628, 0.0011420237, -0.00010056596, 0.0018125665, 0.0005399113, -0.0021572725, -0.0011220194, -0.0005402172, 0.00021437142, -0.0029343609, 0.0008756199, 0.0005060032, 0.0024725539, 0.0021843065, -0.0010470767, 0.0011410213, -0.0013191524, -0.0013628785, -0.0013790581, -0.0010084308, -0.0012863115, -0.0012174881, 0.0007612376, 0.0013060259, 8.521008e-05, 0.0012014637, 0.00052147894, 0.0008009654, -0.0022599027, -0.0012586834, 0.0010379106, 0.0004465968, -0.00046144152, -0.0006913451, 0.0009639112, -0.0001057827, -0.0004728908, -0.00052475225, -2.3906563e-05, 0.0022186958, 0.00022773986, -0.001032505, 0.0006388939, -0.0010311228, 0.0012842861, 0.00044977962, -0.00078677066, -3.4767814e-05, 0.0016873174, 1.6934297e-05, -0.00087409274, -0.0004971997, 0.0012413019, 0.0009236332, 0.000545503, 0.002818192, 0.0013642434, 0.0005749423, -0.0027967237, -0.00073244504, 0.0012370877, -0.001908395, 0.0007433737, -0.0010509097, 0.0041765124, -0.00011404243, 0.00827938, 0.13446392, 0.0011651532, -0.0035349329, -0.0002879431, -0.0026998487, 0.047465485, 6.4241205e-05, 0.00012392738, -0.00031633786, 0.24703333, 0.3207937, 0.00031378306, 0.48164156, -0.00046532555, 0.007253024, 0.00028622057, 0.0013924092, -0.5198439, -0.0012063544, 0.7487262, 0.0021179835, -0.0008125993, 0.00034050643, 0.00033911935, -0.00020863052, 0.0012979496, -0.00082474784, -0.0007251167, -0.0014899501, 0.026075238, -0.00066376454, -0.03813026, 0.000119972334, 0.00086123677, 0.00038311406, -0.0010913443, 0.004159825, -0.00096584536, 0.0017436403, -0.97191674, -0.0007647928, 0.0005270039, 0.0006886461, 0.00043300702, -0.00017157977, -0.8346443, -0.00071670895, -1.5007699, -0.003448317, 0.404361, -0.00044905176, -0.003338077, 0.72417825, -0.000655543, 0.009494514, -0.0010471573, 0.00076952385, -0.16341825, -3.2552918e-05, 0.31342146, 0.0005253942, 0.00019131877, -0.0013016688, -0.00018574703, 0.00023493954, 0.0012928429, -0.0020917389, -0.00047918793, -0.0007228725, 0.73374313, 0.0011621246, 0.0019370194, 0.00092443044, -0.0006595763, -0.00036061413, -0.0016355284, -0.0010645689, 0.26075447, 9.317498e-05, -8.606014e-05, -0.031145036, -0.0020626488, -0.14517769, -0.0021516823, -0.0017213363, -0.16770554, -0.0023045337, 0.0008160683, 0.0008060729, -4.825151e-05, -1.8330982e-05, -0.0029870966, 0.16097121, -0.0003314842, 8.175903e-05, 9.175757e-05, -0.0007226253, -7.577994e-05, 6.5255634e-05, -5.1427105e-05, 0.0007281885, 0.00040611834, -0.0027885106, -0.00070049235, -0.0005157528, -0.0013366133, -0.002157594, -0.00031538185, 0.0021486124, 0.00041288827, -0.0012954338, -0.0013312608, -6.510827e-05, 0.00069600175, -0.0011758774, -0.0020291095, 0.00014036389, -0.00024442922, -0.0020695184, 2.0890904e-05, 0.0019143653, -0.0018108949, 0.0024175565, 0.0024708076, 0.00022245437, 0.002155278, -0.0009868018, 0.0002007471, -0.00073237927, -0.0012041515, 0.00030180626, 0.0014697708, 0.0003120618, -0.0015679704, -0.000121466874, 0.0020117476, 0.0005561769, -0.0019423644, 0.00064543757, 0.001331795, -0.0003247208, 0.00089770445, 0.0022784746, -0.00077040074, -0.0011930527, -0.001296179, 0.0018325441, 0.00057794264, -0.0027328522, 0.0005604192, 0.0023659426, -0.0012908579, 0.0023388993, 0.0008830416, 0.0006958066, -0.0019407413, -0.0024754517, -0.0015795038, -0.00068806496, -0.000832151, -0.0012980716, -0.0009551975, 0.0007593172, 0.002166849, 0.002047949, -0.0010145366, -8.428877e-05, 0.00044960942, 6.6148175e-05, -0.0008690289, 0.0005232415, -3.9862964e-05, 0.0012740183, 0.00074393617, 0.0019335683, 0.0013049366, 0.0032456308, 0.0019310064, -0.00021655989, 0.0022440832, -0.0013360138, 0.0002553463, 0.0028208587, 0.0021597892, 0.0013020713, 0.00077644695, 0.0006876838, 0.0010195781, 0.0005471165, 0.00050858635, -0.0008076625, -0.000835409, 0.00021816051, -0.0024746354, -0.0010666489, 0.0013339869, 0.0011159985, -0.0021565338, -0.0013768312, 0.18436764, -2.8412775e-05, -0.002561985, 2.7722155e-05, 0.0005293729, 0.0005557308, -0.15399508, -0.0012508407, 0.0001433902, 0.0011553097, -0.30801293, 0.12407594, 0.0008481976, 1.1008601, -0.0011542509, -2.044806, -0.0022009886, 0.002061245, 0.00094275875, -0.000108947366, 0.0008129523, -0.003306826, 0.0010913811, 0.0026849194, -0.0014197265, -0.0010242149, 9.225111e-05, -0.00070340815, 0.0012579452, 0.00054781884, 0.4723303, 0.00337833, -0.6238759, -0.003104786, -0.002147561, -0.0009680056, 0.0001140713, 0.00021336973, 0.26896802, -0.00027464546, -0.00069984177, -0.001294541, -0.0024184086, -0.0018091087, 0.0021557016, 0.00024360628, -0.00045239367, 0.0006536129, 0.00057663297, -0.0012903668, 0.000297121, 0.0025543673, 0.0031283484, -0.0018142929, -0.0012615081, 0.00075628667, -0.0010415175, 0.0011250132, -0.0007433995, 0.00100522, 0.0012655423, -0.0010935056, -0.0027478838, -0.0007874924, 0.0016230147, -0.0024401306, -0.002128956, -0.0002488005, 0.00011421525, 0.00068910234, -0.0007689214, -0.0012248352, 0.00076907896, 0.001924524, -0.0018536545, 8.2591214e-07, -0.0013907538, -0.00088734546, 0.00070030487, 0.0017997982, -0.0024641883, -0.00070293725, 0.0017556684, -0.0013146732, -0.00048443174, 0.00012943911, -0.0006622865, -0.0013322863, 0.00071427994, -0.0019324749, 0.0002989855, -0.00049629225, -0.0006199543, -0.0020086167, 0.0010395981, -0.0019580475, -0.0005320762, -0.00036592432, 0.0013966712, 8.649251e-05, 0.00028983012, -0.00056080986, 0.0010704172, -0.0009814538, -0.00087979663, -0.000619524, 0.0019458394, 0.0011770995, 0.00023411536, -0.0004032442, 0.0011286751, 0.000704297, 0.0005462366, -0.0026303031, -0.0013120119, -0.0010963189, 0.0011723721, 0.0004245604, -0.00015017763, -0.0033237361, -0.00059669244, 0.0015613412, -0.0010592642, -0.5304959, -1.3080164e-05, -0.0018587945, -0.33563337, 0.0015240236, 2.5524409e-05, 0.0018026837, -0.0025773428, -0.051933575, 0.0014930277, 0.00029348646, -0.000851071, 0.004030522, -0.00097308186, 0.00086818216, -1.3907574, 0.05140204, 0.4797488, 0.0014586926, -0.0014449696, 6.278491e-05, 0.00055402226, -0.0006957945, 0.000862142, -3.4263532e-05, -0.00076906366, -0.00011810148, 0.4034994, 0.00030556237, -0.00036005003, -0.00051893626, 0.002752689, -0.0012550268, -4.9269664e-05, -0.01950987, 0.0007075303, 8.1376435e-05, 0.0017291822, -0.00045383698, -0.0011848777, 0.00043373613, -0.0013823009, -0.00046798965, -0.0010306665, -0.001999952, -3.245368e-05, -6.060372e-05, 0.00070743496, -0.0012278473, 0.00047993904, -0.0008305392, -0.00030002583, -0.001782991, 0.0008910948, -0.003425866, 3.4182274e-05, -0.0006560633, -0.0029148185, -9.31751e-05, 0.0004802544, 0.0011881945, -0.0005972849, -0.00045026094, -0.0003364408, -0.0020367391, -0.0009570137, 0.00048129284, -0.0011431405, 0.00037876389, -6.200496e-05, -0.00028968207, -0.0012591704, -0.0012401482, -0.0011950878, 0.0014059925, -0.00019464688, 0.0012710998, 0.00090699975, -0.00072649453, -0.0012425375, -0.00066540757, 0.001805686, 0.00034681015, -0.0012740125, 4.1215913e-05, 0.0005306144, -0.0021563612, 0.0013099939, -0.0019384279, 0.0018278443, -0.001762415, -0.00038357882, 0.0009180533, -0.0009688572, 0.00071885565, 0.0011571331, 0.000645766, 0.0008781838, 0.0034502298, -0.0005972561, 4.666199e-05, -0.00047377488, -0.0010346639, 0.0031161024, 0.0025871769, 0.00087168394, -0.0017144375, -0.0013067629, -0.00033543416, -0.00022257451, 0.0016245376, -0.0003026924, -0.0025035273, 0.0006834671, 0.0014009066, 0.00097561127, -0.0017150671, 0.00059166714, -3.467378e-05, -0.0020446284, -0.00090011494, 0.00092873885, 0.0010997144, 0.0011981851, 0.0011025283, -0.0021547747, 0.0005535881, 0.0010992612, -0.00075547834, -7.747009e-05, -0.00019087119, -0.0011109125, -6.415235e-05, 0.0010174434, -0.00027971042, -0.0009054133, -0.0007166183, 2.373493e-05, -0.0005562266, 0.0011603533, 0.0012674422, -0.0023918103, -0.0024866615, 0.00073607045, 0.00044256012, 0.00043182913, -0.00041200477, 0.00200325, -0.0022647998, 0.00015681365, 0.000967487, -0.0012778444, -0.0010543696, -0.0011009453, -0.0002151769, 0.004981483, -0.0005829779, 0.0011287301, -0.0009807097, 0.00086922705, -0.00038206752, -0.00062472717, 0.0012959066, -0.0010432682, 0.00018553168, 0.00032052444, 0.0031007612, -0.0003023796, -0.0005820342, 0.0024941545, -3.339089e-05, -0.00063392037, 0.0009882335, -0.0023368644, -0.00045142323, 0.0009805068, 0.00023709633, 5.638937e-05, -0.00071273895, 0.0015253185, -0.0065717157, 0.0019404923, 4.2172018e-05, 0.0013042616, -0.0002751425, 0.0011559216, -0.0023712514, -0.002328671, -0.00018284342, -0.0007350566, 0.0012430362, 0.00031096686, -0.00057547423, -0.00054252066, -0.0013117085, -0.0018116948, -0.001828971, -9.2613715e-05, 0.000117866664, 0.000466879, 0.0047231573, -0.0018289266, -0.0009054227, -0.32931077, -0.0010627599, -0.0004053393, -0.0006484458, -0.37258628, -0.0024803611, 0.00037886208, -0.036081336, 0.0008911767, -0.00027130454, 0.0007176229, 0.0024181409, -0.0008264806, 0.38078582, -0.0007794463, 0.003145546, -0.00615122, 0.0016263452, 0.00044623646, -0.0010355292, -0.0014257734, 0.0014781852, 0.0012195751, -0.002507805, -0.002286973, 0.0013144637, -0.5162827, 0.0006552744, 0.0012221547, 0.0018932088, 0.005062675, -0.0056372657, 0.19985907, -0.0023075396, 0.00041201143, -0.0012273572, -0.00084564794, 0.0006384328, 0.0019276593, -0.0018141625, 0.0009634322, -0.0038587106, -0.0010183053, -5.3924858e-05, -0.006148955, -0.0008639983, 0.0024238331, 0.0033725137, 0.0013174275, -0.00200315, -0.00067339966, 0.000114684226, -0.0030101018, 0.0007134953, 0.000612117, -0.00036712165, 0.0036484674, 0.00027443556, 0.0025134706, 0.0014721997, 0.0017794529, 0.0047058053, 0.0024995669, 0.0019102914, -0.002149397, 0.0008002948, -0.00086912094, -0.0019167189, 0.0014238583, 0.0016093268, -7.42125e-05, 7.8401295e-05, -0.0011538818, 0.0011420273, 0.0017062116, -0.004268652, -0.0024084914, 0.0015776446, 0.0019407439, -0.000660171, -0.0009233541, 0.00022156752, 0.00012976376, -0.0004886951, -0.00037388265, -0.0012685767, -0.0022504278, -0.0015307216, -0.0017690344, 0.00057441136, 0.0009069253, 0.0016408323, -0.0004454389, -0.00075532973, -0.0018010075, 8.62912e-05, -0.0011949801, -0.0018579778, -0.00018973096, -0.0012982042, -0.00016743015, -6.100023e-05, -0.0011039362, -0.0031199416, -0.0008795312, 0.0015517742, 0.0007654376, -0.0020109846, -0.002462597, -0.0010183465, 0.0032970142, 0.001131625, -0.0012959677, -8.136722e-05, 0.0012566373, -0.0005141952, -0.0010978951, -0.0015410988, -0.0005198866, 0.0013943444, 8.438149e-05, -0.001235971, -0.00045130425, -0.00074541796, -0.00023739843, -0.0014298344, 0.0021756075, -0.00020328863, -0.00088225835, 0.0022840053, 1.7487924e-05, -5.5029406e-05, 0.00091883016, 0.0013512314, 0.0011092386, -5.453662e-05, -0.0008371339, -0.0001811611, 0.0010965266, -0.00094715564, -4.10422e-05, -0.000951621, -0.0018155519, -0.00073252455, 0.00095855014, 0.0014537082, -0.0016326599, -2.4328256e-06, -0.00056958257, 0.0008861157, 0.00074124767, 9.882252e-05, 0.0007711037, 0.0006370649, -0.0032785852, 0.0017818988, 0.0011982468, 0.0001649782, 0.0011434333, 0.00064797496, -0.004818902, 0.0010377595, 0.00047049753, 0.0002722614, -0.0037872586, -0.0009191707, -0.002314912, -0.002245143, -0.00069650146, 0.0017596089, 0.00028196408, -0.0038887914, 0.0022374205, -0.004751835, 0.00022028209, -0.0003250672, -6.620807e-05, 0.00086591183, 0.0030292072, 0.0013254362, -0.0014981469, 0.0012380936, -0.0005238531, 0.0017836001, -0.00028923881, 0.00025240064, -0.00010066798, 0.0011125072, -3.356207e-05, 0.0021451598, -0.0027975529, -0.0023960103, 0.0029551103, -0.0005640848, -0.031066533, -0.08640611, 8.181203e-06, -0.5124678, 0.00025757856, -0.0013221826, -0.21559602, -0.0025544683, -0.67009324, 0.0015346108, -0.14105381, -0.26657102, -0.0012936258, 1.0172615, -0.0002174919, 0.16483727, -0.0005948752, 0.004398745, 0.14007726, 0.21519327, 0.123309255, -0.0018049643, 0.00011091598, 0.0002668308, -0.0007350658, 0.00039980508, 4.5136956e-05, -0.001387564, 0.0027256696, 0.0015309515, 0.18597797, 0.0004104714, 0.082768, 0.0012914005, -0.0023005428, 0.00014426972, -0.0011020049, -0.0033907683, 0.00023830766, -5.7940488e-05, 0.002204175, 0.585793, 0.0013437762, 0.0044156574, 0.0005324849, 0.00069940474, 1.1212106, -0.00014871272, -4.481694e-05, 0.0010411881, -0.07465845, -0.2591075, 0.0005356485, 0.40599543, 0.00056061655, -0.03396444, -0.001972504, -0.0005527723, 0.13859513, -2.7552116e-05, -6.4759544e-05, 0.00063375686, -0.00038207148, -0.0026042014, -0.0021360666, -0.0012002809, -0.0005633822, -0.0037155198, 0.0020112116, 0.00235765, 0.18117803, -0.00090237474, -0.012126057, -0.0004665855, -0.0004813259, -0.0023583642, 0.00032670257, -0.00047782753, 0.0067676106, -0.0007612613, 0.00062939484, -0.002155981, -0.0023860303, -0.0016338921, 0.00012950005, -0.0032967697, 0.001451106, 0.0019457104, 0.0007708306, -0.0010946903, -0.0016268124, 0.0013089966, 0.00043482124, -0.002248251, 0.0019667102, -0.0012218629, -0.0021843836, 0.0015047181, 0.00041098718, 0.0016864608, -0.0024759322, -0.00065050507, 0.0005376633, -7.932715e-05, 0.0006418785, 0.00056909386, -0.00027172305, -0.0009694853, -0.00022885331, -0.00015223245, -0.001309942, -0.006200513, 0.0008260984, 0.002390519, 0.00056563475, 0.00037159404, 0.00013999926, 0.00088840787, 0.0019400885, -0.00084554416, 0.00092239666, -0.0013821076, 8.908834e-05, -0.00031450344, -0.0014729523, -0.00057987194, -0.17284954, 0.001250787, -5.8868958e-05, -0.0012718677, -0.38698074, -6.6368215e-05, 0.00044085016, 8.603081e-05, 0.0024752426, 2.1653228e-05, -0.0014249762, -0.001056008, 3.0106683e-05, -1.7220964, -5.2436822e-05, -0.002429557, 0.0009322553, 0.0028557577, -0.0015062279, -0.001953324, -0.0011567536, -0.0011924973, -0.0033841638, -7.756753e-06, -2.0913017, 0.00263814, -0.00019625413, 0.00033888812, 0.0010835675, 0.0033942817, -0.0016288443, -0.00026799098, 4.936631e-05, -0.004196656, -0.29241827, -0.20815021, 0.0009954325, 0.2820209, -0.001014737, -0.0013207246, -0.8363088, 0.00048944075, 4.2573858e-05, -0.001959787, -0.0620397, -7.863291e-05, -0.00024370331, -0.54331917, 0.0005744038, -0.047410343, 0.004739616, -0.00065480935, -0.043347638, 0.0011204439, -0.6540233, 0.001073022, -0.00036466925, 0.00034513028, 0.0008459197, -5.1179086e-05, 0.0014214026, -0.002071517, 0.00037737726, 0.0012115865, -0.00030596976, -5.3675176e-05, -0.022295855, 0.00060051464, -0.004739949, 0.0022419535, 0.0008708049, -0.006427407, 0.92294645, 0.0010086906, -0.0005016534, 0.002154992, 4.3701948e-05, -0.0007260697, 0.0006668032, -5.5529643e-05, -0.0007168121, -0.0012302133, 0.002217514, -0.000653781, 0.0018140475, 0.0012735426, 0.0008664171, 0.00054780673, -0.0019296812, 0.0014191419, 0.00088735414, 0.002771878, -8.51833e-05, -0.00027157622, 0.0019942587, -0.0031700898, 0.0015779585, -0.0022195429, -0.0010142507, 0.0007636455, 0.0011300272, 0.0018013403, 0.0006796632, -0.0013772238, 0.00034166445, -0.0008641627, 0.0007142947, 0.00050027226, -0.0010325148, 0.0014457209, 0.0005687063, -0.0013060225, -0.0024858557, -0.0006950259, 0.00043544118, -0.0013342872, -0.00064957334, 0.0011413819, -0.0032971743, 0.00013046508, -0.0025515398, -0.004178404, -0.0017613719, -0.001441515, -0.0041776104, 0.0007408141, -0.0002019323, -0.0006034194, -0.0021573529, -0.001077127, -0.00067777064, 0.0015056273, -0.0021737898, -0.0042746495, -0.0019362717, -0.00043173903, -0.00033631758, -0.0010446034, -0.0009734624, 0.0006687452, 0.0001828234, 0.0008939858, -0.003722641, 0.0015242122, -0.0031159306, -0.0020363939, 0.0008863564, 0.0042737564, 0.0047451234, 0.0014613841, 0.0006602306, 0.0013904371, 0.001307752, 0.00037790462, -0.0005772138, -0.00032703765, -0.00398442, 3.6743353e-05, 0.00054757076, -0.002427792, -0.0009863502, -0.0019598852, 0.00024408565, -0.0014338783, -0.00011038454, 0.00059481687, -0.00027122162, -0.0007029172, 0.0004947718, 0.0016894332, 0.00012980122, -0.0008930644, -0.0016154684, 0.0014974278, 0.002738248, -0.0029448378, 0.00087040116, 0.0010747487, -0.0017966732, 0.00067506806, -0.00044334133, -0.0007080275, 0.0007520305, 0.0015084872, -5.6281322e-05, 6.6296925e-05, -0.0013895246, -9.664375e-05, 0.00043935725, -0.00016991262, 0.0012832587, -0.000821108, -0.0009891242, 0.00090522505, -0.0011968303, -0.0019382801, -0.0019474378, 0.00090050756, 5.789334e-05, 0.0007390772, -0.0014461211, 0.00036581594, -0.0001403103, 0.002157543, -0.0006742593, -0.00088016613, 0.0012550079, 0.0009238086, 0.0031180978, -0.0008880291, -8.8597706e-05, -0.0021291245, 0.0002732845, 0.00247226, 0.0007899881, -0.0020466545, -0.0031509264, 0.00012086413, -0.0024150712, -0.0003005641, 0.00030019018, 0.0020408784, 0.0020914297, 0.0027890059, 0.0013008936, -0.00044548314, 0.0013136417, 0.0008860742, -0.0024137069, -0.0024541516, -0.0012924301, -0.0006701362, 0.0025068966, 0.00044376697, -0.00050122244, 0.00025992366, 0.00039569323, 0.00089612807, -9.516755e-05, 0.0024683117, -0.0018013461, -0.0019735466, 0.0011767695, -0.0019465022, 0.0013318734, 0.0006051947, 0.000966945, 0.0016229844, 0.00074968126, -0.0015867278, -6.323372e-05, -0.0003515546, 0.0007940611, 0.00049099105, -0.0010290821, 0.0010043831, -0.0027382204, 0.00038580317, 0.0009479459, 0.0012287113, -0.0010686025, -0.0021263529, 0.00010011997, 0.0010353015, -4.3208012e-05, 0.0010229697, -0.00028684968, 0.00022300589, 0.00049521006, -0.001383107, 0.0013499692, 0.00052169187, 0.0009378969, 0.0041873786, 0.13647082, 0.28889608, -0.00175076, 0.030884862, -0.0009172867, 0.000858124, -0.15602675, -9.4632735e-05, 0.42882568, -0.002128013, 0.00018824138, 0.0044551156, 0.00064054935, -0.040154442, 0.00039093418, 0.0024380889, 0.00033002562, -0.0048045223, -0.73849034, -0.05145117, -0.1140096, 0.0017891192, -1.8475046e-05, -0.0014193631, -0.0002802231, 0.0006849211, 0.00088598457, 0.0017547878, -0.001237961, -0.00026025542, -0.47965485, 0.00091493665, -0.09622805, -0.0011674917, -0.003112767, -0.002611918, -0.0009160096, 0.15765858, 0.76387197, 0.0010094673, -0.0004213833, -0.00087743945, 0.00057511695, -0.0012512233, -0.0019075649, 0.00022286625, -0.0013902783, -0.0024707406, -0.00021398196, 0.00088058057, 0.0013287698, 0.0021613832, -6.171118e-06, 0.00022498821, -0.0011314052, 0.001078174, -0.00644443, -0.0021932137, 0.001411783, -0.0016648883, 0.0018073187, -0.00045653095, -0.0020872126, 0.00020819949, -0.00091746787, 0.0023549655, 0.0021611, 0.0017829447, -0.00016832747, 0.0007890854, 0.0009579104, -0.0008812251, 0.00059830135, 0.0008904107, -0.0008813708, 0.0019149043, 0.0006025279, 0.0005395388, 2.9235001e-05};
float bias_2[] = {-0.023427468, -0.13539064, -0.13873942, -0.06627546, -0.027822016, -0.008265734, -0.0065055937, -0.15355857, -0.050541107, -0.010627436, -0.08290918, -0.12899826, 0.14698744, -0.031216359, -0.08981909, 0.053766485, -0.09872076, -0.0112455925, -0.011335848, -0.15179254, -0.20246604, -0.017635046, -0.06523926, 0.2879904, -0.15198942, -0.15542455, -0.12526459, -0.09471277, 0.42225125, -0.13134818, -0.023195753, 0.2817489, 0.3562042, -0.052258145, -0.09889776, -0.028074326, -0.063266896, -0.13482034, 0.20009434, -0.097477034};
float weight_3[] = {-0.0012454172, 0.00068486336, -0.0013631248, 0.000593784, 0.00047951879, 0.0012436241, 0.0011765646, -0.003999291, 0.00013606221, -0.0005837966, 0.4074853, 0.6822914, 0.2381873, 0.0009743239, -0.00059298123, -1.1865747, 0.0007401841, -0.000117905496, 0.8815735, -0.00023522321, 0.00056144467, 0.00016829633, -0.00070304424, -0.48919666, 0.0022823566, -0.002463412, 0.0010364569, 0.0028461763, 0.6263056, -0.2844164, 0.0019481216, -1.584887, -0.47314736, 0.000613591, 0.0014506071, 0.0009593709, -0.00047161884, 0.0011072801, 0.21551515, -0.0012980347, -0.000433105, -0.00073288375, 0.0020317063, 0.0010796101, -4.1222433e-05, -0.0026168358, 0.00173583, -0.0010972505, 0.0020465136, 0.0021452804, 0.45900586, 0.7613473, -0.10967346, -0.0006011142, 0.00055490946, -0.49628326, -8.3210994e-05, 0.0006559541, 0.37014607, 0.00063515233, -0.00088040245, -0.00046059757, 0.0004598923, 0.5062775, -0.0038240394, -0.0041746674, 0.002343023, -3.07445e-05, -0.07253458, 0.50383306, 0.00064677204, -1.2192752, 1.0130589, 0.0004786749, 0.0013711471, -0.0011450433, -0.0021827735, -0.00032494188, -0.52411145, 0.0013060665, -0.00011808425, 0.00037556567, 0.00026524218, -0.0018035048, 0.0014493801, -0.00078579463, -0.0012100479, -0.0031232531, 0.0016389941, -0.00056025106, -0.47849414, 0.60976714, 0.049540382, -0.001231303, 4.2718122e-05, -0.9292295, -7.737332e-05, -0.0011143994, -0.8952078, 0.003407961, 0.0007735451, 0.0009973499, 0.0033969064, -0.035745725, 0.00018944358, -0.00065717206, 0.0026063079, -0.0006744821, 0.7800482, 0.55855453, 0.002857487, -1.1286724, 0.003024867, -0.00044582871, -0.0005421303, 0.00032320357, -0.0010002874, 0.000539527, -0.6384187, 0.003298622};
float bias_3[] = {0.40074053, 0.050497085, 0.18387324};
